encog,BasicNetwork,java,3.0.1,1,1328916418432
[BASIC]
[BASIC:PARAMS]
[BASIC:NETWORK]
beginTraining=0
connectionLimit=0
contextTargetOffset=0,0,0
contextTargetSize=0,0,0
endTraining=2
hasContext=f
inputCount=8
layerCounts=2,17,9
layerFeedCounts=1,16,8
layerContextCount=0,0,0
layerIndex=0,2,19
output=0,1,0,0,0,0,0,0,0,0,0,0,0,0,0,0,0,0,1,0,0,0,0,0,0,0,0,1
outputCount=1
weightIndex=0,17,161
weights=-0.03129399474400826,0.07310473571577697,-0.023422652988914536,0.05479120510008487,0.006863317261257398,0.16729036518394755,0.08776622769445724,-0.01962857976009945,0.012791655596273377,0.005195299777388737,-0.0026110590082098484,0.07204385552293624,0.05707485050758111,0.054249084232063094,0.04047223801448417,0.04590146637299222,-1.3426588652118743,-1.3578566940162635,0.8537164100934114,-0.45608714118993887,1.1920186380411013,-0.7006042993260205,0.9300729731645162,-0.2982495681762204,0.15576927923569858,-133.57327736798158,-0.5259582930123968,0.3695186598519803,0.5478104613602921,-0.43130642272818875,0.6955100657934268,-0.45548316632202457,0.33468080459855853,-0.6337406950428072,-155.05107280471785,-0.43805533202602964,-0.7740575010602673,-0.2349446607442678,0.08909287405953362,-0.8346039500171856,-0.38688626914821245,-2.102685973039637,0.46565828395404507,-234.13676466472864,0.5784897108224357,0.06900235428325407,-1.0668676242789359,0.21355742387951923,-0.43980756769102414,-1.1515924651231413,-0.24844584299902578,0.5240878191387559,-108.41302358378103,-0.3464219428247602,-0.7916860264600531,0.2845481605795559,0.7086946261288122,-0.4925603698835578,0.5099225967290184,-0.8518532224171723,0.4624523408849285,-239.4758532714226,-1.435841724095452,0.49453749321939233,-1.1671598052476555,0.2858380897894257,-0.33495710080397423,0.5040235814682493,-0.4502765505382704,0.15884222669883918,-207.13109931846776,-0.22640671010630448,0.7374361668901676,-0.6325932898508309,-0.182401026131438,0.6475040382950823,-1.3275891005245013,-2.1633940099577256,-0.20209625800430198,-195.8452392704301,-0.2799498400193653,-0.06911159029446076,-0.7303546846596761,-0.5703255303680916,-0.8007318622482582,0.0005388999732528765,-1.4225447950113632,0.2019942706131531,-140.70621479688018,1.1203846060282525,-1.2708613963172595,0.3673444911338706,-1.1184384516204662,-0.2608547914864997,0.46906318345984266,1.3771795001075406,-1.0731043702257987,-131.63093401413366,0.41874094824493935,-0.513725048286841,0.025810314701129405,-1.8220993354259685,-0.35029187973787945,-0.6673514315941644,-0.17095934659069373,-0.6764236403547405,-96.93126630078137,1.0906645895100109,0.9043288091604346,0.13423072537061148,0.16332297658288616,0.7994422002747348,-0.6587456826126483,0.5943609869840218,0.7925249873224893,-104.36332130033335,-0.5540289358997157,0.21985309124084937,0.21534325790543093,-0.38681771750262195,-0.716323593400506,1.00334029568906,-0.0651111704728965,0.011686564328237503,-136.25699482461005,-0.27988517436214466,-0.8566409863490257,0.8515281699810633,-0.8289857625789814,-1.0553336307281902,0.10975592577902199,0.377254188617823,-0.6000995823319073,-117.05942150625457,-0.16708898435514302,-0.3701095007222597,0.08385574889435726,-0.032715870609757974,-0.2091054757368238,0.6534612914626139,-0.3131627272317695,0.3753091209707564,-144.94702694765013,1.0865695827573232,-0.050178882836355326,-3.1592147196429186,1.2864711126554926,0.8906516889252722,-1.615754438209216,-0.06999605653506247,0.9650467398784232,-132.3627238539115,0.17275258274566138,-0.7828139933168106,-0.8271945745611955,-0.56066501699661,0.2860692871524202,0.09614464528247807,-0.2276957253621426,0.93285995943709,-247.99355130653643
biasActivation=1,1,1
[BASIC:ACTIVATION]
"ActivationSigmoid"
"ActivationSigmoid"
"ActivationSigmoid"
