encog,BasicNetwork,java,3.0.1,1,1329348260225
[BASIC]
[BASIC:PARAMS]
[BASIC:NETWORK]
beginTraining=0
connectionLimit=0
contextTargetOffset=0,0,0
contextTargetSize=0,0,0
endTraining=2
hasContext=f
inputCount=16
layerCounts=2,33,17
layerFeedCounts=1,32,16
layerContextCount=0,0,0
layerIndex=0,2,35
output=0,1,0,0,0,0,0,0,0,0,0,0,0,0,0,0,0,0,0,0,0,0,0,0,0,0,0,0,0,0,0,0,0,0,1,0,0,0,0,0,0,0,0,0,0,0,0,0,0,0,0,1
outputCount=1
weightIndex=0,33,577
weights=-0.036442433402584434,0.2050956764147619,0.25634488300492,-0.07950225091808882,-0.07281827784609432,0.04732967079033898,0.06752617669740663,0.17680470285115601,-0.08145936369371519,-0.056875219709725484,0.294819573716249,0.22600885032603446,0.20077277227546686,0.0797962769817369,-0.04545057401482511,-0.04978996635020391,0.08868069054321331,0.13699883395741505,0.1467279212902564,0.16045948970943408,-0.0614691007170953,0.451381967902351,-0.10891995919021227,-0.06159515058214986,0.020524096068564757,0.1591036236713136,0.008945558148391911,0.0475002563084308,-0.018364181354525985,0.11852329000070293,0.1749995236266455,0.2772744207344132,-2.7097392870145387,8.082577314742045,-11.315803085931437,17.371708303842183,0.2800164498837756,-34.40684381438251,11.670250210305976,-1.9639252971305619,0.04230742345960051,6.781345522136611,2.6669409651469635,16.344728964792825,1.2494338403642347,-3.925308675136103,2.6506327839388377,-1.1286609380422903,-7.2158609779256855,-40.29182645720341,-52.49452071953211,18.18716236030059,-190.11128421993502,11.793172787230892,5.021698531909139,-86.52887953708886,37.77506404982583,14.025059897220586,-130.06467307856295,-37.81655528110166,-65.4887239223985,-20.070928128523462,42.466614199550214,-32.899025726924975,-39.20854355509483,-54.37186885376322,-7.612888079068785,-2.068064651047034,-3.4618883230671944,-5.753986733465261,-4.175589619188653,-8.428614476249663,-2.877806358517783,0.12843270440882829,6.522263600192824,5.2146809971653,-4.792918726606794,-4.064712867473402,4.381213283439213,-6.799098940827412,-0.9619500971379904,-4.311336760043652,0.6282860182134368,-29.334660489276537,-14.09869747532629,-10.285242929099905,-16.04806245626255,-24.372287053610115,75.5029935407348,-30.615647012508372,-6.746631260053869,0.6357127547296614,-27.67535265014569,-23.203711841463726,2.193391644503049,-28.720072508782447,-29.359497916802617,1.4230737555403439,24.71309199183932,15.481282676168853,-136.48266470981721,1.4454380658266974,-5.891839514412884,-6.307450774353875,-9.639795148829156,-7.969992872499533,0.3821056330948846,-4.20869768919537,5.584274900031852,10.792598384134449,-11.61831962896784,24.706375930474998,3.9678899041371576,-25.138876306217416,-1.6762508240116885,-4.504843218029484,43.78393090133118,-20.951709940322623,-23.60097599164309,1.2324185797976879,-6.838879183129947,14.965507921192811,-15.72291575024893,3.310253128773938,3.3130060685727307,-1.071436365884778,-27.016518773728784,-13.098386510791354,8.897166916446407,-36.39618267929956,-5.722247091832219,-67.69975345221835,0.41625013208388456,-1.0097756043061639,-166.04548238570342,-4.974929806962797,-0.9461394542186616,-1.8729916583958144,-9.929016399846878,-23.285020714925775,-4.035477221176314,-1.6412583249926278,-1.0118437623599295,-1.620711538470138,-4.478223499024729,0.45002331025485454,3.2191782684791512,4.003456393425129,-1.912609718171545,5.601770967346145,-4.666856290962282,-67.26196233468296,11.390227117339956,-10.039872695305998,1.3517594882807071,-4.896225339183193,-10.940727644125827,-0.856860853730146,-4.204781869998229,-9.003551985369407,-2.111788106839197,-5.774840454200426,-10.001691421591241,-2.491140771804546,-7.10378691490964,2.720233312514276,-6.610767937493197,-9.591587442223355,-74.11495429557148,-42.4566889109338,13.306217596820693,7.396970311732023,13.175181026513275,-1.8902073878550072,-10.50016114375899,15.582229440129533,5.510474241747868,-0.7364782369318691,-1.810045310905281,-4.025408880953737,11.545458739709941,-4.695604496899127,-11.590446864665392,-7.786231480110533,7.33447324621939,-38.61668944716001,5.556709523973317,2.5360994298273174,10.993128723499215,-3.6914307400919264,-2.508338771725841,8.594108973863385,5.2014080869831885,6.496011811145628,5.7695941886783935,-2.0102358755493985,19.32007352358006,-7.561421695164208,-4.872719694877246,-1.7435466699798277,0.6407926998444207,-11.030104090652356,13.112396116324943,-16.77139798699476,4.401268391654995,-23.724275031939506,-5.698492916829295,-12.735369803113093,3.528777555093538,-1.756217304661494,-8.246923096688022,-20.514678769550528,-3.2110150522628538,-3.2488719271697275,-35.64653814920315,12.237022834602216,19.799218652730737,-24.251680505900215,-12.677953550301039,-83.71415313668669,0.7472010061974232,-1.7707967947000276,1.4023061457372321,-10.442723894315423,-10.234960635741796,12.063508261886172,-3.261226619483343,-1.3816646541857758,11.236269162861792,-0.489388223833647,24.730334189041802,-2.382051219680517,-4.8996980850236636,-3.625627727770131,9.898075344952629,-4.208288670162522,-15.080270285777312,16.221991310555143,20.737212131663885,15.527638451531292,24.828004889687087,25.531383176478798,14.809088890881448,2.5431305509002167,-54.51599039714206,1.4141365978862712,17.615649172786398,-700.2614305173139,10.000397115282077,-1.4291915195162272,42.23973785394419,38.53963835501654,27.443812817364087,-43.18235055485942,-8.645429200602477,79.01272079099293,22.951638138858268,82.93895746248403,50.50484559244533,13.012139211181642,9.504587082230955,15.339824710302734,0.8429285807571048,86.3990860772852,6.956348101734711,4.588940290129317,3.7074910916445605,1.109618142408461,-1.590034485865013,-8.004078919105744,-95.02607912200058,24.01744643529781,23.791885076468667,26.25578606760049,18.967814742533946,4.907906294088346,24.642159299743327,11.930708020245298,9.20357679088852,11.693731255380357,17.798990579049388,3.4367451215784333,12.13636316834278,18.502279821481128,22.99377664509014,13.885142283510175,15.816397959884346,-27.653153902411443,-3.338622503580219,-4.886521983016112,-3.2922542530976227,-4.792518857570993,-10.825929523220587,-10.679227771968687,-0.9374358012198322,-8.287711175731268,-5.730490855147105,-6.29435002472657,28.86414998973284,-9.763490198532615,-4.606594778020473,-20.290341225081008,-10.187477155923272,-2.084588454416541,-147.89252975305186,-3.6249351839020894,-8.129180386949647,1.8928086541530076,-6.554917226856279,-15.257570696644168,-3.473778739701395,-0.519655448768131,-2.978560268476036,-6.136709810919752,2.7731690867215635,14.187391837554056,-2.2040203769016133,4.6955439901889315,-7.043987886930949,0.2069232659558602,-3.8485900106513187,-94.59491223908009,21.64367442036756,23.15294118728886,29.871283262774725,17.451624179307654,15.89191533195632,37.16389249318845,12.156356871147421,18.18683656252515,30.05379356711457,20.243445004701744,33.57992820118254,67.11803203912993,17.608445564650328,29.603978147397203,88.01461336685837,31.74694760330907,-25.99441762351003,-5.5191878208487575,13.019280243322356,5.367306080035488,13.947781640111666,8.370630239399325,-9.59128569216167,1.6015317439769328,-10.868237007898086,2.610493763647958,17.156435668872117,-5.353958132524899,19.57512545247981,0.6061687985071822,1.1893800307323665,3.7070563801320646,2.7062027186975373,-44.694087898549725,17.382571586817427,4.987544996338508,21.00734291533466,-1.2715656981998957,4.15599151476638,18.472916144419955,15.295096589528422,8.559006592726313,13.78651808684763,-4.3320786508035525,24.314004954736934,9.771050639570067,-3.0828542217533417,21.47337343268103,-0.3692800242392111,1.7618542381369482,-21.886725250325053,0.10853070510500924,-4.928986732426492,8.517859223675922,3.4038292619557486,1.5069764271801704,2.159132279143044,3.1564421214903375,-2.94148705869261,-1.425675719610348,-3.1787196508786146,-9.11328576311842,1.5509086019760037,-8.89164623631297,-8.078516670497086,-3.0583294360311415,-4.133307356288015,-86.56361958293337,118.20070108387216,27.740938058075212,33.80895167431849,79.31735488758463,532.8138695104077,44.14545747973501,19.738959060029913,59.957410179028486,33.511304192020965,15.005671367200396,83.89832935628611,29.64873732830118,14.68013506685297,23.6553234680032,19.918546286139833,152.4444088628499,810.0645798702511,8.015627140411844,0.846643660489457,-10.713524665407702,3.6364912681893307,-11.30394191824304,7.055707871918504,5.61964910814793,2.8077179838573163,-5.19096746043971,1.2012171286196718,-23.34554813806897,6.826905884760944,5.147590523906922,-5.657200813101241,-7.5688766400850565,1.4171242656822949,-68.99984675486797,-14.899188031868686,2.2762171955093846,-2.0753492644049096,-10.002299880255249,-25.434531298908304,6.082246399216801,-6.4481846909033464,-3.129004092003003,11.378817426440298,-11.518738903635164,29.794652014091547,-2.3001745033182126,-16.46425367593604,1.3501910804948183,-6.4318643961021404,-9.305634704906172,-22.67652286533545,-14.346976562268138,-2.3437279124171657,7.566768781921814,-14.0943935896284,-8.047879375096718,7.721059128141708,-15.61958051293761,-7.796877882506903,-3.002856156427859,-10.637388187992125,-4.034266812925378,4.595664025010212,-3.8123308094893114,-22.75127695561506,13.881778082645788,-7.311705754176339,-81.6582971174894,2.7083205358878852,14.175395803427257,10.439195118614427,30.155844279245162,17.01039635859741,14.761154294874391,5.4463057531487875,16.45221096598244,22.451577089991428,4.957534164428446,23.507305374685956,28.09760467757644,-6.309032304910198,5.341214936215801,1.8394595859749583,-2.4931669763942614,-76.48734467119192,1.3604733160336704,-2.0798677611480763,0.12423310565601464,13.454712635278401,-8.430808522187451,-5.50202828449493,-19.10616314309214,2.4067249166287485,1.239441563987272,-5.600715048120136,-23.694816929548782,7.939039601780302,-15.008853532653712,-3.028608057148912,-2.860402558676018,0.8559310884615146,-102.43905266086877,0.37535978204696696,-9.042949632308254,7.871129592889239,-8.264884644078162,-17.32498023891545,4.584517341026269,-3.180404034781699,2.723914326794463,3.831428242976616,-0.5253445319062154,1.234756303085828,-10.927023212667864,-8.01241856928814,1.466765237551749,-0.5677821641640683,-10.914178806370659,-82.81995139261734,13.733548021431089,10.728197049122135,14.370368056490072,18.180673412510384,-9.738247564217888,1.4418560054825176,8.558607368037434,16.63740087346249,13.292930382282242,33.02371325402109,26.190603161693506,10.371925669063794,49.231382580411456,-7.954775173195441,8.81359986310877,56.338067375124766,-94.52834393396306,23.412364349964434,15.61230116438624,25.24252570937687,17.339143566336315,4.856696971171497,13.820803491875632,3.338538472483725,8.055438680389004,16.107922575723634,3.7166703338328086,24.344081730226378,13.796575440587178,3.4381335466903757,3.391625643147353,13.77725088715498,19.43941812421512,-84.39984785991794,12.105421505455878,1.9269465742766057,18.101059833531174,5.482698626428987,-10.958403959590587,13.156821104287898,12.032797710618969,12.882651127062184,8.364550861007462,55.9467089533113,43.20451764195773,4.931595227955067,45.33569616390014,-0.06018911484428686,13.604326143007222,52.130321033585986,66.50007987246828,10.72358862309916,-4.380201482681212,-25.87115650851537,4.326609590005363,-14.894561773619511,-55.82872528562441,11.341776011469088,5.486289939247121,-28.177498422414345,1.2245121999531314,-20.420690564426142,-9.251326479739472,-0.5516796603061194,-14.166254744349448,11.288315738615735,11.717451018728257,-90.27833985770013
biasActivation=1,1,1
[BASIC:ACTIVATION]
"ActivationSigmoid"
"ActivationSigmoid"
"ActivationSigmoid"
