encog,BasicNetwork,java,3.0.1,1,1330650891567
[BASIC]
[BASIC:PARAMS]
[BASIC:NETWORK]
beginTraining=0
connectionLimit=0
contextTargetOffset=0,0,0
contextTargetSize=0,0,0
endTraining=2
hasContext=f
inputCount=20
layerCounts=2,26,21
layerFeedCounts=1,25,20
layerContextCount=0,0,0
layerIndex=0,2,28
output=0,1,0,0,0,0,0,0,0,0,0,0,0,0,0,0,0,0,0,0,0,0,0,0,0,0,0,1,0,0,0,0,0,0,0,0,0,0,0,0,0,0,0,0,0,0,0,0,1
outputCount=1
weightIndex=0,26,551
weights=179.29819889684958,0.09300026141114065,75.8083398631623,0.018708793001984386,0.4078399055140113,265.90973671648425,-0.08483704058778059,0.3824528180603789,0.024482050809304018,0.3663623332486792,0.011090512825075671,0.21536776292243198,0.3960160516996196,-0.1662942549683118,-0.0483675029392603,0.3751103764652607,-0.032146982171571054,-0.09655505485669483,0.014600621536743824,133.5540081483226,-0.17761521600415567,0.10604283749703453,0.04262780682904057,-0.16400161941726749,0.3814214931873451,0.05762225674069223,-10.152769115515017,-10.05389370600797,-10.061696441580235,-9.847356944165535,-10.037456886188927,-10.117291759471442,-10.006603789831225,-9.903402609132176,-9.92187757129082,-10.021730227247124,-9.85316340310667,-9.94254566451334,-9.943523425739832,-9.83754432334758,-9.769588078197911,-9.845068569214334,-9.72882704659398,-10.17301655115076,-0.20782420084179104,-0.3350235879849441,-10.365109716045925,-0.14027943865205045,-0.3635923093353436,0.046242266361196764,0.12773032329094924,0.0317666550024219,-0.3634565832207389,-0.08578728875289093,0.12029996499618295,0.1841732719217829,-0.0207218369541452,-0.03324780955344897,-0.28216351847481574,-0.08886309695592584,0.06694519976753133,0.1158373128642326,-0.01901859405898776,0.07528994283109713,0.22198705121486162,-0.1869250390926377,0.15487222449885713,-0.33522680022966805,-10.335984270081573,-9.975618576413224,-9.929522619882421,-10.375731083814737,-10.375662170148088,-10.315227935610556,-10.023546082055198,-10.319339645319287,-10.004386613460536,-9.979765043984864,-9.975212288922327,-10.250211077190608,-10.372635565338523,-10.269079290479054,-10.345018127768519,-9.88644973047709,-10.259472936484316,-9.960191348673934,0.20531967746930058,0.13472966894227636,-10.041473744751952,-0.6812710550907607,-1.0541176458115462,-0.9572575134463616,-0.925658514241876,-0.5993279048735901,-0.49981421366259526,-1.069953838287066,-0.8471406190201829,-0.8936477006013356,-0.47750321683944263,-0.4861068868870061,-0.7968197026907038,-0.845921579440993,-0.7710330290786901,-0.5683745031949321,-0.6101803211663411,-0.7956172398601906,-0.9404786405533453,-0.0501541240301202,0.13779346217664973,-0.8646265603689893,0.43288209407526845,-0.026330891922820315,0.15690622645520547,0.25355565269920877,0.07697642198304666,0.016529004974356526,0.018081383016288283,-0.019583270873606645,0.12258668589383426,0.10903996871299682,-0.05798712861541164,0.032983619277724224,0.5105806446926127,0.16861847362721005,-0.09252519215273589,0.4012331656212659,-0.016644563993979927,0.46783350930731565,-0.07751498710864835,-0.08977328338149529,0.2759500384778353,-10.157190987912042,-10.306628874875969,-10.131492788777049,-9.920028560068907,-10.31516577226303,-10.294861873033598,-10.188946269150854,-10.300077670168735,-9.867269058181671,-9.85606180256235,-9.882929476713368,-9.851296362629487,-9.904284304680662,-10.136841987029635,-9.920155753944613,-10.285068408717649,-10.241725721480952,-9.815728091699743,0.05829971519608904,0.16534818537561877,-10.019162859911255,-11.113384910033634,-10.656026637223881,-11.102904103522258,-10.764285771384456,-10.69882128482193,-11.00086768852304,-10.99930722575296,-11.081657198348372,-10.660738946306726,-10.988179360397025,-10.633207796788076,-10.604478158335862,-10.676786412236646,-10.92111841180387,-11.020109424364735,-10.700022956549544,-11.03828908630567,-10.71479339230941,-0.16899643704973175,0.10371356674440643,-10.925831928748357,0.10869333191732211,0.5123058271111699,0.22514464090692785,0.1825567734445711,0.06932702325665685,-0.1521044541761573,0.4895291518051329,0.08813814208720744,-0.03521530372826273,0.33656307146716014,0.2156982788226085,0.26045949779039534,-0.0002779130571869959,0.13926726900094644,-0.062093470298361625,0.27281915919758404,0.12152797389535813,0.22436857007593058,0.1955270982192217,0.32143394381058293,0.2557761951413464,-0.6670682433008498,-0.3097475678043882,-0.6242878363945097,-0.4356076626104697,-0.2512472171719144,-0.24046744239928902,-0.33266062552490133,-0.3394840043708905,-0.4676225471226815,-0.10358083312921532,-0.172547388719892,-0.22484065837127937,-0.13451653180848566,-0.40873397747443574,-0.6432039913103215,-0.10437874398148464,-0.15018788120993487,-0.6134588541343271,-0.18876756859519653,0.03581503667215677,-0.39724943964887893,0.4329843049111348,0.11314369709413113,0.002878683085030531,0.11082768014871763,0.4256325881520435,0.0734653097877257,0.3894731394772484,0.3396800396927655,0.27124988939242656,0.238637414443811,0.45591977418573054,0.06757257836372077,-0.06615866064025386,0.22375916413871666,0.20773788846719932,0.28246507387478026,-0.03520192545792564,0.3809651626677252,0.2604478501649934,-0.03767604592173192,-0.13213050227074177,-4.0045988404811546,-4.345258832518927,-4.097197693089847,-4.40327245731142,-4.421915153895943,-4.450404432545506,-4.224165587890603,-3.9439360727047528,-4.026467238276568,-4.144762104713692,-4.265657425125557,-4.293344469558983,-4.172680966462429,-4.158203532778614,-3.9877882332400723,-4.316809614118818,-4.4760147082045965,-4.322101833683267,0.25639138177837156,0.2679347340181335,-4.39096425452713,-1.1364742203798042,-0.9116791163678141,-1.190163601534351,-1.097388836584704,-1.150166326760843,-0.9269420959404353,-0.7868410275616252,-0.9800844330140638,-0.7216254076275473,-0.7266907169810499,-1.1205202859955643,-1.0371631191646393,-1.2406081191220937,-0.8088072431254006,-0.827542063485876,-0.776937509701232,-0.7397346206448584,-0.7323622673690932,-0.2255795560306555,0.1519429604964913,-1.082004456023762,0.4237342962303816,-0.024890698496802005,0.005844274734869426,-0.07392602725537276,0.23458916517649395,0.05918320073950014,0.2556666959001732,0.36549742435841215,0.3708047878391013,-0.002325089686935178,0.4419805972678976,-0.07193058209409595,-0.006373258477780891,0.3040237066521222,0.3653302879113025,0.17251536084992736,0.21961512978140107,-0.0006776078150131926,0.26649525268146634,-0.17803318281569644,0.18758326391559066,-2.7516504061007936,-2.3313282725439555,-2.363271524080341,-2.6903299930064586,-2.311464893441853,-2.627856047427466,-2.472201460882059,-2.7847990899992743,-2.628039120565128,-2.763638100337836,-2.5825082309926906,-2.541410578629205,-2.3302007964200513,-2.7104788234712878,-2.3899289331587985,-2.815337987788733,-2.2890786564002727,-2.7394015595437935,-0.16363063971549377,-0.12928683550478037,-2.4142441000079558,-3.5998291605917263,-3.6522161561143456,-3.7719166908188324,-3.8973705506598812,-4.072111253566488,-4.09400154364761,-3.7613992151053735,-3.4655636763749653,-3.929232607284758,-3.8547149895423707,-3.9577005430148633,-3.652647974051872,-3.625133738383914,-3.8586131736786515,-3.6439830906084394,-3.8393023780888114,-3.8921081928934362,-3.7627417067129265,-0.06044701731396073,-0.3275163557946547,-3.5017145223845514,0.0038312216763956575,-0.19806662831802552,0.20095012738341023,0.38131150174164075,0.35317203177184797,0.29564500021042717,0.3596194997554345,-0.03813708088094844,-0.130869520084309,0.2827466065307388,0.14003795298542077,0.09070188384062217,0.35572875816786,0.14730538605791282,-0.109956832752063,0.20662893296650164,0.32588267053430575,0.27794065886561303,-0.03599135542086799,0.22681532068028573,0.32696155196916243,-4.027841462178324,-3.863455573533568,-3.9558769697541063,-3.729455262890146,-3.656426463958651,-3.849001885686094,-3.8641404684856835,-4.00726583633431,-3.789077826781167,-3.515793854095148,-3.527046575727515,-3.9392063787477247,-4.05933205020962,-3.7117244561591853,-3.970358376020288,-3.9108740572727068,-3.7412580199334347,-3.6282070652250384,0.27997864637448083,-0.2504934646662409,-3.8016219474937754,-3.8773542868053665,-3.928930325523329,-3.78423288030006,-3.7895408652292324,-3.592183630979091,-3.6511973172876284,-3.560523909303526,-3.506809865015317,-3.5098437798267548,-3.8961144095002105,-3.531602191833198,-3.804412624613121,-3.9738339184357043,-3.8110057730741187,-4.018707060236095,-3.987205023571899,-3.9211555001316936,-3.9062962606802025,0.04752216738293014,-0.29010508911780586,-3.537101316396446,-0.8182323589193767,-0.7802328090671972,-0.620013436350007,-0.9490198514524708,-0.7304802935428165,-1.1109167422212622,-0.9850775418198994,-0.5224869113213437,-0.6446013589924255,-0.7359310339623726,-1.0171579827583193,-1.0907706029799353,-0.9690962992096513,-0.6640093675690355,-0.632596192116847,-1.032410616943554,-0.6569116715840885,-0.5892325047268644,-0.048215912645085936,-0.21552651271553522,-0.8774985509887478,-9.719316896963669,-9.867324136966111,-9.937070882982523,-9.887458040603232,-9.88754170567861,-9.929689443503163,-9.870609268639694,-10.33188621256949,-10.157067157507568,-10.262785993879001,-10.26362337983595,-10.111511957275347,-9.857896715066964,-9.764345745262174,-9.937801287311332,-10.157139392897468,-9.855722932957296,-9.991341795051717,-0.09774116635221132,0.22528465253945953,-10.231063673963956,-2.812536513338684,-2.6201115401434167,-2.7497943782050607,-2.4916772921128105,-2.6815572048128207,-2.563148647979693,-2.6759739084597456,-2.777288391502357,-2.3997189486591823,-2.31204132799052,-2.7071735756979294,-2.6594821941833207,-2.853796431393917,-2.57516151046356,-2.210074146871256,-2.8842084435813593,-2.791874773427378,-2.6654574137056866,-0.09692093102510028,0.03168328385993368,-2.799402928160352,-0.3840288368368373,-0.058682314594871665,0.026587342924509955,-0.1578536763019961,-0.2101269255855543,0.1567248008565063,-0.10042291363453112,-0.0634184896032535,0.24210710396917665,-0.05618163140121732,-0.28804100410054984,-0.2090706991812083,-0.04208718473676626,-0.06787886729763079,-0.013005204515007918,0.12156377456061279,0.23141753898994052,-0.14641396173165083,-0.2969922607114333,0.27123000620191534,0.09891107788077136,-0.1790146629028591,-0.2642764162987656,-0.2246188690547714,-0.3762236058741425,-0.2476326315575061,-0.4893467915133751,-0.19163270884761846,-0.35547553571025614,-0.6196406847645415,-0.509920272447982,-0.24871962770380357,-0.4613349813516676,-0.4350654577555164,-0.5739035155686667,-0.49498755293164276,-0.23882779231797674,-0.5104235732181385,-0.5030149618605665,-0.3166056085536035,-0.3043988745559747,-0.030118770880379536,-2.2055762299804447,-2.325970016099129,-2.54711916191862,-2.5561348345466905,-2.2465059543187573,-2.7886963821068145,-2.522262491386062,-2.528291219001086,-2.478168168631365,-2.327426422281383,-2.7468303340950833,-2.645285229411644,-2.7558662462303447,-2.396483958881859,-2.8348909961367807,-2.7388913750028676,-2.821275148905686,-2.8620000709742657,0.14418856776898006,0.17766891630681933,-2.705558413956587,0.18165365502725217,0.49931416031702747,-0.020318396777188247,0.415400014157876,0.42790300392512925,0.24348991270048967,-0.13933953653064537,0.31949101746812747,0.15136574525273294,0.5042758413238493,0.12914330138389485,-0.010316289250994343,0.06301949940193666,0.06229230057986115,0.21411110949922618,0.21276759496613074,0.10002733118942203,0.44758819907903435,0.16265202068285206,-0.08631038140007136,0.21049704815780912
biasActivation=1,1,1
[BASIC:ACTIVATION]
"ActivationSigmoid"
"ActivationSigmoid"
"ActivationSigmoid"
