encog,BasicNetwork,java,3.0.1,1,1331256000217
[BASIC]
[BASIC:PARAMS]
[BASIC:NETWORK]
beginTraining=0
connectionLimit=0
contextTargetOffset=0,0,0
contextTargetSize=0,0,0
endTraining=2
hasContext=f
inputCount=20
layerCounts=2,26,21
layerFeedCounts=1,25,20
layerContextCount=0,0,0
layerIndex=0,2,28
output=0,1,0,0,0,0,0,0,0,0,0,0,0,0,0,0,0,0,0,0,0,0,0,0,0,0,0,1,0,0,0,0,0,0,0,0,0,0,0,0,0,0,0,0,0,0,0,0,1
outputCount=1
weightIndex=0,26,551
weights=0.017383596027115755,0.16345708325773134,-0.20530948675921346,0.10098046465651789,0.07004009553627721,-0.12044624764361744,0.18604288915474554,-0.20485808923737792,0.19117149252453414,0.06071769391500986,-0.06777353575034745,-0.2247413386532947,-0.20740247698890568,-0.3383118839561338,-0.27117097816529057,-0.1260299224287032,-2.0982517262293983,0.03226983795637248,0.025762082772416844,-0.27816141684207685,0.1833909752613806,-0.20389618819699973,0.07638240783529576,-0.29347619097057487,-0.12730956633669063,0.03769985814877361,-2.6470055568951625,-5.856902208699558,-2.5871413746500624,-6.141812391614361,-3.6738707120448466,-5.689904250362383,-5.058133960678401,-5.659791917072465,-9.213035295904037,-6.06765965072078,-11.841095315568548,-6.085805306925081,-7.274734595215037,-5.713604829762791,-4.107746527667697,-5.941753464917286,-6.10514715451827,-5.916775603533794,-0.21542527347408988,0.2538525048845464,-5.691400043427415,-0.036049187074858186,-0.3553061429175659,-0.09082448168869062,0.07523699100954123,-0.35011020639075763,0.16447602724310384,-0.2537593867972566,0.14258895045261016,-0.35472834494920524,-0.1457710053926491,0.041784247841874594,0.031302884161998834,0.011086870543091624,-0.10561080333449141,0.11524681895251511,-0.1170829882169242,-0.4805712663088748,-0.3169287883725405,-0.25623954239526325,-0.2480839658416381,-0.26474380471391545,0.34150509535499834,0.3566870157117792,0.3703466772482361,0.24588548506485763,0.30066288691717813,0.033411933987018916,0.12786163068601383,0.34988821367397566,0.2619903902249068,0.2375430671366045,0.36151967004983565,0.25025010170170126,-0.05841135085309008,-0.20093491351077508,-0.1281126190254539,-0.058089237708551796,0.4101457102703415,0.2856841739140283,-0.07603188906445346,-0.04428318173256531,0.3005347074756024,-5.644115243174392,-0.24630334071725568,-3.0240439322859283,-0.47876142178199,-1.2560407878645181,-0.27138899793896476,-0.861778696309653,-0.5394357680149314,-0.7540954257749835,-0.09343160608201334,-1.0531915683637982,-0.4506151656088059,-0.3812761636653724,-0.6820659594577879,-0.5444067685951735,-0.2330096821745558,-0.7720030290370588,-0.4261486686105401,-0.2701032558689462,-0.1495612412446585,-0.06755193053487012,-7.57064711572098,-4.674837509174327,-4.987862152719387,-4.886428915567291,-3.1768962515901715,-4.70150004466957,-1.5358013367896628,-5.037437239654993,-1.7878603967902633,-4.798124557043174,-3.806622952528325,-4.874618578790097,-4.804569343778555,-4.512966792267948,-3.7194793732429234,-3.9633529783150623,-3.3748164058973122,-3.45081619916044,-0.22139630658992843,-0.12619274756922866,-4.54760105504752,0.24212931444083352,-0.16741267634762003,-0.05130451842940445,0.21723855364912958,-0.09302399165515696,0.07799233324236354,-0.20195877328291856,0.03734650560214578,0.2505200920116212,0.12311780363390779,0.1918772973735926,-0.04190496330206464,0.08002759213122457,0.023316900658862466,0.03754848188562809,-0.05147232464430554,-0.05530078898672741,0.33597680301419997,-0.08018478293640563,-0.365002990667623,-0.17360677419525794,-0.32201480334824245,-0.11443626994013589,-0.4508534485811244,-0.200428913438499,-0.32546030413380467,0.1511135620162659,-0.15717702242444004,-0.18398880707705256,-0.058994558734204824,-0.16722741376904704,0.22668868335117723,-0.2564787013526283,0.01209092021381408,-0.09179777528185529,-0.26104365082354997,-0.33216063296871756,-0.43840429343561693,-0.20874334004612277,0.24817239576489636,-0.009101836585391041,-0.42598967476190297,-0.03785061287989752,0.003862012598220582,0.1101159338725709,0.10145546591139731,0.23930101340785037,-0.1318990724990537,-0.12147519715164357,0.3522176191780291,-0.18105369969057672,0.2224933164782248,0.23886398642558293,0.29814488116522897,0.34766724223514794,0.31976193792970886,-0.15934421833671908,0.02542776937431146,0.2895021135576194,0.37658878222806624,-0.0853219344120321,-0.27521128461211597,0.18564463429321565,-0.16210409585683516,-0.21191739396625953,-0.1499813981259424,-0.1872236627123548,0.08143965536965075,0.20374205790067923,-0.3658778966656079,-0.31719438974618863,-0.13712309174004408,0.11867062012056946,-0.184694568356767,-0.3724002287431031,0.12344005199909647,0.013762659498028627,0.09811473874865423,-0.1351957286691892,-0.41151889693599963,-0.054057446528764,-0.20891688965146965,0.1750923015186716,0.12006510947158272,-7.944075385467668,-4.752965853827098,-7.045842718993603,-4.933989919813555,-5.587226059140871,-5.066301522116765,-5.379801326470575,-4.642818686360981,-5.042053457236426,-4.647724729136257,-5.617311045826913,-4.598196521176339,-5.082569521262595,-4.7324928463619536,-4.239749077482372,-3.7089515410532155,-3.6495433220258433,-3.687013427618567,0.08946150499445528,-0.19086569533881706,-4.7083850453741185,-2.6858938066105176,-5.05160756506388,-4.88341041515823,-4.904851279261778,-6.755686906988338,-4.829028712080811,-5.59171493588733,-5.082151653302322,-5.413413223817324,-4.747168670638897,-4.972885769654509,-4.812642967720961,-4.653985751842198,-5.084244886069689,-4.001699826082673,-3.9630699538687013,-3.542670830954592,-3.6948624679272277,0.2393555273728714,0.1310716861018836,-5.04402464674368,0.18945462961368675,0.23376280839358415,-0.1340731461454649,0.30342851518743574,0.2583531320821836,-0.07621635431164242,-0.007473836923217514,0.12838302245669195,0.3025439292810709,0.0036215671507012215,0.34898203224317154,-0.22734112305196744,-0.21838618061984771,-0.13889550977908205,0.2467687230708676,0.07243589136468254,0.3148409788668857,0.3212515470736404,-0.13451002127647999,-0.20050305772073565,0.23018890591191205,0.4341453553781859,0.050871099261932506,0.1967681170367157,0.04638551249772832,-0.045800568265058156,0.1561995878596602,-0.04662870951209,0.12213756116482416,-0.05610710753456055,0.31061583778330637,-0.0035649457288328967,0.30335422499430065,-0.21863342091580162,0.3236461763547027,0.12596527243498254,-0.2227338015369431,0.009527355288750636,0.46183118752288277,0.2513463936811835,0.14162601554281035,0.07358764029939632,0.2222995076066414,-0.030465132842327602,-0.20922462603091607,-0.05345810379491786,0.18951748814499803,-0.19165758337366612,0.11401704891636211,-0.015259840313341098,-0.20889877763475195,-0.031091815332525807,0.29395969297919045,0.05028324625439429,0.2495107850169238,-0.0164194638579252,0.27203774250957036,-0.1898366863791835,-0.02093794373077021,0.28528204021603404,-0.0862167105654179,-0.25645324111187456,0.1028031209314732,0.05499891823173586,-0.1893213045791039,-0.09769937170509513,0.30986395342756257,-0.130841163848326,-0.14044701686584488,-0.038249369425616325,0.025316169136091082,0.3504325281640458,-0.17365572667983853,0.2194964974987481,0.3003953192707346,0.10944895155085549,0.017456615471608705,0.30900593182547487,0.06263773757733791,0.37657127248301747,0.0029927450500078917,0.20400449112907318,0.0568971665874649,-0.03473584403841462,-2.690566144316906,-3.9074664206692886,-1.8470761478012856,-3.8207529088061234,-1.1154993928024788,-3.7958384036157486,-1.3365575560406862,-3.687904941709887,-2.4783310270873464,-3.9089212852511452,-3.3834451219922075,-3.6809914057034323,-3.3042347847425035,-4.13400979778632,-3.708057218122757,-3.822632207542969,-3.7340142000385605,-3.4530546750217,0.23273347432283673,-0.3191154194471987,-3.655697833093368,-3.8590975331819046,-3.745705721032355,-3.3851281916943896,-3.7919606653165654,-3.4833847491395113,-3.4296702520878175,-3.366884734024731,-3.9033951350842844,-2.829200245730522,-3.6165561965738955,-3.1930543762755037,-3.881898161972343,-3.2794221963970362,-3.7890921004137676,-3.8219773502288015,-3.4154035839690677,-3.5553147581211078,-3.358459511222453,0.2038163812783784,-0.08141071509339132,-3.3968771721124624,-6.974269688760001,-4.71919161926626,-8.722495503151197,-5.053647345827034,-9.533875767932283,-4.959325579443701,-8.213954138650724,-4.645014725587877,-6.877332871494945,-4.810947562260788,-5.308579140201348,-5.026169001131316,-4.997288314425327,-4.730617203090236,-4.29483416254509,-3.767826886628622,-3.5543045116346415,-3.2519538654192575,0.056916371939889555,-0.168379030564235,-4.567325893597654,-5.565622224622083,-4.602916411124043,-6.516840463751134,-4.869026965542177,-8.35963731758279,-5.027004200593855,-9.28212150237567,-4.527432319537354,-9.175547642035236,-4.717640961170277,-6.907355917024127,-4.7115578367265085,-4.989860157802616,-4.85456332029241,-3.8445884829258317,-3.572343270511953,-3.595784738655906,-3.7158234834162616,0.1591631857222238,0.14963781435839846,-4.877942137363876,-0.05989147419473701,0.3732092917857356,-0.004170543196039489,-0.20972440760866906,0.39847623270713517,-0.06987990713473904,0.21083743280031464,0.044564920982777034,0.18032619847458253,0.26849234069029293,0.1397731954832989,0.1845151833599885,0.15745875927746494,-0.0365018915298006,-0.15886976099415473,0.025425300778143922,0.38378467168666064,0.4042010575288236,-0.28795972586073904,-0.2802131668946144,0.12079150634405972,-0.3803633520543783,-0.32089600883981806,-0.12158075073636421,-0.3045161618877775,-0.0777010286763053,0.07228337127657575,-0.06557571050215809,0.04317019733988983,0.09134252654533936,0.023025115102718707,0.16096379746071665,0.16108981887381324,-0.026477613942350237,-0.06261565751417512,0.1527279595633011,-0.3211304489508645,-0.4376845886674682,-0.4198821699860844,-0.25806298106215864,0.1662255296991463,-0.3138193905404897,0.07466477844009686,-0.1604852427596406,-0.035632059883102724,0.21527161685446583,0.19571426310858087,-0.06534712858624381,0.1357067736782581,0.24335058668075404,0.3130500880144198,0.07866537546514374,0.314799535450497,-0.1382727385184579,0.18827838562262766,0.3257612391782915,0.34561509997317746,-0.08453332649532486,0.11261617189583015,0.3969646254559128,0.17882005645446028,0.15119718384430156,-0.22562059147726057,-8.585592875694612,-4.58162351975832,-6.420765576433644,-4.636997865415636,-4.851245243147792,-4.709237216332145,-3.5567396823072177,-4.902173848917045,-2.8527594855272835,-4.615944054658909,-3.4276209151008565,-4.969377936962865,-4.736462047357752,-5.075353857139913,-3.9992451444507733,-3.8426295191530686,-3.4608321472017187,-3.561579793975834,0.28340783065022046,-0.26845748506699846,-4.5382472840914545,-0.1857719401545065,0.3538766954825596,-0.18523597791576374,-0.09421222882949704,0.013606010736331886,0.21345882542227457,0.13696566221263992,0.0518310753103311,-0.22065129404554407,-0.10811586769280712,0.2519832993067064,0.06318420545843943,0.19529362641011783,0.12518129672072506,0.35165578901997385,-0.031415905528507315,0.4842223162784425,0.13472578510090422,0.24962038149564367,-0.027842117268860905,-0.007379728986323109,0.3909368933278422,0.3570624247461188,0.20891500686354436,-0.13258148887820004,-0.13327128191170057,0.16798606290837115,0.14304241246598925,-0.011698758195304746,-0.07116221663322972,-0.045983713819364086,0.20632211127579192,0.2946124999469737,-0.07480127951760879,-0.16235280885895365,-0.008188601489216824,-0.23431279272018193,-0.03570673964198126,0.31427934495315574,-0.1046594395579113,-0.11668597554648188,0.06026685465667152
biasActivation=1,1,1
[BASIC:ACTIVATION]
"ActivationSigmoid"
"ActivationSigmoid"
"ActivationSigmoid"
