encog,BasicNetwork,java,3.0.1,1,1330971391387
[BASIC]
[BASIC:PARAMS]
[BASIC:NETWORK]
beginTraining=0
connectionLimit=0
contextTargetOffset=0,0,0
contextTargetSize=0,0,0
endTraining=2
hasContext=f
inputCount=20
layerCounts=2,26,21
layerFeedCounts=1,25,20
layerContextCount=0,0,0
layerIndex=0,2,28
output=0,1,0,0,0,0,0,0,0,0,0,0,0,0,0,0,0,0,0,0,0,0,0,0,0,0,0,1,0,0,0,0,0,0,0,0,0,0,0,0,0,0,0,0,0,0,0,0,1
outputCount=1
weightIndex=0,26,551
weights=-0.15877395187616794,-0.17434731075402748,-0.20513370758081828,-0.20443610830499315,-0.7130388791861842,0.1996740884052821,-0.337772245934388,-0.1514563479574142,-33.349317742880665,-8.007653440646651,-0.33564059288817477,9.964010846589911,0.1758905230639478,-0.1820956818128322,-0.1505258757308396,-0.2284026056192674,-0.33054927967437114,-14.249078829044723,-33.133617749373514,-33.50066721642964,-4.329282321147845,0.12642647059355622,-0.2866120173846323,-0.2451836325839154,-0.28141581471797034,-0.13514882802408648,-0.21008337302512758,-0.05471199070814996,-0.2649760454514923,-0.19104192373041773,0.26525794519366214,0.12140104782369351,0.026750273793534802,0.12430683216741387,-0.21577037612826216,-0.030548586119081803,0.11431180664480241,0.3298616567271459,-0.25588674027001085,-0.12643261947001075,-0.5457110625755448,-0.2997520606940646,-0.04399748044249882,-0.2906302837997343,-0.020098724684510825,0.08321166988910927,0.06895284614708952,0.15758646502860457,0.28304903703157297,0.31358245971663884,0.30949063763692225,0.054704551301685,-0.09575844003091344,0.027262945090919106,0.1332914723747576,0.022636769018557757,-0.15344926760186023,0.09820046646026434,0.029907819333068242,-0.19915175343146557,0.19558348840436196,-0.5767492415357249,-0.20142538495276902,0.0030756266673679367,-0.2772174290985078,0.13486931576538697,-0.2681810023691862,-0.2509850305486833,0.1359744044881462,-0.04737963566200966,-0.16448911735838567,-0.15937353025948797,0.01136040253839642,0.21239011347908343,-0.07732266244055247,-0.18083099882618003,0.3977690121083091,-0.19275917130770276,-0.06883503930953233,-0.09059636578604008,-0.11262247552434537,0.3806640177295259,-0.650208201569576,-0.37918252921059775,-0.008946444367070499,-0.27129447597181733,-0.027891062707191116,-0.011974832907536192,-0.1636408431899491,-0.07979553498916997,0.0860768173172903,-0.1904821397532661,0.22955423174551504,-0.26731645519288366,-0.06971927218442875,0.18280850693848638,-0.1707344702235155,-0.035997751685668086,-0.050432114278353576,0.08956386675073655,0.39863399434047003,0.4188588116037662,0.2699681315681402,-0.2346061285340197,-0.5013473191649912,0.003045380558292843,-0.1696607210431068,-0.10250798628626522,0.15810909258885728,0.07884023608611718,-5.226162323211685,-4.800383061300884,-5.623233553256398,-5.25028796670891,-5.090137371165981,-4.824887762126501,-4.609975817143482,-5.205704537987024,-5.21948303606856,-5.437998059067081,-5.046430067625897,-4.9282515849633395,-3.674844735554607,-3.7617919058633493,-2.137046326615298,-2.45465761598186,-1.6375729653994917,-1.4113103094081307,0.3115546995270025,-0.22610500378095266,-4.998028807266067,-0.26985877965405364,0.13030048284300605,-0.009340504026930391,0.13849786230899308,0.05168836400471659,0.18353547543877946,0.2644340503577333,0.17967834956083606,0.0057947317457494145,0.03405983878355594,0.07252966626719765,0.022695538799036786,-0.37783352692974287,-0.004140351587232468,0.293740556477553,0.40745061342358296,-0.1360397947995161,-0.017650589757658652,0.24465570708186055,0.08974931359668975,-0.19679905388657848,-0.12926782699949074,0.03181650401719106,0.2456672879161464,0.2232320120682777,0.2926579830162727,0.0038847670563051002,-0.28854444493633374,-0.222205745500615,-0.1623054153698465,-0.015004809942394125,0.16122718396944985,-0.10181123874642858,0.021704042645006902,0.18709465254803365,-0.3652627398164788,-0.4463010739570959,0.020652713539689005,0.038298539030413276,-0.31600691448708806,-0.1066729952389233,0.29399568031759443,0.25859809147802487,0.2564216648192826,0.24721134728263466,0.21159405542730003,-0.12101878551343574,-0.010750154544220996,-0.14665620782736327,0.012557070091417866,0.2562132341747442,0.2932028509396449,0.06486318778083577,0.13845268600864907,0.32859902077705466,-0.1396207992210999,-0.2679091038907794,-0.49714883392484355,0.1305879165430709,-0.22375027755287175,-0.2424479696080506,-0.21747241553372557,0.2502077991567591,-4.130877675940212,-4.48725701767403,-4.484449443163859,-4.478591288957131,-4.080168840562688,-4.551733839435172,-4.544924773686932,-4.811717825116753,-4.19449513253159,-4.73684443204284,-4.5472420059627074,-4.71552577771283,-3.2962063300935105,-3.1182464955637528,-1.8043199261911784,-1.6096874094088043,-1.8017712217163877,-1.698981342486969,-0.28601877769959194,0.11667675773789826,-4.541086015076421,-5.236794711026361,-5.797558453092612,-5.299344445592801,-5.91233199509836,-5.253019447411624,-6.157618949682754,-6.173161058723316,-6.155450328709051,-6.003651351248287,-5.809759758307633,-4.635739250808137,-3.9493742576289703,-3.673910835267559,-3.9563346167712714,-3.392678450730359,-2.931096422207573,-2.4703808128185156,-2.707505800205292,-0.20839011681405734,0.0015513209188485091,-5.663337376456092,-0.16352578312657717,0.2741962910230961,0.044441870760442356,-0.006959607178368004,-0.1512362546120014,0.21056048001771444,-0.019558361807492472,-0.1470862422536678,0.048933229787237784,0.34138731178975706,-0.14823019476151272,0.23574712866696862,0.3373955217855443,-0.18145498138046307,-0.16833042137532306,-0.4737679625286259,0.03335385876371069,0.12943882779816107,-0.005244708567896068,0.09375718943518505,0.00358718497240142,-3.409410774227494,-4.176736130305965,-3.484634683143101,-3.7014000188700975,-3.610757307782174,-3.999275355491243,-3.8079810875667657,-4.124403154623266,-3.675164321715966,-3.7921664311905947,-3.5400821710212727,-3.6448708878185028,-2.9738372591360123,-3.0557638700895597,-1.3693342576280805,-1.9085969294213516,0.19171517608165495,0.3044396316192516,-0.006720994868191085,0.2325755193276206,-3.9249534866801796,0.24045902669934566,0.04358532071405867,0.14128014836265834,0.22087355039313683,-0.06593726655978577,-0.05740960509132159,-0.18248166420130407,-0.1071296189888021,-0.14433431284171516,0.05849312254066778,0.06998146039536474,-0.06095886129818073,-0.16902911896884992,-0.2571840114137732,0.18751031497799525,0.611522491810705,0.3892517781788487,-0.10670100979723321,0.2300319207282096,-0.19008736396527656,0.15776754175229746,0.012215403545315518,-0.24708974973464976,-0.15723489599763452,0.15041681834425197,0.07776986649143025,0.15654064539273604,-0.17590282046208705,-0.17929119214870648,0.18640592137113277,0.22402351003107845,0.1438547030809631,-0.16100515477171978,0.03247375062920242,-0.21506459294767338,-0.28589027446904364,-0.6526233999525044,-0.2246267210044431,0.08923070100197741,-0.1995199306799901,0.2719208163972568,0.12167256230204018,0.20683187346052367,0.3082855423084138,0.03584836464807824,-0.016318660275868077,-0.11328408235153119,0.04770539366047226,0.07131799632179481,-0.14284077397529843,-0.16207731235884043,-0.21120073081930552,-0.023421932161094717,-0.023397199146505555,0.2925403437399479,-0.11970144267344315,-0.6083531452898643,-0.6704398808851648,0.03579962786451743,0.09244614096652029,0.0521379712484738,0.3062952327986394,0.1422307139107057,0.3075101607194182,0.10314651022957314,0.17866715215517415,-0.029372924456574842,0.3138359419835626,0.03257887925326343,-0.2131501102750657,0.1815524597506203,0.11384884808720572,0.21147886543228667,-0.1862927621448141,0.3117422419281965,-0.017252627596162588,0.008566239335443756,-0.37656568313747457,-0.34328064240971995,-0.2615485289050462,-0.3485053976618847,-0.2834860237284843,0.23037203512616447,0.3292372083481467,-0.17223062334949246,0.26694885227653425,-0.14550595976379416,0.24564165090541595,-0.16066977215418943,0.11875175487432729,0.18043490102346305,-0.12416356172769487,-0.16675468905787544,-0.15083915191433456,0.1894953042882715,0.259035449063261,0.20140050891415867,0.2807700443086428,-0.6695770524248625,-0.178435339097834,-0.29098727524733037,-0.05065225535967097,0.04598384962055894,-0.02493841047703361,0.26088611369143283,-4.7834825916415475,-5.649370395691624,-6.204519246212464,-5.76117561140265,-6.199662731431448,-5.714579192178543,-5.961757618296609,-5.858687734294419,-5.295635312622393,-5.692913466172566,-4.655057514849776,-4.687074078886855,-3.5699490193865255,-3.880260611784963,-2.3539536801048766,-2.7380283471610976,-1.9642239652497941,-1.623784157326378,-0.14701794964945553,0.08922029016826975,-5.892971832664659,-4.121892601277161,-5.230583467114439,-4.909044897815673,-5.143408844441858,-4.034578185694741,-4.860307015104518,-4.786335371212479,-4.727507844678441,-5.0381941800893815,-4.644510821668855,-4.160332073836504,-4.4051549912570955,-3.590671088685481,-3.666096870334241,-2.7816700169247306,-2.4017196560232623,-2.514292269575514,-2.5243804582703557,-0.17236393589972202,-0.08933864693223621,-5.052482773201204,-3.8527391067020686,-4.826364813829644,-3.4460120618946313,-5.196698576591596,-3.4369500409678118,-4.899723792958802,-4.504074615990899,-5.0894163424227425,-4.139974152339876,-5.070908114109212,-3.039099363721987,-3.8657210852958044,-2.6246000093781996,-2.699609311762402,-1.7517954460728493,-1.7929581233525638,-0.6844236174789472,-0.7713322823647667,-0.10654949372198541,-0.11290740601481339,-5.340776405333723,-6.117575841020377,-6.83999935648156,-5.9242253984028155,-7.071757217708101,-6.717645244668762,-7.291331610962723,-7.080318746265657,-7.007124729108352,-5.004410627947971,-4.93821787231781,-4.159461532966667,-4.547924682498395,-1.1971873264030617,-1.3116227634330322,-0.798944396037615,-0.832193148595679,-0.8420389957060547,-1.1103841246738857,0.2226253434791132,-0.33736300632016475,-7.024480509279111,-0.29368971723737863,0.005445845155914186,-0.24431917329704078,-0.12419627921170626,-0.2632256246471317,0.17130300197374249,0.0001588041985029591,-0.20893352029217405,-0.30312853645907284,0.15512164916627358,-0.02676098606057198,-0.28441394591788666,0.16085378205107848,0.1507249971278402,0.29765946310273667,0.32348013527645697,0.39312084318916163,0.4036344091634627,0.06370746880565462,0.13029996037524696,-0.044562617501743354,0.1532320004916739,0.005181573056212824,-0.024934172920176675,-0.20225755097736697,0.24215077340860403,-0.07704539759595003,0.21581682401298863,-0.019840534466434176,0.39638776990672325,0.16252027034431749,0.25436436618736663,-0.1170413177060062,0.3182862241372743,0.09643466202861681,-0.12322897679986597,-0.39791670154574804,-0.18294767192409933,0.10794480321148806,-0.14540046648171362,-0.2782389479048072,0.0849739143059246,-1.5410668919414134,-1.7592902112648985,-1.9053948905231426,-2.06184353365325,-1.4957932963603116,-1.9131145437029677,-1.7858213147284172,-1.7845690620090848,-1.8370355443650155,-1.5569831138587742,-1.7815087454037881,-1.9948930942349878,-1.1306400599085473,-1.0439757156887344,-1.3111940577990666,-0.9629571207941137,-1.018550722819316,-0.5810747954898053,0.11804290398924726,-0.2640204755144556,-1.654683125451688,0.2830957822093065,0.011046607809578852,-0.023826964806314063,-0.19799275354382062,0.29957867683915024,0.2720784246874732,0.12650978082831207,-0.19610997222424265,-0.1675069812739462,0.14288386170213135,0.29870241813860937,-0.11376201333685129,-0.08306825505299176,0.11856763409385947,-0.2434839354969956,-0.5111800700574761,0.0997759527961675,-0.4002545845521217,0.1764464015981538,-0.004092030869088388,-0.039747900496430885
biasActivation=1,1,1
[BASIC:ACTIVATION]
"ActivationSigmoid"
"ActivationSigmoid"
"ActivationSigmoid"
