encog,BasicNetwork,java,3.0.1,1,1329348413672
[BASIC]
[BASIC:PARAMS]
[BASIC:NETWORK]
beginTraining=0
connectionLimit=0
contextTargetOffset=0,0,0
contextTargetSize=0,0,0
endTraining=2
hasContext=f
inputCount=20
layerCounts=2,26,21
layerFeedCounts=1,25,20
layerContextCount=0,0,0
layerIndex=0,2,28
output=0,1,0,0,0,0,0,0,0,0,0,0,0,0,0,0,0,0,0,0,0,0,0,0,0,0,0,1,0,0,0,0,0,0,0,0,0,0,0,0,0,0,0,0,0,0,0,0,1
outputCount=1
weightIndex=0,26,551
weights=-0.14764492771041998,31.514465188306644,-19.79009748064557,-0.17845169742064387,-0.18162251004994728,-0.21423212173267941,-0.11699922443057367,-0.28393102739993353,0.12553096948793224,-0.18972711645135404,-0.14221481073122277,-0.33043445232372487,0.11570437377967037,0.1274205322936619,0.0790165728855633,-0.32773391381445854,-15.019397476328667,-16.680354860486062,-0.3021170825897393,-0.29429071037795246,0.14205438546423704,-0.5242701204693935,-21.52003570929592,0.1406164486981099,15.090191920692401,-0.28266277167203174,0.29804263260002967,-0.07508019570506802,0.16197449281488224,-0.16135724091777204,0.15720494466600687,0.12199827595583071,0.324915655384952,0.37863842151655264,-0.0923751459678342,0.2927477984229125,0.21133174798491622,0.07857285223950727,0.017212590522211985,-0.19026686526341974,-0.048738523730815525,0.040192610634665435,-0.17807138827261182,0.36384327901299535,-0.1238972085063917,0.1761138985666668,0.16711186043931653,-11.374731611744997,-11.438309755987259,-11.530621111421333,-11.62868910164088,-11.789006872560249,-11.367290107677224,-11.28798715728036,-11.834137301202057,-11.619922276633748,-11.657532180861004,-11.69949090000646,-11.304289502423435,-11.256777003297595,-11.496745422865725,-11.48515380289604,-11.506651838535271,-11.797267833471103,-11.351997378284407,-0.0640826331497531,0.28446009034573566,-11.409074118635814,-12.465439594169457,-12.147540595610126,-12.40716982062086,-12.49420372068506,-12.29237955838153,-12.188833287957118,-12.479216644650363,-12.053321943108152,-12.402458830974355,-12.484773206942183,-12.141445575134199,-12.508015177734977,-12.422039041946665,-12.569638408136528,-12.269749463051516,-12.491071870836977,-12.588055325198004,-12.552085474992642,0.23719889563256663,0.2590513969100949,-12.415480920140428,-0.06459335707613578,0.28004307504960396,0.3352278236360246,0.13553615575833336,-0.10790057124029395,0.3489014966343424,0.2856313746441746,0.2968823099490399,0.17484921375079032,0.1646593705765549,0.3389425510874989,0.3388359163253741,0.013841956875419965,0.3107715085663278,0.1773523981593793,-0.034773971853189395,0.2571047078159044,0.23491786701071854,0.06582853099127843,0.25608302542642525,-0.11952772659075468,0.11469303599492639,0.10725260663306721,0.26812243388048057,0.260503205128697,0.029225578578246262,0.21822171276516128,-0.18737248922200533,0.3467345825661638,-0.15693350275809448,0.06998056202978103,-0.054557936704394266,0.36553354543573774,-0.13808004293619047,0.25884451057857566,0.22144249867060212,0.24313186346886345,0.33035934285238827,0.2989621485010571,-0.07694804539336063,-0.15645877262537805,0.3083005028668419,0.18515350127105795,0.36152818137225734,0.2295242960659411,-0.16753232889753678,0.14242714481999352,-0.09160540362159403,-0.019665925862038386,0.35393340492762576,-0.10716963298321563,-0.14092950590850117,-0.05190850171602998,0.24939983804579352,0.08257145578649522,0.027673575893289646,0.34963486803454663,-0.12761832435707637,0.06143938951781697,0.23518850842936206,-0.17537184695903366,0.26912823814404735,0.0035932198358444474,0.2635151933389303,-0.16588243871821307,0.08579080593558391,0.11219825880138609,0.39318766945773814,-0.05749838794613529,0.28690039701736,-0.00840427348179677,0.06355150066001891,0.18215326908584178,0.305270557478829,-0.18243180336061093,0.31489277877409433,-0.06567962454692539,0.3617907859402531,-0.01431203489545103,0.24271358081178768,0.07886001185576197,0.03412771412137355,0.16054074934990809,-0.19258199106798402,-0.11312252900190962,0.0665329788886121,0.09403364809126136,-0.19132160299059398,0.29104146276442805,-0.02990581175181889,0.3062712756963611,-0.04572997078017693,0.008532439496318479,0.3419588911307016,0.3590543008225157,0.1940007183801407,-0.17557332564435724,0.3898724621127225,0.21651267554264958,0.23546631546628277,-0.09331573769013629,0.14904208183130074,0.0034370069200628096,-0.157357009863596,-0.06359952446355807,-0.17788531945555935,-0.3529715787037255,0.12709675281800903,-0.002078121177423859,0.15219290084528703,-0.08276442577469723,0.17158695454962203,-0.34553092921612677,-0.21345290314876492,0.007209139088709359,0.02933627144283732,0.03250724476035602,0.2101033407395564,-0.3920201578659211,-0.20579921043041943,0.19039824046821874,-0.13621269844533548,-0.053693871681331884,-0.019751618566608942,-0.0027759877011419645,0.03654128155720823,-0.19335942215397284,0.3423530153805136,-0.19241465691189708,0.03278817838858157,0.12823779792633164,0.09083251583115082,0.05929164397722664,0.34765270417235244,0.2593159626783546,-0.13018301176782676,0.17885442198044016,-0.06985626561618957,-0.10922824135556636,0.2856023409600595,0.17454841322852332,-0.0822290478727879,-0.14362579236653666,0.3263903879244044,0.005185716985489977,-0.070723329304112,0.28607634463195836,-0.1320668345609634,-0.05665822103334192,-0.173672182512547,0.37130459138657396,-0.17689306625264722,0.14513424282943915,0.12332168518991035,0.09222423519461126,0.12207467096756011,0.15467417529256605,0.42245870466592267,-0.1802459131383105,0.14614597910429106,0.29876177902840934,0.014838413270956547,-0.17209489576401493,0.16419009446387628,-0.007799976923839141,-0.11855778532592327,-0.1878204064247007,0.15443312808077125,0.28828348152449795,-0.14544738310606775,0.20116666089959784,-0.04796780525774183,0.025491660496470354,-0.1784218084308291,0.03958713595967826,0.3617829145499855,0.13976633723596701,0.28331172947461863,0.17615860269687678,-0.04827226610594848,0.22453055714257136,-0.10649222513864859,-0.09900267872050816,0.3243278640694361,0.10938196496319916,0.31266215744892784,-0.2607917093784057,0.05572256379893032,0.3459942983285365,0.029419176698262134,0.19864828707273696,0.1650317947619775,-0.15025522808282626,-0.21835252476678885,0.051004121871875696,0.008134763455930432,0.1209014380434142,-0.31128503326801443,-0.2837046236495974,-0.3918986012099173,-0.2041079398245475,-0.19018843470836816,-0.3478589190381863,0.0638516985890025,-0.10671536615794777,0.006827369446723002,-0.09427277728729178,0.29031494173091044,-0.11921747296966137,-0.23596189727300593,0.1335238402646693,-0.2284799834484243,0.19783285107346338,0.12261477589273657,-0.1422136505884029,-0.23324424190023013,-0.2209619574816199,-0.20539546782356793,0.10053627601537601,-0.16277160183056688,-0.3500784959898324,-0.0799685540490033,-0.10355020239848486,0.029263782610896433,0.1870790134221345,-0.02610789227527437,-0.2197709262530944,0.22071197207366477,-0.2452491430693134,-0.19103201923366916,-0.014557047719991435,-1.1054970436074616,-1.3854713229847773,-0.929241629746844,-0.8838856542687703,-0.9047222938027565,-1.035015135791423,-0.9836570523564728,-1.157733793195794,-1.1423602499618257,-1.2904676649175324,-1.2780817637307458,-1.189079480920807,-1.1558906832626756,-1.157357642507453,-1.293766175593247,-1.4644737824421206,-0.9140129965588892,-1.1857142832322929,0.2963358256080279,0.3023331470502157,-1.1748540911655636,-0.1730400209427866,-0.09925895655509981,0.2142944633128347,0.14477236554547462,0.20784036821890844,-0.0843268298244772,0.2948100397028998,0.02292719525731134,-0.06366096320473272,-0.15462046426496956,0.2847264273444811,-0.1262033087740349,-0.18257120382365055,0.09551324871510816,-0.13176018819949792,0.0753496118239646,0.37654333509349797,0.17653881350279632,-0.11873940503869852,0.1350025847623248,-0.11440781610524366,-12.48647058746693,-12.800692930042407,-12.797941811328664,-12.836813702484932,-12.392619758098341,-12.887957517727875,-12.742293718268646,-12.42782139543513,-12.506743608778022,-12.691213801944913,-12.785702195321328,-12.650293658493645,-12.375757025295737,-12.73013285757825,-12.626119432480925,-12.498734688642564,-12.902657435041565,-12.50539111941976,0.1735602524877163,-0.1089840036508342,-12.466329289397974,-12.265637627640753,-12.4204730684041,-12.66844034067706,-12.509215203383762,-12.624515498873906,-12.583073769655455,-12.613266801967328,-12.717969551834374,-12.73283531430312,-12.611336504476798,-12.700184228143234,-12.723676732959266,-12.31939528113062,-12.19461062663042,-12.67820489750953,-12.337815140341963,-12.74228569683232,-12.583344063011443,0.2742579511894235,0.01860128323983345,-12.38180543550858,0.10730036056154932,-0.26836037987699646,0.1288062076757401,0.335826116940032,0.2508311485563009,-0.07742371725782776,0.2810322314222375,0.3441413291014663,-0.05059617845426673,0.047005838560790644,0.17244826358383913,0.1871466512774857,0.18320722567591424,0.439290327319188,0.0039396672338580414,0.30220797815824657,0.13577395373514753,0.07421887303086427,0.0056157678740807945,-0.09806118195630081,0.4151467219303641,0.19684687747678004,0.061621148660442326,0.28084023716500955,-0.07803411026278284,0.25172484903974407,0.36594721775676436,0.3735288900917953,0.2858903846410233,-0.15328602647602219,0.18474175097484608,-0.18317626637405826,0.3440728020449349,0.2071695833819593,0.25497107030757354,-0.01722026869416561,0.23549074010494792,0.2243857412251516,0.015103874003776541,0.035183731490210125,-0.032211759490654406,-0.1878926343357039,-0.09697685196036668,-0.17274490637138584,-0.34659880787863234,0.06353439119777929,-0.3116811157953329,-0.24981195627053981,-0.260993752384934,-0.0005786455552973697,-0.39047019481358364,-0.02899444904428138,-0.28581858803739973,-0.28025588483898306,0.13768430720631658,-0.14485997706452075,-0.21231381271309274,-0.2165059313106114,-0.28175368376874704,-0.0773434891808017,0.2733012377303583,0.2886332680257724,0.07510429268291546,-12.86917044451996,-13.252396236004486,-13.271090516493997,-13.40828603748715,-13.365635273080713,-13.418758811741458,-12.984231207143049,-13.364857824665311,-13.02311100377673,-13.042395221907574,-13.319430421896705,-12.879658974925471,-13.122000362164753,-13.1645392280532,-12.96583735952819,-13.048630437922867,-13.054854403421496,-13.426885466875978,-0.2115422276991882,0.08249617424804566,-13.02667412800247,-12.222092533599344,-12.568306973548577,-12.269653883892657,-12.555885514367565,-12.10188303089398,-12.263462328561092,-12.518236505872357,-12.381397592272991,-12.074166318068244,-12.621798018906121,-12.06956049997685,-12.437671599625965,-12.296119598914228,-12.506556588104436,-12.52729321073408,-12.415345743052034,-12.064856173715405,-12.148179091708,-0.05177047788077261,0.1910514397374404,-12.275981873724207,-0.12580422963660795,-0.3010217571015033,-0.11899873343091008,-0.3486324191284768,-0.3295205765627694,-0.185647592426813,0.09886787595907781,-0.3334558137475387,-0.3991607581187416,-0.011233525131729555,-0.10705344351390159,-0.21698855607073259,-0.41908313752407406,-0.22466761930049378,0.011090635974245044,-0.404351005400251,0.13026847986237716,-0.07756109212140838,-0.07982646409472836,0.05819290560212528,-0.08312846230900678,-11.311053114969319,-11.727078252109493,-11.817742542352908,-11.665608563542595,-11.750188961541427,-11.87008927981022,-11.800264648502015,-11.710648182428535,-11.902655246048063,-11.754268074227733,-11.892626537467216,-11.416620144056619,-12.000334141975204,-11.967667070496054,-11.85041263935734,-11.759678441057318,-11.561459520271002,-11.488706145641315,0.05179411594651118,0.011905083531689169,-11.740721403521528
biasActivation=1,1,1
[BASIC:ACTIVATION]
"ActivationSigmoid"
"ActivationSigmoid"
"ActivationSigmoid"
