encog,BasicNetwork,java,3.0.1,1,1331345359933
[BASIC]
[BASIC:PARAMS]
[BASIC:NETWORK]
beginTraining=0
connectionLimit=0
contextTargetOffset=0,0,0
contextTargetSize=0,0,0
endTraining=2
hasContext=f
inputCount=20
layerCounts=2,26,21
layerFeedCounts=1,25,20
layerContextCount=0,0,0
layerIndex=0,2,28
output=0,1,0,0,0,0,0,0,0,0,0,0,0,0,0,0,0,0,0,0,0,0,0,0,0,0,0,1,0,0,0,0,0,0,0,0,0,0,0,0,0,0,0,0,0,0,0,0,1
outputCount=1
weightIndex=0,26,551
weights=0.2664701635678486,1.3574221056072047,-0.04855923470378784,0.4339860365817676,-0.7225437370080187,1.4540496605438233,0.4711456883906456,-4.092258142550649,-0.9682778800251014,-0.6324084669760177,-2.599896566558692,0.24625444977406694,-0.9748563490808096,-0.918360214540472,0.26266482214643483,-0.08554040095893178,-0.6804850728742324,-1.0587782929023835,-0.18458086834692725,0.4663582301835078,1.4037497338702642,-0.06519894077894994,0.15474647805268738,0.4698116851689989,-1.863829240573898,0.12935281817294264,-7.159263697747452,-7.463359982360103,-8.945629363335467,-7.693767799463352,-9.036205206400156,-6.9846891360508065,-8.860647363418233,-7.443669902351877,-6.128288881545079,-5.448948488650827,-4.303426251835609,-4.140014107260139,-2.100935950991435,-2.1179255486804447,-2.081165108240591,-2.009693307960852,-1.628429150079521,-1.5486713430538832,-0.24606787650637232,-0.11272465927602018,-7.455988561900273,-7.439011478342945,-6.967634462730882,-7.3122724858383785,-7.20393566541951,-6.661715663347276,-5.983197797305884,-5.929714715535146,-6.0342563411387555,-4.4545517211721055,-5.036156391958009,-4.960991169843409,-4.751817498869593,-3.6488863293208578,-3.4837605224151296,-3.3302980152813086,-3.423167747400327,-4.128708636052361,-3.9300584972480626,-0.09261141395816083,-0.10259109290154896,-6.985671212880194,-5.008200523767821,-6.874399756598596,-6.620805839418387,-7.061820907162696,-6.508629728159138,-6.762192456460499,-6.922550021335143,-7.066592200453546,-5.818823512775039,-5.9878050787224835,-4.603444863086427,-4.333974347409565,-2.216598878756707,-2.5538024476343555,-2.0288804914125684,-2.263543138926105,-0.8254385969605529,-1.3730997876911486,0.14814796131088637,-0.2640356259828609,-7.008456134664525,0.006456900635631771,0.15813990978599335,-0.15954934774388108,0.35304818081903633,-0.27151080466012995,0.15007166654805693,0.25780241066440346,0.0122568988835106,0.042156259702655935,-0.11043246437241658,-0.2599686876013842,0.14254414711507912,-0.10223949822586262,0.2564826515718799,0.2438278554526857,0.16877238066677935,-0.6647247914090291,-0.87474007432055,-0.26446678500638204,-0.22188773032479825,-0.018129303122094584,-4.493974147174654,-8.017064818727444,-4.059837298499717,-7.6919220744045775,-4.781046480316589,-8.06238658692975,-5.258666049807483,-7.825555227068369,-6.955405200686326,-7.424534113949466,-3.7055304829799534,-3.6086327277468393,-0.3419205404880463,-0.19278300439748397,-0.2331285532576345,-0.1805737377165867,0.6243744624770915,0.9337217865391707,-0.288462357263015,0.2832166987458943,-7.918713945049287,-8.181094870709348,-6.994640134245349,-7.967849714736274,-7.101149443257262,-6.16895469187733,-5.894154230693157,-5.898339258119236,-5.993067668048721,-6.321421845709254,-6.208036127022462,-4.547698595398871,-4.167835040296867,-1.7070106861663266,-1.7660484430700734,0.20351124063606607,-0.2811028804610691,-1.1810566546598724,-1.244430699250664,-0.1390483631748473,0.12267344154692687,-7.179825512569955,0.09726650132152626,0.09091738285115525,0.1593865023578016,-0.032488411001960385,0.31228884560257275,-0.10257140136549012,0.19408555647019876,-0.03214561968155706,-0.31439314472422164,-0.19116486224631046,-0.09841547705878737,0.011228512165549223,0.3727625424114729,0.26787811761301306,-0.20083112734483966,-0.07793571495922602,-0.5444091931754311,-0.6729088222689161,-0.24351625710848435,-0.2577753825978987,0.1692998233160783,-4.442025749433952,-6.527949883342843,-5.128786999422386,-6.82752549677986,-5.345524683581273,-6.745165141583857,-5.821941936918347,-6.815524117624771,-6.098215501292192,-6.794348674628324,-4.823214327469266,-5.301153803552648,-2.326239622402155,-2.335767020256816,0.20904670670503855,0.2057152543112032,0.5394125230601814,0.42522854620473804,0.2547643124937927,-0.19404993851263622,-6.6751115638232115,-5.7699327538983605,-7.443815543227655,-6.234537283750118,-6.896143543278022,-6.574716497979991,-7.193066336505005,-6.000675478175152,-7.292155608307577,-6.844949438443147,-7.1702169066416435,-5.559470147059292,-5.703569077881314,-1.323307723245508,-1.3481143613344269,-0.0055241546157692445,-0.0503012344571587,0.7016276055257744,0.8887490748954845,-0.20017052601279595,0.22119746466168239,-7.09615129556714,-5.711848843188626,-7.676073006401927,-5.855400467795663,-8.051785326170227,-5.675305677788193,-7.787692183511997,-7.113794567745831,-7.775871191099396,-6.276516716454831,-6.620233196325429,-3.096364977444962,-3.3428337563285293,-0.770538586775773,-0.7484732415248436,-0.16932139112846722,-0.25302270234481694,0.17027229611449407,0.6617683361239726,-0.32244585364172035,-0.2492130851261821,-7.761628641219941,-6.431450320735314,-7.374761688348171,-5.571023361656871,-7.3849067578860925,-5.393684722852449,-6.963911565209631,-5.687574333903896,-7.464481423798418,-6.657350124951613,-6.891964344537552,-3.6717378827803553,-3.5591965545344406,-0.35955937922608294,-0.2543721769322512,0.5522784541649273,-0.11140982238506997,0.48049115951932064,0.6268571572304431,-0.24291140718070983,0.16399028653758743,-7.128717588885573,-9.14287911551181,-7.462385904709572,-9.171283156968064,-7.7025814165073125,-7.928731122325939,-7.222488175939917,-7.40274291577334,-7.271012108799257,-4.73740520946346,-5.2511559971393105,-3.629103279213623,-3.481779105757235,-3.815287948674757,-3.36279948096207,0.1759174397601948,0.19601743975953811,0.18052400611609876,0.012447227206211511,-0.22584165712789395,0.24769818472155308,-7.40746701024061,-7.521424175085133,-7.314709206399451,-8.095336521656195,-7.635513665536287,-8.175007395813378,-7.616588959537478,-7.287191986900561,-7.561160610214591,-7.080972971519037,-6.43325761281082,-4.984166573499455,-5.7262605834045415,-0.2513639159594462,-0.5611386333238397,0.32774086976190886,0.37760175757100545,0.9167428136486511,0.9943279630431955,0.31267919424221335,0.1650498897879278,-7.224057226228816,-6.440662400469077,-7.646486768098109,-5.784251790562224,-7.3240000819172355,-5.184069182736809,-7.696028961066101,-5.150904706123923,-7.188315022729201,-6.284853977934841,-6.640395873523722,-4.713516706173781,-5.738504847986515,-2.280474627020437,-2.3758883048338952,-0.11439358878807333,0.07626994358977701,0.9219652195525798,0.4623596102354316,-0.15036882424973771,-0.052514717463057255,-7.709594275591826,-5.308012078380743,-7.596322294863475,-7.5103000235400454,-7.321235386398255,-7.231610318556924,-6.844299266450714,-7.389631857101386,-7.300709123009719,-5.401316493250266,-5.89980619560693,-3.820903119642764,-3.935239524551869,-3.9270183452827614,-4.194357127427843,-3.4578266927316457,-3.5324941310730864,-3.6405199865662214,-3.8528684389515093,-0.24660182442083023,0.00490248307217016,-7.093343457529462,-7.493713484904956,-7.036878811472795,-6.057180247986567,-6.812401533172642,-7.403251348002747,-6.620084967684782,-6.919969508081631,-7.138642106226032,-5.638988494207883,-5.2117599437501765,-1.8470490829475634,-2.541780947359737,-1.4793863833813827,-1.4237712245360632,-0.4067705872847336,-0.5596655414606165,-1.6588410319307805,-1.7022795305678362,0.012200656251112274,-0.12095291041398773,-6.9761408403078065,-5.1864331267477715,-7.331136015807192,-6.863131838820596,-7.485186159341258,-8.465820685648115,-7.420353922044711,-8.42383320819926,-7.301098226958364,-7.558805238547899,-6.68117894016786,-4.2439595643927035,-3.9148855523152766,-1.4675619603546954,-1.3188793500972362,-0.7884285143706489,-0.5481840610490794,0.480421986346639,0.8624054269077814,-0.18569169880931913,-0.22211116491621039,-7.40435515090229,-5.585921235073244,-6.96157288072927,-5.604714974488151,-7.433656479973265,-5.345822575649498,-7.181639006966268,-6.589394466602795,-7.197046230256668,-7.110396479837643,-6.790610610654088,-5.4254796775012775,-5.09141166599576,-2.245410395186405,-1.8974741521869654,0.6074411748549324,0.34542423067793115,0.9148563929117939,0.7539911816966263,0.18202473447788145,-0.2673951831414576,-7.450506978599358,-8.098208180645395,-8.75197892925073,-9.786622502718371,-8.663459477966722,-9.18039970248036,-7.781977746412906,-10.99459144538337,-8.3072943043659,-9.865437364562915,-6.753252415155199,-3.5481397002309065,-3.0353723016790446,-1.3870381379591186,-1.4193727703164292,0.27584953718911187,0.07729337409273196,-0.7131111587658641,-0.5803339196667221,-0.08447658163470405,0.01935700956214969,-8.835265209347288,0.14492697889901118,0.07386134207171424,0.26931005102980854,0.20949348594122552,0.13467480210534338,0.32034847151703105,-0.20341866187198276,-0.186066273235446,0.17248209290600836,0.03309266790073076,-0.09065887333086428,-0.03657933648482499,0.36955560184950276,0.02454224491928648,-0.32036782572095734,-0.037478594221678097,-0.709357525618894,-0.5174766213476645,-0.1769141253283658,-0.2564162252521983,0.42871282224641905,-5.109731816446417,-6.575569901001471,-4.720852157926559,-6.676852586616146,-4.49133074871482,-6.431636904551817,-4.781494297870067,-6.377926845765571,-3.320249879020151,-5.3130174500453675,-4.603069525195631,-5.37400839082427,-2.8032869756094945,-2.558731170543034,-0.6510037431844204,-0.6819681349963711,-2.506040568564184,-2.683286789549204,-0.03684182236920928,-0.07299721293762244,-7.046827218363765,-6.477495570887494,-7.21342044712931,-6.86835529430893,-7.304149663245851,-5.5022972256517155,-6.9497015576088526,-5.6784827991546365,-6.839455876160321,-4.334465306336134,-5.811021706198463,-5.157922196709057,-5.356913048013658,-3.201301404302712,-3.1908356561823448,-1.110564729091714,-0.6926174456312324,-2.2908684446187917,-2.4605362593610787,-0.23553690770654712,-0.04960642617111385,-6.873229987056294,-0.8366960084160404,-0.29873359724193604,-0.2014026754646715,-0.5266037128336647,-0.24412755830415417,-0.6188191076499725,-0.6880555725622721,-0.3941575568639283,-0.023141183462915507,0.11606344160658556,-0.6917674500840099,-0.5463897122480359,-0.3845106421315744,-0.48049202465364094,0.7922549491299549,0.8569705866137496,-0.373083677980684,-0.5699789850888015,0.20922896217598003,0.26163341765762577,-0.09915288077334525,0.17915959541312987,-0.0352584119765232,-0.061818696623064204,0.28655461300596274,0.3119105203418451,-0.03066303572958197,0.32897475547620725,-0.10711685620760433,0.2129680703980451,0.08685235981485429,-0.0794108153038829,0.05578858484198854,-0.013163369914045306,0.06235878431365274,-0.22290003362083544,-0.09530005751480353,-0.6051301517424348,-0.7236133514709906,0.19755474468702405,0.26297786498887904,0.04540823668285074,-5.676190967799373,-7.016749392256309,-5.926652313949305,-7.027653752938484,-6.283980128068121,-7.225794841256864,-5.779082684768874,-6.7351804795913095,-6.717215803356495,-6.803535166869571,-5.351600134274836,-5.203419797193413,-0.8827076913194696,-0.790642051554705,-0.5461659678880599,-0.09862801432811691,0.8813735724561726,0.7782141271273495,-0.336903647535971,0.014354920361981074,-6.959426779541232
biasActivation=1,1,1
[BASIC:ACTIVATION]
"ActivationSigmoid"
"ActivationSigmoid"
"ActivationSigmoid"
