encog,BasicNetwork,java,3.0.1,1,1330976485031
[BASIC]
[BASIC:PARAMS]
[BASIC:NETWORK]
beginTraining=0
connectionLimit=0
contextTargetOffset=0,0,0
contextTargetSize=0,0,0
endTraining=2
hasContext=f
inputCount=20
layerCounts=2,26,21
layerFeedCounts=1,25,20
layerContextCount=0,0,0
layerIndex=0,2,28
output=0,1,0,0,0,0,0,0,0,0,0,0,0,0,0,0,0,0,0,0,0,0,0,0,0,0,0,1,0,0,0,0,0,0,0,0,0,0,0,0,0,0,0,0,0,0,0,0,1
outputCount=1
weightIndex=0,26,551
weights=-0.12989087159356444,-0.3471997708927809,-0.3167420895652438,-0.19307623378993466,0.05465700694324352,0.09188219175201293,0.09759877712069447,76.49529149284938,75.49605250875106,50.54130703797786,-0.4407802064612737,0.08156488977884467,0.0354207095157186,-0.21568914644520348,-0.3140231261194953,-0.25325249317785997,50.34715469236596,-0.3431283086290659,-0.14066362277478456,-0.4428739889243991,-0.36473988217405073,-0.1061211342158749,-0.14140927103697204,74.00714166068163,-0.2672757459333676,0.015446277148164045,-1.3870858815245108,-1.232313879729907,0.1553634535183006,-0.20064929407343213,0.09494536990611434,-0.2314714375685184,-0.16685021909596046,0.24083420233532116,0.09318203933854693,0.08611207925949996,0.25547036020301117,-0.13852482278514153,0.027410000312869224,-0.21005235783462714,0.08530736423168338,-0.26357469652679205,-0.11649013173132508,-0.20566552479471478,0.26722445812729323,0.00660324903320084,-1.5763545962835315,0.29907532155674094,-0.1664654512970003,-0.17895046117341218,-0.10520616896935601,0.028184351610494617,-0.059004726420266905,0.2225398362180085,-0.22988982900827903,0.19462450015085406,-0.28444438716270964,-0.2524573943808488,0.18244377164773065,0.15394013593117334,0.2484136124638246,-0.025360725765044473,-0.09773256457392368,-0.2191004445906219,0.043077160839824866,-0.13552036077150936,-0.1641683181367899,0.06592942179182007,-0.02912587888567461,-0.11885028267547008,-0.3603949734196882,0.12853614532932772,0.14969083157801025,0.03745741144344977,0.1454576027422536,-0.08007333832419324,-0.26115680581082534,-0.11361608572151144,0.199253430481511,-0.12957152394697025,-0.08571021304212072,0.03348385840634968,-0.08046689871904548,0.202889727625221,-0.13773766265103726,-0.31853817897109904,-0.18304013755707982,-0.30627958237217695,0.07159028575359,-0.009019668729906727,-0.046876164772353374,0.08150384862440477,-0.13147265513075207,0.17899129750684548,-0.22891141241462662,0.2979527061689572,-0.16809643279471664,-0.0034238146921156975,-0.30659643284597266,-0.104423757813707,0.01040065358994746,0.04718105773887893,-0.2707715527380309,0.2759079546352146,-0.319090050355091,-0.11428375343314216,0.08761105168639244,-0.05150893306719712,0.10202865891258679,0.38574772082062536,-0.21499088001661454,-0.12222999296062147,-0.1160718634251803,-0.05383785608261346,0.15025965734486,0.2655173182762065,-0.20386354592397782,0.07083067213095304,-0.15384064787548793,0.29053179780038607,0.07888668124462937,-0.2898328055713129,0.027616518066737684,0.12253274826613199,-0.07164699836336284,-0.23574133247138748,0.04138492158673329,0.2719956483201067,0.21345952692173842,-0.09484242385658331,-0.15187759913225407,-4.128745591992959,-8.357116399682425,-0.2693559055661475,0.18192162296503356,0.19991160662535243,0.16248578478049736,0.08105883502987683,0.1047936203609137,0.09374824982606964,-0.34520499675094507,-0.039314864235793716,0.3741643489506359,0.15912989028113825,-0.02589816128581626,-0.08011574525619689,0.016741726722727827,-0.03782467572071847,-0.06719313079188496,-0.3170049600530022,-0.25226284618921485,-16.25946382802257,0.28149614783798627,-0.0027145294649572327,-0.2207178287549028,0.1996849949951468,0.0500635875754536,0.31035341493922014,0.20379857175489657,-0.008548833172533254,-0.04011088440477901,-0.10374318033327724,0.03701801338960586,-0.023611893511993602,0.07729902239027373,-0.3108451837982067,-0.314711220520618,-0.021193596695731932,0.0649531208481937,-0.08879486105846232,0.12083873857993946,0.12418063007911999,0.12889914698410254,-9.625312902208593,-12.349212764486541,-0.6545896443270288,-0.9638583918363544,0.20651735733811286,-0.0027100057634889324,-0.27950921380042054,0.2830291201590751,-0.24793044113399365,0.05156496306664281,0.14310036660416345,-0.21925109912282503,0.0995597932183961,-0.1931061115612795,-0.08658400966543589,0.14099686418035995,0.025872456966382337,-0.064506838134904,0.10588053146929338,0.15263926170074743,-33.93009208895585,-8.842355423390709,-11.580549375618206,-0.6280926735439449,-0.8900978286613935,-0.16433248983956297,-0.18374746396838976,0.279606551864328,0.1437098974185751,-0.2868935224331065,0.10614250881920519,-0.14930626437289354,-0.04441041484896697,-0.0007406588236002077,-0.15385529614817367,-0.1807284816816255,0.28015401030635034,0.15487070525448748,0.10634861397445172,-0.10428615543569762,0.1805948479377288,-33.85362776755434,-9.950494647181326,-12.223966255629456,-0.2910715819619145,-0.4013179040658059,0.14285545841525263,0.14142313364123046,0.2799985227686054,-0.28401153626804687,0.2708793720688808,-0.19352463303131234,-0.2650422801871245,-0.07559815217525659,-0.12660563012201753,-0.08856271409965666,-0.1732882604396086,-0.11542693435175683,0.0804706322239157,-0.07875431646862849,0.14898100206081727,0.1545391109217989,-31.29838914396183,-0.2135524716262418,0.24069996900673657,-0.23027698946838515,0.0280789883210609,0.30131771538811863,-0.09268389986446961,-0.18188518908422674,-0.05806764226156539,-0.053599995695103174,-0.11621405692630725,0.29340416156046617,-0.08693842942176404,0.11899364617920356,-0.01747377798759581,0.0012870038481484546,0.058740540468801554,0.29888757441018815,0.26352907401744563,-0.0892394141020788,0.29569377509839945,0.1734494865169735,-0.13330500111279558,-0.31445364369696044,0.08707831511962182,0.25316427042299894,-0.20373042266846295,-0.22447413049323606,-0.1292778038894342,-0.26742077287808186,-0.03393311180312939,-0.08112874123469153,-0.24832992804353574,-0.23047270121010144,0.1222669062845783,-0.13659878029441005,-0.011870430254292954,-0.014124775700221137,0.00839291128580141,0.267567078445465,0.061902107274410464,0.20623291051496576,0.08764907092193568,-0.45281058234820404,-0.8277958535254403,0.26417339112013805,0.050186202039987055,-0.10583261773226597,-0.2641302556257666,0.020690534965924517,0.11667332077505864,0.08157272466471857,0.10236323966800533,0.229624144508789,-0.2529646194750563,-0.25823772593695926,0.14769600344344097,0.09302409047009588,-0.07567013813016213,-0.24965294283496628,-0.2275627713292152,-0.15172768188907362,0.09627834755696366,-1.0208353994955999,0.030322328574968305,0.14709930166882956,-0.1769454687001245,0.07612982134496378,0.11204843034966307,-0.011873099821061642,-0.0662285341371296,-0.28442002276684764,-0.08480095545964986,0.30554892127427385,0.19024215250741547,0.004960884370776848,0.17842436634867725,-0.20448291825272358,0.17997836879448786,0.3073138517727717,-0.29683443415278693,0.2261845471021864,-0.09414700725188356,-0.09284938501747754,0.3498705099855904,-0.03300223742364125,-0.23945038900538929,0.09058797486024728,0.30624105253016276,0.25581874736375676,0.014178329015277727,0.15686044300827703,0.1403090134183164,-0.21681979703973903,0.017067271547515778,0.08022341013797293,0.07354605228924149,-0.2925576782023132,0.11513965929877427,0.1945677815026741,-0.21482875274012347,0.0000930535185029657,0.3089218949783227,0.13341728912225453,-0.14499648430885861,0.07963022956183728,-0.13339283917863665,0.05127691802879436,-0.1088518204956198,-0.2917913253081532,0.05117195562089777,0.28716716477482174,0.004399361160872775,0.25188407331706525,0.007094149951903158,-0.3103895611254054,0.13772503270025674,0.2878227344660303,-0.053569074821973005,-0.2900951879335245,-0.1529503906713915,0.13566276646609038,-0.14550098757733926,-0.10910941948690117,0.006583438087777019,0.2031573665954187,0.17408423608160595,-10.034724717249645,-11.852723010875323,-0.7770437813855642,-0.36394780013633743,-0.27319424022010297,0.08899504868432671,-0.06092992725152707,-0.14580136899454724,-0.1707020693703606,-0.26662151128419004,0.1321907425410466,0.17170943107711187,0.17187404836737896,0.04209637256645455,0.034182811525761185,-0.014760598796274706,0.14005038140732026,0.23894291996496506,-0.22072273885616886,-0.16377213686906328,-31.31264708987967,0.06305260867537169,0.2203869007114136,0.09856753494590467,-0.23438207968486335,0.20524116435327203,0.06205973821160036,-0.22714165474246645,-0.012352087828655768,-0.20220021574344685,0.07104894079789262,-0.2172598409841838,-0.2813457274993252,0.06564769145873676,0.030053745476193144,0.20470224666378128,-0.26403595872553126,0.1720823449131386,0.09746362182937367,-0.29281854115308004,-0.1279454629001114,-0.05698915570251392,0.3056114957199472,0.3112135709347093,-0.10726520913341252,0.23610646687791959,0.22993350593916517,-0.25859110666369733,0.12983665350358273,-0.1262488773058901,0.04719360127093358,-0.1545822726615093,-0.21531036135304618,0.07707518533361563,0.19373803947726478,0.05601592021825277,-0.1383344229582227,0.17185840424458948,-0.09436746985259854,0.15879444377621504,-0.19130415724202773,0.2650293130071739,0.04932108225392054,0.08973485589802808,-0.17788559511277935,0.0009613138258175585,-0.021373783993590648,0.14697878243896656,-0.28629530163958933,0.07252027822710497,0.20766093277325695,0.24854128316797247,-0.1161665147471319,-0.05462551355435149,-0.10390878724738521,0.20264667842015033,0.000976940161319335,0.25607483182614593,0.07752715000608343,0.20102959912950513,-0.09237427410427541,-0.31032758613328265,0.2882541203755285,-0.0481596435648228,0.23967196591793155,-0.19976883841908777,-0.10242394874820514,0.023844855048537714,-0.21751691686647034,0.14992219001587925,0.21082153869112044,0.19838122086154789,0.12457777798340787,0.2246108978960089,0.23492349231267515,-0.1994876025310464,-0.16540903237635468,-0.21684980133901333,-0.15470183355162212,-0.15670210653299058,0.07175694131732961,-0.1282061756765195,0.2021497516691485,0.2085735405743994,0.3204415900140774,-1.4739235901798773,-1.0162232516660838,-0.1879933441602526,0.11446168237647396,-0.043057453418706496,-0.18604418093857156,0.2127529250331856,0.25323744898055944,0.38449589290694863,0.051065592677031806,0.1769772099302689,-0.12276744173667825,0.06239448745289968,-0.20655214932452617,0.33500952311966004,-0.10877731009008937,-0.25888836340689225,0.01163922014417135,-0.1324188384428661,-0.04657530588173512,-1.7882233819334477,0.21208786373233107,-0.1521045034699906,0.25270657451004697,-0.12288283090197426,0.19539696619225258,-0.07410089432832005,0.07208863869449575,-0.06982103183447678,0.220278311506231,0.04249438490335578,-0.30307673892395737,-0.039865132030840585,-0.1558096224870295,0.3223937834500432,0.24498210806660134,0.027008670445728383,-0.25976952342145054,0.05563242266832777,-0.012549443254038334,-0.20636518045227276,0.2345687422918588,-10.873071235265837,-11.971604028112695,-0.5135340807495725,-0.526137392813001,-0.23344529377646428,-0.024256852927732223,0.18985061391792388,-0.030215653976316478,-0.27794364100964836,0.10083179684774554,0.03939768009852503,-0.2683056774065893,0.06005190734559069,0.1450690076560684,-0.2697937807896317,0.12558644651852324,0.20666332306981347,0.20294735487308116,0.2940260079509805,-0.007198202801717867,-34.01758817076038,0.05008373574951962,0.2307492792127273,-0.13957571533368313,0.23122720873935487,0.04526152653853844,-0.2056050747931428,-0.012031904699677506,0.1467065072419086,-0.022288865971748294,0.12342171447120183,-0.06859389666403817,-0.20131921429432084,0.24898521654900602,0.25892116021115436,-0.2177971554344998,0.07185904651476312,0.011373747117872424,0.30601674712633026,-0.22711267969797425,0.2542626537988763,-0.05190366373058261
biasActivation=1,1,1
[BASIC:ACTIVATION]
"ActivationSigmoid"
"ActivationSigmoid"
"ActivationSigmoid"
