encog,BasicNetwork,java,3.0.1,1,1328575560892
[BASIC]
[BASIC:PARAMS]
[BASIC:NETWORK]
beginTraining=0
connectionLimit=0
contextTargetOffset=0,0,0
contextTargetSize=0,0,0
endTraining=2
hasContext=f
inputCount=20
layerCounts=2,26,21
layerFeedCounts=1,25,20
layerContextCount=0,0,0
layerIndex=0,2,28
output=0,1,0,0,0,0,0,0,0,0,0,0,0,0,0,0,0,0,0,0,0,0,0,0,0,0,0,1,0,0,0,0,0,0,0,0,0,0,0,0,0,0,0,0,0,0,0,0,1
outputCount=1
weightIndex=0,26,551
weights=-0.18826965687480202,0.10608554332623107,-0.049575781295623594,-0.023641518311640335,-0.29901517793442234,-0.2252820815899714,-0.03171405134615665,-0.18561921186836516,0.11442467751050522,0.12760210734329602,-0.10611949188976694,-0.06492281050933288,-0.07930706677650495,-0.17777969754016854,0.20021140355929196,0.15331120745445176,-0.08616267119235654,-0.16079766032945197,266.0137519179726,263.19278078867256,-0.004490824419109238,0.16747916857115958,-0.26362632987710644,-0.33249563769602153,-0.3950409633108164,-0.05373284086460542,-0.038391384103209344,0.36116805330184076,0.16557839577712297,0.28935479001799147,0.15382673816419257,0.3948103395169771,0.19412902288035971,0.07388774758959915,0.03571667710336787,-0.21837843039817467,0.20580745071380624,-0.09457471728459366,0.11016432972490248,-0.14583331025263446,0.09340575122948014,0.3376107229584727,0.12666748805827932,0.380927975160547,0.05768914478755142,0.012706523825042728,-0.19313982755214082,-0.25408132707140585,-0.06585529519939559,-0.4540879970764245,0.053131314107905905,-0.2555758816569541,-0.47176298029795266,-0.23459367212775536,-0.3030524122411927,-0.4570845154054575,-0.1354448736786848,-0.4469574755743183,-0.47987210770726474,-0.018575319883749095,-0.40384425477560715,-0.40747630212081987,-0.46922982277608477,-0.5904976394771657,-0.2382467330259942,0.09394572880937549,-0.07160149642920383,-0.011721142586200647,-0.1581414342358521,-0.6132132820859955,-0.4873962862872808,-0.16869236347187547,-0.31328037518768326,-0.30285516295276305,-0.41628200317095565,-0.32452326624338257,-0.5035358254500962,-0.585421881984528,-0.5066117907185618,-0.18986242932013392,-0.4701802872222548,-0.4461695037849144,-0.10023758015938286,-0.4015183382795776,-0.5990930355354852,-0.5519056996815564,-0.2759573066751852,0.21645148386261653,-0.0980536882273633,-0.09803536045575154,-0.31876666030292977,-0.5058472406752067,-0.5463678888204944,-0.5097237168522499,-0.178143277638878,-0.5748522508095442,-0.5710033024655279,-0.31168136224902054,-0.5502295572116475,-0.33615982175109027,-0.3427636198573406,-0.29067456363436506,-0.6636649766508349,-0.30735059745573023,-0.1858569836159863,-0.36433816113590367,-0.6654746987779773,-0.10245827900755614,-0.25693167771634,-0.5515713720037055,0.07898619322423422,0.35120512051005315,-0.1702632113253309,0.17760812589847175,0.2332719105769678,-0.12466501412610675,0.00874857549376025,0.13309786468178508,0.2972951425471876,-0.19280048929393678,0.10742177819816867,-0.13083545450909706,0.020293816185910373,0.35887278943544965,-0.19472769578181592,0.011532830291095045,-0.030211603921380545,-0.11948012308964151,-0.16570579803671337,0.014056136443622327,0.27668805517794004,0.2389785081548177,0.26944686380254435,0.08211748010736347,0.2560012108271841,-0.08237840786412247,0.3444219324905946,-0.18870830634597935,-0.18585063533905938,0.23556719032835358,0.1749672397094506,0.09595710792991896,0.025840520343177655,0.11279459985671593,0.3296145316828548,0.2689683063533297,-0.08666774596714609,0.21306436530796202,-0.11062713983438782,-0.2818925972788883,-0.20423495735272212,0.21461150045235278,-0.4378193299570139,-0.38150646260920373,-0.4095056354203278,-0.3465870208133701,-0.27682600717780836,-0.3753623434778046,-0.3915166874279009,-0.3377038323594609,-0.6057175380506348,-0.1844223607339635,-0.6614593442266667,-0.09492086369747468,-0.10768199937206321,-0.34369011265228633,-0.4144978765881513,-0.5515752200013658,-0.6767662197297231,-0.40702174768895494,-0.2952471144351052,0.2241131557268503,-0.13076290725106302,0.0742903802489489,0.10107396614583875,-0.14337859083351423,0.1284677060424108,0.09754221248614148,0.024353831926870472,0.3683604722735606,-0.19227866582005582,-0.1715183702054116,0.20731327919284437,0.14418471117382947,0.2892857851755717,-0.22994207067943367,0.03303950414036552,0.09731103582399703,0.1597613194063533,-0.001164399264588653,-0.039975057178279,0.31043277516363527,-0.3177161378492948,0.10927616796430545,-0.1994428354989437,0.01986334032979077,-0.13958919697515193,0.012174508398140674,-0.3056999297289289,-0.02053004985813926,-0.3651770747263743,-0.19644331604153187,-0.03816556543920349,-0.13514128258698643,-0.522718458334176,0.008712534222992577,-0.2564772969228595,0.0183963234121496,-0.03375085309534079,-0.13112971647957428,-0.3442686602246403,-0.14464084659363502,0.047401636925226545,0.1056520413113092,-0.34671192048750143,-0.5195570945024692,-0.11136792874919255,-0.332195571910625,-0.21489223496186138,-0.1443990244888766,-0.3647556525322062,-0.3954214756700025,-0.4672246338604063,-0.4750972009438694,-0.18122158176521375,0.005377403486421253,-0.1279059219584126,-0.026982189454130303,-0.0701164666733593,-0.45498862763065145,-0.1920388285370972,-0.15635112357578118,0.01435287615134491,-0.05228388788587732,-0.2201467952262297,-0.5384894561821134,0.3352949255944485,0.019354186108280002,0.17270125728256236,0.33094845089623515,-0.044965731584088106,0.24263423124567562,-0.041036151562835535,-0.18234235798265697,0.062164809453740894,-0.06634039273280122,0.34288080426037926,0.15417381071207314,0.022079626779344507,-0.09824912152031115,0.24893587908403192,0.06448498120344934,0.4108798454206539,0.07961697067867207,0.25723726368710204,-0.17406174313477332,-0.1431755595879171,0.017079715444397126,-0.15209227109494644,0.1640655064878499,0.18727396458202128,0.16017853898918022,0.06689781494000188,-0.15385471525437333,0.07837542483074911,0.18207677939333466,-0.17556590355988333,0.09394473556689165,-0.332547430210954,-0.09190751654350657,0.09732705810709075,-0.04627518919163362,-0.02376955728624186,0.13521650096002802,0.2028014238960506,0.08190138184938148,0.29971824423357535,-0.2984026436915923,-0.2991939528689239,-0.3044906022384529,-0.28242180332812183,-0.31761823164544944,-0.25916634503447555,-0.25008529621470776,0.13548635392229863,-0.2066722018450735,-0.004082365270442978,0.18730368447142565,-0.1544824524380543,-0.17408330817497708,-0.11226472343183833,-0.10015556957994379,-0.16571596070530875,0.19890363620015084,0.06860497427548942,-0.17350817219905718,0.22536196995777033,0.08344235682789508,0.16750686116521663,0.20212038297602908,-0.052263623683468416,0.304587025345618,0.1492600053721514,-0.17010292286747009,-0.13117006880562887,-0.1244117524192159,-0.034085464407074356,0.33443527604039247,-0.004789804250826521,0.07556194798217808,0.35519306670293027,-0.1349702724450097,-0.12238779029260957,0.035293578318174174,0.06524823415054393,0.2089439409022692,0.2340695614085145,0.1828240173127836,0.21629020569447752,0.3391064011603634,-0.2611059022685538,-0.30382655621634724,-0.19154352522324958,0.11357537832841522,0.08836679926244925,-0.06563049015407613,-0.15541912493627097,0.11399297782954679,-0.24726807783091365,-0.35876726179567275,-0.1129126951440282,0.15562785738667645,0.1489286376375492,-0.3936183575462152,0.08441041743143711,-0.339105336000181,-0.0356758131038393,0.049436087161720224,-0.066048062985724,0.07546094613503622,0.10746460950865974,0.1521527714769364,0.15862972106303908,-0.1426420491379683,-0.21380252634706176,-0.08695041723192748,0.09010260406765772,-0.33105993703528835,-0.28123133312235493,-0.2368717707747585,0.00017864873500121614,-0.2993842831322583,-0.055975483264181974,0.1945598128332019,0.08031130666537349,0.039437155934753707,-0.1353163505061234,-0.29005246546776764,-0.2789289077866435,0.20567291328076112,-0.2764615783493706,0.021583219818567048,-0.21689019632050388,0.10972528162895917,-0.21718296200486797,-0.08577250840786309,0.1840940669660317,0.14882346275230313,-0.15824584925250945,0.19554539627056855,-0.30504217534935774,-0.12878540750324757,0.0016058630483538477,0.23821493343110267,0.05205527469018992,-0.02602592862156533,-0.30891316479557274,0.17256916309047243,0.09752230612390861,-0.23503400131858698,-0.2716971165813042,-0.007640366556421186,-0.009586035978527307,-0.024032428555938304,0.22124824694304146,0.3497597749345268,-0.0706505939913152,0.23523281798031279,0.3410101522628416,-0.06915410509887561,0.25804210588123544,-0.1609113147983578,0.036691963358349594,0.34988396964116497,-0.14134743585885368,0.3329309055123387,0.33905628098211904,-0.027136571761209483,0.08287496413189649,0.01666340207164614,-0.01686384500542816,-0.09690400907457143,0.11753092254490331,0.32067216322030556,-9.856291164265583,-10.53805506124933,-10.201006988828263,-10.240814233850593,-10.25796128932519,-10.179595717922256,-10.458065285904048,-10.368991860927416,-10.352207925755923,-10.30442158487184,-10.202306139038477,-10.200257912593605,-10.417416769058045,-9.934950942301686,-10.277991668229683,-10.382556486546523,-10.4052639107197,-10.04412839211399,-0.0553726061159239,0.3144033018461033,-10.174797975412966,-9.894100129306866,-10.013348299255828,-10.230651695868447,-10.064010366332958,-9.870736383860322,-10.097754646036195,-10.31636083522458,-10.1225170631776,-9.899092326339229,-9.880495146958765,-10.35820426123996,-10.071745069622883,-10.226702267569692,-9.890071904179269,-10.099300306269717,-9.891821823986756,-10.173715616131021,-10.312715199697726,0.12174355323255533,-0.2545404741886334,-10.286598765962374,-0.5192258739570481,-0.65415233807885,-0.12364254692888885,-0.5150365151516055,-0.015630756650357416,-0.19319305027368822,-0.4164484674351302,-0.38432386022652343,-0.48688402890759475,-0.3269398556086628,-0.2541320738992256,-0.5169827043447142,-0.1552152173125033,-0.5303894726907895,-0.21069314732544026,-0.18615790956017914,-0.49811742796690517,-0.330984687921569,0.304031665812813,-0.14695447418500648,-0.5058327887418973,0.13983656941617184,0.1116799649043457,-0.2759505402860948,-0.22797909809468417,-0.23391157637850932,-0.012094006254912151,-0.01771870728648657,0.0885988417082681,0.207144003219969,0.04223085877419587,-0.18499348238046254,0.11492881050044423,-0.053884056437171174,0.1300456892949976,-0.40096465485018684,0.05714574899867532,-0.2612245945376457,-0.10603847389515847,-0.07077080908769295,0.18182260469212505,0.1793185310337823,0.2819835169381453,0.14980514701753872,0.2881207651552423,0.36689575513957207,0.2015124556723361,0.10672601045309132,0.33592405633717537,-0.07004720383797054,0.374964495498609,0.35515858640839393,-0.12357266458610272,0.009031634976193206,0.04585974891016106,0.025287735498424082,0.12556480348603816,0.32042056805793606,-0.04805334189690712,0.021013353950982926,0.23201014761490069,-0.1076840326670799,0.3497722108980108,0.3926072692558037,0.20645102562271533,0.12635480608455596,-0.19688102675493313,0.051646945308090414,0.16289157226540074,0.26631380041024755,-0.039635325002294816,0.2443535920721932,0.37776514320797716,-0.21303103512307925,0.03180174073263711,-0.06833131368244048,-0.1519355173355723,0.1753206085686827,0.10641914297816635,-0.08657462309774262,-0.18235496873489399,0.012880126095545542,0.09701892407765846,0.24717277655571446,-0.09472577391538642,0.30091323491847166,0.10082049121826586,-0.14409445014390465,-0.011113960570406159,0.34006988027949525,0.0630763798559045,-0.15913973863986147,-0.12427512084602049,0.30720519407810176,0.1867936264470983,0.29292918655267375,0.10092907032777204,0.18949556552889446,-0.1378450200459408,0.30756302325014695,-0.11779973943438743,0.3867470684631462,0.13211283712013316,0.06500898080282104,0.12407673508319324
biasActivation=1,1,1
[BASIC:ACTIVATION]
"ActivationSigmoid"
"ActivationSigmoid"
"ActivationSigmoid"
