encog,BasicNetwork,java,3.0.1,1,1328564515436
[BASIC]
[BASIC:PARAMS]
[BASIC:NETWORK]
beginTraining=0
connectionLimit=0
contextTargetOffset=0,0,0
contextTargetSize=0,0,0
endTraining=2
hasContext=f
inputCount=20
layerCounts=2,26,21
layerFeedCounts=1,25,20
layerContextCount=0,0,0
layerIndex=0,2,28
output=0,1,0,0,0,0,0,0,0,0,0,0,0,0,0,0,0,0,0,0,0,0,0,0,0,0,0,1,0,0,0,0,0,0,0,0,0,0,0,0,0,0,0,0,0,0,0,0,1
outputCount=1
weightIndex=0,26,551
weights=9.397245687990367,-0.3046985934593794,5.160427507899644,-33.73817834020027,-49.17830799082432,-0.35075751042492015,-0.20282142977670464,9.694711714921468,-0.22949249107747366,-0.2079246177071729,-0.2366148608681386,-9.53278731422939,-0.23875454478598418,-0.2960022198090945,-67.56882702920356,0.11456543001131565,-67.88765962161857,-16.90979145143347,10.704412834221325,0.0917610650421109,-64.04301926555574,-0.3004899785495792,-0.3179388056017383,-0.17007254834991126,0.11215439231437589,0.09171834567737819,-9.662679130824031,-9.569892996948157,-9.527333570031857,-9.657569945869357,-9.208101807459256,-9.612881519902883,-9.51010177316348,-9.292226248159043,-9.62926381182541,-9.420919611147244,-9.208344713297686,-9.662178820431594,-9.556221514107788,-9.477107946403422,-9.55389881003362,-9.336136977515212,-9.19211382256705,-9.36154582084059,0.24161187596228412,0.2645295730192781,-9.545113127003917,0.010010093390447523,-0.14880789483499707,-0.17254445033098886,0.05871719675891704,0.3387042472879301,0.3849639367736913,0.11310990105066962,0.017741116243181938,0.14011460372556384,-0.01350045384165936,0.028586293422162557,-0.048552167798560114,0.17363002430516206,0.21308397765101533,-0.1657293313318664,-0.1449972883028689,0.3030838759117868,0.19410336729186278,0.029525454051088914,0.24502544140636975,0.34354284176243893,-9.627339993334802,-9.303775038957955,-9.487217839133681,-9.517996905884367,-9.371218687430346,-9.321960358833525,-9.569921090946293,-9.738275014244218,-9.548651489053928,-9.162714941645593,-9.788723879791654,-9.592577582135064,-9.72774922197286,-9.627346976729172,-9.411913926864026,-9.559782586821896,-9.28145780717051,-9.678856350256888,-0.2756798043541344,0.11361507369309196,-9.272406391480235,-10.124491052841497,-9.937761002805344,-10.120568067130387,-9.853729787507378,-9.746819674038411,-9.651731545134503,-10.160087090164994,-9.624344594933133,-9.832265949880227,-9.987194830994499,-10.015867057087842,-10.112737210032822,-10.05390329686041,-9.922493821412013,-9.658012261755657,-10.129163426865903,-10.099686099336267,-9.65081436724039,-0.0831301843699966,0.15837905156424054,-10.01056841859486,-9.957028224630948,-10.193255867783243,-10.20126685684057,-9.970250667359172,-10.077802592260431,-10.193236550793454,-9.821517325171909,-10.29266666866313,-9.961214631955404,-9.862821581879297,-10.231851262643897,-10.125566889462311,-10.097720390925865,-10.403610418651835,-10.277384616781285,-10.362422920989786,-10.29045636200332,-10.194344663668046,0.12075929770127698,-0.19449684297743888,-9.78616165126868,0.2572932508454146,0.18288052423280216,-0.04757478897843237,-0.14533181852374005,0.43603436759309716,-0.13534872684156962,0.1475041895039914,0.14436439211903307,0.34961830258349696,-0.09185679429184601,0.14227514235455824,0.29732032559810934,-0.15276162879161737,0.2846862765593055,0.2768928723309066,0.17167577839782733,-0.09901256731960256,0.10909004080268,0.08287539117536637,-0.19298787270303938,0.31701317540143664,0.36624953117832487,0.23292240354918742,0.1747567266331077,0.41877138825269017,0.14907337102028417,0.34535025960223814,0.3204599337472834,-0.1241418913469164,-0.09554766332702064,0.009184727966352713,-0.11765824700051476,0.02810191449362204,0.1623100530153737,0.18725000536520425,0.07314486327451195,-0.036041516878694224,0.3881170119324934,-0.0746117343189861,-0.19920562788802273,-0.23314677966047342,0.10488646536390409,-9.61987580540456,-9.526931494706991,-9.819730047378577,-9.885965785054042,-9.36797581813069,-9.557896467662877,-9.850806943789786,-9.745936322612378,-9.485634240181716,-9.734029936592949,-9.50029196693247,-9.281170463499686,-9.488685699384654,-9.523691499215614,-9.435650990967272,-9.3456355021638,-9.691763812549326,-9.583340859326691,0.06318623456324811,0.3114579381144916,-9.563076076230667,-0.09377512262839399,-0.012700967259580403,0.3635374041345238,0.09594505812530849,0.10948420684169144,-0.028649471131678816,0.4395120963872062,-0.04829411299039674,0.19909963211770648,0.33792806869738296,0.3382651479156487,0.2329008371600903,-0.057371865163884345,0.44194462685727115,0.20229805269045648,0.28575373676501187,0.19168538529814177,0.42748608313226305,-0.01375666990897528,-0.02546713401289851,0.2854526693578103,0.33219098752127924,-0.133060608405556,-0.03680477671414095,0.016852259933076572,-0.15867124418180467,0.2220331644599705,-0.14000079008891725,0.09351343461531994,-0.1107267267532757,0.3710703481228583,0.16393819144236405,0.007718153471121664,-0.012455492909763093,-0.004197561082741979,0.3433147639822351,0.30723935242318917,0.14079411397333919,0.4069226298309287,0.06919524323887397,-0.13927676239170278,-0.005093676329702684,0.26731302430425147,0.41861492928089133,0.27282705483044495,-0.11553935877252298,-0.1315030866524311,-0.17140883737725543,-0.013617850318394058,0.09588687858327358,0.03955352460551523,0.03340468043474451,0.36956967260121526,-0.06417765878927503,0.08235156578610775,-0.06084147209077487,-0.06264343558234428,0.16562158755491008,0.3242958772805365,0.03866273717070298,0.008030633498880493,0.2620282571536702,-0.007445192696217778,-10.62225086719031,-10.631171727411626,-10.36896070201929,-10.502938978851775,-10.364613006925131,-10.408582664701397,-10.693792867085406,-10.627960878483618,-10.722960952288506,-10.673854358595433,-10.497704421621043,-10.383787718563083,-10.92901329630919,-10.657298100992874,-10.684739356773015,-10.464161472658972,-10.938720431758341,-10.50650743632256,0.24491719889002056,-0.12830817382144843,-10.682983617276838,0.23242628992615072,-0.059030804954742416,0.17756449619228304,-0.1483498536721365,0.38348469343294095,0.10921876409737755,-0.012950729693914514,0.36075558691510895,0.1701291797503639,0.30281956788200987,-0.15630906439233883,0.2845703046673124,0.3537508682597987,0.14346232209264836,-0.15827690579051568,0.19654079022417553,0.38264003789044226,0.1383173315554472,0.010389245593637152,0.11455439061192706,0.3574750610745813,0.33181819025582043,-0.0013687821550865502,0.3432282636972927,0.27759108769261914,0.22381524989303198,0.2630700818063613,-0.10254954807084271,0.3154439632967601,0.2695418253479966,0.39045248633385604,0.0279511356605216,0.2688363660107625,0.2899271883956917,-0.09332051986433099,0.2807135088473984,0.29219018882208053,0.15230130096230393,-0.1280037319255073,0.10055540025573037,0.1780493162141947,-0.1445559244845021,-10.243112936396463,-9.896216566271342,-9.887902885644682,-9.758859999741372,-9.87436111508753,-10.15946252464734,-10.329462505870932,-10.008183008035747,-9.909429076487584,-10.258508837510847,-9.945861070785762,-9.990864157458171,-10.049477797757381,-10.333518313090998,-10.164652027643012,-10.264290626008773,-9.889121613563134,-9.825463410936505,0.08396122173550156,0.019850410242115483,-10.325475646651231,-0.3097586943857617,-0.015008673442145907,-0.2489636522197924,0.07558922396303314,-0.05264921583167334,-0.3865996041342101,0.02444882736379668,-0.4236885702174426,-0.13867489838962369,-0.021508994299001303,-0.262809158422648,-0.21775503030316185,-0.21975056048683556,-0.38231569541375915,0.00913796492802375,0.1190502858290773,-0.2300728112782185,-0.3168279813092502,0.2262651616800657,-0.06613605098572503,0.18569623227324816,-10.335677780910649,-9.9845196892091,-10.477260975009111,-10.36188540851125,-10.046471449902635,-10.082461162028313,-9.969025421309771,-10.447401177189048,-10.392811743157436,-10.376890172955173,-10.50283699406071,-10.180104111462255,-10.300681234503791,-9.972083277223971,-10.399049431870669,-10.536648280190184,-10.258363669008924,-10.256033143716278,0.13898387637446913,0.07001139783956771,-10.083674598993325,-10.085791744422743,-10.21630714881942,-9.90673594152241,-10.120041753564664,-9.987846787600336,-10.244195694631,-10.330832900682745,-10.211193573262808,-10.203488729234802,-10.254048337612568,-10.066229417470302,-10.203102200215676,-10.508334075464035,-10.363665719984532,-10.271213468060292,-9.938332619646062,-10.121239997179934,-9.923469100845319,0.2755806945430825,-0.18439204570935308,-10.502898127510477,-9.867686427771652,-9.42326708393607,-9.47414049160371,-9.685615749058964,-9.91638807669634,-9.529278910475023,-9.720401861207849,-9.43877832576106,-9.337233373113246,-9.580465806070405,-9.405257732443667,-9.282819663948954,-9.559770461990787,-9.72317942804901,-9.60479287979001,-9.854924695570388,-9.81032660373324,-9.554601906344967,0.21984147755047037,0.05564544060507675,-9.469934866662616,-0.474594745436476,-0.21808126845584014,-0.6168866176411484,-0.3888292695331676,-0.3002418212636672,-0.5564504080713947,-0.5029970999745427,-0.6652746597518303,-0.4569075048764309,-0.2557495772625919,-0.43435856646700705,-0.10769762053704199,-0.2640247134223745,-0.2296183161606688,-0.21513692002000911,-0.6717438190208692,-0.5590159676343921,-0.5550252537029275,0.25300386001348624,0.14940562511603872,-0.6471730193956206,-10.275551124949788,-9.995732457103088,-10.512196537095955,-10.268335937333726,-9.910124170448853,-10.215026039353784,-10.457250973191499,-10.435377719347455,-10.10511868636505,-10.263668965106415,-10.175681050155221,-10.209672527135826,-10.1307296096619,-9.873650545277151,-10.14145314020618,-10.232950236502674,-10.12385755193195,-10.489149917458382,0.24600154818351125,-0.062128510029284524,-10.38710278718017,-0.08793778820527925,0.39918748126084497,0.44385424138131396,0.20309679438989076,0.35349615043528543,0.3308030100148715,-0.07252773542670432,0.11385881995482641,0.1765406330115436,0.2788458871275306,0.024185717503430283,-0.026286738475458038,0.36528406291892274,-0.023905066297241664,-0.11540353777879793,0.2852832242380347,0.2601479073918976,0.014901367031266006,-0.04345069147881386,-0.23169108880577471,0.06089478610957125,0.3254319730333736,0.06665723397909915,0.24166740096312872,0.37428392158116836,0.2825318308791909,0.43641556000247445,0.027879539706177642,-0.07092457082208087,0.045341993413058154,0.3857168249020258,-0.12994686013912887,0.2876055112518628,-0.13338879909647794,0.21066750407493667,0.12571061700995337,0.20005097344270045,0.031605320007824594,-0.055826195568688536,0.10146142448108479,-0.07356728915672939,-0.16527496868015334,0.006663714675612126,0.40694023391268813,0.21067653671347647,0.21412101372753473,0.37346383420962787,0.11358418412042895,0.298439914676292,0.4145155105032538,0.30928184836658185,0.059367534701256025,0.23995709069736054,0.27625857833697215,0.33462388427222284,0.16116011660667745,0.2471682952577719,0.27720887809268185,-0.18697157721455826,-0.18842097942604563,-0.10987152714267483,-0.15300911847327095,0.11282690661094433,-0.35627320562355463,-0.1680181976732006,0.0212408720013193,0.12266723309535417,-0.12352902409154906,0.10828348403019045,-0.2916489815517968,-0.05771486188279787,-0.022471694507277474,-0.0901319226103077,0.0036798232918090305,0.05594363536530636,-0.29235142281202714,0.16311549697906513,-0.4226236223330551,-0.2779497136732198,0.09798449155321226,-0.2588641522569412,0.07118263524342652,0.27486522603322,0.019978263927313347
biasActivation=1,1,1
[BASIC:ACTIVATION]
"ActivationSigmoid"
"ActivationSigmoid"
"ActivationSigmoid"
