encog,BasicNetwork,java,3.0.1,1,1331262693785
[BASIC]
[BASIC:PARAMS]
[BASIC:NETWORK]
beginTraining=0
connectionLimit=0
contextTargetOffset=0,0,0
contextTargetSize=0,0,0
endTraining=2
hasContext=f
inputCount=20
layerCounts=2,26,21
layerFeedCounts=1,25,20
layerContextCount=0,0,0
layerIndex=0,2,28
output=0,1,0,0,0,0,0,0,0,0,0,0,0,0,0,0,0,0,0,0,0,0,0,0,0,0,0,1,0,0,0,0,0,0,0,0,0,0,0,0,0,0,0,0,0,0,0,0,1
outputCount=1
weightIndex=0,26,551
weights=-0.3507042486180548,-0.07090509880175087,0.1931865083601561,-0.1498835200098097,-0.9863030851384088,-0.8076625474191081,-0.18124949309188187,-0.028009671000478048,-0.14662495222417732,-0.28000957841925156,-0.29800571310403834,-1.0243067541673714,0.8100853422895181,-0.0514614116606682,-0.14559749435770225,6.020887103471405,-0.25798382851059576,-0.2313955001841485,0.2562082285564888,-0.3902621796383981,-0.23825297316921124,-0.13902427842345327,2.9833142247565365,-0.23684749519478937,-0.2506286861962108,-0.0810942057981931,-11.238007850913032,-5.526553686363722,-8.814634611830076,-5.7131306862226925,-8.657375825439845,-5.793187289253086,-6.385443400354454,-5.904773846128009,-5.355901493639688,-5.655761066082244,-4.201852152664273,-5.054741623411001,-4.011332104141797,-4.405788543281518,-3.6942345548759397,-3.9270550111170004,-3.5936068668796386,-3.8878834497191486,0.262176929233173,0.2251956837127977,-5.9324241797233634,-1.2837427838580389,-6.589651288409297,-1.8525945242826074,-6.299316909814499,-2.6428621559459193,-6.414225025287355,-4.473376786600195,-6.245589695794529,-6.790278162391925,-6.057014037439967,-4.04453705167606,-3.570468528797452,-4.156724127613962,-3.5106142854316693,-3.611577818118626,-3.7841600136104185,-0.364082116951206,-0.20327999307709743,-0.06345655103091381,-0.20969929071667284,-6.5520849713154385,0.027361925799490545,-0.2024625099667452,0.15608448276183973,-0.14372337847916133,-0.37680486754868747,-0.3084907766168754,0.023517732942131393,0.168494991287108,-0.052039521021730956,0.06365064922951646,0.4152792984967741,0.3945780684199152,-0.14073407538654775,0.2275721998935622,0.11530666329970815,0.28188621545288023,-0.30655092398483325,0.18504919419496652,0.17238532807686766,0.19517317190334754,-0.23497868407146955,-0.043870431881059616,0.35959159348163544,0.32549592310442943,0.1648112443392341,0.25388167883719875,0.2903644200319955,0.26695458792677923,-0.17628051697645813,0.13541508281704923,-0.08591872017730243,-0.0545196843714818,-0.471704114875319,0.020475241569010205,-0.08029815547600375,-0.24795392668643196,-0.4034774642995373,-0.2154716925115408,0.13750613194303282,0.2509018972252185,0.256402549454296,0.0585505239309117,-3.5115094191066483,-4.516054255499577,-2.918552968483627,-4.688384694600805,-2.930309732362103,-4.945214559168487,-3.0849860873448143,-4.9664977564076365,-3.2551432402851512,-4.782810676583995,-3.774518890866973,-5.275332586521883,-4.424003166228269,-4.439302763220622,-1.1858118058452551,-1.545819750408124,-0.18796241829616928,-0.31844898407901673,-0.10750320917873306,-0.27536253040053515,-4.659167019913083,-6.464041735599831,-6.0056364696885325,-5.963361476107986,-5.742260348637885,-6.290759221558511,-6.100935884497519,-5.698741123413994,-5.659029221207272,-4.5361545833821175,-5.23713863931356,-4.296946730154226,-5.223907752729423,-3.7173423690134464,-4.115476871710029,-3.8848367288126866,-4.54029512032692,-2.1552085835230046,-2.607973023801837,-0.05750868233252737,0.18581876729579255,-5.850195592510582,0.09899986523483895,-0.011276039893102736,-0.07999782681148937,0.0314600905130116,-0.003227608000045852,0.05001403826239684,-0.12539458391664884,-0.17990541663993181,0.012131676006815521,-0.30363519985413273,-0.3953581229020113,-0.1970228871070982,0.2969949599836502,0.03363271863497472,0.0470988090161302,-0.34180502016056674,0.20113651662620663,-0.18476748279547545,0.09324256992942809,-0.31154145723569177,-0.20396004003939855,-6.037465022075226,-5.8635310138280685,-6.61756090698971,-5.990139451955133,-6.0312550916704994,-6.157394908682313,-4.513766597620552,-6.210741515247378,-4.837874634193712,-6.299901572937843,-4.826723429890383,-5.449176365689976,-3.7036291104467245,-4.582428340902451,-3.414669267336992,-3.4351969062004555,-1.317138952462036,-1.5695091286470009,-0.314099737358759,-0.028274727624755785,-6.147996116394596,-0.2968818776289378,-0.009463002475193123,-0.18019716647645456,0.3134029323845815,0.009571757208524177,0.32773515188585806,0.2154721433778008,0.025755689342732008,0.18980573685571783,0.07741048234517672,-0.011250050465583437,-0.13644768829717022,-0.17772526961544527,0.051753785824631277,-0.13872188181173903,-0.07852330950094821,0.33311828119181414,0.14315300143490473,0.1471179024422278,-0.16280542019393993,0.20018531821617502,-0.0636543584670341,-0.19987555621426273,0.0896764730031217,0.21713232768975776,-0.14530937089424806,-0.21264748584802723,-0.03891727491906199,-0.03443625573675417,-0.22256316504952373,0.20339840858400204,-0.13585853351801166,-0.06562517394972162,0.1870708837126286,0.012818966881172952,-0.481307237397374,-0.16894908300707379,-0.0664848483721758,-0.13546921083816993,0.14210271038661357,0.25651874328715574,-0.015017958543036353,-2.508711177182315,-6.175468666491657,-2.4619842133996377,-6.023665421354332,-3.2559442334409328,-6.2741948489002315,-3.814051784403693,-6.197699667951207,-4.433284198211219,-5.986363159027847,-3.7832245847614017,-4.480807744087832,-2.8115677256623086,-4.139619526196141,-2.4578480761979047,-3.5218779983980415,-0.13946896219597255,-0.024189254248689507,-0.08643474747906829,-0.004398607784405716,-6.047742199931289,-4.081746885262236,-6.056542573771676,-4.116392794424227,-6.0409461392466,-5.364588770660169,-5.812399788682587,-5.540013025859832,-5.7316674044405795,-5.066407649683068,-5.496653075861265,-5.156152839432131,-5.253219473737083,-3.6567516308462418,-4.261443662050675,-3.79009530492924,-3.681021162192225,-2.607231251492124,-2.8989062256786666,0.2544904752921292,-0.040289372098457545,-5.57731225363392,-3.866220156015805,-2.0088153550629047,-3.0592173930824726,-2.0905616413128567,-2.9917507398314998,-1.9334216291340494,-2.3022965218606384,-1.9766450882882811,-2.1374447541638744,-2.038100792193677,-1.512641168435888,-1.1952410603914438,-1.6700408702217657,-1.5928072327758962,-0.9675993166557038,-1.4016194508774782,-1.0061165580127769,-1.343439811399829,-0.13564428206226894,-0.08571740949222137,-2.0778313463507683,-5.559227149376144,-5.947218156673253,-3.4918302147866975,-6.128396602327226,-4.139659074993934,-6.241514872058631,-4.336094840476735,-6.381639770385102,-3.2527624074650903,-5.695080473287291,-4.845948230418141,-5.187982658861891,-3.6024989232744975,-4.266866784579819,-3.8140765507465457,-4.221524504696591,-0.9725506121533468,-1.2585156059961211,-0.24191565282621996,0.26196518871234714,-6.302006672994388,0.30550617271012587,-0.19584057847033282,-0.020180691072189734,0.0010241272206358114,-0.21426983389739507,-0.07185709989395409,-0.008331665105419502,0.03212365418423843,-0.22345041451772663,0.2994633370497304,-0.1603138578669846,-0.3060885014090365,0.10633389638642571,0.05198354522551227,-0.00671062276637201,0.05758566552200875,-0.17118783005483257,-0.06247629323064338,-0.24768085813561458,-0.13125062660036976,0.0546432060678296,-1.8662083543336483,-2.8341974213509338,-2.4998477085674176,-3.0474709633290797,-2.365538952379173,-3.0812735877056245,-2.6372846001787646,-3.096126694506985,-2.5607138956011744,-2.9468845760769646,-2.5300445370064475,-2.7023817880893795,-2.6325020794825007,-2.7214185663368453,-1.1621360473874187,-0.9888913080131717,-1.2746615987644037,-1.3649003013246224,0.10865344832781657,-0.23236338340641025,-2.5682612122699697,-0.0893767548867177,0.11100471517459219,-0.13441918244740372,0.07733317242398074,0.05764787804916002,0.08341450060157846,0.19665099453449414,0.28847172808169164,0.25993758279332163,-0.23773290703598254,-0.4106261893503281,-0.1689516863961814,-0.20254342970744016,0.19965469310617967,0.005349977483028855,-0.04087840319133712,-0.2344277749543912,0.26461679343889316,0.20912908858661164,0.16435584639476675,0.10716980842202117,-0.13597370395672156,0.23018789272708978,-0.12512012065647213,-0.23341944705993306,0.20456653545181885,0.00024050951172703214,-0.19993778615404256,0.3753744290133377,0.20402804277140946,0.034917283133572924,-0.20114357564996893,-0.39914762152516886,-0.17575814190086242,0.02936849341785333,-0.11326979740500662,-0.37452450895041717,0.17466827558218334,0.08033012453231622,0.17327744134595208,0.015353388915780355,0.32189671027165023,0.0559590888697481,-0.3439549038581943,0.1292822798770333,0.1360386928559861,0.10205880593968322,-0.21523989525552478,-0.23068501056299207,-0.25468569288901444,0.10229601898640497,0.06273598416159781,0.2742110978140632,0.13454376284930572,0.09204715733269611,-0.2696865992787948,-0.04897780634008189,0.13940079631244792,0.19079678982486553,-0.040657744775320845,-0.22657872579266003,-0.13359558783559455,0.09759630662804883,0.08469347967231766,0.30947815483431207,0.18341130116160048,0.15941488175700214,0.019271644780777846,0.12582770467195747,0.010338988683500399,0.2735730308117371,-0.23111167906097424,-0.254704562859235,-0.04304677062200156,-0.5716791854755872,-0.19667464741842827,-0.06844773110084038,-0.14438653140160818,0.03629762047704446,0.020989120558428807,0.2919404060905512,0.1579118275335409,0.059906069599486717,0.2744395084284491,-0.023916690570042427,0.2211146538246156,0.162536124349336,0.3335936587462374,0.40306535307193614,0.013353581475652337,0.02752160799381861,0.3278271670549408,-0.1300032476238838,-0.003959600262001029,-0.03572735622992422,-0.23812793212654587,-0.11048980002212458,-0.18388436487760956,-0.38007221767820604,-0.24544964136105446,0.2868691666225464,-0.08489894542477874,0.2716936802843288,-0.021184797846582778,-0.1892558875590124,-0.343732801632487,-0.18998890278741304,0.28402430040564824,0.16053981335412526,0.18322403122994596,0.3158267270251145,-0.0178950255305031,0.34165682337264663,-0.15118134586955584,0.12931298449599382,-0.4914685303447212,-0.12161584484626878,0.17713233395693373,-0.09805334131609336,-0.2271918028369318,-0.3069602988472974,0.20141020292566164,0.0008475196232239114,-0.21065582774233313,0.045895252678949006,-0.23228096033767381,-1.2779192755225768,-2.198871657002163,-1.9809977729419086,-2.2811432534342915,-2.1526490519898376,-2.5397225120002216,-1.7168646602195985,-2.4658289743630677,-1.780479758830159,-2.1010289631318995,-1.8329236841588765,-1.583423551523792,-1.8904706564673341,-1.8700011796219533,-1.1540423596452412,-1.242142716354143,-1.272089254626484,-1.2333489814187788,0.28715574940045574,0.11113282658278,-2.2110758453328647,0.23811016143762165,0.04387043366597135,0.03484503193876773,-0.18887384203729457,0.11826594719367818,-0.20574479286227493,-0.11891167947685918,0.1540989066153372,-0.24996795370940572,-0.20656279901873548,-0.5316598996299311,-0.2173198126588755,0.012422642771583722,-0.21785060041817678,-0.05261089372941252,0.03587861278840679,-0.0959665912211182,-0.22276348063930457,-0.04546783110582975,-0.12947355551535814,-0.09589604213389277,0.3785601554868615,0.05117467570220294,0.11022731678864134,0.190777834186464,0.0392681084374947,0.012268784165510176,0.3585436609466004,0.04946934743421086,-0.12190169937716025,-0.12300051197044462,-0.1679625649451052,-0.08858430287870098,-0.25081777692210266,-0.16261100156839342,0.019311165202597527,0.060781754854414866,0.04844935740973309,-0.05516206566483903,0.270095983441122,-0.19950409318635523,0.2639378270079793
biasActivation=1,1,1
[BASIC:ACTIVATION]
"ActivationSigmoid"
"ActivationSigmoid"
"ActivationSigmoid"
