encog,BasicNetwork,java,3.0.1,1,1328575024551
[BASIC]
[BASIC:PARAMS]
[BASIC:NETWORK]
beginTraining=0
connectionLimit=0
contextTargetOffset=0,0,0
contextTargetSize=0,0,0
endTraining=2
hasContext=f
inputCount=6
layerCounts=2,13,7
layerFeedCounts=1,12,6
layerContextCount=0,0,0
layerIndex=0,2,15
output=0,1,0,0,0,0,0,0,0,0,0,0,0,0,1,0,0,0,0,0,0,1
outputCount=1
weightIndex=0,13,97
weights=-0.33402727381021524,-0.10631181125871511,-0.1559468866101948,-0.3276981037441902,-0.19325046144460697,-0.08356860604709769,-0.18194177656572966,-0.30911187850664257,-0.16073183705083693,-0.20167524124554512,-0.21017908673540722,-0.1327677790171046,-0.7892008236814126,0.058446611845194923,-0.10200942427696838,0.2185499763063333,0.14468462142329805,0.6323546283876845,-0.15226379616699817,-0.13896164168753325,-0.15913528236061134,0.15154804359891147,0.2119462883977957,0.09968933292584221,0.2118182740817063,0.9484436267368993,-6.694081768502772,-0.6904980466043625,0.2614704134305651,-1.1233090033881896,-0.6560155660093738,-0.6100095394705897,0.08320796574350933,0.14919216778969904,-0.2626749733997886,0.59736673375146,-0.07320520911635739,0.2477702908797558,-0.10628612970528163,0.17958572283733484,0.8132844682184851,-0.9001317050034686,-1.2293267258718132,-0.6413332825464616,-0.049827130045238616,-0.7853269598735496,-0.12383240593479608,-1.5164501989576038,288.6632198060062,276.91621108841906,289.00836591574534,-290.4911397707195,290.76764445668766,290.9390770544531,-297.0863869192335,0.3806726426256436,-1.021100085751672,-0.13094044164206636,-0.1881677200735473,-0.07845793737812636,-0.4560436792210577,-1.3414415864313887,0.2565743915887334,-0.1937619127888673,-0.3202852131088314,-0.1403310978787092,-0.46771285224977466,-0.029592966790433578,-0.18631639925822926,-0.6414247710204272,-0.841910757725569,0.0680566963390564,1.25270608544951,-0.46280971156804773,-0.1870137039575784,-2.3375592810352006,-0.8170701309733327,-0.19117969901522067,0.2505789729397587,0.554072039853252,0.5316825507762865,-0.35401472998913386,1.150467153786454,0.21289536591311617,0.5347946239439266,0.20107703730852375,-0.39171389255968825,-0.3828216662337315,-0.24613106978858015,0.2244548292324178,0.259302161473867,-0.4049660254738653,0.3970389337628726,0.5368676604521453,-0.2528398905194039,-0.1598465042675669,-2.5654635347002737
biasActivation=1,1,1
[BASIC:ACTIVATION]
"ActivationSigmoid"
"ActivationSigmoid"
"ActivationSigmoid"
