encog,BasicNetwork,java,3.0.1,1,1328573524463
[BASIC]
[BASIC:PARAMS]
[BASIC:NETWORK]
beginTraining=0
connectionLimit=0
contextTargetOffset=0,0,0
contextTargetSize=0,0,0
endTraining=2
hasContext=f
inputCount=8
layerCounts=2,17,9
layerFeedCounts=1,16,8
layerContextCount=0,0,0
layerIndex=0,2,19
output=0,1,0,0,0,0,0,0,0,0,0,0,0,0,0,0,0,0,1,0,0,0,0,0,0,0,0,1
outputCount=1
weightIndex=0,17,161
weights=-0.1377046552482858,-0.1442079780820413,-0.20899651803538713,-0.08082583943638728,-0.21458470347198003,-0.35413384503723444,-0.24525455629013762,-0.1889062640420893,-0.12513311284000567,-0.22072770377138576,-0.10571211669559502,-0.12605773440417117,-0.19499809593324416,-0.1291327722394129,-0.09893134620945127,-0.3910178064071408,-0.7085461547341213,-0.24777571395852402,-0.11486928777238833,-0.812457234204164,0.0017568979534284268,-0.19835801446499732,0.48831513537985194,0.11152322213880791,0.026160996620511356,-2.5881423386236935,-0.09095671692302129,-0.24347789103046322,-0.5164845548632875,0.3767362939298158,0.06653960739866355,-0.4209514883672565,-0.10185502461290602,0.11233551581428144,-5.44938018416615,0.771720122612623,-0.277135658189791,0.7554875046170145,0.6349380326464636,0.2572976596792258,0.4184785140412759,0.05342228791162315,0.08779636907958269,0.03465040710968978,-66.69130179200567,-23.42186753608106,49.142042474475836,21.79642060749632,35.27196611554126,-25.408790027615233,76.37115587937619,-54.67546574324201,-295.308447603795,0.2493338691940354,0.12342247449616403,-0.3072168708519659,-0.015459339187426785,0.364440214247125,-0.03253177682689365,0.7547179687194246,-0.45305372741929895,0.6480742245104792,0.6452053788347042,-0.14347520149253304,-0.3601188038298463,-0.01707741444198696,-0.2394135168613911,0.5919527017435787,-1.0779803048086314,-0.20049768848466296,0.21087936313239974,-0.2730761278593957,0.1930884445016671,-0.340370013894682,0.14915974607670923,0.04402698093568219,-0.7306024313762144,0.04723921217992855,0.18406250511071473,-2.308609655340456,-0.050779795937822836,1.0458930743157007,0.9261532886940961,0.18225589608904255,-0.05642473938610651,1.533726586291528,-0.21709456257757245,-0.15799898584355118,0.4980289921196197,-0.25466564240153494,0.01816603557382057,1.730435562429954,0.11092798460780953,0.5373788891691041,-0.7598968425403777,-1.6792293224894452,0.054021349918935424,-11.872928419771242,-0.4636051519624679,-0.1991931011912332,0.3303366818617778,-0.7639495662748693,0.20087075347321223,0.2822589036057257,-0.46151047636485976,-0.1078788500709362,-0.2051775787182565,0.9675856294536708,-0.4608500978164086,-0.4106232111305287,0.23924400434809226,-0.32003514026932167,0.4954718731822567,0.22933926058322715,0.1843568980018962,-2.5246732955492877,-0.06043954043614175,0.8684604613273491,0.01137038142689889,0.003259028532611341,-0.5708134277014469,0.5393792875836401,0.15412279079351562,0.5123641861559173,-3.9952553230478087,-0.6117210025369492,-0.0693280719235326,-0.10134130546822448,1.040594893594863,-0.8462172891351314,0.9351604333037734,0.026979099831533182,0.4414002189062547,0.38313389619656,-0.011637823553878407,1.132682990504085,0.48385219191974005,0.3617501713590413,0.016579356178929056,-0.07814935065511017,-1.7110993510197323,1.0531563181736319,-10.578442593736474,-67.30722839603972,-23.700945831436737,48.12878306445629,20.512318222611405,36.02560597430864,-25.641838137493213,77.77889303111137,-52.736919029190126,-293.3964784914812,-0.9204255657500139,0.1747146556423471,0.7516634405751709,0.06585020004084124,0.49612864720093075,-0.7709502922205618,0.7110147417713909,0.48059865183498807,0.13563994700243873
biasActivation=1,1,1
[BASIC:ACTIVATION]
"ActivationSigmoid"
"ActivationSigmoid"
"ActivationSigmoid"
