encog,BasicNetwork,java,3.0.1,1,1328575523530
[BASIC]
[BASIC:PARAMS]
[BASIC:NETWORK]
beginTraining=0
connectionLimit=0
contextTargetOffset=0,0,0
contextTargetSize=0,0,0
endTraining=2
hasContext=f
inputCount=8
layerCounts=2,17,9
layerFeedCounts=1,16,8
layerContextCount=0,0,0
layerIndex=0,2,19
output=0,1,0,0,0,0,0,0,0,0,0,0,0,0,0,0,0,0,1,0,0,0,0,0,0,0,0,1
outputCount=1
weightIndex=0,17,161
weights=-0.04080507957586341,-0.04840698680431846,-0.002358391604150037,-0.026411674303352922,-0.07978063903248254,-0.05811877522588635,-0.09511829304645679,0.07782353638822608,-0.039586811897973945,-0.058746466178451556,-0.01856354382395385,-0.04718875908821621,-0.012895244342834011,-0.03259070817595475,-0.010761830315578397,-0.09911832559413568,-0.7334804562118133,-0.26333151315023573,0.017789550668853335,-0.12113348940390271,-0.5995579928001071,-0.21286475507017355,0.4800191765103292,-1.5538999988041664,-0.5321936422265346,1.2310714384882542,-0.34193656069359535,-0.26094227766693967,0.32889116235915405,-0.8313139625946435,1.0415093974259406,0.5798084159533308,-1.7653038474094271,0.0008487774516849067,0.6701601389398697,-0.46994172698753717,-1.452635100094981,0.35280226183352204,0.5963285819122928,2.1489548558441176,-1.9763437422848018,0.13781337819473893,-1.742636940203748,-5.808199633592119,-0.785599736352224,0.5526736464507365,-0.10924444513496039,-0.7674247733359356,-2.7420834023585385,-0.40954961469881823,0.11133825991476991,-0.06950401286385158,-5.40145384813176,0.3771899025315608,2.028074059294424,-0.22986438296560852,-0.2906485705906895,-4.257991576503444,2.577252921312117,-0.8047848850281221,2.720553614897644,-12.334995003232873,-0.10642640288749619,-0.1631703652471317,0.17409325184774405,0.22251276354018246,0.33861278710609166,-0.3706075672517989,-0.008941133168525267,-0.3542716909139234,1.2909945782767274,0.04001540751079721,0.013137897926650335,0.20833779044038092,-0.05437372239897342,0.02930897145525095,-0.13587738515845466,0.8838773579229209,0.3423357147964007,1.2948420379844108,23.809125394938448,37.32322914471282,0.13127931272061769,-15.218479866562832,-39.27604341053731,55.00820999945273,30.7847187247835,45.87230126732159,-63.97642481283615,-0.5250823735713042,0.3454994494261102,-0.6516023392315913,0.6540506345382904,0.6305672606488981,0.43686918393508256,-0.5140295662892322,-0.16995451378790138,0.70157827973959,0.7207349811525303,0.1904450700970277,0.8034078601566559,-0.8747135968816289,0.4453843306149174,0.978330354915633,-0.6557883816016301,-0.9633977564265743,0.6961203173396728,0.5082723435982348,-0.3953107525026155,-0.1147626368217639,0.37524523178562075,0.8486212572834535,0.3109676738032272,-0.0021675846782123476,-0.45041388899834905,0.09687218927988232,0.0814871368540102,-0.038861832676840596,-0.37851790356913606,0.6888051806687454,-0.7080555717676749,-0.5359373321285898,1.1995324884836347,0.3682312804822242,0.1446313702455015,0.38326909771595075,-0.27292595983055146,0.6764166964122489,0.07887240156496576,0.47865689367880365,-1.1218483108805808,0.4602317188343858,-0.331356952528966,0.9454603753614322,-0.14527442331319332,0.05004978975111238,-0.4305813700208947,0.2924509912356178,-0.2210119201896045,-0.4803499813756517,0.25831858454144263,0.5595403097601361,0.0037718371413019702,-0.062157289475348265,-0.7736380647799075,0.16838067405037405,-0.08315445341531007,1.0009015055924326,-0.6930931468436383,0.40114467380328434,-0.9222952054739891,-0.31872529671186245,1.446033289205491,1.5829046256530142,-1.3704487495059432,-1.8194761658094085,-2.5324804604005817,2.499704702788565,0.31779613784928784,2.5743025143662113,-6.8646603315178405
biasActivation=1,1,1
[BASIC:ACTIVATION]
"ActivationSigmoid"
"ActivationSigmoid"
"ActivationSigmoid"
