encog,BasicNetwork,java,3.0.1,1,1328564164266
[BASIC]
[BASIC:PARAMS]
[BASIC:NETWORK]
beginTraining=0
connectionLimit=0
contextTargetOffset=0,0,0
contextTargetSize=0,0,0
endTraining=2
hasContext=f
inputCount=6
layerCounts=2,13,7
layerFeedCounts=1,12,6
layerContextCount=0,0,0
layerIndex=0,2,15
output=0,1,0,0,0,0,0,0,0,0,0,0,0,0,1,0,0,0,0,0,0,1
outputCount=1
weightIndex=0,13,97
weights=0.15871739948469604,0.12928902969915854,-0.08200211488852197,0.059807282756238075,0.14098065492461853,0.11443576209111354,0.09994451752910817,0.1951123177641726,0.0316905932322267,0.1256794217036995,0.13690399395062897,0.09707350783905559,-1.4319642836825583,-1.4228402206796629,-3.6241577869744903,-2.1303057165149575,-0.5956101975243675,-3.2355188968499835,-3.5263604486954105,-131.6231999789509,-0.14434272108435237,-0.5331140230526871,1.5570008004392522,0.10532476612014804,-0.38597644819849786,1.6588622639965105,-88.34102264864757,0.10643613658394718,-3.633575863753216,-2.169589282177232,-0.9234196224641803,-4.676617176480305,-1.1725347383453402,-111.26577128389242,0.46397662153357866,0.15791651176865207,-0.9785491005188051,-0.014260201582400961,0.6573095489355336,-1.6777115919538748,-169.28627006162688,-1.5633608292260246,-5.318237794099944,0.21460332800789436,-0.47253843460597533,-5.412364049955393,1.937263010279794,-62.55778947883709,-0.056642559073484755,-1.4808405159048625,-0.9801924395796379,1.451859371496651,-1.1739386902371636,-1.2703212132699062,-110.11987283129596,-1.56904105690765,-3.7231070217182753,3.1199367060854497,-1.0167674048077027,-2.6032292667562262,1.119164469021765,-181.1346297357388,0.360485483355408,1.721072705231245,0.739908407479657,-0.6588933155451256,0.4904003839895187,0.007150178252348927,-144.81283135285338,-0.7484997152428926,0.3370802233896625,-0.04544103532502389,-0.5995607621835257,0.6212574054100917,-0.23259879694213845,-96.99252599365813,0.22641158446366091,-2.484237267352248,-2.603571520007033,0.06951533315845412,-2.2540713149169043,-2.027826741482532,-128.56919236683925,-2.004040559907622,-1.976670582750347,2.033802171440762,-1.379825340017132,-1.620777840416748,2.5160811824880054,-113.2894519576612,-0.457938431361244,3.2512422931941853,-0.6118633241653675,-2.8380637257625856,2.5775821641299914,-1.0219582233209519,-168.48533768748268
biasActivation=1,1,1
[BASIC:ACTIVATION]
"ActivationSigmoid"
"ActivationSigmoid"
"ActivationSigmoid"
