encog,BasicNetwork,java,3.0.1,1,1329247007105
[BASIC]
[BASIC:PARAMS]
[BASIC:NETWORK]
beginTraining=0
connectionLimit=0
contextTargetOffset=0,0,0
contextTargetSize=0,0,0
endTraining=2
hasContext=f
inputCount=8
layerCounts=2,17,9
layerFeedCounts=1,16,8
layerContextCount=0,0,0
layerIndex=0,2,19
output=0,1,0,0,0,0,0,0,0,0,0,0,0,0,0,0,0,0,1,0,0,0,0,0,0,0,0,1
outputCount=1
weightIndex=0,17,161
weights=-0.012199044751423305,-0.13782126027174374,-0.08335049330964373,-0.16794917450722027,-0.12654620680217615,-0.13818526340533388,-0.04420827124165126,-0.16286555651882414,0.015465576569736267,0.0007291944522000993,-0.13975459144204436,0.024374708768395856,-0.14764219378240606,-0.03475637934953314,-0.06123012723784825,-0.1847151024683319,-1.4194176684201856,-179.62976089993313,-60.60092860461983,-12.332037937092014,-25.339679072440937,-187.0491075325025,-139.88304406385228,3.33631808660427,-14.464716850613115,-200.21108280565656,-142.37813588222355,-10.976198103887466,-6.0078027874406175,2.1326834100613152,-149.625433822131,-107.96661903205803,-2.4333772965258857,9.858102104209854,-217.3273980101015,-204.9886310082348,-105.30504662571184,-28.68195617790685,-20.773844655028896,-200.30811915373505,-181.22072819290557,1.4515333561145587,-24.805754533112193,-211.47052390543016,-91.41411643309937,4.617959100547994,-9.670898863345611,-17.226499019152577,-96.60841200459754,-68.04487591904713,9.033296223230892,-8.418509930916859,-100.53781201110296,-123.05007005852393,-21.49170515027165,-6.773399676204566,-8.489623139914618,-120.7680746261472,-98.20660639462093,8.995101571433171,-3.3918111098634856,-104.50998143317125,-153.0040898287984,-40.023791968660774,5.302418665830322,-3.180913104223091,-145.42129849437873,-112.41140988759022,-6.364926085151159,-3.363269279742614,-146.9860356854812,-85.63480747186692,-13.409616908228507,-15.847937209902074,-32.02619598733464,-89.46214106228119,-58.06582744764252,12.680865787642281,-25.584254136057083,-138.25183705294592,-81.25590135463234,-4.4308757044718545,1.2533483305478486,-7.0784342958192195,-86.43316925980407,-46.536459026006796,-3.770712216241165,-8.884376947893518,-173.4445089004855,-188.7341466054339,-135.71929050888352,-1.3250189363201246,-5.815900795416196,-181.34382731331553,-155.98845487379864,-11.457750276365225,-3.649149357589458,-173.31824078342075,-104.46794739055225,-40.38149756904449,4.622030419911208,4.5589840452063495,-112.11558948142684,-62.11474606319608,-7.1920573919097395,14.506566880562128,-161.8203658356381,-144.38016283794607,-66.77356508174461,4.54803698746684,-6.820175961195353,-143.09318097788096,-118.2668403469629,-0.8225492439249755,-12.488885301603096,-108.46737714039917,-99.35924872759904,-89.36875974603456,-17.77581777112429,-10.02217863813386,-107.2392615733878,-68.64073636390526,-12.246034936424174,-8.465886183015302,-117.47388328743925,-83.42000995932544,-18.272613227974958,-11.59792730480875,-16.948792412389853,-86.59644194743223,-58.891249127110335,-8.308187248628679,-4.246708632185455,-139.14632941077724,-125.82069570962842,-16.08729992213629,-10.84532882175784,-28.014955473509787,-130.01815279817694,-96.54519980185164,7.778416754683813,-27.97054372772011,-162.46267928876378,-178.32639282890673,-74.84806730102075,-28.722421693270636,-34.98863191485915,-181.52068813721024,-144.5434979988724,12.725991137224092,-26.86331674845446,-248.32506543837323,-178.6022353051908,-65.42721533994981,-7.017601176038576,-10.720397536383704,-171.5982804121735,-145.7997843797667,-1.0744834844723181,-4.380980948411927,-183.38260063801522
biasActivation=1,1,1
[BASIC:ACTIVATION]
"ActivationSigmoid"
"ActivationSigmoid"
"ActivationSigmoid"
