encog,BasicNetwork,java,3.0.1,1,1328407019230
[BASIC]
[BASIC:PARAMS]
[BASIC:NETWORK]
beginTraining=0
connectionLimit=0
contextTargetOffset=0,0,0
contextTargetSize=0,0,0
endTraining=2
hasContext=f
inputCount=12
layerCounts=2,25,13
layerFeedCounts=1,24,12
layerContextCount=0,0,0
layerIndex=0,2,27
output=0,1,0,0,0,0,0,0,0,0,0,0,0,0,0,0,0,0,0,0,0,0,0,0,0,0,1,0,0,0,0,0,0,0,0,0,0,0,0,1
outputCount=1
weightIndex=0,25,337
weights=-0.021260918945713303,-0.028740209476617207,-0.06916408115645728,-0.2214754558684945,-0.04764146235958238,-0.006872159228120789,-0.04130878244576829,-0.1037595693003498,-0.0401760216544974,-0.10780895917623196,-0.05867140807513257,-0.05576610141317986,-0.1693960295292114,0.22806099519580403,-0.04611288624157971,-0.2701172527768474,-0.10082243540220348,-0.00887785215439657,-0.10386582542469719,-0.03506491219127866,-0.1209450641793905,-0.03959093527083534,-0.12717559008220736,-0.05254528186640258,-0.37935769905355354,0.15052849320427014,-0.7282762014383509,-1.34099019641625,-0.3116067852201305,1.3497446769080583,0.7880710344752297,-1.8513762290820512,0.37403971618350473,-1.1772398205434422,-0.6132381118308448,0.3711164440171363,-0.05006742512162634,-4.334735318358521,-1.8618741219398482,1.2439140855253312,2.2472812142829492,-0.9436677973983029,-0.8018526525568974,-1.24183284056686,-0.5211179704775595,2.845868317903426,0.6627324300547086,0.786759235371044,-0.24120942327112382,-0.2562993518010288,-5.499460163191557,-2.1353442400115847,-0.9087768458816239,-0.8922414588576757,-1.2233205920133845,-1.4544868858239566,-0.8763945742642136,-1.411842394652814,-0.6169553594384176,1.6702677693592176,-2.5065275921640473,1.031938204911501,-0.08096881416544671,-1.7883022578437975,2.925436664914235,-1.5253715469902331,5.5175148492563695,0.25470829117675264,-0.33479805286316694,0.809487548014387,-0.39757644698389916,-0.18504450393367033,-0.7169388875285727,0.22919120779367644,0.6546490627358112,-0.14842834956959705,-5.438761485072805,1.7349742748947143,-1.2218779994399351,-0.4946207948457766,1.5022139484582262,2.460033632115433,-0.6345918178103693,0.5551190005921902,-3.1092787273679208,0.6491512408014495,-0.7327957416522484,-1.4304408737877012,-1.3022646588875388,-2.65047344006789,0.9010908417498562,0.174801740878406,0.9252522520436747,0.2792890684085363,-0.6440786500979869,-1.9190020936515584,0.5418013228612765,0.31525626765943593,0.5913311736934049,-1.6704096507501323,1.915732891612258,-0.03868825064801703,-3.65084635439932,-0.857048156096935,0.2552867349028728,-0.13144854881966977,-0.6481713199383216,0.871307351184121,-0.8497486706083461,-0.2351284318283754,0.8786910924489423,0.35047234731607235,-0.473709594050018,0.1052113391171779,-0.7615369025386647,-0.6223700437538506,2.6987361970491035,-0.6342232138256441,-0.9442709805781601,-1.3019119033968025,-1.8158024578157672,0.38823357858458263,-1.6864363416141843,0.508233192165511,-0.10191000618345969,-0.32305040030180143,-1.4231537936295475,2.3822814265308057,-8.485986340781883,-3.0522075596494163,0.7096231018566037,0.6716516082935893,1.018551891051651,0.5321543494858352,-0.5004782821232079,1.3777335281573313,-0.00508218214887611,-0.18525581198522845,0.5178317708725451,1.4481887139839498,-2.2563574416559975,-0.724983285092178,0.8880693952267185,1.306834825980517,1.977272177179246,0.7596673427963913,-1.719549415604034,0.5869178493609077,0.45374437654650174,-1.3681983580427972,-0.07325854133654977,1.031157531144339,1.9783052751046029,1.5873156308021128,-7.0872180566894345,-0.7710709354352923,-1.5027821990186705,-1.7593642859106837,-1.3021661362762176,1.9035666266532574,-1.0732389293236124,-0.7469662516297301,1.6135385622823564,0.12831814040397643,-1.0399925997546142,-2.527496154693886,-1.4210416450994412,-0.008789299560274258,0.028729315950746237,-0.565549936732598,0.6077260960488522,0.48917671838398524,1.1261749531688316,-0.2011359915904558,2.0073281059194796,-0.6124374280221301,0.8581342591527732,0.19147060343403202,1.5115854286285737,-2.1007356539789463,-7.10068404375907,0.002827794994927968,15.408215217208005,-4.0871998808767875,5.106128089196157,14.789851787538957,-6.088170424937109,1.620197767245258,-5.1975350985202,1.5712859689510856,2.237319960271428,6.977681787814565,16.525654677649957,-29.832245679780716,0.5511351854439481,2.5132401966037756,-0.5300492786636757,0.5411750995885787,2.0566683085175894,-0.004045206232031584,0.9819597974872781,1.2050227898298227,0.6650165236138201,0.6549578429571248,-0.0277297439810954,0.3808998674993216,-4.379705405444475,-1.521054350780406,-1.0637105103268658,0.012480566608823296,1.080123365128036,-0.03694598890170511,1.8847990202589575,0.5526086624459334,0.28139850323879767,-0.6135490607392962,0.7997778334426671,-2.4790228645950636,-0.39098722096755323,-4.296025288169835,-0.9645312446567809,0.3599733514142912,-2.0010079270781627,-0.015156764843704096,0.0715942642541044,-0.2745015706266839,0.22711278441361862,-0.10481818822361252,0.26024910435904325,-0.061017786325076664,-0.3584195519458617,0.1426487824624386,0.2290443676562489,2.081991958581863,0.7967554812344839,1.0814713771327422,0.7594508653265412,1.5682110107406335,0.8896163841111961,1.3750565754429345,0.583207088968696,-1.4457118431786204,2.3156456946293673,-1.0141060785132734,0.5185116629513876,-11.619547884973668,-1.658112230243232,-1.219693960879095,-0.8709899530379737,0.16106239331622008,-1.9107509332646848,-0.6657767126371946,-0.8957116489673269,0.25363072828419564,0.9957603963018268,-0.07670486946873152,-0.0881033986942173,-1.6900026367753906,-3.6186179839585777,0.42634906075506185,1.5608647854179618,-0.1458811460779983,0.040693799111182115,1.770394702718725,0.8997832318938792,1.0913173360644106,1.3535229947970935,0.8952416922929657,0.4845031414993657,0.05831435597115133,0.8214219574502735,-8.014706563366506,0.7715964238724908,1.5986840448913273,0.6363934982980559,-0.5867617478875681,2.9136437042105077,0.03567788264071836,0.641073450063723,0.10144643888560195,-0.048302942894683225,1.1443577751498522,0.423415644531583,-1.0585372677128593,-4.48111798196763,1.0904462860804676,2.8958695549234967,-0.4558933731614703,-0.020536799537910017,2.742442123184396,-0.35987630881585364,0.11619550411194213,1.4938657178517656,0.4416735969826665,0.19297087681275152,0.13332820054883637,0.34842412524995825,-1.285915224614288,-0.17419534507979406,-0.22530826517520278,0.941782005158439,1.2910218275770693,-3.3334305551698673,-1.2396194233753863,-0.15240902220820451,-1.1734749569515683,-1.3763213941622694,0.04392439933735767,1.5732910854432633,-0.49167081730540907,-1.9623157319182511,0.3138788577886372,-1.9088067498175934,0.5685739762494673,-0.6577307271327116,-1.7140348513320114,0.683888938342063,-0.28525569606257817,0.216046415087364,-0.021006942888892266,-0.10640237525054926,-0.8177624878128693,-1.7540156441643278,0.22143062994482154,-1.5291413949993156,-1.145549208912588,-0.32218066402497625,0.8088109346311639,-2.113492095949618,0.669199387323814,-0.46610321387821774,0.1708408020299259,-0.9050735976648573,-0.4905373005824645,-0.06940713477801339,0.08776732144959334,-0.4908304385392719
biasActivation=1,1,1
[BASIC:ACTIVATION]
"ActivationSigmoid"
"ActivationSigmoid"
"ActivationSigmoid"
