encog,BasicNetwork,java,3.0.1,1,1328525947283
[BASIC]
[BASIC:PARAMS]
[BASIC:NETWORK]
beginTraining=0
connectionLimit=0
contextTargetOffset=0,0,0
contextTargetSize=0,0,0
endTraining=2
hasContext=f
inputCount=20
layerCounts=2,26,21
layerFeedCounts=1,25,20
layerContextCount=0,0,0
layerIndex=0,2,28
output=0,1,0,0,0,0,0,0,0,0,0,0,0,0,0,0,0,0,0,0,0,0,0,0,0,0,0,1,0,0,0,0,0,0,0,0,0,0,0,0,0,0,0,0,0,0,0,0,1
outputCount=1
weightIndex=0,26,551
weights=-0.3867650152494319,-0.13383999078703698,-0.29561269656929184,0.13524046423421165,0.15145042328422997,-93.89043865115863,-7.76886673985409,-42.37294753115307,-0.22174489905694122,-8.99951822245358,-0.3908119487500354,-22.547965928259178,-0.3883994803696262,-0.18426089376003646,0.15049380160815162,-6.620457208363319,-46.280716849176166,-90.85684085215217,-0.9371215146855228,-0.1257594368131316,-0.17522542194126145,-0.14376728660094318,-0.37229053602338097,-76.47441622413379,-0.9609395751441998,-0.019939851375564244,0.1588300561608595,-0.1364007063296001,-0.00955858902113654,-0.0843782571696935,-0.04189715967990862,-0.004143709359131175,0.4827170019884841,0.0038798740485436085,0.15543120913937775,0.1774790142664694,0.39947113568884535,-0.06786117445813428,0.4058749347548895,0.06291702334928004,0.1055116739968193,0.3551557047276684,0.517830651941583,0.4376466736281203,0.12897643619493596,0.19841203635514876,0.14566804869878913,0.2260543339268581,0.007534374861005878,0.3545440726415336,0.37917159349529655,0.21824058448407352,-0.020314948872024077,0.08186854688083409,0.15450195738828154,0.12067230456891073,0.12406860821799384,0.06648967534874836,0.46531542077810323,0.11425318746269261,0.4484447160574098,0.0008202934810318287,0.4092034847614185,0.16664067561606172,0.27071935767377037,-0.03429509826007073,0.25894335333824003,-0.1396795521839967,0.1776212448377102,0.07709593881434612,0.19787737570588376,-0.13980717594869985,0.3310046081591485,0.4563453062775786,0.36765951352285137,-0.0006044060893411023,0.04351175264070857,0.5106732253081532,0.41528881381474075,0.2588060826523633,0.06305266333119003,0.4323033850616241,0.4642698593981766,0.46789928123338725,0.11711225112496085,0.42130793561009877,0.05449171248283602,-0.16893178336612047,0.12979906711523162,-0.2667211825270938,-0.4311503947770417,0.10235755604328545,-0.10195965322946071,-0.18900380544502055,0.03271926540602024,-0.05333556114338647,-0.005778614409966177,-0.33823203861907053,-0.3164603025511101,0.026969932760938092,-0.294733971766109,-0.27904301664606107,-0.024347014601812534,0.07606726842648165,-0.3349667497894753,-0.5989194231870042,-0.08724338367370962,0.015029348958449944,0.08672315688272199,-0.0013496854028691337,0.14538413167910458,0.10772820416993328,-0.2735372005315741,0.045980198231925146,0.04269450510741726,-0.0340727141982088,-0.02568062118457801,-0.4865142530354445,-0.3300217277671566,-0.26577907644287607,0.015510101857691454,-0.22898127844350707,0.04225990597553611,-0.40639599112761376,0.05424723664253764,-0.1446415245098417,-0.09578130095481852,-0.27177210064786234,0.1414504578387423,0.010179217470658518,-0.17724654811994422,-12.64158112774271,-13.478086342061005,-12.62520698544623,-13.799733685103755,-13.018630850662786,-13.297793403542464,-13.02079897137678,-13.262439561377505,-13.273359744222176,-13.62856186036882,-12.983486757181474,-13.683597051618937,-13.078330200430154,-13.372126197525112,-13.318066185350007,-13.748326173994876,-13.558805364293105,-13.140370905060811,0.09368644354920029,0.13241198890884873,-13.392922341947818,-12.165602189627187,-13.101419455341407,-12.590438102395424,-12.749917816966304,-12.276075225194234,-12.760075342631891,-11.96776248234377,-13.003306739501284,-12.249048080249844,-12.813669472207799,-12.635818731902289,-12.818726900274703,-12.60397219509258,-12.715678382571449,-12.305781318613793,-12.455531189507894,-12.704327155906098,-12.853751206589726,-0.0338428843518455,0.024932554914790874,-12.982279711642844,-11.998559391855274,-13.17547274672021,-12.291090514063939,-12.783755830490085,-12.623049642967949,-13.063583953906484,-12.507268440106158,-12.877078080290282,-12.257786929969,-13.08055291541217,-12.704704338771757,-13.052129393976417,-12.783126857025568,-13.03354121806487,-13.005386624528507,-12.727096299038289,-13.036087773275439,-13.011886302088655,-0.11668463765390634,-0.2595820957692394,-13.223746812566283,-0.16526712968231294,0.09528630919098963,0.29757367220111414,0.18722327020411617,0.4101071781595634,0.45945009581446167,0.48098508295217623,0.45730808089690295,0.1425663824438731,0.0869052332741872,0.1623355649183657,0.14804671338533815,-0.031825812985314866,0.06473696956014971,0.013087354497190371,0.019829387356962856,0.08936271296644446,0.2787415719090866,-0.2638271572629573,0.1266573773351491,0.28154739280094504,-10.180767855688256,-12.821343547065144,-10.26473113764458,-12.995688955764665,-10.149028762790623,-12.565588916632077,-10.678858387464048,-12.885044302916768,-11.243161754351242,-12.9266618503461,-11.66991681008024,-12.492504416550746,-11.708358977860238,-12.486501550715825,-12.013722861273937,-12.863393192758664,-11.849112159957128,-12.696925346941027,-0.2034560153623469,-0.18304212291951794,-13.169315610717556,-0.1081951075801092,0.19198559285302502,0.23619833491329106,0.39592903579158983,-0.02152930203106175,-0.007907620154955951,0.49905491214963627,0.17875731231076558,0.2297140237159146,0.3722492264450438,0.5143816537522181,-0.05656631964325795,0.29852728811910184,0.013406704854215221,0.37679487940008344,0.18124217080047106,0.41147860328301605,0.1395507332410398,0.04340495340055472,0.10497782481333548,0.00023099028278102465,-12.286600522053089,-13.511173363749782,-12.614445351522267,-13.507800098109122,-12.553619401172426,-13.640545447449124,-13.007407446236707,-13.401053038146859,-13.32996665708159,-13.140784064948098,-13.042682955950415,-13.221061525464041,-13.37408017884354,-13.669488215700769,-13.714898693014492,-13.742967457501978,-13.405960018043016,-13.363929276665054,0.14472903973372814,-0.05335467857689893,-13.49418733587833,0.36317242474412553,0.12457998422498859,0.0566231247334211,0.0350539057749685,0.40680215611259957,0.016041553330154657,0.2797834862679192,0.45519644926200203,0.2775499006390944,0.47156429279920525,0.32959196954551667,0.1044109511558394,0.43291452817315806,-0.08126390351431767,0.4058535323870483,0.40402045739193265,0.5584399644353263,0.1781751218201894,0.03166304615438405,-0.22728177350125223,0.30414035418081936,0.05554504444691627,0.33073118746212077,0.21773982091597016,-0.10151773276078796,0.1862640841971836,0.4911631080824572,0.3041538760935098,0.31581996239792626,0.5059156627093215,0.5213347242460277,0.32422958872251756,0.4466282457133331,0.2114732643709613,0.3386720494158438,-0.04985774693732256,0.4938500295777579,0.22510177370937517,0.2581373688622112,0.045712434351007095,0.09722574076814582,-0.09999047062688127,0.17678721663981678,-0.3418218077652542,-0.2685769663329653,-0.3043851306403616,0.019216731655295555,0.07032274026221647,-0.36441517134194296,-0.34398518445037324,-0.5060665242153914,-0.35107950521642145,-0.38813602952632603,-0.0941407583820352,-0.4847655813370674,-0.19547141300994092,-0.023620300422121782,-0.053753331976037044,-0.17494960134459547,-0.20168615244697435,-0.0797671830893825,-0.047513601519580353,0.008036391680668675,-13.529789095389308,-14.307357130252042,-13.976821245535657,-14.227931952822226,-14.115893583627464,-13.841302163375053,-13.86188619668786,-14.402128564520995,-13.942800948131161,-14.206063224777527,-14.134525092155384,-14.43422290664069,-14.009394762884485,-14.132394174646663,-13.936947915058406,-13.67269762137858,-14.192617640592895,-13.760256633404792,-0.14226773298952947,-0.07931256002796083,-14.449372468942869,-11.90910687406813,-13.42852871482925,-12.199767087027888,-13.43193012915802,-12.507994292134148,-13.277724878293384,-12.544873069197068,-12.888242799008394,-12.774911488833887,-13.330885230871749,-12.867845277604005,-13.087694738414854,-12.850838734832843,-13.026078195755902,-12.781985701866386,-12.986291569559173,-12.804970158039719,-12.82558346154517,-0.2523132376242528,0.06097293316989395,-12.987958305323467,-12.13611763367668,-13.151305159271551,-11.94920823003161,-13.388125749350662,-12.098927299947485,-13.293599865238942,-12.082056897727714,-13.567031390727681,-11.981667003697773,-13.514692361951711,-12.280883870223999,-13.507818792179524,-12.347392523660819,-13.449458626395199,-12.382787891650128,-13.630040414934516,-12.6245250138298,-12.893292138972292,0.08774453383935775,0.07683408009093667,-13.242353785292417,-7.096419139954235,-7.4015010282674965,-7.045100895219879,-7.112488870938678,-7.123181889237534,-6.84058859011673,-7.330741680406845,-7.028187428064389,-7.155456108705221,-6.8683069661299045,-7.3158084792173765,-6.836446422862106,-7.05109740506584,-7.207378893580003,-7.186567420955301,-7.3543778644991225,-7.2836281019779765,-6.940647963959603,-0.10525159401325007,0.1605329160719757,-7.416152395092989,0.3387388711791694,-0.07185988628188639,0.23980452210590802,0.23135488864252168,0.24217708243214847,0.17166126041792762,0.08300051436898823,0.1523693045150601,0.21680763043541124,-0.037983817066681,0.010139697312678195,0.03657680043882412,0.04804616075851459,0.12453656504982938,-0.06828188329636226,0.5100708246937704,0.08556843287894986,0.3297667158696776,0.25367239595080354,-0.23367131571964325,0.07420331962936241,-0.15277975917772435,0.09382727656106465,0.34220064372115294,0.11652352018076975,0.2682425510789798,0.4615481298858873,-0.045687365641901706,0.17211355715533272,0.08613108935996974,0.2607187163317171,-0.0109709195979646,0.4502255930687196,0.2999180342320776,0.46578703837162977,0.3891214586432245,-0.04595398420902616,0.3492224433249142,0.10544280314955343,0.018113294490371246,-0.03936644952123157,-0.11367474883674901,0.08506979687781391,0.38171215740024905,0.288958004699955,0.031053803470761924,0.49795102699136007,0.1834566335491447,0.06268828338106577,0.473605517560787,0.2375520427552143,0.2571480874282855,0.1093714201473591,0.5161929297927661,0.0076034725501803214,0.39027220880223995,0.47972278608558283,0.2642218463568961,0.3526382407171292,0.297355397846135,0.14361271045239124,-0.10219190436692757,0.42853096676253905,0.4105721274481056,-0.04818652685743377,-0.01115452937665266,0.13886657437206115,0.18659141720774014,0.26528050517011853,0.07748543816466683,0.1377510011989925,0.12383825328470652,0.3387177262152877,0.1205818630421853,0.07003579835379922,0.04114967647608046,0.5215816625589986,0.32111421060348694,0.5007102026070076,0.28282188046849904,0.061263689651908315,-0.12559161566384236,-0.2528591722701874,-0.1138564749979984,-12.27836674331336,-12.984701403770858,-12.825533793446985,-13.514784286501065,-12.760375746540898,-13.22366909387927,-12.787878947827046,-13.14582079464039,-12.896410769183687,-13.046511620056885,-12.741172963704495,-13.326117590167353,-13.160196196642476,-13.102883850635342,-13.314393038893684,-13.248183385534762,-12.73847723687085,-12.943552508544952,-0.07066282078888007,-0.1854343883445772,-13.137820851998871,-7.751354785890238,-7.085570915460187,-7.6146237091759215,-6.97669173334245,-7.305591526595807,-6.867443502565164,-7.153894206422319,-6.954400117174833,-7.69951115390554,-7.3504922975407725,-7.623222316262039,-7.0977909749402865,-7.7111986442301825,-7.179272363809113,-7.899177937207815,-7.546066201348717,-7.01136102121021,-6.984488387894092,0.1078856923139739,-0.03784520331868995,-7.3847934033306455
biasActivation=1,1,1
[BASIC:ACTIVATION]
"ActivationSigmoid"
"ActivationSigmoid"
"ActivationSigmoid"
