encog,BasicNetwork,java,3.0.1,1,1328520361828
[BASIC]
[BASIC:PARAMS]
[BASIC:NETWORK]
beginTraining=0
connectionLimit=0
contextTargetOffset=0,0,0
contextTargetSize=0,0,0
endTraining=2
hasContext=f
inputCount=20
layerCounts=2,26,21
layerFeedCounts=1,25,20
layerContextCount=0,0,0
layerIndex=0,2,28
output=0,1,0,0,0,0,0,0,0,0,0,0,0,0,0,0,0,0,0,0,0,0,0,0,0,0,0,1,0,0,0,0,0,0,0,0,0,0,0,0,0,0,0,0,0,0,0,0,1
outputCount=1
weightIndex=0,26,551
weights=0.12719977713770197,-0.24330153043833452,-0.19811422854675204,-30.44779481257349,0.15694082138944765,-0.14075333600128764,-0.22252798151994352,-38.0195193457716,-0.32221698309790453,0.15001478974587035,-0.1425000561590668,-12.48977606616684,-32.042157822932026,-0.20258279209200641,-0.18026154200029026,-0.34526856230631725,-0.16244058795828403,-0.16391961174306519,-0.3469727779281539,-0.1054853137504719,0.16135351256850572,-0.26769618744161533,-0.26739888833341,0.15426053855706312,-0.15245968234113005,0.01646847844848741,-0.28916950081771825,0.17007071755903802,-0.081705810833129,0.1219678194875113,-0.14966510668665417,0.1438821755780264,-0.2923723593462028,-0.18288714118944321,0.18830195579996545,-0.3094829292606897,0.22041624160516327,-0.1551302797459429,0.04418183052952093,0.15320970515051713,-0.08676482573734051,-0.17870819301608948,-0.2555876956900326,0.011023045756938559,0.25706562671336175,0.07290418811373396,-0.01639010678533934,0.25144413302185414,0.10613645613399783,-0.1600679399356154,-0.018090326577684737,0.21980797564330218,0.16652896983082888,0.19086292402132726,0.276869702531725,0.06485154149628036,0.3721033505337869,0.12036048511498534,0.2906668826690964,0.36634585623409127,0.3387847428796181,0.273158276382461,0.310269808315718,0.21436444942960436,-0.10351704841802667,-0.27999307546279567,0.029549371746461526,-0.01536532847416552,0.2590304794960583,0.05565794544231839,0.3458280414545079,-0.06402584366029115,0.2477822700382159,0.2344681429881234,0.24907566522640784,-0.012395935182709188,0.21077151095544572,-0.23084977635061843,-0.007892780199493282,0.023264024349429455,-0.266267264572855,-0.1027737488795803,0.003570192123784389,0.3969574277451963,0.057593940748205535,0.1262348321515803,0.2402653518043159,0.04576954677024999,-0.04540844654826473,-10.34646422523815,-10.328795661648451,-10.341561972637304,-10.219364483797175,-9.891538723016655,-10.009410493874336,-10.128140050181207,-10.37789332323353,-10.320364343911322,-10.337002301490758,-10.134336565446247,-10.01248819539664,-9.955792514505102,-9.985456263176996,-9.991759177049257,-9.835527313546917,-9.885991832713001,-10.212927233804074,0.2737568726050188,0.03238421154456082,-10.054681888567503,0.15338630770601114,0.19653806766434578,0.039348005364531397,-0.06763188449910196,-0.30921011038514895,0.023286744334022086,-0.2913234368229249,0.14548677457416354,-0.30585379339708946,0.19207879834741604,-0.1964351865398583,-0.27711611499919125,0.10276349298592824,0.11384756637342287,-0.30237132214259804,-0.16295498758089344,-0.13896955289485555,0.11176274204950691,-0.10513871590949454,-0.045548347273182375,-0.1875048106998049,0.2776344053636664,0.3214185012875512,-0.17850392677579308,0.13416293137605864,0.07650349415110824,-0.15410841741945702,0.1967330670295256,0.25908487026718185,0.14231430090175284,0.2410057101198218,0.313000096288446,-0.15401317624383382,0.3243310049171881,-0.030819419299942696,0.0658372548681127,0.12752144735958923,0.21234273983197155,-0.20931879569603806,0.14552128054488805,0.20962314942781,-0.09534323247814586,0.19740437814027306,0.32772616199927845,0.34569009754184016,-0.14803540600330695,0.2506454083380089,-0.16554232313022854,0.1727777187064805,-0.163701195661344,0.09000603983529215,0.2140251165952613,0.10300592146085127,0.1814614714010468,0.2462281297861934,0.3337903603767948,-0.07407452682856733,0.218146423793167,0.22354800031234184,-0.11887556156630992,0.07239082955364777,-0.15607508577334814,0.3513466831808116,-9.447545364559153,-9.625788832763739,-9.68191498339426,-9.20278180971765,-9.498486249724007,-9.394607960135492,-9.43512861939783,-9.581951561262352,-9.611046760331446,-9.622664408371447,-9.54145009656141,-9.522447738471499,-9.202446283024637,-9.489526019100776,-9.272944925865573,-9.770131223278065,-9.211979579855814,-9.145311067559271,0.094557026032437,-0.11669257023040085,-9.649453013905001,0.14267411461960666,0.25962170262667217,0.027087739408197465,0.14098994367635254,0.3988806394011803,-0.1350181843583364,0.09399195707524105,-0.07090236836934741,0.37907039430384876,-0.1492195267446486,0.06230322071685046,0.23454563385806876,0.030535629660145756,-0.20570152228911986,0.3897407109825089,0.0985276583129869,0.0664205531595792,0.021240822546873168,-0.2018552862429106,0.08520831409703782,-0.1742894544954916,-0.05438380399441933,-0.298719177372694,0.218263669739295,0.1873900715042709,-0.06823838981503705,0.05411907592801565,-0.07129790297218924,-0.2202357682537684,0.09423411112990948,-0.2690128572738078,0.06522278849436011,0.16110725997058595,0.057688826031092516,-0.3483871275262615,0.19269318293119464,-0.17030808504877076,0.0702906130726337,0.0063476378774714425,0.26149215392560554,-0.014259805711376326,-0.15625628609484277,0.03924829441870126,0.09783004628607161,-0.2299819925244353,-0.0017548020128441942,0.03564282394127044,0.22836344477333187,0.09647245673202456,0.06467196571990658,-0.10091649941342112,0.29403143674265203,-0.04197677838538372,-0.03657762307032622,0.26761362240541114,0.29909400169786,-0.23302221651938448,0.1349655661935438,-0.12797816136778734,-0.17020315855717738,-0.020206215862529072,0.21079936801689325,0.3989217061112517,-10.650084313986774,-10.11178578383991,-10.661610792608373,-10.294338406241467,-10.218767472615152,-10.612256434725127,-10.54745951025825,-10.704685426056908,-10.420955176190628,-10.272548260161994,-10.605378618571343,-10.401763007163478,-10.606649187098549,-10.630304818304154,-10.32589781790482,-10.133329460158585,-10.401334055719195,-10.300033945812896,-0.019340673763199243,0.033625520816291915,-10.434299743846482,-9.979486312894437,-9.842732509848767,-9.763219609894989,-9.663574439576683,-10.116417351431117,-10.13025613163721,-9.731314591894472,-10.011166996783086,-9.507220906583315,-9.723963530499871,-9.989981700623328,-10.16903050870667,-9.774441205189921,-10.109259585244978,-9.672695906251224,-9.71530725992649,-9.800756843987692,-9.99641719970701,-0.13564496519635413,-0.03366705516534209,-9.780011968675545,-0.16901834676134309,0.18526340993070772,-0.10598432878546177,0.09880842635684431,0.23743683192387172,0.22168375591020745,-0.1738038555814585,0.03478420552579782,0.16467957338012157,-0.2176361243646311,0.38717647042264974,0.30965380113479285,0.2557757438420559,-0.07472866931281738,-0.04767504760589661,0.23379478659130387,-0.00028197284351248394,0.26483417887987226,-0.19522083319557018,0.09281293288811303,0.26343252973998943,0.012889200182505601,-0.15085861157044267,0.16301235533039077,0.2912927405265238,-0.10952747419533465,0.21057491554594415,0.03612561528029365,0.031419978485888234,0.14187526856878135,-0.21385616476819425,0.13447052078028074,-0.14793944007637222,0.3203563842136176,0.19263601707727035,0.34454141121512244,0.31841973597622747,0.08079740013784337,0.24254717955491029,-0.3027975624439307,-0.18763232340866864,0.21092742411984083,-0.051689397763479444,0.20358358678623528,0.13432731863938932,0.017715644539939335,0.23730439410430898,0.021027910934708422,-0.16778207366316966,0.2433228278134149,0.16652099084039584,0.24392113080522754,0.1302659973943516,-0.2048951325971995,-0.09405354761817342,-0.09453529479464179,0.39773299664528744,0.16645755482774593,0.14666979332541424,0.3756239521351927,-0.18671547646521378,0.22713266785649955,-0.1562311986139755,0.04878266506418326,-0.18139213116882602,0.07155752401823307,-0.17560192143411324,-0.019094642765209724,0.03622789165655477,0.32094418685428244,0.2887368376763913,-0.10041980304479631,-0.20124737596370912,-0.005217201570264323,0.22639814990112744,0.08230798288245855,-0.16314893677603848,-0.17049634211406828,-0.05524851418683238,-0.02082693254254732,0.00812000578258976,0.12571628597265913,-0.20911384238056668,0.3355150357676652,0.23340404105709706,0.049411082939103915,0.13289565283084617,-0.16087371886591928,-0.05224267461615026,-0.002760131521954489,-0.10152300118841495,-0.1690478312628222,0.27862045393190665,-0.15787647716221043,0.182816544008306,0.3263891225752546,0.338592520948991,0.33604250835879884,0.08975058638259653,0.06799238884816944,0.22918380865795224,-0.1496684854265381,0.041253462392431654,0.250737505749415,0.2617092039920864,0.34072165798692017,0.13359307980784493,0.0706121432451971,-0.0993219275503523,0.2232105294588203,0.16057167333305283,0.3216421739192114,0.18476784518048633,0.07787250868437501,0.2249321602360183,0.12911206856327526,0.04958239148555689,0.3645613449957868,-0.11025081073378644,-0.14650351536587203,0.06771394042802859,0.1997523170152427,-0.2048146888865423,0.26814790635013186,-0.15260823041115254,-0.22701013775106405,0.3324955614079947,0.21094545674792015,0.3373503893232486,0.2790931009493978,0.2991479203632946,-0.13994807318264274,0.09119241780730691,-0.06543990635512772,0.2865864367178003,-0.08125601443932212,0.12887232221109532,0.1011233701605124,0.24278171588682324,0.24557194865874737,0.03173017039569967,0.2544820143104528,0.2963531631852872,-0.0526973765171074,-0.21102918085153774,0.24334847890121958,-0.14772859485493733,0.19399656189203573,-0.3464228966631681,-0.24793193852868917,-0.1529592412482244,0.051054107225736084,0.16930377623929604,-0.07836078771260219,-0.08807954846974564,0.006886055383297517,-0.3503071720543412,-0.09300376529627832,-0.2284602820758737,-0.2361071524192337,-0.2820620434191536,0.18105532629922505,-0.3157739773969062,-0.028661007416518645,-0.2223692925429413,-0.22102646634727,-0.23680621220203002,-0.04979287464540062,-0.010969184358596836,-0.21856364926298066,0.38528644686930963,-0.027779807754605756,0.33733014171815506,0.04372918465483727,-0.1505704993411836,0.24377227012354213,-0.12495302303862861,-0.13663770227056027,-0.05688549402620982,-0.08454531263170384,0.11496080959396002,0.19783137588664362,0.14102910396868384,-0.12906758176309274,0.25380914652249176,0.11319188376662945,-0.10344942794682808,0.2303451919165485,0.25763724585395487,0.3876152775098572,0.28166382272931617,-0.07462045116592567,0.10921099728436848,0.2867832712454334,0.2779694582809645,-0.21835656131366266,0.16014913583515628,0.17755769876707223,0.13582365812735822,-0.10438101241050829,-0.11189815574272859,-0.13218246696853347,0.24627391039929264,-0.2102021657431088,0.35955764573077126,0.17510553986673583,0.0779515032569616,0.05063015877859508,-0.09788122376340358,0.11578794927724015,-0.39981779644372867,0.16872664477625143,-0.14826250635175453,0.24928682542088776,-0.06865812361852594,0.1694062434479372,-0.1299767287790298,-0.023514342911457615,-0.2601629079489566,0.13808189463803655,-0.1068232753718528,-0.19699788757829134,-0.26733040511665745,0.03629811577411973,0.07651448890399126,0.08693215721196529,-0.1345954177091395,-0.24690317818520363,-0.2711721981872656,-0.14142322944844687,-0.1755974186662378,0.031997138321605015,0.08033218916137866,0.34226190822758845,-0.20388077360226153,0.21072332551551604,0.2876021867031257,0.24059603994220674,-0.1902630331980144,0.051058609582914014,0.227292093517313,-0.07612391669990703,0.1383023536484945,0.24929025012755485,0.3133809158152901,0.22910711458919558,0.2707509081897041,0.16758576484068127,-0.08827499810015504,0.11533199056170837,0.17231368249675078,-0.2320067016608096
biasActivation=1,1,1
[BASIC:ACTIVATION]
"ActivationSigmoid"
"ActivationSigmoid"
"ActivationSigmoid"
