encog,BasicNetwork,java,3.0.1,1,1328577071756
[BASIC]
[BASIC:PARAMS]
[BASIC:NETWORK]
beginTraining=0
connectionLimit=0
contextTargetOffset=0,0,0
contextTargetSize=0,0,0
endTraining=2
hasContext=f
inputCount=20
layerCounts=2,26,21
layerFeedCounts=1,25,20
layerContextCount=0,0,0
layerIndex=0,2,28
output=0,1,0,0,0,0,0,0,0,0,0,0,0,0,0,0,0,0,0,0,0,0,0,0,0,0,0,1,0,0,0,0,0,0,0,0,0,0,0,0,0,0,0,0,0,0,0,0,1
outputCount=1
weightIndex=0,26,551
weights=0.15865922042989644,289.3670174313111,328.76104504521805,-0.21064034574544932,-0.33683892914117275,-0.16995954041207673,-0.3624465849208487,-0.15390146031580365,-0.3422495682984191,-0.27988515986618334,-0.10383125588121761,-0.1398102398192838,279.75033702176125,353.8380067439439,0.1550394597006392,-0.021581476919649564,359.8080965299829,-0.0035504081737936233,-0.07924400166609047,0.1820313189072172,-0.2923575069687433,-0.20296654112342005,-0.08830865406361144,-0.21218726468571913,359.9092292350657,0.09551937715083983,-0.32992479021617815,0.3356385379719518,0.07806237093270187,0.060970449355255196,-0.028161998987949736,0.13654939377098751,0.28625759625822006,-0.1610224743513259,-0.1489430252588901,-0.1561191242490246,-0.07853093543779284,0.20095123774444296,-0.007560757358674105,-0.1115498239334736,-0.08413865027527755,0.16605513590662038,-0.17897538745852884,0.2967735094045081,-0.0773700775097593,-0.22402547008407875,-0.0499630600367523,-4.1102388233715645,-5.602014974539507,-0.20617653995549523,0.2676530262578953,0.018260244706669596,-0.25437784850900136,-0.04107154108743375,-0.05656558280548966,0.25960547889405533,-0.18395974173168372,-0.14241162845858277,0.019814873034819852,-0.27484054928020585,-0.12820383528222257,0.17372123166203815,-0.12173844819411603,-0.18158022854951927,-0.27637593025524043,0.22627677549039993,-0.047784092307075005,-33.93856754264237,-3.956172439615358,-5.637937708805628,-0.1468313270325693,0.09111996850127863,0.24857480628085832,-0.26830672347831275,0.13735817529059965,-0.24296687085299634,-0.1271655101651981,0.25038995233177097,0.27191870257569917,0.23979015006436624,-0.2712043285785828,0.02599973629672617,-0.11190262192655706,0.17077642160856804,-0.028900880372651462,-0.1391068810109403,-0.261456495149937,-0.07189772743116185,-33.56712455284803,-0.11811907235949137,0.08898083982900973,-0.08264087869389665,0.11637832987284243,-0.022688535267722725,0.19523730788197968,0.019293840365752622,-0.1499869291393365,-0.11540070120326124,-0.1740453504562549,0.10046703761021675,-0.10213960645110705,0.233661962174928,0.14780228313697316,0.35708203592839893,0.3311913735328724,-0.09024328558171256,0.023593628762382246,0.2547004872130643,-0.17883230469734682,0.37832178187127763,-0.07165358844886358,0.07436445771055267,0.1822555653881639,0.28775625781655334,-0.10669623114068115,0.2601050698821428,-0.15646256191058336,-0.09988187758354605,0.08474349115645487,-0.16028687247961007,0.06141848306284066,0.26565208660673406,-0.1683656091442086,0.22308733981294254,0.2507367675723723,-0.17362886655845314,0.15159052126156694,-0.29332107428817566,-0.016671039197312432,0.19377970293932756,-0.023411444872657575,0.3240036928478719,-0.31147215948455154,0.026768506570079256,-0.042700629156520634,0.13337290799747867,-0.08063608778976411,-0.26394631877655156,0.05614828936147059,-0.06516709743672011,0.027365428556432557,-0.08790770326993164,-0.34950411324393993,-0.15435654681270952,0.12318614169638886,0.006147120837776446,-0.05485558377181505,-0.12126433494561815,-0.1035064941331303,-0.18520452452770975,0.2964199632522773,0.29974741704649777,-0.19101928476813373,-0.08398983844127905,0.3147828844855153,-0.19019529964985438,-0.06569045902568807,-0.024939284148384554,0.010613034943383512,-0.1929273513776478,0.2649819921127058,-0.30902558888189663,-0.13341547611163707,0.20054560819465597,0.2741351036449992,0.2739329329097176,-0.09380312766906296,-0.03486229481755643,-0.08762625947564238,0.1739390289347241,-0.12065214757685602,-0.08181094539515135,0.18896889998944022,0.1084556774861456,-0.21872953229805836,-0.19128989869828777,-0.2613773345650728,-0.036117636025173594,-0.04338197171459607,-0.16101480587629857,0.17869508285519733,0.0035649428907483256,-0.027197726817183784,-0.2944586074503777,0.09791195270946695,0.13729690633212546,-0.10297009812393484,-0.21785057385520692,0.07832140770393578,-0.3047176160367213,0.3047756782389754,0.0919647305497311,-0.1735079747601799,0.29345874288909535,0.24515895870487558,-0.26954017151395515,0.004404651295163084,0.17132217190955956,0.26118323380740804,-0.0351692545934761,0.19130304643532214,-0.0754897932549177,0.09723604117446533,-0.1962681304684876,-0.008826398813808629,-0.16290910258375596,0.2565011097156055,0.26538064552023943,-0.23857218238833755,0.05754846523684433,-0.07647520842603296,-0.1642418919020933,0.014969843219846613,-0.2665821392761585,0.24443049917679194,-0.20263265823473142,0.22656811074585856,-0.014949264169533086,0.20232671062620422,0.3129259333002256,0.13402890508304546,0.24122069352393077,-0.015571329180672888,-0.2991108665205139,-0.19657378830667036,0.08491714717482501,0.14526368984973614,-0.02219590791671877,0.18252094610261999,-0.19923791513597364,0.15063878024686464,-0.13732428516357587,-0.0770662307125786,0.18304989048352066,-0.005020015637369417,0.31927720531467585,-0.2888028409454817,0.15150454145803238,-0.03698204976601843,0.12209162101826972,-0.1595015410553125,0.21373783119868967,-0.2871943255847437,-0.002744378155778767,-0.21722039569171367,-0.06531209255450299,-0.20897526217071394,-0.2286126046243991,-0.009435299107804935,-0.05594998549832633,0.15987599494033866,-0.17340218095507462,-0.2245776309762655,-0.10076317358220961,0.2117711752692357,0.2749409006354298,0.19206867994992805,0.29238345822139955,-0.18654902889610891,-0.11392939724147516,-0.2825863659998567,-0.30902097574930776,0.05762548746577712,-0.25993505482738916,-0.2336219839732445,-0.03763044703279501,-0.28914518426820146,-0.04010466353021475,-0.20598733211613018,-0.048054468047120866,0.011589605827962075,0.017089875294598357,-0.1963372597852656,-0.07729364443074752,0.09886176453447872,0.04590532319393541,0.01758794336773931,-0.14805038033221546,-3.6908723869617455,-5.7872173797426285,-0.27655645891131275,-0.21864785341174187,0.0934920355378221,-0.08867274969585871,-0.005907450984084216,0.057380386307285786,-0.2361309816061097,-0.14242656391799913,-0.19636748678593835,-0.25550420230006843,0.09374080830815776,0.08764121110393579,0.19263580140488423,-0.19369659995793004,-0.031850958256102874,0.21316578417129523,-0.23043268433005126,-0.24581102390500512,-33.97361912294214,-1.972321787417947,-2.766097458428678,-0.20344246551961787,-0.09198985865185427,0.03883139350709217,-0.20622227395118123,0.29314624848745713,0.0795310627600623,-0.2093156870630959,0.10002733425978654,0.2630089839791302,-0.12124094033297621,-0.07707980374383451,0.23737309991942362,0.10582510938495601,0.01078022247419056,-0.08331779000344934,-0.15990861027138745,-0.31741634492739634,0.3116244564805305,-33.966469367797146,0.11108132672496623,0.0033016876875890944,0.23100991714502533,0.251222440931458,-0.16933833793832564,0.09299299544229309,0.26092588884915785,-0.004780412670316922,-0.20015774301744757,0.23667407107649135,0.13825470315561195,-0.25496514540263726,0.21961000882472037,-0.14578995332474506,-0.21544461489712569,0.2248472320580691,0.1756359674845394,0.2113750192778475,0.0387944053713629,0.012633977800822548,-0.2140286002723235,-0.8623340389854693,-0.5113777865828268,0.010384181449279398,0.10587539033733512,0.16145927114709094,0.19866004176147026,0.19686787546417867,-0.2817436147131735,-0.1857708739213028,-0.043015027995527685,0.009019021472368065,-0.22239658182381575,0.18770530762756815,-0.06638586908764312,0.08422788432751294,0.27798369858043004,-0.2637093206997404,0.2478052709770943,-0.055090063899138626,-0.07062628397139084,-2.0499844198133905,-2.005034047168346,-2.5725381734101367,0.06333797706833946,0.18807612079089214,-0.04685075599624273,0.2735600410791979,-0.0020338282782665098,0.05457717645847621,-0.09655229271599915,0.2184603201014497,-0.3218723254346715,0.042037606852241935,0.029351031388056836,0.15909243900463788,-0.15503162562099712,0.14155065181461862,0.0541298718798711,-0.06341452763392869,0.3364090435309599,-0.17381474535629776,-34.023956818748076,-0.6903576259167207,-0.7748981289814393,-0.21825540202731225,-0.03837460678320707,-0.24031903216566175,0.23205302900123073,-0.1972418312210038,-0.12915869566761365,0.2576717830134746,0.31036030826304345,-0.013218204422789991,0.1676605542572242,-0.1394029516321755,-0.2989587760620341,-0.2011384695656312,-0.02473267627475494,-0.09684681186192458,-0.16746152366356884,0.0317280465189243,0.27007125151733735,-2.329897189245643,0.217905684255691,-0.020092099688147486,-0.25798176199794376,-0.17704669515785615,-0.2513068159431561,-0.14416759432374765,-0.1488557413652397,0.23536458685794812,0.21376839518054805,-0.022061327389523402,-0.15499947687941154,0.03823238075102528,0.23723069058943155,0.1035520000299846,0.03861496053076617,-0.2542319778120199,-0.07719483093385132,-0.141779582363015,-0.23814344421571376,-0.17366395083645672,0.005960900834026228,0.20422429817433568,0.19041756070635968,0.09351021512009763,-0.262249922749322,-0.19191314881184007,0.20076393012861504,-0.24681970102865736,0.13902485854934302,-0.06574341597252206,-0.25820616728722134,-0.19371853396891814,-0.01982266684790786,0.24141794076064796,0.17345242766342656,-0.08681354271431364,-0.08774177280430995,0.15809643657663044,-0.22308989026331322,0.17011792493336647,0.02240338925471985,-0.29792318386369177,0.16694071555324508,-0.07305578195702375,-0.05588561708257016,-0.04507447449383195,-0.11558165873528395,0.2529362948291285,0.2649061738934509,-0.05758819464837023,-0.1734390326616814,-0.2267098609962433,0.28140712279006375,0.0717005764643463,-0.2590666195931928,-0.2414838796018737,-0.1550350809775741,0.0755349958348494,0.08746670958282904,0.12357313979738486,-0.138890402913339,-0.25114144028567886,0.32620032593157255,-0.24186390608645392,-0.08395356870218645,0.03958673254352743,-0.2649917938985469,-0.17400028441399532,-0.2740829226006624,-0.2551263281612277,0.1165086817690695,-0.12436372010609893,-0.13146877549199748,0.0332017890695213,0.2276365417049579,-0.2416233869761474,-0.03632177550416316,0.1375528376175596,-0.15461320015885713,-0.13146455317739617,-0.0013569304545855557,-0.1820304154943342,-0.22978702989939565,0.33149940979220716,0.3171783383514485,-0.021029038726831192,-0.3038805424310784,0.03872974956209094,-0.17574770494229178,-0.1605459271657958,-0.2446479188104893,-0.11679298712346733,0.1373080666808435,0.2155349230893571,0.25913755867706745,0.02002751660365653,-0.22580106824162036,0.1553252494193166,0.2392937866694089,0.1588654765115139,-0.09860980155958257,0.20198120952614235,-0.027702722110960795,0.008172933728522945,0.17589497440100343,-0.19416627200520664,0.021173758156656394,-0.12428377146716066,0.1496424133664186,0.19489590452785316,-0.25477101655629786,-0.09964575865278273,0.26619988618364293,-0.2602671209698422,0.038243856781839336,0.0891147833297539,0.2817051060766151,0.009720245199388484,0.13983312754839836,0.1544182102639648,-0.07849645053187303,-0.007683653972123431,0.24438219027076027,-0.02695183034884083,-0.2209291582497188,-0.23768221088600688,-1.780386114300139,-2.4098384224288063,0.32201194780456505,-0.14023798151944172,0.06140574889385928,-0.01268076710782723,-0.04511396156672936,0.05009937019918897,-0.18047329811486737,-0.0031398564090831557,0.3208614636916086,0.33805610807754405,0.17704001058160163,0.08316048857437026,-0.16651864919961856,0.018566384187678642,-0.33859479924792324,-0.15530043637300606,-0.08465273071510458,0.1163825267583043,-33.694014128135684
biasActivation=1,1,1
[BASIC:ACTIVATION]
"ActivationSigmoid"
"ActivationSigmoid"
"ActivationSigmoid"
