encog,BasicNetwork,java,3.0.1,1,1330991647851
[BASIC]
[BASIC:PARAMS]
[BASIC:NETWORK]
beginTraining=0
connectionLimit=0
contextTargetOffset=0,0,0
contextTargetSize=0,0,0
endTraining=2
hasContext=f
inputCount=20
layerCounts=2,26,21
layerFeedCounts=1,25,20
layerContextCount=0,0,0
layerIndex=0,2,28
output=0,1,0,0,0,0,0,0,0,0,0,0,0,0,0,0,0,0,0,0,0,0,0,0,0,0,0,1,0,0,0,0,0,0,0,0,0,0,0,0,0,0,0,0,0,0,0,0,1
outputCount=1
weightIndex=0,26,551
weights=-0.09753246929067916,-0.1872118638002137,0.16823898551098093,86.45911604355696,-0.17487210613250803,-0.12773051598106727,-0.35319449972678874,-0.350656174163393,0.1094825348465169,109.98646930227669,-0.1485191566471123,0.16496346663440992,-0.1308649931673756,-0.05685767416733112,-0.08003859491482485,-0.31290851504828654,-0.2557550076996672,0.19513484491750493,-0.15633683290071476,-0.35086778543891817,-0.04506597055504247,157.29376515237033,-0.18823479964445478,-0.1158046419333473,-0.0070308181245248985,-0.05284857229157994,-9.575662396352136,-13.01565607004061,-7.874309419033277,-9.851791257527838,-0.0760037909280645,0.2257837724474712,0.27186018011063945,0.20121343496206995,0.25791217604540284,-0.050399875352734255,-0.018814468366900535,-0.09413269151737488,-0.25849225520582186,0.16996705525761344,-0.19000717096352718,-0.29287828699321133,0.017252208293897005,-0.20251052761894384,-0.23413177697306004,0.07768621112020979,-13.169524018311648,0.38358487210180736,0.06961102855997958,0.2547917962882863,-0.026986559219068285,0.21888052034661665,-0.06476275121237324,0.1098646098540192,0.018349926701825593,-0.16393583673083287,-0.15323948651464783,-0.2524229816027686,-0.19493842708505146,-0.19745282791182284,0.08891359855437746,-0.051095831414173176,-0.26343786301864436,0.25200970108949267,-0.13692825347532142,0.22603021985247984,-0.1171165452131314,-0.2083467796279021,-0.3258710321563043,-0.36954052729180176,-0.02445050846046234,-0.0920455571634321,-0.1382354208408027,-0.13636392406006603,-0.27155526005756586,0.2572866514206536,-0.07379537172977811,-0.19116426557679758,0.2758406823825883,-0.20008872745919237,-0.0859232105921926,-0.2980892865017575,-0.08936524910320819,0.15496089125145127,0.18102795002912117,-0.18054284653222533,0.12047036142534025,-0.056466472482551315,-0.3076010187702036,-20.380918480489846,-28.437328642167376,-14.766627075029223,-18.02456695426644,0.22178481114957,0.31707965433666846,0.16157697228811305,0.26835353441373383,0.04459734973653467,0.22235517620119424,0.03756945165205154,-0.0004723562791843779,-0.08372904814750988,0.02050234424671146,0.10353429962372791,-0.2566190750711322,-0.07637017367491158,0.14210305260653805,0.16963706879568707,-0.20287424598495193,-28.927268038601003,-0.009676743012845962,0.22590376173372265,-0.13637723956419168,0.0356986818538253,-0.12999337855076934,0.039199653573565585,0.26546815386881906,-0.21764302811973354,-0.09455801482264575,-0.11556069069214227,0.1081029702268728,-0.27137606698346917,-0.28853662240822536,0.0036637462391773414,0.14470464020899265,-0.2621024656354704,0.22994948459715048,-0.22742152660391518,-0.13715528510299274,0.19487970906519733,-0.10411619426118254,0.3285086305374284,0.10413173076120186,-0.23663757232915822,0.10711337006800126,-0.15014820573122106,-0.3144185663203123,0.1766759502261492,0.13337161412618212,-0.020939470812666658,0.012902041152250354,-0.25700765464631825,0.23161464263578424,0.05130719127294814,0.24281632883509666,-0.07577001313458849,0.032867832193545214,0.3241457150209403,-0.10098259523133002,0.04149182007923757,-0.2277191561534631,0.2585459253758021,-0.050138618825739334,0.10962225897814931,0.2448660773759389,-0.03758579298761386,0.0022909278607345235,-0.004362148343103209,-0.10794276203791832,0.15369663334928618,0.22496556327725162,0.14643741910902877,0.2240019030696541,-0.15995347437216528,0.04257654123549405,-0.16821889446939217,-0.2142471669040218,0.27429834911034406,0.2625287369655293,-0.02391752911519651,-0.2561682265536557,0.2571139797808518,0.2996902507124476,0.45581689171972145,-0.05607998562505356,0.21297441632139846,-0.25659972599724634,0.14159660623451809,0.025548940806402073,0.28910470147014944,-0.0025163472961295123,-0.24916382538118464,-0.09775455539976298,0.03842606000726197,-0.045641094818608896,0.06461101399365528,0.208138463914682,0.29359045561554453,-0.09213066021988066,0.06270741151418302,-0.14439084039184288,0.1376286811187977,0.21658696875519498,-0.007679358516887488,0.049277433936191106,-0.3043322061731504,0.0969789401329928,0.166724872935736,0.2506787694034855,0.1533992172140512,0.16443160111041943,-0.2791021775711859,-0.10871955933021428,-0.21024095710373417,0.013107120898734522,-0.2578458733936308,-0.2351992549844978,-0.1456128744528334,0.243855242257896,-0.12460678843207608,0.0690408206699943,-0.0835534880372183,-0.00133817806373768,0.23833893853619995,0.026583522882559565,-18.051035449440302,-25.859076548975306,-13.96707588451832,-18.39127240058137,0.01614660172636151,-0.13550887511339815,0.20054159312526604,0.1392530465645863,-0.270942289679829,-0.13383793294293464,0.1407827830508796,-0.014492483425540131,-0.14922811674947084,-0.11925520986406618,-0.13681548113747835,0.2392487770713879,-0.25929289545283707,0.27165540039839253,-0.16394211209877327,0.06206752472379062,-26.30217559770738,0.3851598249193594,0.301168835754841,-0.1029598392373196,-0.029964714295613037,-0.1838539526359923,0.04122825981248135,-0.2374971406564063,0.2947150520060919,0.2978045906352407,-0.13766213250324127,-0.2089383629574337,0.08934646588235436,0.11629025087427378,-0.023479985961130007,0.04461595795932393,-0.10617334177002047,0.2823328791980618,0.12296761945825878,0.015224513033547993,-0.20282229213581998,-0.19035036579846704,-0.4688955524516026,-0.31501602394508066,0.16947352050221814,-0.053322387214623984,-0.04807773215074035,0.2509014959261868,0.06952036862313338,0.06105443104970497,-0.000394901235224111,-0.29523940468844884,-0.04448580760882762,0.31176189988816233,-0.03842819682515597,0.27681520761183076,0.08587305316541072,0.10972504185855401,-0.25152866730793944,0.12577066772387877,0.24461769025274605,0.06848088168032804,-0.15254533643977752,0.10977212587917967,-0.04424919175757441,-0.09945244674033993,0.08326033143463579,-0.10217395935404944,-0.15971585232214847,-0.20377167274679917,-0.13577835344225353,0.3229254070203625,0.16305506244082013,-0.18800458250843397,-0.30879846305931385,-0.11283632658045295,-0.14203181560762407,-0.2698600125248386,-0.22490427416750203,0.2461785428331283,0.04766496835515156,-0.14365435066004884,-0.045054246190954425,-0.03238171760402847,-1.4192458947234723,-1.8221669756200758,-1.8257436919834285,-1.6639016925720889,0.1441270014459648,-0.1453732242553834,0.2777050312708639,0.16928115437542424,-0.15527303534444648,0.10641255653968193,-0.14210335467782337,0.12153032207842783,0.12707565239233726,0.1208624737586983,-0.14766991129897714,-0.3000656110604974,-0.047810045395166784,-0.24607852541695888,-0.19425854582201108,0.1362177983348654,-2.160586326283915,-0.19709245374369233,-0.2249743669744887,-0.046103263535506006,-0.30665220842843943,0.20066721641225949,-0.009612578679013314,-0.21524784739883093,0.256957882961798,0.027004248203754935,-0.2237183725907827,-0.21931213694616045,-0.04461906978991511,-0.11440970436709216,-0.3136212457133891,0.1399274171244982,0.2083080217350612,0.10542094953750161,0.2738437050358257,0.0880804833207751,0.16419154852096968,-0.7942347940636222,0.1047028458721273,-0.029466502081766877,0.3537302875635262,0.07555288470679333,-0.15201976145141466,0.2003207937526068,-0.049688962056465495,-0.3268157317355422,-0.18761446266660287,-0.2571273994554477,-0.06747594306574523,-0.1370010201359642,-0.09594130273411046,0.01867379149458689,-0.14738898686869814,-0.24636313999197496,0.24885281838752946,0.026779072570552807,0.06333537482413268,0.09062999411921958,0.3569052771232065,0.13025750666876035,0.02232294570474588,-0.005286320510499681,0.26322662437665767,-0.12499279722364876,0.21005921969772678,-0.023166668698264947,0.1352170613675277,-0.2499828416685501,0.020649028817170675,0.257584236410443,-0.15106024611954882,0.08650403123973675,-0.261896766396848,0.2827562596669469,-0.1587416110473089,0.26683608434319417,-0.20184542544735715,-0.1824257892213152,-0.00722060011542768,0.3038160422246554,-0.3174712157886813,-0.27388539525738065,-0.23427996864493175,0.2829987089888082,-0.03828067048253461,-0.033670333814893705,-0.32958007362957714,-0.18402991560599882,-0.06276861819590693,-0.17415338237709965,0.2503212051317504,-0.21402113846406648,0.13716191832547084,-0.09567606958241798,0.1852191099218114,0.17596277894958168,-0.07203905878389258,-0.16277354887066137,-0.2749998202971685,0.03559595566510332,-0.12874143631102897,-0.020684704369575257,0.4180573348227703,0.07201877329585218,-0.0023663238236141942,-0.04440531119951509,-0.1740634697920686,-0.3225321225454999,0.3137416957343614,0.15381574414964896,0.09007186963794261,-0.0563839126606661,-0.2137584360425535,0.19052902574672162,-0.013226898801640586,0.23374603958228451,-0.09600003386624147,0.12858774601220216,0.10127063324216488,-0.22623090098696114,0.16575517321655076,0.3126334534677663,0.11383155008946234,0.34601389582646247,0.08688447624868711,0.27908662151319064,0.2179445482420842,0.14922058334945182,0.16884477810120355,-0.1671678897104033,0.11947849612435604,0.2519694951263277,-0.06829704033646464,0.2610172125296251,0.18956595425882175,0.02662309145704537,-0.1915600459548399,-0.25330433315468054,-0.025836803594563643,-0.26853685249074927,0.15720851010211392,-0.05560854926907103,0.33948752045924335,-1.6312440682502967,-1.6219427729386584,-1.4347353218741152,-1.8449288391521008,0.13312998252045016,0.3056500700485504,0.14450361363094535,-0.2791651704946014,0.11006827743866597,-0.21177640225199204,-0.25991997070690454,-0.16204093343563955,-0.01667207758787219,0.025763280300904075,-0.05101919020950298,0.3056621097830382,-0.15034135710369465,0.18362208236065855,0.05821901979161919,-0.04465054628805472,-2.207003934717218,-17.827667720767778,-25.805466223016797,-12.691411001308705,-17.870342255393258,0.017695144522772516,-0.00909831274495021,0.10166361864707081,-0.26824580934834913,-0.13302808291553594,-0.24006243477709266,-0.11333278804299865,-0.06964442183796246,-0.17952610153860768,-0.12571859457251833,0.2439849577509161,-0.178237849888675,-0.17700304644180317,-0.0012744685800627892,-0.028042702219795636,0.23185117334183145,-25.73031697527259,-0.02857020310235664,-0.03886694493070941,0.010679983836982654,0.030668140746373498,-0.11641085293942793,-0.12336045095179926,-0.2880101346154167,-0.13744725708349473,0.021568779131120847,0.24911689499336995,0.20373504932533823,-0.048835072207262624,-0.08834362593478166,0.05018752164557535,-0.1288842534436231,-0.27931503428560545,-0.279037006859218,-0.2732533011893405,-0.15526636398730365,-0.27832917264483575,0.0009369110458319757,-10.318085157620537,-14.35442662209846,-9.023421595855686,-11.324459308389635,-0.08435548928687786,0.0753905196075419,-0.2597390048621734,-0.09090650865716625,0.22276498972925537,0.012227918288017618,0.23188027730360192,0.06737289140575481,-0.026204103566391936,-0.1870161623311889,-0.17080898318741233,0.2887083551436411,-0.2664346365943228,-0.12094036650792758,-0.03246948359918509,-0.2454657602465116,-14.963992416654516,-3.8972187655199715,-4.897543383480192,-4.1787749964046,-4.6208196875798695,0.158883942982848,-0.2810697656967541,-0.19743576553332992,-0.19680521100569565,-0.22727056659670408,0.09604451330355535,-0.22630545171592992,0.14852041679985392,-0.29135278771840023,-0.08422714769440853,0.08579507345876711,0.1513195339724369,0.2674684726299269,-0.16828036109188102,0.14267544848749106,0.024281863528452637,-5.834067844071838
biasActivation=1,1,1
[BASIC:ACTIVATION]
"ActivationSigmoid"
"ActivationSigmoid"
"ActivationSigmoid"
