encog,BasicNetwork,java,3.0.1,1,1329797094438
[BASIC]
[BASIC:PARAMS]
[BASIC:NETWORK]
beginTraining=0
connectionLimit=0
contextTargetOffset=0,0,0
contextTargetSize=0,0,0
endTraining=2
hasContext=f
inputCount=20
layerCounts=2,26,21
layerFeedCounts=1,25,20
layerContextCount=0,0,0
layerIndex=0,2,28
output=0,1,0,0,0,0,0,0,0,0,0,0,0,0,0,0,0,0,0,0,0,0,0,0,0,0,0,1,0,0,0,0,0,0,0,0,0,0,0,0,0,0,0,0,0,0,0,0,1
outputCount=1
weightIndex=0,26,551
weights=-0.23528010184370193,-0.4498795326605385,-0.2701771362469281,-1.4368516176024453,-0.09880442130547512,-0.275423513480218,-0.08424656964477045,-0.1871761399771779,-0.1081881082546754,-0.20310990477115215,-0.3577625526828552,0.269172864979237,-0.13405004977362206,0.06122058938850389,-0.07273544277977587,0.2125394605550331,-0.6442361823367929,-0.7896243874066015,-0.11606936329905859,-0.23583092428253458,-0.18657398822704058,-0.1996496827121927,-0.18137093512739072,0.13638127971572592,0.12077981851681666,-0.31659457230466936,-0.2339491434607614,-0.158047077612848,0.12635131429760832,-0.13662116777597724,0.2701379243446749,0.17522548558004852,0.015902004853805232,0.3473644336051743,0.35180993055140597,0.03700271034715594,0.02775471547608591,0.4502082926171762,0.16777296889512647,0.2952278682304663,0.13052433073428074,0.2721674357015694,0.10428426644401759,0.3058215441595522,0.2638730125534668,-0.099704854963598,0.24425653246075216,-16.057388027795387,-16.187764896153254,-15.872260173370762,-15.932827648579968,-15.882468855339848,-15.91604720178898,-15.697817045979868,-15.85002223745847,-14.931161525523855,-15.55186932507547,-13.510437543001624,-13.70045246117239,-13.879589154352248,-14.201937550181274,-14.164867887485363,-13.866893426589098,-13.906874408989658,-14.297383818726226,0.21055222675802315,0.0004331187572013564,-16.15658132374541,-0.003293380438358459,-0.06036207970199979,0.06953836335821692,-0.3485384956571205,0.12419101793348025,-0.2640692075758022,0.10797112875920056,0.42105108255264156,0.09034533553975899,0.43377453970769453,0.041861816094658194,0.460524608840456,0.602749139164493,0.5353440923126531,0.3245890923719721,0.41241835659005677,0.27490226373057647,0.40826761253657573,-0.09150404993758236,0.08288248107904515,-0.15129138441329346,-19.664891896225324,-20.0488450891081,-19.47965941641102,-19.0864970566605,-19.22326772000046,-19.2251388274112,-17.7298383525643,-18.28353054372431,-17.067297205130835,-17.29063984520378,-15.346520876167656,-15.232734176146858,-13.833991950888114,-13.974736612519894,-13.802370847179226,-14.205949840327177,-13.285950828129891,-13.153790595009102,-0.15038800973462538,-0.3177272619795037,-19.699027211483862,-0.5278497428433591,-0.6490763795403813,-0.7319146875531639,-0.9095297622418661,-0.69297965561004,-0.9669918005436209,-0.5826610737639879,-0.6374661819759686,-0.5070750920526048,-0.08952394475876616,-0.6561048375651137,-0.6593264711854763,-0.5709765246366121,-0.3289184428911811,-0.4271738971929704,-0.5530875447682027,-0.282071566763049,-0.4751952244744819,0.11612601476787945,0.3439393864810679,-0.5757261187564853,-0.12735660699203613,0.28586678622075423,-0.17554204485876118,0.0720728813837895,-0.2944093476314079,0.2135517066464066,-0.12926636587341908,0.013981083347505432,0.4218820473725561,0.15413561472357018,0.016086429215783533,0.3892856104906016,0.12961986315910037,0.41525852036033095,0.5679672804906801,0.3395357349591943,0.09936434323564783,0.25844264026107977,0.03043335306408662,0.19413553486150645,-0.1701490928497332,-0.6041222085985094,-0.45718284200952364,-0.8726161223143158,-0.9461321992692309,-0.9441979116080046,-0.9341073401531248,-0.4177094833038887,-0.6114565834068335,-0.22622236813101632,-0.5659304825798028,-0.38133914035814576,-0.5093014456342415,-0.44674713220910256,-0.13713843763554331,-0.47329677149805727,-0.20022173514838124,-0.16277381971081548,-0.6105706790559189,-0.07160470848787802,0.2659076840568967,-0.4525075175793447,0.0772812100098349,0.2174275080305405,-0.3465856350267631,0.05683257427582338,-0.07791503848949201,0.06527343113453798,0.09240747608514377,0.1555021032644464,0.25002086646698773,-0.043021069091274164,0.12057257780791615,0.2168120545099391,0.5093116953657528,0.20794964392926937,-0.052452899247013005,0.391229258915577,0.4045201239206795,0.5567091282360552,-0.06423466426877733,0.20258698617019025,-0.32352433306815,-8.770752790448654,-8.770288762944942,-8.473442903213812,-8.792241216724115,-8.857659848775619,-8.379637270492967,-7.967218013278625,-8.040385306092569,-7.40957347159051,-7.461681561030358,-7.155870981873851,-7.327189611766666,-7.242126022803209,-7.12167160893479,-7.039463903100161,-7.18478663292646,-7.1146784660287405,-7.2038939133359765,0.18658369058170288,-0.23764444517751823,-8.452749658199,0.1921404147380113,-0.27179226083215147,0.12121647001338409,-0.10699850299567479,-0.270650972277535,0.19330599811955146,0.36599071800664973,0.3284933567910949,0.16391648073338594,0.2457690205932976,0.15550790967133396,0.29305351135119173,0.24711166983756552,0.030103241632950948,0.21515158924520902,0.0967617030528781,-0.009481557012968253,0.45829748714356455,-0.1678155747392494,-0.01384434395337529,0.2257205132000701,-20.466325908230317,-20.554750738458715,-19.579631710428657,-19.771222013721623,-20.060365564721042,-19.724926924742498,-19.614363281564867,-19.543053413510425,-17.215749127141834,-17.29014578576178,-16.408416629960996,-16.297454312722312,-16.0240264447302,-15.976009585509557,-15.633617194498312,-15.99091739186929,-15.912594929130867,-15.7939191351328,-0.15932641707607542,0.004201300789857015,-19.98468027859659,0.1547527137046418,-0.20413995156922576,0.2860398145813703,0.00480213495781244,0.21741695047584414,-0.1480218953172831,-0.2765509837258606,0.08949809801138961,-0.029416311041350035,-0.3022425222286327,-0.46252456247381357,-0.015311204682352936,-0.12357456714042371,-0.21051817501025125,-0.3991194935215562,-0.09745829336222286,-0.6231780578396229,-0.266212093767605,-0.02421192463017428,0.10820914331363025,0.21962055943654285,0.20614769999471078,0.322865623143073,0.1012097663273373,0.2211584493670617,-0.27928770653706747,-0.15100170009271793,-0.05249907064890828,0.18151345727983276,0.11822798836622278,0.3768397074712512,0.07666612606401438,0.5039803578203456,0.06916026566349168,0.22208060635824065,0.18027640911958506,0.563738674434082,0.5243365742170067,0.47195091291662733,-0.012069056861200661,0.0834202785306735,0.03346617340942157,-21.198246473917244,-22.062617926402716,-21.440845443597734,-21.703524557763853,-21.062639014858252,-21.337683939214134,-21.588783680509632,-21.441144037025083,-17.99078707892533,-18.449396491686453,-16.956649774958386,-16.838446447337272,-15.645103875266697,-15.449325383184448,-15.81880136998527,-15.62234396160599,-15.12409214668945,-15.604395392038603,-0.10680475156935627,-0.004665766745340815,-21.93314949135127,-4.4964596699917365,-4.436530953089845,-4.292865430356964,-4.715849034410503,-4.737925934492116,-4.718974236346877,-4.720461651286104,-4.603894836191246,-4.195939230639501,-4.213737155006661,-3.9736811502785416,-3.6156236453699853,-3.991048707235888,-4.033082655825822,-3.672659784209749,-3.77722522623769,-3.889481385150197,-3.537976590242095,-0.14426752293072045,-0.2964802171600935,-4.460616877559354,-0.14002978896987267,-0.25219843402125197,0.2531666035650555,0.045476681109973285,-0.21754390620989678,-0.17606068198280284,-0.31126284672647664,-0.28827494584972346,-0.4273461894466428,-0.2020484279574103,-0.31467567600338175,-0.22109708609394682,-0.29054534169953183,-0.5368164463084493,-0.04656755310073443,-0.1694568583861705,-0.5398258031114644,-0.4157477918766388,0.2597446804999594,0.24326095882834853,0.00915604960361853,-18.83681350680871,-19.096594836318484,-18.77078754178514,-19.186959868435093,-18.95940163113141,-19.415476376825843,-19.033837023551303,-19.17307321959857,-18.69948183014645,-19.28157551420047,-17.56726879423737,-17.6412458805348,-16.120015992469668,-16.368797035433918,-16.382269358021702,-16.340407359503786,-16.50596116907544,-16.2538675692965,0.08581697778969752,-0.11715678647171619,-19.022367652699266,-19.79732090060673,-20.10257065488367,-19.35939002208741,-19.95275607498625,-20.024423864493897,-20.081679452253468,-17.951400613039024,-18.61142031540212,-17.145772335365663,-17.265124183982252,-15.839696337630162,-15.741024408204687,-14.14320729832897,-13.94518788365306,-13.878952199838407,-14.191822207211018,-12.15488618456295,-12.48058196640832,0.10318301139605554,-0.047796596055098756,-20.271246116193403,0.027231269339136083,0.2053996965269212,0.2603759204263256,0.15539644814369064,-0.060612135587997065,-0.19119564716829834,0.3911367696748018,-0.04879028669545642,0.00134574863930427,0.03613201130924362,0.33189160925771577,0.2758522735434842,0.5575769446640197,0.21490961540387274,0.3211023257047053,0.4056352790859874,0.4200929303098361,0.5630295158737684,-0.15956995240206584,0.1125450779235994,0.32755672722326623,0.19822671767380923,0.1541480147290129,0.1554807082590181,-0.20421415364992052,0.16511457884942887,-0.19552699668935253,-0.016387131842546046,-0.131225798516266,0.4609327410160507,0.3768971877346773,-0.022284368308598715,0.3793219832562954,0.1863929278947117,0.0726110933226485,0.5008997678346339,0.13290310275675446,0.27450459355687473,0.5052459474521951,0.13055380695245758,0.04075284533209555,-0.20875489488016424,-0.1252719574970125,0.003289725065656904,0.15471919877740264,0.16401859875267405,0.30478292575594457,-0.023131057921522133,0.2593190435398022,0.04692654928693412,-0.06670160575233065,-0.08509948703796401,0.21340427137275284,0.35181531276441336,0.03575635395725932,0.44078192998751675,0.5653630573192243,0.15354898106590512,0.35441143963523747,0.39384184859825055,-0.09951631426861587,-0.11897467700571389,0.23249002913767955,-0.16592430326815508,0.12598503259254162,-0.1934363697429075,-0.2116490621402724,-0.10382165346654446,0.08257933901808912,0.13345772108940684,0.3705510626137357,-0.05965285993785398,0.1321848414847434,-0.0011944571310954916,0.21356433466943933,0.3211251037498455,0.2649295990113594,0.3718673659949605,0.5131897482194434,0.025652901030109077,0.40874614147625965,0.23000781965857797,-0.2720743333358545,-0.24963299715173293,0.15422455209657598,0.07594654993941286,0.16225457252882097,-0.28813762278461763,-0.16764429818149254,-0.15281069601227307,-0.10483350242002462,0.07925517210925831,-0.08108034421821876,0.33159277168055024,0.05203738560623947,0.19653537551935094,0.014634696871374992,0.36843872779162745,0.25693864223952745,0.5766409426151722,0.5046944865562206,0.18899401250697842,0.2553816924186754,0.13773951921229094,0.18966170586561787,-0.17315183915808513,-0.18754352153124404,-0.17996201639524173,-0.17704560937666908,0.2848598074763017,0.03264806690049958,-0.32725887160481837,0.014461372637212935,-0.4344245968956657,-0.46984393869435664,-0.4991299659588003,-0.40302354603078683,-0.10455375498942251,-0.3943780180496137,-0.3451675077377966,-0.13586150461295501,-0.4997353428628395,-0.24260904744226655,-0.1327126804554428,0.23813045123387083,0.09199826859091584,-0.3122145248078383,-0.059099340057875364,0.19284025234514607,-0.25204702587422056,0.05181203128089891,0.24059756352313794,-0.3834592792337963,-0.06884191201321521,-0.18964269643084686,0.07457243160724726,-0.16199071275155383,-0.46947257633705614,-0.24338949644136734,-0.5212543869907853,-0.38924421832294787,-0.3170027876006133,-0.31801685756404974,-0.03779219598003028,-0.27756582339214886,-0.05482828538881741,-0.14348264513252423
biasActivation=1,1,1
[BASIC:ACTIVATION]
"ActivationSigmoid"
"ActivationSigmoid"
"ActivationSigmoid"
