encog,BasicNetwork,java,3.0.1,1,1328522595985
[BASIC]
[BASIC:PARAMS]
[BASIC:NETWORK]
beginTraining=0
connectionLimit=0
contextTargetOffset=0,0,0
contextTargetSize=0,0,0
endTraining=2
hasContext=f
inputCount=20
layerCounts=2,26,21
layerFeedCounts=1,25,20
layerContextCount=0,0,0
layerIndex=0,2,28
output=0,1,0,0,0,0,0,0,0,0,0,0,0,0,0,0,0,0,0,0,0,0,0,0,0,0,0,1,0,0,0,0,0,0,0,0,0,0,0,0,0,0,0,0,0,0,0,0,1
outputCount=1
weightIndex=0,26,551
weights=-0.23178101115052024,-0.1895398618054987,-43.82925970496665,-282.3887007166145,-0.12940043404128185,-223.49868010777445,-335.13378405573724,0.09645057173803501,-218.35184239989712,-0.1367667420896321,-0.27043510337259796,-0.2974086608488529,-0.2390641127580143,-0.2874938538815947,-146.90725856529934,-0.21554127162103448,-0.32164450599502986,0.13916075874150408,-0.2679391902660824,-0.17102157055856057,0.13515956570643317,0.14683804340256307,-337.04950466546313,-0.2213568205975604,-0.2980580661982904,0.13531930981373091,0.1898101277155781,-0.1769861908006285,0.26966607463198716,-0.07024154643250555,0.029598900140766493,0.34502091086200576,-0.18878321224836125,0.21492744194873575,-0.099092594571204,-0.17042213104258674,0.17264403965820604,-0.126347655794269,0.21105086011369306,-0.08572118253222899,0.008526574229072714,0.35976023650262334,0.24879099125894388,0.039702780795420986,-0.15569938310522916,-0.21075984656105404,0.16713188755308148,-0.03454541795266158,0.08012885001855297,-0.06851616034553487,0.21298248005638915,0.10332306647929776,0.08424897283866353,-0.1481478218324691,0.10170484407444133,-0.16714443680292823,0.26215236633518907,-0.16332043480882497,-0.11683582673128791,-0.16952709762556806,-0.08079175601883815,0.16914759084108774,-0.21770052108137627,-0.16280773485726596,0.23934105209626033,-0.18497640463151505,-0.17640139422443568,0.2976633464649297,-12.774963365792807,-13.506399818981595,-12.516352970984139,-13.224517519456183,-12.89970265908903,-13.070780816331546,-12.679889743017275,-13.117854912235105,-12.914259881332486,-13.32242588293594,-12.859460193467019,-13.002083315130124,-13.129699831494657,-12.850775425057943,-13.197913617650464,-13.270429641022606,-12.906420723773696,-13.158318799935659,-0.17749937056607581,0.1294279137528979,-12.876523489511369,-12.661067907916673,-12.766395749858608,-12.501747256954173,-12.752259355150914,-12.212800508473501,-12.685841022031545,-12.204006099569296,-12.443071632979569,-12.309837817385063,-12.546640334375839,-12.552376866045813,-12.876931654285748,-12.588594987262908,-12.87695080497697,-12.304771223034804,-12.792439714338288,-12.77147513609162,-12.438779909989089,-0.1639459103369272,-0.10701877872964513,-12.413747366193784,0.09832107317057961,0.03405193175789678,-0.12080866609143509,-0.13788169120689836,0.07839132773920476,-0.13642268856284773,0.04941172272030013,-0.16862071461415018,0.24579736413667846,0.013172769800591178,0.3390078693227487,0.23448956994249798,-0.13188895000380435,0.3086419212591886,-0.10182141653070764,-0.14149300507284573,0.2906571041895318,-0.17330741269017758,0.17957652627973655,0.16959537697299878,0.23360308587141582,-10.394748757498666,-12.621392148939687,-10.45532842890866,-12.59972041801608,-10.344393040571985,-12.522496828335928,-10.947043488694954,-12.608961943290867,-11.555727862833049,-12.721793267441974,-11.76360267306642,-13.01440869115845,-11.992192540264407,-12.692376202626923,-11.804787549341516,-13.033546175992985,-12.354749005510161,-12.549055977103313,-0.14659959653427615,0.13286410193637727,-13.036786364001136,-11.8079431085227,-12.218649099545788,-12.10707947369264,-12.130702389476907,-11.766806714029336,-12.458327531248619,-11.933096000512993,-12.429504520826443,-12.463812641549891,-12.079434274621534,-12.548811726178068,-12.486164321954059,-12.275887842354438,-12.339582878893696,-12.418336745801183,-12.118646193712362,-12.137807837452923,-12.54383575227759,0.15315477040977263,-0.15129820972119673,-12.324092995035551,0.017701166787134015,0.14111011845825744,-0.31319811855258933,0.03489862110378392,-0.13374454334619976,0.21158295160122986,-0.0407477796839273,-0.26938204312314734,0.16397999568767974,0.06498287725642724,0.10148634355139635,-0.295142418997895,-0.3450695457962158,-0.32678416801698745,-0.03882914866356256,0.18994239385586142,-0.1478212570206404,-0.03885634343463994,-0.02931934422544543,-0.23250321579740374,-0.1323874496014951,-11.679771547308626,-12.52744860483963,-11.869939530796268,-12.051790992944367,-11.861476373531064,-12.573982833701226,-11.922783510913101,-12.137811239044119,-12.110456478879705,-11.969207495393796,-12.374812439196468,-12.31367614849517,-12.031897880739638,-12.276234610798038,-12.219350174203342,-12.473101219065754,-12.113074648472832,-12.294591058938664,-0.023604742719648374,0.24143328190680394,-12.53591687731657,0.10191758659294328,0.08817872798767931,0.13423312974248505,-0.13199078858236496,0.32458443830662115,0.102744298110969,0.14025901007415556,-0.2076882566304944,0.2945951840963991,-0.25116151464400016,0.30664615725724115,0.26385339234556765,0.028479289146209008,0.36232235081540465,0.26454560986563674,0.10147086288603516,0.29311495143063865,0.264713419518338,0.17321374702821182,0.11282640017973558,0.008542524936724694,0.22650787342865492,0.08781078357979774,0.0727410467144064,0.3089209022101634,0.011753737406919179,-0.21182711724633452,0.05690667206816964,0.15410307177444568,0.18576153058324812,0.008698329316784492,0.19141264883071668,0.1584996360569841,-0.16244729493165155,0.3668575770229394,0.33363062772111945,0.11071525775127813,0.20597105651753828,0.3103641627899734,0.165835070453125,0.2635738965570609,0.3458732809623645,0.28380247072044024,-0.14797485777707275,0.25357746143117316,-0.15478485189897784,-0.0628639628856136,-0.05905276691134096,-0.07428327816682309,-0.20117395134245486,0.021566839019473233,-0.1299043452634846,0.10577508300498048,0.317100124652218,0.3398617046631595,0.24018981738785605,0.2150198307613312,-0.0955565136975931,0.18641588555701843,0.268326337850507,0.212297557640323,0.12097659968857798,0.1553155078123236,0.13414295585939665,0.1970788201711215,-0.20989897439072125,0.1151934796305232,-0.0065625210264030065,0.21708351879331295,0.051046106929488674,0.1863818248807249,-0.1087008038313983,-0.03368609828974123,0.4064802653221188,0.03300800957659236,0.2000267712835822,-0.0940504823423593,-0.06556598948557318,0.366297634922231,-0.08685749990308761,0.2598743363802379,0.2692244830627609,-0.04097568384799084,0.3570651756628841,0.2450161779619407,0.19076379543265992,-0.11421453912240777,-0.03366352181803137,0.04212863295236123,-0.25622425058098186,-0.03727903107206254,-0.18812104984622258,0.3737564180034276,-0.020824594243940814,0.20232791504990583,0.1332461620061717,0.021698766264597186,0.10645560745315538,0.10209536440687475,-0.16168569275532385,0.3548341839010818,0.04981850530622099,0.30490120169582197,0.14578640676991253,0.23662246695866024,-12.122184449656114,-12.184314996025403,-11.734772320897036,-12.103527644026984,-12.165518578407777,-12.478784584078012,-11.779967487901706,-12.21423520024497,-11.752358270755321,-12.13984068328188,-11.81491880538272,-12.018408507688994,-12.10557526626927,-12.112594554348641,-12.245592245223147,-12.236030481751783,-12.43199656930559,-12.531054600762937,0.1841914152189525,-0.20207863349573846,-12.080781407311056,-0.049468974517570374,-0.14406353926177384,0.24678163246156132,-0.04858870079363373,0.0732705202175016,0.1353407292606376,-0.23504645565885698,-0.07587428059892387,-0.14917857465935125,0.06729163667265263,-0.16064037446752766,-0.06022846437997049,-0.13724174917454157,-0.044507851605656484,0.25619737242640367,0.10711959470614615,-0.11217137922193449,0.298757698563698,-0.195054823614381,0.18949349152923042,0.3366880258356458,-0.22441395469786585,0.056128716867730064,-0.11411777541592573,0.0927769688750533,0.3056628342379158,-0.2642291043658975,0.04846785413703052,0.04943379694004822,-0.14866821126641827,0.1401600072485127,0.4353268581357502,0.11306415305920584,0.20317016775826496,-0.1050564883438721,0.20102962814511832,-0.05535713040436063,0.1027586814876518,0.2848603955714159,0.14661653277865436,-0.21444629863446413,0.024243449524980615,-0.31795126406714963,0.00036756155353989683,-0.24462255031865182,0.017729009120533587,0.22529294478773856,-0.19151169891238112,0.1958328944259079,0.0003688088738486861,-0.10550368552851844,0.1946563231151639,-0.31569101240867753,0.1746178768549349,-0.2709624548233021,0.021957590418258788,0.1584916844242258,-0.10459043481935723,-0.2299657475568921,-0.02197037214767969,-0.1369252677417074,0.225415362424469,-0.15419871126223364,0.3031047935755487,0.11920935587447798,0.18220437761157166,0.31767635721213955,0.2182892039053848,-0.15600066223910847,0.009537045839048908,0.3437582659327742,-0.20167482081970245,0.17800883434185993,-0.03341257823624599,-0.13281653934629561,0.3174606675951858,0.01639009818925677,0.2851210004198302,-0.10559530404544909,0.039154317884542086,0.1698509938800362,0.17983334356994668,-0.22198015378349953,0.2377591329983379,0.2512804448754989,-0.20513497054890795,0.0030846648048187125,-0.0510388972671495,0.40889401011181736,-0.28921383193421735,0.12162584905372584,0.3793391368296394,0.2819255366149162,0.07166005561773298,0.041864593192498564,0.1318182579224035,-0.039889414889308944,-0.12113255907591008,0.1668422851247546,0.03209519144683112,0.06425264953011513,-0.18703202401014019,-0.11348381505447505,-0.15180135490194738,-0.05523059657833823,0.1380150515416555,-0.044730759710154985,-0.0591187434847673,0.14709302163519467,0.014794334345665959,0.02001508249568862,0.0008378206377543246,0.169113233544541,-0.046598171506149075,-0.24904330500326588,-0.2919612888835636,-0.0763990728649252,-0.19092252671065163,-0.3866023736569185,-0.2871326747837812,-0.043729303668203864,-0.12658220120715266,0.2085013855819986,-0.08620876211000768,-0.29360824278171516,0.22099551539199702,0.10400533200994949,0.062219200366853945,-0.16757583067809542,-0.046627256830929484,0.1864326847179707,-0.428942277744201,-0.42825711575628833,-0.2067427863877535,0.012599817890908803,-0.02835779746292713,-0.38915108018288813,-0.2567552964783438,-0.004640059035677824,0.0673704419170972,0.10264811713831784,-0.14896729029962705,0.05802172679622792,-0.012276658881597707,0.12983724548997647,0.010045286335074847,-0.2554376303071347,-10.6533600622119,-12.108553142315001,-10.95957047497956,-12.097156853323042,-11.191763415946392,-12.55316501416472,-11.151850215038348,-12.505258515755711,-11.554719239685909,-12.173708065481566,-11.376122262486824,-12.620674251506903,-11.640695053778533,-12.603795601804189,-11.873298600632266,-12.34206093630448,-12.587447266382444,-12.375317343786557,0.2103459825850074,-0.05593498292127053,-12.25147958939674,0.2908304238123776,-0.13199018583333416,-0.14454696252783694,0.3466026673473734,0.1409550983362944,0.3572558463998955,0.12700549361414445,-0.06041018477090535,0.1648313174136484,-0.09823535951452989,0.19979596052622056,-0.17542175265039528,0.1533568544336855,0.25692475866000536,0.03121441088356161,-0.06854433372810406,0.2500435624637367,0.23531916099733846,0.32770508499689194,0.11863968777993161,0.025991502854623844,-0.028050775638716025,0.19561451911507927,0.08987202455564117,0.26852892625008634,0.3206490082216616,-0.16973712625908843,-0.18604517832417544,0.3490748713089314,-0.15052051845535475,0.2249846625622009,0.21136353150390214,0.051660591960345933,0.32773951535591334,-0.06690012705885248,0.24004700348391717,0.052857005893735695,0.16092554069103102,-0.11312928720172911,-0.1754085375877465,-0.127309833510022,-0.15447466194303727
biasActivation=1,1,1
[BASIC:ACTIVATION]
"ActivationSigmoid"
"ActivationSigmoid"
"ActivationSigmoid"
