encog,BasicNetwork,java,3.0.1,1,1329247008319
[BASIC]
[BASIC:PARAMS]
[BASIC:NETWORK]
beginTraining=0
connectionLimit=0
contextTargetOffset=0,0,0
contextTargetSize=0,0,0
endTraining=2
hasContext=f
inputCount=20
layerCounts=2,26,21
layerFeedCounts=1,25,20
layerContextCount=0,0,0
layerIndex=0,2,28
output=0,1,0,0,0,0,0,0,0,0,0,0,0,0,0,0,0,0,0,0,0,0,0,0,0,0,0,1,0,0,0,0,0,0,0,0,0,0,0,0,0,0,0,0,0,0,0,0,1
outputCount=1
weightIndex=0,26,551
weights=-0.1500897126973033,-0.07209508664794553,-0.17994096275989913,-0.019883400066520007,-0.2645896729986261,-0.05741273144688089,-0.14003067044030765,0.13131491572940068,-0.15847676123834775,-0.14269503231640307,-81.44483467164349,-0.0806007053246952,-0.13951611744864284,-0.1929644735664573,-0.13077309974677304,-0.15260887294776693,0.16222624540119907,-154.28377325980927,-0.2607152805128876,-80.82041027125099,-0.16483495724470287,-0.15078165055845094,-0.08600885848143446,0.2484905914443723,-0.009193320081125278,0.1677294226947882,0.23067311186496298,-0.21456688010549768,0.1304374464780676,-0.21297250675029739,0.17094023629847666,0.17630590583149053,-0.04553189826974145,0.13376858408020825,0.1790543293540865,-0.24700662409930546,0.12558970685465848,0.15131935135110852,-0.083382620636287,-0.13601116915132377,0.27210091992681806,-0.2622432707988167,0.15818832132830193,0.052333470985037885,-0.07021001974538685,-0.09109913431125179,-0.29304659118445436,-0.20188994384885411,0.20904729737054317,0.268031890133934,-0.11662970920035746,0.18280936602790476,0.24844473088868058,-0.2810904597071799,0.007262496859678891,-0.02222051201949475,0.08206576472542863,0.1262923672144639,0.10331594351213057,-0.1954833799194243,0.023373673158181542,0.2839848041458452,-0.024349999461633912,0.1723435652706199,-0.2316916631255085,-0.23522442927297776,0.08700013078187138,0.06403036733675624,-0.2748569442390441,0.07483170924635504,-0.28151385818805835,0.24908539597864465,-0.0771234980034156,0.2070382958505972,-0.07285249672023321,0.02488898993210792,-0.12487171440987137,0.05154118010707745,-0.2532669215042545,0.2327782379102834,-0.24552630552823212,-0.24751699245271247,0.0938147144034563,0.010178685767722573,0.07251238445701758,-0.09584583446365925,-0.25357793960016445,-0.23757896826757616,0.012844074040263387,-0.8175069488033988,-0.9325199200626656,-0.5891698167897252,-0.8940751831628353,-0.49609758703466855,-0.36214284357881676,-0.5994739172220396,-0.8223774021978472,-0.3037048328693652,-0.280969693075932,0.1708284194314572,-0.007811060745409035,0.18846683995879893,0.28006830907989794,0.2840288873317878,0.182383174376277,0.06950084085830172,-0.04647305381803404,-0.11852432608747629,0.03504580277174386,-0.4974434923149167,-0.006470735499844754,-0.0632087676540396,-0.0755544751822964,-0.08770577326115296,-0.2820976347689294,-0.09684391583679423,0.20289629874447268,0.17633769898427465,-0.24942662280355304,0.23374956179213435,0.15515159756664604,-0.20012246973456516,0.13501336232837208,0.14310621225521755,0.21059784212132807,-0.2583186116269597,0.10350418715576157,-0.22746501610052322,0.11785893537760682,-0.20370577551957011,-0.25969703097890123,-0.20539739766316362,0.23344509710543904,0.14910502356714989,0.019067331378799318,0.005590203815410477,-0.05302980545456397,-0.23753395889142598,0.22413760369991798,0.08939771176275634,0.03789497344828366,0.27438290232398044,-0.26574308324776613,-0.23806396712359895,0.26913138446033436,-0.07811267800717943,-0.16767330817549936,-0.15289053783353768,0.15221318878574153,0.18670953878560193,-0.17143940352595013,-0.023534913828662143,0.0010961437180683764,-0.111576604112905,0.21278447108281184,-0.21065010594052785,0.10167711243505455,0.19797228976626946,0.15753769210110713,-0.08025270860404414,0.17344822895455914,-0.30408588110253315,-0.25362346341898273,0.038550835352567064,-0.19029932276626052,-0.07610164478252256,-0.048978001269740334,-0.05821382984473662,-0.12653280053813537,-0.18978401884957732,0.22074731682291682,-0.2545205908870428,-0.3038385403955533,-1.6823512299237497,-1.3683275687243015,-1.635504661779697,-1.4171266246789325,-1.183529081572379,-1.3229678637511417,-1.494074709067127,-1.3267435016226654,-0.08416814736065363,0.04532286587353061,-0.08723169242525779,-0.20390581870495283,-0.044451739801364146,0.03036155199694141,-0.2917414896488133,-0.306427203606224,0.18463684828694046,-0.13482883431316373,0.04350041467370866,-0.1683759146025498,-1.6724557527235666,-0.049843067293356066,0.09370749968789892,-0.175284540821666,-0.24546661532477237,-0.055959161970754664,-0.07703122810675113,-0.2728019218107616,-0.26022231649441857,-0.13233511852108387,0.09618402034704208,-0.2780718401115955,0.2886456039640908,-0.09162250450397098,-0.2820278938353525,0.10231216076251949,-0.09887724891735564,-0.11643560691771324,-0.284096344725679,0.0837144687421968,0.268994938553392,-0.05238693791739023,-0.16116812143651454,-0.23153618085827948,0.050312162127750554,-0.08955177920427974,0.03464522970444689,0.02179321932317796,-0.23722758795780358,-0.35260231056101576,-0.0655429706927473,-0.1725268985498309,-0.11255733235196475,-0.2747127593328034,-0.06032291451785475,0.04634401147752319,0.3012704193549952,0.1032188420849469,0.04936894565797576,0.29090661697441955,-0.09193186884112048,0.25774848695688746,-0.2783254897009046,-19.263813048548695,-19.27560785604378,-19.626997028348452,-19.132193065047893,-19.42487388870592,-19.526181821052695,-19.345200028064916,-19.263243645453702,-5.550895429146546,-5.4819691147149765,-0.11950971243876808,0.06264257696907116,-0.24930187116706387,0.09829603079065491,-0.01749001831536378,-0.19539573329569576,-0.11669350956596071,0.17369211389734954,0.19372986886321325,0.2823810817100934,-19.148307579455654,0.14273868278839535,0.2388793594586478,-0.13300868681809636,-0.3066449112825122,-0.1215603821777994,-0.3216247277897935,-0.10222155622153332,-0.1900500543819179,-0.06067425673647098,-0.05719864679487857,0.20276890273960668,-0.1198877118150679,-0.2678425855413117,-0.10937622905855418,-0.2720968536001134,-0.004666589657493212,-0.11573062975646164,-0.15259680189980693,-0.14272962008661486,-0.23626289504398024,-0.19055687596704662,-0.22548021609489727,0.09771029342137287,0.04180723171561693,0.02535308602052594,0.09407345083943063,0.2569029298829102,-0.2347647996811612,0.1379860605556072,-0.283397152763127,0.03914662360981311,-0.032892169328018805,0.26357206803418887,0.2073063350489357,-0.07623126203808178,0.10795251458563529,-0.25311304406232166,0.12282690089298164,-0.12440879349792167,0.06218971264378688,0.27971699359328706,0.23906685911590153,0.23892469924312354,-0.2246278603311614,0.15316686579411332,0.0779658619621572,-0.03510893126704771,0.0620370315375485,-0.2987641860354094,0.19417212826244246,0.10621878645801568,0.16251256473612874,0.11050336994517022,0.0028440166400185013,-0.20043394994387598,-0.1685666221819896,0.3045172279988281,-0.24062172157447312,0.1086515174960941,0.10653836609378482,0.04042632621083605,0.2934001462626543,-0.06431004106278111,0.15720234168234604,0.2143758960857043,0.1984494231170716,0.1560704278001369,-0.003626616445355224,0.05160222107716031,-0.008318080183642551,-0.2911886522118777,0.13505988541443997,0.2584981289791656,-0.12205993383768349,0.07237138858181266,-0.09098854632423578,-0.2348072786668995,-0.32193742173976075,0.19782921513607493,-0.23003703501691192,0.1449054616980835,0.09684942064936357,0.031024932409333593,-0.1373095552533518,0.005031991583625051,-0.29886418011256727,-0.18515508759519378,-0.0003812290068768709,0.08031576172678644,0.17752117561630554,0.03173349438326467,-0.07129898428315062,-0.26738248836345063,0.17239449525907402,-0.1358073727569636,-0.2685290986509517,-0.2333763373673987,0.04615282982455025,0.1372442270420314,-0.07333508101181034,0.2059924216465815,-0.2366477850028657,-0.24834545505922,0.22921977963248666,0.16042722009244526,-0.21600323120063558,0.15801940318435065,-0.10555841794042863,0.31189338448920095,0.28003370455919724,-0.1519675738079349,0.09577104684563541,0.303701470261912,-0.018843068227264767,-0.0210830001384439,-0.0550758478335385,0.06333523300583521,-0.11567381749528177,0.27403674629510744,-0.27130388971732083,-0.11571300210563117,-0.21045884293207534,0.01582028716604781,-0.12224998355841761,-0.1814204965121988,0.23302772736648264,-20.044589645593792,-20.153248816028654,-20.240734376008163,-20.03641118190466,-19.91076250376345,-19.698137282163117,-20.220785456291534,-20.01943364864735,-7.437717938602956,-7.5303257370047225,0.033730640393310835,0.2064053554265205,0.20728329550997407,0.10703622318759404,-0.11969098273304028,0.08642778445599403,-0.20167839917586863,-0.22924919315179826,-0.28392275968174396,-0.0613747688845807,-19.753419029917342,0.15495236310944338,-0.08932890998618119,-0.2018510252949684,-0.32785155888312073,-0.05737992483527847,-0.2356754276021154,0.18717409361842674,0.24779427896802764,0.011609305172305545,-0.31542294957419553,0.1799363481271325,-0.0084331513895229,-0.08549655421171416,0.2226583005111826,0.05196465862320551,-0.24773863538857763,-0.16943964617524637,0.0745527997804655,-0.23712016057414106,-0.09640853728196039,0.07857619753541355,-18.75142680313441,-18.624619532487753,-18.912954289847658,-19.058440345930553,-19.007107626829452,-18.66557074505983,-18.778305336243946,-18.51835574716468,-6.328429650912715,-6.445278631354006,0.12156393254420282,-0.12992420469060612,0.21842391108443218,-0.17428378659252564,0.09005458227485513,-0.2550099461057919,-0.13849608385397377,-0.15190004372226698,0.31492817801858297,-0.05710082705039951,-19.001705301424042,-0.12008333668998532,-0.24709022999067348,0.09092493404565709,-0.042863379826216505,0.19406161779818432,0.10159438283480197,0.15693850608585236,-0.16119880303589856,-0.18169507766381277,-0.2833071994796446,-0.13693061271293935,0.18691513872295362,0.2415739411784411,-0.2194557120414874,-0.09704604332334675,-0.24104952589368323,0.24106913422069148,0.11887695352696345,0.12617811822424496,-0.2460925695258525,0.10670097350886414,-0.039569429666499886,0.1372464306360372,-0.12965423660139974,0.07351779711734677,-0.021216453381195058,-0.26742679024242416,-0.3583168300954749,-0.24915672738922118,-0.21860925535912096,0.05029146491035516,-0.17866921958531085,-0.10780190302113499,0.2418866057069895,0.013829701545281053,-0.15343565565974407,-0.26374843706940826,-0.07068260423462913,0.3363840470824031,0.12191754130848156,0.16463049958169973,-0.11863604887941813,0.037571823785221475,0.23077026286300428,-0.19206280629955685,-0.35480912276074716,0.04482595702060968,-0.18547609387333258,0.11192245063179788,-0.007565672649673727,0.07188661518789166,-0.23541006183940488,0.13894169038218757,0.12996202130175794,0.2965680584271498,-0.048203139332703815,-0.156704922222107,0.25038348820017137,0.1473524421092992,-0.07218806902134302,-0.322413288843765,-0.06524415516747058,-0.15460369855249723,0.05971070336046644,0.22855812128547687,-0.23500003853200535,-0.10763998028565284,0.2717263232269254,0.20036332116000072,0.18086244954996594,0.15352937243025733,-0.20824466922668272,-0.19489924296983208,-0.11996699252353192,0.2518807858096176,0.12402873182802142,-0.22255621718011254,-0.23447190897996958,0.14487676981459294,0.25952035459232226,-0.0675884010475658,-0.019431926529175247,0.1428360920609104,-0.045511369911718086,-1.0411441563982193,-0.9203591729160677,-0.9493649758808194,-0.9861195447953194,-0.6539158313981228,-1.0813533348366389,-0.9124261929107416,-0.7413858358076533,-0.3352916463054475,-0.594638966294384,0.035550937902590896,0.22759195276022248,0.1898577810509787,-0.11937768804781014,-0.06991250456757861,0.07326282751048006,-0.28867792763136063,-0.25850706916226696,-0.3116790199929926,-0.026504130913254577,-1.1820305093773387
biasActivation=1,1,1
[BASIC:ACTIVATION]
"ActivationSigmoid"
"ActivationSigmoid"
"ActivationSigmoid"
