encog,BasicNetwork,java,3.0.1,1,1328565332095
[BASIC]
[BASIC:PARAMS]
[BASIC:NETWORK]
beginTraining=0
connectionLimit=0
contextTargetOffset=0,0,0
contextTargetSize=0,0,0
endTraining=2
hasContext=f
inputCount=20
layerCounts=2,26,21
layerFeedCounts=1,25,20
layerContextCount=0,0,0
layerIndex=0,2,28
output=0,1,0,0,0,0,0,0,0,0,0,0,0,0,0,0,0,0,0,0,0,0,0,0,0,0,0,1,0,0,0,0,0,0,0,0,0,0,0,0,0,0,0,0,0,0,0,0,1
outputCount=1
weightIndex=0,26,551
weights=-0.3571770556672002,-0.3213467904271194,-0.29953111033936514,0.13195198659645901,0.14670445479770583,0.11743169412330424,-39.63570651865542,-0.1282986835460516,-0.36362432027549646,-0.2942378236053285,-0.20430140496673838,-39.53824912498282,-0.16693329546790597,-31.936160345895914,-0.10925984324686791,-26.80623343695401,-0.2683763140215815,-0.14990191130470515,-21.246287784939593,-54.89445773304839,-34.93737503603098,-0.10548322310613248,-22.40931267855416,0.11645290104477836,-0.1852348623640227,-0.16290685719737613,0.09417395422216754,0.1485960323314987,-0.0746843884574443,-0.14760674939668922,-0.008043191095111573,0.15461641840965834,0.3137663571277797,0.107532286001881,0.39374167252355247,0.05146744270569595,-0.18174515380003242,-0.04302758251613811,-0.13449625282212724,0.12494868988110211,-0.10856033066178272,0.3081888971775381,0.38384864524995826,0.26873513284599765,0.25553709840395183,-0.036710327114651435,-0.0024352962284686468,0.041508851197409505,0.18914173643264637,0.41139165041914044,-0.07297286027104483,-0.20648670066137376,-0.1534566126685868,0.009899402473614222,0.10958881853304756,0.2627593922196659,0.1662828259259418,0.41489203337093156,0.01864500732925416,0.05302885525872933,-0.13420548699892082,0.13467811288499462,0.148131414593266,0.24615761087565663,-0.19077059285018771,-0.05458211397777781,0.01418132049292882,-0.13695307389379685,-0.09173543686913782,0.3562012758485858,0.07315503638585522,0.10980738732903209,0.2561241422877019,-0.07839121840547719,0.35007385066115887,0.2648690948153632,0.26424701383136634,-0.022755840024308707,0.07819861857985694,-0.0001190789186260692,0.010544592687192201,0.15525205575832207,0.16061802178243267,-0.18710926610739753,0.2558827141539927,0.31819022200495933,-0.2437844321738871,-0.25553806665828,0.4004908286905546,0.1835689904778285,-0.13083766714296982,-0.3220509570011401,0.2155547970117041,-0.25593356318097554,-0.32803585549131314,-0.30572452118478927,0.03970481926706834,-0.03765072463970269,-0.15500477893759346,0.08315045952215577,0.0533407729849906,-0.3082605675190642,0.014086573065247337,0.04175760709283147,0.10089420483868,-0.3275270970082846,-0.278428517607678,0.0308339809373389,0.18988201906661123,-0.17218174590999613,-0.3186835587371986,0.11159761259056282,-0.0470680743992444,0.059694317011561776,-0.02554585467900185,0.05171111137537934,0.17788731720902962,-0.0785624826015931,0.07779663484362054,0.16800444024626782,0.105083497888534,-0.05291304388788917,-0.021985671292957244,-0.4249760174312475,-0.28496749819420625,-0.18747105574992468,-0.307648630480817,-0.2895513301322756,-0.02292243216958106,0.12448474173016272,0.10461749305696455,-0.2492266455683279,0.0007439794113717306,-0.16740240669592305,0.1268770613755128,-0.1620710443099881,0.18452323521399294,0.09553554506506218,-0.34153616988787155,-0.2426697122633335,-0.005629462877919312,-0.23482416122539845,-0.09890242998699153,-0.3240614106048129,-0.4214455631204865,0.20018935578247876,0.02290555076826302,-0.15194039793209685,-0.35721997869239946,0.04102873633361777,0.0012856563644620188,-0.2908287263036516,-13.21461293380213,-13.126651105614163,-12.859493673431665,-13.164946774156391,-12.872079872991511,-12.932841823472634,-12.716740504233861,-12.98745882662668,-12.651289967889053,-12.975143000145316,-13.060333365907152,-12.632630823924732,-12.659162602253692,-13.045746616049241,-12.89197171587074,-12.617532576860498,-13.05157029130775,-13.079755866208746,0.0015628409956005786,-0.2274252269812182,-12.714223899611532,0.29189080985544186,0.24069617685654027,0.23278144558365438,0.38675188130156174,0.29542071819107935,-0.1556895498475378,0.336644440246797,0.33559702201112657,0.1279498786836293,-0.01792937040391758,0.3796403093671104,0.232483385482447,0.23551484223914382,0.3829578118720061,0.04448991939839088,0.03272833039007973,-0.13957770294816724,0.12165410737204371,0.13630318960650223,-0.026659451278659957,0.28682154230910467,-0.11002211088766349,0.4100866916899965,0.26819183464121904,0.17606423658039544,0.021718681479232355,0.2637576346053338,-0.0022966812023359033,-0.032859472457233,0.36274554949326515,-0.1451297306218418,0.02024927397549266,-0.07298151318241575,0.30108318398525097,-0.14820818198573765,0.06495008149805667,0.009747589383712636,0.28426475237574717,0.11536640967704295,-0.21719926365249426,-0.283445637402155,0.14022835007998613,-0.04618638329417954,0.3096365364179709,0.17737370324401697,0.38992024208723514,0.10200295595227707,0.2902374831947763,0.22670151263435462,0.3346777043491435,-0.00903614684241914,-0.165658451848969,-0.08368086219039766,0.1789803444778571,0.12017838524674204,0.33519328463606196,-0.12860840448095096,-0.11431404974983657,0.3911549830875168,0.05436216694168869,-0.20110412414433268,-0.12782594658548924,0.12309706953210656,0.34398926851924044,0.19272949707753112,0.10738969601620221,0.02689327072038507,-0.08312768793926206,0.15271646871318156,-0.17756817350096188,0.15870468841317004,-0.07222998121837099,-0.016351373664574023,-0.0483075376084893,0.30866425538276393,-0.178802182641572,0.3852277189812537,0.31853352002821317,0.26665611453895494,0.28416597223801804,0.032563936070793706,-0.0009488818342097287,0.2926511100227704,-0.035244097885000575,-13.060600347300896,-12.741295166707234,-13.069822651972261,-13.144761695498902,-13.039636510879868,-12.792423475852866,-12.893939307235952,-12.729931170618723,-13.076774700020499,-13.05413138733335,-12.63788614432317,-13.205874093902366,-13.104247238757942,-12.634218522584078,-12.935467795238408,-13.097439848872176,-12.82170408454352,-12.71884999877659,0.105768371517109,-0.1835957266046298,-12.84628317597263,0.05931990366150744,-0.06341342384647905,0.29147934862739183,0.2647107150907128,-0.1581090433197413,-0.11931952233647504,0.21661229030373613,0.3013502296430684,-0.13703116462980885,0.01984085007021282,0.3633722464455789,-0.13880753254528683,-0.15981155723264961,-0.057222950065218575,0.27334444667141905,0.23520349451630135,-0.09307398532204342,0.2750114865813303,-0.05325125424125871,-0.018197809636083608,0.01887978013259674,-12.377923612696545,-12.522331916675228,-12.56803601190577,-12.9474671465871,-12.739488593423816,-12.545980541867717,-12.459345525579872,-12.567148487042715,-12.432713363910489,-12.428362751815955,-12.526138241965908,-12.79664387548566,-12.438666864341029,-12.945990167355127,-12.569112314733859,-12.461568367213122,-12.895539864579481,-12.706491727210697,-0.22368635242460586,0.14352064017503485,-12.804277953997277,-0.1962280831219303,0.09886550761826743,-0.055507967784299506,-0.17964983378516486,-0.1744516072182326,-0.07053624503975864,0.11944356096457479,0.1943793844669915,-0.13294388731749113,-0.014804403708161228,-0.08282931650941389,-0.15225825437747786,0.01307947080179685,0.36613937002428526,0.19804128458271802,0.07164343958196415,0.16705695988709385,0.1860219465553044,0.24848132919407562,0.045462814548210315,0.2690390190734802,-12.929038412201066,-12.866139253253948,-12.712296336234337,-12.8560963830343,-12.678929225500955,-12.984813800990391,-12.644586112758931,-12.517813204280378,-12.687280625226633,-12.435884056330337,-13.077277642614412,-12.799890711869114,-12.880823893775393,-12.599899516510957,-12.402759618868144,-12.658628948686854,-12.63299885068778,-12.44296955180437,0.21589773558518813,0.04691597253252221,-12.943438585977306,0.06122606675198042,0.20285711024694825,-0.20365401810973804,0.12544208922375968,-0.005102953794302572,0.12762782012283022,-0.19975355496683989,-0.11376041696602825,0.26310965911298895,-0.07398732461996338,0.046245422201215455,0.22476275329200585,-0.09195101494768099,-0.02402558015673263,0.3619676152077281,0.010604594968695692,0.18380226851148534,-0.15218331639098648,0.2811298657700375,0.10057596351800438,-0.10411661471438516,0.013747391811850546,0.12024550453071417,0.3837032895628129,0.11844325696745664,0.12841030713567433,0.02122432545147403,0.11951579198767073,-0.11182155652455998,0.41672164927357996,-0.031633012212539474,0.022439085283957206,0.2410926837019462,0.4054274310332923,0.2768855703908278,0.12873561636346806,-0.2200673311103153,0.003176516422397819,0.23673086484237776,0.3169221249541619,0.06892434608530681,0.2968430630328636,-13.203447158648759,-13.348339775081634,-13.303104774704373,-13.343242432418794,-13.078299402284934,-13.234782086655626,-13.068406647199076,-13.38252439112405,-13.074623526150344,-12.920859127881718,-13.3759308428132,-12.999390107842913,-12.829907071999116,-13.373636164134508,-13.274931138412494,-13.280475555021573,-13.01263128064591,-13.190746266981634,0.15006045812254082,-0.08762582365228871,-12.899533425899573,-12.311241622242903,-11.942690674280774,-12.091493374264465,-12.004503888538602,-12.305936628962545,-12.440187775331227,-12.096755277253035,-11.99220775126118,-12.373843680969507,-12.43210444105476,-12.15435116960704,-12.440668660229809,-11.991148699319494,-12.362204528125899,-12.18590219673335,-12.316827818398341,-11.980748165434068,-12.114461307093736,-0.060188203311629294,-0.22120984041251002,-12.402249735502664,-12.339097832155772,-12.723725945446741,-12.452324074002773,-12.646130346011965,-12.371681250224855,-12.827608764805907,-12.333558160369424,-12.731901722267326,-12.313170253056485,-12.459433762362957,-12.492806317236393,-12.361289927745675,-12.362719860446676,-12.323191688927594,-12.663324617081418,-12.443336713857471,-12.34725214544666,-12.858317221414653,-0.1840939249583754,0.19703254548914778,-12.816365179322379,-1.6550212962094875,-1.3259736039902437,-1.14303295266463,-1.6977610433695067,-1.5733127123182749,-1.1257374549663934,-1.4207145619058033,-1.545017872549009,-1.5499064002860743,-1.2539670431452101,-1.2050829469341624,-1.337698305187841,-1.263596446283805,-1.5560288664938502,-1.4053729147187928,-1.5166436335662252,-1.6251109768824132,-1.7003556938175397,-0.05227610970799206,0.07368172136043014,-1.590135355463674,-12.530531861634485,-13.223717738591844,-13.2141239194468,-12.905569272058976,-12.754264016580429,-12.834630215981601,-12.801280269532432,-12.889873657160685,-13.048684026828596,-13.144864400016795,-13.077608985050217,-12.809040623273066,-13.163018026391565,-13.344997949897731,-13.313175155808828,-13.149956216697205,-13.040927355625662,-12.842939763485644,0.02331742737507919,0.13491711297485828,-13.249301806353305,-0.05192573484945953,-0.2742890372220467,-0.34745922072108676,0.06694038882009168,-0.2489714459832188,0.07425516292922796,-0.35319153725174596,0.21103523878337394,-0.19213698327551548,-0.028571177381513286,-0.0730006105334797,-0.3833014397595354,0.1072626855523311,-0.32432108623390293,-0.15770206181002838,-0.03010191481395687,-0.09145404811178895,0.2150005470787345,0.06048507831906202,0.06670730154069389,-0.3002036619798126,0.028987181611621855,-0.15308663959506807,0.20353250733654654,-0.11588965202999742,-0.11225148601052047,0.2354178531751278,-0.021863712068076427,0.2563618034908676,0.37296521622447193,0.21964562003818427,0.1251611198231308,-0.06427623112615674,0.14068653421526556,0.36836176982506136,0.34184735928930393,-0.14706957934411852,-0.14378274281235232,-0.1311339370049403,-0.08467058868540492,-0.06903512474271044,0.18585183724847182
biasActivation=1,1,1
[BASIC:ACTIVATION]
"ActivationSigmoid"
"ActivationSigmoid"
"ActivationSigmoid"
