encog,BasicNetwork,java,3.0.1,1,1328575429688
[BASIC]
[BASIC:PARAMS]
[BASIC:NETWORK]
beginTraining=0
connectionLimit=0
contextTargetOffset=0,0,0
contextTargetSize=0,0,0
endTraining=2
hasContext=f
inputCount=20
layerCounts=2,26,21
layerFeedCounts=1,25,20
layerContextCount=0,0,0
layerIndex=0,2,28
output=0,1,0,0,0,0,0,0,0,0,0,0,0,0,0,0,0,0,0,0,0,0,0,0,0,0,0,1,0,0,0,0,0,0,0,0,0,0,0,0,0,0,0,0,0,0,0,0,1
outputCount=1
weightIndex=0,26,551
weights=-0.254270125315554,-9.209458195451711,-0.14282528834840336,-0.2600626445236042,0.12814473084034517,-0.22399728745624675,-4.67954349418178,-0.28806579679016414,0.13113838503149539,-0.16037337204376123,0.07761456664058464,0.07890065791351986,-0.15423154999935917,0.13987660161201482,0.1174497171008236,-0.30703025238024345,-64.08082697534797,-0.31079427912827445,-0.2554086901900429,-0.1106080372603834,-30.151094155295716,0.10665641895938216,-0.3188699549990302,-0.267825298760252,-0.17169980153403108,-0.22796529136377847,-0.14991703680661805,0.10805587592341573,0.11245595567879205,0.2217922601672429,0.20086148879312998,-0.2974204581461259,0.20131210374224473,-0.08202689637313132,0.08721286286389605,0.24509939323688107,-0.08397926589921068,0.262839018842635,-0.09705463638106493,-0.262294991630643,-0.12385049409759881,0.10391602174005847,0.14205515557037818,0.2889289949657422,-0.008147089937903551,-0.12617493686561754,-0.12959967564542313,-11.328101604702914,-9.971818930839243,-9.18583967748953,-9.072416085431483,-3.126498148858479,-3.1250660113666915,-0.2073557223678268,-0.10870868866751568,-0.3027433598547658,0.06424323373163687,-0.2566227834023154,-0.13679239296501425,0.23517166023704258,0.13237235398275005,-0.018384012704718733,-0.13367960495378858,-0.03280888323749666,-0.11824890064522066,0.02189610858269407,0.07676406838254987,-10.343822597480493,0.05913455016182387,0.2514912105669042,-0.11159953156516071,0.016999773583082693,-0.26944458774417573,-0.16002669980008966,-0.1375840545573882,-0.0742284533696953,-0.0969002225878486,-0.24920165232396407,0.19473074671010412,0.19156923107849788,0.1222410144332484,0.2055792491945392,-0.2309596400515057,-0.098907922894315,-0.023087994017398347,0.19620768778640998,-0.05716704278912773,-0.2494655783448512,-0.11598475276429433,-0.06851023470572404,0.02672734738872296,0.42711063776385355,-0.12416357591223494,0.10631850697441489,0.25318932764618807,0.02845602700276579,-0.15792479225879602,-0.07397282480554153,0.014414046205410916,0.22646523115820785,-0.2575994206983882,-0.16952726345846497,-0.04113989323554119,0.22170714780682116,-0.005084986670106543,0.19491114299527051,0.19859391915990562,0.046092091715904275,0.26757582162865673,-0.13590458207289485,-0.014690972368674619,-0.008357285441818216,-0.4879154369902856,-0.17934595538398174,-0.002490476897689522,0.1920775826080699,-0.28583850509081354,0.10253589987886244,0.026492101630619075,0.036528615532558185,-0.23910981323031744,-0.27489935749751004,0.16154360360515296,-0.21414058041851858,0.11197618089606298,-0.1330320496528276,0.11861359498621211,0.24440134897096052,-0.006936282796070706,0.06548050535886789,0.18842501097131448,-0.19011406285901622,-0.06565776806353368,0.28709632271986,0.2578893946450404,-0.28184535975078145,-0.1721558855373645,0.37146649618564265,0.06302329925551706,0.011793639482920318,-0.2389238211580252,0.1989442773956144,-0.00847312316328482,0.17532198948372016,-0.136584703802812,-0.13040898887415336,-0.26078429428112876,-0.2113337524220519,0.027845980911881205,-0.27892904655435935,-0.00023561530253317047,-0.07063741694631465,-8.246814286882998,-10.077572744188519,-9.168500845653691,-9.473819485967216,-3.051957148370578,-2.900026575762871,-0.4696267709712782,-0.35331821597728547,0.009417410938836359,0.16117969543394986,-0.13041730074516272,-0.14332914089597526,-0.18824797505507418,-0.23613760564068478,-0.25674246745019674,0.16887128553469016,0.2592599356892686,0.1821806365128041,0.2606286158284512,0.21278367663708578,-10.097391627696412,0.37563211239635913,-0.12243389531089229,0.23832142334002854,-0.1238279335151632,0.25373542129303167,-0.07114050289925802,-0.11316331705295014,0.16313972104402025,-0.05587724723214337,-0.12918546293631056,0.052144782338273896,-0.15996911052299148,-0.20154214385936808,-0.20714358837336114,0.18172087628258332,-0.05748456321275262,0.04064458972339008,-0.2853858799081837,-0.2775405182273702,-0.18273816358418657,-0.14657100924258865,-0.3821783245575437,-0.12121351988994664,0.1127058952413565,0.23245708299778978,-0.2584008248496155,-0.028503919844106163,-0.10088923564021315,0.010383859036154932,-0.28162192232899885,-0.1897901959032978,0.1304430132534667,-0.04324106027898891,0.07398262008643437,0.29352422125327077,0.23286290821988975,0.16183968615397545,-0.15567927309457405,0.15581752266805723,0.13280648346051085,0.17548094284725305,-0.2235358791633963,0.19740311311632874,0.02298569032268089,0.12629147775164642,-0.24594850670800783,0.18435567439398864,0.18467471058101514,0.15232122589725855,0.13744552909492327,0.2574581527455362,0.08616428559149673,-0.2476226415058484,0.06710773341456977,0.3150793598491027,-0.262871117644945,0.03256489398600284,-0.15049666537062537,0.17058057476603408,-0.21782029814648032,0.07106529582453498,0.21794775123088928,0.22317741992527734,-24.667770610631027,-2.1378875986229766,-13.35633905875425,-1.8247218814784165,-3.9974217923058992,-0.7374790697408943,-0.8837278546698243,-0.18593304158653362,-0.15734767478701805,0.2682822854171871,-0.016168533508245125,0.18224995174673264,0.20527032171021609,0.11363809780457643,0.2688771460167076,-0.06676914271862798,-0.27958789496362496,0.16418642188809549,-0.10912342915607454,-0.1364822468467554,-2.184664553574126,-23.4835299162412,-2.381327824885071,-13.478977655024192,-2.360608189234043,-3.2925099763637973,-0.1843127956227384,-0.8513559151763472,-0.26119887993530394,0.1901401755688122,-0.12773756907914516,0.06958397843851769,-0.23585948443170626,-0.03180759214312952,-0.13052171266083093,0.16495730102440495,0.15706013432493043,-0.18321309900739574,0.027038245966473574,-0.06350751167628539,0.12356817045346465,-2.039360655465439,-0.17774007736443814,-0.27202125244745967,0.01618159354903204,0.22017215914369176,0.11386747839576046,-0.1248192776361843,-0.10446138092539883,-0.10291052418151167,-0.09569664169605935,0.12624679976456205,-0.29316423579997686,-0.12292609864747739,0.1958802435366269,-0.07795945997827952,-0.010743587192989013,-0.27484199190327263,0.06959623593413716,-0.06107305544289759,-0.3193967886341123,-0.17098483863577757,0.2324390937107848,-0.0724120228480579,-0.19535629219444434,0.001242105386220823,-0.20913968624167584,-0.1594165511781021,0.17617173644384632,0.11724410685995991,-0.2121349402608192,0.24552589709723777,-0.2637970367255911,0.2761609628526952,0.1980335555090931,-0.24206015993584196,0.11805254595148063,0.05430020558248973,0.16171787597337742,0.20153389677731529,0.1141979215231718,0.17917904885113342,-0.12199064818596111,0.015521569090327394,-0.2022853340189057,0.29305852937729615,-0.12959154266421566,-0.12385981216143035,-0.2181886719926482,-0.09887933822562125,-0.19930933119075833,-0.25778800774398786,-0.3276186227095422,-0.19365139082494331,0.0010586509817715568,-0.2690934938660095,0.17206446363414812,-0.27041990526998644,0.019709353304387413,0.0409981881423987,0.2982571962187786,-0.019785251296343315,-0.08540173664645988,-0.20140550194594117,-0.016739639799367937,-0.15551566709540243,0.043398251885202244,0.25049165205223295,-0.2379289412272183,0.18668667544754086,0.05412409925757128,0.2612334001738534,0.12806226888613628,-0.1313473145634703,-0.22647036795723963,-0.18834652901263985,-0.23999651952870027,-0.2456858185598073,-0.14042007163885864,-0.09451829402930798,0.04891483617641044,0.2582608434330182,0.07915603427945661,0.27099780654656985,0.1292645454086438,0.3006901708493476,-17.234809374885533,-24.175084370163415,-15.383132308472627,-20.01655696299345,-6.5730321021380265,-8.238923864074499,-1.5493586757569073,-1.5875501884147685,-0.06984142263218873,0.05680364194617307,0.2802057978000276,-0.17589282969580283,0.10013676104258233,-0.14544044795485433,0.014876948221563414,-0.3023868493921079,0.2320860204497367,0.2498754903119841,-0.10348109622589324,0.24396580236891846,-24.212265355290977,0.1171447909130093,0.20710482750913034,-0.004481862995989735,-0.11630949210037834,-0.0041993576654831034,0.13482425593366643,0.4337544682165652,-0.12955873282240832,0.3132741063164712,-0.011239002352504074,0.033174143411373,0.20588342346765437,0.045666841235221745,-0.16264765828640648,0.26351820858715613,-0.005358985851449922,-0.16791897014198257,-0.3307150486540259,-0.1369578276798843,0.138497509152639,0.1000941522853134,0.14529576806213634,0.06125445493632822,-0.0587636723582505,0.13662324700453368,-0.07848135406441853,-0.08768605865048079,0.29977272866574256,0.3509484854101205,-0.02019783954747314,-0.004192470199040816,-0.3011641067908201,-0.23269671277355133,0.13866711811209845,0.09773834756051614,0.09934896880738336,-0.17311568386661688,-0.2967148155859248,0.1672726085765257,-0.2995221899663482,-0.04321676529579835,-0.16537461701608647,0.18622097281246364,0.06830901007597143,0.3547039881654178,0.2514311111519553,0.2692039967462726,0.04940789884494107,0.20495046815505602,0.06162074510417562,0.00043755880033050055,-0.2549116316480232,0.1186157759910613,-0.1478470381354607,0.12785068576930605,0.07921647613577189,-0.175946933386814,0.07166174741351239,-0.19031643905543344,-0.13060834347879163,0.26943335609585606,-0.2214645873034461,0.3677185488563905,-18.695327781531404,-25.806050191110785,-15.190338250939222,-20.884494023948122,-6.966657409888545,-10.213465266830845,0.07709419852294325,-0.36427216143150515,0.010903054275901977,-0.04113431132367443,0.09589507365847713,0.06375969282405562,0.19428011397773018,-0.16847908093411046,-0.21340613058704183,0.30333510982458173,0.28583721493892766,0.25436619117659726,-0.21675217918467304,0.11027973369249475,-25.462501119981148,-0.5709653822763272,0.24451185570302358,-0.06836891872809678,-0.16949476057245172,-0.15331144505890265,0.29736568469017327,-0.07075450033178127,-0.22091595800937985,-0.12667995032123708,-0.10110785941869924,-0.0628507122734929,0.17901253059861755,0.24661629927333636,0.06798110159657703,0.06466604731009565,0.09511655979622242,-0.06762924117027728,0.18670266981757733,-0.16821115901086964,-0.31744585529403724,0.14617397004659066,0.2604432765255125,-0.017804619124664273,-0.051491018879085276,0.11618867508540578,0.19230969273551152,-0.28494056184835165,0.3395104502963899,-0.008476640460416154,0.20329908424535628,-0.1038183264930001,0.22193078547851303,-0.07596858830148906,-0.10621092060336354,0.18797107296573456,-0.26282934253726553,0.22192838504754953,-0.12770487208309492,-0.23706127248621994,0.24798921418483505,-0.07100011347135042,0.0004117225375613355,-0.08384136645368251,-0.04686173988923428,-0.03290768524158283,0.18004298906686306,-0.2369804721293362,0.22024160004160276,0.17401846501116236,-0.16414431802800217,0.0673522080409479,-0.048375388598182745,0.23899832488389092,-0.25199331288769883,0.2729969289139869,-0.0974366392249567,-0.12830778633553008,0.028516420698861355,-0.21060335341000333,-0.11991575689028307,-0.2323955254654598,-0.08676761160117458,0.33509547725002314,-0.17517093069980239,-0.17105117893999122,0.24001713890684412,-0.1980007248816713,-0.2459836592677503,-0.05710581897849823,0.2550786688635007,0.34253910043642194,-0.16151689361600977,-0.04274978377512705,0.25176846731555486,0.256039628244385,-0.03801634784196875,-0.0869402701551195,0.021766618474966085,0.10150452107503928,0.12327118622669712,0.2087111498334499,-0.23075871683507862,0.2634633711218018,-0.07570508715295349
biasActivation=1,1,1
[BASIC:ACTIVATION]
"ActivationSigmoid"
"ActivationSigmoid"
"ActivationSigmoid"
