encog,BasicNetwork,java,3.0.1,1,1328521254168
[BASIC]
[BASIC:PARAMS]
[BASIC:NETWORK]
beginTraining=0
connectionLimit=0
contextTargetOffset=0,0,0
contextTargetSize=0,0,0
endTraining=2
hasContext=f
inputCount=20
layerCounts=2,26,21
layerFeedCounts=1,25,20
layerContextCount=0,0,0
layerIndex=0,2,28
output=0,1,0,0,0,0,0,0,0,0,0,0,0,0,0,0,0,0,0,0,0,0,0,0,0,0,0,1,0,0,0,0,0,0,0,0,0,0,0,0,0,0,0,0,0,0,0,0,1
outputCount=1
weightIndex=0,26,551
weights=0.02821722633571297,-0.16806914969519848,-0.3024241880911553,-0.13497571025522842,-0.39078595825999907,-0.3653513412407904,97.77110379061527,73.74215360649266,-0.2710201470478291,0.07777200246031095,0.03685088681196283,-0.2128946732997294,0.09059356931637462,-0.26380782021424154,60.98827004942448,-0.3646340083419116,-0.12527169399366178,0.09409525334381612,0.008772173196884864,-0.370772761399802,-0.26159127445091074,0.026080648374353227,0.027135429361902635,77.07815539127878,0.010421831067284254,-0.22282941464337352,-1.0647261122159624,-0.6766655663525014,-0.9257224973987997,-0.9606324379732877,-1.028093796574869,-0.6290770815717311,-0.8769098717481554,-0.9105677183038882,-0.7771090814059103,-0.6658470041294935,-0.8841696510255714,-0.7529691584452304,-0.5768724296470271,-0.5759861239847361,-1.0466853414947839,-1.0915509385261855,-0.9863827738799827,-0.6751795606395711,0.2814376279432034,0.10517178201048137,-0.5858524955473482,0.37683649169299416,-0.014767075326302143,0.33299313717082785,-0.004133355196584226,0.07552794575379738,0.22449228125506943,0.40221001372028087,-0.10975935435379351,0.1484066368539526,0.06430510325078546,-0.1103729777956352,0.27560849505460616,-0.07840535507686268,-0.16418882674317836,0.03716951461412543,0.0786735351306939,-0.042038793931078816,0.007732315586863686,-0.04231852872047029,-0.20379365920126039,0.3624083307521657,-0.1512062937702312,0.08104720982602963,0.398668258081333,0.3284410634585934,0.32115604932480973,0.3419674916046879,0.3623662637217372,0.04941018582178955,0.03344686610548399,-0.0073993704127984505,-0.06033675847576839,-0.0801529332930566,-0.10881266304484065,-0.08635729409992186,0.08033302279569358,0.08744688358173323,0.20032120534925424,0.05839699816193451,0.23954358788883656,0.18018723659200223,0.2072437096436358,-0.7038058436740622,-0.6624320533430408,-0.5202108551444345,-0.8242160806893497,-0.8053241884288282,-0.4365608807819634,-0.7852520643200224,-0.819234178581592,-0.46864504451489725,-0.5817269035534214,-0.5251049546599107,-0.7893796389576424,-0.6414906044278378,-0.4524266250189341,-0.526277864320805,-0.9156508092403853,-0.761714233063414,-0.40829609949786205,-0.284807897357384,0.28607186383506505,-0.537300542364162,0.20276607035043204,0.2517441973573393,0.05006673722189209,0.5653403689900107,0.1324114542469479,0.49240648663330333,0.314292969478787,0.3493324651986561,0.30822276524288755,0.39755323289793276,-0.02592864760391786,0.0764609283633386,0.2662257415914522,0.014367220951672713,0.02681692191357539,-0.012924299124725952,0.2925357497349485,0.21137420696869613,0.12216867968105603,-0.08627482840711871,-0.06365013664711552,0.3417536977991609,0.3747377980206389,0.19529903024520145,0.4146180174278592,0.12161290992937458,0.018300856374226696,-0.03998122752250824,0.4685565544781011,-0.08887802266223431,0.24962272505601202,0.32723463424353744,0.40112477010937586,0.19761526038574773,0.11845094975162941,-0.08982376469002872,0.17429268148685062,0.34710418072280375,0.13386590207672916,0.19702994607568816,-0.1827913295947063,0.28526469994049675,-11.524440990476844,-11.046154189476665,-11.417453213389908,-11.395763890455987,-11.500129184899533,-11.223996713616105,-11.121789575997523,-11.440271139823668,-10.96584041489784,-11.566684956467396,-11.136747074765724,-11.183524452373332,-11.355118943383715,-11.119367048902383,-11.510747761480426,-11.185906770832538,-11.31124888536788,-11.180079213012576,0.17090099782249982,0.18896975933468643,-11.23175923541212,-11.26351797141511,-11.200982551052643,-11.046306969571125,-11.56761225693094,-11.06771299945511,-11.095501606634299,-11.076503837937661,-11.585840324407469,-11.192462599668932,-11.30139528227166,-11.448220400194652,-11.53768842588179,-11.38096942444946,-11.568376174016107,-11.55326891013001,-11.234306839492513,-11.336934062097656,-11.118745661595954,-0.06123763907407822,-0.18646502628596642,-11.41566761895906,0.20021709757009287,0.39211307856539424,0.05565039883001556,-0.13291385787440202,0.39726192324714893,0.3619335606813101,0.15687444172033144,0.16991482481330544,0.2998217698992805,0.060231849604376705,-0.06098854892333558,-0.006670610260940152,-0.009312751117419277,0.0785760467313734,0.323371877487387,0.4078053903306623,-0.05261871096203882,0.39153311757552833,0.10695323125775155,0.2106274871117391,-0.04075812843413737,0.08193607453637124,0.08018165852439345,-0.3954804646070056,-0.373765922159358,-0.278457985643337,-0.030436433600680032,-0.1601872372757846,0.08198250014952106,-0.08296756247213251,-0.12377450018288498,0.14535522082418229,-0.21658166563499126,0.06968713367851267,-0.10083399158318128,0.0035387485135275065,-0.43622997971623123,-0.19171130336413467,0.07893670935230267,-0.16109056289598786,0.18407187948375503,-0.2618228734735629,-0.8259968066961447,-0.5566950531497841,-0.985168945320941,-0.7150371801497541,-0.745439959974842,-0.7592283354956244,-0.7448525616392565,-1.0703316469927628,-0.6116693049459054,-0.5238767055703086,-0.9490591509476777,-0.601454891939151,-0.5860280009114777,-0.8524155959840921,-0.6262325805280741,-1.1244947957784606,-0.7643149616617265,-0.6071881969767996,-0.10861848448749828,0.07722324376042239,-0.8324832712884483,0.09293229296113002,-0.09270714630430059,-0.03245913346989762,0.1721375803176008,-0.04775321317032835,0.17625235242211812,0.09803304627173527,0.43314921448293586,0.43399472383647864,0.37962181382561333,0.4175210526756723,0.20024978102671914,0.2785777189902062,0.023958282221451466,0.0813955440092806,0.03975369452612085,0.23108916312586847,0.3906793555681358,-0.22575761119670779,0.19350072160776324,0.3541308091361408,-0.2361298611343381,-0.19056652881271785,-0.3547140777768204,-0.27967860881568746,0.13908641446060155,0.1694741575623161,-0.07550068457481295,0.17990546303284394,-0.004454479410839179,-0.27242289846224715,-0.19133009654270516,-0.19914206046083882,-0.3984367517588615,-0.0889194308806822,0.04509278710611167,0.029666462499560536,-0.021230382795813477,-0.13645959937915098,-0.28284244321824514,-0.16666597291627894,-0.2623583026571924,0.34715905382772877,0.0880829693820515,0.39988738452973804,0.06645800541494833,0.24920571608827735,0.0417652406206058,0.12812025859984194,0.04333542574122376,0.37783847786027247,-0.023805209659593082,-0.14739441887882065,-0.1369675224656146,-0.12842524264271904,-0.011226090035215325,0.329268472495631,0.2368557910797474,0.11381536227504462,-0.13579925775652213,0.2023782471997954,0.09351399549614496,0.2353384868201916,-11.319116386894567,-11.539889233920688,-11.393081221118848,-11.03955775984145,-11.292742573840659,-11.060287136957808,-11.34562807888581,-11.518159010144359,-11.478875154621544,-11.504270395782266,-11.375222302743056,-11.279583523071512,-11.493292911352444,-11.529753082540037,-11.112087080467086,-11.422332203996607,-11.543063033618358,-11.387890832007143,-0.16796214001718082,-0.20632886546560802,-11.568135760813504,-0.03692450349366458,0.243646284399536,0.17756707205638278,-0.051057374094682,0.10280621839891634,-0.03700678190807652,0.264237649954411,0.1188495614386771,0.4630088125453855,0.0025055215573100142,0.3089669938997443,-0.005288172498566307,0.38121325098579206,-0.08527451719984956,0.2256279151956727,0.19363997008622064,-0.005534380131629796,-0.1523872023641879,0.31479385281248873,-0.20191973246515577,0.09067407597384901,-0.8470022149056422,-0.861760108572506,-0.9808213495675231,-0.8128717081828201,-0.5202682167677705,-1.0347916281063507,-0.4796568390912635,-0.8989077894250799,-0.643673980615907,-0.728209551891427,-0.36762111826599786,-0.8142252262168566,-0.9299771814828931,-0.6464232914790736,-0.6886153902507148,-0.8489090550848526,-0.5392095578682314,-0.6032346605427472,0.12273327534950074,-0.1761222181197239,-0.5699384687074769,-0.26012081095936795,-0.12513063098709282,0.08985220260892039,-0.3951865744418428,-0.34701345373351095,-0.2625802322123336,0.10516345367305395,-0.19278954607419274,-0.06536876768945114,-0.09099277315895517,-0.2560829801648489,-0.3973783187109208,-0.09291264830518776,-0.34586555404648006,-0.34541801776525777,-0.3997725610937948,-0.04190258490209907,0.1058854684806889,0.03543458919376565,-0.2216824099750246,0.11740104806729228,-1.4025829745942897,-1.399006791077195,-0.8829751941984035,-1.3780287644134022,-0.8898349046515179,-1.2911123186224984,-1.2266044785972243,-1.2696225652159019,-0.9215770768129309,-1.0162734036812493,-0.8373400068586954,-1.0045259496490229,-1.352986805958236,-1.1578388180895987,-1.152742844096209,-1.1065000564483123,-0.9506371412697073,-0.9898541252345018,0.05257133538561699,-0.02324265119629315,-0.9498910736080003,0.052638643403851146,0.12981821440229008,0.36546809931200763,0.09506359872143653,0.11627386457054069,0.11107927379009315,0.45496237951070284,0.16501384371029543,0.03867404970551745,0.18414308317610262,0.49933084241063885,-0.2032000091268038,0.40799754552443535,0.10121808340405918,0.2249994682329945,-0.049275817153820706,0.23281875047570955,0.14532976267933284,0.26062001780491184,-0.07588660526507769,-0.1040077790892233,-0.05151393180952782,-0.10878244653886397,0.37744282632145776,0.22429103252810323,0.34069030060762734,0.23388380217262417,0.10229379381049282,0.21085997930645373,-0.03082092104588849,0.1305641759690528,0.4115495766147109,-0.05278635243161309,-0.08997129582563816,0.2969913426536864,-0.10353994176716806,-0.11433289741083912,0.12586387503749624,0.3333094992184717,0.01598067785521911,0.2572771230968244,0.23848025340914936,-0.9302790515269791,-0.6394865984750716,-0.983105278480355,-0.930605720668587,-0.6238232125396419,-0.7598246212155011,-0.768413821049225,-1.1050036743612137,-0.6868314375640263,-0.6127281778577347,-0.6148387052403379,-1.0021910692770122,-0.6095296220004576,-0.6469370256116121,-0.7606494403895572,-0.8515991903701133,-1.0052553229742835,-0.5770397707206728,0.14399977763711683,-0.23420208893431071,-0.6017994494439629,-0.6339793582597645,-0.8071519523533215,-0.8929104495361467,-0.8466179493797134,-0.7184624183644133,-0.550370505561241,-0.5168194916577175,-0.9425572071512153,-0.9062601240726678,-0.9209181753204533,-0.9583131668400825,-0.7702596148815631,-0.8219527306210553,-1.134001802260978,-0.751917093371773,-0.6015714733153635,-1.1669982978776678,-0.7619934788597247,-0.2961932480836758,0.0550779516989504,-1.019909153288616,-11.434801517162576,-11.21976930307846,-11.530966396660713,-11.315872206504636,-11.479400707134324,-11.478092529318593,-11.14597204548603,-11.101528360473198,-11.21741184914734,-11.269009153287213,-11.435637763521258,-11.073048846963601,-11.572961675496483,-11.334270829508334,-11.068615442365559,-11.14892437288597,-11.5418861879048,-11.561641820527193,0.19173540134673475,-0.08126647508131586,-11.547417684448932,-1.2844989093498713,-1.3965385138630995,-0.8791904083667037,-1.1384694073950934,-1.0357297693784606,-1.153293137342884,-1.3335896668066727,-1.1613729152604042,-0.9858537530213581,-0.8928579010954449,-1.0352494136776111,-1.1241349893414117,-0.8737778101665393,-1.3880696469517162,-0.8557751914498996,-1.3872639969647016,-1.119991187535282,-1.3379127608329038,0.09308596153020042,-0.020175727578068244,-1.3562604919543977
biasActivation=1,1,1
[BASIC:ACTIVATION]
"ActivationSigmoid"
"ActivationSigmoid"
"ActivationSigmoid"
