encog,BasicNetwork,java,3.0.1,1,1331388737646
[BASIC]
[BASIC:PARAMS]
[BASIC:NETWORK]
beginTraining=0
connectionLimit=0
contextTargetOffset=0,0,0
contextTargetSize=0,0,0
endTraining=2
hasContext=f
inputCount=20
layerCounts=2,26,21
layerFeedCounts=1,25,20
layerContextCount=0,0,0
layerIndex=0,2,28
output=0,1,0,0,0,0,0,0,0,0,0,0,0,0,0,0,0,0,0,0,0,0,0,0,0,0,0,1,0,0,0,0,0,0,0,0,0,0,0,0,0,0,0,0,0,0,0,0,1
outputCount=1
weightIndex=0,26,551
weights=0.35895500042891926,0.11331094446435336,0.09983425229162729,0.2736374678617389,0.380684810560351,0.28560131827927016,0.0038277499226949396,-0.007151134707231693,0.2694953070846601,-0.5015678955508617,0.7077779704197388,0.1838879235122425,-0.8021565017137011,0.3091297571742494,131.18990151204807,0.3162658262982143,0.266384480603586,0.7815098344589461,0.09834927138835403,0.293529302068545,3.0655113499301656,0.33863808908908877,0.26499187502523724,0.13887922639127498,0.3265454299962135,0.24042272149253838,-0.07009472213250367,0.3606248772001498,0.4263959117820073,0.13391199631157918,0.4773883604726471,0.1635963259119676,0.13586000720434366,0.14684538485280102,0.23472384683033073,-0.013080442790764008,0.037791543483397826,0.3075988447092467,-0.2738469280093701,-0.04073819842419447,-0.1987672199910614,-0.03517662813499004,0.07046935556681153,0.40237313657476725,0.01766765933441311,-0.0828037877768001,-0.1454964837563999,0.18843278847599354,0.1332087046396075,0.21316938963013865,-0.22216299669400635,0.3112266527883101,-0.17354006733903043,0.06402226205907446,-0.07626004838999703,0.16211470165757025,0.30934474387733335,0.340323687166738,0.611627044311545,0.043175043322443256,0.33086369258123516,0.2231584375815515,0.3862814421049935,0.4731145832490167,0.12279246750973843,-0.2183233671975988,-0.12553731543189678,-0.2548037766412749,-3.9754129184446834,-7.126375969331693,-4.9099262662967345,-7.267393969842945,-4.919007448828745,-6.990269972834853,-5.300167150684107,-7.0923661662074435,-3.8822008755083472,-5.159078242811943,-1.6761463355807877,-3.137200166026847,-2.376736631816822,-3.293101924292664,-2.934223397407279,-3.0811066510988137,-2.462515435117204,-1.9720453924702992,0.1253370244901263,-0.10121822215212865,-7.539070169449512,-0.3218525719353099,-0.19239918715007492,0.10938655520164131,0.08121919593519311,0.08147338215623645,-0.48339682695095487,-0.1569921144427307,-0.18346685217470232,-0.005248888070306407,-0.2668797926840499,0.13247202860098323,0.07025475948551091,-0.43887708379669,-0.29956389771976544,-0.4344868784653806,-0.08670207923567014,0.07846870646129664,-0.01983021779496435,0.09031778418466399,0.08336074210480128,-0.32599526353856734,0.27872309920282845,-0.17389881709104965,0.2739127329516893,0.1094823418151904,0.08980669693726778,0.46635474090969725,0.15329094480099714,0.44801181188934036,0.2520455230576315,-0.18345423155413748,0.33311071161164996,0.2989529039224842,-0.22376043524296202,0.013090708733077716,0.2623567578418291,0.2913107358551634,0.0811989865738387,-0.015550514554177934,-0.3003376923053593,-0.08244514517918626,0.1859748735775324,-0.22323382213383253,0.05831540973929194,0.10723648185165607,-0.2006130084834084,-0.3148668260281684,-0.35763634555243495,-0.059556816921625656,-0.2885664063481561,-0.0972235032358876,-0.32984067687673657,0.19357376013139294,0.11871017603159356,-0.12893894291816965,-0.07366113728142723,-0.18431328890340648,-0.5788864134461086,-0.2973111428948788,-0.06120688010250963,-0.08873283446589868,0.14113978918824663,-0.003048116004991913,-7.81297045301978,-9.37136218038093,-7.73802242889335,-9.354733647802952,-6.5376484335198395,-8.444174600242146,-5.861258849590854,-5.962907964820763,-7.204490103135358,-6.1645337417791355,-2.5963183336096094,-2.1134372005990425,-1.6162551750152545,-1.8100467621846577,0.15477910145627366,0.18735489725454324,-0.13103840753932705,-0.3755207305125019,0.030443821196310603,0.05993285129291298,-9.440998844286103,-3.4727148680701205,-8.547244711350361,-3.7242292090703795,-8.527050312017591,-5.314815189429479,-8.479811144439331,-4.428380446290002,-6.366135098043363,-3.3611389948254144,-4.950330281288076,-3.204912725230112,-4.034880010429202,-2.0476619639028666,-2.093413752883029,-2.148162435044888,-2.4795822376830627,-2.150813050824921,-2.449829098652745,-0.05186216097839102,-0.2142703020326219,-8.911406391107901,-0.1888664382918595,-0.34469426672341563,0.04445997196566264,-0.2241811821125838,-0.3612253337038498,0.20729711315227062,-0.24693885775180796,-0.13635034770922577,0.04694205384781205,-0.06291991175311284,0.11223134760277503,-0.2094668864775911,-0.15848595800020315,-0.24641548471764868,-0.3134670065554298,-0.35626829881955246,-0.15839410380802055,-0.35427340371993377,0.2635694486867301,0.28250059265316063,-0.011371049143160866,-7.927924565546876,-7.331085847875801,-7.301460538804587,-7.5681998617276065,-7.1720005396043,-7.786288610033115,-7.102898435610138,-6.8183602134965,-2.1128425317973405,-1.9787256717131312,-1.359492378447326,-1.6755522134798486,-1.8457730238048264,-1.5633072568836373,-0.9675778562113121,-1.4086125476688973,-1.3038202568698916,-1.3861873093570898,-0.24979885562620494,0.18598441507496422,-7.464918709026008,-6.898145442737087,-8.959057570501795,-7.957640819186461,-8.740267407565522,-7.467030567154373,-8.401407214814535,-6.953106483966057,-6.966562194871052,-4.900864198429908,-5.385254058611416,-4.1068420072650955,-4.567608615514727,-2.127128762521665,-1.4280521301497873,-0.5429999577971255,-0.13896608358248186,0.47694652528481063,0.15852977179973904,-0.0004841753329331836,-0.2643547576686638,-8.822376743757719,-8.372083763481942,-9.57003858829729,-7.938030879824468,-9.347862252874556,-7.978624657471274,-8.983599277185457,-6.332567380025377,-7.068354046912405,-6.0154673644209105,-6.295308303264168,-1.8700664570055232,-1.3134669004087671,-0.48223680787511236,-1.0789366889607765,-0.9182369785673067,-0.8010194514318437,-0.7030595351941602,-0.3206807237438216,-0.17060790202667242,-0.0403208610342199,-9.456936266999058,-6.7695820491753285,-8.332159616310896,-7.33227392789573,-8.509552746612362,-8.487604878787739,-8.239050849092939,-5.312683428336397,-4.906131869219826,-4.877361194302316,-4.694216915611405,-3.742688646820459,-3.746091975105325,-1.4966615969394945,-1.10256488132002,-0.3476882317129468,0.07817995663349553,0.44583135532289075,0.460038786331743,-0.0018113046664167678,0.09520854791391913,-8.388198974667683,-0.10252242618339541,0.3744358635816428,0.23677015781798658,0.15449278222137697,0.1754153397486098,0.12962836513776416,0.01910514971839966,0.24225844386312953,0.33911386807185906,-0.0466965577013042,0.003887277644328807,0.30437181272133207,-0.2667213087577503,-0.018801873667383784,-0.15857631149403317,-0.014543597432437688,-0.13644625981581693,0.30216896731347764,-0.11596676941597404,0.25311267226523204,0.20307887666224278,-3.2165424616513256,-3.3241175746215053,-2.7981001379663013,-3.26638294714625,-2.9979336467353446,-2.918620740492804,-2.8218025819895836,-3.291362974662567,-3.261939852129372,-3.5391857902271195,-3.355959448854022,-2.9400747487252494,-3.344149918139551,-3.392020490730936,-3.7140834108943874,-3.1371160790441355,-3.1529873733819787,-3.120741739938952,-0.0009483077883864556,-0.1626337805367095,-3.1822516892492723,0.0439332815530099,-0.1642881263503146,0.24825632363825498,0.4349899314571498,0.5282082949947422,0.10058678540856447,0.31281774360032055,0.5434240580061007,0.22731463794816084,0.12112889725857884,0.4472271565568834,0.3036092664939215,0.14670634909034908,0.1603851694270313,0.28438354023374646,0.028770353376947826,0.3095134230413308,0.038808041494563385,0.23776401243465659,0.16992386809752383,0.1683254375677543,-0.3079194330109454,-0.4188251789840721,-0.38199462590254973,0.0020755227520087016,-0.40493977354986166,-0.17453783619093827,-0.25335717416825626,-0.18992335926085185,-0.20460581970471364,0.016273171391168267,0.08644045229620251,-0.07612377490138439,-0.1400946829897074,-0.2669185038307132,-0.29345724787384164,-0.5462901787263642,-0.1473281341094479,0.04464007745752983,-0.2803084982569782,-0.009774871590730082,0.01935625469696617,-6.339931683419036,-8.51857656458723,-7.10564547680412,-8.685548931994663,-7.398538919862491,-8.968287792516193,-5.456207228982867,-6.333024870434901,-6.228843792539637,-6.009773179188636,-4.789739591872696,-4.557176778203234,-3.092308246036968,-3.4426165556835153,-1.6230998798507204,-2.088412095722768,-0.03253290219001925,-0.07007730481259222,0.09280016724476355,0.04783938494536986,-8.87867006800454,-2.6793953650707496,-1.5183201620555458,-1.9535201015158492,-1.116335700629648,-1.335925024386554,-1.4146352835746392,-0.9392149446861285,-0.9266914674311628,-0.13558127702560197,-0.6759138493912022,-0.3302310515462229,-0.3916301814605636,-0.17739055959526284,-0.2826027034999885,-0.27881475726062466,-0.5217343532692277,0.40164119744514504,0.5781242672978875,-0.2650809081261754,-0.2584889106783698,-1.401129610215648,0.06371901851786999,0.16098598490225458,-0.17575662638249673,-0.1360990158566739,0.13505240314590122,-0.36694078026668453,0.14165254134497185,-0.06741779107993986,-0.07555567016987066,-0.28276014304011776,0.08536677743966908,-0.0759679361269952,-0.15346600940096877,-0.6532262665623814,-0.11430304433868976,-0.07258722897320066,-0.3829071011469447,0.00700985232571355,0.15788074826437495,-0.0884691291793174,-0.19573966896426126,-3.631605284043597,-4.491547966888114,-3.6488601395825118,-4.614078126849747,-3.3546530770526677,-4.432135463319331,-3.408511336351949,-4.8611962377633455,-3.7117710434816256,-4.27240364708346,-3.5177633197092506,-3.980609693060828,-4.13407136899239,-3.7579125232948343,-0.4350610043429415,-0.16936994365654034,0.008146890918319383,0.3186311229733024,0.03111847116840042,0.20868423098545658,-4.9146281421934255,-7.733466191651474,-8.868476712018715,-8.856956347253876,-8.830794375478183,-9.447611520214647,-8.294573724136145,-6.266206791058485,-6.553564638112929,-5.2045058336070245,-5.190684209131169,-4.206764394172935,-5.0572236860994915,-2.3072589311215905,-2.870171495552552,-0.019396651655918952,-0.2291581933031272,0.497692671303653,0.5347083170917599,-0.21602513684906754,-0.1406025859865917,-8.832539251393666,0.09418054176289081,0.013911528859456901,-0.26202502154746515,-0.1966085380224611,-0.3895091125218517,0.04570643614750968,-0.17329126379824206,-0.30316718370265017,0.015142114758426334,-0.2248191591380348,0.22370634079638474,-0.16158129639112673,-0.19291661099601548,-0.04985152646916203,-0.5095441903170864,-0.4073971288666949,-0.31704084893847573,-0.05923843775132964,-0.14169697894346422,-0.2387977383416715,-0.17586583712602438,-0.044789904380246034,-0.06423491976019008,-0.31372621814518464,-0.2025431311202585,-0.15072376301080997,-0.12532758260025473,0.19043780822263545,-0.2008450279297505,-0.1307205302493823,-0.14135473756227718,-0.03908155716143829,-0.04525168501205284,-0.09176231628442164,-0.025428350442326886,0.20544994259837146,-0.26010503936433577,-0.10428560681250137,0.16707181239805807,0.13150039726672186,0.07200830841207562,0.011396520078967298,-0.10903135467756647,-0.019095085781793614,0.023471397868473187,-0.12269307978992261,0.29897534935703285,0.08981242372255865,0.2658468646010972,-0.03683382646506084,0.32832955231292515,-0.17861547662528615,0.31304875722997483,0.05747934760117598,0.13831042320049247,-0.15906581794297814,-0.08764620321592526,-0.017366817757223235,-0.11532722317835553,0.25372671306653766,0.06327576860028952,-0.19392955765930048,-0.06287392973122549
biasActivation=1,1,1
[BASIC:ACTIVATION]
"ActivationSigmoid"
"ActivationSigmoid"
"ActivationSigmoid"
