encog,BasicNetwork,java,3.0.1,1,1328574935697
[BASIC]
[BASIC:PARAMS]
[BASIC:NETWORK]
beginTraining=0
connectionLimit=0
contextTargetOffset=0,0,0
contextTargetSize=0,0,0
endTraining=2
hasContext=f
inputCount=20
layerCounts=2,26,21
layerFeedCounts=1,25,20
layerContextCount=0,0,0
layerIndex=0,2,28
output=0,1,0,0,0,0,0,0,0,0,0,0,0,0,0,0,0,0,0,0,0,0,0,0,0,0,0,1,0,0,0,0,0,0,0,0,0,0,0,0,0,0,0,0,0,0,0,0,1
outputCount=1
weightIndex=0,26,551
weights=-0.29896187215258296,-0.19691424139001343,-0.835975817877125,-0.2968925342295663,-0.08937514248605088,-0.17996298252228216,-0.27847486447213365,-0.12755936802387335,0.14128603683983648,-0.19155006596582302,0.07618022454187728,3.983396207846939,-0.797452910136041,-0.2946370306252638,-0.3063285354139814,-0.2637713117156829,-0.2219162418420496,-0.2479601997532375,-0.3157928290277302,0.14967676943435387,0.19086834085989052,-0.6823005474310173,-0.18402676316173083,-0.5607609774154568,-0.04826540959068565,-0.12037432041758067,-0.04765178276339184,0.24307197702688998,0.34546781523015024,0.23445746261755243,0.34978430785330095,-0.04646343044493968,-0.10182531776036283,-0.07503224100552752,-0.026108574205307933,-0.011490775539726453,0.04257966696767693,-0.4636909837526658,-0.28699804249000954,-0.01113063302880539,0.043468027586203356,0.3130441842002759,0.054597705662933926,0.11246023977145142,0.11060272117833843,-0.12542784242920565,-0.056101006816365984,-2.358789845026025,-7.172212303008428,-2.389784854911059,-7.133224392496566,-3.839818442593834,-7.245362362727768,-5.208763319727234,-6.935670891547199,-5.0196684401316425,-6.0854220816989395,-4.6268747341328815,-5.910373326113949,-5.906176492561508,-4.677494876469753,-1.2423719138509248,-1.0855627861059969,0.05282008549855027,0.11170487478002683,0.2680720023273748,-0.17455028939388778,-7.158644112749833,-3.9355065392015756,-5.908159718903421,-3.8309918161593792,-6.274936462884625,-4.032281219511846,-6.042693899820186,-4.228250338106321,-5.766055983062415,-3.4314022578241428,-6.121430985007237,-3.795950537239774,-5.656216190223293,-3.8794850581343803,-4.996382709095024,-1.6677181139724728,-1.5441946910446414,0.15913302329423556,0.1748481730890945,-0.024555002017473664,0.20017456470256312,-5.701256177850201,0.17592133930840825,-0.08514062738537084,-0.10343751353638972,0.02150864256668604,0.022836084467841036,0.18637859400522871,0.23941641889669685,-0.11390894336554178,0.2776122490311461,-0.11385460929587113,0.015397597478625248,0.06022820843234215,-0.46398199470408197,-0.35438517756342625,0.05613132505190668,0.0635743121525244,0.19329648068731603,-0.048304606718510654,0.246981687718454,0.11937063632821153,-0.04387498359287963,-3.5084036313033384,-7.9415673888872265,-1.7272881240342857,-7.7606101415946265,-4.443664615483095,-7.438451996318046,-7.424867631284578,-7.715432295261306,-6.963932306982018,-5.968696534373351,-4.9442177702585886,-4.365507305139114,-2.323251140504658,-2.4471696722626,-0.42854902242578197,-0.6472380896060722,-0.24230729773520032,-0.7250655981325773,0.2636903794060761,0.29867420949253004,-7.3754247198484295,0.023024290625620735,-0.150161583051598,-0.09771100394373514,-0.0755563394240531,0.34416298875577134,0.22441892719960932,0.1712838860723307,0.32505503192169327,0.29296798252329437,0.2351169461414129,-0.3213545478659891,-0.21969666075788724,-0.3618438772329674,0.004318677014643807,0.5935593378071048,0.5755924203728835,0.275484635417375,0.1545231012492621,0.06825352833931143,-0.21436018946472454,0.31924068214501844,0.13333675246701676,0.2971298965452137,0.19978585502147028,0.03642194351581793,0.06132193089712177,-0.16230590225646713,-0.15487968676062958,-0.15796158023566464,-0.07785035036235083,0.015403519259529137,-0.31888471359342146,0.019455257984227717,-0.12338391528550521,-0.3890574548219362,0.14184402391580542,0.47991899834822305,0.007755618944207645,0.1361712589001622,-0.23157758840498924,0.24203278709412754,-0.11569351991746021,-0.2415720312622402,0.336923123520912,0.26814743651937134,0.33816746046732393,-0.18695800191661888,-0.18758664096908967,-0.17651871068823394,-0.05135758676562331,0.18250954851434753,0.29814868214115997,0.034881286491206115,-0.09775268498324738,-0.15720798747902792,-0.19285001467362733,0.33094713497920536,0.036411922574225625,0.21404242221353376,0.024484250232961895,0.014411807444356536,0.1692033003708619,-0.15785602939643084,-0.3278338950334925,-0.06289876444971934,0.0701870961707588,0.10409422690809791,-0.35810150913459704,0.23530592578991832,0.028454085392632528,0.13393407088413356,-0.01805174558067106,-0.0846694937722674,0.2152126602076399,-0.1041296620317288,0.20304555298806398,0.11662316852149826,-0.2607916013377912,-0.4573151981251355,-0.1943025467756458,-0.029349150909681928,0.17241438566130493,0.22145526576180957,-0.31947457957280134,0.03570118111851647,-0.06326016711886057,0.38800041337254043,-0.10002142330733013,-0.10501313996084802,-0.12713256201312528,0.08348082474952834,-0.022484302803712122,-0.029586410423778048,0.31573092553721827,-0.26760172249477016,-0.3129585705036568,-0.43102277517915644,-0.12690721053311776,0.6152717377170772,0.19664042003767712,0.031566670354862464,0.001826412581994532,-0.3102910376649899,0.041753013546117254,0.11283440825989695,-5.970102385507986,-7.593745262008527,-5.860312825777353,-7.47827023831373,-8.372599880682213,-7.326486478655955,-8.389317956872643,-7.677445122515357,-4.876152770504959,-5.89960566018614,-4.929221030910049,-5.4932781432792,-4.771254008411372,-4.6673167083388565,-2.960535042041239,-2.851939105246812,0.6197235708808984,0.3136944770245543,-0.18987901749720168,-0.2516065423359106,-7.463898226970347,-3.763911359908365,-2.7585637391876943,-3.198776691862396,-2.886269961132324,-3.4348187820940144,-2.779133923017441,-3.266468166463599,-2.7696934194338816,-2.7573970436931132,-2.97758884291978,-2.235368505164476,-2.3653450319850235,-2.4497489641938577,-2.225957166659816,-2.5032415995772284,-2.6701120935946685,-0.004666417644588552,-0.32227843264995937,0.16995594954380114,0.24781679896416067,-2.974693205315434,-5.385514342555897,-6.178288286979821,-5.390851030535906,-5.841493118537419,-4.977850736438531,-5.9501033833252555,-5.455404080588593,-5.975564875238658,-5.919309890362003,-6.072118902703543,-3.786970298091976,-3.168472451391138,-2.577645604221342,-2.736275330840047,-1.2705420270818866,-1.0493176004686309,-0.31763970465148755,-0.32319544949630435,0.2728345626806814,0.034105735013434384,-5.874686893370693,-3.2873347281549163,-6.0246189429783925,-3.363896828349543,-5.706524195980055,-3.8217139566998464,-5.747873352313219,-4.481722280616095,-5.954440072196137,-4.576604935828179,-5.617263061248096,-3.484015489169036,-4.3524582443265345,-3.232601324134523,-3.5842598863608277,-0.5396437031123925,-0.8658426356628329,0.3452895831925403,-0.015420806941787619,0.037266015554207985,-0.12272031863692012,-5.510220540532563,-0.09816739989885456,-0.2004711676351209,0.08636250538013784,-0.09592379949810018,-0.20188185986829071,0.05743547456048396,0.34024717966730256,-0.09522826139525312,-0.0021424394008535685,0.2608094289761279,-0.3340128877836292,-0.34557819439635645,0.02881930717372405,-0.04370561792660145,0.03428888638299585,0.25031433432463057,0.44564633337383447,0.22083201430694793,-0.20824828794965397,-0.15813268653758394,0.016852104697344814,0.14774346047020442,0.2906722012428775,0.15716833489106208,0.19856039184912166,-0.09472005776740686,0.008631111849858764,0.1072981071058487,0.22322257374231302,0.30450795422811583,0.1672687357088788,0.02234477159581462,0.08503448723070184,-0.4502207855885031,-0.08408148287447767,0.48148976415936273,0.26192524919734494,-0.08090712265715347,0.5255846412656819,-0.07254380343244782,-0.27867223388601486,-0.13443415889794752,0.32712125192028085,-0.19836330615519987,-0.09077532712196376,0.2920217245485017,-0.0027478651382201735,0.03550082032214594,-0.027257132932554634,0.06839979250240033,0.05853686948580642,0.2498584898381205,-0.3591280348687248,-0.06129489565002433,-0.12164746054457856,-0.5023885318711238,-0.022680207447445713,0.059499688595067414,0.14863441366497732,0.5405465144904236,-0.08014351625350434,-0.16919612418939448,-0.06506986110782903,-6.570763529049371,-7.054897022115721,-6.172840926251382,-7.075072437724209,-5.871185093209053,-7.026119897676928,-6.518661931477782,-6.934775868493016,-4.981581791173851,-6.185047105400514,-4.98114933840835,-5.398812708556159,-4.204652313814439,-4.372505265722726,-2.2277381573520265,-2.234823588239158,-2.4777488558003715,-2.057152858366984,-0.14488833759239705,0.10071549955071694,-6.695461005872888,0.33768156797004223,0.030083739334099135,0.2665042589351855,0.21214423857674158,-0.009270698451882137,0.19425342976935345,0.049460590171373414,-0.12860289576059342,-0.12199090713254404,0.07817451694293115,-0.00992048979110352,-0.33048658499202194,0.07041170924747728,-0.0984026901002287,0.31389221649852383,0.1808550516547217,-0.044842553497476775,0.23961656921147195,0.18141519948313378,0.06196006983312911,-0.25455634474007355,0.10041481506350305,0.09817874863225609,-0.34914826304583646,-0.3085539889969242,-0.32337339788936537,0.20977656188118493,-0.16736543117539449,-0.1528779365335684,-0.30511227723577794,-0.24479553049768973,-0.04049618314922884,-0.04944507227666564,-0.04338131722044422,0.49214468405319134,-0.30124676536423767,-0.15496980075961586,-0.10960871446544057,-0.3312510249790428,0.026029602830668793,-0.2446922929996682,-0.13863626580509503,-0.021857864747190273,-0.04957706023261324,-0.46582270939479203,0.022978114516179718,-0.11655347212146651,-0.014999802642697608,-0.33778352397437295,0.0693071816895739,-0.0871406438911963,-0.16132799095485606,0.24941962973046966,0.11460531761716272,0.46426437358792794,-0.08974264108746477,-0.03090420117519005,-0.45018388702131834,-0.03442468347975611,-0.4587819193418861,-0.10704674083135665,0.19710161015401925,-0.3107873565803807,-3.83331863870157,-6.070502306436365,-3.8288414613502724,-5.620702279236975,-4.33053544588368,-6.043292713325323,-4.64940349266738,-6.052469014050888,-5.317964129994117,-5.626376105964599,-5.135185741856554,-5.508525360411107,-4.984277443530687,-4.671024210491151,-1.7672839656001467,-2.2571197304165382,0.0731221932470344,-0.1591510597697452,0.1248023689860718,-0.13481886479129013,-5.904281696355004,0.12623233252843513,0.0858096694080902,0.07916392966977154,-0.08003450293086672,-0.2277537198754382,-0.15167998749633121,0.04894406530106135,-0.1665128166765758,0.009412623137189545,0.03827520716750529,0.0719028278295327,0.07088970637916289,-0.3713260730475363,-0.4079692003904317,0.24422863948004334,0.2702182963952968,0.5068154260134299,0.20763100773769894,0.28267278819840463,0.21111306537186073,-0.10223414139695639,-4.281256637897684,-5.368728172901916,-4.351283440666823,-5.384073303001451,-3.8413500500065076,-5.542933752943284,-5.2284473219638485,-5.6399506786889875,-5.255970008682484,-5.375427122004915,-5.074603867442508,-5.275709346900736,-4.484764607179737,-4.704379807312659,-2.9223435099428854,-3.0718922896429706,-1.0367077168397605,-0.6077839879030094,-0.06039031101792249,-0.12980037827055094,-5.363886514727179,-6.716951415431411,-7.355783007788049,-7.3031792053040565,-6.934190278191158,-6.067326033701949,-7.221780914359426,-3.097489203718321,-7.302482178382895,-4.454930807796598,-6.174093948064632,-4.581145140254176,-4.886671434657715,-3.4570464375012047,-3.855310839985269,-1.2382161491974415,-1.1142504144740608,-0.5633581363584474,-1.1112905189455986,-0.21397704839836512,0.16796174721347037,-7.225030616981942
biasActivation=1,1,1
[BASIC:ACTIVATION]
"ActivationSigmoid"
"ActivationSigmoid"
"ActivationSigmoid"
