encog,BasicNetwork,java,3.0.1,1,1328573937680
[BASIC]
[BASIC:PARAMS]
[BASIC:NETWORK]
beginTraining=0
connectionLimit=0
contextTargetOffset=0,0,0
contextTargetSize=0,0,0
endTraining=2
hasContext=f
inputCount=20
layerCounts=2,26,21
layerFeedCounts=1,25,20
layerContextCount=0,0,0
layerIndex=0,2,28
output=0,1,0,0,0,0,0,0,0,0,0,0,0,0,0,0,0,0,0,0,0,0,0,0,0,0,0,1,0,0,0,0,0,0,0,0,0,0,0,0,0,0,0,0,0,0,0,0,1
outputCount=1
weightIndex=0,26,551
weights=0.02621520324889176,-0.258340740003251,-0.24176594458123782,-0.2457953985652294,0.05241925419801097,-0.36733112741708407,-0.3479109636978206,-0.27953808452010875,-0.339138121348842,-0.30162798394978774,-0.24541190271901173,-0.23100943991129455,-1.012340863510404,-0.2882010994705596,0.0914474410578971,-6.351953557462722,-4.649539474790045,-0.37271297312206375,-0.17471159452414417,-0.2518277113922751,-5.508726961072045,0.030792791893826776,-0.27472148197853064,0.09145205014562635,-0.29710120470882373,-0.318442435960976,-1.0063646777955475,-0.9873077951085706,-1.050818618117119,-0.9447298773418374,-0.8905269486819577,-0.5185744992801051,-0.8780784142532173,-0.5601598322150687,-0.8099099436872806,-0.8409984354098913,-1.0442912653244296,-0.5915501484157951,-0.8276551682539873,-0.8799493495900762,-0.6299198230988475,-0.4265590919479201,-0.6788675665918066,-0.311418151425934,0.25318474730813884,-0.045407325196291974,-0.9480393196538336,0.16034430949649262,0.21361504363641828,0.09827898909898922,0.43902144109663943,0.08215708034605271,0.12795779037748878,0.24165605672948623,0.26797366549449597,0.33902968894580887,0.35765810220444705,-0.14545262377079257,0.3020785141533515,-0.03453630634782334,0.2991609711883263,0.1487579938204895,0.3844347122561593,0.2804611302608986,-0.15065910022425175,-0.17846070104821374,-0.27431241360222686,0.2743298108103057,0.1348177896817488,-0.06873065958470553,-0.06051166571515715,0.35114124375144995,0.14939369943214342,-0.14817248499668442,0.14429115872737752,0.03207571634407551,-0.13961499633749438,-0.05818074043518556,0.3877545598105213,0.0054647910040926395,0.3181220808580071,0.12907896520879902,-0.01382519928594704,-0.13323890720220816,0.25906189699312215,0.0009629032787773772,0.08863271087216681,0.037284995770889576,0.39677753245826186,-0.11738319082915286,0.0659702748484288,-0.008891213775131912,0.3968219324041842,-0.14386245737638045,-0.09809785147660993,0.3446249287223626,0.16985841953534725,0.2651700784841474,0.0777257377283101,0.1003968165990419,-0.012941552249761734,-0.08298269619898063,-0.020498165526678325,-0.03906979408804176,-0.11179723313599019,0.18893335537364253,0.1486087940979111,0.25023637611183547,-0.16021097352177852,-0.10690749244351178,-0.2576518366341427,-0.42881389671764114,-0.5572660750072077,-0.0771804290495024,0.057373356103224415,-0.025222138924185483,-0.3115492570468421,0.059750171600359725,-0.13633649020607347,0.043858555771539076,-0.3908611497861476,-0.05308987801764868,-0.1346357695171399,-0.3239942845061696,-0.02634996103712972,-0.41035351525813335,-0.3100927349123813,-0.044654751117114616,0.23489274036026872,-0.20441788263102248,-0.24219636571266914,0.15781304123559944,-0.0645000437469862,-0.016486315075142477,0.08997557530628147,0.1445550127831367,0.42013996173080936,-0.051986625229925254,-0.10150105320671138,0.41852885477685786,-0.020172331209949823,0.25585190890828735,0.13440749881740793,0.3884305706961766,-0.04955226862166984,0.3811539449118526,0.10172015833220542,0.17582709799310667,0.3963952658579828,0.18342231034805614,-0.0009687352767309928,-0.06247564605677575,0.25277530689997973,0.21270321012287915,0.32741286488840926,-0.014978509280247299,0.15211160564598358,0.2800416531761467,0.09742797274360315,0.3102491583831335,0.24212311167618297,-0.10361887081692328,0.3826032538167886,0.10258196293896861,0.0017369189674683039,0.17621952602253252,0.4065188741021972,-0.12985198739505815,-0.19054225481781903,0.28422882829905016,0.23893208116552847,0.2803147097897591,0.10087065723342947,0.09705763489940519,0.19751429964051812,-0.14685572514567588,0.2983272982756251,-0.1264015489874632,0.37748047707221366,0.40171886281903957,0.09033030423477001,-0.05092242573320194,0.05412061404520173,0.10023529397955958,0.19903836272995976,0.12621461834977593,0.2946344079131209,-0.12888069594313295,0.2316577665207552,0.08731448125608084,0.3364682052356017,-0.2643022509995024,0.2011552916321858,0.051385890350765115,0.37615034625548416,0.37946291321026737,-0.11578302646816357,0.14441575740834112,-0.11916515099087471,-0.03081876208437928,0.05937516863426688,0.20357156688769626,0.3887375473121484,-0.023041218823442455,-0.020496203417249947,-0.024085134104943173,-0.12002279338647387,0.06647708815507139,0.4286589382323922,0.13363455791666218,0.16215919925096633,0.11514164541566137,-0.00004769009848359264,0.21571258169643892,0.3603382320372738,0.4386622904126919,0.34099593368418557,0.10632496605823062,-0.2053453976531381,0.36539926954888924,0.1468379036120927,0.03371534944233111,0.05668875653429305,-0.04411246397907631,-0.014757480811172008,0.0060495340913215845,0.20906139168960633,0.13919773465486424,0.06315842346532094,0.4384181602776708,0.3365059474476215,-0.005857593146331358,-0.055292556650464814,-0.1772319373087411,0.3271296214541725,-0.0028422323549798234,0.030526364034166503,0.24405555030125606,-0.08445296606430902,-0.05730989270034209,-0.11255827094988152,0.3294244899832881,0.24898812579610943,0.21831080897869,-0.10625466909105247,-0.08598624596675003,0.40535210349312367,0.36113736787667183,0.21775713367784996,-0.04808713440290291,0.35437804829466446,0.09888138895598218,-0.10623980082966919,-0.15557523898571954,-0.07831955448673177,-0.1588955950457244,0.13740246146858393,-0.3600719822372066,-0.36839777205021473,-0.688322423710333,-0.15315464999623832,-0.4257958733478019,-0.2429522121855642,-0.5980290305051875,-0.3291739794614872,-0.12012014706708155,-0.5384383712593447,-0.11619719991068347,-0.6437912287771567,-0.6405312995125031,-0.19190325892215546,0.021864130588064162,-0.05032470959417509,-0.509572912372657,-0.15097880637521596,0.10264390475036443,0.0018889251378476808,-0.40134237340820866,-5.425651481489236,-6.395459128397094,-5.652466296440236,-6.391160054605298,-6.2788253134374274,-6.017392542793446,-5.946211456801033,-6.397951928472479,-5.086230440841321,-6.5922153305534374,-4.927297473195102,-6.306657646888007,-4.839090842349453,-6.165208652673524,-6.216895170880712,-6.60373924163286,-4.838903012795852,-4.960174705052355,-0.19706273746502428,-0.14431227399191102,-6.264179196116661,-0.1394932045941528,0.28083779034664447,0.1283629721359853,0.36841772711669696,-0.12436717341104114,0.3516492274018531,-0.06379880766532059,0.04088370370729165,0.11881793884477376,0.1392607209425208,0.012848683364283159,0.0526398556767763,-0.13290143750179856,0.24836668503442075,0.11216679794981106,-0.11253190506929386,0.13927637963213807,-0.12845481454153868,-0.2930594787798784,-0.05586510754359878,0.05035508485894362,0.018953368003862908,-0.39719586431621823,-0.12234935603441649,-0.3570387530898086,-0.26917909487550207,-0.047552867800193396,-0.28370497079136703,0.010070691322847325,-0.20339985162967059,0.2714429677615443,0.19234564924439582,0.012821144782585059,-0.13278357556628756,-0.18870742490502349,-0.34642555863145097,-0.45125234675515524,-0.03667877469245437,-0.11541712419277135,0.05814686429448657,-0.04293825057438041,-0.2771827499644316,-5.562846748999903,-4.807582782247578,-5.643208237640989,-4.705473191793003,-4.972299790265791,-4.8748765789110005,-4.7487470099908675,-4.5797537580711465,-5.035669657117901,-4.938160538858278,-5.383208094811319,-4.616960805551957,-4.643819964511539,-4.433593605580602,-4.968822533927716,-4.829818205703788,-4.859374802138662,-4.663324668472397,0.20014385594384626,-0.21469658032960406,-4.673522409809581,-4.40647028902199,-5.42937030739847,-5.337836910640651,-5.199685348002635,-4.8283384475164866,-5.221160477666889,-4.711753967114214,-5.336647928501482,-4.800409981376705,-5.588641369324656,-5.103557439048648,-5.602659213370876,-4.827026958555125,-5.292178032312629,-5.483392465679772,-5.363816491140748,-4.52329972109284,-4.799242639142362,0.13207910357829922,0.2489575042361741,-5.138969775951978,-0.02128900565349434,0.287187567659939,0.2320471690847015,0.2956124303088996,0.057544945091123886,0.21093892037764597,-0.07005372677370608,0.34722071117448206,-0.016809985226189372,-0.013294787749052905,-0.11848091480839212,-0.0688801951514823,-0.1385425058332435,0.01620162436848635,0.14944029267669634,-0.03790624647677146,0.3273034253957494,0.012088179750361167,-0.18544253617419823,-0.20805641821509627,-0.1541480832385476,-7.8074925312277745,-7.087567750786221,-6.701554805547838,-7.112669780643774,-6.374212698601575,-6.6067539088400835,-6.903790295672033,-7.0064924356586324,-6.832487882084538,-6.752036079686043,-7.032153131549723,-6.7407843078553515,-6.866140869264522,-6.80893052126606,-5.655298875860544,-5.385995910622463,-4.978885838881002,-5.167457455461718,0.2132325715027786,0.1371068944850819,-6.588538701729975,0.28247884849636384,0.3410160438654356,0.38763126909136325,-0.11227891086982061,0.36005798434484826,0.3976350469796518,0.2275780943350715,-0.1406987564331684,-0.05358757107890938,0.16148509070013314,0.396556720753504,0.033403716007101666,0.12306611214228769,0.07857875572896306,0.2956703725173532,0.030914527733340746,0.08279772408943377,-0.0914489786790483,-0.02191325128901624,-0.033135554335365046,-0.14819400252714662,-4.444267005944712,-4.961506927512159,-3.8843522618692483,-5.392665046599588,-4.244591527813913,-5.283598354505187,-4.511363705970734,-5.186698397270989,-4.88346712520965,-5.426768198484074,-4.477795598231757,-5.2754894917972,-4.9118459298339845,-5.181427304483778,-5.772791967682475,-5.029694982394994,-5.330292720872445,-5.240371414866932,-0.1170032211885913,0.2766942146980607,-5.453299223983923,-0.8157634649175128,-0.28979277562893935,-0.21985553527850296,-0.2777926569596725,-0.4546484774209516,-0.3300599666199032,-0.13116196481248277,-0.45559332562914556,-0.09178054788095141,-0.14402276870293262,-0.0039765253476681806,-0.45313557510796776,-0.36690244961814544,-0.10348663053267189,-0.32619356152632983,-0.019247853065151116,-0.3245290884888974,0.06112976390771438,0.09690325334377438,0.1808605553653767,-0.4811978944075094,0.02330494228615068,-0.10446523685106851,0.067810153940038,0.25169186102961283,0.09593650287609543,0.09184469246478638,-0.05719858502941283,0.14939525242605783,-0.1481783496491361,-0.10569515233282084,0.34878326791392733,0.2626913739179094,0.10452672588454194,0.26999600383011113,-0.053195120724380346,0.4178422289918873,-0.06833978990804532,-0.01060534979872238,-0.22755594542834218,0.24391964817267026,-0.11202521779863867,-0.06312426021987683,-0.1273370871664024,0.11207799288446246,-0.22774703229706275,-0.22153028502483277,-0.021919225086834748,-0.07346775400679492,0.11593019409964328,-0.3671317642783759,-0.24344359692586984,0.1477860606810922,0.0033400767859224634,-0.04561934420815687,-0.09104021981096361,-0.37136452157892663,-0.3465883442381965,0.2113006672511146,-0.17421146997273726,-0.2941085626008965,0.003445105026956586,0.12132799834060942,0.5402978217119366,0.10753530644701588,-0.10885075927173654,0.26717193107061155,0.28821955495406526,0.24267725064928716,0.2262323797351867,0.18308915822962588,-0.06149656737311843,0.11174767364381223,0.10264017155152706,-0.05829113276885728,0.06178921733743717,0.2837831165142036,0.5360741075279106,0.16162310080611886,0.3677741461464573,0.15407537213804856,-0.11684163051499,0.019319940742273205,-0.12352009955586712
biasActivation=1,1,1
[BASIC:ACTIVATION]
"ActivationSigmoid"
"ActivationSigmoid"
"ActivationSigmoid"
