encog,BasicNetwork,java,3.0.1,1,1328573782163
[BASIC]
[BASIC:PARAMS]
[BASIC:NETWORK]
beginTraining=0
connectionLimit=0
contextTargetOffset=0,0,0
contextTargetSize=0,0,0
endTraining=2
hasContext=f
inputCount=20
layerCounts=2,26,21
layerFeedCounts=1,25,20
layerContextCount=0,0,0
layerIndex=0,2,28
output=0,1,0,0,0,0,0,0,0,0,0,0,0,0,0,0,0,0,0,0,0,0,0,0,0,0,0,1,0,0,0,0,0,0,0,0,0,0,0,0,0,0,0,0,0,0,0,0,1
outputCount=1
weightIndex=0,26,551
weights=-130.7690276738161,-0.2591974596503359,-0.2187334915954786,-0.295979461310247,-131.16276282249106,0.16057372085645866,0.1473407277475824,-130.58751641355443,-130.57896336493485,0.13762153871007277,-0.3058298087505654,0.1907564870109667,0.13393660199620827,-0.1328548752608888,-0.12275822365164228,-125.64621262246436,-0.25466352893516664,-0.22886040280758968,0.18778544511244655,-0.03371019506744935,-0.027663756958553137,-0.05998422445173887,-0.07400074671133514,-0.27349614456379856,-130.59869467690393,0.03082700516120765,-16.782760815923705,-16.732615757184426,-16.835609660209144,-16.784545301027165,-16.57290387950217,-16.78398596438311,-16.80752005013747,-16.855235324406674,-16.54874011537843,-16.475348644775007,-17.075764344802266,-16.953249218066,-16.72032608760393,-16.915211512465845,-16.92828990311161,-16.934942004958753,-16.431111345686553,-16.881250865804077,0.3056262035593347,-0.08311934091524989,-16.532945773655673,0.3596854479174464,0.24395050755580117,-0.1280435421665425,0.2883063909452852,-0.03725146114154039,0.36490569754558433,0.08760456455400704,-0.20010971525076843,0.07063306911431097,0.06191231162602753,-0.16632010971764688,-0.17103442303681748,0.03529716159930227,0.28131471367890204,0.10067477236202398,0.014797178048374465,-0.00047430111727689295,-0.11553746659119067,0.2734496400422426,-0.08652658252902952,0.19456726548494763,0.3420972134457285,-0.1950815106596347,-0.09980089335980653,-0.017896933991889047,-0.012730518221673662,0.23107622475159362,0.3375712587937656,0.2963319599428851,0.2720123362379532,0.24852317350261088,0.20217827335708294,0.1264488579250439,0.37897598201124183,0.010633773866992463,0.04632932151941985,0.1279365734948299,0.1492706273121026,0.02687209572495,-0.1601730545309278,-0.22481190543099344,-0.2019982460789816,-0.1610899853029336,0.04710258585315605,0.16623942901545297,0.3848618707126511,0.20765329020789847,0.16742879028837943,-0.17947705357035698,-0.10522537362718075,0.044622303148580095,0.32178354870529047,-0.1321404032800667,0.07898400352111255,0.3055066152001453,-0.2249577162084922,0.1818987718299283,-0.0436354684680596,-0.09310052358827998,0.26877241930767004,0.030531156650551925,-0.2164345722575868,0.14022285592162642,-15.039574958503596,-16.274736290558373,-15.038146654967235,-16.290436477502336,-15.43294513177769,-15.975348298707381,-15.425270116755296,-16.314941588357456,-15.640137641609403,-16.24817674442567,-15.399974109152112,-16.180399864768667,-15.747159817343539,-16.192162897147547,-15.817340455559698,-16.416024971347912,-15.684509521479624,-16.132622922807602,-0.2681773674245719,-0.3059582520732258,-16.24350670255051,-0.3975975792406582,-0.24828504683428365,0.23539297570852563,-0.13091852724887176,0.09444255042761272,0.047308814914054684,-0.20492277868734476,-0.15396098611780995,-0.2676328305147311,0.05650582811426709,-0.2552538640445603,0.11388041978094053,-0.04140651473838383,-0.2971236890060168,0.004297422558652092,0.14528923568969832,0.040270062482945276,0.04682450216532656,-0.2286239619541043,0.2570839055858117,-0.06912099311925943,-0.2621362968727533,-0.23490534864172197,-0.1655605467376121,0.06257717012427312,-0.09115498982021235,0.09646857486832568,-0.1323719484417819,-0.07515157631533752,-0.2744615027270054,-0.03476166147460627,0.0927907178837429,-0.3038263133474617,-0.16025727309757876,0.21271332598059706,-0.28514879226183465,0.15683838851193505,-0.3414579120051021,0.19608365532797745,-0.03166513350149463,0.20875409889843108,0.16135257339880887,-16.698625120350524,-16.52789637043584,-16.601152016106045,-16.41199334189212,-16.23515395097548,-16.665330391906878,-16.20073515259638,-16.24028742898376,-16.521540756383775,-16.23674517651174,-16.21774063630475,-16.261498146553382,-16.422023353747445,-16.596193113819947,-16.327491926118622,-16.677445979193127,-16.640619159044334,-16.708960829458135,0.17706293392638492,-0.11358147773516147,-16.35890307873769,-16.42916971951783,-16.53713790623906,-16.54912143090605,-16.362089101297194,-16.587640203463383,-16.76412125733617,-16.66718344943599,-16.445775371826457,-16.438389432876015,-16.271756524141583,-16.31140706688491,-16.428082807587728,-16.651298856647664,-16.764443914140568,-16.38386289743422,-16.418109261777108,-16.73918318224901,-16.738292902850215,0.19718632278674894,-0.24626482907333072,-16.639988814139894,-0.09544557009639114,-0.6026248241248975,-0.28669937810668433,-0.24792118648757433,-0.6026563451926008,-0.26024188263105097,-0.2268217908953558,-0.228704850687536,-0.20186189533964138,-0.2813210971486191,-0.520790627096774,-0.5180261313450677,-0.40952947033721077,-0.24298374224261132,-0.3839583145710943,-0.0978417494107298,-0.39485067526323214,-0.12247365697473304,-0.29358786728068625,0.30201768700154075,-0.30569996643270225,-0.16592267947342537,0.11309094337473911,0.2777113439891137,0.13255236840645257,-0.1430486189054171,0.32558402427740407,0.14639211655988038,0.2929539146297814,0.023696695851813346,0.3476711006911839,0.347350800976433,-0.05701444211298305,0.29705830895504937,0.0196352148140648,0.3103265760840397,0.025092077140230568,-0.06244569285595537,-0.1217548349964387,-0.1020964428233725,-0.16847694711761388,0.27731593630441065,0.18613199623703602,0.05505468363527684,-0.04948883271964641,-0.219639932790753,0.08608962613596575,0.0792253743885218,-0.14794215491460516,-0.258630887833171,-0.26212117936428136,-0.35072265744767384,-0.2339568292872588,0.19417984234544372,-0.18194591139577776,0.06422690850893252,-0.3252173154546816,-0.3298710136465265,-0.04443875457412963,-0.24736063312707357,0.23554685008808315,0.02812851493634565,0.09751163274922305,-0.8049333174247439,-0.7953460636770245,-0.7824828178408105,-0.6024344815033743,-0.4187199786953256,-0.5401438927185045,-0.7719856463442196,-0.7962549746158452,-0.9162458244701902,-0.5216890609534705,-0.690030746791678,-0.5926071099994793,-0.8310239292751269,-0.5113523193005378,-0.7257852695774578,-0.8586932552075373,-0.4161167186576895,-0.4908235797423179,0.3005044498707425,0.21725209215544525,-0.3843551767659067,0.23491330372271324,-0.0654216045955167,0.06702927880166618,0.2768353671803634,0.19049191175197577,-0.15876569843838456,0.14604040003952756,-0.13171009634367148,0.350147255663674,0.3631570344937951,0.07087345117348307,0.3422090851282472,-0.05079329827513947,0.09211291306346807,-0.06915942302702453,0.1532885441744224,0.22881373763766122,-0.2112344646796238,0.19475961178566564,0.24414889549426683,0.11394394475223928,0.29472203078849857,-0.12568029567681233,-0.03970823649134507,0.020509100519166754,0.19949649262700653,0.3103048409579071,0.21766501261218896,-0.02963526051641857,-0.2113640642233321,0.12332624847594757,0.372426881109419,0.31454267905497,0.3800098806710429,0.1253926757927114,0.11292964411819255,0.12026330852459703,0.1668770588245284,-0.08777540115447825,-0.12161163484086446,0.26963886067034804,0.2341580056284187,-16.401971170874877,-16.170902442737397,-15.947606934665783,-16.026060846686,-16.382554171781006,-16.2311836480705,-16.448601186361806,-16.25227156826942,-16.166256464084217,-16.34122204212114,-16.40200261741113,-16.472297554468312,-16.45150904391107,-16.226585288342296,-15.995443106292289,-16.402640822996748,-16.420640754481102,-15.948595728211352,0.3083327245382967,-0.09259167315645828,-16.086742239240795,0.13856549461222978,0.3857652705292849,0.06179163743245933,0.23318592674636718,-0.025120957064258084,0.3498253545032839,0.0364637994074721,0.2607206488592706,0.0007012744605102983,0.26484153520875475,0.032390311674911826,0.16172512530942829,-0.07389759454271895,0.3255722322805731,-0.21957982296986595,0.12082455086114745,0.3108320438877785,0.33401761351508563,-0.21093272432105442,-0.033350827262697606,-0.134658128483724,0.18020059544444,-0.13064268344720176,0.3507147508866837,0.30491446645348896,0.25403637958162517,-0.08114824250153004,-0.033735088990990994,-0.17404321714751725,0.24756958289996367,0.2521501742760326,0.3543680967129492,0.3352072605468279,0.09440909125974577,-0.06670734425065301,0.11221212992506417,0.24720104306258628,0.28922008030607504,0.049206311245293705,0.10087451445103247,0.12081765162503122,0.28567957698121504,-0.1853357073776254,-0.23325806423442108,0.03815361517475453,0.1474153754728192,-0.302917945760259,0.024467311502989128,-0.2674705709749192,-0.06100031850628737,-0.023288242678853613,-0.33602871929454814,-0.18168271938647274,-0.343979612077809,-0.19952256762171572,0.13545582809161089,0.12012653408158315,-0.25439793260442667,-0.33408867616255555,-0.3236924276741613,-0.21801928650085886,-0.07692346422268748,-0.21822307890888148,-0.08894948294906374,-0.533812238448325,-0.3073756085102457,-0.03917202998311792,-0.4346157459840937,-0.6428765002516571,-0.43124221271092655,-0.44642017229270026,-0.16205123000568525,-0.48995990356107577,-0.5179047369752784,-0.6597269634512078,-0.25078247316916435,-0.15578199465429501,-0.30626961844558365,-0.35961856462936936,-0.6336751531930153,-0.5098056343731086,-0.05149006275732512,-0.11970070936792748,-0.4751811616593732,-0.6062932706141574,-0.46102064896894046,-0.14002522176644375,-0.5242454153254795,-0.17272608577031404,-0.23952015275713262,-0.24148381277934144,-0.13464271835918387,-0.02499976942491483,-0.046758635818362204,-0.2150019098732573,-0.3443399922252911,-0.2010724676265332,-0.11743400773554868,-0.36655973418984544,-0.0843059265939145,-0.25322220016969244,-0.1984412643352385,-0.08894115208691991,0.132047146978381,-0.3361249139175715,-0.2783663685323169,0.026035975762387503,-0.1510595885027961,0.13084823366418707,-0.2640444111820293,0.04944650456197383,-0.2533640851613915,0.14187854403467293,0.2136110700406424,0.048114616878402044,-0.3000894232103211,0.23286941861942678,-0.12627740659240394,-0.17736059756092798,-0.2634354062859273,-0.22443852349680848,-0.15162304620271227,-0.24410832685944273,-0.06584472802562293,0.12724505921585322,0.138934299069569,-0.2234237295270341,-0.0619042023781127,-0.3732431534522741,0.035656559560481166,0.21014685605082728,-0.26979491367958175,0.0356354588519813,0.21929495845586133,0.06581741242020159,0.14186590535896326,0.26473317595195034,-0.025848319513870163,-0.24126792268974878,-0.2376415238582305,-0.027391825693969626,0.05840672096765112,-0.01647949134214484,-0.1999701496198219,0.0930910796734052,-0.01863591715967657,-0.3105405517023366,0.20989544668764326,-0.1744787227480598,0.15539549930507468,0.115079350064814,0.26647751829353483,0.3380252554101806,0.32489043662511885,-0.11310614055040606,0.10236407799753032,-0.061146463367986,-0.20270711826624754,0.26119661268649097,0.20538735037361366,-0.1067235614768821,-0.20820075011464828,0.20442271507044674,-0.22015828270127147,0.10169417314321626,0.0775885085239563,-0.01440107589500018,0.18065575648774923,-15.997218415655,-16.61674572129836,-15.954882737511598,-16.340259878846364,-16.36075619147194,-16.458517486672882,-16.322182376727955,-16.187938177796106,-16.13263519604584,-16.333339482644632,-16.461874909236013,-16.52761148374197,-16.702924936917007,-16.46259845918023,-16.22754778247552,-16.21200967955664,-16.412715976472484,-16.188286409196692,0.0515003151070425,0.2800646291714696,-16.758991642055978
biasActivation=1,1,1
[BASIC:ACTIVATION]
"ActivationSigmoid"
"ActivationSigmoid"
"ActivationSigmoid"
