encog,BasicNetwork,java,3.0.1,1,1330649838106
[BASIC]
[BASIC:PARAMS]
[BASIC:NETWORK]
beginTraining=0
connectionLimit=0
contextTargetOffset=0,0,0
contextTargetSize=0,0,0
endTraining=2
hasContext=f
inputCount=20
layerCounts=2,26,21
layerFeedCounts=1,25,20
layerContextCount=0,0,0
layerIndex=0,2,28
output=0,1,0,0,0,0,0,0,0,0,0,0,0,0,0,0,0,0,0,0,0,0,0,0,0,0,0,1,0,0,0,0,0,0,0,0,0,0,0,0,0,0,0,0,0,0,0,0,1
outputCount=1
weightIndex=0,26,551
weights=-131.88060693686845,0.0071880097883764565,-0.057674094229045646,4.395119198715636,0.11100598484242549,0.1803561377391374,0.3900120489863984,0.0063280183901757575,0.4070555417310515,0.13864682112684495,0.15290726614115674,0.4593783450336363,0.3186054303326563,0.35989224963939737,0.16587494444608392,120.87053300655523,0.14265306592130134,133.26411036035293,0.33554271187365703,0.37690991052130507,0.10618815132778539,132.76584049617995,-131.90960984777954,0.4898440554008564,-0.0862865096682407,0.019099741677861798,-12.251414479308915,-12.367886352205318,-12.481249304079576,-12.093964180035707,-12.085912236616563,-12.036085512562027,-12.36598821790174,-12.091054020135667,-12.146653262545776,-12.023051132324554,-12.397491354297241,-12.148743484398723,-11.945845629017661,-12.452690018239794,-12.437643216576449,-12.25248389144565,-11.928129593159092,-12.474981305714698,-0.029712422656847145,0.16600330111837402,-12.400826036446706,-3.6676705949426127,-3.6721493170170305,-4.0034782297473095,-3.8528952261818024,-3.7899338772765043,-4.088297280812886,-4.184286766857453,-3.6866908322904246,-3.9990986273755627,-4.038298627169929,-4.0641157366413285,-4.028837579930211,-3.7038982667005627,-3.7367570584708867,-3.7978950965718754,-3.834527784117494,-4.01840097717821,-3.71290171426777,-0.21363671849539154,-0.0827970686511453,-4.208405687903614,-0.25923304817508647,-0.3979740133209283,-0.18443628297813297,-0.08042564603863309,0.04184107955015089,0.09205835845103738,-0.36768847655835146,-0.43721224936435654,-0.3871247620901809,0.0893777603542808,-0.0003280707508496461,-0.046759256636909864,0.0029463331857712827,-0.31442868774266375,-0.23645010098510771,-0.2835110509907707,-0.3305277862690551,0.08181581119095016,-0.21976823153055128,0.10961445532875772,-0.13403657617495762,-4.024539368776952,-3.8283541512914603,-4.186561124341079,-3.619331214029814,-3.8174468092123073,-3.8482102903585167,-3.993979523369101,-3.758265681030493,-3.7996314909063447,-3.901634366128872,-3.832359632658994,-3.4710681134159183,-3.841323684677943,-4.065651333222657,-3.9635095035373027,-3.943865042822591,-3.7606732507324967,-3.4902032633977402,0.24746684655672305,0.16087826086793078,-3.931903662834935,-0.22820857946528675,-0.2566733715617273,-0.05031550695098854,-0.05001815685377555,-0.46771170893974107,-0.31061974992149155,-0.5118256340680623,-0.08761699976690668,-0.3669468218502048,-0.29611891122548517,-0.22936201567037465,-0.05441527823087735,-0.38006290921598873,-0.19305799857623718,-0.5415316309827896,-0.5866585545956442,-0.5756028773534707,-0.08438979214919279,-0.018455741843507432,0.2386015533396199,-0.26285434300668453,-0.44064244828736254,0.04105124509307243,-0.05124823013915527,-0.03928414197411736,-0.4098587745555976,0.024250237209144487,-0.28816785640616294,-0.0864686463833591,0.03186666824246215,-0.013983948488902553,-0.10120342888838191,-0.5095804633448895,-0.4623715948394966,-0.2192051852052297,-0.280698271793568,-0.14980596988813694,-0.3973623973363525,-0.08600436581089993,0.18674692517906397,0.06409234471191051,-0.32635869981995846,-0.09832222929633494,-0.04195692296918926,0.234822803371099,0.0928292536817589,0.09532931934516467,0.42422673325739224,0.22787465369203636,-0.0021604352791949333,-0.010033246427378989,0.08029046942335691,-0.05908234733261105,0.03511002738351557,0.4484328897866463,0.3792243168189757,0.2640944071398033,0.31779885160946775,-0.0684372917199346,0.2141798712242799,0.17885174104018872,0.254141174564962,0.27135409890113754,-4.008582854960185,-4.15330215238355,-3.8073275104554174,-4.153712562080156,-4.008331957914068,-3.8632334355526803,-3.9100517002438004,-4.078489423812269,-3.8712548561911913,-3.6722320463809828,-3.7621643129040114,-3.8600369145137545,-3.669577484924152,-3.6995452077960334,-3.6408776735805484,-3.9463431285866446,-3.8848002188123383,-3.7726645284096527,0.29832262068435716,0.2689030017628463,-3.9337745911609594,0.40227547894344895,0.25639872912518397,0.43733693959240794,0.1600132683651151,0.33603691193328866,0.3689972025198722,-0.04008386263924376,0.3769822583214688,-0.09622208841434887,0.15812493307480985,0.04837284606010598,0.3717123908735752,0.32426926813267754,0.14138575664826203,0.4648489115418063,0.11043508280910289,0.12184837542257387,0.3684188440443352,-0.2824022977888646,-0.22859856477098203,0.10057997540182592,0.07838808875406789,-0.15907015499338195,-0.19661442337996882,0.3809706217712687,0.222437329864212,0.08108401809319607,0.08663810161566057,-0.061215383230784313,0.15761939809440412,-0.2088141777294713,0.20946327863291397,-0.08763838166361099,-0.12807398821065635,0.3041193163698921,0.012277347199681515,0.29970129638909415,0.27747017794855905,-0.09715403411513818,0.12695347907771284,-0.11909718063706358,0.24944337931259147,0.13146617709943598,-0.12793600417715395,-0.05218710041929105,-0.19342449384155402,0.14199540377930697,0.20580097053628604,0.2324634829186995,0.3302920920361646,-0.1957044901502567,0.11716574045119041,0.3541023963940346,0.27791636022744953,-0.11613520291369134,-0.16157570357267625,0.29461966546931884,-0.05300018239943496,0.005155312630327563,-0.12448207698047259,-0.1230130548537071,-0.06380473603024929,-0.011478534055460982,0.21207429130278682,0.36706443493463503,-0.024849104382055093,0.3258053555257159,0.14558422556458944,0.34542040471428526,0.002666204371612274,-0.05573836387149974,0.4461065353876965,0.04085707466561531,0.3726582081558364,0.1819101378896124,0.3146568197847881,0.4179377377266984,-0.04379692545301669,-0.06273017270131595,0.3956410077068746,0.1734719014114437,-0.10032659596457648,-0.21118083419542974,0.41238067477069995,-1.551669095332666,-1.1208771577828431,-1.3761330839741255,-1.0998003167623132,-1.6313439037903816,-1.4414215804669024,-1.6361840151009226,-1.4823494413166778,-1.522266547549903,-1.6783924512123878,-1.2782143538259947,-1.549093618727995,-1.4242125212862902,-1.3915866247295232,-1.4303736478861955,-1.2248809146280413,-1.2801804853354166,-1.3056176867675517,-0.24249211945737,-0.16800102532832678,-1.732927295984828,0.0896447765308481,0.46158571338600485,0.19435730326918094,0.37560733661591583,0.45281762686213056,0.20958442402943528,-0.12263942488634466,0.06974096329191334,0.35792176139259535,0.005895323236905808,0.35950378070852673,0.19283824536492433,0.3151095806780342,0.03569106790089119,0.16212665865772335,-0.002760550990965477,-0.14860632842229426,0.10084242084830772,-0.2457704716549036,-0.11703577363917143,0.06739589326191628,-0.3870402365614949,0.044677227863293846,-0.450301634836827,-0.08575969010720846,-0.5154309176899388,-0.21440477812700742,-0.5025173488976142,-0.07208489973049542,-0.09176189397381845,-0.5385673496550705,-0.24800605955513313,-0.14133100326803633,-0.18091919292015213,-0.151072628324741,0.016996766402390284,-0.404437837277524,-0.42711157288492363,-0.38339061046128253,0.10040696316955355,-0.13828422530674084,-0.1273620958967921,-3.677319176245308,-3.606557141070229,-3.9102588655195665,-3.581212444487856,-3.6955129473634836,-3.95951698003634,-4.1289710039980605,-3.8330508799425287,-3.9459523676633856,-3.9881846992444205,-4.081699142274691,-3.7982010853842594,-3.6452870970329174,-3.492809204695458,-4.048352374935493,-3.7649997636493504,-3.8733135396698533,-3.9183236804801163,0.003612291554224556,-0.27158621674314226,-3.7116804323974657,-6.766518309711973,-6.453753170082866,-6.816118916397267,-6.450555508426666,-6.907339421230756,-6.945284074401441,-6.809256423457687,-6.512297859373465,-6.733696746340929,-6.690636018910867,-6.80452710967373,-6.889405130458577,-6.511677636370279,-6.65038674668237,-7.060691627374304,-6.577222521452273,-6.582381181787255,-6.98961624659058,-0.08913470656676878,-0.22074468172260645,-6.72848785568158,-3.517770036818326,-3.689425838030729,-3.5638317078974744,-3.446369710375502,-3.860816522064675,-3.430055661478306,-3.917492158521736,-3.755998072709371,-3.3491704556118087,-3.5492028198925984,-3.810380782484315,-3.767808360911073,-3.703444230680586,-3.8312697487966147,-3.5656828875516977,-3.868540880533586,-3.4938927514447933,-3.720418959737958,-0.22645944219715636,0.19737841243761453,-3.8877474738750832,-0.08930618875225649,0.140219516622625,0.24637192790396506,0.10010028028950882,-0.0648805667097618,0.056654081734312446,0.18947531064242223,0.4111430945482508,0.38796280853966203,0.2428012410963461,0.02462609917526029,0.061965714418399744,0.3215669545858336,-0.020857140275908653,0.4653279191200006,-0.0874326500555841,-0.0007083067626297568,0.4865705660036773,0.05228128601382749,-0.1712254358565524,0.15239291284806994,0.3781112135413741,-0.004243693844989654,0.09176021771287898,0.17923274016365243,0.023498922471598266,0.09310226138476821,0.06891013169676038,0.1731157639377584,0.347022478451372,-0.08451463027773964,0.29925751293453784,0.2975596969847353,0.41880308847015835,0.092941339966753,-0.0898381669324535,0.03113144862872988,0.2512916625473947,0.46911107225962534,-0.17865257375855703,-0.27793957197364005,-0.06964615925168524,-0.32832253915972986,-0.39624379738777515,-0.07574277024301984,-0.1837018514431864,-0.39899286599938677,-0.01520521259877275,-0.11333881651605399,-0.08021918479610352,-0.4847727572952223,-0.3834125043697152,-0.2808482652852452,-0.1020235290670472,-0.27477604416622436,-0.5355867180215617,-0.09291998473439139,-0.6254417763624633,-0.2956828173445728,-0.06695500005549174,0.15328711936111103,-0.09650826979052772,-0.45246016640211334,-3.8605356655108896,-3.7722857178619487,-3.528635940747016,-3.7518357765895782,-3.7113605104335052,-3.843360046364472,-3.39443347042595,-3.8759655395302337,-3.877402092485646,-3.4517963502659006,-3.543450396916893,-3.8702072473908453,-3.373043590302375,-3.8416142804021742,-3.4447534278778074,-3.5551098529080996,-3.7573944377949635,-3.690055794983726,-0.043688068929026894,-0.23021166884390437,-3.477125207121497,-3.79324507382701,-3.6012291666399205,-3.8928730212609794,-3.8680505729062027,-3.4174858138647775,-3.3499793676765943,-3.8880184221076055,-3.6030610619118777,-3.515845128274816,-3.787953098264736,-3.847366648240291,-3.5507152433236744,-3.6975144694630497,-3.419706989978028,-3.4207078042350085,-3.788959807101886,-3.487814712872888,-3.6801352254557136,-0.06223163908496925,-0.26934162860797234,-3.4785526673256175,-0.05559151965460093,0.014199629373813055,-0.06438852299021955,-0.037336110601531275,0.29052287975283675,-0.038096408378300604,0.32530649734791994,0.08847814415487501,0.3277411439395871,0.27270648081504967,0.1698570317596848,-0.08443058978764362,-0.0018150931577389506,0.03419278365496228,0.39207290407434414,0.36327276368858774,0.14715129667241372,0.4065702224559026,0.24058564201652002,-0.14667392064467966,0.028923779057174165,0.04781056164971783,-0.23258802502382842,-0.37708447113086097,0.012774461392442066,0.08028881679672373,-0.24797380128237906,0.006623525533649949,0.09922550225890459,-0.06722358889314659,-0.185246303117297,0.060201092644665076,-0.14214792237764173,0.09127537952071774,0.10653119851251336,-0.1342106592739522,-0.13477276565473661,-0.19990816526945904,-0.43695915868314084,-0.18385254013819116,0.08939159836659823,-0.12180945962739004
biasActivation=1,1,1
[BASIC:ACTIVATION]
"ActivationSigmoid"
"ActivationSigmoid"
"ActivationSigmoid"
