encog,BasicNetwork,java,3.0.1,1,1328916735752
[BASIC]
[BASIC:PARAMS]
[BASIC:NETWORK]
beginTraining=0
connectionLimit=0
contextTargetOffset=0,0,0
contextTargetSize=0,0,0
endTraining=2
hasContext=f
inputCount=20
layerCounts=2,26,21
layerFeedCounts=1,25,20
layerContextCount=0,0,0
layerIndex=0,2,28
output=0,1,0,0,0,0,0,0,0,0,0,0,0,0,0,0,0,0,0,0,0,0,0,0,0,0,0,1,0,0,0,0,0,0,0,0,0,0,0,0,0,0,0,0,0,0,0,0,1
outputCount=1
weightIndex=0,26,551
weights=-0.16301447957239312,-0.21542047411049475,0.5443233532130027,1.055392908729952,0.21619188984136006,0.6216229996075162,0.13357038413762928,-192.8240300493213,39.590924350938394,-0.23930642221054393,-0.3801858270585664,-62.27397165522467,0.5503663701972005,-0.22343449828158285,-159.10800979267336,0.11881829578811326,-0.10509612922759196,0.4058833813010506,-0.309491619133662,-0.31912968958004934,-183.75509364079124,-123.70939993546696,-0.3104054984441235,-0.21721327374976312,-0.2102505188453882,0.03502515367415365,-0.15059269305669365,0.22696263122674348,0.027095305261752384,0.15558924438474236,0.0061618075739707096,0.2731054924982806,-0.0019318377618571109,0.24071665748706678,0.05163694936068018,-0.10848432980501421,0.0033698620045118505,-0.13684244635244375,0.1881594229559272,-0.1305585835216958,0.22760970844677414,-0.15303564823376048,0.020507476287110873,0.281917437727734,-0.008654780488526869,0.2014028701808343,-0.10376018600448944,0.4807401423177413,0.11218457432070736,0.14887280320421914,0.1871095261459858,0.3839164859563988,0.16059386024597028,-0.14253025787000528,0.35951154945149577,0.17636588127550396,0.13649361210025038,-0.15126258593888275,0.0970540293780591,0.22631468176071717,0.29895530271497645,0.14300327811337055,0.059707827227531485,0.06011037950766185,-0.149924598871857,-0.1352814123932571,-0.1648192591096888,0.47468030478918544,-4.7761707948358385,-4.467254118038359,-4.854557064050296,-4.49658353806678,-4.765730055129752,-4.893239285250123,-4.632760775729251,-4.733587347340314,-4.752170300099576,-4.775287658016592,-4.43928379568873,-4.403428435892236,-4.9332537450623155,-4.463137913717671,-4.822571046874589,-4.746648072384875,-4.824823971204999,-4.380406472485546,-0.2783830736479556,0.04388803649805802,-4.715178141567461,-4.641338089908446,-4.8136335535486,-4.4111001034578345,-4.42196766062137,-4.671132715199811,-4.868590598851879,-4.503893657363243,-4.768813886034291,-4.903288103723352,-4.604569194106512,-4.721926394451127,-4.859283779581038,-4.478779105071816,-4.87470737189102,-4.745766788095614,-4.695935240710667,-4.611798407833542,-4.861056438750957,0.2605175066318232,-0.2420831051876272,-4.869516263209916,-4.274059148340615,-4.132278941053979,-4.629083481618546,-4.3817265043794364,-4.499648389145718,-4.377993350996031,-4.449972707014085,-4.375806776792103,-4.354516089484068,-4.471301071933923,-4.054592117688338,-4.5408941008319275,-4.28438865764348,-4.596701042387465,-4.496556335155774,-4.565074616709875,-4.410406149279899,-4.673716786535833,0.15752835471077828,0.289238236882634,-4.617421416600401,-5.098488596574705,-4.945005509676074,-4.909837737560771,-4.679408806108087,-5.170019479930824,-4.973315949466611,-5.149212202028998,-5.150817437271051,-5.125398189869194,-5.007409223483443,-5.150823149174002,-5.095173717045096,-4.639523582509327,-4.9089291176128,-5.054391014006816,-4.663586061701769,-4.912565433579548,-4.8429536906943405,-0.1811005600738197,0.06742076241850763,-4.64932690573509,-0.3273847896560352,-0.35083261886231976,-0.27718674855460507,-0.2346456451018754,-0.10873591035638461,0.04280235073828212,0.12608486315263856,-0.0010244971547677811,0.14436633677031702,-0.05806307383987602,-0.189184340756907,0.10949597295731239,-0.36188792174971884,-0.05612624693285323,-0.3237642991422956,-0.30011280428458126,-0.3109315720770815,-0.21959943789444408,-0.21919830863559692,0.2372719678806044,0.04527402336128422,-11.450746632002753,-11.660210507181722,-10.978856975582211,-11.294211628864058,-11.087578351471189,-11.794725626551303,-11.447535498825562,-11.540553886491947,-11.562574591631238,-11.349579615696051,-11.496679065956327,-11.26903934688445,-11.354808398154635,-11.357898037052504,-11.727819335895877,-11.61290560920173,-11.432386215637125,-11.710134982862566,0.053430529657874946,-0.23679368369588127,-11.273696147516306,-10.098894979565786,-10.239085273944829,-10.139857507179322,-10.412717532586134,-9.858350462326035,-10.18606992027574,-9.851117964013449,-10.393908911282207,-10.336389581046292,-10.382955440210218,-9.973155978288746,-9.946982656232036,-10.337479612133594,-9.987351239412261,-9.936478742367198,-9.966018200375746,-10.122073975055166,-10.319180682752009,0.004123260572625337,-0.21169391913223345,-10.020574155987955,0.16784073424653612,-0.09756464995227904,0.326634494436781,0.40505753985889004,0.36484270897452487,-0.007648525516999502,0.4252998014430043,0.3029556407612504,0.37295502791021506,0.1986410314296287,0.1007744990957796,0.35631013152611213,-0.03857969678565604,-0.10790014583633656,0.28104162372167224,0.10919004882487035,0.3715909212156008,0.03634525675122975,0.010626825543904737,0.011000181246775242,-0.11035188794263973,-0.038134979611729264,-0.006334537820736438,0.1263714941355126,-0.021857151638021915,-0.06787698293176267,0.14769204572199707,0.06387368954023792,-0.06220167988602471,-0.009849585191082436,0.09694555150997905,0.10871734525904145,0.4144961768435783,0.4013038303356121,-0.15310737330927193,0.17378132583440653,0.2681994280741152,-0.057594358350852665,0.25721915808216617,-0.23741732614107378,-0.27227557150846576,0.3275675887766036,-11.889465176400817,-11.457938714024609,-11.548953934702169,-11.879931837299191,-11.428193910607314,-11.800745087534803,-11.581322770499256,-11.57989996975797,-11.822927363655507,-11.471202302665148,-11.708249517895027,-11.655019001204412,-11.476636924960479,-11.519684707866258,-11.923812536961012,-11.619187258779709,-11.94761531812046,-12.016884761304004,0.10300495529084605,-0.14727463030898674,-11.742008023693218,-4.420673987944048,-4.87744639798072,-4.433820938785414,-4.751168135408349,-4.6780083210183045,-4.418179863232877,-4.540153065300374,-4.588706146869479,-4.412437699534773,-4.570429478824276,-4.326893011432148,-4.491158182131886,-4.85130674561333,-4.743280598308595,-4.815555144362766,-4.396860187469914,-4.535242906110428,-4.859692144646103,0.13842607611821117,0.10027750208534927,-4.44191667200133,-0.04404358966308097,0.09524252965782062,-0.13672559771304182,0.34972308273789304,-0.04144987741548464,0.16625276559455926,0.01225243811190975,0.39217630246682544,0.0310193900023277,0.3626629810150427,0.06867343707805013,0.4487117715995905,0.0039080093144199385,-0.08449873736828156,-0.011907406584288002,0.13914069117467612,0.3449076482235173,-0.04089637721980774,0.1275938668644926,-0.13243718467073237,0.3306517581197563,-11.743560088370273,-11.477119461871707,-11.511387830767195,-11.613201303674993,-11.527507831426027,-11.880006299027636,-11.570480367643034,-11.592551016061403,-11.21130638646764,-11.87409599232228,-11.629399779476643,-11.312444685654862,-11.749136536252593,-11.478361312416808,-11.41557961893942,-11.597945451541639,-11.809155387394053,-11.584458875203614,0.1154271040510475,0.15739404925421238,-11.316198590119996,-6.556928519824296,-6.727728778963686,-6.284153847409967,-6.339632589414129,-6.4762658515610765,-6.554348978187458,-6.769992472202655,-6.739935143083819,-6.4106758034136435,-6.625115118890352,-6.568817481981903,-6.272248604826408,-6.9923549601920785,-6.54100198028419,-6.6757137899006755,-6.662188143705648,-6.415176114202333,-6.702410591793135,-0.22614435935677157,0.03653032613653356,-6.710019524082667,0.09538016641299016,-0.15480030719426863,0.3317108444766384,-0.1194027538605797,0.3150910023739942,0.2609883978994498,-0.02957422099100773,0.09761814532747229,0.07599345409264463,0.1221018926014504,-0.22640954619423262,-0.1204749906912141,-0.1824695884926235,0.06383115182316296,0.1371029239003503,0.1858273345189289,0.052048564592207594,-0.16409822242232308,0.2379000874812103,0.3082931145912324,0.08999238998651421,-9.460964564812734,-9.277552055435796,-9.41028709503651,-9.29473557391728,-9.683478297963111,-9.638977726608815,-9.670077739770571,-9.884212424821039,-9.780056681374235,-9.62787892813973,-9.542965650812757,-9.37593060706079,-9.638400570048224,-9.408019961092485,-9.309653338352009,-9.426487260985143,-9.499082920401024,-9.46261798459111,-0.3009961347907708,0.24657463144688593,-9.367045811311456,0.25719312583046244,-0.03847813569502859,0.35673494221712276,0.38490472505525153,0.1013692353620633,0.2643473144188265,0.031079269440117047,0.39026962050250946,-0.04321774959044136,0.4224633686203675,0.17059652281742999,0.2644619138237601,-0.018924460019907812,0.35020872626291233,0.14168282672928062,-0.10810930715860856,0.2447671672841087,0.20124569617537796,0.21893930937251008,0.24197312542887692,-0.10558877568954478,0.15660857462651273,-0.047487817060437365,-0.12659054756750615,-0.06277769633298969,0.4243410608472603,0.27781632269397666,0.22990839259284018,-0.10441056337392118,0.003017272063584639,-0.03256616189303721,0.18157703247908857,0.20873367575524265,-0.1253999126476697,0.144805829675696,0.1025057720532542,-0.137100875028765,0.018051323384627296,0.33684935215320627,0.22916942326842088,-0.060510877323345494,-0.005230533679563151,-11.485712718034879,-11.334918043485626,-11.264640744393564,-11.240751453613086,-11.644745094287044,-11.284330700611477,-11.688259269457719,-11.707774146050761,-11.664917383640416,-11.20528758207931,-11.635395095449637,-11.444020713492563,-11.298937534026084,-11.72712903697879,-11.2811772142948,-11.5042823421637,-11.320342075985835,-11.441902281712975,-0.2244986665688982,-0.228763868101982,-11.496610918527479,-11.143351588001016,-11.599316371714764,-11.274054527052586,-11.389775953937399,-11.436571536208401,-11.635571080694803,-11.63629007449653,-11.66507175504564,-11.430570697748887,-11.30104831885985,-11.229903813359634,-11.663674863108014,-11.736682138459061,-11.729501145024933,-11.236490698178834,-11.656917212068386,-11.553073816028766,-11.257978836878562,-0.13904721188192676,-0.111649263266469,-11.270014298270054,0.0857016212908513,-0.12607252894227228,0.07798357456232835,-0.15018199111674901,0.36621680257299005,0.2173036116354164,0.10288620827158321,0.13158446098554757,0.3304560422187835,0.447004846787031,0.3248180969768168,0.3303539857393238,0.040475140858480724,-0.05557015290052181,-0.033134638532834826,-0.14947708780481594,0.025297447834195158,0.14197931009413384,0.21082483668647653,0.022308906301096505,0.3070943787230493,-0.06467219515976788,0.23885267554118889,-0.06701060832621825,-0.03376034722217797,-0.02086029691036013,0.2519391099796638,-0.1099866279165781,0.13676052416371612,0.2925396484147868,-0.16688687346228348,-0.08484353486396473,-0.16909583611264578,0.16420929343465895,0.1197610139600965,0.2639819501699127,0.35619032871007783,0.13733112851738247,0.22834974377166511,-0.058387529491772,0.24264629000645418,-0.02594696978427213,0.3648376997139049,0.19188848805894093,0.3673844647018307,0.3881371859398258,0.20334499017667235,0.409506042101609,0.34720311609627746,0.2528300294379076,0.3145770801776853,0.03600724533947719,0.4208800252175324,0.012296808057267919,-0.043049019747971845,0.29960145944656763,0.15128473833775508,0.2610302138836426,0.3599651350504455,-0.009131533546273704,0.27146227365619513,0.044408655769868556,-0.0846743935477885
biasActivation=1,1,1
[BASIC:ACTIVATION]
"ActivationSigmoid"
"ActivationSigmoid"
"ActivationSigmoid"
