encog,BasicNetwork,java,3.0.1,1,1328573612523
[BASIC]
[BASIC:PARAMS]
[BASIC:NETWORK]
beginTraining=0
connectionLimit=0
contextTargetOffset=0,0,0
contextTargetSize=0,0,0
endTraining=2
hasContext=f
inputCount=20
layerCounts=2,26,21
layerFeedCounts=1,25,20
layerContextCount=0,0,0
layerIndex=0,2,28
output=0,1,0,0,0,0,0,0,0,0,0,0,0,0,0,0,0,0,0,0,0,0,0,0,0,0,0,1,0,0,0,0,0,0,0,0,0,0,0,0,0,0,0,0,0,0,0,0,1
outputCount=1
weightIndex=0,26,551
weights=-106.90526313178995,-0.25042617146030766,0.20578859434967922,0.18005118954702248,-0.026134833418156894,-0.0028266828999770344,-0.2745340636106036,-0.2697344979350321,3.1117765196313796,-0.0036322379444909264,-0.24622454151942672,-0.1431694269908096,-0.105476891625505,0.20334207508310997,-101.38666654830132,-0.2753074479910431,-0.2619375737741314,-0.21959679994890713,-0.13354511833608457,-0.10519856964339169,16.61483546006357,-0.2365498036939052,0.14338239600032454,-29.401352588862217,-0.24214416416687765,-0.021825703940527297,-18.128147346789707,-17.752279205372734,-17.64690612689122,-18.08719639894656,-18.082870724460143,-18.07016151812962,-18.0981164330665,-18.128926625668317,-17.695911420927242,-18.029262052681013,-17.772399535500675,-17.660423839234447,-17.827732713025217,-18.028591753302923,-17.675591718083957,-17.683825693558234,-18.060015160711092,-17.802995512805307,0.12216796641942158,0.15683888765516982,-18.053576017301676,0.05558244290763239,0.12610775142675218,0.0015448869231228651,-0.057774699978239794,0.2523225803997493,0.3091785270671672,-0.07801769811407346,0.08427808745511961,-0.1582658425683196,-0.15995644434972517,-0.2011944086472215,-0.17892108138777424,-0.2326923858593476,-0.01672983468609006,0.314741965958654,0.13969367642742464,-0.06949968957437536,0.22594512326423885,0.23497862581851514,-0.25428298593623694,0.04394962256943493,-0.1418305948279785,0.06265685467005343,0.1288442147168603,0.20949056090251317,0.21894330216047897,-0.23381832451637638,0.05563457419971615,-0.089717597737899,0.15318132353798541,-0.039284484156682946,-0.11319544022758543,-0.03935817312020181,-0.3165328070838125,0.24510931961814086,-0.2833586053333663,-0.029310738122103136,-0.1347702148976005,0.1543059453171386,0.0918117926839587,0.22553880294260978,-0.3146217970566385,0.1947984275927181,0.021847581757199072,0.18052396799173048,0.15941067243940998,-0.2917066047543,-0.16015300557660417,-0.3255996273581092,0.08787853961114861,0.09646049529086848,-0.10655623546655696,-0.15844445992643197,-0.28786540091860535,0.2537058422844956,0.053744345666424276,0.1307897018827951,0.21987634890284435,0.0075923969027520966,-0.07785452200100018,0.1223060073094036,-0.0904224502851724,-0.1904570610368539,-0.27494904589173735,-0.4070644678208776,-0.20179206445732706,-0.030886458385462806,-0.06001219902317272,-0.36387051226995415,-0.09255411518291659,0.036154149041674855,-0.30473277090520695,-0.24639032472337025,-0.5427014369729715,-0.03679084033970431,-0.1211740595259834,-0.506525183101397,-0.43477332098329813,-0.5440072904868345,-0.1185440831405968,-0.15029088608393318,0.0009529616373008914,-0.23832628417073093,-0.40338400998621826,-0.061203591061561306,-0.40265005432076095,-0.3842947349488194,-0.4360798396191883,-0.47445956662053734,-0.5160196309498485,-0.4644871657811508,-0.3890129217770415,-0.1152769792704608,-0.2779206355781038,-0.4845402315056917,-0.08232938712959947,-0.3459796538202317,-0.5030334667950261,-0.14059005322197773,-0.32182350810629284,-0.0148914916808002,-0.014784294260088149,0.08226738391938061,0.14435257544543317,-0.015459652309731342,0.01809585385935368,-0.05251390138407347,0.2853473122154203,-0.029624371256048512,0.12300860007389086,-0.13565108695499523,0.4160086433321999,-0.22741064419930634,0.17389506074841454,0.1377464261813185,-0.12507036247136155,0.4299308927333436,0.04507792340970481,0.0486054257623604,0.13398592763048095,0.18107751696659935,0.21058556394508243,-0.03561807097193195,-0.2216146652043485,0.19992098308952957,0.1371165374104989,0.08896203386222418,0.14829484126471254,0.17107219352444591,-0.1069537528114427,-0.09350783593659842,-0.2745860575750234,0.08479458399028827,0.2904398644015541,0.077841557750574,0.04473991056653406,0.2507918143364546,-0.0015009485623736357,0.2109364028506856,-0.2153180915180074,0.008123903343604189,0.19319902069629058,0.08466598612220438,-0.25933298316200815,0.2220546532777847,-0.3282929405955371,-0.1059570766074023,-18.35438830413383,-18.85006212572382,-18.169748440532224,-18.630455226617425,-18.321894584981052,-18.62595359100716,-18.5450655717532,-18.75192872444079,-18.13755789967908,-18.28569472580584,-18.32529669157139,-18.47106427533563,-18.119211621620327,-18.328457950525916,-18.292553013771723,-18.64435212757261,-18.383548589767223,-18.8685624601421,-0.21902435159547218,0.223897883397506,-18.597427559505572,0.009375070530234453,-0.23799700642091232,-0.10461917582877991,-0.47905518382412304,-0.017938206589448807,0.035101551748041915,-0.09024589079856368,-0.004124260194302676,-0.40811317617550624,-0.4116811981767101,-0.5197610246233321,-0.17019683094680768,-0.38618033680893205,-0.33034003170757026,0.03950878633983967,-0.33252993907637357,-0.1891572372119384,-0.4155132806548225,-0.02515354601647081,-0.15219754291763785,-0.3375377228846483,-0.040771650099796886,-0.10770138904438725,-0.17002451676982122,-0.11294983143649745,0.06778515755285741,-0.0460984531682309,0.1083512975487343,-0.21327783131187666,0.24188235283447643,-0.1237340299870274,0.3121857148466076,-0.14436449289208364,-0.16126340689787572,0.3304441641614496,-0.1806777154910708,0.28544061114912267,-0.014371172087850229,0.17072348334511034,0.14507277204705887,-0.004086798888667438,-0.15123628640067832,-0.027939309661927647,0.02483269150996409,-0.2745803571831725,0.11744914973587006,0.3331479162252361,0.35970254679322855,-0.0011743213153251747,-0.06368243075532533,0.13621396269675257,-0.18526276712440515,-0.07289918098769205,-0.11563820126356997,-0.08421509664309572,-0.27498374191403263,0.1259907362976883,-0.1569415010202596,-0.1363273020781886,0.11482460830548263,-0.12079715821984688,0.14435368979929625,-0.07620505948899138,0.3641130093206927,-0.09430952858300037,-0.10120486312703159,-0.16768418980810673,-0.13227067992051356,-0.06422915190464333,-0.18068266503418418,-0.05594193666360622,0.14694088890189289,-0.24759776745805906,-0.20695374603168404,0.2696230305523796,0.07814230045832521,0.03802478084485663,-0.13405593535102833,0.3100148407332266,-0.0005302824565705244,0.24576627775181334,0.021302194212069848,0.01881411262326689,-0.08888930590565292,0.18639647131666176,-0.3198900775812036,0.23636292266987852,-0.020906828163106808,0.24897568710783713,0.005106961606651403,-0.12580869886935675,-0.11270828257465426,-0.09000289136547213,0.003940120403529812,-0.20531101205115443,-0.03648271567494735,-0.34077518005557006,-0.00338550700748759,0.2093228821957715,-0.2504066008526199,-0.34685894662081684,-0.1856966043739675,-0.15816301224197926,0.07656826720948766,-0.09500678822037562,-18.072203406836927,-18.294374764752522,-17.799672804982603,-17.902908689155836,-18.045175913887945,-17.959574233481394,-17.87750608248673,-18.30502928981491,-17.547191680135555,-18.361530160570993,-17.899125261749766,-18.157348472064985,-17.77195947992935,-18.221159183677344,-18.103908931230258,-18.044232154247364,-18.30282535719444,-17.975509238020763,0.2471793416572267,-0.1984355663895927,-17.893227134031918,0.07693797280732156,-0.015480358780390266,-0.08322643099633385,0.35982027903426683,-0.015896898033949808,0.033250434640065246,-0.2253236976701954,0.13387660675753227,0.15605202546770736,-0.2838324382516826,0.33365080993650054,0.23473508723928346,0.004348807580298708,-0.14995304587076258,-0.04835917780722636,0.09687365186994434,-0.10752231742869847,0.25124670681130923,-0.1749218236379087,0.2706733420973356,0.14729768741253102,-0.0696329896480513,0.18455250008309187,-0.1328784456911576,-0.00919233674122387,-0.24196973187028603,0.3636721640677312,0.060142016982823863,-0.19693463391421834,0.1356887076835841,-0.03923177662040121,0.15452689355425997,0.07153515960993245,-0.2622183819378007,-0.11124694034038932,-0.19667087461717914,-0.03398979610069247,0.2635886009483217,-0.059884562437537134,0.2290514037818501,0.17905997097103984,0.09109498444783781,-0.1019382640699237,0.30744908635307344,-0.15952626044962198,-0.08282438677041982,-0.0768213356841148,0.019807520473542048,-0.1525741311085237,-0.14637071829816606,0.28287883909909295,0.2381323372738727,-0.20082527560570568,0.3143104675257572,0.043460638303447784,0.2609404505535069,-0.04231201773270543,-0.0489573193008256,0.2158279749807186,0.16945826915858508,-0.26419881434555353,0.17486868886353624,0.01588132665765772,-0.2540647350817806,0.04208496335533892,0.2458791070309195,0.28566863141720633,0.26141174917265486,0.012705185399851396,0.07564159308876633,0.05682721593416253,0.14414038954748054,0.20050479892656725,0.15696008233724312,0.16141338548920459,0.3958384352381993,-0.029547462879759803,0.06505453493045374,0.24772192613133445,0.05245416006396921,0.2127306481700093,-0.3690483849863006,0.12506063270350307,-0.1595399062263077,0.07320873147647919,0.11144731635841637,-0.015994843189679114,-0.042132081349118264,0.14035566847105718,0.328702215416922,-0.21990567114928794,-0.14940842046783848,0.15342641306686056,0.19446863304048112,-0.2337880226606709,-0.08824191275442142,-0.07804317162919681,0.02971876967623846,-0.1504785634130118,-0.11786453437433259,-0.23341611590207978,0.3065143115173685,-0.1295013866940759,-0.2745374897195821,0.12616213375632485,-18.067624154568442,-18.18110728761303,-17.784354809379415,-17.987240202408334,-17.97047182108896,-18.203440614907855,-17.714396148677828,-18.195897170599718,-17.683782801002533,-18.44455112581352,-17.57370477168276,-18.08697761552022,-18.116932519811318,-17.937616464589144,-18.032376671303624,-18.357741547364455,-18.395089756339647,-18.08377887852278,0.05021964314272488,-0.16578398695051855,-18.433881504449246,0.2997648962425755,-0.23899677304615985,0.22751796716275993,0.010001521763285462,-0.22299683959304117,-0.24379487070475597,0.17942389473754694,0.0413538473724215,-0.21911381115006268,0.034566429056411746,0.09068528775311524,0.031342718299355726,-0.060450078301893403,0.33899846469366723,0.06634204206236038,0.020601580491971944,0.06963868839618148,0.20026175063600415,-0.25505178338498863,0.21219420223897045,-0.07177371422587864,-0.0417272426805558,0.14165736094941822,-0.008182954780806134,-0.11650133408284796,0.24291868051637822,-0.3060133035066711,-0.3259402256519428,0.034846445397967565,0.07759329673949665,-0.034910228054739284,-0.1758172413780139,-0.2664817268653792,0.26398544482716857,-0.11436195152973444,-0.36374346733252816,-0.1028926158179963,0.1815707115181754,0.0848758783636215,0.10310909595414994,-0.12481717665729021,-0.18121766986152021,-17.447496620885428,-18.0279473376756,-17.80489318351884,-17.867457880303494,-17.925312883955307,-18.090795625508555,-17.571689371277657,-18.04037560773698,-17.814181712307164,-18.327213799735617,-17.997819320088126,-18.210878640675546,-17.991287621048556,-18.362225445117144,-18.35574895991172,-17.984113536120173,-17.97126648360224,-18.377190581683184,0.20236166142459774,-0.2565149948873657,-18.127032028320652,0.17869670069825527,0.002248502776932629,0.19487729168838552,0.16645423049770391,-0.13292639714582255,0.21504530794129062,-0.1318185459889215,0.2210418121445492,-0.11970322249950743,0.0967097559203739,-0.09845941308979322,-0.19733845653429122,-0.21750732816480206,-0.1459722552199641,0.09502889662306607,0.28897803825584456,-0.2228092697920534,-0.21023135296747608,0.20168611424568283,0.12924582471197846,0.17973143020192228
biasActivation=1,1,1
[BASIC:ACTIVATION]
"ActivationSigmoid"
"ActivationSigmoid"
"ActivationSigmoid"
