encog,BasicNetwork,java,3.0.1,1,1328563708930
[BASIC]
[BASIC:PARAMS]
[BASIC:NETWORK]
beginTraining=0
connectionLimit=0
contextTargetOffset=0,0,0
contextTargetSize=0,0,0
endTraining=2
hasContext=f
inputCount=20
layerCounts=2,26,21
layerFeedCounts=1,25,20
layerContextCount=0,0,0
layerIndex=0,2,28
output=0,1,0,0,0,0,0,0,0,0,0,0,0,0,0,0,0,0,0,0,0,0,0,0,0,0,0,1,0,0,0,0,0,0,0,0,0,0,0,0,0,0,0,0,0,0,0,0,1
outputCount=1
weightIndex=0,26,551
weights=-0.16004698040505716,-0.35112757098591774,-20.098001273090482,-4.801440543802271,-0.31900824059466115,-0.1327244093694253,-0.2640695000224452,-6.067311417012442,-0.19510407163448074,-0.10722468952797237,-0.12462581585129924,-0.26655136317979733,0.12828957352925793,0.1356214847763699,-12.992836493440993,-18.798065941560203,0.1299266066983832,-0.1968129587434806,-9.688533717688717,-6.654857521704742,-29.01499697123568,0.13595340967607575,-0.16338945165164653,0.12218123807960543,-0.3004347360234563,-0.1097322872470955,5.641341624806527,0.09935873476009577,0.17377083660326098,0.0937263502262789,0.5303051492411561,0.3232557531015591,0.19535457917149313,-0.10359371866570902,0.12432794787212405,0.16808697329688282,-0.10133400330572664,-0.23284188094011676,0.12777604346017468,0.11998111456121026,-0.1319551996735505,0.16268237642516414,-0.19300614934309906,0.24932059790682048,0.237746222747927,-0.2630719786161927,0.3292028445767998,-0.09921588210827129,-0.05028423848130373,0.12538281880723456,0.32427954492092326,0.13263326622953514,0.18930383874562828,0.45440508248523875,-0.07362870345702924,0.013907144763623674,0.029551626608916078,-0.18780757767846262,0.009346890119145773,-0.006414770336718362,0.09933233734869568,-0.09812854662004228,-0.3142464522407183,0.22871740176292835,0.2215911138710852,-0.10366461529506035,0.10271808969924011,0.374597298149444,-9.771279818174714,-14.701564451065057,-10.024135217149635,-14.78693655322805,-10.433363135647387,-14.644593731324314,-11.039134148334075,-14.649192572724438,-11.001422457390856,-14.018967029743061,-9.49045610749587,-11.711265496089023,-9.831088831605081,-11.399494111199814,-8.64936809712829,-8.813061256164188,-5.497983813721467,-5.123339575518463,-0.21226087643654556,0.004996175839744682,-14.610584416095282,-10.400581292827955,-19.38212435966071,-11.26991007804935,-19.12189956147271,-12.960376125941885,-19.27794242583004,-12.501295239063843,-18.885178737054563,-11.526293818982364,-16.79500520136648,-9.782737624485979,-14.457427391920096,-10.101910716877695,-12.472807820654749,-9.110764365433038,-8.38777138215343,-3.3425201725898885,-3.7411290834452595,0.1105452470654803,-0.16131489325746207,-19.44081106373256,0.18840285758324304,0.36220749775794936,0.16773265649631064,0.07148222726878159,0.34972726220660144,0.0284578506625677,0.19584741798999905,0.39423690521464483,-0.12047381558012785,-0.07942553631805932,-0.05249320440335967,-0.01444516664425699,-0.16108357587121735,0.24249136623563505,-0.14494185598538217,-0.1129299208746222,-0.09560253607257971,0.2252161359067161,-0.10208088579904422,0.2756752995830577,-0.18045509245721442,-0.3940168537590072,0.028634509942030453,-0.2543564047526415,-0.1410337670581226,-0.14381568804264006,0.2989087134062107,0.2563409340821393,0.1179141673263578,-0.07514453823317058,0.21822776787646825,0.15982370078214236,0.03437874478005237,-0.27376995384516783,0.190973976009428,0.2900988194920934,-0.08841164168455123,0.0961557838856999,-0.16360729318826078,0.08599410408280675,0.12198016102848548,-0.11857920402303831,0.49883652382233146,0.13739195787607245,0.3027531973910086,0.40784504833762314,0.07278278401821042,0.1475883176176951,0.0871723523122499,-0.09960068254754562,0.35322131905213017,0.07341240652383671,-0.03661230075924912,-0.11550510538850531,-0.38188295334060784,0.2032712972714018,-0.13428015201456708,0.29697640488131494,-0.10855466747735723,-0.16375069847357132,0.05992310606396313,0.1570793015609482,-0.058034997958961415,-11.517901104503528,-18.81239127682357,-11.735104931391128,-18.48450055011169,-13.828770204102916,-18.38976679938587,-15.338709034286657,-17.782420117662586,-14.736853351944271,-15.512172384267112,-11.283732153168513,-11.247014810675859,-9.36623682952755,-9.59205257099014,-7.523247364003396,-7.2831321215121765,-4.809730817352433,-4.826031841951803,-0.16383988928576917,-0.08164908703660943,-18.552955881653695,0.2636550244351026,0.4366387136139893,-0.2693300446284846,-0.09381190577844084,0.1358120193525832,-0.03527388651196439,-0.13434775548324077,0.02534333136997757,-0.07102055636626017,0.00743792674657337,0.13223789396183155,0.2567882897915872,0.11265383263496677,-0.023038053429124905,-0.013745935329667058,-0.06805363907675607,0.03533862748923877,0.18933739760664436,0.23168050578539426,0.02165574541805489,0.2769957926741964,-20.441492147605697,0.03857461137063309,-6.102759048198326,-0.07677681268579964,-0.3716820483098826,0.09709802939774048,0.467365372601612,-0.22550973654333345,0.1206376322660594,-0.2384872583197432,-0.0078564247916936,0.04452454355082647,-0.35903177045901347,-0.10687800274696144,-0.023900115959287926,-0.1261998931460295,0.23714682609385931,-0.2981723282870791,0.16588847088103345,0.27956054880746933,-0.20719636557310722,-10.396263246552781,-0.04297168508236997,-0.4887752973559216,0.14027405466253307,-0.17261791134520776,0.08713067044398493,0.34693394285199675,0.23177679574828466,0.30806318003386635,0.2547236625712437,-0.25691038923175596,-0.08876395598876707,-0.2228756328057952,0.001673415733058431,0.06952278862154535,-0.2138483003966845,-0.3139940786039825,0.18178406901235733,-0.15750307432127963,-0.0021019107892451872,0.10751273394420313,0.36263767697521154,0.18007701645220275,0.10532184317121845,-0.05134286357182313,0.033068345687458534,0.32203242396177256,0.34833323747335965,-0.17444615974853306,0.428429796691166,0.04805798480642179,-0.1437795258137317,0.03776628414057909,-0.10982545234019833,-0.10411713621876392,-0.041054715888175275,-0.16053198086235626,0.2627789013400439,0.016250827834920628,0.3249558769939656,0.22532461764951356,0.03659908886866786,-34.335358710523494,-0.44671859391537083,-29.660723033570225,-0.20291204771920235,-10.604007973445894,-0.21990994309766965,-1.3429419384449306,-0.1520032436056572,-0.5126038577731169,0.086703900831194,0.09828509771172944,0.28277447225103297,-0.07073619868430278,0.04847160806267861,-0.2537660784443978,-0.1076385338026064,-0.016379037992635986,-0.06572530429179405,0.2437983835039441,-0.21596287305549336,0.07898645743783347,-33.70852383260381,-0.25928538697652914,-26.81890331949395,-0.04854090764704844,-6.615557494045099,-0.41276763739100875,-0.6379859160514676,0.21362063032401796,0.033298495115691384,-0.0454206711017241,0.1285773354035867,0.19015856719573848,-0.11090381710156005,-0.13909302498545162,0.23118137494762664,0.0214426051835635,-0.15488960424668496,0.19193199511327813,-0.1626896669482266,0.006275721276138333,-0.1572490425733224,-6.104366250122703,-14.312594986565491,-6.751804761511457,-14.236364660019722,-6.320078116242459,-14.471492467660342,-7.51070177250692,-14.12577845383145,-7.449651585988595,-14.344282973909147,-9.04718686114999,-12.48190948230857,-11.960617866089756,-12.495555077218818,-5.42740095013371,-5.356084348768268,-0.7104283322096392,-0.17815720491197512,-0.10574756591094206,-0.32553262310425274,-14.048573849102434,-6.58968323529054,-14.170707039637962,-6.773600606138108,-14.121685301415129,-6.2538644108348835,-14.49424185574795,-7.622879567854225,-14.37214916081359,-7.485231290894566,-13.904766189610063,-7.1093808180083435,-12.769521414458545,-12.120945083968996,-12.891150998213735,-5.341690526450894,-5.821155892361786,-0.4981039528940926,-0.3059224028523501,0.11672285241916558,-0.2646351231849418,-13.993307207669712,-34.13683658075723,-0.3604640100234724,-28.665985455768865,0.12073246538754931,-9.991410287502823,-0.09137606447511598,-1.4759421448910268,-0.05480954230582755,-0.5353811939646799,-0.2259520149724085,-0.046769989476866836,0.24369807994259846,-0.17845838471649134,-0.12520807989569227,-0.27709363773566087,-0.1993707232103925,0.19073878766144609,0.0450832823476085,-0.28591517561668994,0.10342025426561947,-0.03535326076070405,0.38772128602862854,0.17213891201839837,-0.03297094342795756,0.10696261284866065,0.10065141290073693,-0.08108413882152343,-0.07087111493336465,0.027556861888687997,0.23599504252864636,-0.013665323080519404,-0.28491568505157766,0.2290794837660263,-0.05784067137676904,-0.19790873630249733,-0.3599233866408613,0.2291441104768213,-0.3413088467481185,-0.25395580988842076,0.027271731441980664,0.04856673935451664,0.052189000210209835,-8.210325484653241,-16.075304466124354,-7.979566849788278,-16.67260557430652,-3.353042669340551,-15.374942618218604,-3.742334108524556,-15.469724012878894,-5.540560414377531,-15.821594829407651,-9.268559149155786,-13.572663335986231,-10.990729031531613,-11.615090393886677,-6.580471394797948,-6.395262722633021,-2.2478562136288565,-1.9346720419668268,-0.026473094861354844,-0.11562677049002734,-16.42012505983701,-12.149960972780201,-18.293349896662146,-13.123476196595599,-18.686027254845275,-14.537389373910022,-18.18064623818549,-14.998502695341905,-18.377745583705003,-14.019777723814341,-15.045364146254206,-12.383717496438656,-13.625147172060768,-11.19380162324809,-11.653407531621482,-6.722657928346493,-6.642828818019451,-4.586534744959156,-4.906014746424612,0.15784882521738494,-0.11694228771528223,-18.47515901368683,-10.088502966456577,-14.65487968504688,-10.454989857956951,-14.663210233367316,-12.008848356501101,-15.101392390742747,-13.180538968791844,-14.908955583886494,-13.349796343162776,-14.190092623533227,-9.609710401154562,-11.245508757584927,-8.683293310752076,-9.067727301201112,-6.465513885083816,-6.123511355716678,-4.92767872169658,-5.1171285297509765,0.22768631390187458,-0.21238568377244624,-14.840076646623409,-33.617067403458144,-0.16172599754511063,-27.63979218223543,-0.1336938810931298,-6.988154051551936,-0.3898944807490883,-1.152663699015517,-0.3139960431158907,0.004517265186609359,0.11719487082803562,0.25820904507213854,-0.03397837511883689,0.07061533795861327,0.3119872092835619,0.2851115126824078,0.16166589555679894,0.154844522154917,-0.061867403402572824,0.14557363657736633,-0.153477348336032,-0.22889127096517178,4.466567991369146,0.28042098861546827,-0.2546798091141264,0.23871800920233976,0.5046985922450701,0.34018364659121725,-0.13293632671645092,0.35029711985812917,0.03953304886068265,0.055211834002532406,-0.22209680307900032,0.23683218976487067,-0.0037252403035891446,-0.34533298848053123,-0.03548904645681383,0.1332880206298453,-0.22987088760197721,0.0008419226259397672,-0.019894771168225907,-0.18597432309083872,0.15068224953677722,-33.82277591326281,-0.3153263088440045,-28.651986211827793,-0.4914604399585582,-15.367490758388078,-0.21104698761654095,-3.939004118720829,-0.4657655913304329,-0.9667746224115175,-0.24906640153933968,-0.00409802408515661,0.20784848065431666,-0.3640926119739434,-0.29542231252063345,0.07653400410001243,-0.18101839162594136,-0.2765361408030831,-0.24944712896628207,0.29770550311717286,0.20297699314561343,-0.13037456075730908,-0.25153655541515574,0.2171822583357219,0.3770717430474374,0.008840305707757956,0.3352092672093747,0.34994498285484976,0.5190029412826768,-0.009958689057819409,0.3901674478720324,0.062263129386158994,0.05817047838071071,-0.33083331911512465,-0.2644583679705484,-0.011516747147380796,-0.20431895000261574,0.07030474913071114,-0.14088354943650538,-0.1916745283936055,0.21138611911846078,0.19427208439535756,0.16218114245523885
biasActivation=1,1,1
[BASIC:ACTIVATION]
"ActivationSigmoid"
"ActivationSigmoid"
"ActivationSigmoid"
