encog,BasicNetwork,java,3.0.1,1,1328575133133
[BASIC]
[BASIC:PARAMS]
[BASIC:NETWORK]
beginTraining=0
connectionLimit=0
contextTargetOffset=0,0,0
contextTargetSize=0,0,0
endTraining=2
hasContext=f
inputCount=20
layerCounts=2,26,21
layerFeedCounts=1,25,20
layerContextCount=0,0,0
layerIndex=0,2,28
output=0,1,0,0,0,0,0,0,0,0,0,0,0,0,0,0,0,0,0,0,0,0,0,0,0,0,0,1,0,0,0,0,0,0,0,0,0,0,0,0,0,0,0,0,0,0,0,0,1
outputCount=1
weightIndex=0,26,551
weights=-130.7684406642392,-0.28559501975386514,0.17340943327025243,-0.21371264658027822,0.11042006529915101,-0.06688241589022029,-122.53010936164296,-0.040270957103698185,0.11834035501204614,-0.16378351540547065,-0.07863502978131796,-0.0009459219750704018,0.2081829049296418,-0.08597179802464952,0.12441349871764983,0.151823008189706,-0.15645015759253,-0.2675270628481309,-0.21438866768739528,-0.05132619368268734,-0.06728329473514519,0.18689050794905132,-0.1567550288975822,0.21104289780760427,-0.10302297064498288,-0.29563765712815915,-16.438019641543818,-16.579128086376866,-16.380509999890812,-16.248881894524963,-16.26913085178392,-16.094607291680024,-16.593315123222315,-16.08751324004783,-16.06664426003053,-16.24581365098798,-16.570992194927747,-16.255304475649137,-16.51577107019901,-16.500610383137392,-16.383012691473247,-16.592166637786633,-16.26730840572011,-16.425687224623417,0.2347438360938899,-0.2176290056646102,-16.40838782598949,-0.10073791835148689,-0.026685553902779033,-0.1070002084829272,0.3976957206183833,-0.19436762350592002,0.0028060141039433495,0.38337107845370244,0.3178410053867031,0.05705372412535639,0.20091809290861185,0.04563011175972756,-0.08108663466484951,-0.19607789586799107,-0.15832856809361973,0.12136312963123323,-0.01108669529219089,-0.1619573565520328,0.11676293788976948,-0.11495932032894426,-0.16979951158281595,0.06466577545878929,0.07037899132230246,-0.21798479118323277,0.11210222825907791,0.0990349183424928,-0.40908833715739357,0.12698899199307118,-0.06179405573676908,-0.09059748982586978,0.05350729095805286,-0.039402476629075284,-0.029668116401891903,0.07300576429439509,0.21642742747016147,-0.3727563249157062,-0.3627690488154076,-0.017711732583144263,-0.047903254345148444,-0.16164198251998185,0.11854491131956689,-0.18585299496333907,0.18420615938042456,-0.2425848441806709,0.014620088100953915,-0.16620210715639133,-0.0958450675331385,0.0017334783195789016,0.2522366701235863,0.3661184401464933,0.2627713729144907,0.1149043017777062,0.1978356902734082,0.20186303109748605,0.22122115356852567,-0.1235070194689072,0.04271189736556788,-0.06761847933270071,-0.17829345807594382,-0.15532309516821224,0.2146917927469889,-0.09017944963536711,0.264400974215146,-0.010338759155671201,-2.2726897443172596,-2.20255176278952,-1.905001438708679,-2.3009228312688306,-1.9481337281495197,-2.131107040298877,-2.280356960277878,-1.88362588773338,-2.3634643805035855,-2.351355839221326,-2.033856908818754,-1.919840131185353,-2.2895582056316943,-1.960169856903154,-1.964396404709343,-1.945134080373288,-2.347380093021594,-2.4355843288125056,-0.013224957404953176,0.14761754900220478,-2.058860864855504,-0.20530352405746138,-0.10956397908433767,-0.18772660945769226,0.21539872724779652,0.07714517741384778,0.14141384527211953,-0.01702332922858528,-0.10601865169400483,-0.002859028898434951,0.14761963103030262,0.292814112863095,0.33619718519882,-0.14140358191518992,0.32801179728310725,-0.07358083307640254,-0.15407879729353863,-0.016523086726076705,-0.010811083625390544,-0.016093004241491852,-0.19314270919685886,0.34476129597838534,-15.9659773604131,-15.949504368047027,-16.026098089475227,-16.447207327112242,-16.039138402241136,-16.172835606567013,-16.35700382692838,-16.15632259130636,-16.555061385264707,-16.291399776305028,-16.322865946348966,-16.0024392943546,-16.087805647422716,-16.173069240425193,-16.051869337700854,-16.365090105836956,-16.169386090417703,-16.2633002069904,0.025874257522670367,0.15050715471741402,-15.948824846980381,-1.105242639696378,-0.9222409374220462,-0.9436809641581734,-1.0874142263381963,-0.8554167087630286,-0.8645685949621177,-1.0027079466492859,-1.033617944172963,-1.0970357860832762,-1.1046922756228656,-0.9339991685051506,-1.053729223084949,-0.7909136523153147,-0.7898877825167269,-0.884895692152662,-0.6447134471113417,-0.7176554261723802,-0.5433516995238853,-0.3016357092821511,0.1936966896891864,-0.8187128328419492,-2.417094946107928,-2.302304786493031,-2.118643402325348,-2.2390632762527267,-1.878527230939329,-2.1499482890456694,-2.1501991634847157,-1.998256235705249,-2.059419423774638,-1.9637806101564899,-2.4191505573978462,-1.926479859539663,-2.2642872258352877,-1.8719991337834863,-1.8408053206033201,-2.0769057101165975,-2.4268092073159084,-2.0558941383466967,0.12148874792767474,0.008775977235977884,-2.159468897474853,0.23951643139991674,0.021378097259290227,0.19375751452464185,0.2759745329654616,0.23557034034751356,0.2239235839845637,0.12927897890575812,-0.21147868581456092,0.22631571000469153,0.22174827358484783,-0.12025862322146165,0.16547306109315574,-0.1181662151028396,0.2012828249016546,-0.22276410825763254,0.19187861650306792,-0.04602374024878826,0.24067680945520942,0.09894479812149637,0.2912249842877838,-0.1877220696095906,-0.2158641746103241,0.21640389485826217,-0.08850039376917697,-0.12624449019234535,0.12972411771988968,-0.09145469458532242,0.07119547600773521,-0.1310639507017387,0.30701757351951864,-0.1847893322116569,-0.132614539890956,0.22159859922985492,0.31701928644115485,0.156617917699569,-0.024084530162246806,-0.1822643439465811,-0.14347433728579057,0.08896570739600139,0.06302522596219479,-0.11052989059068474,-0.1824390581597083,-1.3505869241258381,-1.4675215564800415,-1.1641360167587937,-1.5267705644480911,-1.4163493974352772,-1.5057423458363386,-1.563527157976764,-1.1301462034193859,-1.2036263479934197,-1.0921499841502686,-1.5429629883366391,-1.2719756553853825,-1.5261928550195842,-1.5956363062245524,-1.075459160224547,-1.1509836462976792,-1.1490565885538608,-1.1269468142843893,-0.14723710609586374,-0.09966785412333433,-1.2057742521301826,-0.1053289890440756,0.1995569203993522,0.12281391397960868,0.1579353982097504,-0.2991303675786775,-0.3201133879578427,-0.30785224204325345,-0.18688966583562494,-0.19585929399131108,0.2267660124849879,0.16453987584032242,-0.0997097655608735,0.10076967202603605,-0.11668443888163953,-0.014846981422246858,-0.3272923886744844,-0.19303921804537272,-0.011840129437550667,-0.009300136412269393,-0.10718292507230155,-0.2582336835560446,-9.36498032962296,-9.022246787705265,-9.333960523554413,-9.446541741871473,-9.555129161016396,-9.28410432003887,-9.22569753145414,-9.253962686747114,-9.567554033913002,-9.282057540000153,-9.175386388638636,-9.433014337228219,-9.1516814310774,-8.94245115532891,-8.742437123343354,-9.356802604343594,-9.108849180671985,-8.967169902543466,-0.28478629113550596,-0.011554010603298826,-9.083675164184351,-1.225945335009231,-1.0244853388626203,-1.5077224078645586,-1.0849487556413735,-1.3197989144717666,-1.0675461668855253,-1.1327115847964235,-1.5024481534597778,-1.4136693964589162,-1.251551200838841,-0.9899579917693233,-1.2036532389740102,-1.4463422700823305,-1.442175859267868,-0.9902687625148865,-1.3817694481827159,-1.37890059203572,-1.0817416746922397,0.12983052812450196,0.26590158740404474,-1.4115178694645805,-0.32609331570377087,-0.15055977162887735,-0.332242422484486,-0.0055821091077342955,-0.18052219857465557,-0.43487362717816536,-0.6568653393993025,-0.6380972658473729,-0.5257832339679239,-0.25016664686336554,-0.494840551740873,-0.24147467744462725,-0.154547044289449,-0.4799734073732102,-0.4370748285331699,-0.34565580563926224,-0.2950709697760362,-0.0003392839555870497,-0.08870864911455348,-0.047428968896551134,-0.13216868251210356,-0.04152272152159407,0.3760221221110901,0.19925194022966286,0.1734239811616194,0.015009203444505875,0.16330495363717845,-0.06554069658194056,0.11365134919595864,0.15241002200750597,-0.0845464311001269,-0.10343697603374043,-0.22305675291694554,0.06287935720032398,-0.15076013260540533,-0.21345044538536767,-0.1906827011317741,0.08389634847510018,0.2284720789493485,-0.2752332104155129,0.16801083398350497,0.2765581136740839,0.2192365463438274,0.15341629421435232,0.15791866847262526,0.06773043421178862,0.10184500647109172,0.043468800484319864,0.32905573632463825,0.0030373469708735723,0.038857419430775836,0.3083978352635166,0.22193600053110152,0.2679363727923345,-0.16835337394689803,0.2675046166258209,0.10787234098265062,0.330011512133238,-0.1575954305370484,0.29116292960681556,-0.2510242273530133,0.2496385167566691,0.267814872767313,0.10862757265767785,-0.1962412514055788,-0.03464946195199402,0.20177713765707306,-0.2022384456268554,0.340609460037655,-0.1453482605420287,0.08972657383527342,0.1983885974131615,0.3434273882871324,-0.004767083594785199,0.19168954057506393,-0.07850649436974462,-0.01469006949942546,0.3436608691175155,-0.1065308017879792,-0.02214116504712961,0.013500507242611398,0.03334714335338796,-0.2458669318986398,0.31596758706012906,-0.08129049602940804,0.03922157724719591,0.17518476143397688,0.23214876502339554,-0.026880594837834268,0.09336159738580317,-0.36929612281683377,-0.04332457160716728,0.18231296673662922,-0.2889810220787536,0.06407385993129663,0.0648935294897677,0.10298049312112027,-0.1330993243767083,0.24125114148778315,-0.1984549142056078,0.025453155620679874,0.03892841869536215,-0.36137110956258717,-0.08596188674883495,0.022986679843124316,-0.24610530591020113,0.17287775881949297,-0.020440518103344116,-0.08908434986342635,0.20011216231833928,0.053241990572175685,-0.006905307709395375,0.3272836358967164,0.3258834383460363,-0.10546138169513018,0.13359472547297346,0.15379510377185512,-0.15735303000578404,0.32935361285626186,0.00925599451935663,-0.08139796944729484,0.023937070984327083,-0.2615510432686448,-0.06494740958670699,0.27559817791996893,0.1116896886527886,-0.17842895924884683,-0.05285623287145638,-0.1375360809078664,-0.15864657277472938,0.17031829490353784,-0.360673184917066,0.11664098431633789,-0.037156181021188256,-0.32060351044712465,0.1277713967745841,0.039808975783248615,-0.10124810594371873,-0.32624892772890324,0.08425512768862421,0.16153807860421687,0.10021941419122017,-0.2157957269764963,-0.18613156249760132,0.0958990524064944,-0.27877000474965585,0.1883718584429287,-0.1784697509574077,-0.09370551195073219,0.23191840206569547,-0.07184502307619875,0.09885465308663348,-0.13783598808478043,0.09835922903238924,-0.1643153439460565,0.1261181866890989,-0.1234659782765929,0.02565353273533902,0.10822570503825511,0.0999474329303464,0.08853719644744211,0.3111768606565888,0.327033934348573,-0.2592040217582235,0.3024827600252249,0.21978784210455443,-0.15765607690347752,-0.1366116610132213,-0.29807006240369993,0.08200819661179566,0.02766419177697392,-0.09526026774127876,-0.05593390179882776,0.10311815482760041,0.0319447324626357,-0.23697810070244052,0.0005741483528130253,-0.1041283770602137,-0.09285303001893085,-0.3646825203748829,0.24766065589451097,-0.3349081963758618,0.07440843955450512,0.1313887306672336,0.11755973014797637,0.14116879650608638,0.06682418039995439,0.29956034006811033,-0.23307501771292372,-0.23153903445364138,-0.24197899684949115,-0.08450017976398429,0.1780159952141399,0.001254237936804653,0.15150999540735943,-0.08487494450693363,-0.09136201647740351,0.14719926707243602,0.29215903384385344,0.3430505421410168,0.19244103073661056,0.20626505050343413,0.24448466026437654,0.017736529018946817,0.36623850725403384,-0.023581799564793907,0.14090237216312096,-0.16326773792972443,0.1872192575053688,-0.10214790738428632
biasActivation=1,1,1
[BASIC:ACTIVATION]
"ActivationSigmoid"
"ActivationSigmoid"
"ActivationSigmoid"
