encog,BasicNetwork,java,3.0.1,1,1328574167448
[BASIC]
[BASIC:PARAMS]
[BASIC:NETWORK]
beginTraining=0
connectionLimit=0
contextTargetOffset=0,0,0
contextTargetSize=0,0,0
endTraining=2
hasContext=f
inputCount=20
layerCounts=2,26,21
layerFeedCounts=1,25,20
layerContextCount=0,0,0
layerIndex=0,2,28
output=0,1,0,0,0,0,0,0,0,0,0,0,0,0,0,0,0,0,0,0,0,0,0,0,0,0,0,1,0,0,0,0,0,0,0,0,0,0,0,0,0,0,0,0,0,0,0,0,1
outputCount=1
weightIndex=0,26,551
weights=0.23164461616088344,-0.02807499642682368,-0.11490669609044506,0.1626812207002999,-0.2036389787292121,-0.24134916013674512,-0.27341043588076597,-0.014894290749359496,-61.48527615074735,-0.18730596768627694,-0.2576603083761134,0.18842080340084333,-0.02523920977344099,0.10568080061244993,-0.12421726567328355,-0.2245102768574958,0.14789931702167047,-0.1262591264079318,0.1618165459102373,-66.56977658411873,-0.2617002364842266,0.14554185913669987,-0.06469015380269624,-72.48116098076669,-0.16394539658860152,-0.19282505150275409,0.2148593585844723,0.2637239640101317,-0.3271291862977489,0.21206667025477471,-0.17135945200563296,0.086380245280117,-0.023481147641965724,-0.17146788534662682,0.21082261681046172,0.22310244476212088,-0.2505547299904016,-0.13520052255853632,0.15146039212176038,-0.07913287210202367,-0.16765825407855217,-0.023787320248163837,0.20801078630181796,0.20972162488559531,-0.03495634432220728,-0.022441454212005215,-0.11074215171141043,-0.7309779299004487,-0.6127541828611061,-0.3426136065842695,-0.21168299207327457,-0.4135767959641026,-0.5080192910927395,-0.6651101050505625,-0.2132805176996626,-0.25821370492152507,-0.8119871468373453,-0.7946969879574644,-0.6599964122170411,-0.5795476542385698,-0.658006643051266,-0.5729492991855012,-0.38674635175880245,-0.561565686928919,0.08119780413576255,-0.051937551401700865,-0.16680092676843103,-0.30283734636782134,0.28365462894879645,-0.0453565470519775,-0.18551365037257123,0.23685613912866677,0.09378236648412906,0.07140913423774717,0.25351217917046276,-0.05806837995913233,0.08742776659847844,0.2706272632110175,-0.2736820529137303,0.28534245270824365,0.03572531832712303,0.14106332868689608,-0.0903407706157232,-0.12380462873129029,0.24033000269527782,0.09594454735894666,-0.27440919894825794,0.1494434604838748,0.042851833594967054,0.1386174599970335,-0.21991719809424803,-0.04670159668206078,0.14535753348215352,0.030140981137899425,-0.24377028580925764,0.1785142601213367,-0.24599807298354914,0.19679660479615524,0.2034417768567039,0.03705270956932645,0.20769342668702223,0.03228912302430274,0.16510651464120518,0.2530124822253998,-0.40379280590173827,-0.2439060620816389,-0.2258245416495033,0.17744717959896023,-0.11412096407775169,-0.00762858665422636,0.19282496274392147,-0.0231350641121989,0.2690981592316376,0.1773661159375084,0.022000638745116943,0.283614667763018,-0.19448029485677454,-0.010491734033193284,0.18750100981119566,-0.02951241101788961,-0.08337054298721065,-0.16576290522690035,0.1247260901889548,0.28128337295164574,0.17338508129628605,0.23184981274147032,-0.28295511947730306,0.04642980460174413,-0.0513997475617728,-0.17638091774922315,-0.26634447568473646,0.2646898097514875,0.14713557886644446,-0.26330466722941165,-0.25221688763537503,0.1400805790489219,0.19050398833563176,-0.15927341962433017,-0.1281809809312922,-0.02326033859142225,-0.07582037343549998,0.29801448102125894,-0.05498813384587137,-0.1558586726581555,-0.17507153486496424,0.1871550027099168,0.05111919830432746,-0.13542643308407132,-0.21379633332877943,-0.20250250507907605,0.19776001967903617,0.1233443944056533,-0.24792746025745577,0.3655092272613766,0.07240489204971015,-0.07211865206262738,0.10128035308527948,0.25306953182840397,0.06487849443523366,0.1798990388240893,0.30527302583777105,-0.124727827999689,-0.10616351647797807,-0.07637630487083001,-0.22196408369456483,0.14929003954233255,0.07931043455427893,-0.008086741338350745,0.2611515376507745,0.14733493862765465,0.12189401669957566,-0.25120004220270886,0.12031409456828283,-0.2457283968266205,-0.38336330203019064,-0.4148586941782817,-0.5368158329919699,-0.31996413390863154,-0.45165713328694224,-0.3981153410005024,-0.7743728934356474,-0.5936509563017425,-0.763799996026053,-0.2555190671905153,-0.7378928222602953,-0.5374539074354039,-0.5714965294309508,-0.713021895689233,0.02920507727630209,-0.5577366301866841,-0.18860652311011694,0.015435740420404574,0.22481795668217683,-0.7331117581148409,-25.283016430843603,-26.330667420414578,-25.3833435631065,-25.673407163447923,-25.89791760202818,-25.85614513749003,-26.103497124249007,-25.394364713062497,-26.298081711493364,-24.62209677147507,-26.701551098167865,-22.865399086021444,-26.62042897524991,-20.37585910515644,-26.78511238560521,-20.310519423803395,-26.810453542385147,-0.2618417287646818,-0.008497837410953765,0.2553640044723391,-26.628802568972375,0.15952662134282858,-0.23569941354736695,-0.07979095634608356,-0.057832494211933566,-0.1762858598783581,-0.07765759925791348,-0.23621676931869812,-0.1129922606859547,-0.04900422922815349,0.07625362433228093,0.26973525813621013,0.2619553040373567,-0.216746095746485,-0.038725189623396855,-0.1843607756421169,0.1642165527021643,-0.18931121364441433,-0.2356561792592126,0.17428741732920114,-0.20228969504467872,-0.18029654529569167,0.22076752400718502,0.008093171645181613,-0.010584668302141803,-0.1610401093793028,0.2590193740117571,0.2411949738382112,-0.25041378040840395,0.10871158947104119,-0.2509658527538216,-0.01784599157060572,-0.26497668101556443,0.1257131831453342,0.11869753019984534,-0.07129168392833826,-0.0077756698567419125,-0.13620532961774012,0.03286880326691469,0.23997575465123047,-0.18693018463491085,0.28836505232483384,-0.16897131037854096,-0.19579173152861895,0.196584287622877,-0.16614572401228667,-0.02905733288999915,0.22609155654583352,0.019013143903344062,0.27195831616314076,-0.16390772714583446,-0.22166565057801846,-0.01286294106525479,0.13715291840811955,-0.21574891531546814,0.16937464897213944,0.020837611813846038,0.05640195329343094,-0.1205608209794362,0.29351296664503584,-0.2837403406823185,0.041145809995114774,-0.2932478941546214,-0.05990494489848061,-0.2961230342558029,-0.6524455509671012,-0.37141453151239356,-0.5898281340493225,-0.7415883906961799,-0.7373257798765105,-0.4568932913763015,-0.5824802290894874,-0.43813069501039326,-0.48291297968625235,-0.6752580659066635,-0.5464188906609064,-0.703063678646629,-0.8005826320712547,-0.3669175826697195,-0.10235836591989045,-0.6443952971866478,0.22973620080588916,-0.2553928682603156,0.21796580937642307,-0.7653646820788056,-0.10260064135371676,-0.07329640794847872,-0.07007675860448223,0.018253568139261336,-0.3987527485705673,0.0007983292226057814,-0.012119468470172243,-0.5038224644964114,-0.2578649435760929,-0.12676732329921087,-0.18674007559339834,-0.45261261414021453,-0.022767958609466163,-0.7152205177885403,-0.29045339244844504,-0.25896324406767735,-0.3777657247764704,-0.21623306864042696,0.19132747475369838,0.03254581830862977,-0.3588487055676107,0.012246856897435626,0.09345339605796098,0.17161115601317878,0.0675628209054969,-0.27774201809251714,0.2643525466711115,0.176259189670798,0.25449288649059976,-0.18222763565013989,-0.064172628639773,-0.002317842333555392,-0.22517306060292158,0.10084064320575607,-0.12863399249873042,-0.26186741050196555,-0.13838037214645732,0.11117135403792398,0.2776603943188393,-0.11189793763391225,-0.2776784891150538,-0.025714283638153826,-0.06807722470017732,0.025000685725384802,-0.05090527880765189,-0.20223791814685338,-0.26249362080603184,0.27366182167331954,0.11710912935558719,0.07715846504876588,-0.24600540472732696,-0.12495664966856777,-0.03599500282858287,0.14583149489156755,-0.2420620328091932,0.17082955932550103,-0.24159817584020388,-0.1392309656578537,-0.22413920181749908,-0.08767268003140162,0.01586836099810669,0.15090799202064167,0.3084458792770074,-0.17491484044097783,0.10018512517446997,0.24458826500182357,0.2782063135304613,-0.05106742425142344,-0.20508893983855325,0.16514488315640896,-0.12019247112872598,-0.18107260603467135,-0.302600075381131,-0.30501233751243717,0.12922452836947806,0.18762765863091457,0.012264816290891184,0.12828774129466586,-0.4357388783714854,0.055790256936946,0.12876870494634166,-0.1830628114165865,0.08185280800383768,-0.08872957861933987,-0.10990064889659538,-0.17670425688036068,0.12691619284651956,0.3454569082117056,0.1584399502683903,-0.15343302591344732,0.04517170536847273,-0.30777222788801767,-0.08209662863355786,0.0009189661639094349,0.06200371142476033,-0.13811030172123584,-0.30371598447833087,-0.06821652841964564,-0.09877907042623667,-0.16455543878928802,0.017349628501850456,-0.2875239180806413,-0.20954842791348774,-0.10611446706282486,0.1590478060814967,-0.19102028658050585,-0.3561035177815639,-0.22703831479316583,0.031581099569567325,-0.0338209328668341,-0.017379474526741212,-0.008774890558711806,-0.06633143172270492,0.13549412389182475,-0.04458260621290297,0.3305121749877136,-0.11576837669296434,-0.09693395122572805,-0.31846583379787285,0.10130821791829993,-0.25845674835249766,-0.29553599901095295,0.11533412536153201,0.34255101931876203,0.048674499691806074,0.03244788854103371,-25.801172159219725,-26.793084481865055,-26.384194814917883,-26.328753113526382,-26.674931462415447,-26.674674721656206,-26.49427525462743,-25.921334546458027,-27.176072033445635,-26.929792716618863,-27.1855147267807,-25.981620872077862,-27.365781783254945,-20.829027092566097,-27.530168700767337,-20.523381677017433,-27.115355891116806,-0.22205522289871774,-0.14733060223959277,0.06937443568860949,-27.1280637331397,-0.02551748120615746,-0.08573266939486528,-0.1567763901890738,0.2549698105864575,0.297802968390838,0.2328864383784861,-0.09464908811760979,0.16391270520921875,-0.0923307944396533,-0.1307999484026261,0.20099394701133155,0.25740051438538636,0.123075086233472,0.17827877413070137,0.32046376973047563,-0.04240857889766998,-0.15929368735175709,0.22438810410168922,-0.07687146905799672,0.2517447254993704,0.05475192648854879,0.06504058895292808,-0.24051919468093663,0.14053683261983563,0.18696784714824077,-0.0547355862716524,-0.10317853077333138,0.12786988731433918,0.21841035588760788,0.13000146478696445,-0.0601919147655596,-0.3160257018813766,-0.03802451779132557,-0.19825233840338763,0.22316514938060888,0.01968694062139792,-0.3897030515442248,0.22677766635754742,-0.2233363455847526,-0.3001904453441947,-0.07187979842146232,0.07537096652785784,0.1958160709882708,0.02244713996788035,-0.18562737022702436,0.005685465474810303,0.18409051354541472,0.12656198413077302,-0.1262764457056798,0.023159024407422776,0.04164707987637148,-0.14777686639040338,-0.22632375863189563,0.09185580203964987,-0.35063616078776816,-0.23542698408326573,0.31397020695951094,0.041049075507503335,-0.051756366264654574,0.00635367772121388,0.0944942470287201,-0.2899646966338132,0.25927705350804287,-25.61673857423305,-25.866081610884738,-25.783959282231983,-25.604722575305768,-25.607467934505504,-26.09765202478303,-26.24875929387153,-25.59612749702781,-26.557797259880317,-24.892646117062437,-26.645062725317676,-22.953226755220143,-26.679989657176392,-20.527179865026522,-26.619863021120604,-19.94377985659974,-27.097916802153883,0.26027733558767424,0.10564268081509506,0.24388976092315653,-26.860713581887815,-0.19859116260417925,-0.007667502209479399,-0.00004835511591161357,-0.014838332398356455,0.20644628736351422,-0.21413007618408836,-0.07644948400530117,0.07433269249122834,0.06298735866409391,-0.26849024646164005,0.19960262566036624,-0.0002863497393868486,-0.10143776384605661,0.3018912482293067,-0.17875472542797094,-0.13923263693597082,-0.21795145112730213,0.22227998439775032,-0.30439930835944656,-0.10072285210966281,-0.1981756406310588
biasActivation=1,1,1
[BASIC:ACTIVATION]
"ActivationSigmoid"
"ActivationSigmoid"
"ActivationSigmoid"
