encog,BasicNetwork,java,3.0.1,1,1328574125593
[BASIC]
[BASIC:PARAMS]
[BASIC:NETWORK]
beginTraining=0
connectionLimit=0
contextTargetOffset=0,0,0
contextTargetSize=0,0,0
endTraining=2
hasContext=f
inputCount=64
layerCounts=2,129,65
layerFeedCounts=1,128,64
layerContextCount=0,0,0
layerIndex=0,2,131
output=0,1,0,0,0,0,0,0,0,0,0,0,0,0,0,0,0,0,0,0,0,0,0,0,0,0,0,0,0,0,0,0,0,0,0,0,0,0,0,0,0,0,0,0,0,0,0,0,0,0,0,0,0,0,0,0,0,0,0,0,0,0,0,0,0,0,0,0,0,0,0,0,0,0,0,0,0,0,0,0,0,0,0,0,0,0,0,0,0,0,0,0,0,0,0,0,0,0,0,0,0,0,0,0,0,0,0,0,0,0,0,0,0,0,0,0,0,0,0,0,0,0,0,0,0,0,0,0,0,0,1,0,0,0,0,0,0,0,0,0,0,0,0,0,0,0,0,0,0,0,0,0,0,0,0,0,0,0,0,0,0,0,0,0,0,0,0,0,0,0,0,0,0,0,0,0,0,0,0,0,0,0,0,0,0,0,0,0,0,0,0,0,0,0,0,1
outputCount=1
weightIndex=0,129,8449
weights=-0.08926184731378643,-0.08293643526312863,-0.11543454525072389,-0.11185590495832322,-0.05066458159778039,-0.077094614507312,-0.19206239796729763,-0.08675018753374103,-0.0832514842328394,-0.13190330768836597,-0.07497817939565063,-0.3191929084454381,-0.12287109242028134,-0.10386510017384697,-0.12158265504367409,-0.15963315466318598,-0.08678498577314271,-0.053165737439899795,-0.06786684461108974,-0.1360031069611283,-0.0782947695029208,-0.13054211417557623,-0.0804356552851053,-0.07862944059111171,-0.11943195125502921,-0.10530649706930238,-0.10628656009833322,-0.08989609323141776,-0.09902097743210525,-0.14091965792298625,-0.08854785305842965,-0.13473162897492086,-0.16958809964988197,-0.12861162094227463,-0.038709117406751335,-0.11756883384433468,-0.0685171850188479,-0.12966226096332878,-0.14083522877960752,-0.21292395134202258,-0.07012987362104806,-0.09103598785972776,-0.09643415748201473,-0.03325277017367692,-0.05612069378072287,-0.08456483353354353,-0.10578046449927155,-0.13488488200491328,-0.10686042757043358,-0.13629094831980532,-0.09599073999668155,-0.05211510276654829,-0.11605117008215655,-0.13626936116934862,-0.1142975578713671,-0.0796445858663373,-0.19306232450600652,-0.16793639885990752,-0.1183198756597829,-0.0853741153398031,-0.11890911378916243,-0.09313007213063117,-0.1432401100784064,-0.08290346855246677,-0.1382629489325438,-0.15885632629345053,-0.08031166362072664,-0.08559912630253884,-0.11651532028387292,-0.09192151998119291,-0.04495112483081583,-0.09257749190690123,-0.05494543292177292,-0.03822297444726865,-0.12960005098232968,-0.1512857674050619,-0.0933985545723464,-0.030086809894675298,-0.043814049310152106,-0.139890085512849,-0.07117888721737717,-0.1257293983832248,-0.035229338295874324,-0.14895990712381788,-0.08374463199165358,-0.059535820442387845,-0.06245663422526707,-0.03101266672683159,-0.10272494009531075,-0.09094045867821152,-0.07374221654511967,-0.08406304571806816,-0.0949551012907557,-0.12916408644905045,-0.09045790849176552,-0.12816084654344698,-0.008495591164138144,0.00020300961240402038,-0.10150086130364828,-0.0941084678170794,-0.19642802852196328,-0.13414808351684557,-0.13002217398420698,-0.1591358349793,-0.13815551046854738,-0.039495653017396624,-0.0853719721078128,-0.022250288884222175,-0.06905125002436538,-0.1319251973425287,-0.08732791227371246,-0.180123611243811,-0.17712867670761895,-0.12717852702383245,-0.0035955272177269904,-0.048427416201667677,-0.15925309260992904,-0.24282979668800875,-0.08345149674570562,-0.1278064937888787,-0.12437832388739134,-0.21676810810720282,-0.021651039075282624,-0.10437273531052321,-0.1805085019464689,-0.06107014696327515,-0.0926333836158148,-0.037404594373563776,-1.1543630639167657,4.6137644327552785,13.123362228775386,13.546289555093562,5.878821053312511,16.296285619902886,1.936951096597297,-3.7622003410428855,22.24436603832347,9.877280545874335,16.355309727685615,16.520724263706317,4.623964915817781,4.430167464700531,11.910879100035178,16.972789999497248,26.3897942917739,8.729254672739046,17.972676756054735,-3.8689541856907534,34.12972092341086,31.713887498583414,5.788632762911527,16.45042268007042,10.971674285614878,19.436024754899787,8.271955069677578,14.528871508508114,24.770668966974874,0.22651308184206295,16.271693282294304,25.393424610808683,18.563562562890194,20.876290155222424,-5.094882949208667,35.34127914161634,7.279409227682459,10.112960407862488,17.87923389197171,16.199624553771418,-0.6458668468757447,16.063222586826814,11.338393729418371,12.180152539220098,26.446649712689656,6.303875320566155,6.612763679623144,24.20283113853897,17.751334312316118,12.608421935658027,13.928098231763252,5.425891157973902,11.446204657951261,15.773924276374474,1.2497291962014012,15.267907665184085,-1.655957421026308,9.95079523185723,14.237890884296409,19.42428820161981,13.192608850132913,7.095382841164849,14.075012572722972,7.779405985564544,1.248264648394195,-308.46778548830974,6.229913554194337,9.713249687926698,14.801986373995502,10.689354660495031,18.646631022350853,7.6262538483017845,-13.200022937396163,15.395774229956459,14.70918242966933,-3.9275491632143638,10.62759077850863,7.569998379573075,4.964811631416239,11.619835973705412,10.710692165528764,24.756090789754783,13.327018507676952,13.944634991967083,-2.326064047890005,24.18325150618114,31.205116425529944,4.264730247533867,12.499577707219249,12.310701657970816,14.036103983073225,0.958778518641045,9.552452417451779,5.3075364593169585,4.313649902209798,16.505065747123076,4.704497441197882,20.00595394645301,12.99666040865112,3.364359146409592,31.064589027239485,7.253117810475045,2.410749045274109,13.080388781442613,14.506084609647623,4.04866465481917,11.642771598464813,10.20174002386406,6.0611152456701145,12.750394036888254,2.707120278595605,10.494058706322893,13.273056577204846,18.469354941799473,1.2256268555648333,9.068050799483958,12.608580244382413,9.561304536547071,-2.0395022482078,6.40128797993336,18.241935123938188,0.1770400217392445,17.09605915687518,22.49119764678083,11.202913131425944,13.964373031005058,6.763234331179039,9.388526233335945,7.978263362604375,-4.742740113972379,-301.6901913234208,9.37025007273145,19.93210151345154,26.514724688080193,9.237069169496037,22.008214113141083,10.246517069495457,3.0854105703851284,18.817585391292415,25.739092659528506,1.0358338715429931,32.76254623320208,23.81121025422933,20.71932636701027,26.103276664659944,22.308353397294404,33.59538813798942,21.085448799574905,22.470622890858863,-6.924362655809629,30.005522268148987,43.71360188445495,-2.0880339164482766,17.20592529624921,14.471401446968219,26.146779274726423,19.62399619339384,28.022602043064303,13.305636862111452,9.746052941121615,31.746478575418802,8.280830359352073,27.58350394215016,21.54321148457027,0.911281521131745,42.262774866558196,18.17423179226888,-0.6512067252105425,31.921295466583768,33.08709758727686,3.441461824976126,17.009339836868055,20.207221438088947,3.537410142834118,22.314648295815093,14.272249542649927,7.97555226048518,19.865765881905364,31.394970610452926,6.567965440244327,27.40817066858929,28.72022125790699,17.980655975143346,33.3814139330324,7.402806211526687,26.468864187816706,2.722299108494636,24.74848610213491,25.96788513558954,20.313731328714997,21.546977624661658,10.638441072043305,21.11410326694817,20.431677445112648,12.927259192418706,-27.469280345818923,10.713193434506895,24.503096947654893,30.244209537351978,10.522346548338191,20.128748434489285,22.651302540148603,6.77563668949077,18.990253441967937,50.17792085576087,17.77957858702377,37.67786650236697,43.350243484297465,28.181989193457213,38.90237171548813,33.40152570780808,41.33567298649412,42.948290989862365,22.30230317168203,2.840315542625383,20.779499564066537,61.66538210002941,4.825919702495929,30.97032954222244,24.807876889606412,40.719073802142354,29.558156225909062,30.615168628773716,14.765441240147036,4.972440006715775,47.193502279895185,17.661083841037605,36.833243480901736,17.583662712740065,9.791782118591138,54.77111454912197,31.97412521794927,-7.494588075284131,31.884261687412934,52.70881197690797,7.680162407324904,24.75863651841844,29.200261795583092,5.365266759572835,43.58998708454506,31.94474458625562,14.74062164771985,25.38932700661877,46.886297325971995,1.7776446652211373,28.57635717680767,45.891496472401904,30.908890246722844,40.44813285129745,12.425974315633391,45.0225658789719,-6.183784408911385,38.51311892470085,32.513264816217195,9.03061214678977,23.204460112457674,27.843859248334685,35.69519138998346,44.48049946681496,26.56935610660674,-196.6889420232001,7.483393905271406,15.479763307589097,15.748039228730628,8.737902757821029,20.67457024958233,7.932267067582537,3.9736977709582213,5.5216856922372255,16.87835901293375,4.838789144299134,35.27234172121858,15.515788335995287,12.858155182038344,28.440980282327065,15.128145618449185,27.149524831772432,8.709353758659482,19.110005636429086,-4.9732128259591954,16.75814522965034,40.04216057427766,1.8673214692807942,13.670224203804672,24.517127322041055,20.171049516432458,13.320870897072144,16.13674849828802,12.183924470442603,7.342344936973109,24.029078208031844,9.84880733049951,26.013132534944063,18.04497748069824,2.6366600021184787,32.63194388022472,14.82407611412223,-6.448998606288508,24.474223721283444,19.0221379063236,5.231244039820541,15.879432732935111,14.749301430191846,-1.2083146907306719,23.069912246046247,7.833699796006829,7.760029042226206,16.27676878731841,25.01644143511725,13.94760880532348,18.555190166300722,35.80911188665896,13.17209151819329,46.27517633431589,9.77705759343889,23.214117904014717,2.878010502852799,44.595778236013714,19.166011981767475,17.474683637970298,18.047228481178568,9.037713701747947,18.327096924783326,15.186193509403617,8.951455101926301,-269.5501378210899,5.429598105747354,14.259073130150707,12.97873817257563,6.59886847380333,22.09723474767181,5.4802466123229365,5.837252603235633,11.61854640237824,-0.6067924108495635,3.773765065833873,14.61775503823725,9.088144132577545,9.685976512803641,11.184979273937008,8.017223879965199,12.55196794020933,18.764921976099675,16.207699556496948,10.416109544193066,21.689656632368518,12.488919883606417,-0.051430380588296826,7.474082590731391,11.266500115944782,-13.726156431186265,0.9993806120011667,13.649032532318408,11.943574045348905,5.63703000085414,9.277960681588167,14.673000433130058,15.87363535485824,18.52905581905703,3.1320866822160585,18.534316447622096,9.790793191497983,25.834187143863808,20.32504966896557,16.52578494117199,-16.32795573108113,7.296315461678608,10.715500468543402,5.907292258296522,18.147192491051854,6.630545213537185,11.102418301344132,14.739957820075833,12.403861690498797,3.0532442334702834,9.610098839911554,11.738705262581854,-2.3581833357164705,23.250195160220116,3.1025222376243806,-34.22113251683025,-4.909948561281539,7.07432776940422,16.484669656695672,20.958962107665705,15.310213056243223,7.13605850471842,9.45842839675248,0.33259994874738297,6.119500949517513,-292.63011365160656,6.039176565560233,16.595957865484717,14.113658782112228,10.55671903366145,15.749930100081547,6.868784449698875,4.847653682338699,12.631217183901507,-3.4565340019854007,5.724521849213471,20.26343223848412,6.106381241223233,6.5784746529516,7.052941598500554,5.730898555792386,-0.9725115057494281,14.719239111995261,20.645493172071646,0.9418733828387192,24.224236417280554,-13.681083275866863,6.473152816449676,15.29685284645558,2.3031501366505975,-12.978836100640478,16.26728574481185,23.70013464960374,23.006366230390185,15.17246411485288,22.894109683000774,20.339614889399396,17.532494239538128,13.3878262045459,-3.574674826807711,17.05315836492297,18.222419147774346,0.4280674867270098,19.15319617202302,17.930398872733175,-8.630072664742166,13.910994231367345,13.909437880451557,3.398987137483348,20.022774899121544,-1.088927973223934,3.133342696470529,19.329490621733736,24.785645533804825,-0.7124432388248055,17.761407527094192,17.947746470788264,-1.2486293978325418,24.044884887776387,-3.510966532143595,2.426504076249507,20.130036087428945,3.722723182172081,16.153168546694683,17.85850050371278,21.670502567593303,8.210617844350413,8.733842081260354,10.8998204591282,18.829007065959548,-43.012951280207005,-1.4833914075386825,21.345550955890708,13.560038436185009,3.744800223753045,6.88346623535793,-5.885469841679106,0.7606031127857434,16.980045022283722,13.231570067978728,2.118229810607073,9.225675954707603,22.056921181512216,5.940989234557151,10.81992887265382,2.7035142478875622,-4.615833469588669,29.81993050232569,2.8397640014901833,-3.7938589835778633,6.285288253312711,27.569192329448157,-2.042671546789185,20.625255830431755,12.053359979467956,13.126889485157987,22.241354638736677,13.174611606797754,10.345987062905753,15.400875248752076,15.83662631054004,3.0834635238719437,24.53747021856012,9.737671430726264,-2.09629377000194,31.721526111368423,16.413760467761474,16.512327321278892,20.031215276991695,24.096356145985308,6.119581679304134,11.979738322617422,3.7357585072578723,2.7655811136931456,22.16798417997213,21.48165783441695,6.874355768510307,10.532896681570007,15.868529600264885,4.688990831031474,19.03786628758098,26.572221399195595,2.7069510844943045,15.218911071115542,4.457664632812652,5.32354000732538,0.9208719986251969,13.669259649365014,6.48698669781181,-2.3921200024397464,8.524455651575435,-3.1223124304005,12.544300984958339,15.68483488847406,12.47988004408064,-330.7017343042272,-1.8628100202016178,8.172269187347968,4.901840090405075,-0.18743686459540565,12.856590080418387,-2.11398656088731,1.9887864296913196,15.805639842849967,10.484578787460595,0.027648714948576986,15.655644911056289,0.9598999729865084,5.248069428403654,3.3092285915347834,7.0336888981790775,11.3038940582283,1.8638176244318467,11.745275513498612,-0.9710848293421123,22.07345913316258,24.615305794897537,2.532567445177928,12.709594461363036,2.390219446118253,8.907465717456835,2.444058089746377,11.213511090244392,14.537055059932714,5.468434903257998,17.25180574490917,10.37957321212286,15.000613348171198,2.9119556690506685,3.5931686759954875,26.1914252735773,0.8499210681444824,0.35384056348479476,13.947432048325053,12.970712860279036,0.7284107224044204,5.697516585398847,3.8865471884336724,12.276260427354512,12.278740555229188,4.360283328830499,-0.50782354898071,9.160516614505115,13.680483974008652,-1.5820465360263927,8.109207442453148,8.82355644894631,6.679433385640335,14.914524789181112,2.385087918225416,11.0116828715648,-6.751664982761941,2.9804493259387494,10.691382880144964,9.329559355382278,2.3457722625881843,3.7932168628389813,5.211928822433239,4.972601514776834,9.041246430098733,-292.899927075893,5.621284774855743,13.282331857213318,13.37797070779682,16.555174467491057,21.949135178271458,6.163839719320855,4.675718311150843,15.374205134202583,23.64594060140688,0.3252056027485407,25.686641126403483,9.750118654594452,8.258177273420118,12.071785185145357,14.632230457837194,16.712667984061348,14.284790592923034,13.368324212750512,-4.154157868930627,20.85543543093276,53.0550124028091,3.4038831155338563,14.467150740046034,15.862488234233656,20.39295501751979,23.618151869057435,14.458976436478148,16.484570606787205,8.187527543302354,19.131082300127307,15.313771801643936,23.024914428874148,14.735636301671189,4.590025116383142,49.416301394355315,8.682903989210958,0.4337872295067071,23.459412917715273,16.805787001219468,2.415486655874394,7.685221993387446,8.602698458001557,4.198242444554584,19.913045479522264,4.895568516949496,4.947905581251207,12.29511407485442,19.46169795782577,0.8361012162233232,13.789202274025849,22.562658819582232,22.59280610074437,29.525648489804272,-0.27728945593351206,18.340463690771166,-0.0041592044863712485,22.187646736923288,16.44984985565461,18.59162600041141,15.336213125747534,10.912708370843475,8.63629547184267,11.146790367974448,9.293291485489947,-39.177959935913485,1.3642815425544081,12.674108683131406,12.516442685585787,5.444494102614141,12.097410359585686,7.574824204999707,2.8254749993846278,14.164945181542667,7.863689725358607,3.992131828805827,28.00170375345829,3.2150550818726096,8.3347472066157,15.325519219774337,11.774059676635446,11.647838642027754,18.02469603589442,10.080042015676048,1.4605440597594979,12.952323430249217,-14.70203785926535,-0.7057778923768238,15.064712739952283,8.83435383420077,-9.96625726914819,15.242739204046162,14.403767062879426,14.116171058783015,12.798687964621877,-9.858834199891744,13.554665740839914,18.83832172866018,12.577672897579795,3.667010101563679,18.93673850470809,9.588392790732968,20.9784732531767,22.09330864264986,16.68443072637808,-21.43964744167763,12.995056238652053,12.820055786893066,10.949451060509496,19.460334117782775,13.727023519963067,8.375624863583184,13.22121407250869,16.10599284512093,1.803328549979896,11.81961246434161,23.845291525957244,-0.6223046021780374,16.538890072704987,7.754024495510231,-24.404320838384642,-1.9325839932326216,6.199660029336994,10.76162210952424,0.684226812224613,15.624093306101841,6.271672487111677,11.553786881597103,13.95890948251155,13.510666311343256,-300.02899543082594,6.356979954001629,2.09264102818986,-4.1281626456648,-22.49585768729711,-3.383786606773031,-9.637183237005335,1.0763590565610777,0.41841762360174295,-16.129155451071856,-16.729209340951932,-11.984394535801881,-5.651047798351699,1.3950875262031643,-7.718758134522086,-11.0485620289374,-5.36322766831414,-22.215252585569463,-9.978348547710555,-1.5567766300446868,-14.519281792882339,4.3446676034849405,-4.084933458732833,3.652350266763098,-16.238592645328254,-0.6578791711757808,-10.663049577545943,-9.65136439739305,-10.26127826003566,1.7779373366260574,-15.065855642614823,-14.097411457276658,-13.816029131582443,3.5979239327118395,2.524538566516757,-2.3401921200769267,-2.7934475223708155,7.978478065389538,-16.691517767214812,-15.771719917838832,2.7597072855360025,1.7962470150668515,-14.185222375684386,-3.210928210582021,-8.14420741893136,-6.69893954022525,-0.6934914980490493,1.0729978176592674,-9.62927695897695,3.9976551271063423,-1.5977445739601674,-11.85693362057867,-6.106066015316534,-13.29438236110984,8.965498748120714,2.9840504726148405,3.9762176919188614,-13.251250764108024,-18.304718759655927,-4.453183385143702,2.242299988066524,-9.431138750805362,-1.9435754928713802,-10.914843274477281,2.914881954897903,-302.02856370836685,2.635050919467963,11.775660291440898,13.411046845907718,5.675448024712331,14.802022362293686,5.678920630225063,14.442684476497911,13.905438878639554,24.977545139266578,-11.43292712716421,24.080457248127342,11.999640762361656,10.608559275510219,19.627387496680974,12.973119552749175,24.484752660328326,10.536375483362612,15.574966168205377,-4.193498228546627,8.560627952101948,39.47133577457518,-2.2930934230535525,11.620119888240314,15.01311170243948,22.442490697257938,16.130106968047688,20.71720997512691,14.387612860761644,10.114725167159996,25.958842442503258,1.5074654228555473,10.540184625453414,13.842733394461638,4.480216264294601,34.984796936214025,11.02386258132394,-2.9804379920522455,27.36376070652529,21.91275447217091,4.352594365802021,11.513782609008485,11.130110305562182,-7.044063702300068,15.220969322133895,9.699872418106903,2.7850965258677474,14.840960060663253,23.339651741605916,8.006708000973353,22.354403987254205,18.04812802220038,15.723140164774877,37.009571332090296,9.528599856182517,17.046027953710638,2.465479341663621,16.510180877055156,29.46597607827427,14.495847891709028,16.606367850251644,11.845422499761366,13.134859880041267,20.345105455994787,12.28132851129453,-21.475864958609016,-1.9361129427340193,23.059700443015604,22.9055706284901,22.619316810485522,8.725824636700159,3.258739994721049,1.0626203256449376,18.042343322904475,28.535978401074622,23.52893124658233,15.82560894266911,32.592863715433836,15.85063737262669,15.136624041939726,24.000184173724097,22.36297106011643,33.89240453050448,3.7949300206920644,-1.2013372200169448,20.6553507795296,35.42175310523199,10.184402824118871,25.124712963235037,19.03664022434212,20.46707217660807,22.506759479702133,20.21746245230682,8.16313711114473,4.583269660215722,23.053969420431095,21.095186621029043,28.041195340580103,18.205991010620856,-2.0278557987307377,39.68338193552468,18.447650934195245,-3.6735445128460307,19.640655831036476,36.06603970702164,6.329264913808702,14.704820625105523,14.467457045950649,6.0240499088891335,28.599755396001722,22.07143555828521,9.601992633283277,16.290472020992905,39.61126932113969,-1.7320083512646058,20.17922217160448,38.39013151922803,15.600600111887626,34.62389510531565,-2.9502761516411344,26.92245831570909,-6.77639310759088,23.926582250427252,22.051965989645062,7.556367304754131,6.224761258238476,10.395036992786471,19.863923689265235,24.454580386225633,16.74107125019969,-210.55035021371307,-2.1442539345230505,11.060860972805905,14.295195775713252,18.942197300861118,18.84701799806128,4.514337592519292,3.588215645745075,11.367703378097012,22.507619483075217,6.560350461136377,25.201482941827987,9.67531485014737,7.033175073151894,15.229949219126143,14.1509296976887,31.65615845493148,9.73242892148418,21.19952366007372,-5.176133630884089,13.471261592340413,47.91564011449563,10.210332743602162,16.071016164488636,18.745098338916442,24.487668153974973,10.255076616497027,24.888618987508806,13.339008091160661,-4.554282770263192,22.155210432373234,18.948711729907618,21.34037526811417,12.808715923545543,2.7536070845730283,37.32153507630541,15.610848671577113,0.816633338990578,37.79356169448453,24.691795657782816,-1.0268139048318472,9.619754596986898,12.01749196168358,11.616637716194615,21.288639853271842,6.37065452777257,2.7380828720722126,12.973626360942669,22.33132129285303,-2.3445717757664606,17.521930327293536,15.680432569000462,15.112267462071392,20.81128158505068,-2.1959217909370006,20.142259837168407,-5.99757176101935,18.024793050652185,17.35386945665965,25.937724602348165,16.26196983652691,4.2465016835667795,7.533363935531632,24.919130216562827,8.791585204802518,-35.47863486541738,-15.608688203078298,-29.739493284300476,-7.465268878440024,37.23446310997278,-15.23320970160914,1.7407624527846024,5.619488647375576,-20.626578655981522,16.24745768800012,-1.9614955353114865,-2.874885003579463,-6.102896907808216,-23.22471961929168,2.9308034380176173,-9.55767884969076,-19.34874375847107,-0.4549700204350181,0.7503662056590624,19.546425659731348,-19.806482713449572,27.433700485271338,13.751050183163718,-20.96870339635016,2.1703397673863667,-6.029394645991972,-6.473897350955409,-10.760785741850043,-13.441136879003803,-10.50369372475696,-7.451946016315883,23.450840635353558,1.3169080346778013,-11.885917813745063,17.798437061922577,9.853898449526545,-7.959140034029091,-7.944968658159704,-21.140867667873685,-13.795277556053344,-2.162114259588013,-13.856526761080227,8.7636672908449,4.683749196377858,-4.92584236218669,-1.6242155674683527,5.553950393390466,-29.274880318729434,-13.51699551894551,0.35388085460766505,-18.174630483287185,-10.88257954643083,15.304903129378497,-16.02487723821483,-22.326211494971613,6.047212707569478,-4.529902663250373,9.099712470990779,10.276531298367766,-5.676118088412529,-16.899373354562044,10.18221219120397,-11.616330538961353,-26.522919791464897,-19.982573130833398,-444.8375038348309,4.140060699808552,-0.7118500531413229,9.925599820350277,-1.6628068950355757,8.215003536393505,-0.38858610220890766,-3.781575074884447,4.481438433780837,2.9234967375154537,1.4900740115300968,13.452406890991387,-2.5677851078205096,-2.8015321971892204,-0.31650135441171334,10.525144284605691,19.440709232118124,-0.6414711751696749,16.821124199412296,-12.560830149266248,19.157573853234727,24.90222358425418,-3.5750658195305007,6.061264079225961,1.2884848623928993,10.285479087407808,5.2143033244737795,8.253622230633333,15.478294378771025,4.0470815740322905,11.987971880429658,11.65926804082214,14.522042665525943,2.631008284738548,3.733489085543451,34.965685925604085,4.847393939308351,26.060506281532845,11.218710503002534,9.790885729392537,-14.16869862909775,-5.507131389070542,-7.810035596636552,10.5040562825773,7.4645752089983635,-7.035150434613667,-7.126392099194552,7.557470754548901,15.141807094912838,-6.748302845541298,6.25001355987012,7.514409197367857,6.576363404604424,3.726983752019199,-4.204208085608486,9.642933581021275,-5.271835169448025,0.5186713819644112,2.2912594783037754,12.877724146940475,4.197620164940116,1.2254832835001226,-2.4692421812297414,6.265909657125944,4.430904125733856,-289.3928413237122,0.07983591233997131,11.869083724713633,18.937479963911738,5.827034765337987,19.84347347093078,-1.7067881017869708,3.2205633718665205,18.473825143097216,14.005590947863555,2.753086863663448,13.472373270667669,6.495899132930469,6.647485787831493,2.8697514486707303,10.621299894278412,8.691191013019868,11.379320969847427,22.834654038922825,-4.3276450661715655,20.897851898882166,30.940009155825795,2.905398413809922,16.55483461059341,10.192006491526323,15.562471980584842,3.8037918021304358,11.92956722213019,3.067147655690742,4.777860617953689,20.49958654615318,9.525579724783896,20.73847431845101,15.636905132346037,2.566334458317216,34.51024538514985,10.314172967311416,-1.9561093185418867,18.126928707656507,20.945852783387558,2.9199121016473835,11.261824906579081,15.306786559034359,7.411773610576639,15.762913710751784,11.686034786510477,1.4548950443629525,13.598666728116127,14.380373008952635,9.823932287708804,15.954594132599281,13.433780801414057,11.638778300535762,5.41558091528866,4.587067563889118,19.096292283016773,-6.223674987614015,11.107654863384148,2.1420803079829085,13.553651881593064,12.778098669143036,7.6588996287885305,13.343949431874005,11.873241856570198,2.8713909480208746,-285.1295529792359,13.400925479284536,25.885796637271266,26.764347002815597,-0.6312352113932471,16.978573071796486,13.964283712753067,-0.7748428385299414,31.185533374135716,13.264548291509994,0.9357113251948782,32.680884493834874,21.637420193622383,10.442833572783627,20.9622762425787,24.703413840764593,27.929242562855958,32.01143469055571,30.154589561775005,-8.738835537555492,27.7131655160541,29.187789038536007,-1.6798925338568496,26.00832520759795,7.4530882572148025,19.565847099491112,12.544778244687336,23.156117645914957,20.109170553437803,15.504111419731059,33.42533443067072,8.878196246222354,33.569210770652326,16.806096343640764,4.091737840169317,37.16990102180201,27.829889635439624,-6.963228977709643,27.5238985846114,23.597366609406652,18.551136783558405,24.168040032902905,25.618139055239,1.9330448558514215,25.181542649553315,19.808526401655758,5.039589631647482,14.161205034700174,12.945784283107077,5.947686651981023,25.226375014059172,27.371947555329562,16.341234381905142,26.242166652147755,12.438998850673597,34.951240317143665,-7.36454693762919,22.17606527247451,7.4532159237012765,9.260387886052808,26.077748957148906,8.581304887380123,17.078741245375213,10.609692223363052,16.248940862363177,-313.87024717225484,0.45447826980345407,11.362955466935993,10.920766758539107,20.041531548455055,5.051420608581228,5.857738956613799,0.9881452013516651,8.456329764535273,18.99491657475887,4.87128197411325,31.739177765697345,6.404018535454951,2.5607186630485823,9.151466357324095,12.195095762700207,18.682819073118615,10.305154982074347,11.470190430247508,-0.3606108727842168,13.71099218807655,47.90834482366749,6.668222519173439,13.899636643676315,15.887115632332081,21.39428891637675,22.720465450048955,10.51197591933369,20.366609711644394,6.307170892142214,22.43106588375033,22.778680163572037,24.825553959339686,8.006697838358189,0.8377315911719458,31.05172209419942,8.075782373542642,-2.113626522185337,18.967043728803336,12.623857713493214,-1.7781552026474339,7.673698585317517,14.021479413230672,12.859270546467291,18.678292312929038,8.657278568223987,9.066120683687506,15.874884664264304,8.106986347454464,-7.109869322959018,11.23203355175224,20.542960818608922,16.293197075007562,17.9433530495559,-2.352542670747946,16.15310074828199,-4.155284804873013,19.288943810977077,12.220208630131056,11.097124957371646,8.388958940392447,1.5115268660981678,9.522795396063831,15.291590704087346,16.32388733764358,-19.028439587457516,5.254103703360431,8.841424842203674,11.456073476681334,6.1921928102457295,16.746215521242316,2.5777016787146856,3.5685163091081655,9.003348915641654,6.702842774897247,3.2718433318303224,16.06108423280586,9.316205770075163,5.681680082494993,6.660356410363974,17.26835490008932,20.69931011125375,11.938188880663473,17.790444603775732,-0.5900449969930175,10.871410512256851,28.449472996119805,1.1696727269112697,15.099918036708308,9.318351318848915,14.878333487909638,5.270105243794792,9.653884710283231,5.096192157588213,1.769606062392652,18.242227427171724,13.777834721849576,19.85351899742951,14.722903730355895,0.6049049726703475,30.68594147473419,5.701832052786321,-2.328389967978337,16.08992799847955,13.869589170518644,5.765310382195641,6.6719896008813,9.446672612025994,12.006497611728475,11.770874618657151,8.960310194708942,4.841321098738641,9.325866951310498,13.473537297168008,4.395027567746084,10.169852095347467,14.539789695095658,7.740634113691527,10.86632939541976,6.703902485715382,17.234226266596153,-3.1306526266983514,15.678568164700222,12.925327517008906,10.860150759991598,14.656585889376904,4.377775359823544,9.420921166385957,12.393022193207289,2.9392044009887246,-274.6160852060553,6.412601944784824,18.96263350565986,24.14627338630668,10.176345911920787,22.355499042989866,11.942858100521411,4.885565982773847,19.75169914487103,21.0168567429285,4.010638089686508,24.577818930698037,18.558257411658925,16.055308582421322,16.307918244594667,25.15599206071111,36.315050875758324,28.249729664425363,26.142705505845736,-5.127693367269686,26.173141986867858,51.876210931046664,0.6398189465755859,20.22878101633368,17.80310417679737,22.002343126484906,22.137825901395775,23.235359154666714,17.101197538547957,10.933861263919763,29.581637000215583,11.15576477365294,33.805936907802455,23.81450713675962,4.4104433018182165,51.930840968598496,18.468618857505902,-1.9403768375452985,34.32634681671059,27.358609380556825,4.427073712819306,19.987362763544226,22.765378840444622,-0.40981183679248256,29.802221593049943,19.424163896905327,7.0169784841212275,15.235257222526148,26.98073695280759,9.64052190480191,21.063855681927283,26.959607038322346,20.23815385483474,27.87964967452682,9.818800010619137,29.337854783889416,0.10426396982022373,23.57054843539342,21.941359612074358,17.68970719255853,19.441140148397462,11.066884679366451,19.554349447765222,23.351242394534257,13.52350838226331,-30.993884971611433,5.69556952888031,9.797712694569102,10.15413928361442,9.230810359536441,15.938403173667934,5.855281503795458,-0.04707385036826864,14.89093313611383,10.027482732081905,5.11356502023835,18.032355036756243,9.751757601511942,8.636044984830583,9.225435159890672,13.76614993535676,18.11897312555044,14.1813248182986,16.022857525351974,4.128664578563943,11.440968201179901,27.15606606800506,3.2096284179879264,16.154694156845707,7.524967773580526,18.82673669671474,11.202286970863048,12.074297479170667,7.430536327336152,5.847682260422965,23.452905614610728,18.46859381425782,25.330918375623742,9.12515997090666,0.7308771830705115,28.18490238588453,15.125341466624363,-1.3489637190854182,23.32197867997584,16.177538360228358,9.470402420498576,13.346173884048246,11.503875794866168,8.065406576190648,18.9644331590196,14.734280458171845,12.05936869778187,8.857215216191197,19.54319072260773,4.818965291180841,14.081310517573293,16.790204857499475,8.243929136205425,26.248768418393396,10.270439980893661,22.139102245059853,0.57166231604009,22.16051520140338,11.729031001341582,12.411233030335271,5.512191887115559,4.366854318341666,10.086913584610006,12.60769448221975,12.776282830589807,-290.04511718714383,1.1949328241626929,-6.0404914920664625,6.641177650620445,9.806017689538937,6.334256556698943,6.944080705100437,7.07365530318056,3.508950379611633,20.094020988110035,15.459155096562773,23.83004270623981,6.142820842147565,9.459357025374374,20.17498726500528,9.531777364151127,18.92712447202563,11.63051580745347,7.409954917367798,0.23202700459839132,-5.14283248453612,31.062626204283497,1.035318624971199,15.237062981420971,16.807781129946136,19.89203596079837,14.73210536910501,5.844080560363457,5.2886649314355765,12.038646034372638,15.658188834684303,21.46386874630801,9.003694460148944,-4.289782902409869,-17.826035233729144,25.531481108433056,9.881935196441837,-16.629082106737833,17.753474534965292,17.478146204250326,3.3145513384906917,5.9531974232702884,10.215591715167722,8.490906272611227,1.820652571698199,6.765294609536918,14.031472747680521,14.163705660064261,19.62913723144056,13.984990794641522,11.482323528745708,18.955904243868467,10.462576770287708,19.26679347120924,4.9983082029537655,22.69473569668407,-1.6473864253203492,17.539251680834493,19.813695619162388,10.898639662632277,12.431531031634,-6.297982368518314,4.8351316886959355,16.3462324717719,12.186485759491344,-278.8828966620562,-11.62801379611771,0.61730299039086,15.552301581776925,22.408946441713635,6.440463503845505,11.473882097578056,18.192709515041294,10.226645876291448,41.17187681084216,5.992468752079381,28.53976105366275,17.125664123813035,7.005770119536041,28.932930733437054,2.0592283734081573,-2.6373350512502918,17.75190063659426,3.736920350937919,21.416799734156275,-6.87618639222119,29.27026189081947,9.26056299529168,14.24811471630469,19.340685189926106,20.903554183533238,12.665422893677663,11.418756060286201,-5.4366453534449946,-0.6337593468869787,33.08696103235003,-5.4148709487337845,21.02295424729335,-4.421720706630497,5.210524681059756,17.07151952770955,10.803810421658792,-13.973028184834662,10.226657338422502,25.516305291406557,1.729178167241145,13.557368055052994,14.94127841215878,-0.7946501572453533,19.13699203438375,25.541939241614063,7.902422435898033,-17.71101665985146,14.3451701685745,0.8231921022499245,10.25144527160508,19.88762308214557,15.339058308925166,27.99943029042294,0.020291064016063898,23.530023562128452,-7.45394230517564,21.413550478369057,21.50629500004078,-5.792915832730533,1.0116105602578735,16.574767984312572,17.058259007778364,26.668632995269434,12.1155862290655,-303.5359632050954,1.3624691880585664,15.652854719892094,8.433150326559604,11.944326282442058,18.944355625179085,4.803708295174419,-6.996589303071507,11.36993452224924,8.778910590811455,12.11226198614043,15.132559956672466,1.2535681823570166,7.948055374556567,4.214486726616137,13.140952247195086,14.27960979430704,9.578947192375432,19.9105967574081,-9.905110001474442,18.423000937703282,29.682864593573175,-6.542671265675227,10.85736862401893,10.280947654264956,18.993975564156464,13.13753172099303,7.698737563772956,32.74183106420273,14.454360592967202,15.875579435662196,20.102610775386136,18.60549700951579,0.31162250315034135,-1.1124785920940865,32.96129916806722,-17.121965394450775,3.110861685290605,18.11001200781385,8.959705409687333,-5.456372686254982,6.536054397113953,10.8484782639976,12.384171552198127,11.0029149312203,5.5631751497517055,-6.239455256774888,15.092955187464709,11.677444073265837,-0.7187205784280221,16.44990842222295,20.51622282672292,12.577486842377086,27.36449204087028,-0.3044010608809745,12.453210911075939,-6.112429115263217,10.758921799333118,19.244761406567296,13.396390341215321,10.359383467563191,3.6820251557695265,6.106969786979882,11.58686865701096,4.391474158959222,-63.864407672305624,8.538590211518802,11.77860317505835,18.65044871206404,9.882650683698087,20.94768632359114,-0.2504639826645193,-23.368672207114944,14.884470790461423,23.797358682874513,12.131032604553218,21.28523718539379,8.649103767716369,18.171837959572834,26.202125129419795,15.734571065254302,29.909686920288397,15.218253569944295,16.110431284561216,-8.463677351312196,26.54714338663075,38.84953820403757,2.1147800176477194,14.632902883531337,12.391638007355505,20.732378576512957,-1.5251240481837476,16.876230918135395,2.764398619376383,2.275879945257151,20.284293605647804,10.903911215495885,20.648699487456657,16.052273280816628,0.5623114102273907,37.46591936789994,8.817302814935866,3.5561842543553523,23.733322130603305,25.343192219133044,0.4283524719314393,7.651963557572078,15.27613563185061,8.699303117617632,14.128841603345832,6.192752160072656,6.571724024242962,18.39372374674527,24.561473029647185,-0.46574206553632946,14.33763000062085,18.727566614130343,14.89987461797635,9.90844147254197,3.5048230752326544,13.513777798170985,0.8574125010530376,11.341587812827877,28.652417395198096,18.36429867677307,14.442598570028398,4.72167330104883,13.828495021540169,15.239748593114093,-2.3088073371140188,-51.659238648192314,2.8216721825943227,11.848180355814936,2.617654397416792,6.365656948343237,15.324536472083958,8.494220959614664,3.6757453936306574,16.65418906860899,10.676541561443415,-4.828772066502787,18.931058707436225,5.464288600703882,10.391450341173949,9.187390799604062,16.11828310952527,14.84338547014931,15.690734043907186,14.608231961725073,1.0740078165066929,15.193599165607134,30.845617848844636,0.7265981835646017,10.591245198397951,9.536255868898591,11.612420679829953,9.213359560567534,9.358393612211458,3.569811787930332,2.3128515915411216,25.73143362822427,8.305770987741433,16.912342573985374,7.577425766222202,3.6561038239627646,31.365374775087275,4.80881194944589,-0.3930082349958479,19.43563281177765,15.624669440756179,4.378033885185303,9.311502397428502,12.472047406749066,0.0026097528514575363,12.979373797581163,15.689584050274847,2.9876434377941226,5.031275033036511,7.445059858905135,5.83972546860652,15.350966614938987,12.467640636912778,14.208059999577735,11.543572761207926,2.142807503507371,16.842178687231826,-5.161615398280494,12.690175725048814,10.871532831446755,5.012583623712684,12.493686498886033,10.407078967186289,10.13531442732408,7.9158478939889765,6.559353801033597,-287.1343006435484,5.4861450929742075,6.456098495736391,6.610775637588623,8.874124424380666,20.59090187726473,-0.5638889857613512,4.035194340193383,15.69237427495525,9.965574174346246,-1.6541486203542752,11.432770825177496,4.6440891000937325,2.7210579440296723,8.461182179756046,14.525377328123852,17.00350131846511,15.740785391171682,7.7184332266638975,0.05812624799888563,10.513702597676946,29.444954748848122,1.298344779073124,7.877406085979504,9.711280602084287,12.427966838779591,7.784490205572211,8.159390787949043,4.8134704417508605,3.489294624144557,20.624245046060857,7.36678420450117,14.294355064157775,12.740410651496228,4.41661307890442,35.26298779843415,6.068071471326157,0.11227947178079598,10.493420356851084,14.769879160084091,3.7865312676861813,1.9065112157869497,4.610198858501804,-3.8824317015221093,11.297885386509753,7.659083236961454,-1.4150328548989268,14.528376726370391,10.702838777087042,0.7652032182375138,3.3579382175224715,14.693386631326483,10.413479948032037,1.74159375236425,5.487620463420653,18.403074306384887,0.5215462574520898,2.38471080970227,7.098411313860345,8.694639648493371,9.141687734169956,6.316354269012631,6.913784724411088,8.98564535689004,2.389318789279474,-285.9306853199381,-6.9249781687657626,5.189997254928026,10.739555128912894,1.9586668495050517,16.800401862187744,3.838850823504591,-3.172868279308287,10.428784463588466,4.576521312695791,11.919347505714217,15.828727670738765,-2.343572028158572,10.97742560178637,3.133566165441878,10.444747255835775,4.461762906081534,1.0965700545683355,9.14003737877657,-17.772115044717374,19.135018289162147,33.508938270656586,-13.587811884909895,10.540126010000977,12.742387367044799,17.030079748594165,9.828527393288006,7.3182066511310415,-3.7209983015850914,12.363842471052976,4.456020019582387,8.324459095010676,6.696679667367636,5.196433393112078,-4.49256897381405,23.854736063017953,6.0174356207381114,-2.4351245108807245,-0.15825768747351926,10.879251753366315,7.758043726549575,19.359770872175204,2.905171771375428,4.790777924078387,4.75015752979371,1.0301055057328372,3.151902502598894,19.297850785480875,4.430963373808711,15.290197355834602,14.033210366711073,10.060435293544938,5.919346425251291,17.078284759654856,11.730730765962834,12.924680715939058,-14.567473980181566,4.825021024485485,10.693976177788386,0.13354790135404082,6.076640168531015,-5.067872266675377,5.820174651029912,9.397074911818029,5.223039913624689,-246.05613386424758,2.954749017298726,-0.626164315050487,2.826862509793596,2.7250981478192404,4.880928656256516,-3.332822701524037,-5.77099340402286,-1.3150898776462276,-0.07136439906072253,7.825652812257673,11.433289822998097,-2.5050101413322428,-3.4123267703392233,-0.5251214681640709,4.112635650921282,17.319991727533857,2.139691090492578,15.062502903777036,-9.22480099613333,19.253114382914006,22.616968564152106,-6.6267056294161835,-0.5106303167288454,2.8300130425482517,7.529486546064331,-3.056392825555178,8.716674369162993,12.82278200615457,0.4098146209116067,9.253701153257254,19.496214186242472,10.008109042924302,-7.569690819683535,1.9270382079939261,33.726878090443414,4.928692815385957,27.507026397039816,7.502545934304359,7.994745919063539,-12.380926759212988,-10.195598509102613,0.8204956155142156,10.661669547400301,14.077478478685489,2.847205407070939,0.513744254860086,10.680443907291668,4.11344018311107,-6.638699493121268,6.981151958543051,7.531920736887909,7.449224719524879,-2.4842613977824852,-2.0020470427065327,6.138479454644826,-6.963879380991343,2.593148857181535,9.050313810891854,13.13632585885407,-2.418094322807392,-9.424984895289292,-0.5544943672435277,9.114805463961703,0.29067373334422675,-317.5522957320984,14.73760543884471,41.94897304692204,40.5741111347261,-1.350442353128146,38.41497864842421,42.56957546750736,11.823388845473499,49.42679965771151,37.78106774160014,15.311189382944088,51.730476033244706,50.285307746911656,37.24617496608948,54.59414463671649,51.28154256612212,47.68736094397515,61.91888960731021,39.52571720639353,-11.19958590294776,31.26537417473824,72.11608502289006,-2.1970140083913896,47.7792931021631,38.90748967875247,41.863947364387045,48.66517418722982,44.45155326338013,13.810575818307916,19.018441779386485,47.96911375427618,25.911237574571086,59.50259300891659,24.090926255282803,19.121167233384167,73.52439310982801,48.587373394596696,0.29204338261736684,46.35018596978912,62.120762630104736,30.492045958478148,45.299605166132594,43.74787026199375,9.697200654073717,65.50351456995038,47.461538229473895,18.113995501501254,26.93602494981313,55.092118835038605,11.290677914181533,39.18304778200641,64.61559929503449,27.603556469496173,45.14789409222919,32.33008888737574,62.99182975963724,-6.91630335540554,63.845850762533175,38.31010114441707,18.320845604472623,43.23929922418078,24.884327479750958,39.24813939988919,48.84632057746924,29.631578274489076,-142.5020279889252,14.530780329050367,31.443147492190295,24.922878120687344,6.610510025165514,21.64441424241989,18.91974215699615,3.189736157053809,26.759470743955657,20.777212772073206,-0.5523879674709612,37.317550412414874,28.84549381576143,15.637434820004973,30.047005760427673,31.796454050102707,33.00713386104865,40.089540115512214,27.692397914910686,-9.453593850397867,25.45607697224776,55.643633973221625,-0.14690951499509186,30.909569108505575,16.0816155134268,25.180659614968913,24.216995064263834,28.478840963166572,23.122344804935246,12.221103487080887,40.49104621558645,6.927478722083822,40.92768717327986,21.588568749772367,2.7534364408124365,54.41613383232365,31.69384483045043,-2.8096043865257405,39.010393718326974,34.27970008692543,11.605064171704544,25.824343085879104,27.573039196785402,2.3496341035402324,35.8537455697632,23.456619269542447,5.1363171146392865,16.747355389940594,34.40122542449254,1.2922639108127267,25.934544365289238,43.52520136043739,22.26234907108845,37.20018217658224,14.58871003897106,34.56076373960458,0.2675148742668228,37.4589133734992,22.05323238207179,22.95634962411704,28.920604601560918,8.784020066433273,27.869492010351014,22.758472284361524,21.05601704850466,-61.334170491004,3.70608167045833,27.207305604092063,32.22188817694926,17.56187204122677,23.300348694717755,23.052662503971053,10.226988790992737,21.437599283653828,48.66332727313534,20.650678943175276,45.7861646935729,48.4492071185985,26.986536489264118,49.6620160126261,37.60929755034363,44.920351458476325,46.55489330036743,12.796844309628765,0.3021655822289485,12.089498481091638,62.008146382518795,8.264995483712557,34.02390598448208,26.97979812107084,41.00399963627497,34.17272435231219,34.94858164156044,9.130547198690994,7.796040711371327,49.58499028254141,17.15897387054209,37.98229656422362,20.05177667017484,10.644155447420594,50.40284102990677,34.1451464188504,-5.373152569416743,38.27969576095579,54.98259806077154,13.301485316135919,24.211243950998586,36.63370546816793,7.016141525676826,46.60428963976536,38.169915138166715,15.638314919985522,15.260132498935972,48.820671909717156,6.2243898853841335,24.37194032330492,48.66532809424505,33.25941008090305,41.927460761556034,13.362235284417945,52.740482175224656,-4.087396299560112,41.3394239134546,36.10713370913902,1.3554648003208727,24.34690958147781,25.521496501864053,31.4382597610907,42.17342839556904,25.692381211772837,-185.1605153184818,-0.7571556573142403,7.964335345693403,8.675114116518298,15.54262261510967,10.395789081455826,2.590278544680464,2.127685769382719,10.348164883176011,10.338130459025356,3.0199812123538115,22.639301644224854,7.85632265920512,5.719984533859095,10.763087490621709,9.684855661678458,12.702164252094144,4.388137517447772,4.229683487328318,-2.4881438168791736,6.897576287707478,29.56489237244024,-2.9469381895494124,8.34906443222106,9.820493214974302,18.355505457704332,12.068225117554089,11.188237977507379,14.864162086433407,4.648799561466646,13.506887127777544,14.081568053247437,13.753221698295173,13.541734133136078,-3.8710390209715038,28.192941828407363,10.841506835584115,3.965738556804176,13.902663029649581,8.332623078512762,3.2194620100174296,4.434603091246895,9.625121347152369,8.244225307273782,14.488680562888781,8.267142014177804,12.173833248925067,6.7965088268298235,15.227997223969536,3.251909862235295,10.341462305384512,10.205075366315707,11.55398502691723,9.915238980385132,2.9856233071110885,11.55894982113064,-0.309533687526076,14.812892524568783,24.35811855160942,7.003849418483646,11.693888296514535,4.304788709275176,4.971324834212419,7.915061161310419,7.214343656791955,-269.4926402804206,5.558580573851826,12.859239105966257,16.960195483110823,18.599960481790493,17.69554060070765,-1.4348547377480232,-0.2559974290462653,14.445828667286147,11.02206739178242,8.507629449334038,30.634484775539935,6.869377258022191,1.9060335678530649,5.774746775065127,20.13616467253679,37.51566625965779,7.830091433350385,18.921692825582276,-19.106482242955153,35.16011424746053,41.99147132991609,-2.5004283045615288,15.454114117521408,16.233056237501344,34.07207987893187,11.089131581960794,-2.0228022633699063,35.94435021552345,16.3869651941182,8.16406302109637,25.58797115596454,23.057962427787892,13.371840538427973,1.3733461120869443,55.47639344243019,-7.639005055332159,3.2565225565713027,21.767144407173785,10.808313411610603,-13.147651236172676,0.5669976919240369,5.727259076211611,19.906823012902983,12.51857491312466,14.048499583778202,13.64482463425264,17.444561663587706,18.956400731332057,5.338186320336452,24.131181695154964,19.271515164593506,13.803565971902556,18.021806767357134,-3.1431867316714555,1.8882509364152091,-9.92489922992137,5.416847008462748,16.610186681538618,22.56251681897937,12.09014521920756,-0.08407277931803628,4.274410651134169,12.502431888479139,4.433165225195269,-75.15502517035563,3.5460786969844604,9.826634299112353,13.148200050576218,-0.26333393457325405,5.159718698507235,18.390158222840896,17.8975622343429,19.090648059401417,25.927547168033414,14.542093772274459,15.961244635582213,33.277883045146915,22.567276744095313,29.38910924896264,10.112071994817205,-0.9536591600050489,16.789403521851124,-10.358613190971802,1.4290229654018072,-22.378001248971405,30.53584405759025,2.0333995507938987,23.368578216534797,18.28638998762776,21.54617329317456,13.871429118046699,9.114059163725608,-2.4452100717936007,15.831348032358047,25.76601209289295,-6.127030860047673,16.75754068287329,3.7450615949162396,8.905285522404581,33.23544288182952,15.472070800474052,-11.155826167959344,4.008280280550069,21.742234348203077,12.360019469284042,16.198777167683282,3.4999796085754964,-1.9872269060020291,19.413629885418395,20.978014212639454,4.734107256944101,-8.038873966637922,19.896868392741712,3.409655178184139,9.282932205870035,27.17972400600621,8.935995458071371,23.87104893624614,9.316827140348398,24.425416528403655,-7.214566088885289,21.934038773809068,21.451374721822255,-27.591685674934464,6.559607092875598,13.69382757545149,8.315470936228168,28.19616432338822,19.42353987395294,-476.57286709630546,7.498955465989141,10.80716215602848,16.589348382914814,14.217282070650272,18.51980748163142,7.403888497183609,-3.3018869214654507,12.202241392460056,12.46860358922445,15.925629217509483,27.494201020669767,5.166327700914272,3.7980709214817083,8.401794423767182,18.079371428948168,30.343864377392062,6.428436033922493,19.318070790593456,-9.203525503047251,23.281863663364803,36.12091175276501,-3.3338828607892808,10.93781902326939,13.025572337864912,35.31424004533155,11.405251132683386,14.695519855657746,22.47512359200295,14.015015127671095,16.8852276804146,25.29842568234913,20.075650179901462,10.881314605071326,-4.180062592400661,48.03306542980637,7.88594669112192,1.9575582647056615,18.437572992982396,12.086107182308972,-3.8429681259242274,7.4327535024145055,10.446672411328231,12.490795685298075,18.5126816399346,13.787576803088163,13.414753489298,23.56188858026299,15.307255334260384,1.6618235643538553,23.724191947474853,18.086156088107614,9.084180376747218,19.531064126022795,0.6188369230362984,15.04849660236546,-8.667535304315823,19.185997146757963,14.717190547512766,16.523007837339946,12.202874319239424,3.689431556029854,8.217524441289537,13.631759065764697,9.159739939255056,-31.73070484652239,0.633611472472706,12.555650181614384,12.174763041921556,9.795516902369679,23.130762555102887,5.814316368674103,-0.38311349769615477,9.421913868525149,19.954688360554552,18.782121665898323,29.547888785494376,6.549622306662582,7.8277136338374165,18.58754350912322,13.653492636780301,32.119256081709594,5.075194341391184,22.150746174871163,-4.61214078985363,29.759612646398278,33.25164084766471,-0.3506047252482165,10.238373836198278,14.323936212016058,23.9534424344522,8.9663980303252,20.65928696523554,13.928067565379132,4.804971329725802,22.77991010920315,17.919592106360643,21.05616582173702,6.4191075840737675,-8.600934792018364,30.332626442299983,14.389091813202894,-1.1000635040952456,23.646939543104452,20.160927908468118,-0.5481147912620277,12.320370263636963,10.412566877333534,13.032945936533025,21.758449679022167,15.563700532804454,12.776934788736241,21.811520750140577,21.445948010284773,1.316460972614478,21.37611605363216,22.319908125740103,11.010757181209362,29.802276225423803,5.4560666568683125,17.72208231596606,-9.239283598363931,19.61932106326844,27.6770446555118,19.32897467715539,13.665179792320735,6.109806785467581,15.734028459876109,17.033991986776563,9.896653104435021,-63.42463616220933,3.5961752894663155,12.639859337809634,14.566641505041328,14.75682996786864,18.514677078842855,3.6270704388199535,2.1827281695407863,15.75885178802042,1.642829940642505,15.95036323553076,17.26152065124067,10.332947914548427,11.540198104955616,9.324572757168612,17.75641629859987,15.654083957357152,15.38058647194758,15.376763810190722,0.7663946974312638,27.02345662482229,-101.173084586284,0.6476791793501189,15.472173079011151,8.22448628600464,-70.52001091903394,16.011416884030098,13.326270280447895,26.807316683265096,4.379645123751474,13.665730101762275,16.290541659831636,12.584009386073717,16.72245428553438,-0.04726433106358838,-8.477731093764447,9.33981867534826,7.681583305440244,24.67879776780577,18.678336060758195,-24.74698150596335,12.856935606196492,12.065382920890977,16.693534896475725,16.697822116167206,8.334502510160227,9.02568758836122,12.939149270625174,21.753385172204307,4.148598156264196,-0.3052351979659441,17.983305965213177,-26.45998913261554,17.197472315790257,0.8535783436816853,-36.562692261558084,-3.2189428990516875,5.54003699242305,17.741765344555763,12.904294928823747,15.34470717786635,11.665030368086008,9.930408231351473,15.36263393127032,9.430884184526318,-45.07158128942058,-19.84258083436191,5.611878623313918,12.051922283381867,0.6995244111484665,13.012482052239541,8.26354909788366,3.279382588072836,16.242218344861843,18.98687655022851,22.026947300991868,22.71609779694702,29.447445542862916,8.682886843300954,33.5079219587216,14.02752966877482,11.480271271200099,23.142879039113716,6.073869811979693,11.45735000159449,7.3098979923319485,29.767122960791365,4.821207249635751,20.389166156237117,17.445089216090945,20.489443377452737,17.813085639420734,10.541637535588407,3.8644697985590653,8.481123047801052,25.167699761211544,23.114125791858434,27.63124472969862,10.367552759889838,8.859758861506583,37.861970997733295,21.850995424532694,-10.965469856690403,2.146042846009727,27.9273380546273,4.594628303465299,10.505372794624996,11.989918842175138,20.473634839672844,30.574016642220133,10.109770612112357,7.181654259219606,20.47876783348189,8.164721614308517,5.242071822714343,17.097324136449053,20.28991071723577,23.37556432073222,30.03471511889595,-1.3972827588326204,30.993141700690106,-11.944267989707736,26.122706524944558,20.27088065726181,-3.5087336288872026,19.80228214950038,19.612163187437226,3.413147965569713,10.153674170072264,11.509308837964264,-486.2153675386303,4.903895730193489,19.618366862624985,17.27393254090089,14.89215841640137,15.649164592945898,20.36938729808722,5.005293838376065,24.45648678262421,32.1178570451168,15.450154434844881,48.67134759706923,30.603021985248866,19.31677898190077,39.18576932081616,24.630606532601107,15.98616629495447,30.587366569585004,19.480445131307512,7.027533620491586,12.938396189253309,38.505919703046665,10.356556195293775,29.913151910892374,24.70951760598667,27.953665179261137,29.31872770518843,24.696975476666502,1.0861019440607833,9.771767891319955,40.10820354750475,19.921063082934737,31.455705138414892,10.53637630618672,14.405000521259261,44.21429962107654,26.53204984431593,-4.702801257134057,13.455066968030795,35.004400951100365,8.563550017617475,9.95686618208767,18.066289479830473,14.507272339015296,40.39725140461272,39.42908506947636,15.919205630635853,2.262255221421063,33.81096171155597,7.689606888259696,16.90412415818454,39.22070484724609,30.475100976128992,29.53481797225287,6.396764971948125,32.898662305219716,-5.769911520421751,38.10332760926829,12.722366826369784,4.958358720733029,18.727529882240972,19.766825076651305,19.458343717084325,30.507417088153097,18.245950203015525,-437.5728256594705,-1.664352277248455,6.855989262125682,8.845783978056422,5.939179886787923,10.379948463633982,2.2333760870204555,1.1939843782876634,10.762862440724856,8.622410850856223,1.0388360901702711,21.160079874686364,2.9886110182852073,5.728874602204591,8.655933582968785,-1.30565845826,21.348295256210733,8.143186485066671,15.993075328604716,-7.781211952088316,17.00414423087875,28.821427421230073,17.014366382931826,10.457477736877244,4.466941119341976,19.963664834985586,10.394034251277379,12.107356017509623,19.07837946134226,5.291088288444555,13.485709702488167,15.420572826913464,12.531553078096653,4.211328549764713,1.1863246755970214,30.722700729865796,10.567415605077978,0.40573752546791675,13.463791831820075,9.587693315542216,0.7534518605138291,5.549252392900037,4.685027388394565,7.2532660362469485,16.368897107178466,7.503728966319954,2.594197115638262,8.838080481006243,15.849467687622354,1.7121640844465724,11.246710781290734,13.017817602213448,10.723822549802712,15.687671317370159,-0.1055081301550162,18.30136788897705,19.921033534206515,8.229643975106532,7.2928771299658015,17.623650355056952,14.737743150198597,1.7819026915666059,10.410324716494914,7.916690362445754,17.8526458966975,-278.62628907738974,4.618315968081402,6.942591419733467,5.819232000674301,-14.738692787715047,6.926141769389916,4.711744481692355,0.26932790468205503,12.346797084181585,-5.23346222537147,-5.214737656017619,6.234442134027097,7.050099064701332,12.008174523825058,10.241513145161454,1.1672388085903962,-1.1972173455318544,0.7435952196028904,0.548794265840388,-7.0367620403439854,-3.957069787376436,19.589340929293034,-0.0618505568448163,9.416520661426688,2.0744010007994826,5.732687827354899,0.805503655205541,-1.568480175319038,-0.4750738269772957,9.879997401083106,3.6680662272069573,-7.975151358915542,0.1285480135869303,12.498353449966734,-6.7077670470058735,10.716123758004354,12.256624027217114,6.05906678242897,1.9509914017287415,10.083714237782175,10.40280876251274,15.850512888624365,1.949133588093662,-4.679480377139142,8.784557545728838,-5.9690915107886715,7.720879187281415,14.746167238639153,6.2138468273622625,11.472677735936916,14.217257480401758,2.9778572470008373,-0.43884510626490836,6.682399200728784,14.042987381278468,5.539330452697225,-4.295312347542793,8.308051814526436,5.846926889146545,-5.338672999528268,5.1807497858731715,8.089787107299465,12.268067594153372,7.962730373634978,4.29724629287196,-462.09770311957294,0.6486303529257982,13.20803876114913,16.333106863339765,2.5418261874922643,19.40094945906194,4.694950327030379,0.6177544089847467,17.682764687769062,13.427608779018046,-0.22677266086728115,16.316386591748234,2.480994028263302,12.171358992529278,13.127415613406182,17.831654726097177,23.746964140552684,14.55782881758848,18.932658604064162,-1.6644029858169245,14.417840693435945,30.101070030770696,0.6120947797625291,13.079839962155143,11.808403110634842,14.927973857852951,10.050726981942596,8.658466951328847,2.6339295246118066,-1.0572345181895102,20.13189774231254,4.106739795581723,20.623772673416795,15.71583858995645,2.6925597196933317,34.197214334569736,5.540952467631957,2.8221564043057836,23.164721651628962,15.74646609464387,6.583214669046712,13.393723810378717,16.59394646357603,-1.2388084915238333,20.370599819625223,14.938576264059801,9.781499408781004,11.32166520263905,10.289355594351166,4.936781947402683,16.542960956172386,12.854276305821315,12.885430003240513,-0.14147204153375753,10.31060940218016,19.420868671175867,-3.936256340822635,10.593516509330772,9.2267577914208,9.843565689083778,13.877069965342288,6.750602260542261,15.154458009248106,12.550593705454073,-0.8414413263752116,-276.53993808651813,-1.9477824016953154,24.316004224581356,26.582898310253547,16.189270594747747,6.688708477579986,1.4966060063997078,6.823594457922567,16.741533333656143,29.31077010364716,16.82809215935303,21.336641666802677,32.11802408931593,20.27093462282708,23.34506260879818,28.244275648226605,30.21332787664204,31.06184051032383,4.646362046069925,-1.2493076690699803,23.100855756904597,46.553398913275934,6.883701379706655,28.202115686232325,20.989578266855972,28.009976500832042,25.255960069779285,21.101079510381393,6.981255284308529,3.529857814778393,34.002717194962784,16.344408522993312,27.103923577195815,15.225565677520198,4.13146042723026,46.14827448237198,16.30350629134431,-7.1397056773812135,18.585254258334736,36.28731753743284,12.306201372125656,13.946197813810295,3.0481824734963476,5.070678268547875,30.486202472261002,31.33779311535725,17.214029350256236,8.48956345481253,36.653046077092725,5.970535388388887,20.80682981087593,35.762184670857756,18.4386303866089,30.423493784594147,-3.3395264830793905,34.235730556752934,-10.444708011042696,31.77954127994775,23.687273003712676,10.025170889617613,12.575501345724753,12.470515730890577,21.636917176706415,26.07758307735151,24.52705189941565,-472.2053470008854,18.94391608718159,13.316347359012815,22.311853038643363,6.4082542151403965,23.09505992236204,1.4056723301436143,-3.266992090841539,20.230764141816344,25.059183226492806,8.931998839361084,29.62254200346204,15.459499307128853,12.755729256716403,17.977645263893738,17.86090709103974,26.184695735832918,11.365790104679915,21.412633133176847,-2.0286526456221092,47.648999438984575,44.19772804619112,3.917182332333391,21.119997112072618,16.867382055680196,22.74363690334769,10.59336520493188,15.215841991423812,17.569138481893063,12.443139227962662,19.72201937945257,11.37183748091772,23.330963351953926,28.34709695649624,4.957617392923843,39.39438078447291,11.011616416260088,2.0278934328808695,31.526924168268376,28.476595530558342,3.7402164398262783,14.17529170237819,12.698380578067047,8.728513698819135,23.494610419870025,13.166775791122209,3.4616659695596663,25.117546917664416,24.87499434900684,-40.94106031023886,19.439665524763946,21.2250408235583,12.800892281681927,29.95139077225209,4.402781631271436,15.041217032831684,0.31587254656444885,9.70380419038543,19.610827443601746,18.83785665238181,14.404373865276716,11.274330313056353,14.639736376019698,15.622360027919989,6.8970729221674585,-38.35275952584232,20.19180563461247,11.774939196197677,14.832294565601739,17.24914907763727,18.419183265826657,7.013691307140276,1.8625660278076839,17.16782800676523,23.46977046116699,5.386836029073541,25.995868170733736,9.099181713547969,7.054648610054201,13.01972610315158,15.772910841528118,21.783215587233887,13.299351303651664,23.2240590897109,-8.969972561609508,24.197116552323735,48.01916718285654,1.1567958090383672,15.067366704551445,16.107524060125712,21.005933529760142,21.906236088049145,15.64292202613563,36.69181835939138,13.555414263175551,20.801164902529866,19.775795635911454,27.793856773139293,2.417925188128282,1.8115152383503847,34.617426272886355,10.253477957401483,-1.2992491272188285,28.123636029024606,17.951378324765713,-1.5634030390727598,8.668175253409109,11.539520622902891,6.82970088775216,18.213771640984593,11.907652857620018,5.319085288903304,14.612986827104418,18.535076099356807,0.8324679518831715,13.314462648342525,18.9413600425574,18.48124604151493,33.27992915302689,0.3510541042904529,17.762906914318993,-1.6666319837230699,19.707033706226056,12.48266311850074,19.88029390273069,17.337034658598885,1.4455308435953143,12.00991830298464,16.910970977828455,24.304506091716764,-50.38985078188391,4.696275448641165,5.653076375222898,11.823382949867005,8.891952755942642,20.041272796748913,4.088032808580721,-2.2329187564826443,13.47074417634345,19.808343550331326,3.6637926247958554,24.39861148305854,6.967706556767022,9.74491862855937,13.251592236644134,11.759617279796716,21.05364559787812,8.010583259221454,20.23235676015435,-6.022225173816326,20.804257572791112,36.9032589771513,0.17341859755852626,16.750368513323,17.708976884497034,15.70484616492269,11.593896492978828,15.115300636073249,11.364241572578804,5.975762077940999,20.16416652271454,6.747882059626353,18.427305346003543,7.807594694169631,0.9395908141070449,31.93455830700408,10.060140364126559,3.296913370681265,28.63413615005818,25.08547284274373,2.4427821079562153,7.694016709166093,12.5250464460102,3.0317028968665936,14.30175784128441,5.911580286731678,-0.36189386800257606,16.54678513503871,15.470672003071757,-3.9875336812851816,19.05567071806393,20.84954231090796,15.696888782702855,27.852569294246283,5.373705855914196,13.174474056111102,3.701049816441951,9.56279732922381,19.90648780291073,11.087795010658366,14.241122063115082,9.517125913414386,8.52036688707274,9.164796456369004,5.4596068474413375,-29.98333755635927,-9.150047466005493,14.46600984689119,16.695472383349202,8.73031668635707,22.997379055456275,7.113559274824759,1.988304655655769,14.097041007855093,17.981599095242345,4.369719665266409,27.19645119166815,10.102324764069191,11.956610341164925,11.882922607892365,20.154178570229817,22.95488500043333,15.144219025958964,19.69169587051517,-6.077106998527337,26.69954824782377,42.53403968339264,1.8391910158479194,15.758301312022292,16.639753497096635,21.700579922604472,14.799091537439084,15.132958449378094,31.270807428720726,10.096671686103898,21.866301825998235,19.839918465170125,26.03178952341888,9.847730485750755,0.12131985924370234,39.7975690814511,10.639610253062639,-0.028589517066753695,23.312273349747485,20.775386677207344,-1.5660168335978644,9.56219903771468,14.98112148043861,12.968639930354868,16.386435923669048,6.210688391824945,6.266073286773596,14.203205365054536,20.360077452586314,4.153091795333669,13.561542882001957,20.064142042665353,16.458260869615838,24.490900255857397,1.1031158018651799,25.761318457216774,-2.661328263710491,17.755724636630944,17.786772854439054,18.765311469285514,15.269792532720363,6.001496412080906,10.828246060658248,15.258635919012722,9.18685975839776,-39.21339948657729,-11.895248980245926,10.841787542390913,15.053444454896935,13.395706597483315,20.83040886966712,2.746306159153008,-14.632759700126993,15.405344971030452,19.186483853439867,4.706141159936764,18.612910394307207,11.565964550618784,6.694827637713189,9.167521283316592,20.7876212769147,26.50316571325125,12.1031102001568,20.42702141241507,-1.435112607831313,23.96294121774916,43.49668750966371,0.3204558319098426,12.051255992457026,14.143538759627559,18.98981817705382,11.879601661296341,10.143033043676157,23.0367639669,0.7642556306266347,13.080997422898403,13.10677334391211,25.61211530406981,12.022138508396804,7.55457393966305,33.23004647836652,5.935605100709994,6.341069531920727,24.3485320212725,10.323289322962053,0.6043330408316754,12.848928192058201,11.732234060736358,9.915794946476174,15.67462114738562,13.174756739286114,11.136540500086728,9.27774988575341,15.231766958195022,5.782857987434824,13.53233783449036,12.7387846916496,12.992375556693387,11.769032179801297,4.090047505485913,20.442731731105567,-7.689165612101214,12.436465670803557,13.301025985170138,13.115627625736657,10.975335652794678,7.829444797728029,12.374541181432749,14.36946696662535,-1.10080730237092,-294.6985631515163,-3.5999745759295925,24.209412480506685,21.45795686936141,18.24351762186285,12.28217878949514,14.54737802597609,11.21271389449916,17.04003026949591,25.17990540779211,11.83771845398113,34.117241066007495,34.20349437128934,25.927547011689335,24.805702172209347,29.282590128690572,28.161137853892832,30.365352742553043,-6.06564314184095,3.3297410670001497,3.383352110502672,49.75930628367918,12.321806467711523,33.64948635237618,11.816871411043516,32.230801672147045,34.18819952666626,25.624670547155258,7.0923668736194,5.907433161907171,43.34649224241569,39.96299685354221,29.383160172742546,17.916237904226033,9.898165493765447,43.655346265223955,28.218503271570622,-7.441576479396066,22.79015175080048,34.42871135900062,11.571627497854951,20.838322494889873,19.74917897889408,8.046213993892556,32.20699774622862,33.40181853971338,18.853458457051623,10.888167425782358,16.571419877419746,13.562450983962822,22.498869074518815,37.560793940318696,31.63073718820897,46.656829767027325,8.254686720160485,45.80377521147513,-4.775414206833041,30.124891686025467,27.79962951735831,4.7357104562815175,-4.741151138011818,16.322490254716598,10.522965131395003,34.34797030148678,22.938420200091812,-431.4011363747625,11.202938097285815,19.236695175206787,19.494443172217576,10.5728516516493,16.025796439261114,8.287815622216787,1.3267628700086935,12.063905388868177,28.49731970525254,0.26067359770226195,25.984083390618313,19.024319608757192,18.92063480169767,24.44733015891916,23.667948881875635,43.399875000028686,16.712809230950196,15.101921822213573,-3.6151116404975903,17.27875051805007,38.782554033061714,4.973241051554479,13.753722882794285,16.2579071273416,40.31990745969424,11.691440538062684,19.3036162401427,8.369089597239382,1.7024222000874834,28.21601941887264,5.344931513867311,17.06303887212901,13.706686849005889,1.3359815381808469,71.81513776206826,8.440380167531758,-0.5672174445518108,29.21665529946374,22.574848537957077,2.8622858830766242,10.095004034950342,12.812115801017336,0.9884682924045335,18.799648748278237,11.756759068153919,14.112864260888404,9.65140729210289,25.34581036801371,3.203965416425757,28.114080807815533,23.340004910444133,15.06300625073261,13.800924132313666,-3.901014964489462,22.399570666282877,3.854301135055358,18.867591531792545,25.53134812733509,16.24022930288922,8.243816427948344,8.633072882097148,12.86790160452312,26.338361434383913,7.1862731278811705,-40.66513516665775,8.365664616543969,9.785501075084106,9.057778704347392,-16.409581435108503,21.085023229990554,6.2907539281734834,-7.615920874709818,20.124759513489344,8.49916371577932,5.894625320474437,10.945030578532924,10.918285385896938,17.93873817228519,16.67112947743385,8.201163756742432,13.162995817162049,5.260746717862327,21.882050469822744,-4.184039322786312,26.764446185713854,24.531974524766806,2.4322099916616002,16.291941035298116,15.582221479185009,13.298321465865325,-0.06488854781412215,6.317102760714086,2.10762779203835,9.158142814416797,15.966070014545496,0.9862341594471481,9.572300842773007,2.449164124068281,-5.816413811242612,16.85853171879376,9.767192716762121,-1.1566940900805656,7.19031488126366,22.97808652542932,11.677644323725467,19.635513101443987,4.54858466386732,0.9647318287675378,16.266162008263546,1.3793098021315586,9.080703821926646,27.563082675233773,10.496105430238632,13.914659593587366,17.173281425724454,5.524208742830474,4.023868540045129,21.74052457018658,21.5747898971223,9.588851889443804,-17.018025868861944,14.571140150772592,16.80368770878093,-1.2656402515310035,5.206142590083661,12.876393286303852,20.768516510877465,22.070555722941922,11.676533968578141,-225.07593918432366,15.02363803465454,18.773492555921067,18.739580512095248,10.77776231403617,16.073800492550387,5.376611125847691,-0.37367307054987897,12.141812179477776,24.55628401988324,12.240959443650388,40.94143105646948,15.831237940654734,12.911426934302778,21.012292537281795,21.553448738440654,27.62742283341086,17.57418843724783,9.43073048403578,-6.324478308082527,18.228073609495787,38.776616042398004,2.9137079675605135,16.329098296799515,7.914437730455835,30.443263256569598,17.362237954941996,21.226511110000832,14.353058726695506,4.173822895213586,15.881992112312124,10.062830451971907,21.959945720832078,17.822387917169106,2.1722435349031533,39.359971964756134,11.815419376563339,-4.682655829274575,29.207297277896885,24.066173829712017,-0.7184165692512164,10.891831316483291,12.022621817673134,6.26626523953169,18.656947294033674,17.1068837321224,3.1364697605696676,17.315741875131334,27.170400455004046,3.311417598055745,18.477882182145997,15.116995273427035,14.35569559055623,21.828607382499424,-2.148452609806007,18.753870084102246,-0.6393435394109765,20.152661779267344,20.462057444172565,10.707167270383662,14.609034078536677,12.92684115641515,15.162653181905556,18.298070313031253,12.469996764580545,-35.43889853089997,5.302778940418524,16.606313777320796,16.49967053919325,11.209831504636822,15.524604538795197,3.9907966757266946,2.0479827619640796,14.496333406445054,14.0063082223472,1.5955779568726811,22.860815624135554,5.205142105072847,12.844789236383319,11.512924151340387,13.962926827940949,18.900011203256053,14.448208238410784,14.476355745742477,5.550883369919033,9.860726058996411,29.761621667784706,4.232267983473486,13.579612439033935,7.396096821223913,17.44085473836758,9.23117041291395,15.303621790981596,5.369626542823303,1.0296117242362333,20.90158413126992,6.5437700270660715,21.857097057552686,9.630437994026732,-0.8746498612845774,31.81493359234511,12.521255221420803,-5.137075277233507,21.814481595297046,15.246394115098036,7.744284144584332,8.855489435926469,11.890041311803326,3.641432642174131,16.02976408943305,11.090772778855381,9.448459451121709,12.10631562702867,19.62208374508213,0.6960941045791399,12.354444189652089,13.236212579172015,10.43755429408042,6.908974508000878,3.232355260040816,18.06347015855177,-1.1642501088474195,17.58805224006919,12.652094959544586,15.569040876249726,16.477870699070767,9.48396078820454,7.956289957678259,6.81003697115389,8.632378740745633,-296.5269711035333,6.9860698505521945,4.847303408533825,7.074379912880404,-14.936884663385067,14.169122869288612,-0.34503563998840936,3.671800963402568,20.066047034960878,-0.8476929968742881,-3.0633092142422544,-5.407036786552726,10.204351027640856,11.368869906530408,9.842826780444659,2.950804492437199,5.238491410701614,19.160027642070684,-1.2690905027592523,-4.582499072333126,-4.70457632482892,25.536432717925447,-3.3756190472218113,14.748525469580496,5.717512645860079,6.969973477643445,9.349134076046449,-0.971533044589021,-0.747487461965015,5.264688322514182,12.13719363067661,-6.420720568041701,5.531120168606125,24.412290963590706,-1.8152805154252327,16.760673143686184,10.059708958563041,-6.666566841595691,7.3602030289856115,20.461726810942018,38.311422194451815,19.525663809738052,9.052849204224177,-5.961843994197464,19.0635738466493,-3.794671750429194,2.0666648402455188,16.4369168876265,13.327518970807743,15.605256394611192,18.231737561925346,2.0298666575653135,-2.693858224739853,6.796781204248623,18.664888094811033,11.4261028379568,-4.18856999805099,14.040650265637442,2.472530530915455,8.021512053904202,11.389440029493574,9.710603170432298,11.031805596324572,8.509782627088983,2.578001529161642,-219.83302301005818,0.7613295711459819,7.704025461382884,11.2447017670535,-15.951847439447095,6.403767629006676,6.5415869360268255,-3.6366774885704105,19.127409035221593,0.44172211912023196,11.707402922733008,11.247336979399345,7.556806803102157,11.15204076144723,11.699731061851237,10.9598956717911,0.9542901707904107,10.010728393605698,13.11836848080384,-8.07168743508233,4.7308722881991,27.15225751442151,-6.787380593048817,11.718322980755042,10.893172410227667,9.820855574816777,-2.106876660768589,9.622657683000247,-3.9735576300137825,13.3803493332912,9.211510320610987,-1.6292173002432775,12.070500353600144,8.642000362778624,-5.401161377995059,16.000336230612135,10.992504562246067,-7.544091655227456,-0.4526505581335659,14.401043287510733,9.30764603704317,6.714628258496358,10.877463410894572,2.7955507490192573,14.919803493669182,-1.7558618519883988,-1.5559993456369492,18.433988618897335,5.628820657652743,21.218521465544494,8.528539045840152,14.781113700648598,4.69169045304637,13.674817869233944,19.72614675269091,9.940433025279159,-11.94489789291966,14.922154039222278,3.5746092017338316,-3.4995267226374476,8.506122430619772,4.28527888858737,14.296555504603688,20.777098858918098,4.518625980656126,-223.09323985462387,5.3140775709890935,0.16298871448067895,7.953817480523042,-19.286330365527288,12.187568168763956,4.114996061105957,-2.2011986093788116,8.460897559845554,0.37179758270832264,-8.193888859418395,5.715094826013217,4.442211573440019,8.696282613179095,3.048453717876314,6.742400349469269,7.9124848267599734,1.1769741989149014,4.995647339951082,-10.380323037340455,-3.313870342795516,25.256187884034688,0.39062698750949054,10.508663300055263,0.26766654925147815,10.256880567115692,-4.885513023047052,5.451751760756595,-0.7720423620510947,5.057795519032964,0.9667762616559431,-11.84892417568602,5.806263373751417,7.6681995402694385,-5.104448198183459,13.212786775913987,5.5410844880303145,2.5396885991241462,-7.2590868821696075,1.5460830476892213,6.627558342358152,15.023876098978127,-3.499752685402804,-1.716299842046574,11.494602771174137,-2.688062132167129,2.7809644905804256,14.569246465345044,7.742278632539191,11.214567228949084,9.13555151911891,-1.611932859891838,-2.335179972586496,-5.710694378443719,20.018572558808355,12.848544140988675,-3.3704171418736615,3.7152126447521416,8.173705075440393,-6.23722478810454,10.316453097407601,2.6670055658505314,14.501613693292578,5.778860607517986,5.24333912971312,-400.2095698475911,-1.7287302743179014,12.39154731484918,6.075748230901043,6.716027986540885,21.886077522566033,5.3179755171416705,4.947666336922042,11.542620170055464,11.397606520485667,2.003627689831268,32.752884443948176,9.032403345602626,8.267693501030374,11.346691311239034,9.975671144220014,21.28818984010654,0.025459641433055097,20.292828519586177,-5.457564326247197,4.020738301462031,30.806213459313426,3.511242143857739,16.035225178380244,16.360921915282233,18.31341413763286,11.39352852423117,11.203565299397894,16.012469429423533,8.411046325383834,15.001114514789231,12.290563318290838,21.767112395376213,5.640994218375253,4.952978377023124,32.33458487142443,12.336861066404776,-3.128887268742681,15.962198040283445,8.678084585703079,0.0006591528152717907,7.639743942724094,11.357603773802014,4.208807713607049,16.464873706261553,6.144319402693131,8.320874042616229,11.798340535846059,19.14277615210387,5.298832779994671,13.614762862467696,18.665479135363885,10.536900480671598,29.5011238747184,2.729814284703729,17.07173827243447,-2.706869993689428,19.717405950949303,18.3397186718877,20.859683597480952,14.297549946623647,14.28251159810716,7.630211109713885,13.291786201610211,7.721431650383292,-292.2011358530882,19.97208110466541,37.996224194369944,34.16212081333815,6.014450643929195,37.79092966869009,35.87864518278705,-3.0134154411092533,53.442091488361136,38.66636727064098,24.440961281726445,75.16321096685509,64.1963481424545,32.36001395222735,63.341677403409875,48.23913490288115,53.53844827477406,55.28679411901749,37.32862310864452,-7.7239607455213655,23.809002377694966,69.637586001897,0.21118764794966302,46.97475389034498,34.24575260058187,55.210974445899254,44.749367710289405,38.82685636969953,22.754468999484672,17.252532878020936,55.896138318936735,22.09643604131704,53.915545769748036,18.08024498572238,11.118638078192944,55.9455532443655,38.000360694339065,-0.6865315866821672,38.23366573786803,61.53952166755726,25.093108021384854,50.86050984511089,34.317224689474884,19.089338412551804,59.899369557793854,60.2863900939919,22.016830118090084,28.217672390556537,50.64295450912797,11.158626586882143,37.48352244023346,67.29388644545858,25.189225892598838,55.52750543978706,17.691227884393733,62.092528283894666,-19.492845598079942,55.96528996142598,36.335358199367995,18.170217283292832,37.27965494666759,19.22926950449215,36.00680485075868,49.49122847639029,36.825594969437624,-141.74216711854288,14.63500627118753,35.856013356843604,34.161477221942924,1.0966569119306433,30.543497037872836,29.745201942576443,5.554296466622152,43.75234820983182,30.605148553304755,16.889569932424255,50.257683787449096,47.969015003941614,36.71106402828382,48.92078079872951,42.70952004408453,50.011479169348256,55.042505583193396,37.02111996354177,-10.175061821376314,22.599317285873134,57.82242888993981,4.481632555092248,39.96337191782246,32.46251766721161,43.11524268096957,38.672471352468584,33.15149769752429,21.971551778698835,18.552696996215516,44.75273747981878,14.629272238436352,46.62770641170264,14.228747944787422,13.01240322234306,54.38668095721257,39.084222151536814,-4.909956689601405,31.703866726169846,54.707432778036356,29.928986757708977,41.008989517681016,32.18089164392615,9.561558001172568,53.94200110818911,45.34090861946329,17.01074829122978,20.282455527975735,52.48916551593707,17.220142633396993,30.615004127019663,55.758075004648376,25.890404124741337,44.6672871051265,22.161702940876307,60.775036161447915,-4.840562374960901,47.99982112589747,28.247015123019914,10.08355636726734,40.42049139015487,17.44167784363984,36.04444954359834,44.78964988714183,30.621650201608603,-391.21785001203864,-10.740265910482126,-11.901839848876747,6.829056719645975,28.539526281854474,-10.13164643980302,6.337897994087739,15.217233776837826,-21.658729005170727,26.096081811101225,-8.75814385962023,5.431478556283144,5.926537095891677,-4.764773228651854,11.484071906268637,-3.4745622830908576,-5.024839875729656,7.296925860945799,-0.47446416674346825,20.621603069343436,-17.426501466670132,20.69405186950455,18.80900641131739,-11.073050282232709,-1.9036130299937666,5.750637637384154,-10.056393515605695,-6.582139507471648,-14.685339125776949,-4.190453384865937,7.1271743869466615,-7.037976953892373,4.170756227131597,-5.059905759883528,17.746888923218155,4.010557307179737,-8.596152472309285,-16.753044110036722,3.282125539111962,-1.74254098895825,1.651596785573171,-9.107548846355176,10.523235533276274,-9.191733298964582,-5.371138048316116,5.491783355802421,7.927839990701675,-25.08165054269648,-10.606516883220843,3.857057213898449,-10.208027249124969,-8.835408122679818,11.455977880451226,2.8130016700558866,-16.974759360724327,12.764587451908689,-6.646958960450815,6.259618101262441,20.09243127410595,-14.606681000429772,-16.24555238233994,15.413944025779728,3.1543783170213984,-2.387655579128065,-10.185973469396698,-422.56750618051865,2.418354679879338,12.271299112276072,7.4854504960223816,3.5595262924775666,14.666010226274588,9.094497108421766,7.422674733852099,8.169503546413644,11.638065890247418,-1.0046825022105832,20.22627434178563,10.807623553192213,11.194990469123857,11.289294184503204,11.140556949635899,18.475682043207723,9.277375477743824,16.286294827278464,-7.981613942640541,14.769928940255449,28.843919741390348,1.5292238003266947,11.121575411819197,11.322595713658922,14.395250958179199,9.541194231484534,14.573650536144052,13.30518867971578,10.768930495519605,15.882085058433796,9.685409876305968,20.057096354090035,3.505608688802816,5.5454087944621975,30.572078631937906,7.3193450164455545,-2.0017726295976965,17.80809960776976,14.775155655394844,1.875741919778939,9.28426423278727,28.695442900858822,-1.1909035304735354,16.832695867471188,5.838807941528801,8.530892986217008,11.00731046244646,19.861907326442108,5.593675347150068,16.453094276491058,18.102498865400698,13.08284279876093,24.906340825280008,5.0240781750280235,16.10264399609833,-3.4988268096328805,14.505883720443414,22.57469680210543,11.736945515582189,11.18476117601197,8.552903222532052,11.560791062746912,13.937139095716752,9.407002557020501,-278.2261919185198,-2.6159231370082066,7.765768236295477,14.856484510161808,10.583252467457944,21.15772071982381,5.854261716249824,1.022661929037672,17.073814847891047,19.05291649981579,3.236946993182415,37.03962061715515,4.371200688240412,13.812752812579227,14.345748593994308,15.945004295611584,33.97891286115742,9.210486736876561,23.678407560775096,-7.7088749771118374,30.855929767839953,33.94710323319155,1.8441679775291155,11.757916051750872,16.204582404451543,22.650424776518275,11.230279572240015,22.234459890967,16.359217290721023,11.3060870613737,24.768732167603567,13.56732176296026,21.281820049858727,4.7936612785337065,-5.811147199438478,33.230382678357955,8.712310251490603,1.9561793697023808,26.51817887795018,22.135648614795777,-1.504528631442486,9.105067963997655,7.628247251889039,3.900424897765568,15.866479514108132,9.163978441445098,13.233145501058072,20.253886517223215,23.174597294688763,-2.4496312206433637,20.992973133508478,23.753976389684862,10.435113281677546,21.063893163276838,7.79427546385991,15.512672381102307,-6.955485378070422,17.54013563118446,27.221100500888433,17.793407519159235,13.95231340028296,3.8167761825325486,14.387390185023103,4.211057739071673,6.579737021336569,-45.685449859099606,8.067104321168413,13.904519787930552,25.970193311348982,8.993648991912265,21.267660714669958,2.927867193297424,0.1724890033350967,15.210624809103553,24.058071713853188,8.672812601342775,30.500020310962366,11.846436841914484,7.385130022476889,20.0759119526778,14.629415877138735,34.74805008878574,14.904957867624947,28.32147476362378,2.902308200480937,43.84814497480971,39.44059745600656,1.1905374305730154,12.093028005920047,19.242679085981482,26.545405300758688,11.649780722713068,17.72510480477198,14.951443706107833,13.803212514250989,24.94613453655862,7.922552159680954,19.089698676927856,15.584020964241038,0.876660906375089,47.87186391161644,4.429891097320176,-7.730960152034751,23.72273395431998,22.956579828257446,-0.9518081649363389,9.940052283692248,13.093591094426422,10.112197157723898,16.690200837573144,17.019886658681273,6.874523455020381,24.033855722970216,19.04255353885815,12.103501142554522,23.691024181024513,19.647146595824644,17.82335102930748,26.910992933709892,1.6052671758224748,21.513900127410626,-2.550912745349473,16.119250935106407,24.003544247451554,24.184070191079385,12.18103523408737,11.042985229092679,16.035917062852107,16.899554028471588,10.352595651115497,-43.14642398064437,4.038881144997125,10.28529055063508,8.161074720799927,1.586950103543415,15.224561132601297,-0.5921092674496227,0.05605166015676452,9.23023034379026,10.757238637731737,4.919123460519583,13.437372958681568,1.7952168959942045,9.40380987911394,8.430227224137933,6.085662760469419,22.214926543120452,9.736671160793815,12.873885661232288,-4.365799253817003,18.33479084306665,24.08436958297845,-2.734727757933331,5.131704086068294,10.969575658436158,14.140125116506097,2.6978160680674774,5.949321988277301,11.030218290234956,5.549632072728977,19.53066454120547,15.178602698094696,13.567446919697858,1.034216123800209,-0.4059604397846195,37.08308102536818,6.100274241241876,-0.12933732266503958,14.328016383994113,12.341206575924137,-2.449142890921629,4.783033130194051,6.314603888896061,8.27211915585119,13.257277654638782,8.083955410172369,6.914140015933083,15.909066454593594,10.917719387779334,0.6812141476793169,12.730801747938894,12.226899882875143,9.517296893065163,8.853425824999233,3.1991922432264888,18.48917760374301,-9.009293557220179,12.692158491052222,12.980552615661654,11.176814001057195,8.910193121188012,2.568792817327003,9.720326976329611,8.08977225804248,3.6937045975868745,-300.47010776156804,-8.0965717756958,1.1012332187347988,6.5615988405026275,11.530332999095075,2.2256802542572967,6.208283291191319,10.857457973954764,0.059273225100199584,31.57057783390762,-1.5821280123364083,18.07815290988532,16.969419411118253,-1.5044718044873684,23.03069181614049,0.5034307069461087,-16.869081829721686,12.732376223340879,-11.4669226238349,13.933290232926327,-18.864007657932753,22.02803424472943,-0.8181064361444126,5.465246576508173,5.364553600367857,6.463575343491764,8.320551473301594,-0.4043038509927557,-5.352509304542586,-11.57775928886256,13.836426623166734,-8.82590523436416,12.188571297264296,-14.855871124709703,8.573940735145015,20.263528087502433,4.775101546868477,-7.202599488016817,-0.8839290560553993,9.755640470225632,2.599975834162189,-0.7365348490916773,8.082395501761809,-0.865208719286213,13.269989286736118,16.197932687328745,9.115109454129652,-24.90071529380229,4.763752624398809,-10.943946487700954,-3.8328773348708984,3.7745114001676234,7.394488811759643,0.2552915904336047,-9.485937881917698,14.285708234037479,-2.1872505181399293,15.18255790093599,18.436057577985046,-26.05430662635343,-10.459458041387252,-2.349481512617244,6.93190220246939,16.973046463089023,11.511530949198077,-550.4412394242869,3.935504104208479,24.288523935443674,24.204321581406436,6.898318705971713,17.270534288851508,13.13666728190597,-2.347481905256763,22.27297898956424,23.41767148916116,9.911865502389055,44.62832418294637,29.936935912549544,15.511191617062101,28.016534233289022,21.776397784473673,35.06292874231471,22.620368751587417,27.242841077792256,-11.937672466618586,34.650615792278934,44.40639290884622,-7.6901991435525385,24.247543622165548,18.082636500274013,32.14735994592412,19.324312718925615,29.37477793810774,19.323153961323133,12.675537643331666,39.6841282741811,20.15236648032451,37.45547102906977,13.470364851626707,2.4780245921755375,43.26076079391568,34.03520185241988,0.4312589591784879,35.43263706550273,34.749228210743496,6.913006142895417,18.057436643738132,31.97753340504509,5.627027555727667,26.927639863479143,25.911936620544356,5.142396684154742,19.7321190123531,22.599513577122913,-1.1441920422030476,30.333273510931015,36.86554524263841,19.383178124743687,47.540123122338755,14.038442125532466,35.084692164586826,-10.401612926102993,33.60791374296815,21.807691635742806,12.990847437308942,22.20176497497141,9.621132157928747,24.859698915831896,22.70960664268507,18.79248246442161,-63.35055614368786,5.102458093489647,-0.7820210569765995,2.6829265964280116,15.13981073584523,11.40567749200482,3.372517916491715,5.647467041916987,5.799444335996116,11.30751445173672,1.558281222394435,21.306149432116722,-1.6718710690805527,3.7675553424107666,8.095267458518228,-9.285964438860692,15.966369954984097,9.736461695746174,12.153116957917856,-10.877505645643453,8.594949206017267,31.129185152468704,1.010122297927695,8.177469238842141,6.944728067165765,11.518361305263761,12.906961394462968,5.1038099372094194,15.123423439842362,7.805351698646718,21.278815640429173,11.407912782896755,15.981086266108324,2.2602257368673024,4.222028637980682,25.30385394950271,8.295742441606047,3.1468278918426167,9.76868784156375,12.503717145142426,-1.3639296081420085,3.661234127464137,-2.7018388995974605,8.327053939836565,13.555461140499531,0.698657883956819,7.968608625478861,7.397969332853541,14.031460686283289,-3.1780675936306677,7.484414792247131,4.301801824161312,7.549756968480863,7.963647632633256,-3.8978664577949975,13.140377903366943,2.2512968551716614,7.753541928417269,12.458371770014063,9.067982429476835,8.305553029348378,3.0713314374616263,6.653657492380391,6.888045953097954,15.577672541174785,-305.78931508204613,6.653411412002824,26.05541918157866,21.502743306737987,5.7360154500927765,21.96934630634376,12.216465754661941,2.9721127943862524,30.012108766637496,14.620399303977043,2.2644113948257365,28.425613909758372,26.52378548200993,14.997215892416946,28.31024164536922,22.55674177500478,30.902165141843515,38.12565632386247,22.77395643776588,-2.3069834635467195,32.55830011704268,35.93167031883867,2.959333479695054,27.299161326400178,13.103434170454712,16.658887803133116,19.116713123605052,19.55937811851056,15.122434687362185,11.311879309878414,33.980857786870786,10.610993870189931,28.389083017185047,22.0304836072179,0.06512953739911728,39.53066124338827,24.51452277874147,0.9448142792596902,26.476524729845153,32.094050879596146,16.951838321397705,17.8463725679409,24.63063701062288,3.3851314485496027,31.780071358039326,23.752631776607732,9.248335293149667,22.460311519824277,27.716749098523476,2.84282408590689,28.67173510410063,32.04703692966015,15.605765011471519,18.20065426395955,16.600367789318888,18.880153923799714,1.0621051114998763,32.62800389845441,18.50065773786697,7.729439653782206,15.741454703809504,4.796670611776262,27.78804884402894,18.64117111221954,14.30217196339352,-298.3751307456801,-5.751696214910663,-5.735232092375333,9.646458105769637,5.366425292762537,14.138869838963886,7.994953882314522,8.38157090520478,6.377910313299609,15.531465693319843,1.4339787130645965,26.76732163639545,0.9112787069881404,14.229724335633334,9.76758405862805,10.664903321789112,22.82743942661909,4.346811593673064,26.063738370054413,-9.097580082110056,-1.4440875019047597,32.16180447023343,-2.355223731427563,11.544059228920904,11.032033309176022,16.27168668379831,12.368574615284901,6.249778825444109,17.1924103738437,13.856997693169012,16.931193341267278,23.3552929066275,5.5067639683647345,-9.538805427293674,-5.656433797612762,22.21753992501677,9.267362180438083,-1.5296975700900992,11.567165541746936,6.759531652267638,-3.2904682847925204,7.210419587723175,9.351920019040044,10.968033802358816,9.013560038765744,-3.052509296476979,6.977087145660657,13.885671925311994,18.679890499948172,0.0963247593961912,13.290427670647254,-3.362784202313964,12.571335515094349,24.089742393028683,-0.3090662873362167,14.817162572460132,-3.0980841284005884,13.721394500942994,12.936214739184908,12.14672338745028,9.516684892305877,1.2239782284325282,6.814568101955551,15.11679452782361,14.776320789724192,-295.65220577643555,9.513407156812722,-1.0373177394992577,4.963456143821433,-12.890036377752066,5.839526007864789,-8.846346232181272,-3.560902183415737,2.6393619761968345,-8.49177985939559,-6.57508534348204,-12.589681413942463,-3.5960218306996268,-0.5283520540656704,-7.2855198466119875,-0.13082488955936178,-2.32402545073295,-5.421372496147381,-1.2601767493293101,-4.9941333658377065,9.85670972321526,12.537693003569444,-0.7649470668351966,0.2529875511273917,-7.206440265819264,4.471620816492523,-9.858531121732245,-10.465120731030392,0.34034714787437803,6.8498453128173935,-16.22309318052942,-8.380330103470689,0.941152405151305,9.220023568109017,6.214010167398158,2.278452816145224,-3.169584693026888,3.772716129070118,-0.2366822829009155,-9.4395691095346,2.4876084520067896,1.4474471619583116,-7.826052727468732,-0.47966193772530474,-7.9424933574659216,-5.180437425612129,-7.255005239146321,7.323643879014542,-3.6296756718436622,5.617613300305946,0.8782714335519934,-2.925926735370074,-4.255823547213155,-3.250635019728148,3.5009981597602504,-0.23551929555897408,3.771038651647225,-11.232712074486463,-8.710422798789553,1.922187543379624,5.46556861332365,-3.860748497559397,-0.07916460918310578,1.297728187205951,-9.507454710312624,-352.4374110881019,5.681998256852383,13.274941964360915,14.767464680511898,9.449644360642525,16.047131296652807,8.211338577866119,5.162949222207497,15.40213066182725,19.655726963807492,1.7149405115178538,35.884685044136944,19.033678286078175,11.342149751726902,31.3503487618673,16.481003922757907,23.845818712685528,14.499292853086466,5.707554142877045,-7.300184443597478,17.538798585951785,35.86007216732536,-0.5337022365247447,18.730940216801432,29.399034985242444,25.29591396696438,13.432420223825098,18.888123979774885,13.300755153411126,8.314277508590903,25.883681453745385,10.06665075856263,17.419891457174273,17.62131381674092,0.23067641128728242,37.15360579135464,16.87206356006905,-3.3609391080533038,28.701115295534464,19.15667171344556,7.681270415421346,15.347685570842767,12.37209029407298,1.1450398471482166,22.220665865874004,9.727506983583703,6.4546775004565715,16.73089782590336,22.120678528478685,9.44921674324821,18.085166981942315,37.84334078260206,12.85006931469551,40.87776865727597,3.8996492944750267,24.137073862752054,-1.1098274190900286,19.7155719035846,17.245294242732264,18.841331986807216,16.143719134085973,4.98100297500039,22.53032815390175,16.11806380901703,12.935290458801536,-270.9817690585199,7.063392825333178,13.309142893164053,15.295369565660495,15.854807227821382,17.932871581085298,7.965443807353731,7.270960400609055,12.370713195054906,17.3213927287249,3.9318512031992774,15.74419522570402,10.138366792168306,9.387024899833643,8.275091278127771,19.405635607951798,24.67009530350854,13.071584795739586,20.166133619189182,-3.258221857898782,17.18257980574932,48.72081318261103,2.3642902016846694,12.753925148983967,17.170538437608204,14.357873360076566,12.043705577230524,11.731693334114665,12.37275468613297,2.2116660473262817,23.46226681206603,15.28827482057971,26.560329881241923,16.68060606591825,1.5664898940652883,49.842498488496126,13.798404172874378,-0.3233916101866491,27.764016984312637,15.469678255112866,5.067456147283655,7.005402709102236,16.74978494489222,5.471413072928446,15.735637251512342,9.993474238030716,5.827241656650174,11.193355885241282,17.04666163154846,-5.3193454564530605,12.580233114298652,19.33262667987752,14.740754597077373,20.967770144682433,2.3725684570857473,25.374327624548055,-1.4750940465711655,20.435548347017708,16.576511501836602,15.909413189135543,12.377288276956449,9.94403339277212,13.771608196446543,13.507582311999087,3.529228285569764,-41.112170429490206,5.293442232317922,13.65086175548004,19.179621558381125,18.885567893975274,15.925610605158043,6.409785171829831,1.0641032441364673,12.123566397912727,33.74023171844064,4.151025725201564,27.563364834234502,15.037214284685403,14.340579740910497,22.61147406342406,15.809515230132337,32.13539566330218,14.735190042818715,19.40329307853091,-4.828843386692188,28.535943693960615,48.56337657189387,5.773214104152528,11.740364579085862,18.902993510036232,26.15869610900559,13.559050175732212,20.881255446428465,12.499762622318395,2.140110936310504,28.10752658385883,19.990684607061965,23.80983693707192,14.276041469150588,4.231128643017892,38.01330367172067,11.154148643840603,0.9109928098704861,33.628515908248545,21.833564559871395,5.402989057570144,6.607669869944297,13.493310820171311,3.504223511106454,16.667499578519635,11.991309723113776,10.707260392957336,18.201971091837606,24.31957185756635,-2.003006496536455,17.937579041558614,19.495848472749838,16.654654194935105,21.683610349959725,1.4009977664952986,23.413760431544674,2.3857939001758477,18.191212346145424,27.90407625962777,19.996615306120077,10.323253981370264,9.94672090002885,16.482253997653988,17.512398144960436,9.272651484519267,-36.72475979888436,-3.2095350501569095,15.357912758094471,13.618453075283938,14.243309295634013,17.604943543605266,3.0627559078147892,-1.9919467650773242,13.961989275176952,11.713337321517695,8.186619831166311,27.351977337915866,5.13071763915596,-0.9688328263367169,10.261353743323804,12.903931587037894,18.201787814569634,8.741707342852603,24.305007620461645,-3.9353346572837915,22.86174332179263,40.516910504599416,2.5960333808509715,13.854950561107081,17.334386031857928,19.232769610493985,13.161951506585496,13.585157484159282,28.75512163265057,5.1279952302975165,17.824739784828477,20.19584565509618,24.45964971469122,8.476249139357295,1.2659811485855124,27.18049266468635,11.747434662239282,3.1472477246312662,24.942075253685637,15.781777376554782,-1.7359030190149576,6.722089979072802,13.842626814439235,15.21609999974785,17.012770767432652,14.630382506938696,2.1740451868335837,10.800367028827392,15.20522992741343,-0.9801968671676425,11.241572383441913,23.574141285945107,13.997844986983111,28.06852358606947,2.9852246610463564,16.023023625454712,-11.61832191120316,22.040058411587975,13.647765300405023,20.1225696425115,12.259939650268501,1.9862283612777856,13.037768511170247,16.051084645222687,10.654120283397765,-289.6299031481087,3.362891568741628,9.701554959129878,8.267047965274784,5.3627206807834265,12.808057916911324,-0.06605867606575028,11.188304384325853,10.252477698384695,14.175772874591948,-5.213179173155271,13.602514833477352,7.73477282236901,11.570641645632655,11.35496888809508,9.335581474421973,17.329312449429775,6.096127853255221,10.25105558304168,-0.18814749654625215,-1.1585934680600762,28.97481403951885,-1.5372042392984757,10.966693178725475,9.742015880130673,19.723061898827847,13.642332322248453,11.273837527075854,9.202540245207535,10.468451733525892,16.68058666856945,-0.16870558959122373,8.075996356354548,8.956110882589572,5.148131479602914,32.23476645476116,9.705851431355073,-5.0677717214967055,10.060233983730143,12.408559153474423,8.976094550763342,11.052974080520057,12.296318572619677,-4.166071359074805,14.950806750431369,4.259792846613009,7.911469037915985,13.980667011972795,19.004841312304986,11.603662378601573,11.66175525559151,13.988663203802854,11.214715936496704,17.129227777815764,7.105404892475905,17.49472261385947,0.003322329518139766,13.265880349591743,15.406947699090741,9.194355721449933,14.004458597554573,5.853896902245881,11.98975279058828,7.855483484694909,7.612350408624234,-264.6599659349543,8.042509321927152,34.940770114078326,33.949509960178446,9.427779555482692,23.267736278095036,14.099968067763179,0.23424442426487324,35.491195862641746,27.339538005758573,9.589260618931428,26.193594818277255,33.71780082465317,20.996631360682667,31.715030516041555,36.73912554999801,35.042486267468554,41.13445109541125,24.971357506658478,-3.8143458690816883,25.35739670846491,53.687744458345826,5.384262729998668,24.913183855815223,20.718187995266558,27.13942123978608,34.033824333679654,24.41149693400304,20.94060909692946,14.280837227830046,38.66081886308723,15.677091532234217,40.17983630190733,28.365557171121548,5.665289907238042,56.74293900627505,35.53037021882531,-6.262707796650279,42.95474188820047,42.30301691239404,20.786758968942184,28.886290257127857,25.35260446848306,-4.539610741888154,33.87048087689066,34.82327536442867,4.855080519574106,17.955029559018783,26.678986373196725,-3.745535716445001,30.557050908725056,41.571006119617955,21.264144118371185,29.246753412095103,25.750818578542294,41.5039369668885,3.410647948487916,35.71752460059291,17.785379941662743,13.63935119199255,31.280025547463122,15.788378541486583,27.414778143399776,32.062729596033364,22.184654970314696,-337.54834028769835,3.4010212767118078,17.365048440775457,12.756630129201962,8.288622786277598,17.21653050804472,10.403623199295625,4.767247833990876,17.725742779508813,20.14616089442386,8.358683032770818,37.2728580695352,28.344006198230808,14.677123248184724,33.66128226299687,13.940695443762184,22.895438117367323,22.062873138504557,16.890412053716357,-1.2318575750778193,26.459135773512532,46.982032353296894,-3.6879192960496616,15.120939923710754,34.5482550852431,20.927161165991077,18.646323722428328,14.203348419590975,15.882840224538898,12.097343838700297,18.643833396736024,11.094280353805276,18.71589173200072,16.01715447629429,2.515872515740835,41.84301353642408,17.204566277279806,-0.13878757336482828,22.260254983963957,16.25824671722624,9.931025198966685,16.18041930459366,17.64065151717747,7.995978550553586,