encog,BasicNetwork,java,3.0.1,1,1328573695064
[BASIC]
[BASIC:PARAMS]
[BASIC:NETWORK]
beginTraining=0
connectionLimit=0
contextTargetOffset=0,0,0
contextTargetSize=0,0,0
endTraining=2
hasContext=f
inputCount=8
layerCounts=2,17,9
layerFeedCounts=1,16,8
layerContextCount=0,0,0
layerIndex=0,2,19
output=0,1,0,0,0,0,0,0,0,0,0,0,0,0,0,0,0,0,1,0,0,0,0,0,0,0,0,1
outputCount=1
weightIndex=0,17,161
weights=-0.17955807072287286,0.09696904473746124,-0.14844552385690807,-0.28371383765490366,-0.12183997847225789,-0.12580523679956693,-0.11286076053892918,-0.25783523274387976,-0.17130657044205141,-0.24855019095347455,-0.14055532148373162,-0.20250377384349236,-0.28614040547080455,-0.28984046222316473,-0.09024720951778989,-0.1954297585437947,-0.7497945445785937,-1.0719043801400163,-0.49057156196282314,1.4120021918888952,-0.6972012317091735,0.7211424555378882,-0.22450167064205018,1.481554236481816,0.4591440172288862,0.38299998224653864,0.045210041990849076,-0.0953584195733021,0.14351014828689668,0.06551985698376453,0.15514372337268698,-0.005900316245834258,0.07455265374448608,0.025243393765024102,-33.82170929867794,0.19344799002066979,-0.39591325825203094,0.2062783172555813,0.18256415721842137,-1.8007393809572365,-0.02275074973300567,0.7632380994421247,0.3499692079725383,0.7675920215900828,-0.2705573341538411,0.2644752350925501,-0.4689672837165595,0.09609608608742312,0.5857079975711651,1.5635702848068593,-0.12536768280788954,1.0452052102058125,0.68721071001404,0.6382244427719654,0.6118111846673235,0.16541021833597508,0.03657643780007505,1.2437286061567407,-0.054513003007494704,1.4276475695734163,0.2287015913856004,-41.078535975150054,0.23549011867701433,-0.33888207496466005,-0.1325990851450919,-0.367683025588052,0.8579060702042678,-1.7887875034416076,0.4727301401645275,0.32230977660716964,0.2220109059239559,2.2883556574685535,2.0576362093326366,2.1966804905483888,-0.4802676403121747,0.05440140702722701,4.5925699663994735,-1.6852852324370384,2.4588780147609333,-13.601857935413467,0.17551580498259986,0.08964289696110792,0.32581784553439497,0.786867882992882,-0.07717646385099727,0.2385176020128997,-1.5309777721981899,-0.25251167105965755,-1.5019628979710276,-0.060873779868991645,-0.33723449016736007,-0.12629954445959032,-0.695908254053088,0.33367251356722794,-0.6037397755646786,1.7698188231041616,0.2114792844185873,0.7517985853900698,0.5517952698146696,-0.422694921915027,0.30131227399529914,-0.1279415263798864,-0.3675136335607231,-1.7774651552320933,0.4282538745859422,-0.6032199454016424,-5.362166185582879,2.0999753327551383,1.3307426709486632,-1.6182024960855874,4.570472807416562,-1.044270105883224,1.1880216905846832,-1.548662417779743,-2.461119680742806,-66.18790346482959,-0.10991427892653646,-0.4548691406644739,-0.12635281828703357,-0.4869823618769177,0.006316003241311374,-0.09417832008867077,-0.7337660275399543,0.3068017702271255,-7.244733545524964,-2.272949555532707,0.09572217507093503,1.8761939377149388,0.07415729832402454,-0.024345851624778148,0.16367562634699537,-1.0990426879912905,1.1025940646904195,-0.9322828827833599,1.200421946941177,-0.5661911132457335,-0.8206427828655379,-0.07113205407560563,-0.2728510204700856,-0.1047570586769768,0.7883426186805952,-0.6543555195373901,0.34440340447992335,-119.71460637380228,-71.47240594299836,77.7807694207776,203.0664858872831,47.31023162109496,150.94699323899363,-221.53049796078432,-59.689415065992065,-264.9670490964943,0.9217623318129208,0.17678920372898663,-0.03066290286276549,0.762349182801532,1.0968413947775426,-0.37198853648270047,1.6093665776217945,-0.6220753929008036,-9.594422555539845
biasActivation=1,1,1
[BASIC:ACTIVATION]
"ActivationSigmoid"
"ActivationSigmoid"
"ActivationSigmoid"
