encog,BasicNetwork,java,3.0.1,1,1328574874647
[BASIC]
[BASIC:PARAMS]
[BASIC:NETWORK]
beginTraining=0
connectionLimit=0
contextTargetOffset=0,0,0
contextTargetSize=0,0,0
endTraining=2
hasContext=f
inputCount=128
layerCounts=2,257,129
layerFeedCounts=1,256,128
layerContextCount=0,0,0
layerIndex=0,2,259
output=0,1,0,0,0,0,0,0,0,0,0,0,0,0,0,0,0,0,0,0,0,0,0,0,0,0,0,0,0,0,0,0,0,0,0,0,0,0,0,0,0,0,0,0,0,0,0,0,0,0,0,0,0,0,0,0,0,0,0,0,0,0,0,0,0,0,0,0,0,0,0,0,0,0,0,0,0,0,0,0,0,0,0,0,0,0,0,0,0,0,0,0,0,0,0,0,0,0,0,0,0,0,0,0,0,0,0,0,0,0,0,0,0,0,0,0,0,0,0,0,0,0,0,0,0,0,0,0,0,0,0,0,0,0,0,0,0,0,0,0,0,0,0,0,0,0,0,0,0,0,0,0,0,0,0,0,0,0,0,0,0,0,0,0,0,0,0,0,0,0,0,0,0,0,0,0,0,0,0,0,0,0,0,0,0,0,0,0,0,0,0,0,0,0,0,0,0,0,0,0,0,0,0,0,0,0,0,0,0,0,0,0,0,0,0,0,0,0,0,0,0,0,0,0,0,0,0,0,0,0,0,0,0,0,0,0,0,0,0,0,0,0,0,0,0,0,0,0,0,0,0,0,0,0,0,0,0,0,1,0,0,0,0,0,0,0,0,0,0,0,0,0,0,0,0,0,0,0,0,0,0,0,0,0,0,0,0,0,0,0,0,0,0,0,0,0,0,0,0,0,0,0,0,0,0,0,0,0,0,0,0,0,0,0,0,0,0,0,0,0,0,0,0,0,0,0,0,0,0,0,0,0,0,0,0,0,0,0,0,0,0,0,0,0,0,0,0,0,0,0,0,0,0,0,0,0,0,0,0,0,0,0,0,0,0,0,0,0,0,0,0,0,0,0,0,0,0,0,0,0,0,0,0,0,0,0,0,1
outputCount=1
weightIndex=0,257,33281
weights=0.07558548566054313,0.0601869983304486,0.09804659714563499,0.1128877359404352,0.03987415292248482,0.13270900424145757,0.06488249764077161,0.09027787242040558,0.08402766885583579,0.13680131695713382,0.13865167893071528,0.10508056241333161,0.05743116888323448,0.08022487244524423,0.1076001597007532,0.109970830939432,0.12148328406111725,0.13612201032615762,0.1238106003965905,0.1031647365768591,0.1388049655080222,0.12322027906954877,0.08288044735962208,0.09037634962863472,0.0970683689433709,0.07544657832374055,0.06935061842604541,0.11293315801909619,0.11503706120716901,0.0734101270214754,0.13229563028914884,0.14965948521806957,0.08410862986763054,0.12495198003558389,0.1391955226038486,0.06504095297435403,0.14837629952101405,0.1048892335958953,0.12339880440222759,0.06322137452215051,0.05616894593485391,0.10209537325713666,0.12611727827822825,0.05186167435536131,0.08563403279618874,0.09196910934898361,0.06429609902863717,0.051849944782165695,0.07612174384283046,0.05637925620231551,0.08238364338492082,0.05291360675083342,0.10719028467241831,0.08629204949732242,0.07743541939725074,0.05705292214920273,0.0961244309582017,0.1743843060148993,-0.0017607417399886915,0.04945436301181574,0.1695644183504969,0.1006491247988594,0.13168587068984453,0.13077571908816712,0.1592379318076092,0.053669791117339154,0.13787464977895136,0.13911284795148077,0.12233574546403725,0.15245693997163773,0.08085858839031887,0.09760392087061195,0.13010488457522346,0.1058214377189973,0.10676911951097029,0.1468821073792364,0.08247361661140393,0.08727750577484264,0.16985177897874054,0.08288192305088654,0.09212322702632852,0.13761626931893767,0.09053254983023212,0.10501773865976677,0.12763599664563743,0.1513814469173533,0.11663072861280854,0.13901853655862728,0.08501205067061816,0.09752134485766215,0.09499813839327825,0.08854728723026634,0.04430336523910313,0.055872073822368244,0.06505874497148176,0.09997771632778374,0.04388336158316352,0.1852977459671395,0.14694528542285834,0.14284500423031157,0.09499750863619921,0.05919181678844856,0.07490255812441046,0.09078512093537022,0.13245503933143896,0.0515828318438167,0.06333664208336101,0.13993011495617197,0.14903944309368364,0.08586323303619477,0.12154865355455091,0.13644651365066401,0.07555561205732717,0.08821183928728737,0.15522381569470667,0.08747225320262272,0.08648155535340635,0.07878524546795859,0.10960159460166413,0.08005213368896771,0.08089784575248013,0.05160236238063461,0.1147616605076089,0.0764073040820615,0.17551201081951662,0.08811177722216157,0.0730792687567374,0.15748128240801793,0.1106344527374089,0.13591341711618035,0.14203111330485307,0.11572733706440225,0.1038995247498109,0.023165929269038543,0.11597071364120928,0.13253743074790347,0.1332380947763369,0.11425460426434646,0.06476279622547157,0.15063443224803794,0.12318380829981199,0.06899954951496949,0.09981279949538208,0.1187369146688731,0.11208151043331753,0.044224015567820844,0.08163513000255021,0.06807003561411448,0.11518391450570208,0.09104483763136201,0.11126408402083515,0.16686725081804976,0.04854722188294982,0.10758032136477691,0.12655080047982595,0.057927188994138644,0.08560265065929311,0.15686043375678577,0.13399014050315902,0.061665160334759765,0.08771531978540384,0.15537547193323958,0.12604580454340777,0.10449063775791942,0.0910625913444516,0.11528347913281643,0.06312860992889399,0.07308035354539513,0.09733552599570938,0.11600240142201029,0.057707948044951766,0.13782518281023115,0.11236868207961902,0.07963788139585551,0.11995555596871818,0.11124841152884912,0.0872677548924857,0.07818688552464464,0.06623872527108907,0.10411957319361123,0.09789545110723696,0.06481283810442207,0.09683447386431185,0.0901922106519229,0.0831852203270543,0.11453741547665953,0.0836806379963751,0.061840195917636336,0.11566910949484213,0.13541745149755777,0.11430473307331192,0.12627888890123656,0.09407622855793746,0.06392334615425663,0.11641299409291472,0.13585568962838118,0.09301291577521797,0.10256587298964714,0.040567095552439245,0.05912201687249901,0.08885329112301907,0.12456380919040055,0.12818380623504486,0.14998611962898226,0.02814860449417292,0.08701488564476623,0.09122134283113836,0.0460392851288775,0.09823927991717529,0.11641778129186403,0.13889827098279245,0.1113508303266828,0.11709225676339319,0.12164540663756088,0.1347329792268561,0.1360739452776022,0.10351829050312364,0.11952355984948276,0.037603427030540724,0.07567530042716583,0.11506202423660543,0.06181508909226293,0.07319224447304398,0.059710427635901585,0.12584951123697738,0.11627767130182709,0.05114146800870658,0.1175001020530485,0.10596358682493356,0.15581071873259597,0.14617703087878134,0.0691916994520753,0.10923161892433661,0.1449709281566311,0.12260097861900854,0.10632673248035335,0.14181394227502675,0.12369252662718588,0.051681299367068466,0.0958323391990018,0.07370374318786829,0.058703071516267656,0.0823703797580086,0.12023617720133142,0.13831811208908373,0.024979674924606704,0.15468622026468298,0.1578744501843217,0.15058252605266492,0.13075971392711644,0.14062808824534864,0.16489998423451468,0.11487530460891192,0.10724466597795476,0.07181320060359067,0.12702898730559667,-1.6312527777555408,161.75316388703388,100.82028187922347,106.54308708097032,96.22580734250451,-238.42290768715878,107.18838634388135,41.25826135876786,96.71249260128536,193.81368408678546,-25.391043609578233,155.85688996912378,210.25447287228207,114.86766537101585,176.68279050445915,80.5061355953207,57.61422059323088,82.42029166075372,146.810902408621,71.68263515327594,63.48769787736997,152.90100770678703,0.8500806578540918,137.5200576812534,35.63432702129503,85.19986369576836,76.9009437679408,14.724383791646948,-47.82226775620349,15.840896075132465,101.72815560110197,56.32940190458945,27.573373480130552,48.43655143656473,205.06278681798767,110.05592877186733,118.61224201685671,-71.6947632905469,136.6777403225083,74.72083350886457,126.83675326128605,56.345467264748244,246.51330192111269,274.67284458613995,133.01799160905747,129.39211612234553,-139.98074813189146,-9.587071495913618,82.53014708506352,98.50878101079216,27.00383963369282,105.06834097835805,68.39956549831294,81.5895874850639,104.49895961516297,121.55950981470208,93.2494940764816,116.49148393446458,129.5022745051904,-328.0768013449578,88.98419787296818,80.41610545882138,85.90411067321035,114.57472037179878,106.28180094022214,121.25828725888381,169.66116621358097,193.70365083533937,-39.36712777351622,110.0848251378986,60.34319544390685,46.64616167024887,194.64128173909376,-35.102328287378164,-20.115844979010976,83.77336812446723,119.44863058214108,83.6490459088281,161.30467426606853,34.42741855396978,25.28352380099519,174.17459733541259,-9.400409863789914,-30.761010791239748,26.6223338197732,152.50746964432372,83.7498937006322,122.26468874806292,0.30667130949264665,37.33992130675859,119.7625228989495,103.84809760773541,6.3582847258144835,13.932533726795493,256.89170951342277,33.04169048906697,117.48844384100326,26.64628460939119,133.20033211195766,-8.960203956923198,145.72897945688592,17.108178222410633,62.512223341680475,120.3737729396491,102.98503172232554,135.03436736141518,142.36156016600492,-121.37545665443405,149.25301747313023,86.23886460349034,51.01434398406183,129.88254802546922,149.87618712385026,70.73946597335592,48.7459217419748,120.28872549003867,77.3198583889476,94.60386632572954,81.01953532928563,129.77451053267765,136.94160711186512,122.63866725441484,34.52922103751191,92.2769643508388,70.74498056759207,148.45318553198632,130.13354939768047,93.2486014088729,123.8568828074244,-426.7068879654564,97.54889613288147,62.19071637283557,141.51491907932046,39.73478716789374,114.1305508465264,138.63059038267917,125.80955188313739,-100.0389733805718,149.42321871220594,-37.672965963125456,128.44274702997507,141.96997018973016,-56.04792132690287,130.47528587287778,153.22946788857067,-32.84260344789906,68.30623412143505,180.02500423289646,17.326465737137042,71.14473018142131,160.50516085285335,-45.30015032851573,129.69834738881315,-56.39987485428129,61.646938781379134,94.51932425628856,118.59882903928124,-8.66392627299427,42.39582806103382,143.13115857507162,-3.905635285674553,276.3450436567532,83.35663258406701,183.92384881184827,173.88399310203937,149.04379077559247,6.608109737660632,90.11099626082951,114.49010154445291,18.28103638090159,134.72252792780233,149.60266466197515,57.59472314753162,77.61321840739637,197.23662694578206,47.00921616422941,164.75203376373395,160.98983009344954,65.72370481182969,55.88996290655546,131.59147756849353,70.5340396795388,125.00039693003704,125.00729763663765,130.7437026786599,-139.11081487616298,70.09599486562028,135.15067418826834,-106.41858565322667,168.9725109698204,-44.27228512476033,56.16793074575899,133.80025172274574,48.1672794996769,51.42279883400233,184.0258658150367,150.34587221118775,-56.34052820715227,166.4986743384919,94.23258337690426,226.75344068100614,142.04142199901318,-12.06064737582744,-41.23314904419408,167.34796385665382,81.16304415157663,83.93942937091344,160.74811704553335,68.78811074670767,98.9680073306589,148.13407901473647,24.085139140414125,63.87004202882413,177.63414892019645,112.48784769403909,123.61516317570857,203.0525293830122,40.49315469898883,75.69984638160017,118.98729085965678,94.88411175760993,29.949397677310863,184.0381567904242,112.95106734171462,97.39678183011247,83.21845296302801,51.79793610013329,54.11543780631563,105.8953717655288,38.717848568987236,-54.81053326337485,79.34505605021091,160.06920633385414,96.46325212314999,127.05086560404288,129.30686377347948,-43.427380999758434,160.93902809225676,47.972375024099264,148.12195348936115,22.600062134175037,111.54363014069767,120.00051723338315,127.45999021590923,123.54973397364225,33.165921505444715,84.82128399334496,138.65351357742674,118.20262716762967,114.08710147674728,147.88502888576966,62.16389725855625,108.46097169320966,105.34256010608883,91.8629007786981,154.79910568579476,90.9968137430803,76.94854881255966,-282.47640242814,68.15652920218103,108.89151146081676,166.27028146907548,107.5605988361555,177.14540955182304,122.89161944026732,145.55065384915247,-383.4158585898746,215.60447422205308,3.7311048292653197,83.79590913230578,280.1966183742998,187.07806035550448,154.81927529182576,187.86875695215946,57.694542916060215,79.09739062451276,236.63460804199403,92.51832923904949,88.96992734767264,148.94026305659645,-36.23525992621653,121.29118247008448,110.98658310668442,-38.58951894809257,92.415682650586,245.87595150323793,-0.6208831755492614,361.49002452077497,136.20117458322537,15.723464485342594,200.71358067297786,185.65698000891493,64.8151044746497,164.81635776108976,93.85965424229092,56.03841677894629,98.97761120480811,68.67363141586809,132.12122376220498,77.06678878018815,223.0662849323121,201.21133774925482,139.0792670010099,177.85040073861606,94.3170783159038,29.86331738326559,149.87548599285958,78.26555333119614,104.18755585284953,5.5931437227605585,9.510301704040206,118.47977330308423,108.21785469741002,-35.9356598767975,-227.28356607204606,71.78265557962375,206.64517375756492,-188.84623202891052,478.84800311632324,66.40776096394298,56.319834291962614,306.27329129827,123.77961005615052,-5.409909816299971,163.57575106675276,157.92719688811675,-123.06695446930613,145.02703426858605,-119.14234027304741,73.15811032370608,421.99104329009316,41.48105329091441,5.851951777407434,107.96919790245556,567.6069541130275,99.70670914672674,226.2723532726517,-11.842413733710732,18.04523639635035,168.5807181449183,2.513972473666547,84.81683130607459,10.547876772703452,162.796473159462,152.62411997273693,128.96124279898086,73.29642239475335,45.17324291774317,47.22305897260561,277.9221028265129,198.07889008473086,168.88565587890986,157.19111334840144,75.42272864394427,110.56993613889696,46.357103247400104,182.44296557259565,113.87322494950307,151.51930845008798,80.6240957846214,153.05895064900417,131.9169517085989,117.86490292997108,156.31044627845907,177.95062427047637,-53.40973880483338,233.20750714067424,206.36898581599962,-5.53494736211027,105.90399402740731,184.29228596075464,120.20149795295741,125.91385702800038,255.36014535336145,-17.26999014770138,166.02525703616575,70.15945768416346,86.86189997240423,71.1263391950735,216.21041265165465,17.87877514592845,89.12927757764726,107.97965803572453,212.66916893763957,123.04977826827849,92.89745972242119,143.97286111140858,-383.38185406690445,60.33279301950318,139.83461067182435,76.23594086628587,137.80668796423555,59.495158298540446,89.90881205394663,102.92959265781353,166.28847176663945,187.46276207137976,0.9555297669648742,134.13800341654388,191.1949869415692,-33.38483266939849,134.86211328041958,201.46078745722517,92.66568866224905,85.23053735106747,168.28993730311095,89.06789755224455,75.4273046263874,190.9338940596931,105.08231436995557,234.30340631264983,57.58140807338203,27.42297097175879,102.33033792529376,167.66258262600783,-25.958714801695287,112.36843081558551,116.60110317760379,22.95506595656871,131.1291668568703,159.68057196792574,93.42813618228047,146.8473037013655,48.84028928537126,-33.03207878384073,88.32332677448501,117.57321302224723,52.76928024965859,133.30216342310558,338.5233626193052,62.887541670179075,72.68587967070286,181.32554266712577,92.01661535713765,44.945176047451355,65.92215746707058,-55.36869265755302,44.93156649785469,91.85591961146046,-1.4461120411505473,95.12388428160953,107.76210099676241,140.27068718691876,-116.94697982616051,273.9469293488588,213.5875569557609,-0.1950473690069605,214.1902220490235,178.5393674679638,-3.9634811805731878,195.5797378955501,170.5144423776538,-30.921746160851352,217.39870202253255,-48.840060596742575,-31.191616809232706,204.58611585149418,42.806414484102234,70.40636476651625,194.7514261297807,-2.0124978853537634,22.46753603255399,190.81163184732839,-5.709938856654781,136.32812481498007,231.2320805192706,48.18957144722927,40.40301229250894,187.14646275014752,4.892952019991635,234.15942862767614,106.85255567731912,153.1647884177852,129.13053436380565,244.53610432564773,57.403712156196875,-22.42986556876574,61.4678923498407,134.48317974522115,158.8166522053839,174.91099151039316,131.58285072705982,18.115905310869177,196.18163620306584,200.28150335847303,-24.28812973121785,189.8299696436201,197.6823365042417,71.02382944693349,230.43892237867522,97.7375003685239,65.50678342668904,124.02687793523187,99.049872589262,52.34723195825468,126.00804432814749,173.3580673794559,380.2928127306507,63.10008886935384,155.2027691068036,148.10723010358922,169.25701919586558,106.72170545548383,-32.70984772836517,214.09324159715698,77.7028896307094,92.33689324493399,67.75318758358786,221.31881979354114,84.09890466783546,115.8028855306273,153.14145950910407,126.8194454584222,180.30235644589106,186.03074487240224,148.58365595197768,-598.278962883617,74.46397488121968,113.79985257156241,108.86562285897695,159.2569425148555,74.28507650642138,45.677646999324956,125.31132042383763,153.02447244120307,159.70610573379807,-6.468122919063432,159.66325111548022,181.91589553493202,84.25274176867632,199.46785664343983,166.89485813599728,21.080553507055207,65.87546874554958,168.1018230601662,30.98937424765059,60.34292315096505,151.77792717478084,72.32658971485274,144.0698690477568,120.26476186298802,35.808069567351254,99.33838641064436,151.53284889320042,-5.489239620213103,79.11950661778214,157.7809036973414,11.324205751589064,64.42687610235754,106.05136779582904,158.82330215085597,159.41128066911233,144.96160787128687,-31.545114244148582,135.16097346593298,133.04583572437548,79.66308073779985,104.92012976200351,165.77943352723656,100.26817638358148,-39.16039980420946,190.4043097119331,22.15200041629044,5.699490924718943,169.69181560490205,43.20602044079963,69.30253335879804,70.09064388130912,-6.1954101207355405,57.5527787146988,103.79937786779531,104.57992768365033,-112.04020912746599,182.6502128810109,159.05096570628174,-58.07207811422103,213.42937920996906,-18.39347189826745,69.64591730257527,152.08174316240402,73.7149593690518,39.896151886752,192.7579975448247,102.20573361906293,-50.42014772189098,125.5752705993278,85.90078059070792,74.09600589995244,143.78323603800922,61.93312294097479,3.591310514224208,207.98679486366512,73.79300385043358,94.7695301024244,195.67437787567857,-244.58840619060913,112.30365283500134,191.8650933944359,-12.767652898881046,52.01646147057806,133.33664126474076,126.03229324240579,136.25469369018683,152.13898609595628,20.08385271930497,6.649924614583566,175.6165438920016,89.01464557526955,55.76598680904003,186.96744222784284,152.41696608581861,127.55906270339025,127.17250256946345,68.18573106458294,58.862408720275305,84.6332801432225,76.55363777467366,-33.23572406909209,112.43745238017313,185.034405790081,59.561309827529094,88.99366594624195,130.3969791047391,-36.15807182789945,151.44437801457516,163.06974604921282,155.95065439180254,72.70316122382728,161.34449982413562,107.08835866723527,94.2670920243716,145.7516932169008,51.12023647345896,133.81446668211734,98.08686548382896,137.65334034553916,124.87919367852456,184.1249249496177,141.41826948357732,117.81961713478205,113.18171076946352,-176.9385744957922,226.77674394344427,126.00459969732096,128.96380611498495,-317.99342782568385,37.488265565897045,72.51459181449397,150.54962679867486,126.52687216191691,99.54240456034755,202.86805546749017,49.62710457936145,100.20922512141075,206.4692925747645,62.412565332821266,190.79496393815324,228.00973067407324,115.37920005328016,80.06441403738197,216.09130489108608,121.3584105141596,185.27314505878036,213.90456672659727,26.77366280061615,113.07426435968858,165.2826762602267,-7.402852079589997,195.30273176261008,113.73202375963864,7.76934274606997,141.5711031258679,209.54472894461577,-1.2231838672701056,141.0965603010152,166.95943067571503,-2.301861538974385,122.09502491762025,128.350195945737,63.35234052425618,149.07724770216848,136.92129870937012,23.82773353916898,73.45888797675747,180.29911789755187,169.95859825849308,293.05750214297177,251.04670679106127,33.228822011032975,126.46440117556688,158.3183717856254,43.44623804247832,48.038185523591295,221.3305857000342,11.51712982872687,107.56633632193794,162.0902691017636,117.31675048426428,94.04252317603812,142.65592838913767,53.93565837700005,-151.6336427849836,191.68220104772323,176.3750056993555,8.226713813266437,205.64588597903264,151.7083376501088,-21.850804203409744,146.16035600073448,115.8296960248358,-15.933812547473144,148.6669324159306,184.13837920934665,-17.319998683342604,183.61175479110312,101.17108214233218,56.158784554153065,152.3200039315363,104.29664219259195,-18.536969028784263,200.0643996403729,176.02959776884487,-39.52934873661499,213.50275791168505,85.56109358733698,99.71840079584385,208.43045969979462,23.308559150542017,5.445164716774529,151.8641742434463,170.31063395832774,200.7175633066664,207.01337498408418,96.76582999483345,61.23741690002011,129.97984889925098,137.83223500539125,83.12248501046255,249.92083147303035,193.8479715738606,34.06234189257504,171.6829997986984,17.24014142204411,55.12628640614076,192.0123218648321,126.37243796071975,-36.30859643755749,56.60011748588619,212.97925081229968,156.63767449074248,158.1552289680951,121.71593029340615,-226.82885270595295,188.56550015093396,132.52155507865558,74.38652541764834,37.91669407641675,161.67100108292348,119.93345099251367,150.3495850873447,175.272925529642,101.58695191743514,144.55555035097342,81.51575901038107,130.549667064639,110.4826639832111,172.98287998709915,39.88292123766028,116.51660494836163,147.84769135913922,91.55161534426749,252.3930441083671,42.62805170136062,57.05635052081537,-239.2867168640028,70.47919422089444,111.8338905854703,147.46824972874867,58.33454108417208,89.37700674245599,102.10230469420529,96.77630695611994,578.4359330829546,153.7197799908119,-95.32711655627583,21.477330110474252,157.46493353357044,120.17824045086462,103.3409750322685,122.94399585054276,47.281263015363855,78.4656994618793,149.64619162074692,95.52517834879457,45.50916130454629,180.58821690631157,38.15009076469715,142.8491020136559,-1.9199415951563288,488.52981947454475,150.38916879949446,65.56984099977406,-55.430489127332166,-104.19032091097728,145.70110557376788,-556.1104211898393,62.02593837879253,38.2443602790302,117.66104384783435,86.20753204287955,124.3371857297367,2.490623762564569,98.26291975776743,84.58124837299876,122.13698746858196,-36.4706700162048,115.25745039012428,-6.249621482685599,146.24671400872697,147.5268851117593,-116.8744220114709,22.77389346039203,89.93441019764762,71.99128896679419,51.02059297934456,128.37220691234774,54.253883177311664,13.055073988829479,131.66088276941954,70.43909871170266,-13.843247812844538,192.5764897067781,100.84088510616925,-58.91209934331704,170.4257089255316,103.13328615524888,73.37038960734928,148.67949501040545,31.080439428745702,22.310104988308755,153.53384450496648,146.01217857282793,-4.332151939785045,150.83427700591088,-89.11868393371738,81.7419172371813,137.57938872921798,99.26330764379615,52.60290314130614,180.8389163770524,0.39389414470929074,50.69120902369694,111.04849715216393,-114.55191833337915,117.47828240648832,-268.07866741597655,12.68295039766241,93.25876182567382,139.33100362983467,88.43759211280148,75.00791514422649,127.55336072673016,23.650078049131125,14.281941215341519,96.56065021173849,69.58038109706307,572.4797211727977,107.70668498811914,170.0800959531691,78.96331098302927,103.281413946341,33.541898459356645,-408.05413469052337,107.84536601251055,78.93829132415328,-26.067410722073717,82.52217453403723,145.50521916176316,87.71729375798202,103.42660723590474,121.4292790892298,-217.18597967691582,126.74928898568474,163.69101465247883,156.1684119792372,-36.45718063574234,80.08404359141926,-53.19216965471778,119.3344885410669,67.8259680750299,1.7177278564971004,113.61501333023352,84.93205362928745,116.67589378439261,113.16227313615387,157.00621119296272,233.58242789730122,98.95049291036082,136.47780981770708,141.88004023303677,161.69901756834037,41.687872867174654,154.70723437676716,-308.10365254362654,59.90292911488247,63.32220503250138,1.0721887330930988,-12.70456292585774,-53.35856251992963,-9.634048014928464,-1.4006465861515185,12.624706077840147,96.18403859342308,40.70763750075505,35.45687245480142,55.78443156628917,-30.70650833812111,-41.75058622056297,6.827236837058685,20.34129559901784,56.82831859267338,85.14309719095202,-40.00688415163202,-296.65365400843996,47.1224591140035,58.287129916813115,45.71286938885853,103.14184944612325,-81.69321378267827,22.00208391097271,94.91495465445104,61.3340605832957,82.45982099505007,31.119120348954933,-7.063345479758001,-40.42018039817457,-61.16850852952902,-69.70386236321617,52.4040960353452,-14.275739569970558,-11.439026305811897,44.6130071133768,18.758256162716645,-4.776012631839044,30.890563635904073,-15.827992971124058,-42.114988082815835,58.10972641000922,-5.137603631059517,-53.98484317864263,39.98027013309724,15.020919227114115,-154.71623453386007,44.286092842833774,-57.512542629110435,28.218439438231545,82.97759212667367,9.565276460224789,-63.76279420389593,-99.2724060955556,32.00876770380553,58.550520161038314,53.50145566070755,-132.88394636520766,-27.74636093682114,-6.550601461083276,64.8801745249602,79.39929943341721,-24.11092284646778,55.99942356693636,55.65092961954993,7.097502577545286,47.317839198645366,-25.90739765640992,-67.65370999769557,22.059883174848494,20.242065809801463,-31.416391390877234,5.762331187240372,2.67054637586604,37.38758523861637,7.408330746323582,-83.61537849363755,-13.730182570787372,96.00669344534792,8.337910731480148,-13.560699101644536,13.580588183441378,68.84548864682405,99.06943352603412,123.15780351198963,-113.54625032713031,-42.97160964039114,-3.897327051268266,40.820169286596304,-27.667388907212867,-14.947439182304574,39.39738413457932,-4.126455996045008,58.66832447777279,-8.901777577797516,20.322714932610783,16.388318389210802,44.140625537362126,51.331682872261304,107.93153944397058,-11.591139523204026,-46.943945604371656,55.9945970035747,93.93352302210225,174.98688567249994,-209.3965274216265,27.735544780442794,32.84675677335069,-289.37530256127553,-13.482247462752857,38.04203420339755,5.675894998698674,-15.489593698130472,8.915760306178624,-20.605824219698214,-3.4634256266398875,69.68927669783349,-175.75429555256807,-153.6328507193571,41.604953976662074,-88.14240852029084,31.125212271067646,5.661844802300625,47.36555947296819,-75.51673923854968,-14.153178316171578,-855.2041139815445,128.55417548981873,111.72757399879542,196.86546464201385,251.52241016195723,151.07024886158095,283.57817242743073,-290.0471406758126,131.82130393633958,-157.5793389357817,70.14436167667274,197.33783469685122,-556.8783985506927,105.50258111259802,-341.8701530438404,-592.8358070755627,116.07017732973192,165.7266134637103,369.8012123977533,31.268761915402802,-288.3176085568533,218.76995123163937,21.12009347523868,225.37703726831987,280.57013332767906,71.98681545873661,210.22752621416407,-193.44109659400556,7.545062368033123,193.12850259641866,172.1700096351909,49.2003456068091,196.57919999404248,-260.0954102402433,-14.574740303636881,211.1366023202623,200.49936089835646,35.47483286448262,113.41069916699936,-509.4877721583722,181.93206723339236,224.7430332354236,245.0793959358409,88.69059668658775,339.7939347807897,118.76265930805519,81.31023409396954,4.470968638093451,234.25103847784317,31.849432694854276,183.05798290037401,186.74663401476562,185.5058773568418,198.06469782043635,197.59116588336659,165.50411143743509,-56.89687730725689,295.4475397394939,392.47291121177363,98.29450766667304,-384.4908795641383,113.35613029070939,179.81568295437728,273.48213904757273,207.70225293990896,-18.76807816508929,239.634469239031,179.19495107436663,-76.69412164854263,301.76496107126064,128.83434054240652,64.90488408673154,58.86647273392553,120.54642565589442,-207.37672499164745,281.1611595027012,239.36584455970882,156.94172673529678,-501.53108492353306,12.06097490639883,220.21843808487242,255.26163876589825,6.383903041081489,79.94731914655333,129.02858488350375,251.65078747002352,189.457713498686,326.4814740865694,150.09488173665676,96.6656439653376,191.65520346505446,165.44346251819118,153.86803125340083,-78.96483213325493,227.42903339334475,54.20866686684618,172.51882724470144,147.21551080191904,247.35655588913968,204.79597471126175,181.63580561541718,-100.84844800870381,217.2664665149873,301.15982458906575,233.00022951092234,-354.770717981914,194.32220631727637,-32.69785764897227,103.57862084501014,-253.39740270206983,1.9597092073291562,-56.75576668814318,264.9245598076421,236.45944788580601,245.48449802691204,-367.16863000611266,67.29746423847622,248.2998435882204,84.72755262468999,254.56547870016453,165.91464906071386,245.1802238814677,47.735164042389336,196.6465203136638,-513.1877931339205,223.06076994454386,309.2285407889793,266.1215791105789,22.256662831071512,-333.43308624745924,66.90732697099645,9.628576627759196,62.75362304693677,201.3431924402282,66.79245326336928,197.5816396018914,-145.67137263766148,91.0811304727008,150.2533419101782,29.503442019379463,127.9111469081027,179.38891579126852,111.55417568852523,84.39339044622848,177.7525165304668,22.76679889188747,101.55776186687724,79.4514643078903,50.62570300693746,46.6690107173513,104.08514216864312,-66.2256991029774,139.34585195556846,87.01631091008744,-6.259846465825877,103.58218417229345,180.11999665775193,-2.145956043992235,8.147006452336004,37.0645135615494,9.666913385004438,88.49084089089882,121.85639179789625,63.61561877356911,140.5308973060425,75.15391177837904,55.59050377595065,57.40017419337561,111.52499481864236,162.6745268512906,162.46629238044238,220.97465362189962,93.95351162810772,141.88647691093254,128.7838187126705,82.94623555416649,46.89461757361162,131.82713165776212,43.42550203656108,68.9479197509392,71.33743547403466,107.24692751237728,-63.5226544922429,93.81144626596002,100.27407742660233,-173.8460790606756,76.58810490926707,291.09970789010276,44.084789421122856,160.63281030759615,58.53659688009438,62.933151417070356,113.00265040215723,90.44498228396343,22.276226184362937,144.60092157871645,164.86916857791078,-31.173567959288064,161.1463355788183,90.5986142894908,71.77021295023195,131.47056725797077,51.042917480721144,-109.00408671032396,159.22969734698466,122.0587533397274,46.22890066353435,168.1490286767664,43.27888352921842,72.03224710623145,155.0050525497973,9.73403361619889,31.121057767505814,144.86483264277183,121.82453526708171,83.02303745678415,44.565597153448884,7.585850286537864,55.360575526345215,138.23122308569341,58.49695855789869,108.09927460956737,198.34682651864043,128.28115799602128,-28.707339517614034,125.65461532421861,14.181610802974552,59.178637023269495,139.29334130982784,114.24359367982906,-36.67941115045623,128.14790571918095,146.12843709609012,114.99873390520138,93.69052313445634,124.52659760310449,-111.38423654168217,150.66800342528254,117.41776391424425,31.98417038291968,-221.61041911794788,90.09250561286206,126.53441050463114,137.05683074729853,132.74736400769146,39.652246232958944,54.66805634031206,87.58097865814031,158.37731337173932,32.53718672096947,173.91656366044836,10.859932719182813,57.77801239456575,131.5444337784007,77.0214404545269,185.1994756955421,94.88950482256145,111.05002572147427,-335.5496138353176,45.807013755438405,81.44278715808026,172.32397547056428,124.50134928174516,85.93893685149503,145.13388283705805,24.49190744020684,61.49196358472908,193.22585559467754,4.470041471952746,160.10823148887465,216.7179510233522,116.91921319119444,145.48836473937504,221.89320045224204,59.55392173355257,132.29667558970675,147.88227007242764,47.52922048784846,99.65548698130333,152.66783966686836,2.997125187911194,133.81204448737637,150.68516965978176,9.570512074063329,119.30140833633753,157.77968355092668,-13.333812688207741,73.32909030084642,135.78953638262487,102.50923852715225,124.91025654231531,140.3432546191995,111.59909222946744,182.3142141431518,114.43198844409018,-20.378503707517822,102.5732018262475,155.79237488844558,166.4702000993737,103.08823013933447,176.00803706469887,95.08957847458345,126.32382029499911,162.01740785929715,98.59502467670022,9.677232711172325,137.84816576045364,11.437068623546947,99.1228464050294,110.30112918923321,73.77914385810593,54.12148570378512,144.3689906674658,94.11484927468078,-84.83246009418271,167.70642734750382,138.2633503296817,-56.65834448583586,195.83697159985363,39.07550812548199,90.14187956355819,201.82633961200634,101.4530244670356,4.023036665600524,167.1174225634401,145.60517088466986,-53.0104401361123,147.02672307111084,98.36954635389299,85.35262310613331,170.53760673166894,62.03106367133131,-38.11331281301416,182.48281140437973,132.90507258348083,89.00171972555276,204.65580892551108,33.420186146381006,74.32342294834272,196.0619160962053,26.045571924216087,98.39883953159361,126.85397975181785,156.10566985514907,79.63269244127508,104.95422642039713,38.7447991121284,20.584693800397023,141.84046512042488,108.76658235162144,105.7746280977808,164.3778031678746,170.17139303165078,57.61768597016599,111.60366720367672,57.08196112867368,88.54948551433881,107.08527882161536,93.23092625652441,-78.66915883068536,163.2456026886932,139.20215274727607,106.04440868613761,128.44203120868272,125.90291629444799,-62.08649219964807,170.41469989605403,110.48403807354693,30.149426727068754,30.207764683311073,156.55220662502873,113.12543461000345,142.95437801694075,157.1282407026392,26.334291366152208,164.92100462607416,117.23717530695616,131.97323417961144,111.09433093922266,164.99332489595673,41.229772593383075,122.50505568300368,123.89413619256302,97.28277678833489,221.86373548165363,84.59983710078835,142.75639515251953,-185.2649969202498,4.097010747415898,128.40311167958234,48.86365287846223,184.6150362308846,248.4536992513955,80.87553897723956,157.71291921538676,78.71488008018139,123.79030834863198,-14.165511042624933,215.5764589159653,193.4096680704995,99.43195144123172,115.5133468586744,136.00700504269534,33.63320639925583,135.21804846379686,136.74414209924723,-24.74634113642183,201.34964102674687,218.9587115017397,94.69189131306165,147.46181703860867,112.54970660050877,23.53686963475398,157.81027740984538,175.40807942501738,-85.54269600045768,63.56351701978927,179.41835953477235,3.6815048973213464,246.71471729343097,252.51707401025084,147.4584140588597,230.65411268278405,157.91592902658508,19.584343185973495,126.87847887379701,85.9929141179094,109.7707577045319,144.9679824205354,170.6208104530155,197.94125912287961,122.99168279737395,152.90221097995925,105.32909567781512,109.03744791830076,159.92406036310868,-33.14188952103927,124.01468485927339,85.16644961018204,74.68200641028838,292.1396994316046,116.12547270336404,322.76755028821384,-65.07213902717406,150.99688738419738,438.5316848741908,-151.94124544359238,203.80911706414304,-44.28679681448584,143.21650682967365,155.60824112537367,196.7751425843375,32.11003172635944,115.7648365898319,129.5098729655969,-61.09200577020519,149.6639848679266,168.05462970553322,30.713694269017964,169.23310312137002,70.83858755520053,-186.70897782051202,260.9579811417957,143.1514226459945,74.74926118903534,214.71138823245073,34.660747315840354,84.24043830910948,261.26672460579186,-28.738710741417247,50.56048574544745,1.6138515991787301,185.25957828407581,87.23092540813519,181.47260954508423,8.525188911190249,134.32070976894707,118.87253572879841,129.86860515884493,38.82707291640759,142.7542095588721,221.17481718992465,-7.062372272604367,150.60670835051442,67.65109354620166,182.32502042997714,216.25106421386903,147.96448594427886,29.679055525861703,127.79029532134572,186.65167439506868,111.07951037851632,94.57940398454718,141.6770116828355,-200.08563729250446,210.0459446991999,91.68417184712966,113.29754551433264,97.24197502911214,214.27613564755057,161.71203877441002,172.66955066187472,167.69559376432056,159.69819574793473,193.38976373600096,124.64182764671529,83.96242303497893,83.23283240694613,245.989157791856,194.0673214455537,272.39330405000175,79.00180672673093,166.3212660297321,134.9166269366849,128.38415662796638,127.68546226705692,-553.2241710178299,-103.4706618767014,56.746077908295135,153.48673045868156,115.57605132997034,199.7877250552897,242.51228988228544,-49.19506673825706,522.1911919338878,190.1913997007632,-52.95908935078146,187.58616554180585,197.74629596638192,117.38732488697877,72.42604807437465,262.68079258829573,-88.65532622494376,152.41333439444102,205.2428381647477,5.0038942275844684,42.73200710324983,280.8012563511787,185.1191223693606,190.1998386796445,121.26907073273428,135.66764209502824,134.41338306661814,-130.930164908258,-15.577369954245796,89.72366529406864,198.32133061607374,20.57592696781674,209.31842393338883,172.3397287804997,382.5421232729422,194.74598690724045,160.3612875050339,11.367561832181046,483.60011501088127,116.32761715141288,115.43411338814326,216.54076068423916,261.98137633722234,108.37319600879405,504.7297103577457,232.1531758896423,11.534991962155994,27.67486077227255,111.03508425059489,145.57393420590046,121.74525940676817,141.0511429145718,293.22633995330443,107.5565336929251,188.6679311860492,148.81319148859032,-71.54791633355165,104.461721327101,397.8773612853873,34.81263813216087,168.56940462943905,-336.0697981588094,119.74485318425239,191.12535374137204,132.9461613381691,557.2516013499635,259.280185801037,148.0415936875067,-105.71515612118293,211.1957742573781,18.230682489670897,138.10757836370408,74.24890438418147,-427.9271003631257,-19.815305362302507,276.4676318419064,145.54067826729195,75.81670078649842,200.7146851141169,44.723130069729955,135.5746272960593,245.2933619347253,149.89310268866504,47.161427916639965,176.45557262495544,192.82942178273478,39.17807541191231,224.0426143989489,60.74456805315716,117.98453380581628,302.4349101869988,183.75129975342776,50.51639517869455,216.0030198434061,248.0293734916423,0.9182363812756177,-11.139898484358659,70.50136595709618,120.88745727716181,65.99634484168072,114.8845625313853,-57.88471696836474,165.86807011881967,254.70140623611826,125.83566356923117,130.37161366471545,188.75581718212018,-152.4838852740032,222.79979797988344,-123.51278804876702,101.06907785974327,-100.05756667143265,168.68555485869393,187.3837393334513,208.6609214091404,-312.61585894137704,73.4210569580428,245.45348289070188,142.77240204594307,196.16847234010368,119.01830206104177,172.2501698054021,43.15928759589231,342.97724066524285,307.0025719269711,57.908240941894014,296.64376016743023,154.46755270750515,153.54656981701677,-369.1228766216376,93.50118105520512,122.47247881926452,122.04390817295848,95.7098062957776,103.33995354948505,100.15099189597456,76.60178981194211,-33.10719382100867,137.92609851940398,-7.133915962126572,161.32993030898493,153.56791411451294,83.96391841734147,95.59646907521842,114.2843394235836,74.40587427462295,70.01492090394977,80.23082736838153,72.62257353607677,56.553944110678174,76.44421905239052,210.59721323156828,113.79971623889276,89.35227374459686,53.36270413900132,32.19510422349281,120.65281350201626,-34.51247944376483,99.237174141016,156.81882864721786,22.15557608582173,118.43906873829293,98.48403648296186,126.13305292536246,151.1239201092694,166.14829381599378,45.51064147867028,107.59381792888874,61.54543273623871,69.57680891552107,83.91745721266584,90.58770390042162,114.58604815498467,108.10298522044378,127.88271408859674,89.15836168764022,24.94486883516422,129.80232408464005,68.5550910314743,63.28817383073339,81.79023839533039,23.365149690361307,92.42045953133314,109.91332888697282,88.16754208696578,-83.04111068910542,129.73997371824217,91.2351589319774,-268.71208055634685,130.49974832786384,54.63709631785226,90.42571809828924,145.4155096265454,61.19381693891739,-13.03492410984157,149.08275565373998,58.93521318672883,-55.6120609139921,136.2872068947972,100.07929176198795,59.565714206397246,146.24016241860286,83.84142233409507,3.902271113004999,127.03969617357725,81.11584739221307,119.16230536872017,152.15018725003466,75.3315724955777,25.50716919661712,135.7759234370863,139.93077318319231,104.83145398338533,24.678702053850568,139.08618857661065,-21.554694844235996,153.4178910276545,-31.420469316006862,73.36053459767956,122.53520763492196,99.39124538755813,71.93865140208767,122.81714523856897,135.82361968278218,109.19666926153488,76.45518757175667,42.26802820317395,133.49667045011768,-30.27982106972943,79.8206133926137,-28.37436476737843,118.04411090464731,144.15860551895915,52.72583902938348,68.97481510613147,160.24500571642912,-124.57075436655471,117.11459710914481,111.25093918540242,87.32842688777681,103.55483676601581,111.08123847868744,111.70741164030426,90.92821351390465,152.82272639174008,-13.933980403252002,85.85567256499971,128.5790276429651,91.4106901240971,132.7013842302831,93.76745954629936,68.38344414205667,120.04528623588615,87.76466433392005,113.32172312191868,121.56802131373051,97.9355342452624,83.45864755889095,-273.2436307736485,123.11002609935461,110.02101941472696,120.9771295815361,107.1173421658403,116.08159101243021,187.69476128068254,149.38402489305798,-69.53697956603015,168.96020745158447,61.45060816302351,131.0168529693503,209.81614214904172,-77.94930344052139,124.442574104555,174.57374133277693,-15.937369488491408,83.71065738794579,173.08998692918482,80.61560806108861,230.9079965671927,137.38166853582564,26.55439455488975,160.36755171352164,-103.50659739121295,33.27500764961838,153.73130067514785,111.39709246364608,61.375490099996085,61.90915541886326,157.62100378270867,91.70428498336454,327.9914005065015,114.254484304353,177.0290131808465,176.4120092684993,116.66213421796607,48.24036028593964,95.42058212151457,159.1197561452542,69.45444058763185,157.78338031687707,117.76328408278596,129.27592662320868,22.336343356641773,168.37505738025368,90.15715221471986,233.2715638227249,136.84287274393287,-32.37338372410461,88.31173528214751,115.11584505878893,130.37875247862462,237.09694838237118,76.6168431963908,108.26648637313427,-133.6143589829728,199.07056711566034,129.45336846570638,-61.744429644791566,147.94553623973184,124.97078766401407,130.48365947472053,156.32101684344855,172.18414119606285,64.09234949139436,136.51133818432754,170.88276305734,-42.41821106153654,177.32658193821334,89.0568395817116,294.72486482439166,95.06534460195093,28.671312693943026,-29.756844925440404,218.2299015605974,147.38579650467602,83.16413507839525,246.9170044642689,-3.883985190726622,124.57191499273833,278.06323714632634,69.0549919590134,-7.788173147490338,167.35998899482948,168.5546317227244,75.25950861606592,232.62248130316598,73.41393998195595,71.37312688926755,141.55250834501294,131.49506842775395,49.962860644590336,61.22365209170005,212.07065735664534,165.24030421545868,174.07426002578794,31.64287938471435,31.792261160997093,152.65514440522898,119.41302649889822,-22.30264256646713,223.01216323950274,129.34941774366078,111.1534183946693,146.49547343010758,228.34622509921397,-21.157669531232884,214.2655047822886,82.75139999291694,34.35596261844092,214.7731271547986,182.49148763629574,169.2202871689783,92.01806206994135,92.13567062629082,57.643682327868234,113.03257739145451,56.62425367865261,166.3260426404781,166.231137973771,269.9583846608304,70.36518542269634,189.43541182859326,154.2487838127968,79.04564748902968,216.94412417059027,131.9952309246674,116.15299881609998,-550.9194092207765,138.84211082954803,122.57529561050677,102.29304462519204,148.57942363249842,135.5886686092876,86.75206508932244,153.70790466562846,141.15935864941096,140.930523688997,46.013585029620685,187.76488116176554,182.30494154508733,129.16283331856118,106.56073776533339,177.21926546583225,88.72527931429987,109.79925577363267,200.14260977502846,87.8475888424206,157.47910973192006,161.53995730387794,87.05514806283857,177.26349805536813,88.66248207146467,37.581447167039364,196.69239065374722,166.07626838645965,6.155813731587461,112.42366715216114,159.22909154323727,-33.334601258931364,189.88253815917054,92.9640302013703,73.61124528576819,172.29259038477352,136.2013930496481,34.529645850521696,118.86904280630037,101.71530137807692,156.41642800881132,177.2131282344787,41.32439340352968,145.93778396313533,247.2886834601453,175.29233550145716,93.97875965547884,74.94391898273203,152.84416213497275,29.25453603423139,85.17521045545999,87.03494190719259,20.43984599062249,156.43988618624223,121.22716698566515,-3.4070120021099295,-98.17918702612644,139.60912438333483,167.63584814565274,-190.6934798592502,124.3937222127056,86.89281436213537,154.58066531379717,184.8616070449654,107.09910381518719,-20.97719993672618,161.45067344457016,155.48765543100774,-25.798582535854955,180.42309494159088,85.0032972212165,108.66971823376124,193.8583345092998,-3.9336125795030665,23.80826504256192,191.43166310636497,116.3184464092677,63.70229639830786,173.36715756564467,133.12196068375658,76.71402880946766,257.9972511356386,15.007605646700428,-3.679604694022808,120.03634839655535,195.35475864542468,48.48844611611841,164.58426474578548,-3.635832099633803,195.5682235629406,142.18227130283162,105.5959762394376,82.88057217754331,89.6717657738109,164.86841633149857,147.23714446435173,147.03543146356728,62.41323433253449,89.39168027227717,129.42578799438053,151.42023220132438,35.474023302217574,113.33479727519779,203.8612018242887,79.55333321730215,130.2548444877974,145.48026331420044,-76.30253089623272,186.94026153122525,88.62908924355466,153.97194307107657,112.51175856396436,225.84803695285393,148.4541098816435,88.49336048223506,147.51728367495625,-3.816571531635995,193.6721249754575,158.56757099337005,146.9037790745463,175.0723234220823,260.62500602419556,140.90512660904122,158.39731703283238,78.74922183305743,146.86886435341114,174.2641104522115,156.17585628143237,146.4844977471768,-569.9734987656504,40.724633642811426,74.91004520066014,111.52186379772878,112.65122300018879,170.6821798552981,130.88618284636343,105.50007910794538,100.35576120294003,209.40557355041457,-14.137751432020634,127.51730605532678,238.98721088961886,123.59474286296094,152.91413450034463,175.5831258690338,130.46556525482893,131.12324881988724,66.31533390707226,99.97453717829961,84.20119069669963,126.68166936065663,-9.622473009812456,176.536447143546,61.71576231072433,22.0322199007443,135.88129162391223,138.74340640300247,-20.724680945785153,65.6045094817556,211.8027230103289,54.065457948026406,119.63461057513973,209.83313070840552,106.03272032021141,195.79369681762415,114.0540629719866,-3.56013830380021,82.91546429204648,161.30515737374947,176.59124603742703,179.25163637797945,231.93003835853466,136.5967512835297,115.05693826613117,189.1972642570679,53.25083682788864,70.51623837256777,154.73174617861696,-9.55736402074371,106.97753007695341,105.65606147486368,66.9228082678805,4.799670664691829,157.47192033843135,94.23152354535287,-151.45600871932646,138.9232040445402,277.8642372593037,-113.39622036166604,230.0618362932364,-5.802601013090936,103.32895374686265,193.10224767625152,141.61315828777217,25.787004735108198,199.77040787159302,183.31610597937,-67.67491748050182,116.89902963195213,81.86384744665713,4.66796312512813,268.47720697465286,94.27266675086474,-193.99010448940007,176.76317677301466,242.9309261923156,62.021103758285335,229.9186927791551,35.20335094965009,47.72492671739151,235.3623680843394,63.21354143812919,57.230627163698514,133.54794324405532,191.30046045767855,113.38932990495397,80.41886835523655,38.21825208153482,98.04842958006064,182.10202598725684,154.4848216467915,74.97700737873829,182.19287596536913,225.11471330383202,30.08420463344339,143.82323294037684,99.52288367464632,59.28230985596831,166.97841068143072,162.01444552622982,-0.14076559134694655,164.3348053525789,176.9286862505455,101.10171503137491,178.91256011645888,107.54624496656626,-248.08260148043985,217.34792186829796,148.01830102242565,70.29138604753787,-77.8701330253548,193.27176201438527,133.94487793518903,174.96372740057163,154.61828035198906,121.98758725446669,141.62152192031448,157.76963306894524,139.15454120829062,141.54323536200778,194.18554368596,77.93958495973234,196.2714144118629,225.95419367012772,128.25445843860973,159.39416819307343,126.77495518343004,141.37880598789621,-314.97084841846623,56.810854954152774,38.27475422461934,85.93037523857927,21.78985776055951,113.27396808326158,93.11161628322012,115.50519392195126,225.2543488108785,120.24875080093939,-17.846070377778425,99.55412743485664,123.17199767695053,110.90835788025386,90.64574732386843,77.04913129240242,34.19990961591656,65.69062284239479,99.50195798455395,7.212490076500423,94.19332110097922,104.19963707298898,38.857506240496136,91.05939403515775,126.25513351539554,18.34466222931643,51.54186570304598,44.50696507501034,-37.534992186952415,72.53213068122038,83.73152333391631,35.60476616333022,12.753978623913063,67.8335828234224,77.51485937564755,105.11685901726563,72.24222796345178,-12.244278152756651,30.80975886414635,45.99473142011235,69.23430619610055,82.82479504125997,143.05279477730988,45.569940979250006,77.61480690187184,93.18677507463784,6.188118459383916,17.670364723648813,115.13226666296792,1.2270222131849304,32.43052723946025,84.860321834325,17.085165026639064,77.5867970373771,74.99840233564422,91.86639291391646,15.128949670264802,135.018948135203,144.20120319207516,-39.445408496976,109.52013568348357,54.695266424018314,-43.172130168164124,112.39216260405522,45.15433491044081,63.89578185373846,119.5743368541715,58.743044582415656,-35.3427172920974,121.12711648520083,58.59343497654225,23.021879551885068,98.64574913182334,75.35816039918133,-20.362989426599764,148.67859742037015,72.98201325564358,56.50879945537511,119.1123368645392,67.61296525498479,54.73593070980697,168.7611003353508,-28.793018259774573,36.05192566412018,91.33575714512583,127.30824871796104,91.56803756392867,78.33497782706084,40.273399701922074,30.07495129476415,103.63041685890222,68.15027230289728,37.4318157598971,103.00039922643656,122.66715387613306,166.77200855943468,80.71310534867713,50.718418697942745,71.2459978941995,57.53939468731238,28.875205664386744,14.971062688107747,113.74863033630513,75.5721936275942,60.170848739036686,18.154541115628703,72.16217117007558,-17.472979000279086,123.61028156387056,104.3091593903257,60.49587805871413,27.707009245584935,40.07013919597675,86.99324305781698,105.88302289243741,97.38844575881026,36.937094500898,133.10147128694928,39.999709100619626,89.5309799095778,61.73008007702747,113.40569529367939,9.1357034541991,45.635915751702946,48.00867316769213,110.3203579339612,122.81999027941946,32.49651626616539,75.52871613103284,-155.00284807865802,208.0240470551446,31.3272667243557,32.082902132382934,127.95793744374859,127.8522233916258,119.57521388135783,56.258542154165994,94.44285139781115,166.37753247094042,12.368399470491193,121.74204796344048,164.08800950272533,71.63901804130684,182.6681274367905,188.20018066532708,146.56634470422784,110.10125155267723,180.52269324305414,51.1901280590763,125.17792790359516,119.50472970751828,92.86770852038121,163.0838516364145,110.27008522897965,14.738320200572709,124.93821358441595,111.14456103440159,-13.440894364534689,122.7833776336467,106.47708556160822,37.40841556780799,109.2280563885832,154.34879207008373,151.5535264441967,159.10516434885986,144.7972377524267,57.406338364731646,186.87830451202015,124.6408177193227,24.779216266814032,-296.99060856810956,138.09038721420896,70.60166290778851,119.83496230821015,193.2429576109182,97.56667296128899,42.86937320290911,136.57808288918093,24.858920703818722,94.49014454802457,-1.7352949050636197,81.44866303727149,316.2845090676711,101.86355043078551,84.67111848969265,-37.44228081710432,117.2475240829072,151.24025105047593,-24.062847083096454,188.76820893883956,86.43662080603914,239.0958932312281,165.3697362634422,117.48556499650174,-1.4783829030413487,174.5680621127077,190.33414921603537,-22.834200841415086,172.60732475774938,57.39613625687627,99.85594903654072,94.8433747218938,86.51758006336684,35.234917804949106,172.70694209032408,94.88863275001698,500.6614862719951,202.1153236073977,34.90023831598632,58.156851534111915,208.30565554567556,32.534659678127504,54.404994290623,181.30745626563873,147.3600524820785,108.7846645275707,297.2984755330579,33.76720113981947,61.74851977680362,130.1209044320568,117.7120668577664,110.43525021013699,33.988990252190746,165.87736905309325,54.146482827192365,131.1783036198424,136.732871153502,95.01144630365076,8.064960852408477,113.83956397694537,-41.05269008467395,368.7632863264582,174.81620147254196,110.1928874809028,104.02546313518548,110.65111655452937,539.0850973529499,179.36380382782684,127.90105365327415,53.32498161461959,42.5182947690875,150.6968051182594,127.61275372593934,113.98924566659089,127.4479217989206,18.977263771728232,197.98966495732503,-219.24146386873556,133.1177257531096,71.09651982254518,172.90051695925467,4.002853910683187,115.41580978736859,149.06503916959454,79.3076291601768,292.646060134136,191.53455331943067,247.68577617556917,-290.8694635128334,16.787406687174116,110.02458506832556,-46.38643929820781,163.49295534812686,27.96225423312127,22.344429971684903,67.00345988186808,58.35732129804083,69.75951255029267,-9.01352094012299,64.6321668276076,49.97362132533038,40.40669883966268,-34.05334866330103,65.11276011515189,-18.115107808070633,-3.3237229759561444,54.03185524613567,86.65104811552075,353.65119951187535,41.39187546806348,76.0504525675579,18.119335114193436,5.76157529330394,109.77439132140199,100.60802160861707,105.04159400582715,-3.9860654187298867,88.51920318051222,103.03249416486267,8.378173791340554,36.87448570009997,-27.45951444204555,-32.99572140851846,58.49713840535518,-17.23604437457414,19.131446733358846,-4.528338476861146,40.83193399675789,110.92354385387976,85.48036359510455,15.010842422000012,12.945398256488323,-17.35359414740684,28.218219744855784,46.93318451826388,80.50553556394556,66.80958204039865,-33.66544794893006,40.25957222923916,-30.328133185844216,31.22161767470347,200.36852542609472,-16.165926960234337,79.80945446561374,14.55329585655219,309.63073614263413,25.574771723640275,52.901375075293465,34.71889899176475,21.582487467043137,147.50607848874904,31.30751380985904,-5.476225360887344,-220.28484352004858,1.197831562973375,124.4638969633276,-56.93889202284122,33.718278165674434,-18.08668541450143,32.2639129563391,45.5054617854124,82.96996834283244,40.7824639156412,131.4320396836297,16.085592735270033,56.21940625067023,92.28824090559188,-13.019498525025728,-163.15105773290563,124.86190883663289,37.57879815996204,3.0829096114065466,61.350893390166966,33.05661745627524,27.212504995120902,102.47415218200418,103.03218997598464,44.57730340534208,-28.017097550632624,44.44867333246825,-19.70851750291952,38.157123319716725,61.20289942866899,24.69210787829567,78.87117529697342,65.76705420724083,109.22060650701482,8.736967622174289,45.998702263893314,-17.71173367152168,65.19567593875696,102.58297406099527,16.863116058091183,20.098440181132748,60.98305300790185,-37.71342470167099,98.37164314565545,-5.989642219081927,-10.675744754351301,47.62313660265989,102.7158460972732,76.50042380599928,166.85563227970627,28.338380273388793,0.3267015292676132,0.40158233819123557,46.725113924385404,-12.351383492542091,50.1729489053176,298.0363049033941,74.04099008253593,42.73648450628299,37.56457617434915,61.828700481050454,65.75689444110672,52.47627867299829,51.00844501528981,-562.2254364869164,31.010169018522916,64.99898489566101,75.6217239822127,24.291864908999873,100.52790721992592,203.89798445722752,126.1392494082938,161.50513558951272,146.1098413644767,6.361150973808256,85.23930631351163,137.04295030064108,69.44573010108154,-162.75925112890394,129.7760625505308,43.80114207057978,43.40864134926452,102.80776028694869,19.83151238084308,44.66216113388203,115.78224051004216,41.18827123916142,-206.42598170541297,129.03722061030965,12.244626074844653,29.300494453893347,102.52483061403366,39.37545029901141,-34.141036094216624,130.20974730795092,-112.55120709603732,56.59918487893721,-48.8570911069386,55.11497616688226,78.36312534145559,108.628849017933,26.523007278401593,45.993143925269365,46.47196316406345,65.43793682384039,-58.78139487972581,126.19833731469728,55.71158755684592,52.89791211689274,110.2822176082574,77.41880410218158,-294.00025728659705,136.8726843604783,42.93721860375376,6.520042008437864,120.31905396195994,8.310983036464847,61.53037207845784,82.32697264008537,97.64632062571195,-4.685850269316068,72.32699417462098,-187.81677991697572,-57.12377665650522,108.62338257572583,-91.75294475367771,37.7230932624541,52.64645526254204,61.590108809555936,10.04915142882453,-108.47174707277478,2.137172918686876,0.49842718068104974,81.60746433249813,51.152125491994504,-364.5101640733986,44.98635371802018,117.49225781388631,64.46110618629207,124.3135341457065,63.60583519350689,51.65257230364598,-184.65959365592806,-0.5165421842918333,22.913201273195185,147.96215309210376,-37.88899989713611,51.311027110935164,72.98542169961371,-4.350146740466026,74.39297905085432,63.832754534854246,49.45376697248062,52.39898841036036,15.626724668838516,58.775137621856395,270.07282202788303,-438.24325431228823,119.71304156405793,92.0115268265484,40.70880354406233,38.55329526035803,91.67398239975876,31.349013080459915,-14.383389635734039,-9.228683157145754,61.40526510680914,105.44696014045329,53.4775272761421,85.2535577582264,43.84761949148849,-92.89763951030342,116.94611749298204,110.58607535861562,94.14432473416588,-50.79548156389826,62.601659552246865,99.57235533601325,99.47444898097474,107.74981333008829,13.368676589804384,91.8828280391209,51.92257897777219,38.79676032372178,93.14786584963309,113.5413879773843,81.18345957696381,67.61934984730219,77.47939869206806,122.29818917792953,92.56109850772087,26.68357020562697,53.66562001790503,-308.5807840588122,116.16259346132296,167.61283961984674,174.4352387589076,84.2522886891268,175.99364275357448,185.4277128920507,128.2630445293913,159.00671717010079,175.77186019555225,25.950843393668745,-46.4671330957038,161.85112514326337,135.76249801676838,92.04344718602302,209.9724279560181,100.33004205400466,114.89148103213047,213.2799638125756,111.81592802395343,82.96108384899252,139.96999403185367,-143.40447941847373,130.90990554220485,137.4093420148984,408.6302506670089,131.85164290013375,260.7175494944202,21.746771469558734,-22.847496883349628,140.79851545521376,3.468279973765342,166.5717091066629,91.16110611471628,88.63373638101805,151.18553298665947,167.79504766545725,-14.046311035982871,114.68368186744915,145.51920712768379,181.50711406293726,84.3986313086206,287.4060015882412,157.58113529948574,119.06757788457514,178.56970768515635,-43.44746698993158,-18.750107427596543,216.48403219054293,195.91930986433826,142.47624328470917,220.18977833115818,80.61306812991782,162.8833006654398,150.8080892598091,79.4977838469339,-28.161297465546635,51.80158397176254,179.05700781641465,-179.08140098530146,362.31971186684177,79.9407257354296,84.83583164089148,74.26958134423676,42.763243864615966,38.06094158596292,166.68503141302122,169.00262967426184,-67.36704388550388,220.19382997861914,-165.2804867756117,95.6917512085306,380.2023547384232,155.31594552392724,39.14720317951729,215.04528442082707,104.52357884111896,66.50131229299245,221.2549528547587,53.45177413842703,59.63632066221962,-257.02440122852147,53.4147300486653,95.31643216280685,208.40484378765808,140.64420540272664,152.224113861564,178.46740437421926,113.59971174677936,158.4764681506803,142.7771817402159,131.57201961040428,166.47268495404822,194.2108518293723,231.56609093976434,31.432945946422553,76.64433478378798,77.60135575426231,-324.0482015416416,204.53643838990024,170.21464497635844,106.99927311624083,66.31504830648025,147.14908864522414,138.7307299620128,159.67299775183955,126.5251490257742,-94.64049698583524,195.67552409414648,170.04530409875863,194.8775935717756,-18.62179443169995,212.21773288986083,-25.960308713215433,180.10889918473416,128.43903788783686,88.7342615740405,177.25386465455654,47.58885241263468,169.998470906032,115.69511579387091,226.46184972530966,124.4089211711671,146.4108574979175,164.9260899381605,70.7792370584568,157.92242353141498,166.15021052356613,114.06230528616095,-334.46175542537173,116.87612610190982,42.8833368235845,71.8174024640745,67.57216994536307,130.54233706342396,77.9350121753347,108.68831929119652,74.31341283005044,198.01809768769112,-94.44012866810799,78.8334997412369,154.76518426300524,113.95031283595844,112.12285560235829,159.39916599960895,43.61740629498267,37.70497426229123,149.2113402318178,74.13193923150646,60.532692740462366,146.25384135527818,103.8298874399654,138.92457271765468,5.64536964820982,149.44647265059953,98.69809185840735,29.866876503626735,-22.982185046137094,-11.816116310167741,105.6080475053629,58.22704390615693,99.78419424599443,72.72021778923201,175.7207586893992,101.47328222829199,89.3584021940356,-8.25439491491767,90.70725687964007,60.008481366423375,149.99644295180596,95.9433661309504,221.38220989543908,98.14900151942766,114.47388342770735,212.8268722996672,47.93534229661032,31.64959685714426,113.04868206864028,73.56083641686386,56.412556046736654,86.37411121447386,99.56555241083642,37.98034205739936,105.00363757716029,109.48466520746419,-34.41841999864142,163.8248218765189,122.53895021484988,-140.9743599674623,126.4445351437264,54.34694771501723,86.930911224149,147.91785219873765,16.667099452428342,51.548582801590975,163.74484168271337,185.279343133646,-21.255832646586178,167.78707612533503,59.64900678092135,8.286611651394407,108.9340942770005,68.64626431630444,35.16326369687406,130.053151743851,42.42852554162253,107.72449605733858,165.66275660813105,91.33287979282248,63.58270862681141,179.8124894162062,26.323368976300465,27.67382826252666,138.31359386605985,174.74923594922595,15.470192800321268,175.9751040534347,10.333034598564815,43.92981072498951,112.50035093690235,87.22267145281293,107.99789877405608,93.06238780051521,130.76506153090736,8.38772991093463,109.84914584933512,11.754401116410056,60.17525514679523,98.8788601531468,87.28562110684805,6.33803507119217,139.63416500559904,150.0309092581357,94.26535866236853,47.67810881295147,132.09401956232915,-75.93199830264588,144.501104681686,139.924718169445,92.3448094109967,42.90400665949712,80.44168801995538,117.33310869528825,48.37060256331556,121.4076102317786,53.79542318364175,101.77354755975364,82.31909607909175,119.1573414883328,65.156849591251,94.92781623389948,3.84388761696551,106.26995010979672,137.62255548438893,94.67692553267237,196.10997965725792,105.76652503101194,137.8414548659709,-588.8539944237026,70.1927395698469,100.54202998980027,173.4958031890119,114.0944680484648,134.2134602502526,117.47691509796091,140.36394271590035,57.551299694390835,187.0862139372739,-139.67431733278707,87.02494591134263,265.81977109522444,318.88051586524523,188.90142098546875,170.97551499824084,78.87683888704669,79.27248417554512,180.57244808058175,-28.38187938083684,62.51014565040723,145.72498312108428,101.93763807470603,161.8357990844043,90.83374303398516,38.42302006672444,122.55739575017994,193.23659727759065,-56.106652059369395,36.23353401261493,140.61931370994827,33.88643521151666,109.37544581834653,96.99188482003593,139.61891224057504,129.2245338530189,102.09326766608244,24.01188773755271,77.37506353161213,107.918038140787,98.94720628236361,83.69395784262609,104.04648435615032,44.35963404646096,142.42737026355474,150.93968449952172,36.127932738995604,34.38496333712021,164.15775848116127,58.545145847446165,38.918218803591614,15.538024955563257,67.83706898878737,21.57165505235354,142.31920497192087,105.18260725619407,-126.8367861461941,146.69495219965586,165.78662147726413,-181.41289973681293,228.1890682850836,27.135404339776503,56.37064848058129,156.85972659777116,92.5466603243131,-21.78842871984593,189.48266390322854,54.76177742964614,-27.68069083946732,115.28363536705514,50.1009321475611,38.88489075582904,156.56633485895907,59.938552458554014,0.9877202902243641,159.64782860659503,117.69114749013046,148.8520346331979,136.7376996027822,-9.169514971944343,26.387813852321806,164.42261789328106,41.6223923183912,93.03525220860334,115.6836521395914,133.92097867425088,69.44779595319697,174.64489726660494,41.323989546089706,23.854174369447936,116.95696752960578,129.1605025676036,89.95411607298722,143.5922783286477,175.72820829619562,124.07400571047819,109.60403144111258,74.76567586154955,91.58948779318338,31.78936487517487,143.84461680372695,25.357747826781768,91.2797099585642,185.0313913847993,62.658486002190195,114.63800389482708,138.4864898530196,-173.29875635294457,198.11208873582154,120.12160318412069,99.83491526870493,105.01572790402082,172.76099556916793,19.238795532230814,80.57582872562325,268.83925518156457,20.284574362153506,128.66277808185274,105.51862732271292,112.31576931990139,133.25068725451735,196.08797564289887,58.02262491091729,79.32629772169606,130.71039813128743,116.8154115780993,217.6505404385901,61.301756524896255,217.2923736187617,-267.6249304300902,67.06606260485314,41.55723746127466,127.97370337743521,109.20066527121323,121.81493310617194,123.82233624223157,41.02979032006826,534.9589754470101,174.27724376480606,-29.666102100816044,167.6983652361066,166.57896988597352,83.64613957159271,107.86835719683711,197.1824303160153,49.49070826755185,2.3605927953640826,141.2498102401676,119.81385982938893,103.85675244307009,201.60376683633086,232.58694437934693,130.21040835230383,146.4167270479198,61.82108550022201,66.2977688247718,89.57813922024549,-52.014545622371735,97.79087647570414,146.8018753466039,-598.051837595948,114.46164516779206,116.84849547279505,127.27734172126858,125.2261754888628,127.11358184409775,8.955984855140315,127.4875664310772,52.85623421092854,66.62337077432963,100.73877945518853,163.70858302014486,105.64779557953844,92.64710458738527,141.93628015323515,49.95131570937467,-0.07252635043256642,157.95074205148782,27.957538977216622,42.45922836606071,110.7632662584623,12.493102324863013,128.9259684992932,141.6722542021727,149.5316443282406,35.980727173530695,172.11698949735717,150.7876732356954,-52.65281372221611,200.03438509561724,90.58573532747394,54.56276080939862,123.39376893965417,68.57291112613147,28.775161784193113,170.7170689178951,118.66911938738986,-53.66498098863212,140.582622241231,103.70487337325004,66.53304309619112,178.04099084976718,62.66800255418759,27.428191937256724,144.45661349163072,13.72112262930815,141.34713294517195,187.29803430400722,-93.46189479174943,74.11371885478258,153.14653566204922,47.192997702974644,123.45764670953504,112.65736005523463,160.56464460168448,36.7406374222462,175.76440583803614,57.888782883988554,35.73678898017932,115.49318203200664,96.08175357946297,561.8004821692234,114.75994128586707,128.03878237423274,63.32444818025447,42.23957421204063,44.0563972078974,115.83127364777113,80.15889791352194,53.20927423924676,-24.672656277767683,80.58798875464814,176.45507027792667,73.26684538146128,100.74796619538054,170.24829439166086,-207.93641997244134,176.08555703008227,127.18965907190638,93.45805435404793,55.95083887412364,102.48735778422463,125.69650596901653,84.43569209409446,192.20965355102666,-0.009951471519033722,160.00503053855238,95.69378662096675,86.34476411951411,103.68829613366768,180.22792431917892,238.49131595425976,125.04487173699583,78.47433466723851,144.58491150975502,204.71191903066278,53.02020539112406,186.98074842687797,-392.8566201269799,133.2725010645404,84.98918253486752,151.29552803835506,144.08822671934283,159.29646626366596,257.64535192392884,-181.48582395076457,89.7998034227153,-195.597278893842,62.27305717736856,322.14804569816454,-303.02823934595625,65.30569329998714,-455.74437803186055,-284.91830853437585,48.68286767083774,165.75716731186196,195.2299792939092,58.069102727551275,-310.92710457684603,157.03616939152997,42.30264581369777,203.1713404691978,151.27937761720293,530.2347118527242,150.40769821509545,-259.1664699565165,24.29734703498822,-12.844134497285532,162.21185541967893,15.778407842987958,9.412465708940088,-262.6935615549375,41.99110696770237,45.33348844061292,124.98468981603794,43.81653343351163,100.90674008802215,-243.3543567666026,293.88397347844625,176.42704902016706,250.83665241783626,102.56092007819211,206.86653291310242,33.401856792775774,74.47169777914297,-18.72250437182996,217.26678849152162,131.02976139103944,83.25189631372434,161.9202572939099,207.62552040329166,99.54227187473761,159.67046174467063,-36.307460181169844,93.02618074117927,197.80086661194608,130.09621084713288,125.17531355716602,-369.78765418596885,70.1429066242991,177.70727202164773,161.7997945521854,116.42925261481771,10.23199879721654,172.70557693521698,152.4566684337527,-31.685053629959256,223.81295210501756,81.42592681170746,88.74470574156503,0.798120250435935,134.23276249203818,147.23243201557992,278.79581793862997,148.92592910191127,126.54918099215267,-79.67616764896991,91.1964856120391,11.4082933163749,189.42050627008302,26.54810395211098,284.0215657190044,-41.3063286979695,162.12093916946984,-20.95308967898125,192.54096104129266,36.67600376680069,46.97817108287561,-178.77345082320093,151.68718948294875,149.78571465362998,-279.6571169226381,244.0015129745823,111.79587277498271,165.04549002583252,79.65722663363817,95.18223170890178,115.07663494890441,90.76681889223259,-23.310785843192527,171.44929949425872,234.4364505980125,80.25488900050057,-175.12583177542675,189.8834167031155,-85.24445859483752,12.677667019838493,-650.7899534228837,27.558752057579365,112.25747985938045,147.31774569064493,178.5589061823199,156.8022602806344,-459.98397189148955,45.525019287444884,214.82772778344932,137.3301499195425,167.88718122743958,167.38669306863565,192.6690347525372,-15.131345573681731,188.69514965718133,-297.1843186938188,157.4228047617932,254.83852381493307,102.98669429387452,90.18432930848465,-315.64236576975514,-22.058561324733226,122.31708293678483,85.03612671369798,42.58918664709321,117.86417795384342,122.81020595420564,-39.14875032970146,111.65691502621144,229.49377092925988,1.1245020428804682,73.46178953595084,173.360407133283,49.19352121366317,-16.03351857163057,130.36735978638777,81.82211437072192,124.24386544829096,135.18133076889404,44.86222947565436,87.33372717254666,135.95345198710916,44.28865072273995,210.24014988884912,123.7024816219426,-340.1845858755909,94.77808940917282,164.14761870546934,-138.42431625904868,56.397566477320325,152.07469571194747,30.791174434946733,101.27007884775331,102.78337647711182,86.70988824696755,131.38721840139294,47.328814284213074,35.76343649253866,123.00024004217565,50.50409866029871,-63.64312824443405,118.11696670562736,158.25119691805784,29.24702366857032,-178.14350979128773,119.5156910549028,-147.6573725744772,52.79317035523464,131.46193375858513,-91.30606552393245,6.157642155413016,116.63480575191669,121.95122391671939,26.545419009993598,138.24441178449183,119.77165901181786,-74.18561509096818,-150.03647393924928,194.00502872448837,-83.36883527954728,150.34165959635123,-86.62405810306633,-15.027791657106816,171.9802892967788,112.34982779967505,-163.19954335410884,195.64440059847308,-4.259086903260332,-34.94185474459308,153.83239206260305,100.90609198978949,-91.87111561493154,159.84211200625722,51.685212911211615,-54.345129995925745,149.71716530821303,45.71526322483297,192.82540871306009,127.95758145257317,-78.05670354945532,2.1441052389104382,151.1014991988643,140.49393622067004,-33.60205677163378,77.32529345332813,171.99417178933243,98.38612208221622,118.11454874309915,21.461972376560304,47.57327596251839,138.15811909965416,92.86551988285107,34.260044832164986,121.54614108067204,140.50361894657513,60.2947730631963,122.38858313792427,64.60162707868601,56.8852828709626,105.55588262180102,71.76756863516925,-34.039979962683624,118.07333712451168,139.92477956117776,70.81240158933626,136.6820368496867,134.15450089535855,-13.624485093010875,162.93681462328934,98.06760880688088,-127.30665720962384,63.12222651831948,111.95247135736328,123.19271584783111,108.4355602738123,123.74675261445375,35.06904361925377,136.8064911297237,-218.6377200349338,145.3085757797667,121.16022165675669,73.19430803833596,34.49498349049517,106.67437723484498,106.8075317415647,-304.21834855621967,74.38780573801833,53.66923277974449,-80.8041870166109,-332.22144743003844,116.43314366543353,159.094405363019,216.7143604470599,178.43193970895507,175.10264518966426,222.47580064233304,284.76641018857407,170.60099221680443,278.4414767728043,-79.30109632915453,187.34680286641844,338.09999947668166,55.82510727938376,189.89388734858932,269.9935788973124,102.46482446947864,199.25939230802229,257.82900366439657,26.021249050528166,172.32097655974448,206.06952297774143,-28.285762521873888,240.02239961139205,167.78601260530738,-3.12752842249734,203.91376749695266,191.97661361943858,3.5745095722310136,162.91111600880404,221.27167421750224,26.839263566070585,157.8553270695944,209.8793343633841,133.56853392910378,192.33937660598988,180.65902290723128,-28.832001394266797,39.20860883370844,168.5673510124089,182.3436980268811,180.65293417198708,298.78690493063243,123.66431566646914,177.57853545642217,189.46506324497707,115.40924005237844,95.6972776378622,230.92281742415855,22.998875545579846,66.79182422766112,201.7577960690061,123.98855894369576,170.93901038953524,111.68880395668207,165.46746999940206,-52.396102422597906,254.04761757211432,225.71813667863933,-105.63475612470519,261.9790411650901,58.5898341147431,82.20932675946688,269.2804015141326,77.21484913457944,4.731009231416745,269.31600541698805,221.52742753452068,-63.79320876484674,266.34109961979027,128.2154292629535,54.58342267872012,221.2165825062798,154.8616271653515,-19.751238805101167,272.49464034623657,197.74167701762167,175.86833394140345,276.02430812504343,64.85425635728312,107.41924599238577,308.4819341726506,-21.824545125941288,86.85572267735756,189.37984432142878,199.76272059256175,131.86669967511114,316.124371925332,55.65626334477773,97.75263252450559,184.5042364063443,186.5861517834981,124.86592962426707,163.43351204514548,228.63310746504297,174.53158462589445,365.44613191388964,122.25902149799407,115.61350804089295,140.21298790730447,187.944991579103,-59.705532890123784,325.987786162618,204.5065317260713,163.83664218989566,92.45534361250148,176.29163039760755,-114.09150266499161,267.8018801301018,132.37466939948527,90.94186585465039,-70.83233908673601,238.22576913542252,171.92581293882827,252.90257788475506,260.1477041986321,51.010644008488235,250.77419275497266,119.93967182286517,180.50584174661694,178.5552612923702,173.04340906939728,81.59216787519688,227.91828503762622,178.5769864479131,179.32311945625983,199.38842076587778,176.68017954849407,133.95589884393803,-408.44694887110126,71.66299858352663,113.04656624861758,71.56415777849139,92.99210203651302,116.3950166023386,122.88318156184103,37.371191471658356,-11.138710467119585,128.08441737060596,-34.76515970810876,59.054582086807365,150.29396044294162,106.56050562452589,125.57457810235006,170.5661237098796,38.8860833347677,51.991376096429406,192.08646805231268,101.75438116197193,82.2451740622975,110.71367166633544,40.94858997020581,101.92119159385868,87.76032075300685,41.207113357593094,81.40663926032055,35.139661083928594,-6.752424039916129,142.9425096323365,88.45574260078575,51.73721764786393,105.58452407666186,116.36619662981443,82.73855459653768,122.19637743001556,89.91648192985176,68.39109808242657,87.91902957476343,62.08237292410807,127.46432274602827,86.45201924145657,166.4830683634807,140.05847828472952,144.93866445927011,102.09288757857631,42.744935627333284,1.3993431590123362,109.61428985187429,43.667126465904275,63.16545615137134,114.26560197631831,48.065945646623106,111.33369119473865,103.69965279754254,104.95335841048373,-98.86197854885555,30.59541016229129,138.56273682808833,-40.58545211132325,145.4858794710853,85.0583272348318,60.79570278372535,177.32656335084914,95.8441242743672,32.525002744927434,183.58695115672586,205.54698666916042,-99.1212074741519,199.92969392746357,67.85720948615717,21.388840008693908,132.44679733288615,65.09662820152748,-19.407860330453317,204.14005046790834,-32.533944049767705,68.1154366544651,228.40062296395737,96.56716234160751,15.577136052640324,175.27516511770904,1.4414601130287474,61.6288692913082,117.27332493533353,155.62655052910003,151.15246034274983,186.01684086981916,23.571221028273538,4.665971895334813,98.83440384801563,145.2362568716949,198.3515029420631,120.05071819032008,202.88116738130734,6.890891686361727,7.956534399730307,5.600373088017934,75.46572507966654,139.55668174445069,42.70036001395659,-15.135934614386361,131.58001055367404,147.2256313242919,97.12532900527538,91.2382074753995,53.44679325364759,-59.715019146659,71.94678405802188,112.48571811735856,-45.3370417871827,91.60806948658661,103.50558387815069,168.12643202242563,137.3223289861556,115.27164128733617,31.29455238106966,204.27110429956173,67.1354551673483,130.56409445031898,26.693153388732828,87.96727390099629,18.72043987558003,173.0818890541549,150.6127319023101,148.70920116722286,219.98837091015758,163.21820447273583,126.4111493778843,-489.8925893670932,137.53947529996307,76.09318640200587,698.3572396536423,221.64118266973009,256.61239412268,307.46246552791246,-356.29249014812234,113.72764482871328,261.72315614847884,-55.71725839045077,-1268.6562297948633,290.2130617772988,-443.77497760509914,171.02829301951456,250.078375555335,164.23791768009306,138.5856291880037,132.5870662689868,19.06022209107897,437.1227291429286,264.43990193662233,88.12587548418767,182.05535963675246,134.64106056184326,55.48577364951803,184.3274478875735,167.76349288725135,12.154829415756955,220.5286599665786,-358.1371376231768,77.83837006877592,191.55898936691153,217.36731661927956,170.1274724615227,211.58497411108945,254.6647338595351,22.168270131565237,92.30664972252443,137.5347580519093,196.4205743534374,238.85321042803378,208.44184101121596,-436.41567600698033,442.5899115691534,-178.5033257061505,106.86265585789806,14.483438430957513,94.95892990071223,147.37797117060984,141.50730904820966,543.3729971472492,144.91522961042315,157.2923365663643,195.57675822165655,706.6306209082255,-89.34102034258748,185.8297528153764,378.407414845323,15.190298092119601,253.0222065887851,100.51963902532277,149.8192002956687,-134.40306148245944,112.50318331150866,78.96195309223319,320.9995591357484,238.51496175151465,-80.37954110640871,676.8180344250418,606.7792677386836,118.20038477118823,202.0696983439092,199.95879036245216,112.2007314200537,249.9668017691605,167.26714854354069,55.644101474296455,322.7335848747905,499.4233187617152,216.9364345086357,294.2278260093219,53.86883111180093,77.45409561944103,323.0662311962314,285.5651232633146,-296.0771747681285,312.22748856024015,50.469981755314734,69.88191606032295,270.59153984627375,-174.81955145971693,75.762590002037,-137.68495571894363,270.9093667100897,-14.687854343181694,193.29302713342477,112.97401239460011,129.49340541176485,451.7034563863046,213.71721246008266,-94.50289336051702,-287.07600409688206,277.4716374698167,180.72314554935338,164.18760143003084,84.66648680865428,-95.85693472704752,290.0306505497724,-231.2355398615625,660.7638025404517,-100.50212102491835,-242.18989530365454,201.50909533483474,184.82991481512596,-103.169284813162,115.49529628651248,178.81969187769428,-197.51945490773653,279.6309336119163,156.03597299045393,264.65788915272896,120.5173463535981,191.2098963616756,52.89659552213,120.4216032491078,451.43244370384537,152.0201420302741,189.55212995879953,-385.89399876865735,74.0847527216167,60.7895742170868,58.621568894672485,43.50426296458495,103.87418418642137,81.06809130403683,-146.0609300205088,141.3177570834475,165.1079256401528,18.011386569457787,39.15695359640293,134.95965744987745,27.96123885341247,92.14983548841373,149.08307472373107,69.73788833641251,118.74169737263962,119.13438348790834,109.14698609087625,65.18896462883436,91.28279822423116,31.43407490792747,92.53658118120225,10.215456810271226,46.87192160026442,61.915682830534266,57.12305059097491,-97.95281599398378,50.35658763415016,70.35101047496794,45.30427712030439,70.80999427527641,84.87194517000646,72.22694946003519,83.64218506440986,0.115597907436878,4.211344344945752,60.72231797006109,44.537678863797694,-115.13902028945415,132.43328463967833,167.88661596150416,-8.403951966451464,59.90568868710942,138.7347436553709,-98.97561342197787,38.66324407481138,72.22924460366355,-50.47530705707519,-1.973588902070976,37.200711070582166,67.56460746538974,5.761918182270867,124.23701237677649,108.72000256168363,-112.41306055193033,157.82509782067788,141.84547338039545,5.3897792637807225,139.8568542050658,84.45032891750192,40.740758573070046,116.4035314686615,82.67809312090935,-59.69716398126189,128.92946152750628,167.48183759199986,-22.83504547747744,142.76958433659343,97.46410287627205,-86.26468690851442,124.24653613978519,17.65921563032217,-4.0475647704478455,107.4482677122886,49.736389118155,2.6340555627116964,160.61008684259815,82.8682132629334,18.845721803994305,71.44648503406464,141.64796484108624,119.50225674225479,125.87832038825043,127.10559533110678,50.61095393475413,126.69846937761955,69.91743663889146,-9.991906016059032,27.012953553420665,59.286618608792686,33.333685784456655,104.08404979889089,104.68634326134944,20.180673472735904,90.10093655189347,79.35392514422205,80.37776816387773,139.32897263046954,92.99545455818891,10.211950571913025,25.980535827067662,126.11474425369474,46.55111700476321,75.23138877944619,81.30313862954532,22.310468628081395,116.3950935319415,51.04907017136226,88.71554758844292,60.51167007849453,72.83544397152458,83.19757009825635,117.3267359548246,3.7922416193932427,-41.10065400523514,23.375402220403586,61.662208763779205,92.67433179967794,42.54693866560463,93.21921645557596,0.7088127206752194,63.54209335139071,86.94598543242529,26.272178286447616,170.34177680057934,39.88282227440598,62.27087449065353,-344.11568095579537,63.24231120187379,20.273401667781627,64.77771306176248,66.07180019425236,95.5476178330121,25.64645193866879,66.90447803496151,25.31906471961166,60.408243513213684,29.95458137528426,71.26952883653226,122.11970869253149,85.0737373042538,117.64020802653717,80.90735528931566,42.7413128385513,50.676209499894114,87.93095070604467,63.8970265307919,39.471480815877385,54.182122027390996,114.5067744882106,91.77034569786217,54.31993036694312,8.391025277663651,41.275494028609806,172.66489192213058,21.35791005190116,24.827040492759696,67.29431064052424,1.7623516068949696,66.41570068134993,74.75614171539743,96.18008465166119,96.7156119586512,113.28037473829195,0.16066663685022428,136.64018969197062,123.53047535168699,66.7613258903517,86.60409750110662,40.646459330842006,71.60457010244748,76.39828182746038,107.0899584541829,108.47497490766412,19.540126647124442,94.65199153889405,-2.2969496502501414,52.16338239720168,37.643853543713334,6.700969337245396,87.72873176783823,54.03284075656364,57.012225152026495,-73.70295998848202,72.5174918729918,94.45155285639562,-98.95031838383572,84.57479378805193,27.139744957041255,75.51595020563609,92.55344264029907,75.79501302585969,-47.25557470398236,113.58941208506157,126.03176692498236,-19.55787820147846,98.47705859062883,56.04611739130446,-14.567409709221257,77.67715831799268,55.82793024528092,-28.61429584377691,60.146201804997226,58.806151786956654,77.66273121633328,142.1481695382767,-33.60637730317489,20.267905539581523,69.07617123509786,56.71073744919205,12.151231394754074,25.113187426589242,94.08467595645523,40.359690583599445,115.30979170712905,-10.668520663901356,45.17631478839223,116.5116300907343,66.39739245376514,16.743593115706247,150.01103412751215,146.48744856237096,57.47140884166478,83.36661956222677,28.46209472518355,84.27803927838666,-23.309559243643463,128.27447415912383,-56.79800885938492,96.04947767379667,92.57654516187891,78.89672513870647,37.8801729717453,120.4581133886912,-83.38229343250566,68.62883899581071,130.76908955189404,-11.44171708583038,88.45700471148878,-11.897327008191656,59.31309571135089,53.38016807067321,104.75009539335642,-10.438175496903215,89.59767810345669,23.332067068620685,69.74309778654323,74.71479685832648,88.07638779163095,5.711038170777473,67.1581680196532,78.90374829531345,5.1364186034430395,187.8597835155346,123.62469686626366,63.81392525908683,-278.7076377638547,150.29371991879432,35.06027305278182,-687.4838520169438,73.35760500971226,114.48111811334941,250.88669194165539,143.2179760960932,137.0329564816998,252.14166603209875,12.635696606560225,82.45227378866426,268.0001692786314,370.3408168373464,127.73317202262437,184.99728730829497,84.24794511925192,145.681569163287,230.1560315159468,28.112685074258916,-570.4584176154996,200.0140622432909,21.949656807905388,211.24427746643298,101.63127648978534,48.167571455642744,137.27671212085676,181.48665373465187,-18.686250217794306,132.18869369841423,332.975493827379,24.9180901614232,205.7021827646734,123.30422805365977,77.50310881746007,184.997358035619,189.552849164245,39.95716731658046,138.5536730381606,107.18185497425777,132.35462567486874,181.73628454326033,280.35057064527257,335.74029370257534,182.11779577388677,281.295741949455,23.82760694158821,49.2730042219757,197.4318462039694,-216.26736961253658,104.13599545230227,32.538716576391465,68.1300389433624,114.68014549760096,83.94724328212048,-114.26910636814713,-129.4075384356569,192.39543795659725,181.13387882680243,-107.416583436318,112.98332116574709,-3.833467486092504,109.88774668968286,337.48839439558344,98.05250835826659,33.634483991789054,263.26773287478596,184.69636169871706,-53.36685180795789,-171.45168566438542,-126.28773246143689,159.9336316338387,202.20793543715234,31.712979830253193,25.56484541110775,180.242232156842,131.41356308109678,143.58210965569657,217.31336624033182,-133.69067598010272,80.94277500830133,238.93827798306472,-3.626438350234836,10.565062921807202,228.15147578182504,174.0938656333732,186.6869763736751,223.3529229312125,8.356421853496519,92.79977229481126,145.03712968607036,182.65743033997802,24.103583634710834,286.52160750958075,264.2003400452665,159.29052317988112,155.62901186064522,79.58630843628637,100.39812390364104,-323.8536992791849,56.017980352868385,-52.3714474448877,266.44636759788125,237.06466894574908,136.50354138981768,180.0166072656562,187.02128739740922,39.60140247182502,-24.054538231387912,286.136360373224,37.08402064673625,-233.05409895796987,181.90645816173557,121.80341388995052,155.46767878285607,280.98574633161627,83.43949796179236,196.06601294180743,156.98182471381196,247.7412138586488,-44.284766930473424,-114.39488784523797,19.255425001730362,154.27515669431023,184.20880683431008,111.24186912988422,298.8718766040276,88.19355697997572,158.00199863713303,-345.47996241429234,28.812990173438443,-0.7979318981168804,81.23318509324734,162.8226683668829,117.07470486059763,148.97456435550274,183.61623506258763,190.57217750772801,195.94466212920895,-12.683625888043807,128.84298683599636,202.183581550957,72.10273651630234,148.38109143101767,166.70173356722628,55.85478444162298,69.1530384303701,176.8309214536016,-5.945645309962755,107.53576483045045,118.2538952007689,63.16621882380545,184.57040887809936,176.90522226445407,2.370169689153049,145.43691378849545,40.79148427508573,-23.85237683683429,64.46614822545689,142.61179166680745,48.57055026056641,111.35598384512882,160.19331006392508,193.93607964729162,56.2930585724878,139.42106029714583,24.982018342747736,187.72101052569676,149.14413291803243,114.21148203849103,127.58230282563855,121.89454244114313,73.69164797650738,177.79907952795875,178.1402389475374,-3.775599596322042,49.74494773312152,161.71342667981844,110.04918458180592,64.81842796343281,37.154946720403615,-38.39008555933472,157.08719143703257,76.35519290174209,179.1536141245618,-36.17447318717955,131.99377005139064,145.7440305665759,60.58510186728437,207.3952468097684,60.75647372521799,104.86931565742773,146.94203888457264,124.516792995805,72.60653127273493,164.169019628046,252.59074989777932,-42.340947290935844,166.3053000193268,81.13675074547214,89.0267955680371,96.55720555914726,24.347943055879675,61.6303525641719,85.97961350699448,103.72411417042518,85.71899229039641,183.426844632324,20.243276858114747,101.18768053529834,173.66193562722873,-34.03716609809557,49.757531929413794,169.73309548091032,150.64216579764826,142.65299287366187,225.95624149210167,26.645037830074134,59.99658089743416,233.1987865455211,185.03110776597543,93.94850202966893,178.0558969799788,124.0395087573722,93.34770655821872,134.34645073969105,60.7003853619083,73.18377643397288,69.40251843187481,132.29396550054406,-68.0097138151616,166.6742686764855,109.35252102857106,108.99794232458011,114.52500668370703,155.40858472501003,18.99747693363168,193.53454335777988,92.11644460291036,45.021095666647824,6.0986614970793145,113.36226867924101,128.89137095196907,107.48133161729639,61.88926630547289,47.166712365764134,176.70417375644658,143.59514829043135,149.89910308757135,139.5979541276199,158.99464202019809,46.68114109398362,128.42548029282068,81.02871305421554,87.8567988709829,184.81058912729242,153.23331775202124,101.00621222636542,-286.4295725141831,49.48624433808622,37.17120041358746,163.15397073074467,98.5558912517477,85.53318754946959,104.48213117935273,37.3811562653802,85.72218048571199,152.93150114275062,-3.810001238460917,134.90776844450906,173.09289592869825,106.28373424806759,19.274900225527926,169.93694181639822,57.44034562266398,88.86179186470567,128.26932347892466,49.14028432424172,52.12586826010144,128.67189729701866,9.590890182143902,123.51106335138512,107.17090131601461,15.64704396069915,87.09051052479545,94.27515585609365,-14.262333236464688,95.0043589669188,105.6765864405573,36.82964382548093,128.98270368705442,99.08433581998335,144.4595666901325,166.27326057109437,85.19042578147237,37.34959837970663,106.87308820435004,129.28786723061182,110.29596780376018,106.90163860128486,168.25314748162964,75.07416981599431,99.17437499667301,134.8065143607558,-28.718821864718745,78.69638154955132,138.96330470552678,25.38978837223709,73.40686657786736,78.51198464265053,78.03603171260983,49.58746510825212,102.09822863675329,62.40851863107058,-61.81306738020201,96.8102769102096,147.00480795963605,90.28701618034323,177.6823468078014,71.95422900530461,116.95103441711811,149.80381526825886,86.43674875849295,-50.25687404721005,122.71705952938298,134.121974883115,-45.76831765736754,123.59233199616348,75.35240981485404,80.87296374234681,123.12416073583977,100.50349052363296,-74.96157003588108,134.12969320262744,142.159791579726,69.53590824810412,171.03432510153453,52.179674711747545,91.5402902868702,166.00577042865785,18.546403291491156,58.19344490820972,114.2036457224309,154.56032138408577,87.08823343409955,114.70517200510722,59.48641530796954,25.71748826648502,110.84966383779324,131.249129642481,101.87776716001068,148.52006903767742,140.59425609265747,12.371496876456558,116.06729146964531,66.08451164203673,67.65006832168709,131.56124729174996,101.73261605968595,97.4623608553524,145.63993759433333,89.94178623766814,102.66526078669658,121.85717521642073,108.95389850783737,78.1760115113138,147.12227348747228,58.38923542500812,136.70534212362844,-66.32666065002002,97.90738474802923,217.12347451259816,115.7028013998861,115.97951663829706,41.38758973082602,86.75316833039076,60.82847625507878,122.95107697079125,122.68330307651453,138.049894903179,7.4691418877117375,62.99906682512068,111.4167374778659,109.24915748995427,141.20778842175153,63.20323130731334,52.83019175989072,-236.64043968971816,122.79931494982462,88.09532400327811,206.9837842595433,110.68731520970596,143.35286561304062,203.49973790462093,130.50881069899262,106.31787700263376,241.6334534697636,-7.408225398476261,211.73625137041452,256.8015736757867,55.092799510273366,198.86328930624737,260.9465092483012,111.41826559689582,163.56194183187912,213.261719851271,55.69489380744628,131.71425001642103,233.6353124672563,75.99885832879968,167.9427304505605,128.88459662289648,45.77021616208024,164.37091949970332,239.18357564902232,-6.5475556901466705,164.11110579824864,194.6093745450577,26.63171014512432,173.81601039421903,177.54097827273387,166.10246405358282,171.9763619887228,237.245637054516,16.68491910978895,198.07945372217173,206.50944917498353,167.54963407614835,188.49370472906676,260.8798694050884,64.14659464693302,153.75550692683015,273.5535220389097,80.3101421041471,53.942988096031215,224.5459553467996,-15.504452494913073,128.95442937930383,133.96397433150537,103.8580793419616,102.75585025160892,179.29927266498424,148.63431625076737,-82.48457469413555,242.2713134882337,216.2684270852796,-87.92796484484705,265.34312411857115,35.74455849656767,130.33956434673865,217.42514741719657,115.34913778458186,-20.42791967473026,251.9808524398561,233.47961139517423,-43.35214810593537,223.95936547895522,104.16945074814875,52.40495711347202,188.69590897120406,95.22155974427591,26.048850080896766,212.71292377642837,176.7704947060737,129.13619658422962,278.76820212081105,75.23520397683767,106.20654299837372,263.6246554985871,74.80651638942756,66.72874180057781,186.60224568408998,219.02998089011564,102.52712047172318,257.04071747853914,47.63885031100165,114.24771345099907,183.39481503134718,144.2260295579775,134.59117226391027,201.46898138622902,235.9539203862193,74.51667076749116,166.52505111377167,82.76398048365743,104.53249065080178,50.61445319203203,150.5763892114552,-134.4583664010025,141.20785719507214,202.24135907602587,149.7383800007188,167.25019973989845,193.0054007641237,-94.48709128113869,228.60463510659687,152.60601580875954,60.367416803941545,56.97927741566801,173.90692148353435,154.5283874689406,197.28695741004753,213.60661151407035,81.73633801245226,234.3374638103326,116.62305556532029,178.01160123453468,159.79344746218692,184.18099946783303,34.627315504917426,174.7381888912759,181.4312730512776,131.1589645183242,335.7688916218952,135.9790485578009,204.20607264250543,-304.2159759073637,69.15322412592664,52.45497833180347,-16.18576606719106,47.4025032703031,71.82020098898158,-3.794190282519241,105.0229400916393,-124.24906775298388,124.84676398851902,10.134222232855757,34.27794127189468,83.88035358378532,-85.54146177426261,79.6249055405389,-33.57382501067669,-21.517113420483028,112.44968300886859,66.50807646423026,100.39945233427588,64.97734846897897,51.43049701573441,-49.515103262508795,64.1482156735062,-147.13123404199746,-38.716787105187734,32.19165799548084,1.880683703849252,-11.04788092123954,-38.71669574644644,44.4553312878611,22.225114147470556,208.3363670861953,41.69511523169825,90.26546924519361,118.11759595515785,20.08377894963711,12.75444871058527,65.62476096299244,3.8078345313765345,10.603751393320994,68.34036308072668,26.684319271657866,2.8845665915867214,-219.36255231992376,35.340108738012034,-18.613212222461275,142.97141646307676,19.405826436921487,14.342421322929331,-6.0858470499476,-30.28532572104146,-20.409928946835233,77.52284991686881,51.49901472577333,-25.015670093527,-69.62647997611163,65.3623296823917,52.650534246371315,-218.0858052403888,12.300197612161096,-139.26505831328424,68.49306717162506,44.53417345503566,60.664349640952395,-8.40508327018084,75.85171992578167,73.35601830947084,-39.69001670454903,31.7259203717178,25.165059370870225,145.82029376261067,66.90993009984508,-52.102220798959685,-69.43375455369636,-70.00642190937819,11.618040380197307,53.92959055206935,99.20788361063522,-302.1094214692075,14.205457941776102,75.06057261892114,-19.194894862787173,-82.23080771269603,-56.509926068150044,35.024812655974635,-3.9969866620182484,54.91392618593384,-24.2715588943349,15.436025186420736,87.61559457480031,11.307190169244041,-99.58787859942665,40.58341548762415,74.37869990407027,79.15501040060134,106.45342924924014,21.904339056785957,48.37139560050293,57.49842183494474,75.61762701762818,6.279295021859419,-45.00146507472558,35.034207479860505,-8.882605133620698,75.69877237667832,126.71255555539705,-6.885890759267873,118.02146783283607,37.87238157946145,0.13964880872556334,121.3443559042733,90.60371073402402,53.26147288967898,36.211587667140684,34.728037567566425,-9.491133573965634,43.3371657684634,8.250345806262255,115.50095926999278,65.96371058243108,84.19203597191023,-4.74698155199389,-49.54716048720891,29.92224232786097,-268.37809346803675,121.5582968371136,31.158586837411075,14.994609940120487,-388.7752057134043,87.1746917746226,143.10492763893242,148.16021464851954,117.44731848814358,310.2491251632438,231.88038597926695,262.3309445086508,112.04251107839265,221.67483301468542,65.64525009750369,190.78099105978436,257.0348797967659,4.6581540558980326,113.70186129409987,237.7099084035253,78.64985854985188,189.83370970318987,242.53072870292237,359.7503229880933,215.29345146443424,170.52482540544392,62.605367466354345,185.48165805264944,119.68371232674276,18.807667999435953,193.54452750377422,275.0858383541564,61.781356361503214,22.615452272668023,205.12571242001786,15.515975737041726,279.16601009295726,357.11192512583057,169.49470822870208,524.653296809114,152.58883381053238,50.425260038984156,121.2898877522149,171.07989550165286,218.7963558521311,149.54782768693335,222.26458085852087,116.93260055507747,98.8648604282376,275.6955322172433,201.5813813394805,43.322811624629466,224.38770680774186,24.64782509931002,142.0267960955103,134.4347114857477,115.24153353291173,385.3966335800875,165.96075306040325,362.7258817468018,-117.41061717889309,229.9098564490693,499.2703459521134,-37.736504815778254,255.51380815338695,53.71897061343071,158.91403689770257,202.6886485888271,255.05344478662207,-72.71576832020598,225.2740101435851,215.3774260714575,-68.32096096044525,245.14111466183277,164.2759383228083,76.66432133806887,195.1404851583238,149.8035121445474,-146.60330761373592,291.7278986395983,256.9849321839175,143.49660732148863,290.6099295102406,8.512427436226485,-403.0674643322058,235.68123712400674,23.592386625589832,216.02016535583743,75.93263129311488,232.5329210052114,133.31216767705558,293.09583680904547,117.06795957705575,125.68025206974967,202.08373387666998,134.65000280504253,68.56976528049042,148.12337495885416,266.23313138324323,52.35487177226418,201.85597434640934,148.71507434914807,259.89432074087034,254.6160539393448,174.90409610451707,-44.89707906013827,210.75605977846556,247.70726105966398,191.54155955422098,176.4259666443398,215.730804608692,-230.1303296935801,297.86071330644285,162.21706808819425,124.86394397755801,137.13619704744997,271.6739759887361,239.9567255889994,254.32933156429115,232.73857582396056,81.25914780711243,239.9299392836717,149.26349326520645,166.9888445222657,131.06671277394128,302.6236456008453,173.5371043543382,295.2007559089866,173.05786803129598,187.81454049861782,260.12092265852937,198.688278751941,209.60936191091437,-517.4661402721077,121.26951798330825,32.29992608677116,99.37520431267384,53.30003390000609,158.188754923973,140.95446443462387,45.577452162208594,92.588692477284,171.36908231680914,10.637316831409443,54.014037602932845,169.1101200861794,121.47475749553084,151.39479015678236,125.24324347893435,62.27222266633482,65.8042802677701,92.26846143174603,70.59066114700084,38.16556039954271,94.84392194246048,129.62952441331214,168.5029168442452,56.7855909578887,33.30795111218368,73.04441474426271,78.00320595895495,-12.261119529690175,94.03278363441557,159.07937050925966,40.08813061261772,148.74280148600891,120.62714298502178,140.68473231534608,137.74715833707646,190.08833414762339,-4.99598050035773,185.67123048049464,116.4629055638684,121.57938727547723,60.079728154600964,165.99264148022976,55.15071635659722,74.10428018730781,164.48009528591456,-44.136924148183176,38.85795954390122,167.20473708669044,14.516230343431134,44.19553179157462,167.92941715648493,97.64416735636361,95.11963171224748,111.20624532797224,141.90878825122357,30.72228198805451,108.6783938962492,155.35502599056215,-114.45278598178227,194.92920115594822,51.7873296835819,111.18962559658118,186.8717622260276,91.67090517086731,67.94099854849443,161.1604011780966,148.60767113855243,-41.708074139062866,166.87059758113787,81.57449667449532,115.03312207576886,155.35700725841278,54.157536136722214,-6.364415516526164,197.03988744781768,101.02445586111284,101.30641089162776,263.36048171101083,41.131648830570626,45.077367496322836,122.04255335457556,87.43260041841074,-170.077701844759,20.61745817993869,155.95488229481614,74.5803676647291,129.12708368164368,71.98791538149807,88.15574072300412,1.3716624551544436,117.32515236162018,79.18010907562228,135.33401170367523,166.27474140948186,31.432042771955704,129.2053914895924,107.47873422106264,83.06441130310024,23.220056779286814,38.67869018607298,-72.09440362539178,190.78239570944223,188.2884459740807,75.35989582847827,123.3925376388839,111.2891580772017,-98.81020819264138,134.02045917493308,139.07891462315789,68.59189815662926,55.96830379032431,94.99401869606896,127.23442512881024,177.2598605345446,160.08746891156582,64.93025805434185,131.20525879755084,78.26954298666898,132.9144234022151,-25.884923806221572,156.31428344752862,55.28515085472382,155.68468419459208,179.2942196254257,90.19125311213296,259.6373508553686,123.92472340824476,133.43520049121946,-240.5767059902981,102.05420462310666,69.68867655507219,136.0590676417799,68.9651646401703,91.1585167841904,174.67439385857423,43.04628563261406,-7.769390465810805,193.64203209338464,-46.594865573058854,124.78928492841258,167.11940121183056,141.58334890175078,144.9861074527085,218.12105507973482,36.36330715599703,137.06735947228668,