encog,BasicNetwork,java,3.0.1,1,1328573894406
[BASIC]
[BASIC:PARAMS]
[BASIC:NETWORK]
beginTraining=0
connectionLimit=0
contextTargetOffset=0,0,0
contextTargetSize=0,0,0
endTraining=2
hasContext=f
inputCount=32
layerCounts=2,65,33
layerFeedCounts=1,64,32
layerContextCount=0,0,0
layerIndex=0,2,67
output=0,1,0,0,0,0,0,0,0,0,0,0,0,0,0,0,0,0,0,0,0,0,0,0,0,0,0,0,0,0,0,0,0,0,0,0,0,0,0,0,0,0,0,0,0,0,0,0,0,0,0,0,0,0,0,0,0,0,0,0,0,0,0,0,0,0,1,0,0,0,0,0,0,0,0,0,0,0,0,0,0,0,0,0,0,0,0,0,0,0,0,0,0,0,0,0,0,0,0,1
outputCount=1
weightIndex=0,65,2177
weights=0.0011363983673003952,0.19070887601513611,0.1547703765450446,0.004990403496864693,-0.0044489244327723665,-0.15412838841151236,0.05757612237525066,0.19735024556675937,0.0784801710678778,0.1436713127273499,0.011393537928416742,0.15406631164760481,0.1532391303818868,0.03571830376318806,0.06435840272079019,0.07934201729005111,0.07869782346865557,0.1514869948466963,0.14563826096811233,0.08465828938627736,0.0693770478122349,0.0001347134498088376,0.1802272677773901,0.18259498420204706,0.18805929782405306,0.16996241139608573,0.016726235921140475,0.027927072815112003,0.16763362929064538,0.17047372035189692,0.021298633548214402,0.046148767258997456,0.07343083579974025,-0.0029006948823071532,0.06559167682500847,0.0865542365796624,0.1251905215615761,0.06403120671845244,0.17372211541995136,-0.032941968421247886,0.07950777926505088,0.06085731259410802,0.06439734530369648,0.027869917306274444,0.03807805310744343,0.10609323591369525,0.06226552294311494,0.05209156893127809,0.08487516177159453,0.04468831587493041,0.09585127862508123,0.0857548750542381,0.04658702366831233,0.007181596797751155,0.05131658949614691,0.0019377093180728,0.1937998758008002,0.09652762325675542,0.1852949123871896,0.06909130969747622,0.07838843365507367,0.0542696916160144,0.1344810175906463,0.04405917103658212,-0.9238594043357599,6.437169903732829,11.856272788865477,8.238131671015047,10.068702568485136,7.627970383946746,11.19374645234223,11.862725327558366,7.429734246584965,11.02297470000628,15.39814683914106,11.293098687690549,11.193293122939904,12.18426318759961,10.440875558864878,5.197237098620955,12.45346035490427,6.257012764467783,10.3208800331582,5.780410418456674,10.606636460813794,9.111637171104887,4.856246207680405,10.804258774441951,6.205202051760379,5.7620968006126745,11.983636051671436,11.167672038728487,14.527195667269345,12.370605784377066,15.77667832844753,5.486295640498229,14.360044679409775,-251.99142204665847,2.53057656037696,6.50097836826063,2.4342653790226416,1.8672551044305354,6.543827626580462,7.996264653659725,4.199560263249254,7.495636659754544,7.273192121398881,8.840752952642939,3.640248564377946,4.235404258589836,8.342518648557013,5.800834705695629,-0.1518806061771871,4.3276742755341715,-0.4879999499065727,4.226760512655618,1.2208964451082753,3.298840235106589,9.032915171858539,5.5871055001073815,6.567728474000282,2.3176847785976005,0.5983149383999113,6.109482738783227,3.8363884794214465,5.949031903322894,9.743528687977038,8.149936108694712,2.18428723019997,10.429526695545452,-188.54228761341372,-1.4206620205355884,6.363774533507213,3.2831614881553244,2.412579796657717,0.9259911876409,4.910399354801518,5.712793329628026,4.500122378846101,8.46095033452498,3.332216670378984,7.442177195434376,3.776898777341353,5.260989534341393,3.9316312858884,4.325612012201056,3.848856509772381,0.9050334399462755,6.390454375222876,-3.9308226464904235,4.149702793159006,4.9017575539367195,1.0076453157963337,5.840907112680543,3.285513351883678,-0.4988889179150203,4.233265856698462,3.660138558723203,3.773813773683144,0.6757927746521969,7.800211190440279,1.896206392164443,4.564838123770315,-181.8873955580564,10.05355509548431,14.35620905029163,12.528023134122115,12.871914724909635,13.130937692447661,13.906245888649307,18.67732999503876,13.723524827313076,18.2823055942215,18.564687704347982,16.104867235606424,14.295066236380283,15.247945012798093,15.143884796623151,11.248390976592864,15.932739834678253,13.149316110554576,14.503711117699872,10.034577297654394,14.24707109076288,13.996072943299161,12.03048554729846,15.138128314539685,12.927583217849874,12.327767759611747,15.07964357079945,14.419924404254363,18.938916559626698,18.258169643524962,22.176093936678846,12.40229760682595,19.363293311885187,-274.8992313990595,-4.492768712000297,2.2827566925602643,2.428946093637025,-2.4899745027358624,-2.4034134652476125,1.38431116348438,-1.6205741661891615,-1.0041417846729823,-3.1761994903822695,-1.238405928526642,1.1498376073866226,4.758601161127142,1.3394507822681523,1.5349112701363183,4.77316280884346,-3.1838741148656267,-0.5899478497110859,-0.47529499972048594,7.014890292988135,1.2836704605929357,0.02293083124685863,3.962955703981795,2.295118674216405,0.237911646633265,3.8403522218582236,2.619541942386263,-4.735963557655134,-3.867349192181756,-3.397593940475368,-1.901654316323874,-2.7462529564504647,-0.8775997817998478,-96.2517820994175,0.7937252566172692,-0.49270390891180316,-0.14344103578652523,-2.1428929528029044,0.4264348128194553,2.415241365038424,1.4159625093090487,1.897491282814392,2.9371439218000175,0.2539336883268001,-1.6640155439624595,-0.6426726545104411,0.4876548914606996,1.6444240212391268,0.46879698313229146,-0.823305632001616,-0.9803518982509788,0.6962868573554587,-0.21692621273477575,0.7046322238747268,1.5024659619385798,-2.509881479109404,-0.7246732921798377,2.4539289382958676,0.558792939264771,0.13452429100502034,0.4373258879282409,-0.5068293202683084,0.9467786205614731,0.21781860004096273,2.836331483147115,-1.1784320249282092,-291.414622642546,1.394029369832333,1.9695552605486961,2.3775321379128314,1.602129967623057,1.0449514880100645,-0.03877532626620259,0.05555869002191391,1.5656216908682405,1.2630810146610254,2.237765245577584,0.8571525815523493,1.220421026073164,1.0248466177099962,1.0918196851105915,2.2494019196514454,1.4867447968971361,1.0508466098300837,0.7190821411136626,-0.14596466323749535,0.7222499818736176,0.38747970480078897,1.6106520908565325,1.6470151281432925,0.23265051885651677,1.1616951857829458,1.1731200292398705,0.8956390962284019,1.190258697234079,1.6023791681895632,0.8895986805198707,-0.5806132713711496,2.419152873058926,-171.25982155944496,5.813615131504318,-1.8935943983543546,7.850992692854274,1.0724967618538157,8.475702860111925,1.8249668295754904,7.383576579995119,9.93467406415055,5.1184338579710476,2.3121798883647555,3.5147491533963007,3.2400249189621073,7.239602902561142,3.086353160560559,-0.26374664608988774,5.729652429359151,5.471008873125603,-0.415103626229425,1.855256009765724,0.24512804199745808,3.630793185684081,4.803477975461353,-0.4910247351459963,-0.3826255660230051,6.185904017004855,-3.6139088345905135,-0.39700669362624597,6.159975429742572,0.9239793063187741,8.480406386111152,7.167957803952319,5.193791327225264,-211.37776848108018,2.3226229784294197,4.057986849710023,1.7636979106670663,5.056983042977541,-2.7699612915576575,4.993960378121333,4.370531290945424,3.1727676209075337,-0.7368822096429711,2.6364088463349513,0.1819516819589111,3.751952904847483,4.92681402898833,2.0000603259558516,-1.7775931934372342,4.876131416190779,5.599894107756201,3.301513575393159,6.342414436494542,3.1228461717829736,5.219207951976101,5.113414607590463,1.221263369933817,-2.176484600430993,4.33046384281849,4.121274527330204,4.125487603194377,7.4042605359768965,2.169908641730423,3.4617323532352127,5.306171132385097,6.439348124095753,-173.86409925756718,1.8042904849397519,2.9038111080955527,0.3989435143076443,-2.6706294308752465,-1.7973198231354544,4.490280376594486,3.2046459354498458,-0.10103589957965006,2.99353525545561,0.23111468394327772,2.8778405356832364,2.4607335423073313,-0.8874308217170658,3.8725855449546143,0.9215982538409598,-0.32322416859346126,1.2686210943733038,3.76168524126769,2.9120981047521597,1.526597998813005,0.8259126118732241,2.573194684109515,1.756758678652751,3.450746659366047,-0.9496767152146083,0.5816616490943076,0.1436257373568357,-3.203251870695981,-1.9381745062029263,1.2564507710885047,0.5447123858426425,2.1001741504674136,-95.82042220835217,7.827612463227303,-0.7148804551743843,6.316157983677342,4.0607668455365795,7.410628414967154,2.383600701262696,5.828235482223584,9.812442575362871,5.711006239008284,7.555067192939369,6.380595425053258,3.218964396181592,3.6985708556465475,-0.08103036981651027,0.5602088639266913,7.967661025833615,7.970323961194427,5.808143707682463,0.21050377961096367,8.277201621436188,2.0438593905505393,5.1912834692994,5.918084961840582,-3.2250618837378773,10.320771364556556,2.2220792688849524,3.6554519884541268,7.46998129731754,6.314972082198929,9.085794128970697,12.455786221943765,3.4996439168947866,-328.7889914509483,8.856263393118116,6.193465112856955,7.377472426704522,9.696847932077842,8.979733406991546,9.798036207903595,6.353155603059555,8.139849349846163,8.814526917089854,17.416677171718096,8.546675492357878,9.100069707862673,6.890837459263889,12.732672295547937,7.517165217134343,8.155114787472279,6.008567130930388,5.43277251916176,3.1153818297069065,10.957289693034353,7.387044388291137,3.043633006592585,9.010387809080457,7.5595719764831415,5.959153740401897,10.533585593061625,7.99384160341053,6.786765522613196,12.574450133942676,9.967183820979516,8.04868590800738,8.269938605018467,-162.3920550641662,5.199152047729642,6.682032338639045,4.855743692586216,2.9367415145934292,5.2654265773072435,6.532859927890988,3.153863605687633,0.847997980536267,7.803530047030448,8.646513197176214,4.521730652730376,0.21865053365384002,4.782188792967483,8.032089406627495,4.388323687906494,-0.03130354482086367,2.924110898898532,4.964795438681053,3.8165576310763796,5.996178918927172,8.399796286841623,4.472050867989518,3.335591138247497,7.485931992869866,0.46373293273019833,1.406884502866804,7.100714346194437,5.155119426431472,3.3180840180403557,3.8303751649805355,6.121550402355535,4.786818713227312,-189.46303235450418,3.697591838122022,8.647760332890277,4.291561784810738,9.025846881882275,7.326586084843171,7.487491712964907,7.5767117096929955,4.170557766398818,8.28222412217359,8.010911136293776,5.375931873988301,5.586771635845855,8.12227401343837,6.81686005192454,0.3157466351584829,5.977378369834324,3.8258150238635067,8.414698268005758,1.4340686009182702,7.396215459236241,7.151862734762801,5.462618845637088,6.769371357342651,2.7512310718625184,1.2753066619232647,4.791996087261499,6.052982851096821,8.596827950915452,7.887478924257777,8.038278696789869,4.851220313137279,10.098259171447827,-266.4952162352485,4.31510259363138,1.44005091121754,-0.20611025715217887,1.9669222332738396,-1.7865750308990105,-0.37680973179697075,-5.061059196399593,-6.256658497103659,-1.2282499680897212,1.7930202891784823,0.8381660609643633,-3.2185176005551224,0.5730722753725281,1.096888622832362,-1.769858411294698,-0.7827142114722265,-0.586624399817723,1.0383082085277184,-1.5635584794920874,0.04346250199454235,0.6410570119662875,-0.6296226383301358,-1.8450706474837748,-1.0083901780164748,-3.1328894247453536,2.3415885341728533,1.1374714779152564,0.7111616374315867,1.424591917194964,-0.9888243681996399,3.2479912554205645,-0.9272923112577042,-317.5826708482881,1.2267485055765488,1.204317633983064,6.307248072541577,1.3767536707693173,3.5199685298692085,1.185512914276703,3.5433200999715018,2.1805868028335076,4.324601073599831,4.89838739423164,3.5892532788371616,5.230207755211626,4.243060013164636,4.596162840763576,3.2939075870654224,6.216196517209256,5.092845670269173,0.49685751252165133,1.3856916297174986,3.1432612299980054,1.3352704781503681,5.509476155345766,4.122408052385087,0.4523204783521667,2.897518357870871,4.959805982415231,3.136118498029523,8.182390976784802,5.160595741420549,2.7144259837742526,8.039628093642278,5.081369919520301,-133.6218685731766,-3.592577606874534,0.8623927422561632,1.3900325290919002,-0.15259631411582397,1.8867678821239564,0.1881694623033083,1.0859537606517002,-2.1614197960734263,1.073173432376454,2.3773466618247756,-0.8887989400388229,-1.4853959235854322,-1.4696579081924468,0.11998870881197041,-2.803126353206296,-1.0663363502517345,-0.6848814412671301,0.11825831278864704,-0.12023162997982056,-2.207588828179586,0.15137125971237883,-3.0105571123480135,1.4454710459875901,0.2198657997348521,1.6163570245460792,0.3757201640263024,1.8529484665743805,1.5364497031453572,2.302501875029049,0.9103842504733147,-0.641520192666738,-1.0075438750031096,-169.0895976082291,1.8003447460065996,5.273538293224119,1.8281433976332733,3.4622338774339707,0.6354688311579322,3.4206072976525577,3.297559440746572,2.267154258689051,3.7044590108439888,4.351495630911153,0.6938201332248134,3.418190330793719,2.99626603388552,6.289351267261813,5.055089866448358,3.817435844245398,-1.5824682501600758,3.550052083098206,0.49102595559969153,2.5085558430183346,1.7508362573014526,3.6829276392633883,3.2182530285998476,4.269041665198575,-1.028971363730351,4.256521919273699,2.553982972520506,2.0073114899167654,5.2131855259895445,0.7122529112983175,2.434764794871767,0.8529085835767451,-140.709091207869,0.5673122925355898,-3.8652821584349657,-1.328209007544367,-0.8412078025368845,0.33034637452479687,-0.7045733010152192,-2.790389094359315,-0.8960771643648019,1.5997417945441028,0.8852726525467106,1.102558273876305,-1.3130271543429237,-1.9980518310643962,-1.5691497861123276,-0.12495924876280945,1.067472425414263,-2.0668453156907085,-0.8787082526736747,-2.1725166000943585,-0.07887786199643168,-3.104294545675302,-1.3246826045691416,-1.0401976847256802,-2.6346101309756733,0.8652505335932335,0.4662953066501859,-0.2084343578093761,-1.597347365677614,-0.2850055059910358,0.644744688349709,0.19223900102467747,0.5727399394931023,-186.30290029458322,-1.122945924625157,-0.4641280002566909,-0.1663372303801076,-2.905233662726864,0.9814258369559213,-6.213543507104135,-1.6703993244475313,-2.148827833007852,-2.3132077709940138,-3.6967549714284154,-2.843119200039861,1.4178183515366163,-6.5206306664963725,-2.482016866105346,-0.87954248281481,-2.745796789455727,-2.495898729846652,-1.0036249615909978,1.7634011809764147,-1.8887505048970588,-0.8891990117112077,-1.169943215868841,-2.0308107344291275,2.1698817670902946,-3.282973420353498,-4.600120538895094,-3.838522225662692,-2.2076065591617016,-4.276310144401226,-2.6297708451259076,-6.2439862803616455,-2.937957230563558,-179.29538619612208,-0.22810220482614507,3.3238189555648177,-0.799003101832257,1.3921128537406835,2.8289427158489335,1.8530080592196345,2.937620586164526,1.594865483396005,2.4181199182117754,3.005801655754107,3.3867717607310746,0.9358238169886431,3.815824085354483,2.4767222935634616,-0.0058840466128458335,2.885917213461258,-0.2772779318304722,2.946863826126973,2.0485322107206576,0.10710049621406723,4.08521918300914,-0.9229387080106491,2.4691251550318527,-0.9366111821746933,-1.2996013753999236,4.782849076152399,1.8117573083294225,3.5010156421178342,4.852336044627244,4.234703256142054,0.4586965205678607,2.1367715026736027,-169.0725474591326,2.406346444576787,-2.9308681677655763,-0.9915056197035897,-1.3530166542591116,0.29170577623191807,-3.0638116734438707,-2.776914885140494,2.4293044860096433,2.220755591239054,-0.6245448318462228,2.8538315491144197,-1.496755565906784,-5.111800882251396,0.2912641516237823,0.7401317253387,-1.28400135434455,1.2073407581589715,0.7123100760524447,-0.5110954065474577,-2.1876947362790795,-4.693040469436287,1.4140758904063127,0.4489005350194023,-0.854193354816051,-1.945992291245171,-1.2054055482920965,-1.1129114328570977,-1.7620586421777933,-2.320777063502118,2.9585696028063553,1.9905136028804198,-2.665870872932368,-113.88827194454646,7.365829208123989,6.104931870702253,7.430933330585604,11.385550369713366,6.1606895823420205,6.02853859326641,4.074188576392798,4.858306444020467,12.031859409569757,15.756188054814396,5.912430026651893,9.989575121066727,9.499199875532108,8.620722279760578,6.429812960198889,7.641703011090261,5.429071721020739,8.563494800331972,4.000769923624966,7.973088058958864,9.709368986188805,-0.5171080028639533,10.32796846182965,7.431887748972902,5.943917928108546,7.0835517309584715,9.63261297060618,5.318976553465464,11.387747875121054,10.991265647231032,9.289986579335173,11.010605027981475,-164.65318260496488,3.8422773848784177,5.023021890582034,2.582398523699301,0.42468263022939357,2.6474457679970533,2.867344238132459,1.766290831822857,3.9849075455926766,5.824191365743425,4.1300992341373375,4.11466482715084,4.829489939191396,7.062768657055079,2.1656939458216593,3.065522251625976,5.918664396895497,1.2813733807014582,4.684263242201717,1.6214693729140106,6.869870600450439,4.782521680906159,4.795010957007764,6.103158556655266,3.41886960209358,1.7289843446928361,6.711896556311826,4.4488915369067845,5.914883962378486,6.604510924202932,7.818019706208758,4.671160162191546,5.639658254406176,-186.51328972643267,3.9280176582984168,5.488923570947857,3.8668291694417785,5.877634934772454,3.3155911080184297,2.2639872392996736,2.753056147452366,4.526193391903731,6.443105115982967,9.393877082174312,5.348223232437365,1.0214297059853323,6.125752847167178,6.110158123511681,4.890594275609103,3.767555493871763,1.4970092020283974,2.5486534029885672,-0.12124518268226889,6.2752935118731745,7.828314591853954,0.5998025626697365,8.383290086639786,3.0370860345016513,2.373565757350577,3.2165480840036738,7.284350249159175,5.919809779159001,11.804470504009398,8.201300988996493,2.762962603824537,10.009059240868716,-187.72580026160378,3.4071080316870432,5.272987166101871,2.2046762466595733,2.5762087083907357,2.7200641967288806,5.344080584471432,2.534903071981239,2.5751512409499338,4.38473777285236,3.010067269211703,2.202712093316377,3.1172986483982963,1.3372879905196204,6.283290835060582,3.009925737463732,2.8227886798888924,-0.4382093364247459,4.321876761498467,2.2141453170847596,2.6742832543736186,2.702046729768644,0.9158061259187461,5.108546921313189,1.89268841551525,1.3201200452315107,5.408046045278873,1.837865447065825,0.007252926645243518,3.3508411261289512,3.414820875813261,3.5028994458251947,2.488308466687618,-244.36500399945544,5.022350629685437,4.729755399466767,4.360057258642819,6.907090512099685,9.648920133689096,6.706275863242606,8.859869785600491,3.1116957600160298,6.972299808333715,11.281753183345515,5.330064689244465,8.09316535286634,6.985955007427294,4.515464569096212,3.5430787406124216,6.0287023432210765,3.885914979840055,6.192723677933657,1.628814253787457,6.493167782339037,3.933810220608897,3.613415654504107,6.006918712128001,2.311004696273727,-1.3407285587512492,6.349324319679989,2.372531796572499,8.147019121558598,9.004959459292799,11.499569334588898,4.859658011839588,8.904961790344428,-265.1821646772316,8.004474814313566,5.942170475188037,0.6064221010158333,7.4435128137148086,6.940431451059555,5.148979781562539,3.9284553152176085,3.5606420352024264,7.778255539763869,9.324626085314083,4.5141548191665315,4.540078426698153,6.796668625650259,4.994701299313052,-1.5092590147435914,9.332802130030165,-1.093941132262506,5.480422848434433,0.7937287035144676,8.592705802458964,4.715080250985526,2.7822251086320007,6.079288144810412,2.8390376118112943,-2.766244030235732,6.08327712422733,7.9059761695322015,9.032582674230511,6.545646051748434,7.917976408874641,2.546180482827586,12.061598321246997,-277.8319575449697,10.094752969633486,10.551193655576464,14.596598673135473,6.758668089361677,11.176057107469118,10.514674258810697,9.929825728028753,9.118672775647852,14.419049602188249,11.73272522000793,11.48876412259972,10.510652561123955,12.775734774495247,10.361847616695528,9.861452590378647,17.40401797994215,15.675653124675373,10.876691240941804,3.935111484910835,8.946674006478023,10.388133135164129,9.86108933237882,12.214733725314733,0.9659431244258193,8.14739887545093,10.776782889942755,9.065532834117633,13.442461664360454,8.290955849614022,15.5951506557439,10.915472491679099,10.877353774123801,-178.58842779576256,10.607149511055633,10.344998976713308,13.497459535920939,5.930551300982476,9.870905809184988,12.903128193528282,11.623895007314944,10.930575826758854,14.426021272188185,11.21045698634492,8.995180411823453,9.551409601215681,11.450398740880848,13.020979243008428,8.90176367954184,16.13713326564042,14.839916960835689,12.642408661220117,2.0434981732008355,6.310119574600302,12.533977886723505,8.86956519084459,12.248986502692691,1.8762593867674489,7.292141100922291,10.99316572944461,6.482525912314142,10.854449538175967,8.297624630082671,16.769858364548554,10.336971367636432,12.88668434847415,-178.29803854599004,-0.567974480158342,4.964022212874823,0.7044774069974719,2.632569842773307,2.1443991696163542,5.771243161957887,5.1240796227464855,2.8845564539243167,5.6478744802352265,5.188880524141085,5.911245396864127,1.3667395727469227,1.1286313525477722,3.0135574244984022,4.93144475963131,9.42368182104572,3.300158697105304,3.6388362082067847,2.56072690477634,2.311336392426392,3.1132828975487037,1.9467239915381014,2.7157016576915316,4.842809696263719,3.7457146058641033,5.151660637502273,1.4411223017398163,1.4607424488373866,2.824426063321872,6.875113769575594,1.0193736523265633,2.509395004056945,-135.35894791977324,1.5729994590837597,0.9115420601891607,0.9639409626116119,0.7297209082660924,0.7798591959333735,1.027127050306015,0.7186325058205346,0.28129557599189947,1.2064477368000919,0.40439260009333533,0.9092903786666696,0.7209954367221675,0.6744813213806643,1.8333650591353061,-0.0114719875923395,1.2878500186631903,-0.4891055088387909,0.480999461339673,0.3300463426864295,0.3651503057383001,1.5033365892450807,0.3696590617539408,0.5161292149080446,-0.2746538428548276,-0.7976005768257253,1.403100463317808,1.0439498177348279,1.4214009192414054,1.2868116028949514,1.4062061243948918,-1.0278184520593099,0.11149187920211165,-245.06215174823996,-0.9834661295201795,5.263017510450199,7.318046347246691,5.2030080803089165,5.363877809490412,6.480755535248826,1.0233940899752882,5.238526420918595,4.837252754716792,3.5780589374522123,7.8692516506976355,6.217498511079613,3.476686571763808,5.373675476067507,3.352739678972117,8.139236543434654,3.7385864335998935,3.4101042732894045,4.8162381060809505,3.9913539480372187,5.235402041298655,5.528915433073434,3.4008399055795855,1.010964283549105,5.7970149827205395,7.682855259420539,2.9336795286349786,4.4840636835804135,4.924332624880247,4.788102035375621,9.453684411172679,4.2064356797402915,-143.88601681341754,7.088606299094206,7.77998659112004,10.282284820203866,10.839772378812139,9.909275977012292,8.21529959278782,11.399102097261189,5.101531407124021,7.390402413468808,9.872334035783872,12.459525631121183,11.849721612607524,12.531522483638179,9.329996001282003,5.96079788612065,9.454190655291647,8.70414175883543,9.87188748442763,7.608578120215353,9.593617443355658,7.772886212405624,10.463648822040046,10.500406038940156,7.821639091545875,11.042117902934478,7.8038294490104105,7.726344319318655,7.683870332584521,10.973219089755254,11.862584464792853,6.244167668969894,13.41997825206932,-193.94324537081872,-11.742738094604649,-11.63536209441479,-7.805442989354064,-2.886849541267997,-7.521212183243257,-9.080895199392074,-9.370519081075711,-12.499272633394057,-8.223542725113749,-9.410891600801103,-15.251450584566191,-15.237519617902874,-10.50923062839877,-8.295016712996619,-11.457243699605913,-10.266790277980865,-15.987487508096626,-11.686496424864156,-7.87150081869716,-10.575552866624891,-6.060435519445803,-15.096343193600957,-6.084203843107006,-9.747958955836111,-8.887688923066042,-7.4728841100187084,-6.952716189106088,-4.913908225372878,-3.3225467199739027,-8.115170367920118,-10.116110853548449,-4.514625525362976,-282.8476662841799,6.589777745739025,3.478485909029906,5.627347142164369,2.278767354987147,2.046618994814088,2.021496593798618,6.360073666786138,0.37833850125818436,0.7190971914484504,-0.7246118792900388,2.4130905457974303,0.6103200601045935,2.8824163001353527,2.229397711576418,3.6879078478404144,5.307921004605648,1.6442233202098957,3.4509327031550328,3.4148535657158394,5.635926140141049,-2.4060544655950538,1.3926141616625731,4.344466910115991,2.334723036970496,1.943939027297073,-1.3985694537859965,3.345991398684672,1.8954213991232627,3.0114883332662163,0.8011163956717413,11.556235059197165,6.7719443360388825,-126.21193739107575,6.041013918520127,8.405517650873376,3.9270267548779643,4.685392473992249,0.9440099152480542,5.56153493883935,6.418712317914455,0.7972700769463466,7.823943384913485,8.951064811524665,4.163439533457459,5.856492012651397,10.002319265830971,6.09186365730753,1.7970510436196032,4.078246864201922,0.8450668796828842,5.917373621530562,3.1290289135325846,1.559888908703488,7.326564585643211,-0.01164074936590992,6.832560324231673,3.4478795564655096,-0.40553613042182013,8.122530165166662,1.2738088663417249,5.890755318948816,6.045410778540871,6.766098217756872,4.315042371727197,5.7493996173738715,-34.917826398724564,0.5002296612032234,7.482221790828415,4.463630168659785,3.5769827396466534,7.139026529232121,7.772177258581532,2.3781254969041847,6.505501239889534,7.622694289697176,7.399691461312064,3.574132241058855,5.922455702409598,4.640677187785334,5.226708403100769,3.821022798729936,8.093970639173307,4.921187864701833,3.737236490639368,3.78112831785463,4.96038568573427,10.031193550748677,2.82981955138767,6.0310640252096315,4.850974670473735,5.627042862152021,7.264077007776889,2.538461559358556,5.341841529538156,5.90542265175381,5.298876276080778,5.381808555256696,5.814409280770425,-139.4101764316458,5.554135409552525,5.757613628651014,14.339290065999641,2.7681954119460412,4.943688119691379,6.658521695789088,7.731766813170053,11.55432908596476,8.888385170221072,3.6615762204064013,6.176719097696306,8.180571129572543,5.864060680490916,2.7827063199547166,7.39271563367324,9.42648772006613,17.98728458556514,6.694034141102787,4.468458687788003,4.9375919276393585,6.171240822203224,7.501538110729542,8.455325512501041,2.1198977929750757,9.619348055054434,6.653168113353219,-0.12452686629075924,7.963290542227403,3.0508959842409973,7.542475377682765,16.942145627229767,2.275664805771042,-218.99594722145076,0.3139124283371876,-0.3196803354366201,-1.1108504702709778,0.9159217149300537,-2.455377426020833,-2.305651728465797,-2.2528361642288646,-3.9249965784300045,-5.017398253267951,-4.139171996190408,-1.4495226484382093,-1.4021274143819298,-1.0837084152541854,-2.0494624782552635,-0.9988465844452202,-3.4505085588767335,-0.7275993542687397,-4.691972596679805,-3.371923218566517,-2.6544282510207355,-2.38226446207869,-0.28483004743742046,-2.5221278894844215,-3.377593625503698,-0.24216022427047557,-4.534058304983455,0.1673937612927505,-4.485255582529051,-3.6168564150166933,-5.569092023108682,-2.77468364496794,-2.0682515402494697,-256.9491424003235,-3.3204391887097953,-5.446584144853042,-4.655933961652233,-6.608787174810061,-2.0122719611477864,-3.6207420904455034,-4.144968555698102,-4.705072073029293,-2.3739245017927115,-3.759572156987379,-6.1879230499740245,-2.961786335043937,-4.432278682772033,-2.64208212213978,-4.337930713380449,-1.895548283854088,-1.5448549656434682,-8.445986404708309,-4.691271636772485,-5.031267863029145,-1.8720326292224923,-5.783567724476951,-5.085015605073597,-0.940946248793023,-6.376364283301841,-3.41469968739395,-2.5384518184436224,-3.822275364401819,-3.166999596470392,-4.314843206282625,-3.193882557156252,-0.6265149287339908,-175.22691929911576,1.6476598414432257,6.65062350268892,5.733983932930407,3.4505924379603767,5.14835443355374,5.508744893884826,3.8133500026342815,7.166181223664015,4.9710295119575845,1.8152766758612984,7.3355676537223795,5.321719008290424,6.773660381791114,4.3786230492533,7.022133321908876,4.0848956540024375,5.421946379963199,3.25239539158433,2.885482880971643,4.4562981961916615,7.057487192929873,8.656730040338358,5.43674149595717,1.6641564560601316,5.861906262543826,8.021296710591185,1.4118405245012773,6.753848006867896,3.9063554669657328,7.94254007176595,8.438629266635003,5.679972368503088,-162.9875663559757,-0.8786271846680578,4.177660332847529,1.9749941493632481,2.0468092829737654,2.8528793402348738,2.9008300853210414,-0.9049551729869442,6.623922866360357,4.888593721978639,6.670771776351069,4.392827616458815,4.325125462800862,8.226838085375885,3.577004514348398,0.3259310215195649,4.299091660851379,1.4610512379916138,3.595088944236246,3.6350519959532015,2.45676782252076,6.726611515088365,3.9168903116782223,6.540923231076399,4.057211579239272,2.773931325193555,8.257861344001826,4.9250539585740425,5.528326690057614,6.827916044169812,4.574388761566122,4.7256523927623215,6.496704068103311,-136.35918113000722,2.2772229288328103,3.2387190478157324,0.15579679669912094,1.2492690446238397,1.7187659332088256,2.1288513925202937,4.351715106340392,7.11886477529947,4.9763625194008,3.979591816443818,3.4289109603904344,8.275644109182473,1.8654533460040996,1.9766050790962195,1.5861227693063555,8.124141688721148,0.7731835824377357,2.808667938565819,-1.5884049451520124,4.9338841072366435,1.754204251773824,-4.556314979647501,2.8534843717925518,0.6074265131661387,2.998610813052197,3.342316658477714,-0.8565478632075794,-0.3831715065893322,4.30019612609713,3.5130233928903736,3.747062411277378,2.6543994789422536,-148.6747594504281,1.3992188018710037,8.415829728120183,3.6560218101966093,2.770664281440327,1.842442238769146,4.457910320132115,3.475143659455207,4.345657350601711,7.643718283321853,8.065623558415746,4.174729824913787,3.523064002528478,3.7522639006640244,6.197251860231014,1.0568879268144826,4.240121665390238,3.4743470730496773,6.209252387579914,4.9129887230255145,2.941311994607959,5.264412106068171,2.5675763922234336,4.061060736283717,5.122060303944798,4.331012789547906,6.029066893464651,3.577819291446227,2.170523204197702,4.882116832556646,3.255024349448641,1.7661217007823877,6.575019298013534,-115.03378693837709,2.078436777788918,-0.1061655084166972,1.6125276521829965,-0.885422876783237,2.080125420194193,-1.4070846752242079,-1.6806464188278163,3.332131492551791,0.9162104120473785,-4.467870114152149,0.7085455038398155,3.773852176541795,-0.6891359277389734,-3.646945655932595,4.25223846555546,-1.3781894257829288,0.7569448045729102,2.598224663563816,1.4848152638341774,2.8221893384139918,2.2654826365932283,-1.58158367867629,1.3126820318660295,1.4434495103666127,3.785167302322122,1.6394920688128547,-3.876979085723008,-1.2202004170371672,0.7941911767161638,1.9532305371696732,1.7771595114694154,-2.636503941565661,-87.80941827057885,8.187441143267606,-2.580830995231751,2.3823546646672877,3.7748691504455465,-0.935093536248306,-7.582625353879031,-1.773344503611856,-0.39978338120513346,1.228991759596867,-6.973722469010526,-4.6532956630436475,-6.9674482177909,-0.8096289431239867,-4.382671179302733,-8.708145495140853,-1.5506233949866717,2.2551692938010293,-5.5418094479365445,5.949692339297031,-3.255754783568664,-1.3552420841684811,4.955031105116831,-0.33745375574872405,-4.929534314819894,-4.486982959004451,-6.158758492769878,0.7582805037024286,4.7189326903696465,-2.0386842128749185,-1.8800091685672657,2.3458893143219104,-5.308957317011768,-392.7203272898739,-0.04672191112050819,0.6445178291775244,-2.929549759482257,0.23494414637817748,-0.9669538277748139,0.11217309892824065,0.9559976275807621,-0.25719818137772876,-3.0457291446550636,0.26657845598304764,-2.0152388454110706,-1.5191104727013687,-0.07053606814297572,1.7580693593183176,-0.42380155738190517,-0.6606824834128714,-0.11767700643696141,0.6407293149190054,-0.5415601129009364,-0.36373192468346605,1.603162760489238,0.21937095806664653,-1.8858712368989754,-0.49925607875085676,-1.5229850341959499,-0.24883774302286174,1.2367537864170277,1.2690055511131062,0.19945915336617623,-3.528512366838326,-3.625984416085222,-0.13865233699901158,-173.56836732740805,-4.479790741354144,-8.915794141624895,6.262456604671692,-5.4626234171341075,-0.5761233913480175,-8.33716570165723,-1.0494106989453638,-1.4678137898727157,-7.628247147262929,-10.878888958367414,-7.643824160659626,-0.6073359284429136,-6.450545999586759,-11.366701162462023,-0.9646102326933447,-1.0725303698898103,5.134359279071297,-9.700402958726588,0.04751651145439925,-6.218067422184409,-7.087160175831743,3.208898810004351,-4.70352205787372,-3.326780626145797,-6.851578454151714,-10.763764441971727,-16.26754229884642,-5.781096328742826,-12.38774559415828,-4.463025833724713,-0.0402124447561619,-8.79484131326869,-258.477206894784,-13.158973451756912,-12.618465137295876,-8.905876469714933,-3.4336926143909534,-11.24036645302986,-12.417447694770528,-13.474361473567301,-13.383779783916749,-10.881849154772187,-8.178506563629997,-13.878932976689356,-14.07771714099771,-11.359183949326662,-10.237605873955236,-10.326997084570095,-10.75479598716366,-14.763258119817635,-11.443814090856156,-10.021697109242792,-9.688934494352587,-6.8195491208800885,-19.60826524788199,-9.502522313814806,-11.623124838423003,-11.743142149639974,-7.096076181496842,-3.3419340287665222,-7.763071037067276,3.55742900916456,-12.628107623870232,-10.084232171196405,-8.301025357838308,-420.5123318776246,0.1302295619053193,0.29524398348862924,-0.7593737072764116,-0.04479099222279612,-0.5330679906079662,-0.49013392186390836,0.033337707033933434,-0.5894349348699288,0.04483743728000031,-0.27547818669645563,0.032754125027235265,0.010456262917153014,-0.30135985318129455,-0.166867845572072,-0.2531323575868521,0.2425083399982229,-0.4365136430845069,-0.04893801216749985,-0.011747208105607865,0.17679417634857653,0.382260299040186,0.1097586361671353,-0.07669972835717312,-0.273455918381276,-0.4718892373197884,0.11948717554253438,0.32021932745895576,0.30309486572962113,-0.10092765778968024,-0.11186309286577428,-0.06535978157036135,0.3225678014950337,-275.51903204952794,-7.348023602240105,-5.576783765321661,-7.747961544161302,-0.41699306618034115,-10.118827620168071,-9.08440893229446,-8.875049258462342,-11.457642481568369,-8.994745952503719,-6.461046831711544,-7.994406135045051,-7.251136481502051,-8.393044287021961,-5.967282840310919,-7.660941136026315,-10.030559828269524,-10.071262355701844,-7.7344265701071855,-10.821220234332573,-7.562642158579315,-2.974383185747929,-6.87102163997218,-6.288574454842793,-9.374676217420786,-10.264636634223148,-5.449466055758793,-2.71431050628364,-6.475353083189044,-3.442230542198081,-9.090493526571796,-9.681681066020182,-9.32999057847615,-375.4301884735012,0.02288705143296249,-3.824349431449909,-3.0700985018777924,-2.5243232199545393,-4.85892449435505,0.40337646752257483,0.9475376675206918,-2.9134873472534895,-3.316274120591993,0.294575463938909,-2.9172552923906587,-2.1028430050873106,0.4414738489000528,-1.402328040732423,-2.8260911338785206,-0.8525739481423751,-4.287974684365392,-1.7205909047467292,-0.9546474121168776,-0.31310071904881986,1.1543669605162683,0.7174264711473198,-2.2503785437457267,1.4365215061858319,-3.4694806031604584,-1.3496486793775677,1.8704698527381813,-0.6562507764994034,-1.416505139789976,-3.230153261021336,-1.0091408303560674,0.8320234801536903,-111.60001233427913,3.9246358240169545,3.764507880821185,3.29931594470154,2.8634294616553464,4.717832951442153,2.6393309455385965,0.4062486793533091,1.3694788956532595,5.652876082928233,6.0416147048256885,4.832908030076066,2.4190472209935185,4.921651415212212,1.7842986287003986,-0.33597896002630545,5.243943884853067,1.8088469107520448,3.2647166703222057,-4.386420615316693,5.3137350654657025,-0.35852027702399236,2.9733600673206375,5.101798002393228,-2.562491073913262,-3.2633484568693105,2.9045549298399043,1.4074429637976942,6.222784815914696,-0.8653951148485246,8.046518318419905,0.06018311526900624,9.010334594995884,-288.79178795038956,0.6891350169193827,3.657321085708568,2.3488964504556398,0.9730705414646575,0.4699910647520432,2.3455510808126565,3.034599804861697,5.476721697562539,4.923424118882879,1.7462005108811272,4.591077433759809,2.003541523060015,0.44616544363515953,4.367011459607616,2.9128977905570133,1.7166431011023309,1.3865097924001852,2.651191359476624,3.57409175304001,0.30250201418107225,4.990373117420962,3.829009192296524,3.815520643575566,2.446337381716369,3.8027572773875096,3.5126219885726906,2.081004767191027,3.2294857678438285,0.03342202503844724,4.1970258462234105,3.7467233573637158,3.0965523573206237,-163.4210486997621,2.396179990025058,3.381334168607689,8.113933505630264,6.144007130504358,5.841023363101818,5.581161541694096,5.942336036056121,2.5937704378208815,10.094212915204443,4.5792453858267805,9.113598503990454,7.686740144578542,8.5693376394902,0.6394847063565754,4.736521718913658,10.49788123377976,3.3400293972164303,7.968544973421298,-5.130541149040476,6.612009475194056,9.025018052311552,7.704160550625834,5.372535212046108,0.21685798561047154,4.279128324300631,6.1383509049029845,4.23174456921323,9.726972660777998,2.4248703312497146,12.554809076328844,3.976394614196224,5.484300850261906,-268.5106441126394,2.56264077984069,2.90973693935612,-1.3216751128266813,0.5463297497956653,2.7569740130652622,4.171731776604162,4.789183638220096,5.269144227614983,4.813115055692867,4.7606035550452575,2.1903776402468904,2.8647801779588247,2.7620900282224135,2.6641218721409587,2.3943109335176724,4.729284049644294,0.6631576297210601,3.121020249342955,1.7629827627666153,4.575406924620136,4.442413256334722,1.3007758839999406,0.5630788449904456,0.7178423639933683,0.11769788296853587,3.180014510300216,2.1607956503423345,2.9642414899099907,2.727203720100337,5.392629246735012,1.2474516379213676,1.630644243529844,-245.16076498322096,-1.4286207919319915,0.5956513664983696,-1.3401290536285928,0.038602865150376336,-0.983037055320828,-2.8546228330112617,-0.35201515399408834,-1.7903917512964247,-3.6097691560072906,-4.079795540904708,-1.0629627020741972,0.697178723410444,-1.1659168605838732,-0.9605718593073097,0.8313418952947422,1.9802024354254986,0.718377456565478,-0.012470111003961587,0.18302422736760415,-1.5853235240828933,-1.1619011599572553,-0.47930091154442966,-2.4518286148985102,-1.0583519071875278,-1.582889396075747,0.12402227718935618,-0.5412081498816496,-0.6304527158494535,-3.0137827946348246,-3.755741805231005,-0.5514629682612943,-0.572789196990092,-156.0631734880368,7.497996011533338,8.21209594458248,7.018522672094705,5.90179165145334,10.375123454967838,9.110457588083014,11.46684344144002,9.426183586041804,13.551138598634118,13.250876507094594,10.278957286082615,7.929145301252341,10.672124351956223,12.653089865194607,9.961443474560477,11.810620223691553,8.589239565970631,11.888982584765541,4.819897954625511,10.321429131579704,11.265107341735805,7.873451316484114,9.845913523207065,11.414681396454466,5.818316889893433,9.318831626485304,8.13273070084892,14.698922820148379,13.614810059203148,14.013403478541894,10.026094601673678,12.241226166475244,-213.75873200235944,1.1605782845295995,3.7019825845846857,1.8267748069049752,-0.3406658619478986,1.348515749447134,2.17849114202524,0.43503788921370456,0.2608631571854686,2.3899919257100537,3.289528212027038,1.5843865433274291,1.9779079571065044,2.251280349054747,5.010023339854136,2.8393963516446585,2.017259985674481,-0.12459912293650838,2.4464538609704154,0.010817820342425455,1.4608180556006451,2.049171296256569,2.450355471720742,0.47818545073644325,0.0656409732496662,0.6926463671040154,2.1892599355969447,0.5008344082922501,0.9173124042514641,2.7263907388821336,1.5595896892802434,2.8263196048875416,0.5022617529852204,-164.90172114731217,5.965058830534779,3.645676070762401,4.752018518549241,4.417653410586011,3.050044887492656,4.138030060295505,6.6051991347703,2.798304464809101,1.2325555117681,2.2637959003341757,5.189624812855593,7.146866451709338,6.013708587002045,3.8097031998384554,3.003459174245,6.757741127821662,3.16200773254785,2.773895187704314,-0.7245312227343604,6.7429664039425425,3.7502515038893973,5.1424376913031615,1.937065108669155,3.101879497072876,2.253932122917247,4.045842684169014,4.75289733217831,4.161904901982414,5.184765548550963,4.36161366906885,7.058428631944851,2.3070322535258265,-141.8427338519924,-0.5127603648853559,1.8040747867258315,1.2830324812309484,3.8339311842478216,2.7537817215228477,1.5129363528997009,2.514223347359811,4.742386595394057,0.27333445415695923,4.149298474214869,2.9838452787026912,2.5857204778406184,4.545784036033222,1.0501422470031097,4.699512281759565,1.8929422651178087,5.204005168795072,1.3860488893937282,1.166610087214131,-0.3649372793014116,2.0142154354691653,4.707678423709558,3.4063587492217278,1.6568318136561428,3.957426025101973,2.424812454128937,2.9928642485658377,5.547447170795826,4.147342263943071,5.550418322038413,0.25069343124497473,6.225383199486662,-162.68104098369503,-1.553888837860855,2.414129200600431,-0.45194539568583336,2.7769948497286068,-0.6933254177527258,0.9679773715059491,0.020559129604499626,1.1759091496961123,1.7344025651846238,-1.6379963592299704,3.8580730447217912,3.6312605689743185,2.2129318174118926,3.259115459235036,1.1597282457619897,-2.8681029210430418,-1.7250802733933002,0.4093582596528782,0.6914548499665364,1.941225231829173,2.3218822328170394,-0.9285437540932172,4.463217166142456,5.225804339225894,3.11361144392303,2.688727495421479,0.816873735996247,-1.6391017805169823,-1.9934722351552217,0.0477936827376407,-1.0539068529409423,1.0730987908455538,-45.490167977817045,6.178675686540349,5.658285748708317,5.449428909468878,3.2336322579031633,5.62327523254028,4.31568778941806,3.5489356295669126,6.799097929285862,8.27139441220592,8.575470280400765,5.027145622856009,5.853023607900386,6.1127857625344895,5.229886629460618,6.915090693430808,7.297787120320064,5.622204799058521,4.652443756654891,4.246726158668366,5.000088026786721,6.083647535048969,5.138304024827743,3.7559621332940263,3.4924637633373017,5.97112780903007,5.378335452565753,3.5902351891765374,5.164708992414792,5.9937456692714,6.7942367391610645,4.056999413978234,6.374360985687158,-117.18979804403925
biasActivation=1,1,1
[BASIC:ACTIVATION]
"ActivationSigmoid"
"ActivationSigmoid"
"ActivationSigmoid"
