encog,BasicNetwork,java,3.0.1,1,1328575375880
[BASIC]
[BASIC:PARAMS]
[BASIC:NETWORK]
beginTraining=0
connectionLimit=0
contextTargetOffset=0,0,0
contextTargetSize=0,0,0
endTraining=2
hasContext=f
inputCount=24
layerCounts=2,49,25
layerFeedCounts=1,48,24
layerContextCount=0,0,0
layerIndex=0,2,51
output=0,1,0,0,0,0,0,0,0,0,0,0,0,0,0,0,0,0,0,0,0,0,0,0,0,0,0,0,0,0,0,0,0,0,0,0,0,0,0,0,0,0,0,0,0,0,0,0,0,0,1,0,0,0,0,0,0,0,0,0,0,0,0,0,0,0,0,0,0,0,0,0,0,0,0,1
outputCount=1
weightIndex=0,49,1249
weights=-0.04806736100281875,-0.06527666308978466,-0.05436522245039668,-0.039220380974399505,-0.046603695144740914,-0.07107450217175545,0.011751683104680583,0.02844728348671434,-0.05766929925979672,0.024335624441142872,-0.044674404668257034,-0.18511328797278415,-0.06393143131734,0.06689473208636681,-0.049652723417871275,-0.024509066369802348,0.07391482945735213,-0.025650718979410788,-0.056608692336201444,-0.042008517278362995,0.015800181904958924,-0.03739206236294504,-0.11564229394916666,-0.030933141133826305,-0.031086039365975617,-0.061155754136354795,-0.03704765808959595,-0.014397414412538043,-0.030815486776397474,0.0006574151253469079,0.03526267404460838,-0.07243284682168563,-0.036211317856029074,-0.057768217967123864,-0.052449838891656636,-0.0477083348471011,-0.05854257997387327,-0.03837695582599662,-0.04116794109164193,-0.004815450647040323,-0.05130252931822257,-0.08825155946781804,-0.03922262458236228,-0.018138612267614887,-0.15385676532700832,-0.09655348360819838,-0.10792000282525066,-0.028858305457279156,-0.20604950526541832,1.0028243786069178,1.1400105336746025,-0.5479046654531144,-1.6550296022844107,-0.7261133597003503,-2.7417829847410653,0.0845793584126252,-0.631655896114619,2.4399010250876465,-4.881897729321752,0.0005720772979397881,3.4275546176447733,0.20823227699893015,0.6586220987738237,1.393000945220061,-2.1944168534190345,-0.0860603450173233,-0.25757619357507605,0.2467052560586807,0.6842974259193548,-3.2741213908487117,1.5608398674838875,-1.7271572749677344,0.6327191168399435,-2.502737199772345,0.04870257707918005,-4.098367724168254,0.297667780841543,-0.17747170257326578,0.5435139745100698,-0.25462503199842645,1.288282444089809,0.9685580545571412,2.2737109535838855,0.8337541430985205,1.3927619065216243,-1.7272108005295992,-0.4892334851405979,0.32214013043281103,0.5730961968335118,0.39538453060894796,-1.162661687862269,-0.28390977864270694,0.35498718859983786,0.9477865315082814,0.7362914053911457,-1.6734828158967296,0.31407919618162955,0.6854406828551927,-2.7661562230560457,1.0055067342796313,2.704822734630419,-0.2768649544660232,-1.4280550495758284,-0.39763337866917275,-1.3738796173592864,-1.3265617710470976,2.4469628453663437,1.0106948544749648,-2.9922555931512673,-0.6627596341562918,0.14297912384246572,-2.581514430572226,2.681737326920508,1.4924334880492516,0.3140186404942522,-2.021941519946089,-1.9001423264191997,-0.47389028204843153,0.6580406922272457,0.9023959489303659,1.1528524287095698,-0.1638021257843001,-1.5289135292916316,-2.9105043736851073,2.4116417330448376,0.40653739578743797,0.5641960924960726,2.0914036330077184,0.3564145930475025,0.7392772485009892,-3.148159271426615,0.3194058174429612,1.2406811183965694,-0.6730855214960811,0.2645565060014062,-1.8138066920205478,-0.46487754230111616,0.3381491721256488,-0.6444332565739412,-1.645723757176494,-0.893367786109886,-0.13950576758861283,-1.8155079414712145,-0.8796246493960791,0.567574516392059,2.235181753036442,1.9468598236526775,-0.18735681511568114,-2.29733763640078,3.503963709581529,-3.305968240015366,0.6799030881899232,1.7987744629325464,2.144580193165177,2.3842301744772283,-1.1327884223551319,1.4701291886707142,-0.16329727187384846,-0.9831417297587718,-0.5461284536227856,0.3974007574548803,1.068136949597665,-0.24209459467606445,0.7157108586735461,0.08156152310553588,-3.3503963711116196,-0.8042831624911865,1.098344001811928,-0.14292158591462453,-2.0127847016914258,-0.615827584165743,1.6495565397496748,0.7964451425127121,-2.8206632224235393,0.1694980841781769,0.9793043303413701,-1.9054805603255485,0.11753033283115594,1.8907367160664483,-0.509491796221764,-0.482831763514061,-0.681406216011358,-4.17034893470664,0.509011175089847,-0.41863411815120927,0.9319846561068801,-0.516645927871273,-1.414278126857524,-0.26592216836763655,-0.33643231392624395,0.40603633691368357,0.3187182936018855,1.490527570699271,0.012185293671469713,0.23921617083831678,1.6102196812083636,0.5465082303701829,0.5354268290976876,0.5232023799594798,-119.62634514105278,-91.91644171741466,-100.84434592618123,-95.39645637743901,-160.47764136158855,-131.50721350062238,-45.45162435101537,-79.93679841938653,-173.98098162952942,-93.24621732903866,-105.86435560020327,-119.96300446422546,-198.56801671664115,-136.56624107521137,-119.32324182773591,-132.05709629427423,-33.9464370219245,-115.7589267354804,-61.749688510381176,-56.27328586657338,-107.73358296168269,-243.00267575401708,-54.615906834469634,-67.37092230962178,-2196.8449729577296,102.86888333569833,78.97203228818977,97.19523559217767,85.08612870359755,57.57862740868591,105.3463089501288,120.06735994338557,57.74233771630487,97.57058537733089,93.47102114881385,66.75246581955206,94.54153885340577,61.544127010830096,74.39737042302137,108.09435551658798,96.1663633481726,89.78944557567503,84.96642643194406,94.28314814411802,70.97812515049847,104.89652321547237,60.58671164785967,67.37882484794805,100.05458285059808,-723.1218134700509,-0.9994836444942136,0.8851871936186916,-1.884920632013642,0.12168164942204168,-1.2090601623087245,-2.1910203775130372,0.9312261342643938,-2.9927682426458055,1.731012751237018,3.3493941590968914,2.4410150666888133,1.5914105240893617,1.4169583990047152,-0.7588092745814962,-0.7642505589626121,2.09933249127035,-0.9720596107075296,0.8178902469184962,1.0180857805129833,-2.141460408262192,1.185483458004297,1.5631504612683171,1.7910968020137017,-1.589790996049675,-2.3409255026113933,-7.692351208589832,31.613176592079263,10.101379750747375,8.848296899266618,-23.718639284578366,-8.391516317313021,47.848336979320216,23.520050664943835,-37.17333265703418,15.318676023866598,1.4494808466462255,-14.374619741466992,-46.787684510564155,-3.940613037888301,-6.066706502782841,-10.112236581465384,50.587875732884974,-12.002649528286339,31.78841280644607,41.973996207333485,4.428998084654694,-80.57718829560095,16.87378162753761,14.3656343882105,-1295.267626631197,1.6692362874485371,0.334272855484537,-0.36653308185775335,1.7910332783399245,1.9827769935726682,0.5255996202129863,-0.3760154781311109,2.7167072431523236,1.8659173132965166,-3.425146457192822,0.584314657307694,-1.4158783019694987,-2.6615547033179383,0.11015032173930836,0.7301655412262162,-3.3386313290660916,1.863208120471176,1.32958729913944,-2.1299205812379305,1.1730986386614115,1.9564412665866862,2.2322077759357293,-0.1834084245124487,0.9050871230532804,-2.6290932369603772,-0.337934925448234,-0.36140735719774497,0.20489265945243124,0.19390957752437327,-0.6591036616592296,0.2268834043620697,0.22213825908113816,-0.869059102666909,0.30304507545778964,-0.07326640991627245,0.7404704797649821,-0.2283368473772399,-0.42602437824401224,0.17703217380855568,-0.30328581264156657,-0.06747969893368705,0.40233025192958727,0.5573377896704282,-0.5076173897533549,-0.18670185277837695,0.4829561826469194,-6.316487307675388,-0.6556528277928522,0.15078632382333174,0.11333900017559496,1.3615939085563205,1.0934188201510084,0.5744964553482733,0.061234092910326665,1.2704121291563961,2.6040269944255945,0.45791355652432547,1.7362686826600386,-1.1743278227364893,2.1112617368046904,1.3653700147508532,2.245184182941571,-1.7348277062647464,-1.2979440013955483,-2.2445182302296716,1.7787584515811676,-1.0416708188802823,0.5923625347436747,1.0865985047246995,0.39053489721720425,0.42984624654694453,1.8875242104690924,-1.4554054676874566,-1.068434540848875,-2.484527667027583,107.29861403344118,75.70960327329851,93.95091728929934,92.45771435994557,67.9585477625364,115.11164447827367,107.32237946265626,60.59821826988431,116.25647127948466,92.14601022153053,78.82854095671125,117.08256764822032,89.14641970935759,79.57482105742648,108.92585430173638,97.90745324984026,69.56004848501077,105.57533074135408,82.99384827773058,72.5170524146297,110.41199151856334,98.63979550208548,70.8243217508696,99.92971856617517,-290.73051273981065,3.321931737606204,0.843823616142011,0.9991444385524056,-0.9895413875768828,-1.2675978534718007,1.165783132427526,-1.0361683324227995,1.4237190346034265,2.45020181623516,0.4935430836234086,-1.4649678868047535,1.6192010395765941,3.4321563580145433,-0.04753328753316316,1.1386666439984128,1.9803129374717339,-0.7112856708058842,0.14561991393423857,2.2163967031433938,1.4610269115349925,1.169359059193061,-0.8077664722475512,1.4121099489587903,-1.5663693963997516,-2.7394228279017883,-0.9618327354615844,-0.6676558301593858,-1.3160437968263974,-2.25223623456583,0.3705605479827017,0.17997903719182262,0.26612451127168835,-0.2082843843087327,1.6894084926853048,-0.14808070503666615,-0.6600990025075356,2.0780191696103225,0.49140558319630506,0.2671751020904692,-3.17340828178369,0.6790722082982237,-0.16120651182590906,-1.3117532275970996,-4.033643284279949,-0.3484037155421912,0.296807384521929,-0.4765643152447544,0.9331082109675142,-1.070372815826597,-2.454115789408843,106.85967738791014,75.12870187895126,97.20695294872468,92.91162918231309,71.0103189837046,116.41264961308484,105.64768162238894,59.81106206850099,116.39300625202905,91.51644934938338,79.83305115840751,114.1514824729459,87.03602528037611,79.5106206996505,109.96535723865922,100.70545712537697,69.44597223028055,105.44461401196958,82.62741084809564,74.97527824431124,111.02724321465864,99.44000685854246,67.59376193981,100.65977312065476,-291.23150187323455,1.7708965834910115,1.2601240713592854,3.9627577787567914,-3.1325665569799375,-0.033387395752599275,-0.6617447886821953,-1.413643635317765,0.36299321958808634,1.0811985769215962,0.13205847327933432,-0.20003835075323928,2.4945053114516202,0.9976940146639549,-0.2601965542376455,-1.4558121961087067,3.2577075434142126,-0.9157148751644867,-1.4773076445064064,1.4925262066698681,3.754222445026655,-2.248886351898235,0.06915405817352929,0.281086216578092,1.2252382582892607,-2.495951739554945,1.9645839154919889,1.2382915398986585,1.5773679655814838,1.2203623464526712,0.7192641351215231,2.9868031381203517,2.630937741482502,1.1116987758523909,2.363999921377807,2.1594111324560337,0.760979005276152,2.8202540865525045,1.8182555733236878,2.2048898201132734,2.0347475269519024,2.0450577314933938,1.9753861829347559,1.918985026282165,1.6225517894322237,2.010300818946614,0.6311914441685538,1.0312141420432188,1.133393069659462,2.370556832494727,-2.856202999350348,0.12752421870091946,-1.7267759418463642,-0.49216016150512865,0.2082444331156002,0.8638353380616873,-0.11314250075748922,-0.6118433131546096,0.6237632348296808,0.08553863339232293,-1.5312075648192307,2.9397292227264584,0.39072243614072905,1.5153300100052776,-2.4058376237175234,-0.9429513974818388,-0.1952397506568952,-1.5618026697260947,1.237788298981249,0.465352307519109,1.9819124007593403,-0.364097377691761,1.7732344096871344,-1.2246889091029582,-2.604037663145772,-3.234919089062676,-0.5613097358001864,33.85364903434425,8.713967966079576,11.18777570486042,-29.05233959104158,-9.52677167510289,53.65196502249523,25.241370036823476,-35.525508602375744,15.440167320532751,6.866027892698465,-16.65618157348342,-47.2171596465547,0.6643985500256862,-10.607000034661997,-5.762501452781963,52.899045929048036,-5.027341153696776,31.277312954033363,41.096336315735996,4.515348964975265,-90.54289738736756,26.379360465156225,18.135996832226724,-1325.8991630734263,-0.20709799307923066,0.16856942062219227,-1.551172067360476,1.3865385349913932,-0.43235674420371745,-1.6937156937627034,-0.7349169839657214,-1.2527468410322289,-3.9081529835313504,2.391400568892787,-0.31177276769216405,-1.8299619118259909,1.4946208997600214,1.519194777150223,1.7453185819770118,2.435757681188857,-1.396774848499257,1.1181294653077918,-0.625818685427644,-0.4215550590141768,-1.3717687114853723,-1.0967688016702837,1.7152391089143895,-1.7470539524082218,-4.369243925525415,-0.2353434563200973,0.5698686889229244,0.43294421735909105,-0.28491683899898246,-0.5884377733033888,-0.1444127390673134,0.4047420754314225,0.40890138301035267,0.7218554781495636,0.685248716036303,-6.750134324204514,0.8721488634058716,0.1258993049462463,0.9256553390064742,0.42767966539399116,1.5361800150256928,-0.18781233632361732,-1.0488092667270419,0.8171797106953157,-0.3715601616262785,1.056020174145235,1.589048549963012,-0.22370200562721018,0.0758721205166818,0.5271185148007755,2.0154203271797244,-1.0435101890366747,2.002919896204277,-0.6976944956352205,1.4893772928480673,-0.5300045380933394,-0.4623609796052446,0.2908155012395118,0.8014399202442527,0.2699937581354786,-3.0961894178467224,-2.267668934106239,2.2246835427032834,-0.5767294032173748,0.8777730015054661,-0.08969323320707115,-0.6236427219945112,1.8242766154487133,-3.2600452407057237,0.021237608690418117,1.1663650534604688,0.919553567227679,-1.9638641471967584,-1.4449031788066589,-5.330401361913073,2.9187762176086927,-1.718033477299668,1.5959612421408655,0.8741694977270569,-1.5761973102745328,-0.05828849410527068,-0.9545562162751647,0.18722736925813194,-1.1074019289487007,4.766588334407315,2.7458766656998814,-2.5617456626048556,-0.48816721338756125,-1.3901158772587738,-0.5120588098681425,-3.81971311369911,1.7822835026835193,0.4223746909156587,-2.6667967593327733,-2.289284322751729,-0.40213873362532715,2.3304350207435265,0.5242017051527297,0.009339263643834781,-2.537526745799042,0.9306414926582897,0.0936791740932934,-1.1501810350470583,-0.06652165392132636,0.052767317548884134,-1.4521550484419663,-0.9480952972167705,0.006744480698844313,0.19704505063124916,-0.8388635269174791,0.7333234435921698,0.012446660508387587,0.09061238875526317,0.8384643481945805,-0.02194241472597947,-6.48762376205043,-0.09301851513306551,0.10679103675741336,1.4035917572761933,0.46576721875858745,0.3011121156661655,-0.7275538444778242,0.4548964638273549,-1.5712239732049844,-2.530840346226319,2.8758195040699324,0.13858846261666524,0.30636041597122565,-0.004393336708499562,0.6703019158539193,0.37571812155559414,-0.38631100447464684,2.7909977493898817,0.5661649614572626,0.5089932397869479,2.320731885041121,0.7403974579493853,-1.591741266994608,2.1431308166920995,3.478017413300122,-0.6025992128687503,2.769205000555505,-3.216898668637754,0.5748644487569925,0.7933324267270194,2.8769012944169856,-1.501650319985226,1.8766019566723857,0.7475079224589931,-2.5151595887326246,0.4799258129467272,-0.44617609196147756,-1.363049712556037,-0.7288020430020254,-1.5570705916970171,0.2105260182610844,2.226329440004727,-1.284612115665226,-1.6300314969164809,-1.322076865275661,-0.13235973528334138,0.7295302544447777,-0.5860484362468161,0.037619094680171515,-0.07683983849833387,-0.7451160770432861,-4.29713683373838,0.3850190253383488,0.21914214401089643,-4.405702385806815,-0.050614383353662785,0.8402901107372595,-1.120878532299395,-0.33175680492535625,-6.552720369727651,-0.0672235235257068,-0.5068431843581813,2.084457842285465,-0.7884116029796122,-0.37346690500804053,1.7077694042778178,-3.8758177543555394,-0.7249324542863499,-1.1038177909707214,-1.0811953351042478,-2.063546474310959,-3.164907854634234,1.440374979767236,1.2206367160973222,-0.2720911160261707,0.7729765218054978,-1.1878473362425945,0.8308803220924837,1.0210802326005153,0.014577090522221767,-1.0167231186432473,-0.07090120270182168,0.20110336614622087,0.2590257814388313,-2.537304847552371,-119.3305394664223,-90.80436655833616,-104.82502509382215,-93.58417463158838,-156.3984966342023,-132.39059957366828,-46.66755431328345,-79.99840577630907,-173.7653466735245,-96.09586762162326,-105.45963986033921,-118.20279553563182,-197.70944159206937,-132.63359054616785,-118.62747073240202,-133.33626786681322,-29.1081021227414,-114.21951116947868,-61.47059534445161,-55.19911283615329,-108.89923223686066,-243.3207051103733,-52.40670457624835,-66.01523588786831,-2189.4054691823226,102.40258648854055,80.62609557292878,98.98581742222012,85.70075333614112,57.770294111079274,104.50040924397716,122.72155772863171,53.43580952448433,103.57028595813196,95.23939221455029,67.22497251137773,97.96997942480323,61.562105852321025,72.12793002074736,104.97710157279742,96.23816975488323,90.14702584309133,84.93701337695441,89.15952527619054,70.18308823174132,105.10736507689445,62.09762513075851,68.01464985603738,97.25766732986084,-710.1255872313155,-0.7591017603895257,0.09524337520633014,-0.86528103369854,-0.2964327649210895,-0.49456165836996674,-0.0463622690623339,2.5402461500084352,1.39520810367617,-2.079653366057098,-0.12259136748994899,-1.9714888528269015,-1.3257252645905317,-1.1983050322499276,0.9969239685370849,2.10532013011087,-2.7415931870641277,1.9477800063077582,-2.6600631828997807,-1.734059426130316,-0.30091306766172154,-0.6043933280338605,-2.6500233901145562,1.2275561977478948,1.7259796100435123,0.4170236075427579,0.8222936857588136,0.4750703861769028,1.1341473176976105,1.78686400361198,2.6295578885103907,2.7972754876803685,0.2722998751473228,1.0552924119964802,2.9920275293089262,0.9568593346358623,-0.47413598644283456,2.14993362347779,1.1100914432984088,0.4915069571696954,2.349329892245773,0.12228102462116355,2.9891959367454133,1.3954792052661837,-0.036293385630331666,0.1622917553595434,2.203015774949801,3.2141247347213278,2.2070225417816403,1.4325909412439994,-2.7738971261874514,2.06189002850961,1.0097879409810775,-0.25812352552732915,0.15542065370877822,0.570480781787508,-1.7698700604871096,0.4719100891506331,1.2606937665933713,2.041603874345388,-0.03408220540257503,-0.9363223365314447,-0.11074737611331167,1.6088140926066963,0.5996500037504687,0.6710370279380748,3.4123712371089607,-1.5618572259420815,0.06165751881351575,2.810285619390524,-1.121639335774754,-0.8530867690323267,3.684699657133726,-4.623701184784457,1.4819350310504968,-2.505797631198003,-0.23783290179155275,1.0154087757751376,0.3959393451298465,-1.0855072794429699,-0.6729783041917782,0.6336357666094913,2.0118950811621596,0.21800550907180957,-1.5933347701755005,-0.11970101625431935,0.16215770212896785,3.0403532877428803,0.7801043234330125,-1.5374859272536696,-0.6096379283017861,-0.7360701326062138,2.24770050453156,-0.5956031063896158,0.7455158437265168,0.5231928978472947,0.33845860595242977,2.9737290224180817,2.170690404459138,-2.061043149460535,-2.422889481271645,-0.6676794585466866,1.6290953243823125,-2.8136020348758644,0.10219671725618917,-0.27854030686405185,-3.334501854392667,-1.8518487198579483,0.6295637738918186,0.5138013088331249,-0.1612527140334582,0.4079456006571313,-0.6135354592996518,-0.9797620204296902,-1.4986249433349461,2.02572374156384,0.7247904593397232,-1.0737228281404325,0.05129308131738297,0.21103729419006562,0.7469481806725837,-3.0404200358795443,0.08326329409018346,-0.24150836970694142,-0.00735670771308233,-2.498849328290452,-1.4683706504286107,0.30939196738458385,-1.042851057453839,-0.21507995522330772,0.9746818968176826,0.22975564100015558,1.4985999148409266,-2.896325579184797,-1.3058044903765624,0.8762770776054962,2.7146957956085944,0.1230290326622461,-3.0029529022852475,0.6671353270789232,-0.5464116226657252,1.2725437455084598,0.21047297123192255,0.010072782588052692,-2.8018601461867423,1.4019017568596326,1.8894869300547705,1.8133254660161504,1.3158525175194926,1.7110314520943684,-2.673172891748943,-0.009586135225181758,1.0273408138378062,1.7183165994285368,1.0352483112180346,0.5597449920551204,-1.470566430004391,1.2537454118525817,-0.4936291468512491,-0.31401674712544914,-1.025142372241995,1.6022507689180159,0.008767499344608222,-1.1083824686909898,0.38115647445918627,1.1687780358452728,0.6114341015147415,-0.6066007371887355,0.2114806684737296,-0.04970161893990974,-4.636637833828887,-0.1213087908445104,-2.017986785622357,-3.7317264747273855,-1.5223870839312945,-2.829325004654477,1.0489019256092145,-0.25091254807372376,-1.8909856508045455,0.5990539467338449,-0.8787207979099928,-0.0716911668102487,0.10242697017678604,-5.935483242186667,1.5281411613248868,-0.4444773357844301,0.4219942541662997,0.28411039951854444,1.223763359051067,-1.7209852164881143,-2.007823832066087,2.4392133223821015,2.490937928354266,0.38279296603635987,1.8169454945299326,-0.30356808308691474,-0.14111197512717266,-1.0748813813072253,0.0011096740857194642,-1.4337051992367793,-2.523384475858267,-0.11931331237532655,-2.2538891623480604,1.1697476243541831,-2.2945897547736838,0.7817054558614628,1.0941725789542338,0.8267157916638602,-1.485181613065171,1.8591853931436406,-1.498088032872876,-2.965780917988294,-0.21167090571333771,1.8007236006091607,-0.46895861468567207,-1.0497862186983813,-0.2638422671514953,-0.6174069297292121,-1.2757200380700666,-2.2685444932227012,-2.92909691464711,-0.005571798259645738,1.5073986984739114,-2.353341156520995,1.9002639061834272,-6.403406753437462,-2.4293257095311933,-0.3242633208806136,-1.1884514034581506,0.48621282137619,-0.3399315231407334,0.07042025211940298,-0.6643953530320622,1.8014705046715367,-0.38813489656745775,-0.40010691447201513,-0.49239186329789564,0.7500137807250864,1.37727165312381,0.19889719081794405,1.0261588397186068,1.0808758070099185,-0.5740666461167493,-0.7794359064648626,0.8948434042842385,-0.27294830309507667,-3.288980969768723,5.299432671363388,1.425658377874515,2.5680996974674897,-3.1093726231362555,-5.6652052552618395,1.5678802844846311,0.5813237290581456,-0.873714271731777,-0.44942563857420553,1.1427125467548809,0.6309203235595783,1.0344521288576631,-0.04637553436020869,-2.2533185545505274,0.4328528778012265,0.4693334809476113,-0.10836250587474844,0.662989752103975,-0.5897642485667338,1.444919662855823,0.7684327277926993,-0.20711137978284844,0.6061669150365585,-0.11994185971448704,-0.27631180140361616,-0.1495291586349906,-0.08655833389181905,-0.29042256245857306,0.3111816151991821,-7.2085660936596545,-0.9349913001459634,0.5160354765873029,0.8738765671019528,-0.8544048275557098,-0.2498115836980086,0.3028414080009414,0.759948800628797,-0.19613072665242204,-0.3638849804540955,-1.0989993211377593,0.2161746180227653,0.3011073577309111,-0.7552283635163747,-0.0609326418520097,0.4006258315892486,-0.4084806144241683,0.2381187906463793,0.1520962331362944,0.39441045940413677,0.3090478906833483,-0.487442506494698,-0.12266963998687985,0.4751192452973611,-2.641173734759582,-1.2308333291246423,-1.5100465560922256,-1.7712537372991406,-0.5398470968120155,0.41783271500668423,-2.092134785640407,-0.40142226171519124,-3.4283443741891784,0.1557311904282775,-0.3072412703206273,-1.567096856533159,1.6072897657132057,0.557790898193534,2.6127128312621304,-0.5022210491836874,0.483989454274949,-1.440044538324946,0.9656034920902543,-0.45856480321492743,-0.38526041503593356,-2.511180374562185,-0.39535005642032706,-3.3769065231301276,0.07633701678709998,-6.943370563438805,2.013839753096841,1.952418682520878,2.4324538212657574,2.4615672059024134,-1.2120143339649854,0.40078917746767195,2.6511933862749513,-0.8732020995209532,0.9741718048115906,1.7851997172014817,0.8927138438501967,-1.013376924071942,1.6041228683567934,0.48111423102289275,0.8621038958824958,0.18950059157097568,3.3493760064503886,0.9543398151049662,2.174587016409222,1.283593373708419,1.7744278237324833,2.919750770105029,0.8597744762307638,2.4636709053020853,0.6346232131701266,-1.2443869788855735,1.2152432214971995,1.3195067773984572,0.9073848269551263,1.7489583658893668,1.385265036299442,1.2397599832056119,-0.5050444483725127,-1.8125845265008114,3.7931075619267807,0.35708975045788655,-2.7118741061103195,-0.28532497006852375,0.03726022038518658,-3.908912603278858,1.2972206411216034,0.7790476869306536,-0.76829296986451,0.07085879171149351,-0.170223427779345,2.0543108976671056,0.10787005870980909,0.3249179568443951,1.666811721396225,0.2718908698374438,1.8005735499349593,-2.31802930516627,-0.635215702564882,-0.9174248093401907,-1.5861023405964256,0.411279764451315,-1.1794603652683122,1.4276727209945586,0.32095674844971317,-2.5998217985531165,3.3534109194265684,-0.46587789638146687,-0.4566684543675498,-1.047811279063999,2.6445408620190656,-0.5159386165595443,-0.9517252708487908,2.476640004024125,-2.494165747658228,0.1163803199319387,-1.824961313355012,-1.360582138536077,0.3652671853706179,-1.434867744003367,0.2331199609901348,0.11275272417481609,-0.04332889466996345,0.5889439742921777,1.6597877201072868,2.045899403411169,3.231519292265812,-1.8956194603954222,-2.325857353072103,0.8663352334591925,0.8206906889965326,1.3227255574871484,0.7790958783715225,1.7107292909302374,-1.5560134579795255,-2.672974377864859,-0.47483614991801043,1.464481744210444,-0.045346495842342294,1.1027915028604056,-1.1832500823444903,-0.28931877406231427,-0.6379600928730297,-1.114824363962647,0.6956409270661272,-2.6313797574042104
biasActivation=1,1,1
[BASIC:ACTIVATION]
"ActivationSigmoid"
"ActivationSigmoid"
"ActivationSigmoid"
