encog,BasicNetwork,java,3.0.1,1,1331262623613
[BASIC]
[BASIC:PARAMS]
[BASIC:NETWORK]
beginTraining=0
connectionLimit=0
contextTargetOffset=0,0,0
contextTargetSize=0,0,0
endTraining=2
hasContext=f
inputCount=150
layerCounts=2,301,151
layerFeedCounts=1,300,150
layerContextCount=0,0,0
layerIndex=0,2,303
output=0,1,0,0,0,0,0,0,0,0,0,0,0,0,0,0,0,0,0,0,0,0,0,0,0,0,0,0,0,0,0,0,0,0,0,0,0,0,0,0,0,0,0,0,0,0,0,0,0,0,0,0,0,0,0,0,0,0,0,0,0,0,0,0,0,0,0,0,0,0,0,0,0,0,0,0,0,0,0,0,0,0,0,0,0,0,0,0,0,0,0,0,0,0,0,0,0,0,0,0,0,0,0,0,0,0,0,0,0,0,0,0,0,0,0,0,0,0,0,0,0,0,0,0,0,0,0,0,0,0,0,0,0,0,0,0,0,0,0,0,0,0,0,0,0,0,0,0,0,0,0,0,0,0,0,0,0,0,0,0,0,0,0,0,0,0,0,0,0,0,0,0,0,0,0,0,0,0,0,0,0,0,0,0,0,0,0,0,0,0,0,0,0,0,0,0,0,0,0,0,0,0,0,0,0,0,0,0,0,0,0,0,0,0,0,0,0,0,0,0,0,0,0,0,0,0,0,0,0,0,0,0,0,0,0,0,0,0,0,0,0,0,0,0,0,0,0,0,0,0,0,0,0,0,0,0,0,0,0,0,0,0,0,0,0,0,0,0,0,0,0,0,0,0,0,0,0,0,0,0,0,0,0,0,0,0,0,0,0,0,0,0,0,0,0,0,0,0,0,0,0,0,1,0,0,0,0,0,0,0,0,0,0,0,0,0,0,0,0,0,0,0,0,0,0,0,0,0,0,0,0,0,0,0,0,0,0,0,0,0,0,0,0,0,0,0,0,0,0,0,0,0,0,0,0,0,0,0,0,0,0,0,0,0,0,0,0,0,0,0,0,0,0,0,0,0,0,0,0,0,0,0,0,0,0,0,0,0,0,0,0,0,0,0,0,0,0,0,0,0,0,0,0,0,0,0,0,0,0,0,0,0,0,0,0,0,0,0,0,0,0,0,0,0,0,0,0,0,0,0,0,0,0,0,0,0,0,0,0,0,0,0,0,0,0,0,0,0,0,0,0,0,0,1
outputCount=1
weightIndex=0,301,45601
weights=0.09599100410651006,0.08474844006310653,0.12882439649668434,0.08932753832572658,0.03609045067036332,0.08785786317979383,0.03461120312285576,0.049714086592172725,0.13308187103623412,0.07899656390613408,0.09528311061183391,0.13208578639932325,0.07505564405081089,0.09235201394975247,0.072743489994399,0.09465458645157032,0.09225334343317461,0.07071495467772637,0.12723113178250395,0.11572723426344646,0.02112931882371863,0.07018805460112852,0.08169207050244381,0.06459195378058052,0.10812595857905986,0.0838967007934329,0.08721935385980893,0.09103094431968459,0.08878961850332866,0.13528416098584928,0.10073953286254211,0.08661911601484745,0.054404297967160765,0.12090645289622103,0.11240299633141293,0.11620437569346558,0.08006462417166732,0.08069466637388341,0.10922100674451428,0.15753765275863818,0.1281349153123041,0.11075419750718725,0.09208671116103968,0.0781132858527618,0.08234698087375064,0.12929226284958314,0.028556901038642724,0.16589000191146344,0.0879294373713427,0.11797977425389629,0.0874178140951806,0.07095826516800248,0.06895478589756454,0.08895074681378844,0.13642980805828495,0.17327874630590068,0.11862029826557109,0.1037445632982676,0.12695939524747024,0.12141768430522308,0.11490498973913842,0.06652996949704082,0.12276520603925566,0.14547550416939004,0.10409047078025076,0.18114571833689289,0.09340933067994941,0.13139831151070724,0.11506923333285092,0.13491012590537782,0.09787872485790082,0.07984549739401654,0.12168958266076556,0.12336049718306809,0.08876997060345584,0.06127949598975268,0.09480572531568073,0.04789148343766595,0.12387210986531073,0.11079124021520871,0.10002470012593642,0.1540620614264585,0.0947042897504425,0.10820877476643032,0.130778699516723,0.06922498349491533,0.1415921987890813,0.15484918364914185,0.15969408964736345,0.1184416301669561,0.07773312969617133,0.09655169020497077,0.09401912405279204,0.05281969049560307,0.1304566701210335,0.1192048191735786,0.0918596897760691,0.13351224159192498,0.09731927281782717,0.07287342026418331,0.09378065305318241,0.11276640973580866,0.09392011285281963,0.09306087415270455,0.14267201787618494,0.07600120952614509,0.0854163308313963,0.11087312401317602,0.11172958583055227,0.08064501383108426,0.10684921045427022,0.11867485562092013,0.06091437986291959,0.06719394742643503,0.10713696077078759,0.11920947992015575,0.0877470659857531,0.1367893929672879,0.0843917154549587,0.15125942635941528,0.1145842881857068,0.11281393382783146,0.06679302678844828,0.1597475877275137,0.11378128998836187,0.1263056626593431,0.07280884905160628,0.031777346983626664,0.08229025584976196,0.09211452629916335,0.1267723971614115,0.06985708170329459,0.10724202449376645,0.1439592632336183,0.1430945360621403,0.06958027423136132,0.06650288542878208,0.04790644549730975,0.09307734637017091,0.08885737948142886,0.10833826546242879,0.08680829949071642,0.1361405828172486,0.13495964462233612,0.09397733093413312,0.09819026251282954,0.05739547078243013,0.07947888919464825,0.07601267109827652,0.09717928429921853,0.11234015553708877,0.10291270795275723,0.0976843013836519,0.06470800050190001,0.10906834087537941,0.11678888727773483,0.12988002816529307,0.0821644959715413,0.059635146021904256,0.14100010524673187,0.12703463325126224,0.11152777120600534,0.14585899728374346,0.1288428028298033,0.10968034329659962,0.05183953590476234,0.13769981464809425,0.0912542755593468,0.02765707660241068,0.12889029941571356,0.12098087726470114,0.1310948076944406,0.061027848148155206,0.07499935470248224,0.1033926803271319,0.09416447330377843,0.13953600190200227,0.14449969822127195,0.06542394124572881,0.07295990123936,0.0945854536604016,0.14778626356792485,0.07207160938747668,0.10368967294750676,0.10655066173742396,0.1080543983633034,0.11163586349525549,0.09373086105302121,0.1280410377516543,0.13153333575136866,0.12319670610610546,0.09403564968806861,0.15349358477262728,0.11341246240064834,0.11188543612694925,0.12730842699788042,0.05992881768220464,0.05970598717220215,0.021326305317785038,0.11960093638348504,0.087503456107457,0.052797226169429036,0.15523650085281265,0.08693123533697435,0.09363894466911397,0.10815739609417786,0.07964961112356263,0.15931283439151636,0.14820150024178302,0.13941699879558261,0.06330613728316736,0.14812600631727735,0.07307538506532797,0.13132930253219624,0.11139743233567136,0.07252626612508302,0.11132080654135208,0.10525615263382178,0.1067595504418002,0.08771095006170601,0.09325858018221088,0.017006665513537828,0.12178637999714313,0.12950631589727063,0.07927785039710475,0.09025716171915428,0.09323861405476715,0.08818418322854629,0.10944910960058964,0.1104991065662264,0.08788311250715966,0.057636898431550655,0.12181716346632325,0.08053177770539445,0.10748043912993056,0.10185740116385998,0.06642742660798495,0.11066177879461768,0.11903142773558774,0.13818444869499866,0.06489422203700368,0.139548323080899,0.12031544789031531,0.13729752859810596,0.03735254289099585,0.13672061724380052,0.10373263455811864,0.11503504115786548,0.07278645214470567,0.14665565379979784,0.07145775913342667,0.12149449242634829,0.18341747483011098,0.0928038741199513,0.1032337261672207,0.1077329028454699,0.100962798434457,0.09399124399634942,0.12806547294958381,0.13735607749183118,0.06777778119127348,0.060215220012435566,0.121322252721362,0.058723345177604906,0.08794458545211013,0.08981335384295168,0.10341695001502117,0.12413898166176911,0.12414762526060948,0.11317047687205138,0.11500075444757799,0.1516527327150416,0.12074116681190329,0.10193489341343322,0.09169214847823094,0.11847548596341347,0.050207381787069544,0.11690455433493367,0.10603973628410475,0.11411129349866873,0.06942446607237945,0.06030822518592199,0.10590155363358288,0.10919080926868391,0.09736055999030799,0.1381570125666252,0.02744997387949738,0.1563541522095191,0.07910537112609592,0.1074604539908545,0.05830061102637532,0.13486668522598821,0.10483618247335137,0.10320709602610899,0.004096650856711709,0.140518526306523,0.09918736439587303,0.0819271477133215,0.09379345347306821,0.06047625197941742,-1.5197565924409782,70.44403243452989,23.108821973576084,-465.9379997103415,78.08579682784695,120.23125433509324,291.52497040042954,310.1918798631129,-54.47393945898525,346.46276855589036,52.71388613972855,-162.8158173002415,-149.85645395318778,60.23985447380827,147.0088975868821,226.93718988761998,223.63322568800763,-329.0855047692848,-382.3154855393892,35.82483471090914,160.25066887423694,-82.54258416379372,218.42900751532338,-161.45141980527623,-148.65992268730912,314.4035381429989,26.82926253245208,-41.26476572411504,107.96261053144912,144.285410625139,-151.27738116861042,96.11422013397417,-202.60783195259273,1.426915842082134,-107.30443522236226,132.19751997950675,-92.19068152117019,120.29723094396127,-89.119619122216,-248.15375590164325,-989.5519783091419,208.038570894247,387.2176035481513,389.43420670312594,-23.1364578277552,-30.908570537306463,-450.5093648386374,-16.58236717424156,-137.93389130816072,121.49697515762153,184.37766486317747,245.2867110595875,-57.09425616136313,360.7779334933024,76.38056199718383,400.4071311767791,90.31071645084602,97.31275332833158,2.214778642313871,174.98099044457317,261.8351706302374,-160.6910946529927,-173.43287842471793,138.81005748638475,-221.93667712965652,119.49223587547284,136.9003282189426,-254.1888650006163,-48.36975072603063,-335.30209811209437,-22.163342726497806,315.69157929625953,87.63876823678788,30.793843999291987,-441.2464162099992,384.3260799873116,-86.53350400081486,484.7587648304673,568.5395994255472,-101.33698087955324,-850.7073518940987,237.60033042589552,124.60569501577598,-247.77421910978214,321.81833437270404,389.4852851209882,561.5636973635327,179.7741320580794,123.02136561627708,-96.80849401286885,1139.2599489176243,125.56676180807618,136.25983957512187,-525.7241892444389,-84.0290199930212,352.9881735225163,202.20276862484232,-1087.205771700836,62.744609741928045,24.100723701297,95.091357182687,260.94111556682066,208.41090233053055,205.14811797060784,100.39839201128748,262.00629977275634,79.49661348573673,705.0194068668301,-38.00978018872315,-795.0704316490666,162.83610770938478,-95.23574156689054,211.397276978588,77.50924568813413,34.066711331541285,-5.636676523082115,-299.89387264380497,89.02395899053461,-25.52360317163442,-167.9222858736708,220.82498392727328,198.95791780191936,283.2628925703014,112.92876828313082,-731.99414475978,-79.77145542612043,91.60916632376708,-286.86441706864406,-63.39017073788561,32.32394163287417,303.15067895235893,272.58101176215865,158.64522603660154,244.36823245627488,-17.593874289125743,90.16942541763905,-450.0854078763216,-28.05820935890202,467.95871820459234,241.93118516355275,182.95392123658613,68.48678463906786,49.16616438164256,-87.50514669474484,-183.0330908313614,362.5627921085333,-28.426768913016655,227.0743089453812,32.50391715610078,-284.27655692489503,408.68579145865095,-1379.3798873480762,39.988896760691,-414.32246776035106,389.05496663712,-170.17775316644125,411.28396807426935,649.0929584142276,833.6926968144594,-412.678466109886,287.77130382464,-68.23678365988815,-394.32555108169873,-100.03156688897602,282.35503618306547,76.64283810080875,641.3997990795499,312.28037563981405,293.32428059550807,129.45255887333587,300.5634254243997,-228.54704088022515,6.267882423146472,201.2096158142897,902.5214932311134,-127.119723998659,915.4937336038913,-6.866188174181126,-49.07670948992455,241.2896585534065,25.756198012083406,-933.1486921790673,98.16667453157483,228.52910304699017,1126.0189232663097,-64.13900418389075,-51.29049128154547,159.84353434682578,-99.34078729757009,138.4892812121248,-234.29191744610446,3.327521187700361,388.7045417018079,54.94303374558612,359.33262108027884,478.62640044654995,-199.92967898823738,-97.03899366973553,248.59063786979902,-41.85539984698012,1039.6574278744617,408.032930305992,309.29443141495113,9.965929361529467,267.6907210129555,83.26101247331535,-41.160638985934995,-398.2056293749245,90.89080357751192,107.21886024385752,88.14382614362663,91.43352684934595,199.96354137759357,240.06229865283692,427.88393632775853,-6.620833301885574,544.4495290902017,879.9151067630964,481.1713328249343,451.86504827909,461.7305029125898,0.39000330316281895,18.96989699077644,238.03748920023773,91.56023935400951,-10.804244493243687,137.60099725710728,185.5875957864492,-70.43770136233061,430.81235638631796,-149.94927309286433,104.6119148436996,-41.34781691749775,13.938524134932164,-477.41484808587654,36.898596904379076,37.05475366478079,80.24465522722994,64.75274769167643,154.2253139918153,124.40503549208597,129.4758049932404,92.12874590992558,210.7099407678471,158.8632861703719,676.6093340035834,-444.6145328411883,40.580392491427546,67.141176817912,80.48698952847889,-99.518330808713,646.4091016428083,85.72655804143314,-8.335836638852562,350.8952839323935,549.9701537096643,196.8980915367139,583.5188016792271,390.7968930722007,86.01382656084895,-253.58864188451284,101.20262913673253,142.7877526113125,307.4063430009608,61.972311548836736,227.5902341536995,703.9195930520917,472.14815585502873,55.719001464053704,152.23118097771507,268.73073807641003,159.5423126699477,432.403910075921,54.407358492665445,282.014755873927,-233.0310784477744,204.4806574471593,295.79404593156164,-159.8223252799207,-14.661716437609732,414.7902167288391,297.15697703703756,-212.58392347154282,54.38939945255226,500.3923208094893,649.0215177963313,142.9063282874694,-141.9933391239783,-23.06634218221274,-44.260520800593866,557.2038827340441,125.66235069738329,706.5968781399176,-165.2065984630962,94.61113773957358,319.2316344265511,385.90639830834306,-162.52233687336047,-460.95026493248685,132.73280813178692,-461.2631964040417,754.003015717002,-1802.5738165677183,25.912034810148253,-380.05482990971177,302.2836153881007,398.2512970636682,264.1803178231956,-357.5439962595006,59.1171627775669,-13.893758633257864,-37.702584046953646,236.07217774702426,847.5649408886037,383.06080028392824,203.19471292923848,9.971458011791002,653.8299238117731,314.73246822073065,-196.41847492610722,266.78411121754,570.2674123764848,-51.72840253955082,48.99954488789577,157.9946195483898,538.613335656554,22.619965027049197,-41.27669671519583,-491.26963720465176,-372.3976768295264,329.0650703978981,-109.69596904622918,54.72491460861679,132.94326200302106,-98.61116446805885,-135.9104516892954,383.78180640632837,142.5300451944798,-21.89493874460762,120.29681006972864,173.11349575664076,332.1483880363666,283.8955984395,-548.7106567259368,163.96438832235012,207.1129112734487,125.78372037170547,57.9960388082078,114.21097463516186,368.3775434838013,15.80721115241493,-162.93870733838688,480.39578704925503,444.43763683689434,349.3996194933039,-235.1798511751706,383.83775248458755,233.8360171765645,-151.73438834763823,307.66870677581517,115.70532103672316,375.47482801172947,-292.5961967839154,579.4185117103067,521.1451955597134,270.3642986371004,262.7123024496334,-515.5546830370071,198.8483548448655,-75.99963094356313,-127.12078060040889,214.23695095121636,297.7133957856769,202.75423816550565,-201.25603755775504,261.37084753154704,-60.84247527454266,347.8888208498387,297.071585498731,-97.88571363899464,486.16028727492886,304.4980030823421,235.17119153649423,677.4707983253371,127.33507979561486,94.50624313177666,557.9740117904314,447.1485162507524,-445.13457258747854,210.24915077797917,296.23865680299565,-276.59686905457255,171.6576767817025,-70.9439062396464,47.20379655241862,-254.10460944018686,173.88610261851522,456.50253706819893,183.33255619249704,478.9487471927594,318.0771233747349,46.844892353842475,139.66022346741858,-66.95928486306651,490.0405354324483,71.4039147977721,-181.29036852557988,418.7037521780984,363.73086178271296,181.95611164404474,-129.8944022819399,221.516608689465,289.95878473448204,187.75920135525985,401.77394751979034,141.8726527725514,-262.5772792443725,397.8761590190339,360.1407994719276,-72.0086546480336,217.7635962641654,151.95763117430937,164.53730360017548,179.72153446009906,254.79082764837844,-409.04613190450857,42.27439875666049,70.17081769809533,-65.74725828562913,324.40917951437535,579.924409142611,-244.35560394413443,530.7552384977547,374.3851669230174,418.336309706224,222.64593123149226,456.801208530779,420.045569786532,-503.2571230545649,319.96714232030456,56.36009995146994,153.4939640019998,368.0888586647172,417.1208961709002,-4.206551218197998,-482.96105248501135,-273.1675584932843,56.32952526860339,230.03518790811722,1030.8262255878979,313.6304046072252,299.9368019584153,342.5953021965882,-331.09681128173423,329.83074767121695,-116.62090028900998,-431.5624258908274,334.28806800155934,637.7577910600573,531.3244919740376,731.024990847466,210.75275161040184,702.3176665352555,314.57943989155586,221.43004926325875,650.657342310462,578.0322180124057,185.2883431325596,575.8065913258492,473.1242024357976,118.82596216331098,-695.8066401143509,-174.61306836341518,517.3557241079834,-0.903579678747705,648.9637097656581,336.84251093767006,621.9943867370762,471.5147472277746,583.146022848088,58.392574291223745,257.8002496202324,-894.511796399619,424.4483884559147,353.8924945484382,638.8368223758766,184.3492649757887,1039.3778731930763,455.0092846720337,990.368530822766,-82.6410225965618,376.5617182442061,116.06112522870814,397.31417568250254,518.7546565441995,225.29272558573,511.8030916353123,1096.643418053286,323.4290756326226,339.938075781266,691.581965090323,765.4805850087072,9.931328267749883,532.7866418770556,480.28789335320937,153.28747914357407,1008.3913935640602,143.19184301796733,9.245173509858748,152.01372459789053,191.26843964397634,271.1671169245708,806.3407199029252,265.4434781830527,212.71217819721832,371.00296027746396,372.73671111724025,337.7096037666891,210.01109108390517,834.7785573241333,36.36567764617476,-312.69360119304815,525.9473260306323,457.30722235027343,-413.26827526354765,361.5948327163472,367.00817307886285,551.7975894505239,631.0087254826718,-50.618498730847605,305.90598011835857,1092.9735068439861,284.98554029482267,311.3719836207397,472.9615505803325,-220.03608835333864,-93.07839609169442,577.3644954153852,37.25387468152152,509.7617520307945,626.3849703943192,89.3308772587555,-6.6152398842764635,361.2633407448298,371.22785094941014,405.20272684277967,397.6355616854171,343.99140782072027,394.03546686257334,365.2557818511907,605.8748812552243,187.64497441416827,287.55407388702844,-74.77539543108426,421.5474107352445,-121.86399638941279,347.4551566653923,465.2223376284081,568.5314150395066,567.571187991866,966.9673746406825,1206.0898769808007,157.9748165021219,225.54972381667739,379.153519731655,101.78104887224418,763.3319629612012,191.74857153234376,213.70639787986576,874.2573158898837,292.08205595944645,354.4516657340343,586.6227671252823,179.37869870647367,-127.46302640821017,416.2110387313534,255.70825164958987,352.1241328845422,723.3685994910192,358.0521342584605,183.59092292596821,647.4255510429876,632.0714940783167,825.9650788653256,665.1725688521939,563.3845940411765,427.8888913237732,-311.47719449328525,353.70074931899944,-362.72782536317226,97.34813725216134,462.66731952398635,756.4055459068397,-404.1753113736278,533.1630767821464,455.64388912999993,313.83689548527343,376.85296110802517,-65.89019875861517,450.90810561720076,729.0549189000383,464.5387952470991,728.6725247607792,879.7821338909353,-900.105863960223,42.705637320384895,44.301735324159246,79.44890986517419,173.29898809436375,-397.9865937106862,841.915098983024,419.1671465192954,-56.645944712547895,460.4373361513556,216.92657744601638,175.94395622692502,-11.504307182927237,1098.417958545432,386.9793928807576,217.4339453478836,414.5668086869088,-55.13488412983455,587.2426803384355,253.2753335116397,-5.459364279989316,135.86472713729702,-464.7351139032143,308.7625125288098,-148.94779206504214,-242.53777013436593,208.39068880923722,-382.05265988301187,206.06147462977208,-218.16550777322627,-240.61122711087285,703.8125684755436,629.9060024852827,431.1297945334653,392.4240648114836,0.2944126943189219,218.72178066528332,-207.74716309997268,70.37820800470433,249.31827984961578,369.73920266041347,350.5391262038793,290.8792777462763,562.5270192991198,349.64266606592713,309.9239659420677,313.9955478996191,216.98169136445952,41.90947599707942,-152.1058482205158,970.8640686858201,21.643719707999384,-110.65365012059911,149.19911513147096,-10.962495460634678,7.954373741585142,-167.18352845227557,-326.4152877790512,359.9712059920027,60.662218294291215,378.7945802577513,7.685345795297147,224.0756671002045,332.18026850057174,51.64432705781729,-229.97544404573054,543.6749198034337,-504.18947140483544,419.0820944864086,582.0176375296779,887.4082956261856,356.53206417560426,56.544654818870775,72.79326537481136,-375.330747464009,453.58213081027105,312.6089444587025,426.9379829038631,5.261998395227992,-608.4099272683944,732.3973225409306,-29.988728905013495,-349.71971658433483,-56.72738946794115,365.16544444724036,367.7061487030846,297.88384059584416,240.90743496315136,499.1198098719115,-246.5484358766107,-75.8548017120653,366.472757396598,587.2202352850854,107.46573682635493,593.8180036497263,727.6717879623227,223.1285568342653,276.0500612165894,127.12037464843169,-407.2190191398737,-307.00009214472533,131.24336965602689,161.30403983896161,197.65559727108243,240.18035562479642,347.14778360769776,171.97480281953776,603.9541819263776,70.5872305313454,108.79181304413032,45.90216750600513,178.0219682574357,-321.1725444060631,253.71118550790453,122.27000422674678,61.43714088863341,148.94841592833225,-46.65871289835117,-31.31999611978864,322.12323783872046,388.7818272071027,116.8029764691486,34.74884936267476,182.6519019936196,58.17287633166749,378.7291752822296,533.6069568964439,22.85781843310237,-297.3491942718863,993.7946252329727,411.90173862889105,334.0276778144112,434.0609258698591,803.5635285660788,250.88072020583908,324.56664863285226,283.3655017742633,177.4875589006171,500.5296283563792,-325.61274532610173,174.6319549963869,680.053578131064,-280.9992701224735,-122.14574241289671,-113.28943234966465,183.64544308029286,-112.73970764044583,96.16898276229833,-142.21016247961808,-14.740545091594942,443.5852403433255,-303.04410779179017,477.34272085187047,-787.6827768311122,743.3795931866654,786.0302394679152,148.09670945765694,856.6549533212676,843.6255461342248,106.45706048797987,622.1999896968634,317.04676049071577,-129.46937074411628,-137.46322897795406,118.44359442858385,-235.45477973043927,735.9487413349101,743.7493638282689,25.798457854454075,425.6194361259879,524.6073003953564,620.9060075329868,207.75696930743734,453.74222835930533,855.2362381107266,213.7177820224879,938.3346280511748,516.78298588767,-97.17346193517383,332.6717695124211,-102.01523766206478,1622.8946805840437,507.3055618084306,658.1245037320354,849.7778203611213,939.8843260823047,1429.304172665649,272.3925171950377,493.43376718473934,700.2432354727779,606.920142033872,377.01343748156444,651.1175283425787,444.9165779483066,537.7890735810405,469.7551150762395,779.5592862244112,196.81144868458713,220.36248045308525,448.149300822927,-654.1479723926903,10.316433232952134,648.9972415087743,142.97751172200998,824.8337464480198,1125.1913922604288,6.233549659170842,458.02788789463045,-6.479669470051824,371.5444089493075,644.412588309249,25.235201965708175,977.4265219501056,819.3910966621291,1466.4934344161675,225.3371347491633,1436.3865045275322,397.90076824192613,514.519457802262,136.30048848245036,348.4781717561434,864.7458024242172,920.7274850269743,701.867733158537,505.4206682257144,581.4369117725502,766.7204863873123,436.92583853164587,519.2671787973582,1109.9573331795002,1163.8443628728328,-32.38167191283521,572.9100821428896,113.91909609579128,915.8201792327499,956.4245294696732,770.0557566546019,310.528379143101,743.331524012705,421.5410730521507,-463.65810007527784,-132.39781248317843,202.18436956396005,1225.4095476924554,522.7887679372211,782.944570977092,862.8083306984186,519.2696264342883,421.6038659167228,-260.7547669212037,-409.93803954885504,612.9376955403826,479.108572144809,472.6888165685439,998.7844509739103,723.6484357172579,958.0863396202434,77.33588328197382,1148.8131568084182,-364.40648997311126,580.2450754900893,475.7183189706568,316.0700678346098,1194.469778016635,391.0997421518306,565.1365896149422,754.2393702788778,493.5888923367626,798.3041825244736,950.7301313316871,-122.78122344595678,374.73206517508834,510.8891684941873,866.0434990883248,736.6269748558486,478.2045477706063,651.5317098051939,498.05408488446113,329.3566303745448,1020.3246339331159,1129.4985905929905,1188.1670092926665,452.8074613955389,-163.2345706799834,67.04084519724356,113.68489128243138,795.7954997812984,136.21697062942823,8.260312941050662,1031.3039038226952,652.9007216795328,1034.8538994442038,-204.61404217499782,517.3395438321959,301.6257429927729,506.17309534080147,442.3559857791751,1007.9395985589844,214.4309354021695,559.8788629261537,313.4236188431238,790.2817798418921,-675.1696171459137,-25.790161310837508,-138.9995940575261,68.35200068435572,419.9019230569433,242.67150886969472,181.18777542176295,772.0113008272243,151.02008603314644,168.65227067954092,609.0369894776114,-62.3371907284038,383.55431599318837,597.962369457195,-54.76974118458608,1163.7561815585104,872.995303667155,1348.7769511549377,760.1096696812243,236.5480263503273,360.32500461837617,412.82027323645644,1047.4466522127595,-147.11091886899618,318.9105017867326,-113.04174074595178,227.96394453120902,41.33458299929448,170.28093165991285,-168.0733182923237,8.50872284196372,217.22602431493968,55.886780269065184,234.0112499204093,231.1760468953915,226.01080874234754,98.46537100618508,-352.5609508443502,614.3230189788488,265.6693240559026,49.10714718473115,1120.5264549836115,203.80860691368048,447.677975828314,42.405235660904985,210.4319452605828,306.2187543469683,-15.35952212908785,372.12257134367155,-356.85979577872575,-205.9446385716706,369.10144366313347,68.770730413546,284.00586337842765,-125.68864546634728,142.34308868919462,116.7178802162051,22.120053997161126,494.8341581328072,45.56025259979948,283.4466658329405,191.2222479413119,152.3554911275688,114.46279014132945,540.028854613867,93.62959448784547,253.3191799632623,-223.6251812701119,-718.7732117574757,562.4518116544021,300.57744094865694,292.0602463649717,197.18103571110976,-835.2876642205964,357.057958029292,365.57591208396263,227.8203143043441,-49.60643978666565,591.3710879735519,-361.6139814586625,-0.8782161598895806,280.43975303778535,298.5495802642224,-605.6279270834123,327.3847332418524,962.9492153562044,-239.3373046469045,59.63189753859337,189.14171742048308,-915.7206443610554,-298.5438033975481,-154.1808114974552,-243.59590844431426,41.13736974132633,470.55122235143705,177.55742026491495,450.73964405940706,-16.74089960011869,-16.147065912529325,-347.82913697123803,383.49771648512467,-22.471238899301525,326.0329043840808,103.1139214067505,553.8049103891155,467.5262255827121,252.6790805747265,422.6069687142564,-225.2936814968339,6.7672598598926275,62.13151622905287,-234.79675180066107,95.98172195141261,-193.12577750183414,188.86229333998403,64.81985420908534,326.51429240396453,-271.7298120327152,953.1541708469316,-467.3433680153897,639.0130971606906,248.01705625415187,489.9672491210046,-457.6132057274243,240.20757308758553,444.54618805757815,708.1114909208113,427.9764277351107,55.81239806275495,258.39473791777533,364.00464532519845,-55.19491191645991,283.82442326330676,-397.664120915028,586.2064797553962,209.7339766580094,845.8933675624562,-147.20946799317915,407.9214323643,-31.88654564228565,372.9907466542659,347.32082937425037,67.75819385512737,156.7767791851018,-527.5080670897175,-179.20667470859132,219.50361402844825,64.99098031730911,927.2811443153572,236.26990174563562,463.4868714363925,-295.1436434721231,127.44087930171267,163.7327205949453,-39.69739238709556,515.3154833124505,46.64551930431338,325.00817715602506,232.30638447113571,500.7584667654509,28.0819958884571,260.1908668732123,365.50499858731746,547.6778617212019,300.25690559796533,7.953306958103418,360.54630685887406,338.63293174806296,-95.41178783074861,143.7891068275741,188.03524410456544,123.51684965542051,33.6661224640168,171.25198701801426,196.79845769294405,157.0296843202294,269.00868081366724,286.49236880394847,-369.38486251699777,339.694714209689,-118.64491506909071,480.88350010980514,250.8417071907613,263.72333718713645,390.18083920278997,232.1696549481988,93.86774932419915,168.4622149066246,71.59927444317259,592.0443395304834,161.96220066903084,553.940664095752,299.26807027895325,438.2982103070783,424.075001844328,752.9479171460622,292.66980136733474,300.65066861129367,220.94624610678054,248.84347768091692,-46.591259309894156,272.8272245383472,346.23786804725086,160.02336424234116,228.03602724517302,181.1490775455377,722.8975940342899,33.340584976487044,261.7428450097669,104.99816510644048,139.28497369355566,238.1204694264299,-153.8471721814625,228.93854107102575,168.91509930460933,69.2774017611716,50.68790659898314,621.8307526472333,-8.394923637505428,-291.0671469519153,310.1882826749955,483.7290970858444,142.97164324197328,321.7054735977602,11.672730594225973,181.82729573601205,330.3798385480216,26.54005317262612,120.19564358028806,558.82422580164,271.37528954763474,-5.332451525907328,267.6247249960652,247.93364464643108,-778.5359286775399,328.6869958258227,419.30790128640047,205.9046762813319,245.2904265675245,264.20036055344167,72.3110323159118,310.96734327334525,177.7962745070811,36.16403183078919,93.14266909707105,81.25682394280601,330.12820478432644,118.49461944032791,172.8277871392441,276.17555233689643,-104.24997302840737,189.72658214907554,-154.25179909332746,319.5759435554617,125.16493577904066,274.6458904644276,209.18790787521084,511.49334835800414,213.45999284075347,-215.25431816310157,-257.4062467359343,221.48983275011358,207.5761493134762,166.04638751197575,209.9865866565304,185.1108151676993,219.47128927737674,-129.23346274437404,-10.766396894585167,121.22747387916715,316.6530304495762,561.3864593720322,315.8708611272926,437.96298453247766,-0.6996747021942892,167.90339443371786,282.64792773137265,127.42941146187142,-126.41748270579023,392.8987855594621,506.9219390725937,527.3535725398629,155.83511417692867,273.13534431612817,-30.144040829432615,304.5630754156147,512.7812910618767,435.1539235524634,123.43598328907727,277.55743451906574,398.4377081714372,461.344972742879,491.0186207895768,49.39191664942984,175.61149595545618,84.07212757023333,-50.84771809883395,257.79383814040534,20.87672447543837,388.9502603299472,250.38582603662255,698.3423411846924,-289.1072271642434,1458.8219595516243,195.0624751815543,-146.08646142652242,570.8568242802362,127.8173118020554,727.9157022395328,331.0165152148445,242.12913127840702,422.2204536977262,679.4486541030622,-86.98428854198278,309.8536342562723,2.1144273361889936,102.20434457937424,306.8567316541329,153.19322735890484,419.25650603357,49.10502648930253,100.40745667278306,156.16042440119944,-44.02105663632779,-8.11122253575627,-228.9249630234672,278.19368139477274,76.67111746977764,416.7377101411267,1024.1877789634832,293.8328983533418,-313.2038867180602,98.73642486736496,453.2956565332182,78.68988782693604,918.3250879792989,568.6569442110016,249.24609869682052,815.6369859085146,279.74203748586547,372.7261665323349,233.25127878779085,303.49290233906,351.0132364467606,132.02675423407524,-26.548955243556005,499.3556808487565,456.8521392597182,461.03892701342943,396.53820990274903,137.5352473363583,1032.5889497877167,851.753058444162,637.9216523807488,40.37491853387771,983.5123884768464,125.31569940441516,65.68384760739993,537.1262138998953,-132.9095978113062,756.1152292623101,341.6510387344069,142.5741515591382,704.9113235450397,986.3693979161002,143.95877516157256,426.17096440355874,-317.51454037781303,418.6873206776251,611.9277883379881,-66.28161195174617,217.75877905554742,237.70525665357954,-100.65528517744815,63.952961379138735,84.28237998794164,-517.8847812050187,383.051022672038,340.1047038488925,45.75398098023647,174.8699656711243,-26.076615695408098,187.19744330281463,484.2341466058413,260.85556634512056,380.73808469844386,629.5253270030887,273.7922332794757,239.17805835462207,303.9272519290955,371.58177523545214,242.27460793709193,107.43061442456279,146.19399658154012,692.8642703088661,-245.2789292232481,262.2709644192397,477.35291207897313,403.97106114935815,110.69647398317612,-174.4250364808753,-9.983186207514459,201.24683843591063,60.70181601060851,192.98952720976166,292.96499178041,269.64352458166627,325.47280305400994,738.990615166584,313.99547477701907,-152.51318861640874,422.28704919445227,408.24360011160906,197.84900091617698,493.6772250445878,547.2389248386442,54.4882585376019,-226.55076728227291,786.1391565393302,-6.501570380156248,-462.3687451774426,424.1858982987648,354.63744240592416,536.4502180005926,307.7251963956162,-10.250590753016548,86.47788047011522,322.4498531949806,233.0171703600676,108.78098516378827,740.4624665228367,514.4344037936022,447.6383796118567,308.45188400716455,-42.45189083662305,-371.54076505482277,309.45838891103966,99.98260159324057,314.97388203379813,486.63908107367286,447.6196390186805,281.94121086273293,406.4603717566821,1059.5088880255817,93.29396635268984,293.28315877956146,153.8928444532322,315.65442528493276,443.8718475800302,-135.74696977250457,542.8713633988756,417.31985174215475,532.4289113088114,-256.7791796675392,526.7415829536739,-22.931209225188972,-13.231815412387771,1126.8406130715935,205.20316542029784,672.4815886859856,356.33967989085494,223.58014454197095,576.4147110026688,474.47480019152005,63.67087938925403,543.2549766557115,512.4803493570031,101.08270726637741,745.7939747075427,720.3836825706952,-3.959090905196687,738.5100147538266,530.4289416961102,555.0051133088557,339.0587408086039,297.0418231241528,614.2085323089904,355.5541192267874,893.0939136193049,789.0637449449121,119.84755529501503,761.8150163546445,101.45587507402377,135.7327613944932,664.7571798456045,696.0380135123953,666.8737643105866,879.6794385682383,741.659018899474,461.59192443233036,261.01765217531675,325.6104364347124,395.931326987296,522.6071395634739,575.1033952863846,364.9492262913746,649.3680853652438,769.4306287851263,369.608450322397,321.8485785156418,632.7454720008707,309.1001580978297,306.33495911101517,930.5998743589014,566.2459364650481,346.82572615591965,373.2077496573667,503.18435944124894,319.7633285163548,146.98714162878315,180.32254081906072,826.2669357628956,717.072085442033,276.6484289459386,340.03363270948336,65.09222344907553,598.8379518261571,821.5148161906188,176.16592434551504,402.9424862670623,218.96799128279562,553.7779360373414,812.9546194673336,219.71367116082013,-7.755908631876105,416.17118946671746,687.390800147862,23.111734510067944,644.8863725511827,311.81395444738234,242.9780546137203,837.4142015336329,859.5286243869111,252.83044626560556,564.0458174992177,184.13801985122868,-45.23028416405045,771.4000483667714,563.0410626626417,406.66353958113325,812.8705545985177,704.9870224681409,-366.4487806677198,-26.410911114245934,96.29675736211257,651.6116121211658,387.99392761384536,661.1542515843431,467.2857275592037,429.6584292748118,6.506916150985781,330.53757685708143,355.2050603219217,348.0452599457382,107.48014778883804,251.8534657850178,478.3060577207566,322.20354435007715,494.97911755318876,885.5038640777301,653.1568722316742,-53.468769562009534,363.22123926538137,406.8389410136973,715.0552470481255,526.8542529960639,567.196554568543,307.46815543412055,66.05188673718578,375.8445102954287,-35.93153982210214,177.21520468646222,586.9246731796525,256.95793535166814,325.3495431200602,677.8084135044619,193.71924831256644,637.289219510942,217.1000796949975,501.23969692088303,673.0033200213151,914.2689621538741,509.1814528282803,875.2221430477802,453.4165829807061,384.1825102895705,223.049302026876,279.9690730715903,389.8045086133691,108.33725404950226,64.40815276457039,470.600001740396,772.1358729391529,317.9869845544142,484.5013163783283,1040.5224036934753,179.1554045405437,76.88510643036015,120.44698061281483,673.3861308729719,575.430966726467,535.9583473984401,90.84941468659524,659.1657301576864,-662.9276476697175,363.61956746351086,-593.0269044457181,-44.17970231594373,184.54881427167453,55.05345334636284,455.8201187296321,218.79266909979629,-229.99856811075412,94.53041517438596,-405.5475250738161,-22.146433183798198,198.98047399422762,108.58287472226463,-301.5990379709675,337.66108560770067,453.68170634067565,23.69038220248067,506.27485467672415,323.0286306096496,438.4606978194221,81.72097987670722,-32.197181395671244,206.8472846798415,440.74614771349206,942.1485531161734,132.25460519435768,-271.4038007272931,185.63285933023087,-465.5832662713306,250.73631624549316,286.1390038146449,24.086918700030168,470.9234539520587,88.5007476456349,410.59057169949494,-68.33704185667615,64.80222722232635,92.76033479799383,180.83525045105154,377.2974283817164,410.62184797621046,203.7951278264833,51.043132895244824,65.42552180785235,201.4146878174881,-229.01250716751596,185.07064610052743,-264.1598782122726,171.262178640763,51.972838652617504,83.26379955340488,16.278203724276562,136.9111548867282,-142.00873409842052,216.02381127580512,316.87785812073696,-187.33344927635815,-65.69497036268325,249.71855531066188,228.08886344274183,525.5470464165019,236.47387066906578,365.38779378461004,210.70000931826814,124.49235985307199,310.36364259914075,23.758284542850017,124.1315727337868,226.84827653200352,19.32065901414224,-265.29524016290145,-157.653648960331,-130.2227431793866,87.45867880147445,405.6868467307532,190.64676587575926,85.6882488073263,794.4198046199433,260.6802032188485,175.58279962732107,79.43332412210923,-133.85280550120956,-580.3249797004653,46.26451280880008,187.87837738210504,165.85198366569333,109.71221008355636,113.91527464432369,-181.74079806803488,269.94669401185496,-94.8684064996151,139.5055569236397,66.05210381096165,755.2423517297386,124.28351731649353,-211.3757089117257,-407.9562342890551,-454.53405895632363,-127.71123356652333,158.3725997722331,-197.5619153387228,91.10618290190551,-75.91196622444235,101.22452323834973,369.1184060576549,258.79537625254346,286.6268294790305,-301.37319131422373,-387.14916107240765,99.88150549274131,191.788204903208,894.5885002295256,318.71956624385086,78.12922742512333,138.216873860432,-7.717312253374255,-132.4395387270441,213.9523793694093,-80.76552151518888,-163.97044237863565,481.147799014557,221.77015467087753,-300.1826521146567,-141.0236433952819,230.39988765526027,50.45770455825707,-38.07746899786315,115.82108969094092,234.79900962564486,403.08518650680014,-19.292979607504037,-73.17348905840383,-71.60423858519033,-156.7204081327496,59.86378759491219,-88.7292796785948,-355.69947504412755,281.73636612259935,141.61043160168978,305.039983834917,258.9666998311394,-13.951809859604788,37.19047088069344,16.86875277314377,-200.27068591959716,-147.32146702748778,473.9691469888509,308.1184490677816,-185.18682962672773,476.27614298627503,-1303.4862923727371,393.6268646908944,-46.3623673838748,-649.1725360226734,274.87120226118833,-7.279957547266547,413.42111555398714,228.31422950311674,128.38495723110998,362.7348489738447,159.7093222095321,223.5893236654908,766.6304113795882,642.5785199309374,132.85023850138373,574.057957336717,665.0061034557001,309.16824751049546,50.67658417060896,524.0681824294822,663.7060057430973,250.9456671747078,124.91898492482144,178.84524224901858,191.3943356986592,-148.09368783706137,244.2309718668663,415.2992434846178,174.2319775338242,-186.30508689361014,701.5948322843425,314.87569926465045,405.0111967994962,230.03206766975975,1356.9446010224003,357.18593173616125,-71.42041233107663,85.02510993483155,453.5432173906066,362.5543691106639,-60.41448802320418,376.2000637059688,341.362412396094,775.9223399323724,636.9467786387979,-34.87298183267957,107.41397000148508,564.1148299101523,259.5667840075144,-291.6352782843226,244.52738694987156,526.8679414594708,-54.92617037049493,292.6824773122844,58.458661909953065,-113.20155371676144,717.8853427558744,299.8153698816959,443.30697705874684,53.54924976685345,384.44961113373705,353.43912349992183,446.98062489155325,226.18899707911308,338.46580762263216,63.86585721072656,445.06043895806033,383.80527870631664,8.612258348513082,423.1813993804952,329.5632662382893,-527.4670301325831,66.15241010014724,41.056851891463616,31.581501042794336,60.78153742817405,251.7233210764729,528.6485782915707,649.8919584367849,304.79419018959004,-19.817720285971273,461.8689860181461,-81.12530839335673,612.0487500049229,483.77010174248426,554.1597751288725,193.72828199184886,470.6689297027612,124.33611972388078,74.50775466211743,-106.22164162289543,176.1253319308402,-255.3210742444573,306.2617955062758,75.95943466017748,274.10902569294876,-143.81258589861076,-309.705691912914,394.3256202996612,99.32960689338071,325.58269950025687,493.1342657956836,273.33314628305305,281.27942069903713,437.9094107840372,-61.30005788207023,573.4516804168148,529.2202695431863,6.923847616703596,-360.7985434680824,284.79774345681045,169.77328454004297,462.90514384736485,-280.07447199787424,292.77286334035426,-6.195775017389931,-7.2368050682458716,309.44437134081585,621.1671176672066,258.9017798842416,181.33100145050636,290.094486832504,191.59106551334003,224.01314808404305,286.3437825509906,600.9016535587133,185.76247071814157,378.25409251727797,613.4126652589782,537.0327745779917,-86.50814058535532,541.3570043734393,-238.52471214663782,31.39640237629502,124.64278033579419,541.0238364386342,-539.5491058893044,963.3235671183949,723.7932697940877,486.10462304910186,375.07553035088904,352.4458780879555,198.84234947476685,283.1599229651198,373.9898939498796,93.00418118605174,65.29468116167644,210.33392128438894,441.737164838509,66.26942837076396,-535.0816680292878,-318.37441338540026,550.2301026611102,194.85934932772474,544.5757593428076,968.164138061698,-39.81128491465791,-280.3560752456908,292.18009166122806,-224.44070682032293,288.9628821387174,463.23649791726564,565.2872071432528,-384.7566400609735,419.1708496558476,261.9019965085268,868.3730901454674,219.4409732129737,-499.75514413344206,103.69118613377465,376.87764604591297,333.73214888531936,133.11678085048806,278.04310615971053,646.5719673904537,182.6833407042924,399.91690328320135,7.655468811494467,1.4733139936514243,389.28963245206427,-257.7487528223328,310.0908410616762,155.17356837228394,266.3665254204933,929.763657273959,894.7625932568822,897.1766139556255,398.4093865571648,-192.0757900198436,94.28028603097431,525.4143103158948,465.0700242265321,62.29111369110984,171.683039468418,119.29067767732272,322.36606811116883,190.24513121623906,216.0142351265697,33.2962612920182,244.0154601973978,427.8666550143228,677.8736707574207,668.0446597869123,210.06368886772867,211.8192202652719,259.84770840580387,221.9287702280246,153.0630015043171,174.64192536318362,1045.378551385175,551.7710447940688,43.342884174676826,568.6165208773858,672.1027584709462,869.011427949389,472.89942762087065,-906.7028824013457,720.7115429351044,346.06021538741686,-139.9389812932741,321.56522920127384,699.342847843558,785.7950989915065,144.76962392354395,154.5982232235487,-182.76757545692186,473.527318817329,293.4363459490512,218.83365298884263,559.5015866747565,979.233542899488,188.33042685989926,719.0209298665038,259.6184394013116,4.680684254921695,609.9877281153634,713.2914727858835,190.82350140311777,437.6888507131682,86.74428733137705,-123.53179425730188,388.40761906990946,145.49144902819427,678.4611816038058,-252.04328842022824,639.9209355280364,552.63594162189,154.4173005458669,977.1823606726401,34.69468332809655,106.6837893759055,161.42408371922926,-172.75397922832488,411.7895912022126,529.7242812387566,97.3515185435227,266.14104630247687,413.3552624224079,554.1981095752159,60.73826926946359,381.8838075056932,416.98975711412544,332.74634238459566,924.8506694139297,298.93923026759285,-6.068504511513809,399.8892360535223,417.08059093342354,222.36308369718918,707.6356316488873,-77.0662048477596,-71.03906933880461,580.7238539188439,517.6312155292543,-80.25949652895325,425.9730055549666,771.597197182309,-148.36695050294222,727.6610373004352,1156.693192787422,215.89653305753492,264.9039248774729,117.62138721187789,452.55968191977524,-438.06686176930384,313.3560130797443,223.37147356152826,-33.23110896006566,320.99764973931764,801.6182553287496,270.13094853216904,748.7453518460076,657.1416082999567,699.055802689585,132.14923732512946,54.54241819752218,35.99549351133423,454.48761872154114,721.556348057055,640.3867808687107,667.2977442982988,823.8646949766273,-538.8547069802162,1291.1634487591668,-440.54247765922844,346.29545950615034,319.55480707607205,345.40495183003117,764.280702270613,417.6593720023841,164.07718431782803,338.11116231591683,169.45138051728816,187.86230499611545,719.7684180337518,-531.745635800323,36.21720647178987,621.1603602000247,775.0914700904038,-12.575941263624582,377.18941985336824,339.35587372206754,389.5717293986459,603.4568248496684,221.94412112494675,615.2972596791116,363.557175038679,600.2469450413629,132.51546370577418,98.49858101353587,42.81640171564507,80.84941648752671,95.17515535503819,325.5768042194248,465.021295317646,419.59225007015925,546.3460061824803,642.3822992870649,-50.60183909324374,-90.26426734107376,242.78759465483182,517.9604464701177,160.25887195149406,661.1163407516283,499.35784921134916,458.7641170113614,227.99473866233143,335.05696864522986,-170.69143946023564,159.25406152485422,248.71731118641142,-321.5484926844286,-42.18675022618755,212.89484318178282,302.3176269450037,436.9482453215229,373.1877027795902,199.8622564715016,706.5374983088411,214.1583185817274,249.3905914015648,612.925909497981,237.7800062918713,216.15697079417814,390.65696299162573,288.527625447082,305.67636813437394,490.703009215836,657.0643229990901,95.22039368586461,-62.06868353199705,279.24792068468224,272.0442501554208,94.07603223283344,417.61898985962927,-333.6536386539101,171.87368350508666,214.41808904124824,138.47857203900585,374.4723668950397,338.46798017407184,408.0342646098602,195.7802558008212,511.10764882980936,129.55153381200986,112.68673470691922,66.98923020074912,326.4446842138173,351.2339855726898,417.9461057390383,140.62615538070355,-29.239831442754816,279.2811724314438,272.8189721441188,-66.2755980618167,186.08990203954775,1007.6011552477075,537.4348214015379,370.1597567186168,-318.9389584352891,205.8571589081013,-202.68005183490652,-164.52643094304568,156.41328378419993,636.4654670377032,160.03638795510966,309.1407337752123,410.4058063660947,237.78779033987345,375.4372360311603,-30.920215649219802,177.4095801570141,417.26154074542114,337.54421119426263,347.6485597765307,52.34585147783973,552.0093349390613,513.1734760157073,548.2353758743046,117.96454293740942,330.8649998364161,582.0866748370527,965.173986277646,188.31063795520882,512.2110212706073,270.8282293175196,-48.637525188177264,411.87639294502543,504.9076665137343,374.69907444917885,406.5419139657041,232.28059440898457,1051.4524452674284,416.9302323978864,187.08419765167014,239.10261611591338,138.09198811080194,452.3286795017276,-438.55075352277595,76.36414123499712,701.7082936983093,389.3021526402278,288.01715202718316,360.31956408485263,546.0120995314253,9.73338169063291,399.3304744756093,71.1225098981013,225.6798639434505,443.6274689200282,11.339113890310475,249.05395525313858,478.5138713488047,-959.5005265806277,703.8236089533797,-112.35344677459133,17.667560496519325,562.5351957229539,-20.328433229033827,368.9685061102209,415.6070995736847,-84.89762884754813,358.9007703735463,509.6135994185097,-318.69813960698804,677.8212027644641,200.24236238777573,-21.18768505816958,583.2783235847412,206.59483645815243,150.6458680200043,255.45316683327943,370.2247875517427,126.83144630844222,166.44509062894454,-182.73032085779207,552.1601137081208,338.30108746999196,348.43119334424625,409.0600663255286,532.2124553960563,244.0889408021204,-86.16849556457086,13.794962281946436,257.2516125597434,320.74117667371064,373.7087143337612,677.0013228742066,820.7025949858722,282.0255766495929,320.5111143979723,182.93699052201254,800.5441986473236,-152.16876221466492,366.2620414942063,240.09452510098217,139.72923712242195,391.72313828600136,232.70401267257003,347.88983129895,305.3852517826585,169.0610511629121,-111.06262887844942,347.22153787387435,750.9364968693852,486.94627251093004,298.22558984252555,225.88510717001452,-126.28374041882213,312.96701573334576,382.44653402555014,355.07423593462204,569.6274031130026,89.2757244209013,504.64453683925143,109.73433116095612,431.3715761560023,80.9290980703228,-300.27638807121144,524.2819221199345,287.61204870689625,-54.80170197751269,520.6125435340996,313.3099804847617,-133.83700787961152,308.02607517342045,316.399415527307,289.9810739405737,679.3358687862113,153.0136502328287,-38.51325995276817,489.42589058043967,435.5179907649898,226.98024210500978,381.04201216137625,194.9395683991083,99.46742372778014,525.6903750743604,437.59942498278616,360.7737115925839,550.0029145832427,373.7508861133082,-167.34844773059345,578.3886843094297,353.77676507500627,224.39540873113395,217.62780728904573,535.9294591885055,365.4286972064878,429.10666021342627,213.84236002146545,255.6776004426999,72.61889428925409,332.63249475243856,318.48877292196954,342.044916300316,289.7645105844257,238.4472893768466,304.74989288748617,598.476183974975,327.93078298440366,132.66161446601458,385.4707185574073,187.64150592592313,287.48430473590975,314.0727418189699,413.39963737179625,346.40135814325265,128.4554649952906,612.6078593641824,18.778245624767912,-20.938410685331043,558.0095081994144,449.3934888280093,122.06998572088472,255.50436602772683,26.369868079066148,209.5747249439152,94.43457251419662,221.23276433373792,336.2280053976381,416.80421694747497,287.3051031183655,371.59009002643086,469.28046964146205,378.31213936136345,430.66175378686773,133.25275645326988,306.5837440007195,-491.6766268806346,255.77637016223818,442.0535726286796,570.9626641265962,462.9901971002175,381.46123139257327,92.39305855473147,84.54398203419218,489.92347109674284,407.4010665562346,248.91042055827305,310.6183132517078,86.32005372495979,110.75345184320022,653.8667387303933,-511.79016562671904,-171.82152465842697,276.674156384082,68.49046797993407,353.77054584961826,263.9726898319609,385.20284579414874,483.4641593822741,-155.50527357164324,524.907855551244,376.32636175285114,26.661916778426168,258.43672559410504,206.54606412931753,136.35807816690715,676.7047622185861,178.91297264966494,-36.94500460156841,324.4421691617984,334.45281168149523,105.10926116837065,299.76474926823107,597.417257920481,518.0367391395382,485.34298947792234,627.7246090617475,712.9403906283991,-190.95860361314126,446.9585240475318,-114.70987453104188,-51.50077575245254,436.09064119143073,274.14256522091296,464.95078940594846,513.8516618011319,373.97511237197784,-29.410024049611252,206.96198427376035,169.2854447934397,196.4301352818914,385.2733869593118,404.1330879885296,607.3378856383744,487.88955756154814,470.678895237069,43.41581093971381,235.45386033807972,265.35966903590366,265.7664014924657,-261.63014719551205,394.05055797174765,475.76348938515645,94.81141152763249,605.0744150839676,210.99948123696933,378.1361483001856,66.36421498209721,506.57434269074963,257.184328812051,436.5466553021173,411.5871409185616,418.03063516392746,169.16665740130873,453.38505146850645,39.0335629185362,483.32208727432163,867.4313842876394,108.60972364843944,97.10328462068964,467.7864417215787,254.3443651476079,746.3163706916644,200.10877468123593,448.2105147860476,435.31979982607186,923.1334593643342,507.25461345119874,484.4256473339716,650.0353811050846,240.5824897257931,194.11275466563794,455.5901433551231,129.9457712707578,589.1384971445561,421.92372092936444,534.4759943254898,377.58174539641726,450.924437346038,372.12574732596386,-94.8798368543884,286.57435822257065,165.49534151921154,200.53408476683848,246.9197395761715,478.35232197125265,615.2116862386547,495.63578872876116,-115.0313412652203,335.50662746903015,504.50993367667644,732.2944997614244,432.3894838646786,518.6655255313693,890.746509755114,521.9709244885188,725.626245378805,447.6471466707887,558.8520642323972,129.17688609758326,161.4250684405165,364.3830898517243,395.6733609714801,397.18537034718764,386.72290106672096,397.82076836600595,368.23310062848475,43.44305404275469,477.70932372624003,-502.4139972552657,622.7687876264998,386.0459709014426,-2.2769512653841524,511.5585164640754,387.3509398096839,254.25137920363886,293.89136626717,88.76595317756345,201.6680802928797,55.897790273639195,456.46005115079174,701.7871604614143,554.4608528930606,193.3816899759284,119.02454685785301,341.33079223150725,342.5641528667547,-93.2049405138931,-26.897924073409172,773.0062275743868,496.13264314514765,129.49274313201707,588.5331850345219,68.29419428216362,223.88657244743135,393.54628341497624,90.41202396802893,415.1317979764262,574.8832456813778,453.2075473634178,390.0572820060874,243.7504155018752,-865.9164286646571,422.5171283689794,-298.85712359014866,247.90556239181237,345.5631531435592,266.06109839054176,412.23744637647764,533.468867941766,308.2380489678008,547.2109003457783,252.43472992628705,329.3755893835312,264.9186008853223,315.55435844578966,-454.5556214527272,551.4876344239158,14.824435304655617,114.37399885120024,504.35131221409114,496.08846871654583,-14.344817541616985,-46.57675577005909,386.729330754727,949.5155324502025,328.05088937213577,372.8521692416363,413.2573938349422,145.21608979438545,207.73179762975164,111.58802721762821,6.083983473771061,373.61669471829265,473.0444603768493,401.9991177262146,454.1214129730615,531.817775143216,-138.8232571537712,134.8054582845544,154.47993070263192,291.7885503736872,336.4201325800231,614.2069760585947,350.95800866123415,293.5387594118512,492.66788272816524,233.58636497430612,49.7469720658634,-313.9857816406187,83.0241012296066,-345.46005791088436,347.0538090690015,244.44327465201465,332.29017938829014,698.6052951603405,351.8742933114168,-134.69671059533505,-646.6576491028555,226.96271680857544,302.84369036209546,516.2701183428466,308.0794484290552,301.4251021236788,545.4659696619519,528.0365472789488,-10.415216862339792,431.77601265342554,282.0335235165113,-73.26091894536803,106.01573616052971,623.0245282202709,-225.34932612389161,-22.108628979252117,281.40170329143643,224.99684441820827,266.4815173777166,531.5971229900691,495.50953506264295,238.66970392001477,945.2879950708965,238.74122246249934,63.89251677356766,231.5791371043918,221.9069205749934,-93.04826685733994,349.1269707049065,305.0396225735568,234.48924509298658,438.6519119001714,280.2145902201647,-125.52763450641379,699.2038159978341,324.958734381081,715.1812940238824,426.42696740871645,197.38178936095417,665.284005212646,322.4253332993107,321.33050426285155,197.1638475628702,-427.7736192906669,-52.24733822305226,-136.048871519294,239.41071081774257,341.5111421868411,455.2472757513088,413.33119984670986,444.83117033797544,429.747771730856,-466.97042330769995,570.9858399303265,216.9252102234625,260.26724074361675,325.01099388328777,167.4949411541073,647.2651671306621,920.4691287648349,-112.45422623047898,46.01618686086233,103.91803901628845,333.8501913963594,233.8993470628065,-344.97954401113986,304.62642321250115,77.7156970472607,-574.9436407986635,354.7999573525941,336.1292628945598,-6.101317511612941,336.2798042767823,398.1890999589142,790.9230845053149,447.9179309333042,-159.90209901366842,313.2422806097351,353.3286507942238,288.06299369609604,-238.02834173169913,171.17430199075264,291.598315991399,411.88962593735437,574.0895087631876,311.1942362866676,258.73949308575703,94.19191854755265,343.18889949770005,741.8130733159534,209.17669489870124,510.7511082699545,67.11802762637826,86.28060312094563,467.2330984075948,-907.1663167365,441.4785997726395,-128.66062942772012,80.3117591400202,271.61456964221577,-376.534237317355,859.0512831884172,418.27053913176667,208.56623512942338,582.6531399057526,311.72754827494543,142.7729464269049,318.8322192883803,479.71199039541193,365.43860776365693,254.9192006266801,381.460804765815,258.9455827818346,51.87362623561212,393.3436064723292,225.77261999688847,-41.73465184798748,99.27913542656208,95.71148433501595,232.09014253035156,386.448055208444,246.30793262152423,260.2779277592841,353.6653518587962,-256.31908397541326,388.2485644488413,360.19385762984604,553.4744283057508,708.3592101095999,720.7387065494024,255.58631462731788,377.74226753569724,-150.79101579451378,153.0703354849311,612.2660420183029,478.54632746218925,431.8041596694725,276.1867228362657,551.817903154411,504.2392823054853,111.18945385316849,249.79041515558214,400.0544430234421,214.61439012616816,-163.2921050843613,354.76560622312405,258.4859845966548,195.7584318139161,345.521988782191,103.16186772776722,60.34278267924881,373.8993329872372,224.29907100084532,194.68379896329964,398.18301748977086,185.08232280771702,605.770274403779,256.575642878347,338.0912487574418,68.40422639382196,-70.12130712441139,639.1070203455783,366.6748831727811,203.5032919925783,569.2705894733656,523.6760455732249,-236.86031489251468,356.4452302888107,490.00797688674714,110.83689562808185,438.6368897149392,334.9013781309124,292.2906074705059,133.16953215814644,265.9380300535276,149.6022853383002,214.15385012357643,209.96377067900116,197.22479146904115,440.88234483917245,519.3686718467821,238.64353711825677,533.0457023800308,493.0026297079259,-161.53945875350357,477.18334239060596,407.3838578329725,148.00382586901594,19.252549525988012,554.295450338271,500.31465755073253,388.94679053513573,142.80418135337837,198.48814169794116,-66.69517567666857,278.3861627960511,-4.083382939169152,372.2526852347631,524.3370810841192,204.99463328362495,290.74172065381293,572.1514783166921,561.3637631653614,16.103079984160665,305.1702937991274,454.3106373953215,199.4154191232645,411.25047013897387,317.89452858908635,560.9363249814035,41.819489568616866,251.5538630786235,81.7071722269186,692.6550345231606,206.85552675497743,107.56885226159497,220.8906734288521,380.6917804169547,154.39085205912912,-4.463848389819977,445.96511987238546,297.8012222086225,634.6367282363555,635.2546867438507,416.92201695020276,418.537280880295,589.9157155266249,35.86793003222355,-37.59827148400807,114.5629266189043,179.98181852094098,-268.1075149800303,284.1023871057855,81.52129466459529,185.2838130922241,509.56698925173515,452.96692038687866,-44.075573738726106,344.26716810516734,267.2602649511668,269.96471584377707,242.4205135444694,12.408924677656065,485.40153600765694,573.1628807750312,317.2243845637724,-410.6273497868093,303.29048881705233,13.933962975988235,-25.230555970570943,438.75299996660345,121.22091681380229,259.69307016827236,301.3706838281925,111.81147125276496,203.83744818373867,281.5678644382771,112.1467308186065,414.96679256364297,464.47403897431064,-141.7296602521294,316.9527460103534,455.8003209327423,7.619615801421773,377.5449502737904,414.5056151881657,274.52852938314965,275.05728425515537,247.63335925873116,121.91154346558909,388.1518974538504,26.518671905538266,27.349750824173206,-30.387888501660672,218.44040302077454,-164.42457953164492,260.8158479727718,311.49177226819717,146.352467732583,309.11332722512145,299.97292853973823,401.4043003852979,146.49738973247162,-7.404213034433037,30.92510952940275,182.60577260693765,281.0280637630447,144.8335339523419,97.85113383318057,349.14949194109226,198.12813475230595,173.08389239283525,346.51789874314187,655.1658692830273,262.7665820252406,-133.07743704316655,415.1102215544274,407.3034207773657,125.33676357411572,302.67420653977626,385.55970284309666,-0.22307468319499335,79.87581660476341,221.3482846983397,220.37348423761097,350.9170560490745,65.76959843697857,295.53048359998263,-76.91603594241546,213.8899903061646,374.98316253261333,-67.76462456099462,240.65194044987683,-39.63626039504344,-160.54536577722774,485.0281235321478,311.2199116175503,71.66809104057303,276.12079973103187,111.65397763038261,195.21312747245648,429.4930540377576,367.4981912360384,153.0337965948451,860.1852851874829,-1.369190480963633,56.348868174159236,368.09579769190543,119.44042425535423,116.23665800042717,503.5425329189578,271.72568530211925,107.97839837208032,176.54438145192373,232.2024753970605,-207.32256322792654,222.28518275780442,89.78786285538285,-41.93025731196339,-57.60505914369339,238.67858859294688,486.9840230842133,85.5790448846468,79.63271124471156,98.91977360463918,77.81526304415448,241.81679129923353,248.18875202034656,-1.8071360064727529,185.6017678362346,192.6271147161551,205.97944962023826,293.83968545294124,301.20159744437416,-27.820450607542167,131.15480495244987,162.23592697899568,229.7641710341971,-11.49862458392804,45.08822800014868,63.02162864728047,200.13997614368773,385.34190206864827,259.5149031880883,-125.62095342237998,351.9744803901386,302.9104818794224,189.2562916554556,323.049424511508,-3.6511042496118433,283.1612585037334,180.35497175583794,154.9625497159895,297.9011469170515,347.52620177836917,77.03991662232026,498.08201818239587,393.65276219645745,269.49348466915126,369.6723395368585,310.59748884163014,189.83921149387552,-22.159920265646615,81.15835204845027,293.5363652128194,271.18638590330636,298.2993176835507,303.23952549999973,-253.81698387879482,-65.80441056229614,-145.69290025815454,21.5486287860297,164.26849437182779,219.15636018714102,395.4881060353874,238.61200335101958,246.56725838883003,-287.6570145229451,245.49717847382803,16.14987741743201,-199.03718984606053,313.7471442899058,585.3802990692017,56.47288951980764,391.637207074788,693.9272064209001,296.23395400797693,501.4527510481076,195.18800388117262,158.2181266626463,417.76187445245495,-88.80291185906745,422.19675779651595,494.6716608394245,-5.569074080626048,424.2039440021682,333.4076370699758,-39.95740406090149,149.67830858643237,222.46058643925997,52.90459499929221,328.14854665317716,273.0891372000329,85.2481272886107,141.80968827453037,-78.64221049755925,-376.40441683501876,122.74579125345161,-66.88440749414261,185.7286862363465,62.697147747031295,394.20642565848794,-261.3620804123821,488.4290691928862,273.29160011751884,95.55825065093812,133.98133607414658,44.721737441109475,200.79047121322222,257.29877290658027,290.9482712644724,251.6755542543116,361.5410751401777,255.83460727108064,205.14349429523466,298.73483927342534,-430.2310655100627,216.2497010331916,163.97437601761368,192.82082570368794,412.15724481830824,192.98061498472865,85.10039358055306,217.65769740094933,165.9355260813625,256.12956673399907,-8.797399985808852,98.3197603283614,341.5807882771786,-107.57021418263096,17.044490542324915,111.46607636847122,-209.78151545702121,-116.73647213809019,121.16836140440716,311.689616429102,698.8602330737583,477.4728241225036,189.60560025317483,251.68352184595796,310.11090150628723,199.6082463845885,445.7122738738865,371.8469050967809,114.5033202380494,412.4061529821649,85.10115761429567,149.079202259151,-128.2868541749079,45.959266842216806,-14.068448470027645,1196.592552695951,-350.9137125710165,130.19330238107065,378.0421480639984,160.37448448375721,373.7380227236905,-111.2977401851468,-99.86887486306402,156.9084883867102,98.0880613695734,460.35443866661547,354.39961446654604,-0.7323269886615414,70.44867567775613,69.30667770495022,190.83993102615526,241.47531603327332,35.80815043431282,225.25821017474595,344.1334455566191,-281.5548245558681,239.59705957934582,468.71350528867134,548.3918947206531,49.55578990866534,109.38554548579363,301.04848109410574,210.69030104979558,590.3721269885692,406.5140185507512,-75.96223076638296,208.5453730315117,39.91532144522688,226.57805410177025,582.7852432746546,401.272161504376,175.79468440615761,284.82847720741415,359.82458439050487,406.62735004961587,163.8807490068927,66.75763783287064,63.27312178327157,-85.17027784084468,437.67809515193596,335.62311642344486,509.12565526726405,243.86574733083597,433.49483317526915,744.3791176920876,366.09065912758456,381.5525054724562,-635.4786163036273,-256.45569523747963,327.58143275997173,1087.0382294916908,461.03325577257846,556.864046182097,234.37045731101955,-222.4349152184619,-286.21652098998555,358.35466607650824,171.9703004183433,537.4253255020348,290.1354791388079,124.89223297006626,324.3760559569522,-379.27900536706295,-478.130176254021,-45.87288711657663,-237.14299062392922,222.6456712794188,326.3940555896104,246.02195158287347,369.6922794193074,98.54545442143764,91.83176269824939,42.79462730731406,63.1944722251049,-29.23608929607406,332.2921992569231,-219.9143710561063,431.81649137635657,7.70053019662058,-19.022227130115034,-94.47862529180578,-252.26419615297212,-96.60912288311553,-171.30752869941898,638.0364631104476,28.64721880681262,46.677843023977665,255.54300899230637,388.79552714348296,-134.269555399453,224.65558193673797,-23.91013745107574,22.989814370312033,125.83241951958651,36.55389246422672,320.863011719916,135.53692893341508,264.24805466348977,256.2657963631892,79.62031092515738,-166.55244382326165,76.3118238353491,332.86116608841877,221.65397612954453,333.8347903377019,348.9937073978332,-162.4105246229478,-124.15809838963378,477.86971163574526,165.50980639710647,78.38648353912316,-443.4857329032682,185.20606636109417,420.74496292112406,197.42124457821254,372.3893351667142,26.296160466154568,336.67652414153923,-221.3131771679475,267.3182263960164,8.398133742227229,132.0710059232435,366.63824156996395,111.87874854200493,-8.708278457874163,305.7259232317188,340.04425122122035,126.26566085611474,-115.96149173050594,-41.54918631522901,346.49976914585034,-21.100974936010196,-253.1657352729164,700.5165101219213,300.18035317902553,181.80411494803312,287.88391093396496,603.6214665619816,617.4176782274914,239.20724855262412,341.6139132711831,113.03781682241002,278.37456240788634,-257.5679212189259,22.429832263316378,454.87918493704615,496.31189575621136,447.99127327653173,299.20657687651277,-99.34516870643486,4.060198094343179,53.98372016557617,2.7937351273304474,24.20189277271313,146.37728898426911,196.56204095859715,391.40224154152895,223.1197464623974,-59.72868482842561,-423.58565418930567,63.5758689757769,80.30568862488869,373.85518269451285,357.62810650518196,-94.6630528082248,305.2375822738392,141.02468469037348,491.1521367425326,254.83648857050534,344.91926080768167,-105.56953190497936,69.54625744035982,80.96119067052972,128.67991087666098,-13.712558694755453,75.75171902128511,194.54234145892576,48.78563402894822,221.73853061877674,54.12521435899052,-31.90577131047213,290.23568489950344,-128.12880735404374,70.29341237657215,429.80424873762087,341.16568651034953,293.3784395064689,-97.44500416186175,-5.942628110778108,219.92364941507105,-137.92556760843232,191.18596056700179,389.0441774890177,200.7360963963644,-68.36421187741847,860.222126447664,210.4325180364369,163.77993410006405,-28.52358638419519,-39.1123081232602,263.51956113498545,390.65765439961257,19.099185091260367,391.92376111310654,-185.1860847501827,-468.07388653945947,-65.02513316584256,296.54577890987457,144.26167960674755,240.9020984302494,461.9106211243263,170.6391542329682,46.092634775112856,-349.4632473655545,448.61425825269555,-32.55108183911906,289.19547337523267,652.3914941292526,129.74400139182615,458.708525132038,738.4451917387349,115.52038479547676,460.6650876734947,320.8187016689571,159.18467216262056,367.1997295066323,672.0895889001965,-75.04347534766059,657.0138243970046,444.137612700182,34.51107200165825,18.22115839621764,582.6491219608096,810.2125769062367,246.95909815354165,838.0998200746786,69.00379568145922,218.4398015420797,603.3428928928284,344.1410982784399,-404.3211058739285,509.99835026573163,-36.288781989007,514.1104769527648,478.3675481189788,759.5870587896511,532.4283191892004,666.420860557406,316.64453204208087,286.62194014144404,183.64143421408136,4.789893904540457,853.1615351148735,728.1130924844365,540.3901772366386,356.38939035760194,660.3699458286201,369.7066421371189,171.33833278590006,120.25492048833505,690.3055202810266,425.76363507347435,-278.260594628233,516.7122650306774,368.0115459914656,193.6721848675237,-179.75904484694513,275.1901105968507,-147.84037216419352,88.9739627823266,86.6346693822698,806.219942742588,442.3147612719032,497.4029865530264,152.78656705386507,-97.05142791522943,441.4335568120295,407.66696733234744,-115.73722088881145,622.3145946765437,135.62513360423816,115.05579051454264,407.9739635029822,552.3405526860979,7.236476248280938,485.62163635120976,440.321371728415,390.1050234550751,587.9472010309246,585.4277856037119,491.0233194292494,844.3017252292509,389.62464939191995,59.78156963745683,-126.85925957293898,430.13761109858916,210.3629742751522,444.9611755631817,894.5492976481531,371.040815655044,739.5352132670913,274.2142401644535,-80.88302452053627,-50.97146159118643,447.4655030528164,549.5628577999498,103.8562301168078,330.95215658179785,570.1521526753382,239.46029237725253,-4.941807561304945,345.4120706669676,137.24904172639324,833.0761307268987,78.45705771884707,266.4645306865025,480.34158447929383,579.6050809595764,87.08413340739443,395.3423867722565,481.7750116821443,-263.5779673376319,95.67404146732989,398.66504374088356,767.7008000452663,376.67836569814824,629.2908076409974,516.528800695505,227.81833365233834,12.115735299641557,-605.2452447593915,49.923381220928604,375.63137320138605,286.3755024554555,309.3161522676923,579.3546551720858,-94.62729936564814,327.0140691158977,428.4913550062565,69.51989540494023,110.85414258324494,361.703397845399,533.4793053698827,728.5195050434542,578.3956615888345,502.75524847952323,110.78890204873547,264.4850698920546,420.9904989699566,-320.95394452057957,282.3209565098068,410.71786370564513,293.8474524504972,739.7754388535292,503.96325006222753,-92.96780829704456,384.9850116380303,356.2954167391352,-262.00182250223236,265.12748893552765,476.8417467439871,451.86963763192995,329.39461263906827,243.77160336147296,-474.0791284616611,198.2738427771502,-335.67356356985823,815.4536286100614,529.156476727665,85.05345743842796,604.2442214217314,585.9735956904616,221.1525578065184,722.1658886285774,-121.9717125392281,102.07662265617398,-11.909576345237511,729.3843152178349,282.4013628764152,670.0450781213539,630.5919770866833,829.943283043031,546.9799965634728,857.9484845801409,840.9020155349596,473.0282848164982,285.6962167917754,859.679744162072,308.1534180089151,757.2943487513451,402.62016587032497,768.1495064356901,396.9915256179807,-340.5049878750902,104.13625358607119,802.2511315083062,1533.650354885722,1100.3370620527546,898.9246733224177,1600.3338634579634,387.286057937695,183.5511347500843,211.6172070131368,523.8195992697216,231.5965132457006,679.5065380721791,349.55386083917824,299.1780190605897,416.6460108619516,414.69077815305246,89.83301684096071,568.8434283829873,446.686091651887,-53.60177348884788,307.43882359599183,835.5654540576437,318.15220494476694,430.2273713795647,736.4951382479552,-121.59209637886502,-356.1212359938148,29.9488115305177,1107.241674742843,629.9169391736024,513.2002624521982,902.20000521073,315.5682420303853,1333.7547688297163,962.7370737072117,52.714377126247534,873.9521386586229,-50.98883377717988,-11.684671721597326,827.0030351172531,605.1726600564382,-388.80980230092473,447.21325551245826,1020.824434250278,442.28376798776344,393.65180425869414,523.1271700794105,103.35345482147417,868.7491521984251,1422.6862431898262,135.35423917435298,208.7408952384731,342.3043350100408,553.5421543920631,768.903857562946,686.2211482525571,406.89244369165596,965.1005663803473,386.0042899645101,-119.95782652813688,438.21585706498735,295.29593080402236,301.7880155918172,459.80307698738943,637.8163332455708,733.1165796538729,428.9850185510698,598.8830003953582,-263.27570751563263,104.16921102200267,364.09987989073164,229.5243708433228,499.6983207442628,318.5339965719638,535.1745927141751,819.975931671822,542.4101373983476,1390.4684480876872,22.05939122664608,166.72470505897635,599.3131140778187,519.3950117473277,1352.8921144398093,615.5745743026354,288.2537616424608,823.1522737628828,455.14956648313586,597.3156902185012,247.43740521713121,446.4917626693321,358.77925404921695,424.4375979878606,630.5666318351457,60.5481988565767,432.3488684355122,947.5440508470326,594.5109112020467,881.3377100828764,1376.1248851940222,732.5698287788944,870.5786342440308,687.0690487892883,121.9643390456965,154.42975791458335,386.98367356747826,595.8301076597631,-645.7911045102688,114.27252290882717,959.8096259536283,875.4920175008825,869.3630642405831,488.313392557313,618.5861415182509,325.4170258407422,471.37658445691517,479.52691991131894,307.3759929660457,127.5312641159949,557.7117620780901,549.8723872809645,862.8571926113137,-629.228246178579,525.3870508093922,95.05975259110917,46.03254276344682,341.98069077310396,-554.09224704317,417.94482150073657,373.299919191424,98.97628065272815,255.01016453458718,451.14768412656565,301.6980018601617,420.7515975276106,312.14975348011217,-395.656344423022,330.93698475575184,638.2153603662118,-22.293063233540774,395.361331029976,409.3288151302365,240.24477748913233,8.8505667108481,325.32265949489636,166.14464040832596,441.7477181389715,309.0756309387319,60.32550828883609,-480.89085087254597,435.0253604727724,-135.18650985332823,267.4744419099689,497.671293937859,525.5096717865121,273.0419168870652,210.3346007032107,441.5866875438917,335.4619989558473,-24.69388594094344,138.6209075715178,-190.22235301450442,421.6435032565825,399.76019541524096,-87.15811136251654,330.1711515529364,412.14922302355313,573.3821652309601,76.17702843676588,284.7071573279218,641.1545611112782,-104.71634223782117,506.1196851581287,402.6579048233738,408.2409409330721,228.25386404173577,162.58029714644186,219.13431225254968,56.50940953129081,121.94544956702043,93.80129387356934,295.12483585640126,630.4768037226644,480.4561148599247,382.576124944671,381.202951214181,207.26328525118703,43.20781977404505,187.79505137153666,170.37756351074873,-224.47046499893744,234.8266967692843,565.0942133291376,-22.75684366332704,7.649158853880312,323.2673225281155,247.51287423759243,356.83477755951776,1229.6871776957842,328.97367432761655,548.569916299575,165.63592456303488,-252.15261068044563,429.2787195109759,401.97495544162973,-351.41262779638913,269.1615732636439,417.4611410821268,8.939933832310308,289.91599719375745,57.05689961720819,-93.47216483543836,385.2875587868709,307.0351967800379,862.6390841692688,222.93226313888542,448.268514632237,337.48573812023625,-30.056540587312586,513.1274449816818,255.91217516712538,300.7105335975239,152.82225512390647,-127.21054520992945,681.0513566668243,-13.051094514715112,307.9954550768592,207.30182078248322,514.6249645498715,405.5715366206802,-434.0539366738166,541.5117372192601,308.3929305557436,146.53924756365973,294.40037374901635,350.64387200021525,174.21336740310915,286.60758882136633,381.5722964182971,139.7766308862717,708.7958459224369,343.24705496410434,229.2697270070293,87.52811142223698,421.2551782614663,48.68595430672658,261.9293543597994,273.11678414639294,273.8462821625875,196.29582766519675,476.39800628634003,683.2433830172992,787.3910816026457,401.57321033119723,407.1163378762418,0.8286598617937952,-107.98618905194488,473.9325138331416,-206.77494039770065,166.34492267095496,593.0690962395836,329.8936659990671,786.588924226434,923.6516749950569,92.40725038343884,-111.50231310137598,183.25154035100064,96.23456248445508,4.2110016396687175,-37.68473226785961,289.6762717394909,538.1530013567265,181.40484229882452,-435.11276836107487,330.03166470278524,-113.77300503317414,84.26308443295838,-58.21706919490186,75.77615684520671,522.0203750028378,396.5691605250262,319.9637087303472,454.7559109598652,265.16680725305196,290.1242621865138,207.15625334476798,895.100494339898,-61.63887922696409,264.2413436141802,284.9368137423722,69.84650812382569,-46.09514845229456,99.00454806000256,278.408332060066,71.44139251071138,452.8489817974059,585.0961767479289,-58.736450585326565,372.1715225669241,106.38936960094152,370.24175053362785,240.37040172826136,-344.5819023693304,197.58157764478182,308.7511495955119,483.6654000025801,239.20879306283663,376.04167956381986,713.8020543358974,280.23173327517185,-44.9212470175796,-82.39131586097642,386.28542547883217,-295.7851210258894,163.50859784305342,429.15271349211935,125.89384813001448,136.53196402753827,222.42999506093275,133.14561613514257,-312.72535576639285,455.4761614948937,-662.8272189603744,-32.946163987931556,-47.83003754464233,246.5650806604899,392.0920864236904,319.38477193223076,179.8234588033888,383.561771445937,161.99505167667303,284.9155768706377,351.0857476647744,261.8955957154379,876.1837195490933,423.5456060471623,788.1988225103993,323.85836886728913,40.11781794620145,20.701153734170813,-130.52776146348472,167.14444409721256,363.9466531208284,508.3724364425348,-397.36464778910664,53.40196088106261,-273.4253204248851,234.77486013679982,85.39903228664564,83.60633836150224,255.4801194650235,399.9084250478858,891.7565169522238,281.6600009066477,263.26546361652265,-35.92721220709749,-143.6434316170526,337.6960164950176,469.68863718653176,-69.17446752712792,290.6875703565919,267.97341714545803,-106.15709397022447,644.2173728952639,204.0871480311009,285.84584335375337,-192.7026208897749,334.10388390027936,480.17394453386225,472.68235359300445,235.36532180803138,20.5472416733652,-294.6878265810148,107.54624445507297,27.762413476867174,720.4358096425416,257.454314607135,-86.67391920733387,223.46112506567974,417.96472755794355,843.1829220308091,-247.1776850261575,156.42603908037216,479.6528220218842,235.91802239654203,353.3093915844966,243.07467681122205,416.7748039475719,411.72546095111784,109.77624851954731,-342.74664792806726,352.6649176692086,227.35352480861073,18.363538961206004,275.119827853799,505.55141874936874,229.4259564585659,-757.9961303622547,37.44018200910024,409.43209379066695,67.58189997985072,324.84603569772617,318.6848268903733,313.8534430178137,243.74683651405928,-152.2406921726737,210.7217468077453,205.11294870255605,215.25601146907854,-564.2529760326427,168.8676873958737,435.4571823268375,406.8605911755496,572.8842668837923,126.20580604160337,255.97916973539128,-56.62633061597419,401.36541670672995,106.29947820868355,161.10541653114637,548.825112857958,-281.1389220151018,-42.37292318067467,456.8903215825582,-560.9011056702738,388.62050321984316,5.7100278554235935,240.33770316023856,605.5616834516591,378.01233180686035,625.0730620461595,612.8466983428938,230.12745563426498,777.3579904538603,467.03849529679223,204.73360552049454,174.5750693024851,491.5630687356259,136.54587328538489,560.55280063047,862.6003102262769,217.72908720962965,-313.2774340611808,448.27803769316046,580.6276285263734,283.5219715080406,287.7872045170341,382.759901141878,386.37264511772935,696.8448098838294,107.18469503446457,640.5570148616345,453.1318776400667,-545.1969313654582,-82.63527727926727,801.8469571078258,509.99536412821226,355.6649388752093,412.1262660516137,527.7130716718801,410.0597396890562,189.98768705756137,346.01876567318806,527.1753286655451,242.70999900625557,335.8053142115247,600.607203729112,354.9128663565201,744.821434794689,351.1750486309257,456.07644435174336,477.0443155709102,300.01682920070544,-108.72371851418384,860.6440776933562,800.71835119357,637.4744089480084,706.0159977367426,498.4296430582709,202.34892293171643,479.8682384922161,253.36715598297835,644.6057751866397,839.0867448429148,414.27210665698215,373.82929827010287,-1.3082577754034759,455.25349600158563,575.2731134283648,134.87185984548753,496.8013943864049,372.41693078350676,27.74384135594808,837.6660882561423,551.8302405612548,-261.13503373920804,656.4988177373878,271.05887481110886,224.46090532687202,489.79687919637337,624.0366652389345,311.65260751741806,974.624378061238,444.74064276459853,130.75665282538242,574.7559957777586,236.93358413040127,317.41549534642184,661.4081234932597,527.0023047505231,329.9445092824485,603.6239740679667,571.9225205813897,10.281260076776126,505.8156923124519,253.48386540375952,525.6727633675657,81.74278484498578,497.8243742793462,516.8299807969532,463.3323064288414,279.2356365842563,-8.570210396283384,-14.729014748269869,99.1514591698492,306.64527650838903,388.57458916971893,317.24613282905216,456.42312288330845,478.20467212798616,659.2950110786554,714.139110342584,3.0077216491929377,334.1686771434068,473.55871025091545,524.978225513482,400.5074278889887,579.3823704311906,89.51316843427384,301.2071435351982,623.2024586754404,645.8388240729014,419.57912036952723,427.4265567311433,271.0208107740004,620.5344681290597,719.4253611151979,610.0950900491116,182.28114049806203,425.31356709330373,336.8142598348196,538.714862767891,872.6910125168889,454.0264528619687,799.0729795773005,724.9781786542694,443.3424377448155,667.6416173087002,565.4749545765343,474.99412622340884,-128.96092217472307,16.669927894475887,570.9905082984268,688.8702829867764,420.67838295281877,842.9713802192603,376.6392067639617,195.80177137593685,436.4029583984518,546.9476375993447,-61.19339606915079,412.1585738232151,477.4936112148899,477.4526573246342,884.0039457511266,-606.7159717130666,445.02795157918854,13.448889086753045,9.289447386838471,1038.8515149476466,398.2606725473681,831.223027990211,615.9914654007948,203.545484192509,769.1325559422263,778.0685730438329,272.0257994318062,741.7827303807408,363.14027510473574,434.79122515355226,789.4285046627786,1010.2593110918211,595.2045915021242,473.809165855094,485.5091790587626,800.6304103041055,648.0102819483893,610.3919029917586,431.8442880561812,474.2059270585293,793.8296205510484,661.2993521067577,-121.9137952292916,533.6195283319224,9.576048324406042,633.1708808498788,618.3401311745904,304.7681271725265,488.33848286755955,978.166875848846,654.1254332388822,667.8708801499168,139.23894727662574,333.83906583253685,1075.4837201863197,337.8395238270896,507.21470798053446,18.85104150125058,531.7181525567543,987.4582075897438,335.1039503372276,-195.63538746978523,277.7456342371535,951.8653766644397,-199.91916170126498,444.601218366865,944.4841435721563,131.66812657632104,443.38883534502577,468.88244147227573,349.4660292215548,178.721648655826,481.3451593276847,1166.7805642565531,732.7434192529437,551.7410572413005,555.8374812906725,101.56628486001433,467.2496517975724,415.34530055524533,-124.95285924869421,651.3411768884632,683.0301224486045,-76.7707509283747,867.0205780128206,743.3868181093002,344.6847561874846,586.2268880250768,686.0649850495919,255.1363493127555,870.2462025247761,675.0143506523543,433.85248330330575,709.3558093524989,528.8214405441394,380.54740593825335,239.84562734393594,555.5887946581639,-34.35964676745899,872.7792123723896,708.7663401494154,640.6932799243294,724.5132185133467,506.05413535556664,-120.1054123102335,232.66834741608795,706.7636724843286,892.1484359290367,-22.835571093416046,916.0238793686725,798.8873151385466,280.0897375697768,94.29578853273732,211.2920818020952,309.8543920460999,379.34574852627435,-70.65698832453783,251.61985753347594,621.6082177724446,1054.7791184374134,461.2234935445878,776.1910871063775,696.7783026249265,-250.68423418738567,500.79942212835374,511.0173036977163,683.9939355564446,483.9124736359129,655.6160305343911,610.1905536833659,441.4434504363381,252.15131447506417,10.58567428081221,404.69161814846154,644.607697858979,278.30258686647073,299.5709794884179,791.5905064324972,342.0982439817597,586.617127710107,597.8606217462407,782.0818746810464,110.01809524254328,661.2284733719046,1102.4380055308607,683.3356754346394,526.4649715870265,486.51183224245005,-78.29253135639087,244.15011956863225,580.3946039209217,-375.2083588548752,160.85687560360725,714.3257259339707,596.0149354208762,1189.0566294860366,857.3139297020667,381.61134530757226,451.8942952781939,527.3997059966948,153.01869137442068,367.5477043903139,516.98912896981,774.1947019898131,409.56007900625815,612.0844727529656,-600.544498478883,-1.8651636080594978,-170.46503350791062,136.00977309658842,517.1628477443315,257.04096478681015,239.27674315770824,431.088124280721,94.45799493791658,527.0028048858243,510.69128284163526,265.580093538346,360.3812116129117,241.371381071353,141.10270365595193,483.61132777278146,386.82444335488367,73.36683065951823,314.79096546712225,178.7575657757773,226.30409168308975,30.998019321622643,-93.93297191968077,738.4597298546381,350.06492962385323,673.1524440364927,608.9979529631506,-328.41838312076527,312.3110655428488,44.30767694211229,493.30128787528525,349.11016177492763,127.23006860003531,361.83698528599683,777.6684993223296,511.59673422457183,174.6316268273065,164.60932671849037,428.2672606907605,240.69501941661304,540.6645488812895,532.9364419448841,273.9114120502927,406.14092100095513,658.0128382095321,163.97664555970752,762.2689342782875,219.3076753207343,25.047666144497068,-555.2007385234339,430.2034329984691,496.12294833548077,153.76583563753266,412.99932372994937,387.0468377669333,241.43758799829737,216.94114187347097,274.6711352043232,-94.09068975980982,247.68241013494372,-14.986216364204079,250.92547446071828,418.29485622961886,503.7971314604648,229.1013444643378,54.17328907972478,1097.541224004477,359.71273470989775,-226.23852183883807,445.33131908819826,660.5026880049633,604.8649172777787,471.6804480636,315.25718923927053,542.199948047227,519.1189769848306,-41.83036470426258,515.9809949011969,620.4144508754282,467.0124943723663,139.2524662253694,254.47510024666246,197.78020993567966,52.277223869317844,403.11091048426107,416.91290661763674,790.6573289665744,465.6588487611831,328.25428547831575,-246.94808471686562,509.7044400180508,230.2314500228602,-253.61775620076307,71.34653972689713,624.6337677721164,560.2259370744355,220.49579850365723,294.74899194691386,190.78574565584594,-295.1753791121911,659.3564480632898,108.26919080734137,438.42731010303936,405.0740420196327,418.0656569134265,482.0281633878741,277.20701513141546,836.4834850545103,-316.6012524288102,-116.19231851392749,267.68846341293363,363.5248688957288,448.9550644344462,319.81293295884706,396.54388342814957,307.31086715406906,232.35428222920677,-15.205356265308378,5.973376179243963,1172.5436721909336,130.7819323104955,627.5687932116506,591.7334583351025,231.73962254992077,125.35752766329388,296.24015247621793,225.8787070933787,266.511330556819,600.040347044244,589.1235402701836,275.14411429424797,505.29890407099487,165.13938834794527,-99.33241362437968,150.97297985161003,399.14749002187546,-967.3420811430274,62.43195098567856,520.8725766608245,372.62394727207305,225.2143593427781,387.26344434041545,221.56326400243566,792.0390337187899,427.8633120259406,298.16769674503274,630.7636973675337,350.88835497745157,384.65485519997867,291.415908265418,424.98208218378215,-867.3275749438504,232.2346461623718,88.80795187243338,589.4692523257085,424.3183704123356,313.4721200347704,625.4095247590745,427.8581168533689,236.87871622988834,341.8843312999658,412.0836707255601,415.4109100546656,243.4299999366406,309.9963463111236,129.98984129473283,375.37600041939936,520.7020043319601,5.927296197031304,28.838418490020498,231.17628237879367,138.27768993309195,286.4029903014046,122.20874603913683,574.9571571122754,369.11476835336094,683.2029446328397,594.2136836075562,172.4030939596444,474.0198986136915,-346.6844281454965,167.46651395531387,429.603251980396,677.6582427738188,281.51797890568616,556.8783147202449,664.2195720336499,343.99500355287057,-25.222508151750826,211.29672361715228,388.42163852352616,471.4262693717286,152.00239059364483,-563.3910181719348,240.01106830799208,598.9989494838609,567.7866010035159,259.4427560008449,36.74333578564442,164.8110124676181,79.74258979555347,269.3542906300989,345.4480996659294,219.2418466370551,-106.23871206305952,292.77138810896633,530.4270519190551,130.69083079734997,282.0621581414951,107.47276561002617,629.0328275421947,249.10425032820604,-117.65129879148745,222.39762387319414,173.1136086918432,265.25033028484495,354.4053122098056,556.9965259354148,-485.02299550214576,-90.94154545502397,73.29457266970714,401.61251367638914,118.91331503250888,135.45244598636384,217.23165665623426,459.4075654616004,414.7657206840329,555.2442403619464,493.5158382506082,399.4528178169222,320.91651167773995,343.780130204404,608.7890046817531,627.489299790769,116.46404531841232,227.2409511832242,367.2242743691687,138.79299216461226,544.4439824327555,183.16743329507025,-122.66100612797845,600.9219646927122,316.0992638575917,322.0056608945317,269.067461694249,-84.77225091648478,71.80981668295016,299.94292956342707,258.99439250266227,275.28220621390267,612.5890235276019,87.4773449134619,185.23388601109693,447.83307580816336,381.92694684772556,361.8972172186788,588.2093210562738,250.8651284434129,202.85020473683113,116.40419288875634,366.9603332998085,531.8987062683477,645.8510346212862,336.48609469399014,429.7781892749717,367.45491943421956,524.2862007582787,469.81892810064375,61.470531483506,55.62354987916826,542.6644648031615,57.69197335140762,56.621098473589385,445.31221234501805,472.9205585309258,-176.49005026860826,539.7273470139378,380.7781083999049,396.4550057431027,665.8077289081996,382.0202286251651,443.4724538039678,440.28408690648286,-399.18368547147213,136.02537681302337,336.32489636411435,401.737805349451,-162.3532736767493,-44.4555286818049,459.28805664346004,420.2567726725376,-453.77771065817797,426.8764911925917,602.0214295471222,111.16939318685407,169.12983712545744,115.55741679018386,267.3646849160701,631.4550465556922,539.8283054118879,285.6639138768998,316.53560576809963,-948.4666987403834,621.8431264315482,-85.2499912360037,38.45931012239719,307.58268561553217,113.2208361835672,335.18723474025904,234.388748704288,288.4827875906521,398.9780102454936,619.7927833293357,243.92114344959788,337.9482216710329,334.40534370631184,54.89600040409216,132.37077977137423,258.3870682392953,171.13345371535658,199.50309105718665,305.09018926917736,169.7839770643828,-518.7413942419474,135.9287915260891,-58.598285094426416,366.09613688274686,270.63037097815186,365.87217154430607,389.20356323393224,128.49472094815349,-149.64619092709736,108.61979555907375,418.2293337265648,123.09341898798583,841.765762965887,253.1325789933337,268.70196598588586,698.914526714864,55.513394828238646,351.94949929328624,301.7537930611704,273.5579296895541,195.73598937485934,287.8309619296699,338.9616460751285,427.1472549233288,264.1830545524623,530.2325892229433,267.0664710839983,289.6562418322964,172.64328816267718,266.793954875252,397.91401469227515,-319.78235425398276,821.1017215695989,217.8839881068886,171.22936816038083,461.4641451419029,-3.359999653875319,160.1609562294974,309.777754805687,212.08902749828007,20.210737131988168,262.43675464287696,-54.872030911464755,50.36383825238548,-287.9269877546087,370.6825510088212,252.25664566570123,-60.33171330977389,319.1606234214801,146.2152929068199,56.35454861911667,333.35630063694856,312.7255999708265,87.7543796181823,273.36095453613,206.2865716789897,261.5371978774602,-30.151209435283086,249.47278153511354,214.3196502293153,226.7768518495806,129.181606518148,197.58922712874568,447.34918302056263,402.81680232837704,441.4110178565254,360.93825268055286,254.98235854434856,134.18368412628445,74.66879665455293,108.9022690730967,93.42906012823299,155.49191279126825,256.76808344123907,289.0023823869112,-59.91136598499632,230.2366665720097,28.906713850674507,300.4441772036063,264.76962533513,-32.182942251494204,-31.002163054411152,48.38240234878556,390.8340862175285,130.27175205633722,300.95197821551676,64.27716357179864,-63.9811451915781,556.7105594650549,161.85027414009403,291.5251893467708,246.1369788718901,406.5007341945268,389.7087969654775,275.65451755153845,739.4786706014079,538.385354612771,-204.19915423375485,456.6397026529228,146.55747115940332,282.8049869301367,310.93324975049245,242.2278432731669,525.248570226798,439.4469086727079,141.16262557181363,381.7682037606673,400.38368196994577,316.4541716478338,235.66267381263592,308.2626054297369,14.781253440243793,216.4022640469082,141.24052710627262,288.8929388036007,-151.98129630179878,454.3259323221627,275.79155680280235,248.965748598138,440.7224977736565,1164.5424210247775,-11.73084233610235,217.19701087242774,187.81480181695198,102.76823398949546,210.36810732975061,24.82389296365828,673.2874325660808,310.2536279023807,320.24813231259503,-299.4285057454655,816.7915756225008,-312.1088430842932,156.35355199209573,72.89155661176824,14.874884648729115,383.2887873495521,441.37894320613105,52.54379236479215,526.3872890129506,404.27633080063225,-493.0761818167377,-21.229630195695282,79.41987705581305,-12.76299254257312,275.0377376153135,110.38209586775855,148.26332654601654,-152.2292968489695,-9.682285880347948,247.09616742464456,-174.54827438283615,300.2430362719999,19.065918232053413,430.29074705793846,616.7237966425414,106.92205160959165,410.3317384753211,419.64303557279754,-225.52034084893552,594.1615365891961,540.835095363058,399.02068001520684,732.2927609259237,-538.0147321031106,385.53877979275086,488.3372267889935,263.7177960761124,577.3759610263501,-342.5542819664865,215.2137255305224,246.18852205065645,545.6363829097062,588.4389814084475,371.6203046722272,273.8281194895517,589.6818985650716,376.58922244635806,802.760891305803,-91.68980877112023,648.1463092753686,327.748258065387,-136.67642695795683,884.5306786561559,445.1848013496726,74.71048119746538,560.2841180834833,-112.02818774590129,88.66103029246091,92.58242208645494,566.6585310950852,334.3211640339918,154.98334985566675,583.8796263664377,183.1479648734754,442.89810429610765,463.75686346101503,421.64903474074066,135.9257447511368,482.7557664953118,104.33412222126499,286.7944526561946,-440.7540509923231,155.20717182372638,134.798787591692,327.045134419572,401.50112172176546,282.20164611783764,924.8285901774169,194.64554158341224,-174.04862394887917,290.47322941585014,104.9294261122635,301.6185564400238,825.7787722912257,394.89703576705625,-14.240194288028114,194.64670092631056,478.662828474711,-283.77232393796567,589.5091272393661,225.77282780757218,711.5159625841994,360.94780358284265,542.277174496749,629.5689278419046,168.65067624251745,58.596409949542554,-25.140670494338416,-225.4869191260091,-154.80820618972103,502.95172705023117,506.7164629631574,147.45601580838675,250.50809697796987,410.75535950391554,361.08147728392964,494.6116951749107,229.01044235274912,104.12425030381084,287.27816484733603,217.786160087712,508.51542523669013,428.0938418419561,502.3761038261113,689.1015831896248,747.8068519080554,-57.6700810496026,224.46156518422703,92.2664088039473,176.18944124788416,870.6746988516456,568.9955614274191,129.33720118072995,-78.74606316828059,95.10669758251989,526.8600457140353,-64.65214978868666,310.19164714947465,9.878373231818912,691.6351463077881,583.7318585934049,199.3264872130088,104.79883237874574,272.7768814389548,645.8410933913154,-2.4491305414103097,313.6219891733495,159.46891562731392,309.4501374384398,439.8858475039585,708.766493733685,86.26503830146352,46.24252021686242,179.21777354687208,336.9469670338924,-175.9684280651599,-1132.683496314692,482.7749042558841,476.17456248526094,180.41088032735698,-735.9274238218221,186.65980819381303,-90.70741574541815,-416.63737079597956,878.8859984859968,581.3143328830876,472.7498289992804,545.351916311076,19.32916047422777,774.1238545707879,408.1217406713129,123.03697808460609,702.2297415733301,477.78349178235135,-119.51936792803247,709.2978817205951,539.5835372801747,64.25876949891688,412.5697695309518,461.78376061698987,260.1140423676677,38.42141406021988,1101.2198051006062,446.856217434062,376.7200874916228,698.8226616105612,634.3151754580734,-82.46005092885778,592.1084962573902,-695.8514165824649,373.82968411744713,575.242785342897,443.47784076526494,558.7675071458216,926.428473599425,642.4284704805299,297.1075979808361,419.629805501992,285.3577962285683,570.0498997036043,484.2907622729288,450.59156680357023,506.10487323980635,509.7126939143579,716.8266145270624,117.75789630095724,381.39780896562905,675.7770718102496,977.7609365354991,-394.57838956839254,954.7857867624042,643.3729069287754,271.05971747233554,1065.1213937313057,269.11116697923495,363.63198250264304,-69.23206502261175,87.87016534022993,291.85317565793974,667.9469192759977,-84.42979812436667,559.5860473859321,417.42307402496175,369.2838445884705,566.1216993257815,661.8513514542369,656.7184780190929,128.95920090811052,-278.74678209706906,550.3576641918778,240.79864683043218,274.8862203893485,348.5214451723639,326.36604580443856,91.36445307744259,386.2790185820282,-13.085053466822723,266.46516040200606,1134.2435305594079,838.2092384764481,-31.459728738065035,651.026865132642,246.52815124282856,53.69433322166136,609.5173146742354,605.003903526562,344.74059752658246,881.2328685897363,491.31849901725184,-400.7407031719678,673.7541982187495,398.5511842699866,322.55215559597616,-43.344560241283226,477.154230122295,532.4920842898865,198.43958942070356,111.92697928659693,195.2418087160812,-199.50192871081484,368.8646945398087,161.77390552124547,735.3944918309535,357.2897948263345,535.7232039772846,727.7538275429058,787.8884462186181,1173.6004168674447,152.8745826682356,211.94448039569184,490.67497560145887,202.23117077751897,-112.97905025846802,46.56454275339248,543.5321969416475,539.3831913427182,723.4814565672688,282.6331558406603,-175.88078658653578,607.415208820597,436.64426221958456,734.8814593034277,783.0474348177405,752.7505394502929,389.34221701682753,421.4766055170528,511.5696044991206,185.80279177723978,686.602091842569,750.3063195021414,1459.1102078250094,515.3351175898415,584.4213578037993,636.2218237832303,-255.29438067661144,395.4335084356846,-567.8492433809544,375.41089749321384,744.6217864591488,1026.7814494031888,465.8052967206792,678.0396207779223,414.90159668519885,286.57357567234266,298.0269501056312,-60.89409754132996,439.32942046168966,994.9073428606281,717.3122995208886,476.0426579643301,891.7941798238625,-654.9969341785775,235.5094605731953,-79.99310810855098,55.00403832220382,591.0253415644613,415.53403382515563,372.3663315616838,445.4858845850721,320.5973654256954,503.1001444059993,-44.44803364612595,399.40022798133225,533.8856785037377,327.35043001888755,154.9805677715999,657.2262069326783,727.4701025090875,-150.65463418643614,195.74490242854947,276.2852537856857,-3.46713642816122,266.4820508827951,138.07735529235936,760.2794673845023,281.51950995849523,407.81655899425016,226.538040779856,22.456495497177063,331.61718333002494,-196.28054984870295,358.96444354817277,369.1793036945324,538.5283522073074,441.6640261294008,378.9413456896739,726.2839848521697,272.1637430224341,109.3515943733191,37.92281662051096,717.1685311717994,309.67056187003845,301.42777948246777,287.26155173399076,427.6357614951384,690.7398719129415,476.3519376841456,122.69386024359281,237.1468179496285,384.7505616975158,-313.9148232833354,258.3212290524957,29.7657813832736,313.26781644429576,269.87848434022527,437.0461663419323,362.2238860586493,530.3927913612715,296.329245424348,582.5085843469259,576.218215623431,258.1499221008328,362.5079025016722,517.2383660308848,1027.5362578319705,20.327636924614563,-269.8936976201394,417.06021515441614,-175.0326113275498,-203.67149552063702,499.7482666246625,410.74093896718375,-429.11325215685684,447.7368025926387,723.2001594184991,312.01435255154985,406.60242658065164,843.7119874647145,303.52179274015305,780.5154185929764,724.1582365320576,282.1529534850037,695.0655970560117,127.12783343048517,-208.8528580727464,299.675986993173,394.58481571720944,15.99716017434604,438.5986905920869,319.7257465761969,-133.95536204810023,674.7372228965022,126.08246034879105,-12.46558785149267,106.30896725499592,583.7933002029474,438.6630404916001,136.45701847157278,229.7685147376294,391.53390718588156,-93.35965767730322,101.73429343146083,194.81122099803738,273.9563850569111,71.7320184647973,533.8250450667286,452.91772027489117,296.475460123545,262.08356687227916,-232.94654606039413,216.89380224139913,367.06991305344576,353.892489764737,407.38413709601167,289.96854853879086,345.0608320579734,775.5438846007219,268.871694725552,179.89639422432245,464.6384940258201,212.99897419653396,419.41994170540505,281.7190172428068,543.5990777617417,245.80001481239324,-195.87499347781616,43.10854086287214,274.9590475080773,142.57325534403728,960.8625480787656,322.4746051144169,513.0330325914464,456.36769236504693,162.8035705657423,-25.68296587465085,185.81349674257638,481.0331498637082,-296.3965707354898,63.398736907934676,587.0286467649771,339.5428914974786,993.131522338563,495.95306350226616,413.7492294281092,-45.86405665205262,266.4450813910316,36.27553046117741,39.331307242915514,15.893344087431618,519.5459490238857,543.8566745332321,304.88537213159793,-429.58155852073116,516.7142493202335,-563.6537513865799,106.41305598452493,238.2105143626603,343.172930693537,368.9374227139008,370.3290740442067,132.02238553342437,485.7259611377236,444.67022339564755,423.5574269240431,351.12418853195646,501.0293007395379,232.6157306196196,257.1834155641283,-248.18742262576924,-334.2958534805351,-198.3269852300386,159.04072965002942,468.69063109241284,272.216916829953,169.69307531328408,294.93311826108766,250.59805374543265,467.3406835873239,471.09138901496505,208.29900159909587,33.14955001609219,243.9931143012385,475.46850891909526,289.88979033933845,366.9838967093007,