encog,BasicNetwork,java,3.0.1,1,1331255949698
[BASIC]
[BASIC:PARAMS]
[BASIC:NETWORK]
beginTraining=0
connectionLimit=0
contextTargetOffset=0,0,0
contextTargetSize=0,0,0
endTraining=2
hasContext=f
inputCount=100
layerCounts=2,201,101
layerFeedCounts=1,200,100
layerContextCount=0,0,0
layerIndex=0,2,203
output=0,1,0,0,0,0,0,0,0,0,0,0,0,0,0,0,0,0,0,0,0,0,0,0,0,0,0,0,0,0,0,0,0,0,0,0,0,0,0,0,0,0,0,0,0,0,0,0,0,0,0,0,0,0,0,0,0,0,0,0,0,0,0,0,0,0,0,0,0,0,0,0,0,0,0,0,0,0,0,0,0,0,0,0,0,0,0,0,0,0,0,0,0,0,0,0,0,0,0,0,0,0,0,0,0,0,0,0,0,0,0,0,0,0,0,0,0,0,0,0,0,0,0,0,0,0,0,0,0,0,0,0,0,0,0,0,0,0,0,0,0,0,0,0,0,0,0,0,0,0,0,0,0,0,0,0,0,0,0,0,0,0,0,0,0,0,0,0,0,0,0,0,0,0,0,0,0,0,0,0,0,0,0,0,0,0,0,0,0,0,0,0,0,0,0,0,0,0,0,0,0,0,1,0,0,0,0,0,0,0,0,0,0,0,0,0,0,0,0,0,0,0,0,0,0,0,0,0,0,0,0,0,0,0,0,0,0,0,0,0,0,0,0,0,0,0,0,0,0,0,0,0,0,0,0,0,0,0,0,0,0,0,0,0,0,0,0,0,0,0,0,0,0,0,0,0,0,0,0,0,0,0,0,0,0,0,0,0,0,0,0,0,0,0,0,0,0,0,0,0,0,0,0,1
outputCount=1
weightIndex=0,201,20401
weights=0.14712854895815589,0.12652428426898146,0.05177185126082496,0.11063400951681272,0.12464368802734754,0.11402255401304263,0.14172586954143185,0.11350196714041917,0.07602811252751629,0.09344783563707064,0.09071752256282327,0.11138781555069426,0.06138861591330467,0.15067193160517403,0.07577395029858378,0.11653483954054908,0.08050225765935298,0.15564787550256357,0.07940641775006255,0.03685238439465047,0.11757358356671468,0.07473552640715606,0.09464527017654396,0.038094184214430865,0.10228448272670321,0.165497439779001,0.08184509631302084,0.11905116719439474,0.08219870797876183,0.10572006604162458,0.12685606416837106,0.09764976381161362,0.09755042660112,0.09271210914598006,0.06787467915049769,0.12489000388596247,0.09010295733977237,0.08801088477799084,0.07685303795121454,0.07694837598894388,0.17051122484292988,0.08364209693999783,0.14514333662871934,0.14086407181007782,0.11576535495398035,0.12452936285186944,0.1226729860242074,0.16399496149316808,0.0642784315633377,0.12571165885869878,0.09419924472357992,0.06267641015594352,0.10703672520684064,0.06045365482665497,0.13417050526775404,0.08198040553674843,0.0753088325340143,0.04811376082355,0.10405189434936647,0.09020076112587498,0.0645343103224803,0.10369764533932205,0.11978904744896463,0.05574207502282772,0.10166216013471371,0.11500993091009135,0.11330841696222722,0.10477522211229151,0.11848188988291652,0.17399636224525458,0.10357507578564625,0.14201442213035137,0.037022735353538644,0.13019835374889566,0.13634703300993917,0.1161974106360448,0.10077383956026913,0.1209070306996344,0.08722043290561128,0.06587241246422826,0.09172298441103509,0.18103905526747047,0.1769229293681621,0.08604349432271237,0.0865534727863828,0.10813301919731144,0.0954580227063571,0.12981968612604963,0.1512797742558807,0.09160329712831017,0.17959017158061993,0.14618675539580686,0.15388842635784514,0.10318982567409338,0.0720370595451878,0.11499254617841558,0.14383621190401275,0.06081968087133888,0.1045106479967977,0.12103065422926707,0.06894349773881567,0.05556057389319606,0.09034489378631104,0.06014484261632902,0.0634341553617496,0.053507307369375354,0.04700886670897415,0.12479984717074577,0.09960295277385679,0.07455505857610512,0.09621691356354671,0.08164747290557076,0.06854085169543706,0.08545254668572315,0.054312825629276903,0.046638331530551455,0.05583412388948088,0.09606066958741642,0.07941778051920723,0.12859845090731914,0.11009208970759164,0.12271744193199988,0.11511080404343954,0.009790687263400641,0.0978699694998621,0.08835571966885329,0.07472942505232233,0.09944855851721465,0.11912148045092111,0.11409689579305808,0.0767140466023177,0.09450622446920849,0.17372622763842174,0.12821965781908687,0.07820810497266975,0.031039020550605922,0.14474391797010586,0.15883165384498962,0.06382402835224135,0.061032944237238186,0.0986082673843273,0.1793716462826592,0.1113989989314708,0.12334267044686745,0.052151046619010225,0.11206388462897933,-0.02453757525320717,0.11081707208814916,0.1598198617305282,0.09038411111876808,0.08016148952923191,0.15052381701050213,0.15661072290289427,0.15745561784195122,0.05486947686156006,0.06046042987373033,0.07319713520558377,0.10341484458252899,0.1517892590012642,0.1665353723381219,0.13446629481043615,0.04361568614195731,0.10678321733816797,0.091981894426398,0.14194727392015805,0.07381952499210692,0.007778935338417642,0.022859458227049018,0.05390634463330894,0.0835439319586738,0.11284232742087687,-0.01812471176097373,0.09800468158661466,0.10261938954695182,0.07732890405668483,0.10576662868642127,0.06583694021132902,0.09885035339689735,0.11839358584150936,0.014995283778539412,0.08815779202285702,0.11055232067798404,-0.017676901015723043,0.18455665302444138,0.14027946797044494,0.13872034561440044,0.13825978297655095,0.11858876257637593,0.05177555995858086,0.13770187329109995,0.08189550314879465,0.13575957817180778,0.14204757742494234,0.13264330622482517,0.08872755598114508,0.054858709348216246,0.20298084533892943,0.0759695253430816,0.08111247376098529,0.12061729281574715,-1.410522560794993,73.75193382759228,66.97523009682179,-110.1449338926915,55.60846429567403,39.90057507145188,130.02702568175383,5.7788608320052095,0.5616513014982034,3.852098331580151,84.13664877671897,73.9937167519711,-342.1313616566594,-24.702502979075476,88.63030047160449,65.84924828925237,155.1768234600284,51.62777944760993,-12.348512071045114,-55.63992086071523,100.82829244210342,13.595288243402154,115.15167438755014,18.346285992960812,-12.985162412194185,81.25172049285528,99.60271009151158,-18.380203853461722,122.5882280315679,-36.4163570007473,66.35881947554437,117.95134569906986,65.25418264883797,18.251964845568278,99.70458725868889,111.54705897439842,-19.576496343949113,94.52901164619176,34.58819999788058,3.7883504070700154,138.12782888753915,-569.4460249931371,85.77320794122382,-14.979820386853754,-0.37302098063929967,55.67824873195054,62.631885714148915,104.51128891098726,81.21991334678646,25.489164042859908,-7.12461488263545,98.04819515106134,-45.69448603680055,104.65305428133398,128.73847561221157,93.19453527213774,63.42298937727671,46.103910404413476,43.347251160858676,14.858905074678928,75.150928810535,52.230602658562916,181.54085938710548,61.7196111134427,-37.96042828340807,7.229785273573818,78.90834457803805,49.93892379605544,43.95706437349649,85.12199110614787,92.26358273505282,7.420580792064619,79.47417711167273,-82.72387209770082,18.276786555305904,99.88178250431548,55.9831371896752,-12.641553551331471,104.7739021536464,8.761398776932689,-526.1567127409679,128.88891215989446,17.870207281279967,1.216552829991079,82.06747973034356,86.42138236263057,92.08128798544506,36.347915386102365,19.794365338104985,32.295587062973325,39.26070840889758,128.31212329792254,34.89271292264371,19.426506969578824,94.49336365451383,5.671990422586536,71.31694046754899,82.91481747287293,78.05169646100138,15.169504005599757,-248.51913370216835,-248.32748952874775,17.334478178493097,111.4156048151145,45.586917587154936,52.693825922186264,45.016450474764106,91.60922571821635,-15.487807118438317,40.24850478496358,81.55747227478861,-3.054870906798622,5.463226424442387,129.3379137746813,132.7634204572226,25.931879950779287,92.80007615359575,-11.331363112808935,84.07234149687015,42.337666779954624,22.931255950696656,39.60679702306156,-37.349051490315254,86.26542321005817,83.69285458883546,-68.56678335329111,6.392373584625437,74.51770057308441,63.11091303948517,88.18601267977955,100.16873909261835,108.8056466561186,-68.64340093426055,69.7586240610987,85.60924389023819,68.74369203929368,91.51308319854323,58.75128082323807,43.368903272937615,46.87736265674387,98.01807946313293,-42.84815873338952,-12.896299831819304,111.8708909149362,-40.735846871852914,63.509984288918105,43.389408943245314,27.086930352776232,16.800258971201295,112.13701962327627,-10.43752579932841,185.30271579559445,128.44814480520412,35.18799184441912,81.3020047519738,24.32163613073272,80.4969018649813,46.083546391349095,49.63603201057709,86.27871252251013,-10.90946980862479,152.253009899451,13.511190814376063,131.11026793023834,64.57277540598781,1.0854916838880493,91.84758345355753,-6.628207110454423,33.81686861720095,83.3316105536828,48.37158121395526,-75.75628778330794,42.328860265574576,33.690716986343205,-26.82233842249064,53.442608707045686,129.5253766724265,-4.764555705950094,-43.47332804104028,-87.49477070968737,78.46001447983132,6.612855704204143,135.3524868787947,11.109946226199373,-83.94290618788519,118.48408142192888,114.70966411925552,22.831215056271226,90.66743746417195,-58.59198283667777,85.03913165418535,73.86387495697724,109.76544206418868,10.614302323257823,6.949226890446309,97.71293229155472,-60.58418958387333,66.2244080858906,72.99232071994373,-13.57171610507647,42.97655942889718,168.4333517220521,-369.5841606135842,204.9225555556336,87.06443931873258,28.147258583214267,191.17238779632999,33.89096262602197,226.5672374778991,123.79716094852091,165.2720381477824,115.15356276682958,187.65994798769816,65.68196182460404,97.84709322604976,204.08789363536388,86.50081944390831,180.7809683738396,186.88454282254187,111.52015217469675,115.88686272443437,116.74494676242523,205.23190955034025,57.661366311978746,207.3447025697941,73.43343767024939,96.12530241147417,272.3807325023591,173.96099607072267,32.37606170016165,247.08194131983836,141.9100349120033,76.62390055078389,205.28404505137343,144.4757315368044,128.50436517254016,196.08531256257663,185.9588190775265,77.48337925378539,87.2093686792101,171.3185598332543,162.3569272058335,236.2056318130327,136.11129770280388,110.56440504630865,-37.82905575528515,237.79598333975338,75.73142476535568,145.23490607975822,171.11949269610471,170.27491741780037,55.535868519508654,126.38377035805136,197.28865569311293,41.14495387708068,167.8372150994845,102.68017398875959,146.67039636269084,103.60668349526095,187.85548261148415,47.389173732323236,66.08607252715095,110.68063670547444,106.64002628949454,138.25981063074107,132.57756705701988,127.29902336295444,144.99749139673207,219.15784835221518,87.79685743162656,197.0711407333861,211.0583236109955,77.18419850727975,120.8039395321699,199.3598910807964,143.3799298241004,45.7263345228697,249.89622291609828,130.98620053280726,57.9833878458601,85.72455520277283,198.83969268535563,83.98801085914312,161.4665588542886,176.62189406165274,58.500403551009576,156.616577582561,163.99820301778632,103.46946954336805,128.73334247639045,65.67497121590046,144.69663880171908,126.09471148876092,311.7355502171229,61.688420415138566,44.80688035286201,119.30118138019343,49.660453621204034,201.0625398447518,230.13125856852187,49.473764672659236,127.84471036271167,132.23245544193034,-332.0433895116262,166.73618353768288,53.57974640091841,94.98926455530123,181.61195604306698,-34.572254604920225,204.5936193181827,119.26194299945108,58.36702323617553,70.5506632399024,108.55936038212411,14.915690156568873,209.74660354455506,200.09445734010103,88.57986543824875,113.4165547944106,153.60095781394315,83.39507817667536,-34.28934376008378,163.32189051865186,116.64954545677986,49.54007438454307,159.01587388158728,31.090784629935737,-12.702192624461777,162.58371297719154,121.56710460099733,20.508744171239176,174.32877825952968,169.46161825944225,135.00548346175586,227.11243956569905,159.55098306699122,31.84919640124097,265.89653326603667,201.25449857346777,84.18929904698177,132.590002600217,199.56391279547412,90.77004537955226,183.19089423697417,256.7228848194574,103.1914319805818,-31.535911999575674,72.22436045365832,179.74746749053588,125.22735729788597,140.1484800117381,99.57122200662388,86.75945412481603,191.95377830033243,174.98888470128887,34.39664807217229,108.17254331320075,131.109246664583,180.07948049990185,72.57197095181606,149.1338706098663,32.044449639741494,84.6124180233202,103.85346293833503,-19.393641278122463,91.94600019152936,84.58086767913079,58.491902981775574,165.7699499728929,183.94999290712155,29.372920821227734,158.92173959865613,172.6341450471086,188.0549188789852,163.24129191599255,132.3571837071227,186.59057559477787,58.18540574455453,300.42663982716135,73.0273662875163,-3.8324514247128367,160.20240736860694,156.66000314619924,-20.468990159386593,192.70671381325562,123.82048084747858,45.03904350786654,132.45756607362674,57.50878363684532,115.96693157946775,58.72770743913122,-34.90076904189624,115.25402238018272,102.74147371579704,146.55895388935372,97.9408048505648,79.46198681223312,185.87614496186302,200.93281634879597,115.36319176671905,82.59199773418919,54.548658178852236,100.86917881265765,102.51970187533097,-261.6052265434095,-59.75080005475457,149.95293692076092,49.91794177827658,108.34545296246218,24.939271793614797,280.56359653864445,-1.9742932338547297,125.93030853585793,103.84496173836877,75.5530585553527,-38.536357010716536,49.00950615799513,34.37141718510476,-127.40676167443021,-9.09801613397221,28.288147291827954,138.97087442036235,-23.341599782457525,48.06126124683926,0.8169621922445423,-69.40675920340783,97.90497722647544,-18.364264713701665,49.58854853018678,21.986530464495956,82.53963957538289,-17.633059303247187,67.14354078910094,130.69567094594234,67.7769483427651,-18.202036287286933,8.66812671383241,114.78226329378923,70.16555583985125,54.46237697365205,3.225320415152135,51.87716317244206,8.537918288131664,-1.5246798118000306,62.22401435580722,68.27073977127665,54.64667117526926,-49.46012673962441,72.33393383173537,-63.62886362738706,28.643965189765908,46.9508563187896,83.60714188892217,14.80980348897585,95.97412052442463,35.81497815459185,-33.805384820427214,98.41580445658116,119.34552827157279,58.91664420641601,74.77042620143348,-1.8241909339633162,12.40730396333425,-22.67471266362917,32.658803819977855,35.13605877434064,122.27708827733008,29.316821101523946,-42.95206119533713,14.917238787228161,46.573100789601185,1.6581045619823027,10.588054661251237,93.82321621176249,5.859817917388848,41.27908034713856,2.737505267437598,308.963106497778,-28.983945398759204,655.6371220182635,55.35566694649236,514.8876816681952,133.37758528109464,125.00718448408085,19.966936444452962,112.63864257183538,-48.62077763306925,25.910719396394022,2.634670107274108,-224.47052874060276,59.80249181550569,-26.34535045498904,-4.6859547757663,527.3073149047722,48.14974733248263,252.6765377338967,58.34032891508885,109.8195002042109,40.242726059967374,-9.073569779619342,1.3610851439405427,59.10035745304179,17.511128954138552,-75.78846635336178,102.91351432034826,-319.25384743644906,102.08328943903801,72.03332339528063,-204.265817651911,281.8567227665006,-33.47077992066692,283.6404432424412,90.7943219577535,-83.56857638990031,181.96906330916718,141.47044263860232,55.97953470242487,342.70592379217163,166.12893972475916,131.58839295703112,179.74401206253296,162.47406589910898,135.66188080613995,103.45937631734427,116.52958951393326,63.144650153634025,114.43347889980197,258.24781404320464,18.584116115893785,-15.639650514932619,202.5115003657862,111.997623669336,2.3157357419400486,15.0543910544307,83.18117872686166,-110.77880662633171,156.35614884195195,145.3986717782603,39.762318497668936,130.6824385735757,43.742727386845836,-62.66223577161524,85.39707430062165,204.2993473301349,190.14427385535964,226.66625457076177,141.01310295972058,104.92930105305928,-28.639195059390463,140.34942539196058,136.91420075319547,121.2401583080521,173.10756859070847,132.00357590858962,114.617216209153,155.50302432123956,162.10154144790064,61.59700260291773,211.99845653353327,83.86503883653637,117.25476532443709,188.05566984931477,125.14752667718142,-9.664473455536946,101.06715530857389,-382.2105694809542,127.18904777881255,24.085152100128,-118.37420223831876,58.33822519857831,62.820752168810266,96.49951190348911,74.6703079758245,174.74700121490463,134.05152542879864,179.37333723055096,86.09317475747815,134.8919318930367,317.80248576613775,31.335267801640327,158.4932968736372,35.2129148421911,16.411725315804343,209.39853207536123,178.28320722646458,187.83927156481298,284.14982135551566,139.92313788644407,26.06383419691456,116.97591321265503,120.64446495699241,252.99701917302227,73.50096978797212,61.52678851213577,277.6333905995292,-75.67708082377428,187.2578520740075,166.23510552548132,-48.74898643460277,126.55655856814816,27.695087371150994,159.70432998600734,175.20200572187613,66.20087853190172,146.72780099517175,349.80140325154633,-230.70789021908354,66.9917174360914,56.02110625169424,67.14693250865506,106.36940034288078,-0.4649116224507367,147.84753496944504,96.4733542159565,100.04261804027885,158.34121521309726,154.01906958299415,43.13092051496796,203.30123105452608,93.00485207599436,66.19773066277904,162.10296811849196,140.40576259905393,173.05995202042942,14.351812229731326,116.67297912594242,102.53903084906261,23.05425912649399,264.8763174272577,85.53340133685037,40.36261284982988,107.04032355017631,136.36204860684867,-23.678786216704612,201.37728485794563,130.3360553411784,7.582000123031301,122.94340637534484,187.09942466783104,74.46299087944872,103.39671388179066,181.19318028909146,4.89846077283922,114.52031732775774,103.21678857400015,14.933070775424552,180.8971265312164,302.20071071662926,64.06252825308057,-49.87984380694538,180.13112956303115,126.93078224885778,35.06141538774281,109.59299401409422,92.47847628385307,43.207754795501835,144.95257052004777,150.37202512549263,5.931182215915898,167.3363371161496,32.0022657660915,160.5970096167154,108.44112933845746,112.86295965224377,148.48344605853217,70.5999420101676,149.00569502408175,69.3084624563742,191.68188408350179,151.11530297451284,69.60034638933877,106.4753487646879,149.13172198453142,61.736235616086326,164.2941561083869,188.0649866341499,68.65965531938691,56.2998703693639,183.71360842108598,100.6526866701393,7.6012421262973175,209.70536269539173,14.82212624662226,81.17825676306691,194.8454141594593,202.27175169127483,79.01708528778228,197.37715181323944,109.72265936441539,94.28456763242735,95.17479214660194,55.892288704140974,154.62282211609508,70.83674843199641,-3.3761385400226867,139.28444286000536,169.5844683260937,164.16782039938505,46.92379117932279,47.995738066889096,196.1489846642007,77.34122373981643,46.642788794337385,151.34782540006708,72.9887496299538,54.31319394842781,149.77089934987396,-388.1481177839912,-21.616833099905726,-52.14704669947548,65.77794749472476,177.4337441084469,-46.69867069630684,221.457032856513,-32.42614360419247,53.70159598933728,58.88157504408379,-51.10558609589023,151.56955985023632,-37.055721540999066,115.08215732321932,122.72792166394287,44.60130691585234,91.26128792659603,140.20136304845065,53.7328041394023,-42.853499458473514,41.643970776744844,-31.863243164863608,142.30933686929401,-358.791700765128,43.65806737651474,100.2746007758198,14.27181410622986,9.285313951132116,32.591771457509516,158.9172745648403,0.7274199867934931,-13.975324569140332,-25.220430254612037,28.05838002108774,58.18101096324365,70.53605466883049,53.12488265686195,-79.29243378179538,-67.92273053775746,68.21209607290838,85.06133788743983,155.01080963848068,17.233112458956665,-5.649832505531019,75.213616156525,81.85205594034322,-13.47873193650762,86.92568600557452,12.19696203445017,102.17071054044185,60.21576567402556,70.46605088641208,-35.9049940931413,-2.7850070071511683,48.59301891253365,-50.15780860292169,139.87382878867066,5.35787582912352,117.06889419103761,-333.89777483264635,51.009812633354606,21.53727290716441,29.958558927349173,-14.893111414270782,-9.821248427861446,109.579545725627,58.325665243392145,20.783007871821667,100.1068471848562,108.89025570903122,26.295191724554467,12.025775568740482,89.27673741568395,47.252540406095925,74.7811342360316,162.4173142598319,83.1045457634384,-70.5704043597647,108.25554395424601,26.630114441768644,54.04575752635822,91.64718973133522,161.4591389303893,58.66856191397612,-3.4025132596992935,204.42167944379162,105.6727784550376,34.79517546006133,8.410834351463203,24.530200268332322,-16.189102843303793,83.31408783857457,101.13214371520604,73.81284070694548,156.2388495771292,130.9291269461016,17.509953197945766,52.708771175251634,33.283316535491394,-59.6371370522362,158.58705985546086,-581.7338928962425,184.9119820539403,68.42726990422955,61.48876938599756,216.09950917189633,-35.8991713994852,175.94340667379228,85.48153069538067,368.33591714508714,89.16827745214846,98.73324157124456,32.72184251930262,175.82109452100164,164.11267061140626,13.51216145784752,30.577964569598034,229.84022471100934,174.18829965596836,148.77066531767224,136.81924933034972,10.127930356695677,-39.26799258605827,352.5197945255843,52.55336027986946,17.551891412157435,114.78551167845676,71.04596637066275,14.856831552138932,191.65783389672436,150.28807808761402,108.78383100361448,210.60885116297135,155.86575890938,107.11447541389227,307.14917699096003,105.11002821715708,125.78815389852905,53.34511352778158,198.57035626985592,-5.355932953673479,279.0996864340952,209.14296256222715,178.59751386028086,-32.52511508943535,58.28915054863899,-103.07161794613447,112.30167459904439,92.22348071379004,129.00651365437898,53.76227571746655,291.38677861239955,133.88943614474692,24.497705704581822,113.1600230618748,122.88666834597164,102.31802397016804,217.50137699734958,188.11484418642377,6.263597471346997,47.98569637682879,144.16722391866597,28.074128931315848,51.517274422453916,95.28537797020414,17.467696340666592,108.93083313858118,-117.13488678031962,10.527187394187647,74.24042531853624,212.81907827916316,92.90861072224793,226.44681618955954,35.78857103231256,252.01042405892812,-30.145141282957855,358.0766226085955,-13.37043079300095,158.95854260324677,224.39746047606923,159.83741698095122,171.71004967757412,147.82275422336247,100.22147968405655,-581.1141625616391,183.54338370305908,-434.6617844082478,132.77449298185144,133.44888185101738,-89.96190503495056,229.5668899547146,46.28612264033359,292.37091594067806,8.446640499725667,77.53613572086016,149.0922294642546,111.1359416517509,40.07815721066944,87.36063861453685,81.00658905951961,109.7023950431805,242.32379774992995,-273.247615196376,-88.32042620873403,-119.92416339644191,-0.06014324550934899,160.08797852753807,134.78420025200907,233.9959082897018,-186.64548263101054,293.2193097081433,245.0631873193864,194.34549982811356,114.74216806917804,-299.45567906038764,-124.93237585304882,134.40567806392988,263.73286842706597,145.16352950250197,137.92346320005333,39.909697319562085,15.702577582955147,280.29156114039097,24.593206542099782,222.46415041698444,15.294294499071817,-205.09537476209366,340.97243069201966,252.43603866955294,-8.10382434946261,275.12478765351966,4.131041607848191,339.5404003587926,-112.92563410915184,96.99657197562946,37.45969103827013,-169.01388293379506,229.78992888749903,92.43093032658531,-31.268694901832056,-297.7144391273368,64.31051437493856,299.6947692247873,-568.1638789959248,165.97747746140547,-197.0618675150844,169.95117264101307,137.16784169565923,-286.8464981518102,-42.1206347945786,162.57583549853808,-296.7717276775674,186.27161783228118,230.8615868407048,-197.47399201256704,262.7484966125723,-204.8108066514957,135.22611418705975,228.90270292682635,-243.62310013148124,96.23876500035338,-42.02483987598612,268.6154383488762,93.10577760628787,167.61664834604645,156.74827746336567,89.6752588536425,207.12252922881507,254.28518786529364,89.96074844075798,206.65673321563264,236.71203512952573,-251.69646239828114,140.65994993380855,289.05244994961583,53.133366880740894,-108.138216395774,285.0681947578518,255.3191589286465,2.732810030531253,299.48907784789816,227.46179182939653,-773.1610825366237,197.1599535812021,-203.3863005368769,183.3410383850908,196.09987426732155,114.13020802033311,239.34502286536195,143.7527311434161,-118.437733892844,118.57675680262044,198.8139463975377,-258.55746660184445,178.36145776226064,0.8366528308792347,255.79581547360416,-154.56998259436998,340.1847847679939,220.4892050346849,-263.0796486697906,61.14666031456955,-15.070763573446817,-313.03643882026716,-168.53707046041364,75.27092806105202,66.27068550268483,38.96959929139467,-157.298464047222,203.8676222555411,87.34182395534545,158.1065579145286,85.15109460489356,108.59621705597249,-21.498318046876506,162.70332166372452,-120.47873391382876,88.8273176263442,110.18346532968371,86.39482494606573,96.93103032185816,-41.37596586022856,84.15436181048742,129.53381348035327,-31.434370381862767,112.93887337084696,-176.36604513006841,102.94173884365743,63.64220968096822,126.83147746640311,-145.621263183746,-100.93392078093615,160.69924766571174,12.043906876601177,200.79315843546556,96.5090237841587,67.40597052685476,127.39198064264407,162.17324198883625,-30.280530388269973,33.802153652540085,155.62270836022205,32.90423038061279,130.72099990709552,65.70540288679375,69.42830453443229,71.411558989542,78.01928658709498,88.93257452537996,68.70735356758738,182.2457740205326,33.36114688047463,49.34562910913549,111.59652429686541,138.3272241325683,19.131534993001686,175.62181456142812,134.5884654875039,79.8999072484404,169.22125761422384,-93.81720318239641,-111.01895518790518,232.5952122312693,-136.79225902707034,-131.10938651685584,124.74862409592978,109.57561675343582,-1.4669022399893117,-241.45207539386593,-201.45884420433893,60.199275079939845,87.04544541684916,136.8427581862107,106.61057926844049,-167.76956540820453,100.69634239783275,-282.7126416991014,70.90721371204752,163.52457979659252,-21.242921493099193,-193.98255622432606,142.41749025902837,104.94471809439553,-24.163789994452735,114.30625424026914,117.07198743348029,80.64372261753886,89.56438970239564,0.42906573398024817,256.9155168922505,-129.8851729473641,-5.365732500202919,63.08282570440705,-147.85342908011646,-25.25196992743405,2.951100493606121,-82.2545764806018,50.465400069228906,-82.96305154088104,-378.73455500791965,-3.7742196026571864,55.86602570255808,178.33879317582185,147.04539361615088,-307.61265971327316,-363.30603308693156,80.09682743987621,-104.54630283876024,59.20209709259936,-157.2114210919264,178.22662030725832,124.73840020469565,206.03585898534578,107.16286067091742,-0.09587113936215105,-126.26444968336634,270.59789278566154,-261.14413504859067,270.18852323891616,42.169599981604016,-195.7781069187624,208.33242117830005,-91.48749716068679,149.8208321389036,80.7032346948497,-65.94591940169605,170.27462791546964,-152.22657305869433,24.203585815758547,246.2541670633644,109.473294816039,-185.16022851846938,-19.78473397205355,191.89112591081047,30.63129154400331,101.65107825489635,-279.59010236158764,95.10015734691785,-332.26561308767333,152.07903930936496,-60.452596856285105,103.50088939609986,-267.16888808456855,-92.33845085809709,-195.18862814873668,176.09979049801234,-144.5539696307904,-106.66495953480616,97.72252552485023,31.21698247523791,27.79257401310941,129.73414123709597,47.46077326449904,72.76627773969845,-15.7581264958023,161.76937690672605,-35.32889799476988,258.8104121082401,163.73688107574333,-212.78548985196153,256.4858585447168,-492.39910517533133,80.75335496025662,130.97395150131356,-95.38457993759415,-205.99339214338121,55.2198163608814,117.45188397262278,-8.457466952853318,-266.49187374478197,-159.93657848433367,-359.8490689875318,129.34958333127935,142.86858180949775,103.00135264357894,-302.99143325893175,124.72543676036742,-233.6327954938836,4.356255245384653,273.3909507149751,30.99791403472039,-57.49364118462735,187.8050456430567,40.322050533003384,12.439730089911201,170.85103406831908,61.80034180293954,91.02559480383609,-82.91365890942865,-90.66557720646281,243.99452133344292,-185.47642187333,56.46374596893953,116.38121765214488,-125.61373305203077,-68.89681705962298,176.1103520135371,-82.51370835670402,60.540672903059786,-191.95571288749483,-200.0466935231484,69.05595207039798,58.12606099854354,107.46483796867028,176.24883262981078,-309.8501175259367,166.49974582353676,45.286682334243025,74.66221091506038,184.8927752506986,92.31615234037248,351.67298493262535,124.59212938849419,424.95456643932744,129.65492574080977,113.41122404238521,72.40366648635444,889.6158079440208,257.4944786494946,73.00609327163039,91.2101488032062,176.4861233725654,98.79970859173127,540.7691011762134,145.91840707581937,109.52580486787251,-252.0200995251132,207.23686525962853,-6.003746879525828,203.65478113807677,181.35152787640345,-3.967678959344192,41.778931842255815,175.5056161224163,167.2633197212275,393.86222198955767,164.01344043749896,33.43336735656102,54.72121970719954,217.05564902277297,164.80017223861483,44.78096009492668,60.699980135373195,184.83663637451497,110.42770187394288,186.83774229094413,127.860771713627,112.98360182937908,-290.62637125436277,173.83643530196073,698.0554133534115,166.89218835358915,320.9782768706752,89.69981335697247,209.61025665420297,180.4305894190835,119.51513638478833,8.121894248754163,126.10354480993715,137.1322134430985,128.28539335852747,129.59716053610293,317.6118281208876,1.4015785491839727,503.18879414697454,121.75988019690357,109.15709086615472,173.4310530312789,71.19950143573442,141.03308889555996,77.0815291941132,23.03264742986258,104.0258105643457,136.1966840158545,272.78477385299465,-23.055209408749167,77.34212658189522,202.4933535849754,84.6582990140506,27.969980189048812,163.16262864871567,-4.879874735972181,32.489806813343776,134.58645884898698,90.90214566106563,112.86090829657951,168.42849388772007,279.01430280934954,101.30500775502692,117.44140898554296,128.49243656886705,178.90273859365294,-45.67205408566546,575.78210183618,109.20299493603859,91.09195869852378,214.0649327292038,-310.1052038388278,-3.4728914707615934,163.28361764898634,631.7428799786836,168.20016321241695,104.28670760238654,47.515246127621936,111.05956671446333,220.60173654457788,-251.25838910247876,185.50056485020977,53.394748896204696,19.835485755881578,-101.98934059868958,66.4976110582123,169.4922743169959,138.50386239162873,6.682470176776195,137.4645064412776,156.41012973872535,-16.10457365520252,248.8719645502589,197.49422096924366,49.901948904273276,107.02182116720972,205.98204107962772,45.740320746259435,83.59442675483041,114.51832352511653,224.38230898031492,11.61007459245626,244.42190263111323,43.79200656850624,56.4761818310655,99.70661083003509,153.35093995949345,-13.614581241381977,261.14129815067054,124.79697582215537,79.4470194296053,194.70132222185077,44.39365603262854,44.63857091519037,183.09179194951807,198.08026534577024,48.35388865838394,68.2744637230953,136.16970297506884,53.350015198900664,-363.6609314109351,-144.20808751515236,91.31645184621084,-65.8326502463436,78.27607939569626,74.02716090104126,104.2114114423192,167.64857384130477,127.8770150620864,65.45315729345931,-410.6153138804712,-476.26004090879655,15.488137576822078,202.475951847009,177.63114108016288,125.79485238829308,-444.26964567359664,117.2357323246907,48.69611699690033,-669.9211213527813,134.85182033949243,95.3362049272763,83.24941101049296,128.42346871373465,145.4652724504939,144.18427685724916,148.58528386320424,91.44717663496735,193.72945073263915,74.17010361770825,77.82748180751001,92.310491444241,105.62230572545742,137.4502792007408,23.175669180093177,255.25633390758352,108.88683573152181,66.94177449844501,117.16815344762408,99.19989513011677,-144.34205247168114,208.4158717085456,135.62601418268721,11.45472999859559,141.2894656193566,103.78434176500213,107.42538268674652,61.26332054198045,74.88699542105559,103.67390126878902,95.68009962981459,261.2366186567674,108.5342994950103,-128.1794330490039,140.70755617352393,66.08007179674051,171.364743395451,-206.42113676587522,-7.647662628320171,102.50161546811127,119.64161645670865,-304.5147879742016,169.45103988962953,4.741631770911351,49.305352256699734,127.76803891384816,7.6583590751533235,157.8925968833581,70.29912978906785,608.1093771512733,193.29211860479163,175.80244478272033,45.919862761463236,620.5452610901863,108.45294009680714,123.63183847255401,159.14653651169132,208.40744615101553,71.85448955291274,89.97420288054414,110.54436331081497,24.418605389997776,-42.93092680690303,298.6824557891828,51.86631328727392,65.29327268348203,138.29135649034725,88.27686598623782,5.222243211026848,128.67648575620933,123.4587305739857,131.59858560159984,93.72911396587628,121.82901020539917,119.80785266424944,140.91990932929028,224.89446255502276,30.69993520266406,47.66724299848468,115.95326954092242,5.378150013428985,254.94372073781562,184.76278971010842,123.58551013861343,-71.17224906536633,153.8452477733633,79.1655954221703,13.295757484079308,123.56702844171545,53.07598306830173,227.10439879493748,204.2970975674774,153.91243770399615,29.116882001720423,77.39618641950548,83.30199106607306,79.71903803517554,200.86936300750992,233.299549261167,66.92777980012325,138.04563642436082,226.87060310414878,142.177877442082,156.38558777682422,-19.38059944133822,49.50296177096947,67.41955247167256,-134.6648658028321,164.05553667795388,113.74119078012036,222.6275015821054,1.5166362518419465,160.2186471702706,179.18855753607528,13.7283946627758,42.08098695241323,242.67694265230645,37.661846246632656,2.684501789551122,198.54259819266605,208.54118743416595,101.57486606906095,245.35420404231007,108.98972223137118,-551.481028160542,291.6432221612683,-297.9845057279504,104.13394163874511,278.3317975498456,101.3651058263372,140.3516505706779,81.9179513724068,208.69948096282968,-96.88110480723738,36.19303978622468,206.0310537116899,133.9401407759889,-38.22091162964151,98.86965077104163,67.16652818884104,88.79870847750138,270.11645406264364,-489.13759584886907,224.08611902812157,159.9501694271281,78.91231637204244,313.8437595498561,52.567350453094825,379.66757932561495,166.30634361736253,121.87358612202189,233.25185198621799,71.20207974638862,68.110153390894,334.1772712942682,219.1431336284568,-18.257917972147357,184.03389240923863,188.23548135809008,241.00629475258873,148.40484931872817,126.8804382727369,92.51875965480181,-16.403150425998657,202.09457285711196,72.7148909810725,43.36903198434288,207.85290007506376,130.14848678377848,2.837632894529777,205.16971410136136,261.0251997049506,66.45860849612586,151.95873532488542,192.24339296132345,141.01904431845654,335.3239178225707,210.71786707389413,27.706539609769916,116.51740126519755,339.07547933766995,155.15844696729144,146.14463187799117,264.4057544712085,114.14179168103499,-142.03148759069498,207.47128304729506,41.73561775669028,117.4938427648599,234.66321733158298,103.34988203042772,138.2743795020899,224.81784187049743,226.4701038475622,-38.72941224368236,331.39760555179106,74.00255436093555,159.8764372793683,314.5141961029336,352.36307238520595,-21.73633316668756,-1.0169572129433133,193.80234967032342,152.45787783453446,262.91538835862525,158.38993943706853,-28.27410520423246,244.75220357916055,-51.0948485704736,139.8456778571043,115.04671131536571,238.19991580664475,112.91538234417328,154.94705733838333,88.11065676832668,359.2603512109689,53.316063507969105,254.35850803088576,43.13504242027803,41.63332037391925,194.05014021144405,210.05705930278884,52.856714869619715,375.07830514966076,177.00313595513825,-540.7730948457308,265.2594181331824,239.27115236870011,233.41240081455933,148.83603175321835,113.96247174532452,379.4107888659106,101.48958120397235,302.9039142657771,237.99174740124792,98.66342261069563,244.8311626676105,242.6254910164928,258.1574597810844,97.30645580140865,127.8044777152352,226.58957215080673,464.25027600023265,-606.4560721961822,305.6106482069347,183.93687707140413,100.78926587202866,322.7016375936917,48.09742107022879,339.44268330876594,225.05381712199008,253.32037029656146,250.1167312022365,244.03489720027093,23.93305221536494,282.7861026177997,327.7082772215957,113.34615267035291,231.51547555362342,309.3180025093762,224.67271009441544,164.4584653040895,161.3433059655367,353.38454998353296,38.90429411573274,315.83627360855195,89.36123569736546,-35.81380533590688,292.1954414626737,180.71578476578694,40.7046765661868,288.99096723169174,283.9006569454467,99.66691604889168,358.64284471034523,189.98475590094748,27.497563648991107,325.2481361719781,298.69318662552325,140.871089741986,204.37716758118512,291.12744397960864,118.42618694519831,211.17153743768523,238.28120869629547,115.3405673396778,-124.26271495106805,261.75749162324126,307.2636677637849,186.2500656333402,267.6066112556099,165.58211878424012,146.3312732077166,246.63125146328372,257.13118680812784,114.98551094665669,120.6081729088985,284.8642188592927,208.85251809155747,162.53068879531088,269.26983504735597,147.26585306855708,197.7814803194922,218.84928579997953,289.9376681026297,67.45933193596456,182.35797008382846,192.08225192627762,277.3096627581791,295.82114127716915,147.32994424517838,247.44331251615282,312.3947102274772,394.08032560188246,210.10846947602047,223.4060406097475,339.5369516926382,77.89182804185629,297.9502455420946,110.58380107343734,255.32903028835682,309.4865673493355,308.3796332446124,151.1627314102914,223.62814839162561,233.33564615077273,70.61333629017271,198.6747407143427,171.44723941601623,224.51459114526955,120.48093939920885,107.78324555698372,241.1890630067819,243.0618875160859,377.7888573827658,108.60461202355164,177.0734449540463,248.78171915896,233.70236505396346,295.6419112109504,213.92016696378704,57.80936172403844,166.21865563059407,211.97844945683835,-350.46072361180654,33.39910477445609,174.69049195971164,48.69311567270184,31.340840803782797,55.428429838382094,128.7977658231034,16.609023412308627,53.79868116440967,128.5041386203731,47.633345040430186,42.173832941474885,164.25051383159695,39.908829552717414,-10.45584122891209,69.15772081275895,87.18988805770306,114.78665639316667,44.86803934001727,53.62360391959086,76.50969813460668,-32.22424669071823,103.58554461890624,5.1132826073924305,26.155054344472205,41.856815694708494,95.88573476995319,-59.371088593853514,121.88885110735248,93.13457147447808,34.61133544194923,-157.70543077758842,163.08050276432806,-35.099575042534035,120.88889704088582,141.3998843556606,-0.7024214840816504,3.5429830516203,72.49384230892497,33.9216569276738,101.10110843626707,182.4239770790836,33.88838861886012,-36.60487916793364,34.56003687757446,128.06374313651938,0.5758696418507705,83.54027931842212,157.61683953036896,29.41309358746472,144.3690488340273,172.4375140786252,-127.89916832810528,70.3750389313231,-3.1831415899165574,54.705769036331475,103.53464839818828,36.02200001660835,18.660058430690583,-13.860624986519468,114.14502285837646,74.76683838669825,245.93309707835724,79.65559585833418,94.35947746839662,94.86675272270836,50.4730447071574,45.1422979694606,109.26019142932853,94.20575852995188,14.237070931273204,-0.0029105471927542426,129.263587669964,26.624471955094933,34.78195795556948,180.9280474006625,16.83364606872588,-21.95621630001545,124.1974396932999,124.29783553210066,-42.30054553473122,201.216924781964,37.20622986658839,9.539673359511543,114.34029021339047,135.72900686422415,110.15119432325102,-6.5992513174323815,46.88205366527779,136.19269203552795,52.188938331240095,116.70146377975813,43.02389133970479,28.9711629095557,152.66499882592086,-5.638560221722954,159.29644058451947,24.858866832500972,28.307827365738156,90.67935259470697,244.90051962461513,-162.5990181786619,137.36294625071375,237.54535675851363,110.86843185076438,139.89930666714372,-13.540004579269533,156.6597409096848,36.31929166671991,129.04887117231812,85.32004978234782,11.51480101937819,76.59019251534643,-153.6282051766262,83.86411945541728,-29.59532641920652,115.96366314851038,141.86313332629462,110.78009127208955,149.33845961082008,23.004576931006195,54.584230992702786,-9.922376180662761,127.31372250635837,71.46176082047317,134.40876835036462,308.2362405275284,128.60586043673888,-27.617663179745378,152.11855186351394,108.78008322525886,-141.32215876726613,-97.3480795110289,114.1393493484142,21.50005376975326,198.50084194160272,124.41355923595046,7.825237928868849,42.69584250338513,98.57875740200566,177.96573550562877,-9.02543989743437,251.93519184912586,38.38600974748352,-39.82800861184908,67.36749609862431,107.2729622594961,51.69622361494284,165.52066400371578,87.42714707046335,186.81183911653983,86.64121861583598,107.62765645638684,-121.4412126735061,59.41522286207277,71.38632064626526,111.14253577086063,78.03238615505633,77.55878671421421,56.27836862943868,-21.394649560126265,56.45765765318098,39.903945574097065,133.04728844594564,102.91800015332038,8.606406949578355,162.8156595455233,177.99995379808237,72.87772389686484,48.54485332133791,156.61107239701022,71.61572959178189,51.60074952684844,84.8177607686928,80.84296281564923,62.16917776842118,109.12716798679602,99.41657628523622,30.057455125782575,122.09744990770307,109.41471545015399,3.8393878411284947,108.02658439478738,113.35759414316213,117.49361245876997,73.76184162762023,271.8830684115985,77.81464690709092,115.2854202695412,45.923535248149015,111.54158096700469,27.330090412383818,200.2913217741288,330.58762534213344,49.759781963255975,60.66690090540589,40.72480575001112,89.11625806917935,42.84830461214383,42.85165441766373,69.5656685080747,125.90134063055008,-380.71809932469284,-114.14045678376363,-102.05393907323418,40.677358481534455,118.29953893888067,-159.57580151258023,316.479269142444,-174.35080153367082,138.56988217924683,234.91538207767388,137.39330851626246,136.11332744157264,308.46348157940025,-136.34612422542003,20.394552972641126,-5.666115623594064,182.8762989187389,154.70726374141253,-31.186201880657343,142.37689094251525,247.6082061991825,79.03950065177675,253.5418656894907,94.50317255482209,65.12380296414287,226.57928784942376,85.34572479416109,-56.162061473725174,205.28814879166956,-69.54756398487812,239.90153763356167,-437.9429425937205,126.86927658214731,79.87484283595045,-243.54011746973916,215.42369345539552,-113.7973129137461,-175.5195187258162,-274.8877630636051,126.71729835878855,193.16779556522073,312.7071832114,125.31344149603385,-138.505113212908,155.827642233375,164.7950619741615,-215.7675410963815,-106.09780537450456,181.84630283075742,-280.66451696404806,165.58081060577047,225.232739200564,-180.94517268051712,198.65201086983328,-249.15981097890975,160.04100055034368,181.35945560397997,-201.62055328302824,-188.69834030867685,-131.75192156708115,139.25842790204408,-254.17625314791002,167.61812707281527,235.3442684111512,103.47080839680339,157.74240727465713,160.98868094377497,84.38744460993172,173.89376623192544,224.2073501539412,-333.5425846897095,93.15151996150861,205.22079187140793,31.30872002369079,-220.02823065629988,136.59666354167607,60.430015426168936,37.01326282848825,232.72663539323793,206.38208935015075,-264.51678513145265,192.28231266302433,-171.81427329737065,278.5567533427718,152.65383447711775,98.99710722785528,251.12512082853112,145.77601969620744,-123.51363667008664,180.21093696104427,113.00634743294758,-263.7313098623471,80.0727421309084,91.80108592076036,190.52936998542683,-219.99870621472917,-108.62636495973001,151.92053312206323,-157.49224958629677,134.89182471684546,197.1472553764948,-412.61411415474277,34.16088830914735,64.23230066020538,45.9288127091503,110.48586384980031,-50.93428267030519,82.02185179243972,-49.23245605382923,22.851852387160243,124.03794311922941,-1.1974483246797445,67.74159631176481,-39.830417463774495,-11.929860236539612,198.50334560936074,73.78593261361166,13.280650506076856,69.6620662206441,65.27659205986511,86.58375231160076,23.96497920188043,37.898150591526026,175.32858608607492,66.9257211261537,104.05464707731528,344.30792133282245,132.11725497987047,-53.096500753620354,86.81077949838973,168.80425766406393,-410.55838419548525,-104.83513745578985,71.02237014053487,19.447953519086052,11.758473990890275,128.04714408014897,44.50258877906903,-114.14537533744596,-42.65083402613404,91.54217214724804,119.84691245697918,427.38089410570285,0.340143399189595,30.18574468995203,102.59892417683922,106.1049740058586,-60.33048103314981,203.54472485776586,141.81536059527474,203.12547151489147,69.02170634410199,153.85777434399085,-77.01989979148811,143.83362981452365,50.815726013611275,-92.1197915432768,113.53071495202326,-47.54695953224545,77.18285535013516,14.4860870549796,80.08544349743661,32.15391986877109,59.99265821973169,52.98231261316215,38.954015742008956,36.57280711907127,191.3195335879226,21.351435988549948,16.001601616927378,159.32083863466852,1.6993320147956728,3.401678029040378,110.53555376470388,-25.878856749899718,17.21895418870007,114.41039300579676,109.83692847047212,-34.21547131069926,114.33798190626293,124.55501895938698,10.920315998174393,84.80642053306225,17.583414866014508,46.159226178340575,88.40798632181685,131.8717583720563,132.93813601865207,61.46199413482768,56.358515815407465,84.72208540462567,133.47548877791758,62.025641862251774,314.62862966640057,-6.285782191475642,70.94009153873883,10.685499417571867,25.047076539131652,39.310275009962574,46.447591152355045,114.26107063017322,191.42905431199608,-540.7022458237137,-102.64935974516361,122.47752250965571,58.773767726605996,150.03119426498378,-138.4508964773583,152.52092012838432,167.07609181256072,182.32782156274766,139.67596856856161,146.68684331548457,-38.155711106650195,199.73766886782215,93.24299522854865,77.5015281373819,168.3685644031302,212.70564315040028,143.3514601001138,-82.87609935022151,138.1561853076602,237.01006129567287,16.688545316636382,195.66711763432272,-170.1049729335053,23.61092732168467,151.65453065265677,162.8813253988987,-75.87462646410629,17.60782345297051,207.7618663789189,76.56450701276013,209.61287358417948,128.47056226521707,145.70459654243186,181.07300599374625,181.72670829565575,-60.77429484238034,136.1319498325909,173.76178611253442,99.6334497373818,196.4890678332441,120.93651275472219,84.51474763082736,37.89286529283971,114.70877011051019,125.61018867341699,119.08637502468612,142.0422201563356,198.47342943479984,381.0115562834444,134.74990864075713,177.51226784059713,23.818278716071124,196.46135639434388,139.58215930595748,118.56377657302984,134.88002814965,30.06255996747403,44.441631774741744,116.82838621391822,-67.26714496797103,-146.06990544286012,167.72250677494384,115.73140737255666,117.76424840347485,-173.37129766106443,-144.5783241313545,40.225960961027226,192.1505083653167,215.3857674612378,130.3749788400804,-111.46907652318393,185.65451567620346,-260.58328450117386,96.40780084588812,172.67759690533163,132.45854842250003,-73.32756580184144,200.9396568086009,162.25703641810085,59.17441138567006,186.43267511158749,126.9727985227446,93.12018720320505,145.26879741090914,55.64989196479775,164.890847695592,-99.58965001407402,68.13167372422573,22.740763195721858,-132.97338854350897,-7.368706101806796,46.572768168487556,-99.57589079231234,93.38515195511057,-84.44890887986158,-299.53999834292836,75.66663732038667,-12.46685197337659,46.32660938974137,217.20885138622288,-352.68997816029713,61.87541266995337,-200.140184292479,112.87412295292125,76.67135255381827,-2.2698688503076925,194.1195822529575,109.32942694265225,13.102677344062549,114.80042636154238,122.66803942014657,25.753022818565853,134.35707245717498,158.4961670753947,123.19144884424931,74.2145143681523,-16.112414977013447,-376.9224974716055,34.86236484297797,56.26704057947168,109.28053508098647,-15.546995698918098,-65.91899652692697,11.899649789306217,-26.253060396322855,126.43899370498984,51.9352511653633,-13.057029697618797,59.49632649746682,241.69277245058774,-4.560160262475009,103.08550828207976,-124.98260497626754,12.332464710109647,48.0285516472313,98.07776482538733,26.90108639361222,50.63927743728826,6.8299819481980535,36.68557375737613,108.10413000406226,150.33946971762572,34.90568700265146,-43.33977666895525,58.43168416923549,10.55102504788096,30.36323511951636,41.34118293968771,19.099764701812653,58.04510099596198,31.243642178495428,122.46957720758235,7.664921106599912,79.66616800583854,122.55476395338951,119.29943915478279,35.25388925971076,47.14809921732946,33.295081108829415,12.11294443666838,119.55930188398716,13.131142021703548,-7.1229505921247505,92.62209800315213,16.336282105498803,61.09393770360662,96.16533862562564,10.411901597992463,36.56818010617392,152.1287761545264,-64.62672753410895,24.29939686456034,132.2318744215233,-47.37150655548355,30.952124667612626,92.5169289738474,-59.83577361783047,57.047642445881564,143.85247670072727,121.94345432687281,10.95857031212243,98.65671304573847,73.06694790835124,17.647956548956298,69.74852819564732,74.87451181325002,132.01514934547507,76.1355492258598,-28.573710813393063,50.377208493798854,54.53280909636245,136.32284331485388,41.719953265527785,78.14173595215095,84.68978097212252,25.306384316287986,145.21093543977796,-1.7203775543197235,35.14670152542927,40.31496763533016,183.5767381928015,-445.2877163616872,137.5434891766753,174.3719802278029,-70.76322892231072,94.8811711118756,64.4572250975036,163.3612402211744,11.239760280035084,132.4346451409276,119.50029311234094,110.95853975765847,25.94864029580189,-200.35207623370934,183.6675264720848,99.55854664862454,34.42119893931034,174.87840041453939,134.22719929810614,103.41634673010412,-705.2146297374157,-219.09347899664763,-18.84704887383448,126.27874632305794,43.715677624427855,3.14063785013092,371.93378744538416,68.56864122118465,-59.20195687819711,137.598821639197,-805.9511258394999,-218.42053252515566,51.83902268703757,43.72438897592136,50.79916141142656,161.78948792636155,105.46180024871916,5.577362995459212,96.46030471076067,84.2747797529941,192.44772955476088,143.51177132591312,209.995633767802,55.44090204652294,-93.12543061686561,83.14987378253262,8.139342381542606,126.71243678628058,187.266573781321,168.49257677133494,230.58933430302469,115.08031688603138,80.36025589908532,57.22003046478815,96.42732916677782,57.657916976399726,94.83269988479888,87.37634131451237,172.4776260747555,136.93358356924386,42.63418252029556,1.9513295654528884,105.12370334101986,9.047296142271827,-58.27041595488033,-107.71436411600197,102.63057347389203,-160.6551657958487,62.683988868860595,84.58807210431065,100.34459294991544,74.01345888888419,85.14680298729347,112.25244373054534,-5.510384805750544,-75.74721122145361,250.92197757146772,147.63515083482665,129.30473327304514,85.78275763978698,58.8052063644194,-86.2165109393874,122.9704347675381,86.20377493885064,7.125970947421752,-84.12408284691705,106.54198198908927,63.05441151261956,60.73155958238589,-552.8887588819235,83.79067366061005,10.278798718413364,243.49070484573133,311.85399769542045,-47.4942002783962,86.43364908967422,64.09952864526427,160.42122439933812,97.45390609511625,73.95749846852472,50.0210874507768,41.4183930253057,-272.6466257355873,100.98941475835292,79.82822302028231,26.855116554336785,70.46995538761716,-114.15315691857438,82.64266949294688,41.377449801295775,3.6552637427081187,28.995179889528092,21.502851654515908,-16.953882774204494,53.85384362465637,36.95933044064665,32.279007340381966,99.61306991447078,94.702889555003,36.378894266072834,-23.739309596876033,-21.23765669247216,3.5793155845930644,22.060010810138053,151.72750745433336,79.7257422518813,-35.395781744956075,62.61275450798482,6.299078839790341,36.67680142852474,68.99060063389719,65.50657163880825,52.32070037434229,108.98609583450971,-3.582493844291406,-56.37269898609142,-6.644478704177941,63.07795183550682,28.579226359994983,63.79297472367209,71.03848091432378,32.43059265834432,100.102079747004,-16.868802307029465,16.17891872122111,-111.39710475958059,73.0213711723417,53.52615048979549,15.208416645387212,60.443618951199454,-6.323016731420086,81.63553000072525,62.627256630454085,94.76246934520906,26.331501381982218,37.63798334403817,78.07429157922755,44.76353971424702,42.99972983655944,89.14539490113762,-227.89655014896852,98.60496731477932,50.67481190225201,58.87735515824735,46.53562478558906,88.31393231518526,-46.110261132770695,22.037897164867157,2.9896470856749757,-6.5002411087507594,43.01835052894449,83.86392357933082,-8.707415808706246,-39.69296360931563,81.5893992903462,41.920465234382725,88.90371841965916,100.82644312882798,22.949656281646288,-43.063961486006335,115.06872696332246,45.93404741479099,81.8595031733267,121.62965108410029,65.57518834376634,61.62480851180915,44.40895851259149,-0.42324622474247175,26.866618114422067,65.59491082078972,13.482214581033288,70.63754076701088,2.5901447933190407,36.43286563388696,-4.325330310233796,-12.032698538016733,37.91739444481805,14.27147827326973,-7.837077538596824,35.16845846564832,22.46428785016218,-64.30404320400622,66.98226726388147,-590.7783374129469,180.70095261337,-22.22927117723292,80.20291395655677,-113.77554849095682,39.9146759791117,182.3958650955199,4.3815098477649155,85.77449169505768,25.18325575754357,92.56496024729321,38.94911301262555,186.65064177907445,72.80631779668484,21.8431058181815,87.06638304196812,81.51195461254959,-3.3006495765616997,44.720486869554826,150.77384764605569,87.57051343251996,93.7048155577131,123.90012016303244,-19.349662432028133,-116.52543761283297,-76.48192692846078,42.220775495042886,26.227727298699623,139.0595964814174,128.53763272107687,65.41528200634491,44.16393946293112,214.19870669365469,-20.791666694029498,68.38433948862657,57.59857374017634,3.883179091957309,-9.577168328690261,18.626635998914548,5.138641651165975,162.95377194326272,164.12053102447595,49.68689077254467,-76.4679615969609,91.90597938037865,62.327283776531296,-39.87002367718256,31.455655337237747,52.03341939965159,10.014584176261456,186.22636393267075,97.05192779593682,-11.716852186509431,82.04222783153145,-24.35962744861978,51.37447840007498,-29.240243711679245,139.55210849389914,141.536347689334,-32.90535759054101,156.54407334912526,68.58410515603146,67.29875805476843,100.32132353482739,144.15172344593628,-34.76934376019146,-123.34468503698895,20.58347411660385,55.42707286731924,103.53014994126764,-20.102277760688796,-38.01605027783929,78.94220914166267,-115.15382914669792,77.00380921113376,151.47777399549278,30.219809525529474,-56.47586842402338,97.94287713814238,78.18390669977988,260.07753893766704,121.46268432635226,3.592208775058326,-532.2850837090934,208.48401373763465,33.43110048575812,192.02063142038807,28.505146762504246,54.24788465058924,89.82644184655695,56.028731607551364,15.588285130062344,156.28526199550166,14.708970078546887,32.99177680191439,16.16076370326118,30.234466453108,-42.868720107226956,114.58509325170512,153.5292853246494,144.0226273686634,-774.4479540283318,-206.94945676730342,36.62909547616396,56.83169685859974,92.20772704579424,47.87687306600981,225.10030745076642,-275.7410106782592,216.36285755703727,167.37330090876952,110.16589553383967,57.95365803971603,144.48955938639645,-187.30038457985037,-26.706829251561178,64.7795408103275,91.38305581272544,228.84126237476212,-43.92177299810027,-0.847625033620478,94.04782441217051,-8.586346833473222,98.5196509130815,142.55089892057111,-28.395113952511668,74.09384971050052,117.94173507388689,3.2844089811250434,116.94833441840527,136.36603807286082,152.4264415489447,-592.9546071517337,98.83883296008295,84.00930488320874,-141.0687030377511,192.5869128462911,33.05945257581657,-310.9286050293714,-360.15397162971135,33.31790230598543,25.577722006240144,86.33484642326762,80.79124994161154,-55.873215069311925,137.34318051351198,21.450033781549028,-112.95017593939971,-143.2431913336655,127.91682260071298,-164.69998512460137,133.92239018363153,179.74950576459756,-298.1605536111501,108.8952293464101,-280.4099076319722,20.17835060565477,80.94869738996341,-251.10494239181202,43.46725084034998,-166.65409304849626,102.4535713372093,-3.167195046146391,184.9116979804681,100.40190146193041,45.43934755649025,197.2042229249725,168.83184975198913,67.51367153149619,269.81816580662615,190.79113625921633,-401.9901373846641,59.69254234068466,97.37812121063537,30.92181563465516,-257.79645766103226,156.6522941799896,155.89700301899785,36.71493646927199,83.45037631845214,88.55162652950004,-299.9816257244593,123.36522060910735,-197.95685511285004,323.4055512098944,120.82781728849004,180.43451148391063,87.65588297979448,34.501782518676684,-63.95998544014561,196.73491927463718,109.47902293379875,-346.83150864340473,64.13581786687675,8.621363049982623,144.43643912748323,-243.2646544467018,264.5345194120983,79.70807415090249,-167.87205653203998,57.77055369739827,183.1917913705156,-427.384488792673,100.95562888157788,321.5133391062652,-285.420101970547,242.18252717076953,-6.24641303312292,258.8254144337606,52.79005750050973,-69.7999672427776,121.19079158993084,42.234742604952956,60.98211178133153,284.8426827302953,232.7134175151383,52.392452457336496,29.167280378750487,-420.286397087031,161.2278200475244,-18.93019148450498,139.737255693722,51.30213888968021,23.214306532305848,102.99584249558035,24.28235246094836,90.99133519112414,155.62649818007495,111.03045459282733,-115.2585398494729,66.28595109044588,90.89675069945446,-181.78961188074658,80.12383093909105,65.37165731263555,70.85617444247912,230.23034814135193,-17.47772721102727,-136.72990812327637,125.97289573278933,269.64387670068595,136.95803112932234,36.099113413435134,35.75476548413889,124.92739114641536,-75.89447922216122,105.22142576272053,66.51627301875332,61.83581302497427,105.61921868636531,93.4481207989035,113.2230572800928,73.17268781562449,159.83038087468591,-152.48465366598145,247.31085565105772,86.34384424601127,94.6875393589314,236.23009098577805,121.39662485074557,78.00355910687242,121.62250841576534,-233.54255272674177,46.5949859281582,157.61271757665912,-162.7272833831697,129.51242450548423,8.552662944765974,119.07866884713184,43.93346413909074,88.7840503985317,165.57382876245129,148.45359334890304,136.51973843953837,87.74525735320917,287.6711968913559,-35.2274966035585,175.46279102630865,40.260211658115445,59.944659442266214,116.91913607326619,81.19902937259569,70.44362864304026,258.24100415563765,124.0320737623928,60.233676998371806,141.5920345770055,225.14165537650047,160.5353173927807,59.26198217830014,174.89104440899203,286.99798913077615,-163.15623695541368,226.81193649356135,94.15134720447749,-135.71774367074016,149.6536565384047,92.82020944929639,135.48418776290228,63.80290052407196,42.75017555583265,-172.1395363169322,355.7603005776987,-369.9285174615256,101.16322295643559,83.91046081495816,253.58447465363597,230.72026930695768,-204.03862840858514,197.95303180677791,139.7918851701234,108.55252939120334,238.39038646815672,248.46713554005234,133.8542229006191,287.98412701531623,113.2159994149104,75.28310561388467,73.30281762060132,41.349215404187454,100.37641268757352,104.38121976023848,250.13840702076698,227.68240473853888,32.40014482140117,344.8974231813702,79.95529155608145,110.06446213255013,192.0379193300371,168.8621884974328,-63.96607294084749,287.25746543246026,-52.9781837149549,164.32721539230033,270.7389045276818,174.33385470725105,71.555994934337,210.544106760023,259.2276937879237,-212.42948144250713,129.82519619424218,177.55164831001045,65.71221596645442,289.71134873812485,357.1740328615819,128.99057907621753,-35.21462883293956,273.83862720721226,157.67800985111694,142.12033952101243,213.51856829876075,143.96924451220033,105.16906707109167,157.75519705215405,277.5505483410344,-65.25633512132164,117.99539824849201,181.12964590026866,196.6090370214186,231.94886238015064,211.67375825417284,-278.2957481738432,296.8269587019697,285.8958156406387,-206.71713788213358,277.29112546384107,140.08349432258953,182.11312853337122,175.15782324872202,207.03583714221318,76.12352225164736,222.77614671980444,258.7014638710269,-21.72831804532262,88.3478176065963,332.16666439938433,51.110421152158644,-13.419989597819942,262.8590651260998,86.91857561050482,53.70251249243021,309.8734199284693,288.9855615602469,5.287408679848778,270.6817688514121,-8.628349848296482,-3.122291412769208,229.18494904463884,31.46978200710908,219.38933081762463,102.32203045928397,94.11901030076817,191.47817743720182,155.68477586708434,186.59683627467197,91.69172833907419,51.652244440241,289.4468484772027,68.76680867076182,-132.35004385621403,218.15892250547017,48.57614977885807,111.69366170528582,275.8012873723659,-350.5939128045697,221.56272950302196,107.81035726621559,32.390728207762564,151.22110246910097,-37.95495861467365,353.90877528610923,82.63480864436715,136.0586300872918,187.6723956998626,207.29733492381243,69.06412186107228,127.5890356406521,189.95386800932388,148.48069006523878,48.115778132010156,260.7096387142563,92.56131225084093,110.13214621768655,-639.5339342482307,-198.63495861583576,23.482063130787854,268.69432512862613,94.78148810545389,25.003497064282726,267.97131856548975,148.14578257497683,-86.29949959988429,305.31102270887914,-775.3411518063308,-3.749139271391282,198.82303671975217,105.71431446952414,112.34035426634449,198.57839348487207,245.0719477722445,35.98454387386024,157.8684298674628,83.58252464008905,79.6387249368344,227.42771529806825,280.89877201261197,133.01476050605882,-130.02996006099104,109.3739036544504,99.42412571837299,183.52441965375448,152.7636523312807,181.70015196070744,213.72497309813906,189.23838199767812,175.132885067738,7.615263534808195,170.86327265655171,206.50142882513956,127.66169073752764,214.08635559735737,135.25516921995495,45.54886641078126,76.8972065783093,223.23698980082688,165.9582417027598,140.166666508515,133.4463082465607,-56.576001439186825,104.3344021035563,-67.57975015374767,116.33663214816617,155.5552681914968,239.16535344510305,130.83097844306567,160.21097096772755,198.52636350051543,208.1026562747147,63.48606606124986,314.6847338296638,148.64622110900822,64.63709917597636,162.21285912222282,140.3194682590343,-2.2398981990415883,201.76537859949164,141.11276900935715,-13.237329573773252,-62.70245327421782,239.42996929846214,208.42781223821115,51.366089606992894,-509.98592661257317,129.02113290300647,162.92858920519228,309.30442163005654,275.91597573061,95.66157323585648,159.66264159530235,136.11132394052512,190.91050185877586,159.91128405867437,79.73389537154223,112.64347317814745,127.43861643498754,-359.5117852167336,88.33009155906169,23.44666311492735,103.37906834715339,104.72678470601382,20.208151993312175,165.317177291435,4.55490193080829,75.49530400814321,89.36294650506063,128.49664122963034,44.95602084239329,169.4757362045939,95.48052740488302,87.16114145230428,151.11091967174656,128.4808380033413,128.84203418381097,59.11704280792072,113.95584399353336,102.58901079933662,55.32770836598407,210.97788903148472,63.36545844491355,-37.93291913545524,139.4951399473427,108.88656332596175,-22.24374726873737,131.7437638743584,202.07701395566377,79.67463456443377,63.54696100866002,122.82364699103807,16.0462013001059,19.75803517228205,119.42075662409076,79.66723270445823,-6.561397847995466,90.07318363153819,43.50612019767284,134.82722071152784,91.81674929821573,104.63820882866337,-37.605865636945,67.76671988683158,76.25527787266454,52.73263807902043,107.88488375625568,84.89779650539379,-0.9189198273822964,39.91296673060126,103.88383406577957,-9.86418468850013,146.10122540256074,20.908629649528905,139.90522619570064,79.64096380583997,118.77285756832549,23.629967673161097,51.041852516765275,69.05676880104188,99.21932432588657,100.84817928326419,67.18140491430813,60.6981346575019,110.9869954771829,101.23414669475521,46.24093318114462,92.79416963492687,134.93105717028774,113.3060727672018,54.07894156381295,98.41857126604909,103.6990343271234,44.67955299958978,98.16976715866774,37.79733989021313,-7.6484848888210255,105.97972968512767,117.26070073928851,0.7956252963473878,152.73419785539878,68.765351545502,-21.836251469112238,86.2732866738989,35.71819441122762,168.9467790417,52.04262404120754,40.68842863948831,83.67293177635727,49.299025221950785,152.50667439464698,92.50700348983398,70.8433911788208,127.131494174998,-16.695371230062932,167.7121050430617,109.89428194745616,25.63039015104491,148.82263253250758,156.27514368339814,-289.82877155876963,174.64885483179074,10.20222236086078,75.12936686433389,52.70589546019823,24.33496286327178,193.03967238875643,106.55913606234286,140.41537649034552,222.88385981655162,226.18896680994817,85.19558388048314,202.10693586845156,186.00408578820318,118.40206752806762,261.6765867573714,226.69669628961122,131.93867074734672,64.4678617508864,222.9725944024897,211.24620269743826,-47.59602250696733,282.7910658599471,25.50763707898882,12.072774738183538,225.17944748518698,174.81226987482313,-33.5995022002291,290.96022637278014,188.52677321257048,58.136522022790736,181.335213286239,174.6679643121736,52.23032569864894,98.24048876766504,255.48787788699815,52.2270925285304,97.63466078871876,109.37411166116598,9.494941547541874,275.3187415892468,235.27506045513445,98.61470365270333,-30.020440240374096,197.78108808294613,180.95946423627635,147.9688139487349,145.76311796065596,176.57442115006748,65.21012700625828,169.52977980803706,246.578670893711,36.99676177623635,142.62726911268152,141.41784342936847,158.9784132240102,132.23033698590004,95.5790589801913,19.90973491762138,119.18010594242978,267.15291634806727,157.40595075697456,161.47437960699557,153.6584409046204,181.32085405167444,150.3976047444424,246.63993489777548,40.61407906859222,154.53649266801025,297.58258969064167,154.20803223122348,107.37134164056522,230.7553010609979,143.23404301577438,93.35944303515944,293.9067343076304,103.76567521343544,1.8753025232016398,259.10571579354314,260.28167056562523,32.754284595638346,265.0332533824401,123.23489701972866,-24.347014937204232,197.6262707627978,77.11098983736584,189.09986601266382,76.72956786715228,93.48100338739802,214.84955129288696,182.3343883528982,225.32064121908886,76.33098580192512,98.07233388711512,191.02783476109363,49.36900942695978,135.69441799616624,220.10250581342655,54.52988559384961,89.8355246739662,238.41461398339166,-334.52523606364963,219.07884456701993,242.2285874920545,44.960750160962576,181.37192286207778,-33.05101993790028,330.47391125094214,168.9682642923594,214.83338409065038,194.44891583131422,125.77988398275646,25.82069299196147,289.66471401565826,180.62050883635757,-31.816276131092717,148.77764368859295,342.0355630387205,116.22094929403258,167.3949362080634,118.03148119503334,187.05551303955102,-27.265310072929225,249.0837360364986,79.66664316927123,35.96597761941633,190.94450400319403,179.20407888241186,3.8368392392550716,291.5929935165251,165.277117380736,33.396177305000684,177.59108960435805,154.76994988450818,46.31799167104173,342.95675240652906,229.30349370747413,128.51445102363547,122.15770782687783,300.4426148944061,85.26086918226709,81.48463092813414,140.63300649994986,64.68419770727495,-37.241717462898215,152.53963335880394,190.06382701911792,193.918840825614,194.52018246620148,158.1357593273834,129.90356676154823,254.138493535655,213.0773373474858,-21.478760541896637,236.76303432393266,202.3875556083195,112.53490848502146,213.03810461018637,120.4910944268896,64.44050945513223,131.12342101229683,261.8975869714727,156.03765570313993,242.75166483147075,138.21163544162513,171.52130364235143,93.18345894350603,210.3923559954858,51.26033217628598,154.1817519194867,235.4698200389653,243.74303324432478,278.9735789641854,145.88963888991375,289.95061012214484,30.7644808233779,309.7646787129838,138.36691620599478,181.04327468008498,161.0607029249478,245.29828921220022,28.959003144281553,209.83459171345626,167.7295139406215,-20.362563193987686,157.1044060558616,219.52611997270313,271.63225476535007,62.9236467607935,95.29254057624802,255.44519910495902,187.32290439052292,275.08260948867246,155.12958857822386,96.50195753219953,178.43214002890855,230.9778572289084,193.82636745454425,132.1603817697281,80.05030704043496,166.0291427719231,214.62005871882127,-363.5753065728134,186.0210635932634,124.87976237444889,56.89304424578706,-170.86288182358854,36.83471239172059,185.51155708623227,110.24021654518496,-495.6265486139964,171.72963960337222,145.29212043940262,49.467716280143385,235.7773405118902,211.95459881155168,114.02546048121003,179.47365324075645,132.33702543704908,173.9962888501044,84.98072392817426,100.12195463901814,276.5612096314083,72.87719064846142,191.84970925991288,137.62628489696107,18.141371531365845,71.18570348822381,171.05234039607365,80.15202773771634,216.6881959206676,128.11703143504408,98.19526985680878,152.56371648795232,196.6078445685431,102.32123557096236,142.3808195601472,257.88093856669843,83.33887768394047,128.21195399349037,136.00236975584485,131.82969305360425,-301.1193775042589,83.86898320094714,63.226083356760675,-57.7798367888794,122.01870319416076,109.88751878670053,107.93723734653084,207.8443056383901,124.43285757731871,76.91701220660883,55.80877356800975,125.78169701188237,87.07667207891653,184.34011165639342,195.69803451080827,188.75017797422603,-405.9189403351844,188.4768633731042,40.28615876118567,-173.00376478782297,139.28544782641313,136.83669737896292,86.29907806986941,170.63754250221592,87.87018904668943,134.77545358256876,221.0538864926703,60.081630309307094,212.57826557522552,158.08305068331657,108.01183857113259,23.225149627200135,121.8133735693971,85.7604962920107,32.925652524740684,227.1453367273287,179.62138403798107,80.47875262911505,-250.25136726394845,187.06203644477642,-115.17811389007284,164.70037354809065,151.19923426887377,20.595727711025916,157.38543565824264,124.62572973070858,117.10358463550232,127.96076474959999,33.59619435412464,152.94071465350973,177.98298665325015,230.53104087429327,164.78971529340402,24.07426695664759,154.0246348203704,58.14323533259051,103.1318340799179,132.2277513537868,77.2661147632717,100.92397055789978,195.6659145891664,-465.12231134100233,3.2714548527832985,19.97740889425805,44.806849498010095,1174.1976299005441,9.897299385954154,1094.3868588293312,-41.34083437870453,159.42456995618042,1124.316066081208,96.05560249182932,25.650192394267872,325.4381270540436,887.3925424186958,58.658567901385666,95.49781861391129,225.3134492649206,126.74193450175727,51.05401863123905,89.46556179478698,63.69366121934155,-37.19046047765541,519.5867970328143,126.02126086276463,-4.062299084073315,83.43773361349855,89.58693050287819,68.81335052505422,176.2434934228494,217.68561915055295,62.749950442113196,-151.86554792459145,68.72037936027975,207.7384667649076,1208.1039522298786,139.36679431339394,76.28465880702616,-40.792889266556045,-14.821590280711584,218.82104428086654,465.0170610998373,1129.544930805213,45.02377706538214,-42.76190799780222,104.0432746368939,1270.5225618449651,785.7751608148576,26.525721808797794,710.8903901390767,-59.510194908033064,52.09999448883418,112.57630482943215,15.914239805056342,533.0627458070527,-13.929429863704124,67.409581234893,113.0295255068503,16.233619662282976,218.2548018070633,-23.91445904285572,320.34366107051926,139.06221884478623,10.109856125190104,87.95395905694284,34.65035449485021,68.3547078808806,97.96844533838538,45.285059707553415,93.78784144317082,339.13068734482385,-13.774441973247127,26.10786065145962,105.18436796552263,-74.71969317186746,38.686917907787944,1112.206617493531,152.29584807105923,38.28086956175044,403.2827730570391,130.99849568749056,-52.76302023178143,382.4287261541944,31.21464568127472,79.57974798308503,308.7127757582204,19.734514250661217,141.0052190601792,127.94619669355912,-58.99996670811932,415.6922438616406,70.92095144661423,341.8233058292908,54.035082824009706,35.95306962224916,1234.7470740530352,28.47234660100611,67.48306694252439,78.01988490488321,100.5306835500552,192.47617385503088,102.81585274122017,-538.8902687734626,158.41733922002828,109.67702634550784,131.9727978599309,234.7375145012044,22.803732741266725,446.70782670926064,33.01404551263714,137.0654388394549,227.19732345900348,169.5083635002171,88.84240297300653,278.6887268534326,52.09165948570147,48.878511319541055,194.46976259309446,287.683876076593,144.64508341432648,113.96580505836626,142.1269280652087,191.36366237132486,-21.50202622510451,416.7411726320629,75.57447875445153,-80.96845021282714,137.9130737288904,173.368513755799,21.89482337047295,269.40397075385096,307.57041719002683,270.07318573895793,128.75141967221967,136.2894413637592,41.54542908317954,231.86862122468406,285.7089114810161,26.923322140285926,57.64206007143621,80.31183328846741,166.33704561659042,406.3235637047165,180.89846816151766,79.15563646976854,-73.54438087740252,155.27235586054638,248.7016860061699,141.7421324648964,112.53809971572093,219.79045432809247,129.1845865089225,239.08396186720879,275.1787037743125,16.741012639363074,196.85122138927983,181.01485318708131,54.45667038553836,153.60682374713403,165.93058291948176,153.24586172098577,97.50192120893051,-2.193583071768196,70.7715186931926,199.18416096028557,181.65719274370412,149.0753867581087,119.0336450690756,130.47582930551283,113.30874954664014,103.32257336509304,231.0529855910251,40.56683016458799,38.720248632141626,134.82664355520473,115.86325641071011,-86.32054331937314,198.6472484833043,-30.225264513574597,39.52081038126043,171.74173930427122,178.3462321358789,140.39548027459742,144.92917082362098,264.26217100407,83.49628967446068,175.762692109724,250.5148433863649,207.3832764275215,71.28645263360895,90.70141336220578,297.198382022377,74.60051329384957,185.7950488083808,40.8014941427821,159.44636276491377,268.96007366263115,131.8458383727499,197.21807647608384,211.19836022926827,96.04888820276871,131.30523585218984,180.490958665772,-424.0569539813214,23.792655186028263,67.36818413103708,208.04561246596097,256.0134852374522,-5.934587050416225,190.79010277861042,80.78988723046332,118.97610348579776,122.26527411970886,-69.42718876088136,40.4816418236183,37.986308893121056,-208.71300659276127,333.4348787425462,121.85535979029085,-507.2400284947473,2.2347176268767606,111.74962573990618,213.535218831825,95.89309502913974,-0.5629804273958112,-153.51756003761625,62.58534603743612,-253.97359913218352,345.05146753341296,120.0480235959029,-77.79537496562378,178.2546413823178,1.673519616045628,15.031861635953566,-138.5549359564208,-202.62856827806723,5.507124453176895,-361.6645814688007,171.03203599332318,170.287759750569,78.15613391786874,-241.22888410139635,-26.03773016304158,-208.99703339925338,109.85872722763402,-210.70009496418945,-29.557642328450523,173.7953974704421,171.72612481486863,60.579428298432056,193.45372944491453,88.19672663149375,69.06000884098664,86.78713432274964,120.12540875459389,-56.727426121630806,-22.763673782649356,133.41185611978318,-181.69020268465604,-78.88447101277534,-215.36394561902713,144.17989085305803,-129.81354837986763,-34.63633696967249,96.93113846608146,75.38654527478874,68.13381821113043,69.3660201934789,182.98895357458187,68.27000495411015,-301.69171851031376,102.50716339881073,22.032832670143346,81.37787973106853,-243.4769050428517,155.58573486635046,99.25563795951837,-31.858556880201686,196.19442135753388,44.387421537464874,-39.478649254200384,183.78723908298565,183.2635708516857,9.044930769427417,174.2604966975643,-14.278849345711631,144.3311958078995,15.50807072604215,-93.82056464193444,96.67306447946022,67.59888379246783,89.05004073821924,81.63737385963847,6.820487601954323,278.28200191490737,100.76917770054143,-111.68483316998496,175.30779082953424,-94.73194088886865,-37.095124647124614,-47.329608056257044,98.60622813781343,100.016046366883,196.07539719290358,-262.218956611294,180.14831498562666,125.11550430768791,63.252247800044366,90.17047108012957,-22.83690348913095,65.8169752749121,38.47412720959342,144.18225980789765,63.32614719107121,66.44678044638556,71.1511240268502,115.28753436147255,120.7837089299348,124.09941665517623,132.09188486314687,55.05881029936509,137.02988452854945,23.54239126299876,136.9415751385662,122.36951900823317,-34.062183663128984,114.02519407987273,47.98252491586976,-24.660143573425444,139.1633138416018,78.91870253711089,24.32037455727595,157.94840226224724,162.90519347756535,13.318697687807918,61.74249894981364,36.40018550272827,52.66198746456565,84.42772327000995,179.31774378479432,9.08399857972817,40.87881577810092,44.73837414099424,37.858821660430976,125.24664656163343,87.17768579156531,36.57991723697768,-27.986654327483333,44.60177514288217,180.84730161637697,119.88289521004914,153.9030531131398,110.63264029252664,86.43651535351022,84.0363599778459,119.92649671631246,54.81344831151945,47.22641816706785,178.9995714444365,90.66601724440308,-5.653870880538316,238.59303087485569,7.1653311966704765,-2.2360408906626157,105.50208821899204,49.95868483456965,82.50172890917442,43.489262729734904,126.46792732424626,107.31158284062866,161.517195075969,35.0110797509634,61.425378176405225,116.61023784766128,109.39640398157884,48.48474433267282,101.3011492929058,-50.74187360590786,52.34174086979672,143.21028752612318,96.07175921560729,4.7690203678950205,84.55520140005504,106.19877428493557,34.46148588163239,93.5444301470472,115.87064220483633,44.43237091025585,128.88564363147674,99.13654882984424,125.97466865476656,80.04367055498565,93.17504285509496,77.49890487754905,102.58849491747374,208.81294223659668,55.93489023840668,91.22040522726984,120.02583084434498,23.414867930942584,171.75522414741178,79.82969849355509,49.819749706470084,86.10568767443354,34.43894013083825,-352.55781482945696,61.93557645070879,104.33637515204943,-2.60761239121873,97.32111198765705,56.435204946909224,203.48123175590896,160.33955354788813,50.0622565919243,117.64766582707227,171.5540339486181,76.18106800762617,248.8438611919674,190.55552349287768,74.1706346093043,110.16267672386698,209.25616969074187,185.26810462152162,141.8497759168887,231.79630423600858,119.8451210673892,110.89469574758283,322.18228573663936,52.3327330321982,146.4329961745616,206.077484182468,119.13771510113342,58.664937446070354,144.10985555416275,183.3464594174213,9.961461941708505,278.92552241084684,151.22058284842163,72.27395504163924,159.76025630513126,149.73113096461927,-55.864924939316055,42.187191344712375,208.9486502592721,72.41665631880785,223.8768798959825,230.20630060217889,121.22684253304452,-68.23735254972185,80.60644060840588,267.6193107154426,169.13467496554827,184.11136874883258,174.29002531276555,142.19790389312067,78.35740903317401,143.20093366048582,-4.932834077844044,166.1411752724833,171.47214597671982,144.51898839135416,119.18218291590432,139.24295848410333,-50.309978221377456,132.9783070503648,13.803164931833235,76.39856083739923,25.86352680591229,37.750490054508376,134.7386915014865,12.387919148159954,148.26323966522042,93.67269840110423,157.420948534231,206.23467499449075,230.16353861281107,116.53685190095914,136.29725363689747,126.04570361589789,102.80889106546951,206.77077522679284,86.23368077245009,4.9561416027396525,195.39466298850658,56.65145350525458,11.071039768617661,221.25076822989098,165.83853967687872,6.538685406552213,142.00432317122522,140.65152622720757,119.17424001053692,36.97542915939083,180.14815472124457,135.7306504434477,90.07799885972281,220.42453439148483,62.54354888444485,23.340620320185806,202.2283461062859,70.16658063537307,199.90198114138656,132.41342192793772,56.475121041697264,104.05770216510086,188.03763633455793,-325.3304249034685,-87.48828083973957,92.53397815109221,104.21247650496014,292.0320034851944,-164.78378751980264,181.658874102997,118.78101406084218,148.83088304842533,181.7525188427269,211.519680418458,21.77853758860079,247.6811834480991,128.90492854467507,72.91106699252038,162.84501910081045,234.52817249720826,187.32293303217307,-52.74930324854771,191.59217834041775,270.58960363371017,-71.07779816086253,272.0722270118938,-107.14313450042184,-17.67957288523327,-12.941867822977724,173.09471471319304,-84.40570631193172,78.77553123580601,196.03017105260545,69.35233184386492,216.86459130770768,192.0076059728583,129.14491516729817,204.78966464998808,283.16906027742715,-104.7525762378843,137.80816485362317,306.63481052979523,260.4600164022059,214.61389918524077,202.75210032831689,121.02020129764615,-18.72395190159825,136.7424767719028,138.31787242879415,75.42232270412511,181.78118636125166,99.4315726448751,74.53138123898441,232.87065734556492,254.60767778941226,35.91272765690505,156.7256398067521,176.4292177418104,171.22495692651657,90.68299248021492,-15.05117760948106,-27.50227058263569,46.52465907567881,5.25919001095106,-164.68985305879653,204.0884803556828,185.04709087220434,138.53840244829223,-132.20612334610374,-150.95815285772662,59.21764409198329,196.2028235938997,311.23638185325086,100.98967947888086,-84.96034647993702,219.27717536903378,-91.58442579535993,15.761874168228575,333.78607613285976,109.92270305742949,-60.86146180474042,243.47940091719394,201.67029372666724,130.9399340716327,413.9717308322625,173.8218463765818,113.21644284854212,173.2224478975371,41.16007760047489,178.34583533044307,-95.37368666266222,38.03129732548404,350.2853437395535,-48.92239711043599,31.534055855637934,75.95897291462127,-36.73064950912609,215.90458460269278,-99.84409453413758,-269.1846031921334,87.19250218031173,12.8220249567009,151.88172882930567,428.61500698608813,-316.6283915098495,72.69725026910213,99.55233217858844,127.1397039191044,208.4248416097514,-20.26842999724915,303.0751206135506,-174.9854411307181,94.26704326991438,290.16012473056486,240.7264230100004,10.122409359671199,132.80099589634975,333.0203307914058,44.31506581304597,177.0175809381925,252.64456403172088,112.38910718143038,26.490106609975264,58.5518826455145,199.10759398661216,-29.005204896095627,451.7427733792917,69.80206397105125,-7.716690925653244,99.9720973320133,122.21102610893269,4.861306217906329,215.5343945341109,271.56591255123027,30.174780162767494,35.846199439923524,149.7100947056017,39.54673515079658,320.9897484551342,567.0747354570808,26.128087127810325,20.292404713679787,29.767647982004735,99.85649324838748,447.4361240829285,208.89239782333837,-74.26965194030734,-18.089271533046347,20.85389955668687,217.2244587230904,114.7790046853025,47.02271454430551,276.9241015666449,18.892986483346878,313.80139502660387,120.76936989407506,76.80731298600207,179.48543165311543,111.08874378849652,121.07527916451515,124.72614333624908,96.70758024761273,185.5841405628075,288.8074145797619,149.06689010640287,145.135062896578,128.0517080625141,53.536871270672705,226.80588448427324,86.12883833070586,126.240575319844,179.794048470211,38.6016028162779,256.8025620504701,320.6055476429501,115.05773748719693,117.98656187574345,25.56595742055476,166.95149156350536,442.50632666244843,-10.382773208718225,11.365973219307135,180.34055980364164,152.0019100366763,65.83700954214626,213.20922862286173,178.4171315722778,-42.34425973933121,340.2191896988123,46.36123817187919,110.03403376542701,102.50565089361926,98.21446388515794,409.1995023463926,97.62457174360746,97.42059467851404,37.801223583377805,100.85793324656889,335.78968547567683,-51.22670593583527,96.48644058763689,252.2467196943757,241.37055880714186,170.70561262109348,112.0137624605168,-440.3534605271555,259.6889611251662,138.41098254860336,59.22349708226503,130.53451837102253,74.46580543891808,192.13366699991502,165.83061051197572,146.7863574614906,132.62835840776822,160.25414088474216,97.33062147363283,340.78318453563173,248.35027449961498,72.02418615225967,145.50914165565456,186.08452007407323,118.29204392495407,73.99649859894248,185.76429930449294,92.20134270721516,-37.370635643930626,268.75684916348337,135.56373490506212,23.932469710985917,68.51451194076783,153.4561098544963,-72.00306957772261,225.54701737545773,112.84663808397156,72.13185157590166,207.11646007873856,163.22672965728552,51.018747402348005,205.79613301490687,182.8465504205491,35.42555229715856,130.02700514666074,278.54802890182066,59.64156660624267,273.82338025671146,257.57198777278035,181.025899477126,-19.18570129804562,193.5292621515174,259.7959445304242,110.80885194003184,198.67108066694385,145.69271580031753,137.61028907909406,327.9841555643588,183.60986182015256,105.7341063315862,191.42034696535316,217.4610366975367,178.876537411642,227.92795745293174,172.76631214896557,14.931767950904987,150.78919723319143,195.48734111293805,156.45874286651187,128.77874871882543,181.00956754709878,149.5601916928746,166.3716119642262,83.87922018537907,131.59978250281344,214.31434318258914,208.59261258982417,229.33699381011579,150.14620182786462,195.25638538124952,186.15508956632613,38.82902201212807,290.39738250529115,97.18173769236866,85.82431790230054,126.21504422575862,224.02116511959483,19.132666578940942,164.70183626934602,128.02438894597478,-16.957318986179185,226.8059639372433,71.06853069812982,192.80261102026782,112.0816087716395,123.05916838956011,177.4494151196823,146.42153074693127,343.0906528212715,92.8371809400976,107.2111164300685,179.2569304446375,62.45317046551418,204.52727810916548,242.41483520112476,-27.8815762844953,-16.199928753987237,-131.99344835690678,-233.22719805588963,84.53644879432292,102.00144953909364,-811.2009774992862,188.03020805965298,-19.039136894992087,127.56949937786716,42.715436135308764,-290.2133611189212,94.43858781712217,116.0123908469185,42.953549287524964,148.98663602876823,159.2016844752679,143.91912594565,43.970473419427535,92.66260320994263,174.6764072499288,43.32847938057431,231.17374199423708,94.47512230076475,644.1223386565767,202.78764949272494,-7.5637627755222,-71.67418919585107,-99.5712170468918,48.31707034292284,81.72047976211866,-327.1793043263995,-238.85954963195178,146.54326392358612,83.91593442570411,174.90859250061794,48.160589668240576,-66.09621047634168,-283.4417786790964,-3.6457632655323033,103.38613844271926,186.72644201112388,231.07302661836306,160.36058435525757,23.443178970635874,94.71406562216443,103.16929480105681,6.377267130225638,-19.289582746383807,77.88774117161213,103.22929292976596,136.20212423314197,26.035513937688183,69.59422142395073,120.36742963628059,47.71736287109816,124.88009492542758,-165.60769279551494,107.29402354309008,52.83397173877655,114.46675888003267,98.94207118416863,252.60190387786972,-78.51525765296492,32.380859578128984,-285.7995262927902,-6.960781644067198,102.25979188542563,-233.8409209650995,95.78935591717014,93.63071188193227,361.1738982907735,145.8466605942034,-32.05853049894646,5.584338887082081,74.31591892587772,131.62968446675384,-144.30258785778884,121.92451450262284,44.89817474792816,210.67242574442875,27.692865953540583,124.54895882673648,258.57408497655763,177.29800742867837,76.6816505363353,38.488976568118055,69.79979921606088,133.89147955219963,94.06501436700616,18.09238233915751,86.4509255680509,83.715252217701,-406.0400045098754,87.43075479459249,71.37858632016909,26.662799343301117,93.6807878225698,-9.429173678723892,-229.61924533271068,5.745059152427488,322.93456156584693,134.417664115484,303.86004280608574,-243.99092930904038,37.66296560884313,52.179215212213,31.57416938137589,55.54296833357434,-84.84395022922044,44.60274883901079,20.726953643199174,64.68957476506365,47.81419389048868,13.440603087811375,5.164594238640236,13.051401812179561,20.303904679644216,74.01363460930531,6.039653428669448,25.321704139084364,43.444664088327094,-15.58258929632952,-18.166315088086858,46.59827978562164,-27.963748269113207,54.788292161431684,12.029870690225032,-14.732383491152959,55.878417074196655,33.26319342422549,23.21876642015866,58.579617061558274,5.932334646681081,-8.585729834339553,-0.030813567552666038,-11.004979997562284,44.92393282878164,15.983697865725498,70.97916479305017,3.4364656448358564,36.96726769504352,12.884279091265583,39.17226618338844,43.00000650431253,64.8179763184099,7.54242232515345,-21.676764556462803,7.550383179279137,7.41170320132795,40.39850624642443,12.211523703880562,66.68433487406296,16.28241700248057,-20.407259015196193,37.972186659013545,2.3303166906064643,-24.910775569683462,15.206104499433563,52.079687017898664,6.746292363888157,50.398926056179924,-26.793763147841574,10.038917781451993,-1.6273233678497685,16.911215622816908,-39.40238657399266,65.37372087118877,40.77654958882718,41.78622401803809,-3.5997666159963835,-64.75508043325846,43.45163848660987,5.4948818180218435,-16.27056741682301,22.815939007185214,5.3583404669222165,-80.20717944788458,44.215173390709424,17.299379188831118,-36.54344326256349,-22.73713049277158,33.78322495480063,-24.839612162775918,-9.168057932815673,20.05479201991367,-20.01144996569931,-29.661208761878907,-9.816306961990078,26.940271100129472,36.79061995881651,-5.785266868125124,-32.636803931426876,19.92680828304552,-6.0332986120348275,20.988438581277205,20.783196810854832,53.37482827626436,36.43349672278799,-47.58125310988758,-84.88789318994739,32.826360105216146,25.988026345969942,45.24247361494709,70.70989658695926,-176.54253517195855,217.71014696177494,131.88357407118835,29.33974774596517,179.03651201108096,36.83501502107749,225.45776926713737,100.10251158114093,154.70612107263773,195.23736147451734,191.055117989266,113.28137489213935,293.3864375399716,172.58238206229228,109.7403818224954,206.3301677999111,169.61928628664387,135.6287683026356,95.97332427830904,239.22713861746175,185.6061056426769,-21.349655787211198,224.68651501715235,46.42030688054585,54.814651441693044,240.40687796182837,131.79222164552735,-66.79127553040095,277.81949258489436,304.54126077158764,95.40323170874176,176.60348290528393,144.02490527603214,50.40331991404352,194.71422982093387,256.3921695366521,40.504446492246274,181.38814280083054,146.94561977000015,83.27119309524578,221.46364320166072,214.33261544677012,127.46345674789887,-88.0321250424651,234.08532282507494,173.9132619308819,174.21273241541886,156.5413173075299,103.10403456060948,38.628856778135784,261.38757054143474,208.1916678641611,88.14193537434755,255.5202831451295,193.04358108371935,162.85033517797723,131.79971761683154,189.2559905617542,82.57941028242882,137.5481721624092,287.3056148261547,214.79896499022047,139.58062289144243,172.77590291985686,181.92810108170215,215.805252115501,235.09608419922233,117.2557776304622,69.1761297869927,245.43805364797583,150.24228350604477,152.37335929707524,219.3973210991701,237.75736936879184,82.99541001293973,281.80591220934366,203.11721559813404,94.4465884902293,298.9040862902601,150.59987319669014,121.40031869161987,248.76504346802142,108.78951722079542,113.74736790888588,214.2887267237951,113.02555538738942,143.09208774589288,129.34832694601124,175.8192138335419,212.58969108159835,240.95895666037958,255.18993893506973,139.56162972984532,85.6980653548547,230.58611356913914,96.81111857465277,214.54647830028503,258.28220443232937,47.69055859834933,70.0461296607512,169.33037389635197,-516.1158671188449,88.05384256415235,27.900704271710165,39.68765655877318,64.26797195134726,66.20763277565578,243.2704394483049,66.09886434063223,71.63191727584719,128.65839776364314,179.46194531190662,96.53468251533266,70.28941588118099,135.96414346367945,-69.42634434501663,166.67918051868205,241.3759021676756,94.61012636423852,63.67294761952571,-610.0372286784323,-212.53050065135727,44.307194549808294,196.89622724282634,56.645409865943236,-67.69883093964991,159.22024110928277,101.98481109610708,-49.107193845920904,195.61246382549402,-799.9270540585655,83.15287767839644,172.91260428942732,156.3281721325113,37.083570282564274,133.93905739139785,149.61829870717006,46.35208534249636,110.4317890872252,81.16253271590763,71.21314506019316,202.44397100580787,20.351237443675906,145.5408755034701,-183.87630252760462,146.2600551823743,102.91490067007655,127.41049987411313,62.5737670518352,139.8855198055008,83.33261155566989,106.9361602882902,117.62956437499388,-10.08480013209072,183.13404384655036,130.55559094884597,157.77053213236184,117.84526755884026,87.31298130209981,155.9499659539464,97.26364054868118,170.13994146857135,99.30970737304646,129.064702448102,153.51172135875666,-160.76448221841088,22.829079819655625,-150.43336792960378,77.56915871694886,102.47193016151769,162.59410183950902,71.47230107841506,53.5463810536466,-77.30550157254292,71.31608405851898,-32.26191834034618,238.2728447822721,77.3419115685049,-3.2161541973697005,67.21097669395046,112.3331814923167,-52.41038752970455,207.41538337236173,93.91165008446455,20.294678276174626,-51.05788971181671,102.00869967958306,146.67176971478148,85.14793422679976,-562.8550002676981,63.75626433147651,182.82838661977698,167.35375636832285,128.24901446387594,44.868077438736954,112.15569778964952,48.59238014087861,102.89505568029148,153.20114694159483,49.88901173238157,117.50590783446424,-2.621899041029014,-272.0530344528819,37.84222758483472,73.60370113044314,23.852494810652647,93.10673239737432,-30.980190210664656,238.91250049096723,16.594778960099028,-79.89023495734638,-47.02147318875807,118.62251809805758,89.1137716799497,137.93069639276592,120.97502145206371,-302.5941608156012,111.22700206828016,193.88516894338056,135.6636315053703,63.98430126247073,102.69553837103638,161.22356870855356,-6.812574916618934,195.4223583457715,47.56456175856308,87.69254545507867,-47.54566411168889,106.1423437021078,41.647191677900224,191.42902916662524,183.9233702662533,95.33152627216603,196.9180005392669,53.45143831958286,44.96836268181249,142.34707841785524,65.50466914678682,7.998146396542753,19.670081948574012,44.16984459399296,154.34722512112282,-21.153485801284077,153.070894560459,68.08959835888854,12.153997091053844,46.90275137243423,142.2242677605625,77.58787957537679,92.13165561942253,89.51543761743083,-80.44397074428325,99.78693098079194,91.90900202608763,19.743563138434176,148.4102663357844,105.39664625493643,99.59374093642757,53.4168594479496,118.90608239829518,-114.62178816645446,-10.197997703042214,107.04760274129904,70.19253202975095,123.79355116686202,157.12320768129166,74.07514150470126,111.47289353582191,139.9161444600842,67.69039067195139,119.11600511158895,151.92825754322013,-13.553112465956003,86.14873026694413,-142.14528584559676,-6.380031852461973,43.459771351430106,35.19828460362415,112.13901242361733,-3.4587931323926657,-167.9743076558764,60.947868651275215,-130.63482491173176,42.17122111828721,158.22879675289013,12.311601290897245,73.37990160987506,245.44482141346677,175.75097782958318,35.896840022420555,56.251537195488176,-44.911654365189236,103.94118501943225,109.70511409691814,64.53971015523025,95.7684656934866,109.2940027574393,116.43230739221184,70.60666457937057,74.31953252159293,50.62165697379849,128.07612988856886,-225.36823672467494,-236.4222323795477,-11.008994125826032,48.416812971327495,62.25216751695145,82.53881357719582,-8.734346825945073,99.83223889864931,-22.13963677403088,11.758548520949358,82.06905942679292,26.118505608879797,-11.793876128206795,38.121982244286144,-8.245252602479715,59.25524877033275,28.6372457225844,22.6058801907698,-42.57908361812484,22.20798071560694,35.422921052111384,79.6570371123169,22.53411497115732,127.11526592174194,35.24705765057586,78.9246194258335,129.82597130476134,39.570553039795534,0.8251165497138067,25.13884726279684,120.80528524626892,-57.10731235969529,-68.29624336846472,-11.937424120180692,22.97960825862444,-42.74003073241013,100.46387868570471,-14.435826057190257,-33.585693396696435,-39.11373089321557,-6.806797538193591,53.591867334656875,162.6544539203571,-6.832244345733797,-52.604881036291545,44.45436173681118,-0.2486865502082839,-33.70501042314895,43.94654079459258,62.19093649004772,75.25273962768881,-43.739577331325656,-5.7184295938378975,-38.166409228593565,4.940189630089992,31.571221771395738,7.500019748911659,59.43883792851084,29.957984617146145,6.854088408823337,4.976311516335238,26.165805959716955,-109.5253945949072,26.97071462690501,-10.113029154484348,36.50437348356325,21.76375408126512,8.647998677044502,7.6454404514516865,1.7517370230703215,114.07725624784793,-51.62869977188442,3.377253216913985,35.441168257813544,-42.69103856173687,20.984541994982198,15.296052609226534,-84.4595583279069,43.154389544780365,46.10831536583775,12.988552989249923,43.82926321738676,57.15769563869892,-64.12646979585831,7.21160983916076,26.665127926471804,39.03860941258597,72.00389277883943,43.45102133734983,12.504863668928657,33.57690428204129,29.903351604033578,-8.171973080836562,81.90134225470024,63.00115589882462,33.878050923930225,-79.48194505341331,51.13966236290018,36.735933595866435,-18.00356988231578,21.940754856425976,-12.08523873782411,-168.5839785034297,157.98102765481804,42.887395018886956,62.079245910491224,117.35110878497068,-53.89483870299776,216.35286887361036,143.6160270299346,93.6665003936262,173.52919503316537,94.31752987775718,42.06898502110271,170.7968122934057,148.0519933123129,101.76359897494308,104.04358327582308,123.28718325153797,186.55152286363864,143.1545152165456,36.1272207337974,153.56861245950464,118.18066877243136,194.22593721930505,33.54967998564317,-84.09769645085609,147.57236213256914,117.42091661682483,38.5846189330935,175.4352003400035,90.8113898482848,50.789559429268095,113.1195181566891,69.5048121277999,-19.643215666825302,141.02286724413725,162.1320086850816,65.65891670783667,98.30882228696812,119.79678160875487,101.22145200812685,104.55047413895237,89.87994682979769,61.699799800939026,-50.254932747800716,136.38506892157938,141.313126857991,149.60683045767692,208.61218751503716,134.20069804701723,52.51411581542748,127.46286425872374,159.12377040120845,27.197297215974523,-108.622672335636,100.08636117785801,171.81914377981332,114.69618277620343,147.49270165607746,-32.26426073344059,56.062495199226404,53.02315669068702,132.02718344237223,12.641341555070504,119.71038650793496,79.73569423840166,226.9736390541346,235.33105703772677,115.2243100500217,155.74384699396757,127.7624863139236,228.23584061614363,84.71860234628191,157.95848206024368,108.58827951597347,27.009979579265792,223.90086939055655,128.4583067390306,158.5276218820396,81.53833436570541,134.43034347208894,33.73439958140409,107.82063921383455,150.66791881158616,-37.336215785739306,86.03447591146907,111.56872056788357,174.49207114088946,65.6987529493953,56.37114383517455,99.83463369792328,82.12427437417938,197.44323627247672,149.68393596999158,56.24428622729216,163.5195821682411,105.91879040883005,149.21283203468,46.48683882280816,93.05331336093688,146.12215333735884,-83.74155482291869,-296.35156600353133,202.94984646335627,81.89378165681157,-134.8202006816482,78.42274575103121,0.5652198207252079,24.638499872995858,-27.459048219399495,-102.21933668690241,101.1873489623016,32.52872872807456,86.25047118287907,160.62735652662838,77.05448255616484,69.97337620840487,48.545020775081056,137.4940831382045,117.7991883082769,35.84257483747656,70.00398510636711,35.542959579784956,71.41711645264633,83.56635748625503,-12.05615813631574,-51.92899806030186,108.85274784717305,0.7561192844693131,106.3865494456731,-73.41184175488785,33.410017857044586,-12.31466857091361,66.4980951820207,41.78358441117672,1.5229158401234653,87.26730423676065,-62.55596703214195,-169.9556375434409,14.387689548644492,17.80874023492826,59.08210788534976,96.77430105884851,13.731096046167709,14.053948434424957,-51.80269408701373,105.89435789823732,93.857217371578,-18.353400894346112,114.7216493995733,64.71780642764861,82.75032362484482,61.8365580671275,91.7230535382886,86.17593505884187,50.08438484976093,-21.31886119460803,-2.317799082145104,-14.469172838464903,100.91737587717034,62.61612039245118,111.62947707332621,-395.48092339714805,77.52197485854808,-27.33183641335632,-238.13963895513797,36.72706449737029,-94.55407275207767,25.156143601051227,10.460314223186018,43.309195543462465,-3.4412543384969894,164.02958592634644,5.622331476177116,9.45705180153902,35.31842308009528,78.1375692478349,78.36489516846572,15.241401298912415,-3.2470149854522,103.23916456584115,43.13042287234584,91.2085720176696,23.475515045321213,-6.218285483309736,77.38207139619138,97.72771508265932,28.530595239480412,150.4031617550103,53.14848400313489,94.76052694058177,39.735336657679795,-156.87946198876435,133.903139813172,-30.272012083195307,-78.32290152055273,61.85248479461204,-52.24596920661822,0.5835444155413565,62.2696471762608,10.317482798721253,31.64863388858431,8.382180159799303,-419.43162675334025,195.35457143026045,23.886067775682065,52.66848468137982,127.04223259263091,-4.508073161778068,424.6911874548629,207.7868432748308,123.14909476175099,199.862354947218,171.84590105295376,84.89033895220344,326.5763526236995,228.44687150991487,172.41455157851638,196.96395263802745,244.58386023634392,142.53916775593092,141.76184503978357,160.10951300115377,211.81063020560705,4.353187737343912,291.29697015878696,67.26762674156056,54.14393545177215,253.04438080774628,166.15985597321077,-9.428504079323211,296.54026765973845,191.2224903425095,19.612248859318907,324.0737231374446,179.20002443370888,59.844098065623164,185.96654893727506,260.8677192240657,-10.808199122990818,152.26479162709842,171.6915526656926,81.09455197272581,244.79925489449397,379.4743831388645,118.07007145473581,-90.8446288463318,222.96815060532222,211.91255326563714,177.31699749666853,221.81884136687916,154.59708436033506,155.95698576244837,200.32387438793015,238.9237083665101,75.06319274423936,218.172888982428,167.177526702404,186.91372169368,287.7606808205832,185.9851847096926,-28.64159923097189,146.1348472157016,