encog,BasicNetwork,java,3.0.1,1,1330650826190
[BASIC]
[BASIC:PARAMS]
[BASIC:NETWORK]
beginTraining=0
connectionLimit=0
contextTargetOffset=0,0,0
contextTargetSize=0,0,0
endTraining=2
hasContext=f
inputCount=3
layerCounts=2,7,4
layerFeedCounts=1,6,3
layerContextCount=0,0,0
layerIndex=0,2,9
output=0,1,0,0,0,0,0,0,1,0,0,0,1
outputCount=1
weightIndex=0,7,31
weights=0.12680870784689402,0.6169013129726566,0.21866785361865468,0.7337672521179021,0.29095727255230963,0.6181156026086394,0.8030826014824226,-1.305347493801981,-0.04163623307574518,0.5608801505783455,-108.68294418066446,-0.06834843685560738,0.5494492343305476,1.8523887381046742,1.8487461953430064,80.86246461297662,-74.42250062997832,-89.34935669262475,-258.49619862393325,-1.1399281179869256,0.9039222397599331,-5.114970048696967,1.1890439253269458,-1.8759485854524298,3.676974735513787,-3.8128729529722305,1.7492870287496238,0.27778156868624704,-0.551534553570342,0.9575483592520018,-26.07960652135265
biasActivation=1,1,1
[BASIC:ACTIVATION]
"ActivationSigmoid"
"ActivationSigmoid"
"ActivationSigmoid"
