encog,BasicNetwork,java,3.0.1,1,1328577044436
[BASIC]
[BASIC:PARAMS]
[BASIC:NETWORK]
beginTraining=0
connectionLimit=0
contextTargetOffset=0,0,0
contextTargetSize=0,0,0
endTraining=2
hasContext=f
inputCount=128
layerCounts=2,257,129
layerFeedCounts=1,256,128
layerContextCount=0,0,0
layerIndex=0,2,259
output=0,1,0,0,0,0,0,0,0,0,0,0,0,0,0,0,0,0,0,0,0,0,0,0,0,0,0,0,0,0,0,0,0,0,0,0,0,0,0,0,0,0,0,0,0,0,0,0,0,0,0,0,0,0,0,0,0,0,0,0,0,0,0,0,0,0,0,0,0,0,0,0,0,0,0,0,0,0,0,0,0,0,0,0,0,0,0,0,0,0,0,0,0,0,0,0,0,0,0,0,0,0,0,0,0,0,0,0,0,0,0,0,0,0,0,0,0,0,0,0,0,0,0,0,0,0,0,0,0,0,0,0,0,0,0,0,0,0,0,0,0,0,0,0,0,0,0,0,0,0,0,0,0,0,0,0,0,0,0,0,0,0,0,0,0,0,0,0,0,0,0,0,0,0,0,0,0,0,0,0,0,0,0,0,0,0,0,0,0,0,0,0,0,0,0,0,0,0,0,0,0,0,0,0,0,0,0,0,0,0,0,0,0,0,0,0,0,0,0,0,0,0,0,0,0,0,0,0,0,0,0,0,0,0,0,0,0,0,0,0,0,0,0,0,0,0,0,0,0,0,0,0,0,0,0,0,0,0,1,0,0,0,0,0,0,0,0,0,0,0,0,0,0,0,0,0,0,0,0,0,0,0,0,0,0,0,0,0,0,0,0,0,0,0,0,0,0,0,0,0,0,0,0,0,0,0,0,0,0,0,0,0,0,0,0,0,0,0,0,0,0,0,0,0,0,0,0,0,0,0,0,0,0,0,0,0,0,0,0,0,0,0,0,0,0,0,0,0,0,0,0,0,0,0,0,0,0,0,0,0,0,0,0,0,0,0,0,0,0,0,0,0,0,0,0,0,0,0,0,0,0,0,0,0,0,0,0,1
outputCount=1
weightIndex=0,257,33281
weights=-0.0501010009905056,0.007120615555259849,0.011210123625940191,0.020410964828548706,-0.013758145896709303,-0.008812684549527758,-0.03985022841294797,0.012080219655033489,0.05222324042281326,0.02842244797585905,0.08013089272192811,0.03917708270868128,-0.01136208422140382,-0.00516408029102686,-0.00869168952924844,0.033990773189093354,0.007640118291253745,0.04092212937554193,0.026749787780614626,0.038418043767739135,-0.027673066822196807,0.017349791024406175,-0.012535147834739954,-0.008616087323698632,0.05450594473445855,0.025643921140295955,0.05003264852660841,-0.015823517109176732,0.03467698244803,0.0016893320945873674,-0.02803571993487533,0.014807245134096508,-0.05264825906973539,-0.0012420337177305868,0.02995866397999905,-0.04034987589848496,-0.006468160300685907,0.01035497078603223,-0.055103272970465605,-0.009489590220625538,0.03506923364746431,0.023874844306294968,-0.023210359954645668,-0.05296804915689593,-0.0022098000320248945,-0.006079182619574991,0.04006464049596423,0.00910743696263204,0.044446236534907285,-0.059168402566057716,0.030633066145760696,-0.07949197978164829,-0.032961103371183825,-0.08345094628704092,0.036542135381422175,0.014452301153305563,0.0365348103452727,-0.03377801920479767,-0.02776571822295859,0.0129634280033262,-0.0250355451989841,0.03514502392208127,-0.019350591639228476,-0.060789251689156804,-0.029608205709005523,-0.006246220117491916,0.025450984355057882,-0.03427919880707028,0.003244464659377652,-0.0732477616391499,-0.009892698474059894,0.008334895991762667,-0.024396448568785922,-0.017561985729300594,0.0134394093832855,0.05327822422272069,0.013463517772690892,-0.007938752867862484,-0.021972855909281774,-0.022516112420936457,-0.040882058816570616,0.014375800296639013,0.03043825497308797,-0.02457925089541302,0.030982372319154988,0.008398382954444547,0.014358270258358077,-0.05387139961404544,-0.005575595012223281,-0.04081664163084095,0.032448127325519854,0.038100710252203546,0.009805701246339185,-0.04912101807662908,0.03545774749420419,-0.02397141798137198,0.029406551978442802,0.01819699486184806,0.06654386941702868,-0.012659429542499476,-0.03864105900069273,0.025065022892155203,0.003195320656229947,0.0760631525862632,-0.03875243991058022,0.04149273491582009,-0.010221417494538476,0.0327947297382902,-0.012213414052150415,0.0022274400051558313,0.015312584393538373,-0.008484789505857376,0.04231423273048798,0.051133119396431254,0.02718747931172147,-0.009589539790210502,-0.012322215473965767,0.0342736302044859,0.015494497870368745,-0.008151703296003385,-0.007005407716827505,0.03504453956770173,0.0096052773349974,-0.0027762282938072753,-0.010939191596553252,-0.00661577399480974,0.028603633525855432,-0.022211884334849663,0.021067294241672696,0.03571893073215279,-0.03777969444342652,-0.0030259629180874044,-0.0009862927727708332,0.005016925463909708,0.04744610268840599,-0.06447741124966047,0.01461590824016093,-0.07739986854156317,0.03962954352696377,0.008856588181211836,-0.01737770807663419,-0.0027039897408946407,0.011773449270430045,0.053418807380475,-0.044685291249255715,0.042991904763398286,0.010246839159658697,-0.00004781990792386559,-0.06019709406038956,0.042883612487436856,0.00025250585133114456,-0.02590022440973208,-0.0007088073665636879,0.003446770386374476,-0.03433023380265196,-0.02527911299923921,-0.03968205360702612,-0.021972269011206316,-0.009771097691302341,0.00594083444512912,0.007222584435897808,-0.016310530173431523,-0.03604069313215555,-0.026202914109197672,0.06182326190209954,0.056805226714982254,-0.03174525486041488,0.07460659058437887,0.03299662076461282,0.0061335432473845625,-0.02787744098978523,-0.023409466473708174,-0.02718641124992696,0.017189966305017873,-0.009197764852553636,-0.01635828418425042,-0.01745012502903137,-0.010000697885212115,0.009884895946732489,-0.01258127922293785,-0.02237567209339833,0.0006095727023263525,-0.019125059334672456,-0.025790652798289793,-0.026621603461409793,0.005832226703153726,-0.0025720506559712276,-0.007748359578499189,0.009782904652425359,0.015930432723427035,0.010676778061179684,-0.00920792404055025,-0.025854140470838366,0.004903146823609636,0.06127971574372944,0.01423468529703445,-0.0442325693909181,0.003467804772679453,0.001753404632382466,-0.043836983501149535,-0.0029738892321471,0.03013970548635811,0.016218967271177637,-0.037730612975225036,-0.05046581196177949,0.03573534954358312,-0.003957891203752478,-0.015149984423103032,-0.052077557732564644,0.0337347369472141,-0.00000373093754675591,0.003653875956338204,0.07533506319454189,0.002704618647721077,-0.006519977862936774,-0.0047350155537512345,0.03984753030049612,-0.010248025043642306,-0.0249737903837714,0.03590939098981569,0.052618447212405245,-0.014767492394822323,0.011806670439077335,-0.006161469160878522,0.00988440120759719,0.028643851929506553,0.06409845396666493,-0.012805687324733042,-0.0008405618754946248,-0.04531754725123424,-0.09095802019574273,-0.009678076810001837,0.02243663244805541,0.031748297148960686,0.0028550134755614964,-0.00046781471728186974,-0.01577807684747659,0.04906469961473736,0.03558350682075942,0.0018268200161331988,0.0063440483620850335,-0.00601655103782002,0.06339056608911893,-0.0002758084725254101,-0.028277992533207067,-0.019166294050389554,-0.0063428179610632435,-0.007691551015676881,0.000760927618647475,0.03130259099000121,0.06262555078893058,-0.019443606053670737,0.030081073138915754,0.03883406532329084,0.022014898111177794,0.03765742115729312,-1.4566294903821666,-26.096249058948796,472.8635810082174,1045.1013134512623,290.42467448677024,937.4963716224621,227.26609406863687,214.6784011901004,287.3460613238863,28.729573807571175,-379.4058144773559,476.6518398076282,-267.65587803120644,296.2802398117245,46.256181203116405,388.70247355528033,824.230346681634,126.6262640215589,984.3970562551307,719.1764138524318,39.96200133316764,-117.038248532143,98.1486057711755,262.13566305651665,496.3700764415677,504.5959819572015,1006.3513764304641,547.4077898921381,444.41368977578406,711.8101745257858,953.1261288088122,-114.88712704510009,-26.87404300178378,-384.1593527018755,645.7752307442809,244.11195526335473,436.351225149324,337.7002992272179,-422.82000696479133,271.2177459622455,81.49924227152644,692.1357739199559,544.4128736176443,440.8396813370749,891.3246662801511,210.05731752075008,615.916964893447,11.719057402799866,178.45514280366444,578.2355758309589,69.65199506550447,512.4364502593929,562.6436288176944,177.20886338277631,453.6587469722654,-71.39306942764804,229.34861045379444,418.36209099726364,635.3508544277292,153.62756212389522,-257.2698326276476,441.07334595702605,538.3510349298822,326.67576110264247,43.96243944517191,742.1249799402934,46.64033283709293,551.5907165482195,-182.21772515471565,513.6854320137799,132.66045096750878,561.7456081892188,527.6541299620812,194.96747164639874,909.5473749921981,623.6991105261575,1039.5848706308573,248.7662537661377,-1036.1878552775804,306.24052920071466,223.50877659321273,214.55949047569268,544.2148540360645,202.72965900575875,310.4130954062955,457.5973722315339,630.269658686532,242.58620611683483,-32.71498513734397,-361.12153056730665,-22.96700803132335,-807.3618565677158,1090.8496175384355,611.9715632832439,-460.9996026071823,557.8188616422907,179.72179190696107,-155.72135415255602,415.55929703075583,592.8818876536951,292.57727380947,771.838888697568,207.03496706426964,264.263561929833,467.10729046068286,-118.9099892159283,72.28494457441263,651.609230318587,497.8694234139706,25.210122481712883,550.1601089874663,530.5624653149304,351.68815290614674,630.3536770147348,451.89516998179056,259.02504444922016,445.68665122976313,582.3516088920412,-524.691766267681,666.5603118241899,303.3885032356805,33.2910425337476,688.0871712466818,818.1546101522412,414.4193611461167,-101.40099665324357,450.314338553084,608.4171695523125,328.47557845040393,-251.68471950998747,-67.8315801487585,411.9589818727464,431.2586958356479,572.7497636485325,318.96366134645154,283.51100940604044,-141.1859079537111,374.3349581566206,124.34559568147203,-551.9876401932515,376.61340004533037,550.3677170741693,180.48426646040264,121.91375103223676,504.52456507466366,532.8642448351023,543.3059111838932,954.0140669337254,101.4148816890719,102.50369850875678,1.5529195351416778,499.51152896492385,520.9275988769316,94.53625114572063,298.4563909616135,202.83312741706456,538.4491603610534,550.1698048488674,574.5361538458205,-332.6628786851369,410.73006250758857,773.1338345113054,-56.988750194332574,349.8771223802193,558.6180109556374,575.5232289488499,550.9627503157507,157.17611054224488,427.85601143985264,140.66643552528996,446.96516311396215,366.29838950608024,447.38371800588664,219.55850502187644,23.23407663026316,212.16278143638854,458.5342416101373,73.94197790933931,451.25809350077014,347.39644823837955,-531.7593639848676,695.7555840461713,401.5667353417959,19.877955807921605,156.634020967408,252.10877752925123,293.5635703195019,228.98827000288622,605.4069960745001,666.6592727492819,332.72242606587304,494.02203236548763,637.0407184930426,318.26489411337604,371.76699115996416,305.87986502127217,-140.1061899748111,-63.684459761357715,659.1481533053599,33.28537257399152,105.49503123266972,317.0351457807119,709.4585233464416,-18.482188046886048,769.3098286465512,353.3508816837137,108.06335297896975,-203.58184963861018,-101.68492069778966,443.9609662083615,-210.34894059869117,253.01887447032652,285.1735368135152,493.1812841161722,506.2436217240557,425.88218136088227,316.4963394242275,570.3165431007033,144.3640038065489,118.99214866689051,579.1364439918361,106.8518986581797,353.3389801708286,-136.04670126477816,36.497353226191386,495.6287663484066,153.7986635387145,572.5723472145622,-82.12195706405204,326.7947533947065,410.1259295171126,334.71439980910424,189.54391946859442,218.3153110498883,89.71012312933682,93.79887309595178,737.9385624191113,354.6264334639652,705.9782291315358,195.87114162175158,539.8499558468963,398.2600664629328,75.02707152704136,-204.29565426719066,303.9376560916499,455.44930112677,852.3526982989339,706.2595340071385,465.3689429362784,418.0064829870932,320.57223749721504,33.60425418648807,489.8024690147164,281.1470615177993,137.23332757338972,243.00231690277508,697.4183335263212,299.55241188849294,-1374.2157022564772,506.90562575912435,-84.77080897941251,202.68302457802167,260.3686241633588,-82.78766416722718,-373.79355119209237,350.0837625247676,422.6501192960072,-125.64589200327238,73.69265622144265,270.49921806421946,458.05492396932846,217.01573395442728,84.68012844100069,301.43005783337094,1641.514545294354,461.3272608485617,374.1476454257014,439.7326211379369,-491.7456081282342,-151.94005058941275,336.63977528609917,1060.6279377564817,515.4392703328359,586.0241465988445,733.4084773040108,769.8375926261695,584.2307899876979,604.3314857004091,231.23164533355407,222.5444771527307,621.3205571642254,38.324503032489325,-166.40000494909927,423.8941493145176,672.2008761909595,742.11542790593,-328.83659202243535,571.5905180180794,684.2443833646751,133.29299970960503,327.3536670806079,404.1824348728003,368.34338815515656,430.46960500524517,473.38186904737256,560.0777514661457,261.1933247182829,523.9860810540738,169.5120108103449,300.3985514337515,753.9585254573095,596.8738433412952,454.96204046501833,-471.2094132856914,737.8463793697855,672.2871867813128,255.99716649558607,1204.4103746196995,1170.3262038724986,-141.03119684867198,288.50801116417387,326.8363422339554,654.7805714985417,622.8611803968535,48.06473884022068,362.3821363400746,638.6540179288448,664.4137256054097,331.36137902852926,1292.729529742155,-329.6401793014208,301.5305675887708,434.37117177567586,785.2698112780257,453.6909304123933,154.5653019789308,97.52503946405541,441.93325682317084,111.7338237468145,337.43998069890944,632.7370879838567,-294.6107868859867,580.2105207801604,566.6026973315049,-9.366236066419903,622.773891268605,53.995031377204526,-84.83160501001142,171.782996717932,319.7456187786466,744.165397375574,748.0881322667749,-177.97231071436858,95.41729358841667,22.213504305570275,865.1645428514631,455.95816287366137,125.73516353903874,123.08524780288052,696.7427857344816,1062.2421135207744,307.67120110198465,296.22593622434044,-47.36302667516738,195.75622657901127,937.6816826895766,-102.81388763862587,771.8886646999241,-871.3042860709966,249.5312464924039,-166.3753706180131,1031.458802816951,479.6465924210742,392.0096127887886,-218.60129433057486,874.7004661585548,350.73267786456245,418.1965729741458,503.3346190200483,340.9215902586967,-696.7650012068824,544.1614399709042,180.5844559200831,-2.7340462938776904,-119.53732191067496,299.8974371301922,276.89325179956137,-1094.6565159799984,86.01857956843254,-326.62236272555026,405.91936435584546,-238.72045566938695,-23.65565609441635,234.82580703048546,234.3228043571633,-181.4127529581004,-205.521002373313,481.98034429236105,343.78872228516383,-226.31081711723124,219.99465917486842,-293.1448009682747,-618.6606747140689,421.1307448893569,174.3605707365373,-89.12207554425457,205.0686565515486,-266.3356779072926,-127.69005132882538,117.55501811499632,280.74884712249354,370.2056921952429,77.63268251057248,-404.8509196128769,-138.51197024993672,694.0766814124352,342.54136782620253,-673.2467787838477,448.1251079887797,-850.7514317281266,-477.43892613095517,390.6179121306819,320.6097094680726,56.56079737128452,815.8981252396667,242.94722208461923,136.5415925346846,534.0351017886238,-266.1749036517351,682.7902828615678,-168.30135022254092,716.3029643747313,-389.79451947743013,-445.82891454433536,10.389483157190872,25.44563225706188,-115.72035852599497,667.1446822074056,179.08172989853347,-197.4917939539149,84.41862257851372,609.9017484056917,-526.358047760828,182.39186731167135,-143.609146307976,-512.9292538325751,375.60402849874396,-981.1900807869309,-616.0917101087875,0.8834577215182307,-149.44281656723177,-169.26910629125862,-74.36705769239295,-150.14575050166857,224.38105285211282,-13.090442644913846,-359.0255964927473,-237.23769124076364,310.5529712467223,119.8404514334661,38.09719706242895,101.23458650303438,120.45718213417071,27.44908528730472,573.2203966172148,389.7556150115874,331.40488990183076,-736.5300772214686,991.3797031103618,308.93825912842317,400.0896156991034,14.236693588366368,-126.36826668692227,33.23421429895231,-163.07896104508347,34.62837080212477,360.92363799708966,-13.53974193819005,421.2075917502365,443.4702775367978,-43.48528787239253,389.34963799669214,416.8959123272708,519.9927615358307,478.27072667478194,111.21188397514844,181.61407058480086,413.7167661053071,-235.58547671789324,572.3353017865223,481.36893535848446,320.8535651472001,368.57620132079415,301.83908615445984,406.73527068002574,466.52401553252844,-38.85734144915717,363.5703383308298,424.8055441151791,2.1306044612434567,579.5431456914154,177.88258009712177,175.7111240427149,-264.0482368596365,362.54648315964494,-275.0596955197025,-80.52797451693715,702.6514417019323,-172.65572036385936,-345.7477766374631,398.98697355790927,242.67605089218603,-158.71906483496463,-542.8303920137884,936.1898587125413,-692.2133798331357,-627.0836545127448,510.61463519755273,622.6249254235233,-258.8425972502753,99.9207383292567,36.99917193847703,-275.1707334443145,720.1986469991668,269.99380408431387,207.5764297641489,-131.39636160199223,400.9203029186616,-15.216865502834722,58.69744685685666,151.90710577611614,1109.9601773350116,777.2367437649028,347.2379334340691,209.306679092333,379.18927101535667,648.466161886055,116.82226939734426,120.90120184285534,498.58203705967554,711.3798883427289,126.73025239433193,-478.1479012154147,213.936302132376,310.5994447173746,93.81946363377895,204.29197545085944,119.0923867174646,565.2567187773786,1126.2316734438837,654.7189201913633,170.00905809825804,596.1990894470587,273.6126761243748,212.5620103109407,134.25725618558877,481.3874369661118,186.89733187600223,-107.95028614717533,334.3498992015702,202.616026423072,370.3664078374927,809.2682028207089,-527.678573920399,373.58768738645864,660.1267151922706,-44.118233264849295,779.8209745307095,366.72853949940554,33.39534113618712,714.3207428643808,405.16486121575406,379.8885164010024,-101.32025422804738,148.3573870686783,356.17292447472886,58.96247422246996,-599.6932522536654,462.5808178369199,594.5750259346618,128.93532755868716,684.2526847451585,-129.85664795165565,834.1133722325964,-32.814922935905344,455.14471079609757,1148.4321628445775,195.76429438208154,261.4718393773504,-479.2607194669057,439.5123999735998,-614.5857200927093,60.44464773879332,-185.7394530535102,-246.49473726023444,116.57653642092528,447.5768285424032,624.904256048867,193.816182913524,512.1153649530438,745.1893691987242,5.780778187938498,197.10259180580044,501.80294468210974,20.50258175408906,-329.8770543265691,513.9612841387054,450.4035725246008,482.8673444025887,424.77347959846816,-71.07476781754758,75.40886800177024,1205.247254251106,-24.73279423135615,596.3298132676881,560.6907999193901,419.48075266470886,425.8166962801042,657.8235682392512,574.6278336748205,200.99049371714932,-180.98071444941104,297.9254777805537,193.93281531134897,210.07880893450525,457.36540178583306,668.0047656267543,242.4557781058216,-209.14855400745108,486.82736807875176,-117.42629007685929,-277.34646024039586,282.40500722278074,73.32882893642879,331.87806059365914,297.00982375321905,215.1726086635246,237.83409789653803,306.6828693336464,618.7984199364656,974.7555031417462,261.68556543835615,1146.568113243008,627.1271551378064,25.498429654765037,-264.3302514110206,199.98969383992159,538.6684854887844,-180.01832655797608,85.798964623372,23.812238817073567,-48.86885182829069,509.4777764576327,56.47637053584782,257.2974778423143,527.0022965574441,156.50130176689146,308.2032323268888,964.2339379577646,602.3047896176445,109.7619277348,835.5759619305802,625.3394452590494,281.31909624824635,246.23790121631225,-174.81911238437726,213.74821419577643,-308.83014102905395,25.03975445044425,283.91017473451706,172.68001424873165,905.6384147154522,426.83940538558346,668.7201920077396,836.369983070146,756.371501160186,133.1557245099486,811.8262312736416,983.6403313245967,475.322728076888,347.16560236235534,187.98849043469897,606.108238940481,485.9890775823393,961.2232771804222,753.890825378365,-42.21624572226098,86.48868249127271,589.5519983837204,679.3049787165214,337.65150609684554,771.4032821580414,-152.72515507129452,565.1408738742559,393.2424537528275,45.094483085886466,173.86518078997045,456.90136049425786,265.31923018400124,-445.665298278758,468.80455520908106,309.3100026019502,322.0048001970545,890.9412262302283,871.2480694700017,255.48768992076708,683.9455530493594,-64.53645601029882,484.42459390041006,-496.65887929077036,97.54252563839859,905.734798943122,-535.3466723098065,82.68206185474385,762.4470651857436,243.07662725241454,452.52656598950654,871.6354531052591,-677.3294416382327,309.58253167056887,459.965192916781,567.4084226679608,-55.93095222266612,1005.5032476665034,785.1555565370846,400.86957417171476,1451.892339003062,-201.0879315443096,550.4649582820468,534.8777164860418,331.6618368149674,4.593896988980787,660.8795623693923,-258.2386859708008,846.3128793547852,-22.01964501260267,-431.7394144912135,629.5988747055969,540.5342020216679,-586.723465183367,630.5267313084867,262.46509348362,377.7314060004461,662.423162766357,214.61875931116776,167.8271797483973,56.998171284455445,900.1317989534341,119.08309051785102,282.0846254344816,-142.42890115596958,549.8248503240428,435.2020150116581,940.8479841190717,777.401731477558,133.07656288215298,-439.2212850680642,1320.33034808564,946.4760052286036,-217.63933759703338,-303.6464301307879,586.0300133697883,458.7290270942924,135.56341770541667,489.3832577609977,-250.0629577426164,-319.6906513275525,427.37289949219974,301.63633484042924,333.76887517890174,-73.54824395695394,160.97753983170313,615.6607982606524,423.45506039673023,-347.2883326120475,640.7303403121008,200.50724642749856,-129.5685904336996,182.9900290959029,-292.80792474370173,362.2479137469146,409.4786320749978,485.4404948219062,-253.34625715464975,367.59542415514625,-363.0826668540326,-1029.7196264670683,771.1311766754308,134.64185172585215,-289.3756562302643,13.972572757490633,298.3772671736685,84.57450772276532,-582.0242776252257,-525.7935708732117,-113.8278818717558,1006.7044751142648,172.59763758788603,478.98893570983176,554.8979268971018,214.46781435276705,519.6855866771879,1192.5452389160887,87.6201708235057,912.4915335771317,106.50037511047422,1101.5132085546677,243.8229173501992,772.367587142919,418.249026408618,548.3437450480541,450.3157531896674,545.0730802819404,406.62403831744945,123.77575826892436,11.133699520693183,662.3702675665108,170.37300490580094,460.34238506228945,252.30839245462465,281.88260578013376,146.86504573339272,837.0853483791283,548.5849762320937,357.2540172648708,591.0541309137221,598.3517351443976,128.31072111503792,481.90108261181734,1199.6788225371583,-637.9286835302731,271.64885125981436,273.8503926724343,28.22843569642868,-18.665932605747003,-363.64032892890634,-175.4471258516447,227.34380438668765,-9.64099447381457,185.72871951566015,473.46437696115663,505.70715257916686,-378.3367269712146,15.370753780375619,-296.98197799275965,1234.7840735892414,290.93105184550495,-511.95964444853115,82.16317067709413,-274.31401670972724,137.92789678329567,396.4995852947487,-2.05083931104287,163.73141619308947,591.6837345405523,1130.540958365681,19.045815281515356,193.58905006592616,531.9091456267894,428.2271444485004,405.0076136322274,769.0167772450792,122.19244202414492,49.916352821701295,-278.1376055843741,614.0911928599427,36.612745951305634,44.48868951582036,-254.1532532900386,415.59625289655145,374.13980017945124,607.0791565768427,548.7989855203914,407.13566026150676,-56.444148652566874,629.1801575171343,835.5298788764164,385.9358560188001,227.06537810026992,38.453829350384744,-22.420557947285946,584.1656126374154,303.8388909020786,229.85566050745228,40.69146000044601,461.5226843499511,875.4497982868313,1138.1415233715586,748.0449569784544,-87.58190550950889,75.28261477127926,617.8036133893904,490.62566047208554,-413.87197298053854,-430.78128348463133,217.63922202091402,50.00445087914432,169.09634896963965,448.533185929438,29.018139203148515,144.10801696201423,654.4444740596323,12.409140404213618,-294.59200207192396,689.8625885525458,703.7396729177116,-13.925671608494701,68.11370467402963,93.09262865318527,491.05866980782315,837.1706931960259,244.90454593870163,41.3766469235769,-190.1007855165718,321.62693709638467,-47.45480883664669,595.9852220475656,286.4797177085637,772.3047012446676,460.4586779347238,1018.7197680282324,359.4819457987845,628.792580308921,675.7678309587728,23.115977567529487,260.3189830073889,817.0576834602587,516.6406913436444,636.4418467147026,511.7889852462613,605.2095927657252,644.574004528907,393.85610943672384,652.5642990787919,419.5906811903669,661.3179147716083,18.171232943679737,598.157528157151,875.4775134402222,565.5319097928013,839.0615383781131,170.83175512190383,835.7627858547216,1247.880674808893,528.8331452022186,578.7978744209652,523.3373406103822,586.8589430317833,254.3015927104226,460.78313225556843,623.9747604039669,105.04371202260457,804.4945142083224,245.7501378297646,1139.3194888749267,526.229397209115,734.1690114737112,502.36126087552503,632.511159700341,204.0427077712976,87.96472803879384,476.74888300087815,313.62839426844647,407.832439684051,216.76801403090656,379.22232842307,513.6461965451336,167.50627081335588,645.8676604364225,82.65910598188599,-6.2918038385511155,304.7686886397239,495.1952809354842,1000.1630031193708,790.7085620000785,557.8514668075062,297.41883553959224,884.3795457025027,375.93236258153445,94.99885744155489,126.59110417121632,609.0530006342304,604.9420264308816,335.60127496953356,887.1497819096955,757.6361255749625,273.04460811225545,-108.66268851364909,737.133637585103,475.6011724438081,441.36589513959296,393.2449702291036,3.5338172608937577,498.2724916737945,255.12788960902128,715.5268584305713,988.1043626780416,44.32687633682669,340.53399364436285,609.1059943853721,483.3745405960093,685.9014816713742,376.9480091790443,305.04883068933685,751.9140088891305,647.7715930647742,670.0352180721309,324.0876343357052,-13.820603739955043,68.92356249070671,616.1899869382196,247.88499087590284,1049.2562228138036,390.6895432978824,514.1198047768949,426.8219022558803,702.4726862003004,503.6986682248103,544.6727759278111,711.1731810581283,960.8539456770524,667.0574333834919,286.2220095487363,805.0031600257099,81.5741220274188,550.0457695526679,619.5496917764874,453.33619678550104,70.60017421364176,487.3047759608175,674.1748208017297,466.74589325836035,-907.3990503291863,105.1372266063058,-239.4088310228121,508.47144187621205,319.38485776263417,76.56739075592374,330.72176310406167,-182.98544081221794,11.786548777095977,677.39932897954,-12.312051099383032,357.61569228632527,772.7283963220113,995.9440028824572,4.372313119580919,-566.2690136234964,728.8644075551998,408.32504515861444,-247.41240188160742,-1080.8374680552763,-6.770670689150762,-316.19554428134956,40.88861728115756,413.33893555366154,725.0804716423734,371.47295172131436,537.6769715607489,228.36618204762604,-227.51205984611713,-212.82177271520936,407.2063489919627,-237.19705013763283,84.46345796165355,409.31146644859,270.54049472097256,603.2701292574526,261.25436227139187,556.1139535193513,-62.534280822727055,261.7861835383583,215.84586187827486,625.2684839213782,60.73772652299947,156.6377922072641,626.1759570281165,-53.6080439203898,499.5103144787425,-187.6050631859816,-935.7772047966565,1108.2048723634218,273.17766470045814,152.52308302222875,577.0813885931481,107.56153760187333,664.979576395454,344.6751445249198,395.23509876318934,448.89082569521304,-129.13946631174127,308.5149951257496,-519.5837486542551,-191.86119705581638,340.1785970828252,314.2634209273491,85.47625204330144,374.61728511251414,6.117510288315393,355.8613412921576,104.99785079978724,-74.941551320746,-491.1011173372092,845.0942376997258,-32.932642121022866,-18.30231405155763,487.94998931619097,737.5029819796812,-149.02299710045145,194.48039136940295,-640.7182746191124,342.9862910355795,169.81940294006736,-1170.3909845414742,941.0545147173493,21.45047198167008,93.34268034539187,832.8635378935828,506.3058983413764,455.12087317251786,337.0339360911729,-392.45706440582603,-130.78380641490077,302.3833818934631,131.95812543576403,-111.7895187940425,-3.3344315858315428,-409.8447974062929,-3.061584548973415,382.4203137214321,248.42580276340524,374.8714081730904,184.6340348445599,335.1484971722767,140.49167778064538,438.7864981998677,-447.1628891427726,-118.3732805042105,395.42589960450243,487.3478418693282,307.553654993381,814.7013128253691,13.9304677319815,494.36075744681125,-173.06946007576389,876.7034163262755,20.706421849257435,193.51357319958987,-126.90979812045238,187.89602532991228,740.5892865699637,689.8725705992194,204.97578755917291,-115.49767098084324,-638.3213617136399,460.4519682208532,271.82064418104505,-128.63418113927167,425.0010520264056,423.2785913898586,256.99471754353516,-422.2200263746417,363.16882223022196,303.2249329825043,267.49447181438467,333.50570235947356,563.6993920093809,-309.8953329593785,51.35512853590919,-222.56467841955106,-47.13611314646447,156.23569990487744,-171.23742113417637,69.19618967807229,294.55748760396665,484.18948696159197,244.2827667742952,619.2730899446456,702.7561948128237,127.31111442900361,918.7881112372494,185.40746883151456,426.3108823758368,37.072878416738064,959.1602368510588,72.33149670256611,170.11735930700513,285.20859521964877,380.524087756306,372.6569057940309,442.08571464796165,245.30516345555688,89.76630567809411,340.004973436447,-393.90902889916697,201.24006092243542,598.4860602744319,371.3657948583678,700.5506198479275,955.6776562024988,446.0778630572779,304.25526980414685,-48.23938647421045,330.6400629342679,472.3229455565103,473.2297667058836,221.15001855757984,476.09773493633304,692.0047190476882,20.408738922636278,240.561050318109,393.7448418672296,743.1458313330136,428.2323479272627,306.65129000203905,309.9713462726433,551.2133809601994,250.97833489971924,366.5226940881293,457.4951379025036,151.70059574017722,331.6123671187138,212.82031945877193,253.03033722817887,550.2219662611252,93.74996477528396,-26.185854674198175,-25.045436079100128,401.2358028889727,232.63528630473175,897.84173601652,270.3386037725924,187.07346639769364,251.2549643960851,324.09534448701953,195.72427735301267,380.64253493967544,-59.83477063686158,14.758530101457954,314.24172431821916,720.8137753919189,144.1353849641627,389.01609305535794,520.5820772914989,241.34863878153595,477.7886944161403,-141.58856173818114,66.0161081101288,431.2941894904118,542.5388277960407,-47.7603680354998,-144.64749011829048,-406.60526244214225,649.3378427862473,478.69082522273175,-98.28584851490294,987.6540686176547,353.72069000084286,493.11570439911094,359.4216708466422,227.2227015019115,420.51802120895155,384.0646745103526,861.7533165165222,278.0904958818438,533.7717433959876,-508.36701349998725,-24.143593126133055,168.44445508209714,56.259489039008,291.4221829188341,314.0856034483657,365.60266624418847,372.5908249531742,399.1306033621267,13.659654728783522,508.00925105290685,192.90409042166362,1483.8135392297665,272.4644226498564,285.69584828661567,149.9616213501377,444.4585787228065,289.3082839484643,517.2204007342211,89.96536233968693,348.1077634204684,-122.99052727424612,576.4879964240488,338.35911467710287,-822.8582273829359,552.0840905798441,565.2152291802893,561.1549137482896,284.8240914746539,412.53354436684884,-22.84226913371322,462.9486078473559,-203.33104910579388,4.375849521272463,70.68155320435007,555.8188011840014,-1143.5521001432662,-103.83292176224741,522.9358401756816,-654.0505982462337,1193.890830401738,74.18166704390129,291.15577993775463,939.3896644222054,564.3238645608455,270.22160013062035,-14.552662870470517,263.8988349122248,383.0974285484334,240.26896755184183,479.53779548575125,-178.55142551015197,680.3998837450705,401.094465641492,174.5655912013138,-374.633542490287,211.74595201093388,59.719527820208484,238.8590749669611,-687.9563507098732,198.90574230728515,351.74132804825797,759.367611406192,-10.346494356509558,-321.16415991892524,73.42582691887469,589.4339538671019,659.9970395192419,177.1019707902617,220.87214502821047,659.9061966754718,-295.8648630718807,459.8843958567522,579.0685140206733,-27.325661407524002,676.7270089507972,125.57799734801642,297.4754450402923,598.1876949771738,-231.59004632530548,-261.7706825535545,-110.3602691475799,-243.98731474201242,200.80034512608503,-252.94261724963073,388.75141301638706,1086.9689622834132,354.27098799799586,-407.16080443810705,162.20187596759195,551.8554723123762,666.3498750438281,413.0914322699778,605.2417166183994,19.32540918462639,1098.3467255403689,787.0232082794499,-993.4993993241593,648.4708782075712,369.12864794217137,-313.69366944904965,65.79782790069088,-138.9770389656492,412.28714168298995,161.0645013219034,933.7371456799006,367.0167522090431,387.3891126520096,27.883019546939888,171.58246322176734,202.34047083925932,564.2663490394451,-34.85898654788659,-524.6037445497253,-550.5103752220356,-188.12197240516656,642.7897551060548,374.34727813510284,-450.07469396767146,741.3444404143289,550.477773440503,14.103053258823518,473.93042625515125,-52.2863151548446,594.4746309346093,743.5363958147569,163.25175369310944,255.63864360018954,642.6321687168937,-224.4858612597162,579.9049465381487,258.7696845638167,1345.029822859561,-158.52068384997315,673.841860026789,163.19528841923767,657.1380889984327,183.45780322905398,39.106284355601545,205.2964654725394,219.82473817956063,825.9428689298611,-759.8073829874243,1470.0440342464397,349.23316759007,1135.638409011338,7.779169637889856,657.4625360207322,969.2019096945179,384.1285798461695,59.222565915609195,459.952469184092,395.7892092329545,-457.5360436793335,412.103718569396,-58.653875252675796,-162.7927050619552,249.52191824109553,520.4109062520896,151.3222415513075,255.2401341697578,-597.4010819806666,226.6665753217961,41.230570599250626,223.12392542408548,473.52977183906336,772.5065310291551,746.2679530401655,35.42923399505906,651.9591940153001,267.8356734348928,-171.16844478828162,457.2001231756831,-174.90774037994095,-385.36788486161396,558.4860858247358,259.748205129178,936.6163570599925,225.8967632987742,86.24617119217845,263.86872114242243,108.27322532397685,183.07648086336425,202.80107399988376,-474.24738887593605,297.2957348883815,170.3651836446816,493.8688323125476,386.8145753204783,56.666701363989034,177.84781610740785,-45.011310851585165,440.42318207962086,802.8600889940781,325.80980977426924,-103.90980211779085,26.666798770794202,310.30057291570955,154.90367666580252,556.1989349314723,654.4235148293623,242.82455877698789,480.2756227872298,1041.7040839980236,318.8119884288433,328.7082659229532,179.55127911759323,493.7548078084728,891.2391447719148,1081.3575775910908,562.2467362036356,227.66200724963042,-408.4731309189803,643.9434094807303,-105.6190779313486,-156.28520690047466,28.043750321394807,205.7025808841127,805.9051567857715,426.33372924871327,472.53069768045845,160.66241284263717,832.4794123195181,-376.77854595580146,404.98209274641255,-278.4265167076147,-424.9579498689727,693.0735834263312,225.9232911088087,1512.5678769898793,547.5402320371647,96.23497641230246,517.0834909051237,754.7577349638727,-76.916362121785,145.20656232573143,-110.91223547371906,994.4345947578187,111.03817002348742,300.11979403081233,346.7069378750321,-436.8422784489649,391.59751915252616,243.9296076314348,-330.7850650758107,344.11794054316806,52.5548843295987,-117.71114181987491,78.53312654063139,330.52176509972077,144.26749077165954,24.409783165199784,891.0998836768968,-311.7061777236325,25.05872073475041,239.37259749748304,548.7171712520225,-161.16576474519417,36.11104136910372,0.4554661504109959,488.0300585766215,334.870683771347,1259.1868128200988,144.8227641003481,199.95476056595592,811.5586593018844,335.2913203495917,368.4302190058553,-334.13966427125985,484.1335476886258,148.05365743598767,583.9672039286609,-386.4401718042348,-611.6927688967388,445.3823398501236,662.1627966760817,418.02279807734146,-107.15740264999489,152.25388228448946,738.2867979831511,282.83780426912654,21.277557259362382,-815.8750149725337,416.6068602742469,754.7324188475685,1037.8702170284746,-120.517793829401,672.5392570662523,-160.66646027636276,382.7361137061345,-206.5109491762174,-206.07470995091987,613.2174053164835,87.3446323702237,-372.8819242992172,322.22058199958474,847.1321980745961,329.3722989000345,1225.8918010155896,171.90877135336518,32.40121028760183,-44.346042540211435,-131.66845078063545,-161.386405652708,-314.5346058304779,248.72957992840145,27.622556345313953,402.034143969525,169.14368980222997,-230.93733616044943,492.5782521277235,1082.3146424634442,327.2615524231559,789.8022023554557,-25.91048843569438,169.19913032708826,977.1807389644922,792.3401778414757,619.5074827745077,-479.5789694558398,1165.330458699721,763.7095099784458,454.34130943049706,137.16620840380995,375.34379679237577,294.81139804308447,725.6450916312815,743.0149900231223,814.4019986568989,912.7757167871604,330.6226630525451,754.7202417454345,-131.45523604735595,108.7818277277041,346.9829438816194,158.83406224232237,162.6245187700724,210.35724884408452,608.6639475300235,551.1536784652595,158.81429882209505,41.26289966146852,1015.6950853401527,1064.728708396763,1406.3464823704423,-16.081683878054154,-150.91763512487108,-88.82393399720391,882.2978019396757,585.3637981925303,997.0788025451832,1429.01380894746,585.2949210436693,706.1274163807359,488.3590176876434,-126.18008055890499,571.3188050333704,347.3700688258707,375.5295271544484,12.5247791108743,150.00763420843748,1090.8958147535782,535.9283785039372,1052.3433914454222,-164.08454000417262,904.1874781379289,1501.6557377804713,437.62598010706375,-49.03202381527206,239.61541403209935,-1038.9310715369165,165.77810464703126,354.7177531622451,207.82256704790706,1158.4369757684797,1460.629052040155,-483.38262789021104,1059.4911536916013,1010.0951319847582,695.4937798576045,478.9413672863718,523.3055048621395,342.27523408051064,585.3109634387052,518.8779248164004,286.83399506187453,-540.5240606250132,-678.2340888982366,-241.01891487619702,52.02440189134598,1542.5475936321534,733.276956717396,822.2528369124241,163.06492548513927,526.8376329682707,190.56515891730646,-193.82239094875484,-131.5058216484787,306.71856237530636,736.6748938244577,820.9443792211146,209.87544687056078,-299.40438399649037,132.26855769466238,116.96250715756378,1265.0458422519746,922.5432481124237,322.6184935997766,347.604381591825,1080.0886861997196,383.676480241593,-568.8582595935508,-382.465366231032,-37.44518227509557,-446.0352919534826,-279.05291574679194,-88.59568782203748,-52.28206590182707,126.12139443576167,16.27388273549669,-26.807935902571643,124.81829230258687,46.118217534579664,138.09980557525466,-394.0982275059282,20.050547037449597,-80.71911815663768,-927.8380119669398,-101.99871595103177,37.98766716874416,-246.34165849046695,573.8870257085988,497.50505280851263,-17.861023138609937,-266.4657779366342,-75.01386394827597,-131.86772572532897,-317.6596526225625,-231.4330385470829,-28.225518040646165,16.552622056381576,-551.898274893309,-700.764597423634,-227.49191904330857,42.17057403520553,-61.15464307908572,-135.70678710124747,163.42477758799623,-588.0295210671446,-304.27470269495996,162.4477523520647,-441.1028781720775,-200.53116179464064,31.81502618677731,253.43094488611564,-357.6360057955538,-466.2255234738024,-44.98407994993482,-164.69094756820328,41.09082821566364,-255.3108931089496,123.1332653626201,-138.6292597144274,195.55379097675763,-20.811110241517447,185.52711098865169,-46.108791178001006,110.62048072716419,54.96146612723339,-261.4781836313741,-335.9422585508229,86.19455464236314,-40.78323171706631,-51.82660945818216,-135.40262180759638,346.9459427253334,82.72308330556152,329.5576426237959,396.65705799088886,385.43995231497,0.42349776985641197,231.04140055471106,-343.2509203545248,-91.14858434346209,-418.5756989440365,227.71934165349515,-190.49056447233548,0.4825471154682112,131.07361177930267,-300.7597209576998,-220.13687751253136,-203.3260007606249,-329.54230935383384,425.91652432983454,-460.83564458793643,251.78012922062933,24.034569135537446,395.57454387388606,-272.51162697453884,-292.3595344672831,269.2905409395077,220.36066484841837,-101.55434660527617,-445.47617535079024,-179.65129493418468,348.4262968156961,-303.73936525381697,445.2327096954688,-58.64820175097635,-22.552788196116836,22.017952454832262,-296.46108391144975,682.772106557093,-6.193410159598252,53.23123857930294,-163.84950410947494,254.76354783515524,75.85816592822539,-11.211758589507266,-325.98631439920484,-915.0862578162432,-209.96930132271018,-196.90284494776995,160.50855984845776,-45.31374511109367,-60.57177107738857,-44.46125715347496,-221.9892814695361,-246.77798350131619,-57.09526989110691,51.40741189996267,117.94257270351152,23.52821871970089,-355.54883670074673,-141.20855258883662,-50.51688902751538,-252.69965799983407,-17.591457862626505,-6.47785394067755,127.21354341622077,-2597.4386425750163,914.2853719762808,753.9769743291951,468.5450409873398,151.55731954104687,-42.417135701194454,436.56288787350223,875.8203097331685,184.01848907668213,222.76532799905087,0.9124011787556789,146.94828013546135,650.1384828162587,241.99699877354442,2.804881320413059,626.066057484847,268.1108872690109,188.8713122538033,75.66051651866896,279.4682082607471,415.29547171471455,-554.2510679262911,-22.527984056149982,547.2784871886257,620.9022813178291,685.4847593635274,445.5639052990201,448.6763035607965,885.9499988071345,488.9932509191978,344.09426374400226,81.17529489665806,812.4352175189229,276.831723883975,224.25903365369393,-62.40667940241246,745.3163290267904,650.6515140204352,239.02518680083955,740.513945354059,921.1077437851463,285.7928910262646,802.1155665643469,344.0565402701934,782.1281965305277,407.4083500432613,131.60408966781378,666.9729143454072,55.3434053984688,675.7257559795735,449.7560779559051,424.3399053654998,658.2297729743468,347.5669930595024,763.5733792904567,445.9075582760771,-259.2057348591069,414.27611973717893,-3.9161952495084895,558.5329289640143,759.8192020285228,118.7596858635098,609.9717363000485,254.63086442590557,6.494253855033943,535.6259668720821,-423.03155714546386,490.8307872407435,361.5079573769621,495.06741135893105,844.508574384342,878.0127536111552,-303.40360113881127,-459.5219761556148,810.619079638975,268.5493750961976,211.37334072014326,484.9532184853431,-22.090477377473857,414.38044861863494,527.3870389300276,440.97974096862976,-121.46243380799113,236.92538816605904,896.3259569785984,-80.08953642541249,462.85504486376766,373.7672402761188,165.61327273256944,-467.7525863787411,103.24825477307954,420.9447008833963,483.8558841448242,-242.23351531201487,127.65878380959603,234.61188079158484,585.8827546849976,1155.822416874861,716.29837224464,54.616278308261656,-230.22682997504486,566.8407062531245,855.5224115440369,632.2063675098797,781.7137947035721,-178.7490545866077,-398.4125359807587,752.903161781488,205.6852603170075,495.68962130505696,495.18810129193713,672.4388111062459,316.453182240401,959.8631541150359,205.90820101016158,115.35980738717032,343.0173891116084,856.9307639545876,483.12147081294694,591.2543160064471,342.06530208618244,767.5531340946479,426.33433979972284,786.2880436311365,385.3638573507563,-29.790898740668446,1080.161783534798,926.7916547350151,-487.4803413290648,-365.41348003256434,506.69559388589016,490.71445429926194,615.9684225728511,336.4256701806931,931.0699907450472,223.53383841589437,327.8745909722306,29.927279412835663,142.70179748374747,-118.67330968210467,-116.98563069420825,-351.35140954524365,364.64123936690373,292.03597282882083,309.8584486022758,306.23186802753855,383.16305107577745,110.80443857776362,1768.520346646607,325.88792875370245,-4.2078356750900685,315.80944015660015,737.0474607567359,95.65249133353912,613.6006969413573,446.6114652934706,-149.0732459332296,70.63574772621394,151.95672456679543,423.17801281845954,-57.383214087435924,313.4125627253165,6.356391447386495,351.147027478479,-435.6552525584977,322.80560264507824,464.2039901668979,449.42454270753615,263.7342974880149,348.7877762514404,41.35534012828265,419.0355709965983,558.0468577558173,207.6148118152462,31.07476738807066,622.642692654136,342.3915573090021,-205.74568213186558,530.1565685500602,398.0971857520531,-103.79562658523035,387.80527569735244,596.3291067188497,188.19092134243584,-456.8053345094564,762.4418188637709,231.85433040184176,322.69501493367375,-380.15958981914156,407.34863709979595,142.97576191440928,587.2302290591441,502.52258128607497,-0.7632120388566587,224.87234730713337,612.1165009066484,300.6866337597404,204.18014655685838,321.01824523493025,600.8975970999045,265.9450684128865,417.7033480200652,-48.67679115031529,302.3115207822708,721.2940663011691,45.893560063410845,-386.2776397697497,-499.82936456430235,360.68957328751816,217.337115826177,254.57685141768613,338.7936018677609,401.54082316013637,292.7159891503277,486.43683662092735,332.3196965738517,243.61573338960451,276.8385843609879,90.38009178964737,321.399123062555,-117.77474722466278,1127.399382534641,-160.43918082261823,220.09918984113614,416.8419660224813,498.69415463731985,152.62294721482175,458.1208612643104,-16.348583483410955,-16.336305184938443,146.19199341439372,166.95293010915,224.34043316210804,-89.13915896277936,122.28255211415123,-272.3030438191204,142.48468034092087,382.1341431895361,-288.72511298022107,464.5395999544594,212.08454525243573,21.24519079112428,371.2889325870699,546.018981616853,28.017468598295018,508.81593966833333,55.442054681696675,312.2253953907939,608.0019724954302,-95.1674228789139,423.1408984919457,398.3885096858714,451.9950205329995,239.69838100212593,-163.33792730086202,1065.2910487483966,397.6010380915066,62.62767569962558,-1024.6020877483993,116.69624163636836,783.1756238405627,-124.94643069976418,628.6425765672702,145.18628346175657,484.3563111787141,602.4053875782553,254.41390220675714,250.59390392384458,-47.48663544843376,393.62220268432685,368.0393773552288,838.0507934060042,638.6844343167645,437.4835912435703,-51.49574510420809,1106.086693758135,726.1026344247247,698.1923359772743,357.103337305841,-230.46452897646986,439.69859021868297,720.9119293614257,636.96807943701,440.681122794197,526.8306811116513,608.9365650151193,58.81199199429838,646.3747353524026,884.4555935871409,381.9364727037674,-41.71249212839941,87.63547930522314,644.4259373222754,228.698093018164,492.0261244208906,803.9705269683351,460.8585337500019,572.0191108643756,-55.11068348296935,133.0816653084282,637.5739968669377,1187.90114481421,634.4229959561309,580.1391454878324,735.8242551104556,-18.757135278281513,563.72825331944,472.7931208143718,990.4285781704161,1174.3644149126192,853.2916037516409,857.8022700894973,247.16824595377886,47.492072817234245,138.53411983166288,705.4493823228129,288.7755185293647,326.5935455240531,-312.9941368341407,1591.4428285182885,991.8334695341002,1108.7149871222055,264.00403115118064,-285.96680601088536,128.13542999263186,488.97411707989863,485.5994436885139,41.26439476809525,392.3148542557805,359.02585968410256,660.4844470250812,110.14185764848484,190.35356511797812,543.8028763742482,328.1991142126347,281.5455320075435,152.55219287064628,340.65967605551776,264.28356721031304,737.5129924355556,418.734413024963,656.0082007779253,530.823851850144,754.3443086544188,472.5915319481546,119.40049477727698,315.24973537655046,-157.56046908947974,468.5367839805022,320.1173246612125,1010.4672248500293,597.989187205689,-122.25777702328875,402.5173086456792,269.11969495658883,-331.49652293217844,-87.54078574615794,468.8101233486397,97.38816247437349,115.0858073271073,935.2512915612715,489.83626162155565,418.08548329264835,396.5930952324298,430.7684262568051,29.93920283551719,990.1936616403094,30.609871760545047,715.6696466873761,539.0192073858082,437.17003547021864,1225.9846495448005,44.182611305190015,621.6465127184289,593.539191404275,1012.7287629876655,770.8164185509795,326.9627234581522,900.987642270888,667.409740197008,309.23189524353893,517.1468526783627,574.5587723052905,-104.75692842196287,216.5228091182309,335.4083734524465,75.86021902343614,-1262.5761538509832,481.3814757637062,488.3964383643836,435.1559930990242,-211.80371709615176,-13.84542126163226,55.75740732223244,-167.49994344149798,235.37559326121345,-116.60924684535762,288.91556382406463,702.4927585525257,344.6388869282548,62.82439421490733,-24.206457687091664,700.6075107305414,793.5769975669475,159.72886376995828,-81.15155916722875,-311.1022235764305,-6.9534191450914955,224.87667407908015,126.53455364827833,558.4696076890161,517.3425065677947,613.6179424100465,-35.33905667017021,355.74362316546495,364.7198461136431,393.5465604925874,829.4874709135188,194.7009303815726,277.7526734969917,-255.33314997936782,253.57757686730662,205.0127461947235,639.6245600137113,321.74026162513536,61.05862368226093,509.21733719945104,799.8861292692377,335.82883678435337,664.5729530934236,598.9696440913023,265.67667400691886,499.87372786305286,925.4304147610991,362.8943778848583,-515.9327006409463,414.7112007108469,107.6597847254982,411.25957492049224,913.9044933981576,356.5009759661188,1005.8835086909531,-388.91541881166256,87.29462629246935,741.5144344272529,-158.26735134398447,-293.3533514629535,259.1595133123902,117.98362454595865,504.3592574123328,301.63633954803,671.7517183048358,334.93987924885306,104.1555352959405,790.6019226055937,-22.381155939004422,695.8858560646147,270.7027382974825,389.17735212768883,571.4081823707537,-693.6828154495046,782.5138657812156,431.03603722663223,177.58532903464942,56.254720539478484,-108.3106170076555,68.0915779144757,162.24462214182185,94.48944675393491,593.1131496123334,407.63491762521153,221.10484094258322,1246.9041838505486,-185.15612283922673,341.44518341131067,351.9579686197905,-203.633525125302,489.3618268558745,644.1173888329317,494.14848666683395,594.0856224055854,-51.93866538567,-268.47645807987084,682.9696611692896,654.6932125642377,224.5686523351257,-86.14573175772628,-497.02206038341416,1180.2003482680434,53.63868654863497,603.6850805300558,186.04052293603525,166.21039899065607,-681.2105056829921,17.496716688943813,-6.563521209599434,501.59553831507435,195.59589076188556,479.8728911602667,311.54150408734375,454.6714019986314,321.50096807338,407.68988491738156,264.62085634182296,754.423341279044,159.1521462023094,735.8441380170639,901.5553589353284,338.56286751765373,141.2579964216734,1496.6728043098647,247.85458833707406,-144.72418759779617,1171.3663676876706,298.1970629315544,242.1128223257782,-730.3557960152762,316.166955663782,765.30317541076,-417.06381121239224,215.56590130582114,1104.164272377423,-99.06688513986036,588.8051839140098,-351.56277485440756,235.99823279755518,4.14292874247621,338.3734626042086,334.24201658903195,438.10267604824077,346.8546143931348,286.39159921562725,438.7571425396152,674.5270049672176,-1065.0726626381409,639.6699210575598,540.0703965880037,-103.09391035789399,459.5687929327767,705.4497386207269,356.7118836567616,336.11086830948926,454.8992787669534,463.249517803283,542.4356626435946,883.5745805107572,600.9103690510892,456.4336359303882,7.085813976172072,261.40869032912883,753.2862668343082,843.5014991289769,447.92693699841266,986.4763671565817,1070.329684412219,971.8369409176516,431.1689608374179,325.79043291515865,566.7613110267112,494.1150141822622,875.7665301880654,387.18923268455154,655.7660064372924,531.8175206716476,102.18927602952508,546.0478381419429,547.3260454919431,914.226873933863,461.5254109554902,931.5364295789665,251.0139913166971,1376.8656170396325,168.7209630338615,981.4459882852394,-136.19367522320576,260.219685780135,603.1808386110285,194.94268923761618,62.110933777201026,772.2687257319078,475.8848752759833,526.4333593833743,-267.8031929608406,925.7325334361567,431.7339406415187,1518.8038891998992,733.6400280431029,837.3381641871297,769.0625568603115,144.52592315583388,-97.04517739495347,504.16922923048133,127.52073591319905,845.6804201676822,321.73866830918905,484.13516009565615,882.2839686166698,448.86222533699737,4.541464994071639,-360.19782673543625,521.4373735148051,146.01770772254181,539.9014460185366,581.7378329319131,70.59371100203684,699.6089630839904,380.1260335141104,383.5084214869156,692.4041989449507,684.9562848915374,-170.3618544241536,975.8000544031541,334.87085370890935,864.3477935015195,230.07135616757526,-312.04322376339934,362.5532553764758,245.45823664124845,904.085562509341,754.6787659966965,131.617051616688,-21.796953201594995,195.7954714931711,768.6264457140567,1023.3023308582151,111.74214076788219,858.8841035882842,-483.0042148799128,703.1643018123776,1288.2825165416716,199.51354969943338,-625.4474235036828,-150.46550515969028,1559.705780284077,1588.9444205454486,703.9480594600799,521.4382057403219,574.9043241902796,973.6088605038775,521.3712570402267,81.43515188582701,19.80978710616465,-220.35063157489728,983.5771975276833,244.473085899416,-1387.7129783091211,87.5051126946464,-250.26514528247458,-34.005355967279286,399.86208985253296,250.87333006647603,329.82106816705283,43.68536282382047,53.28045919571399,141.11346518210044,38.40727161914843,625.2848169662474,44.374851346851585,731.0613500639317,137.2543081940464,654.7628529093432,166.581315308752,-17.01311994925127,241.58255643443252,659.8609591921911,-822.2526354179115,-77.42264877716572,494.6031905513694,729.7032108744372,423.2231169795133,168.31245846435476,570.9939446135703,371.5341109640122,642.7180185195816,172.2394894784965,491.1036664442536,163.93691592199818,155.03270634964994,100.05783871202922,139.1313193996006,368.5076926383397,330.9059975310918,742.6198628136792,54.95723573472044,270.4420779329609,658.806681380417,30.639703649762893,190.3224962290856,-296.2729744527203,542.9381883016493,-91.99429896506449,293.7696838785253,-374.5689238740821,119.91661211386747,292.3384575816624,446.90162768632007,261.8556310028171,420.0243599837011,114.64511377542546,342.4029496637314,-177.53740796530366,665.1941612801121,269.8979699614127,-82.19395188846028,579.2853311317041,72.18645703342702,487.1450816482768,149.22163547509885,472.2275540942507,-69.8300637173588,372.24788494757917,372.00748778537366,320.6824748973219,-255.65893432223024,519.3010370741416,448.37310532167527,624.4843255400627,377.56380698014726,226.78809198440933,695.5102334783417,87.77236722161967,-117.10804402904797,16.027482471805598,-117.95315855782412,124.54937467509762,316.0814432617576,405.0153715222417,-340.3523136385988,554.4741468616186,69.77844063008759,581.7558743956831,706.4390937174518,315.6164237483797,341.8456645772067,455.25059802776576,-100.71049114237964,144.17623391729035,477.9052965643167,393.7156067864485,333.1438374010683,-104.93756713624292,654.1392490798723,85.58382619103166,377.3292300159067,148.68998770583607,163.59590466168524,-170.99208824105227,182.27874722325734,638.8583787066075,17.86489566676675,725.7804841173091,1043.5892119506632,1054.0072662810794,313.63760105028365,436.19562449554934,386.2020063643786,255.04816096178217,339.25527514234886,604.3899301968347,270.0617201431145,144.86454570165773,388.10032347537714,-315.29302048141824,-338.2279219522625,260.86294274586083,-45.74186344336638,353.4440435767689,370.7411862645538,140.62467592740882,1057.9265186096827,-206.332391538188,245.28116969191498,59.078365919385284,224.17016734616323,-674.9076786641006,620.8620701894472,804.4088899967094,312.9937921930231,403.66305274790807,331.2128708040752,519.5410631888785,494.59013666828105,-107.73572052470386,709.0872942158511,155.19842483528828,405.78311420003575,354.3110687782046,655.4235150265791,219.79724336082964,-436.0218327568166,580.5591981802563,571.1705608630598,475.69079301049203,331.48793847086426,104.67502628563142,-78.4585413446762,184.5376989622616,493.48835589724695,355.83400260796424,489.09216782928473,330.44209275646,657.0305964398606,341.5683076264324,1003.0709281244601,329.47077273102724,13.050182196639408,216.67546386868028,443.5787623567737,257.98206832939405,240.15570603957786,542.1598345856886,351.1610624487978,-85.03108883402153,583.2410383792632,1002.0428883597399,643.0536064006577,569.7813984655586,616.6584105150257,701.9569466547554,223.14439336872096,324.12048539630035,211.8926786548197,506.77560761604565,1058.393084282464,539.993570019154,424.91379618457626,398.9381709109247,342.51710789351745,635.9329461655302,459.709010547741,-46.72174563400046,156.75696129274422,222.71422991642868,102.8813443326802,1032.4326582583685,180.41525698340973,532.862408354038,794.7419718690041,79.58643260426717,514.4049037020592,-552.6070265286188,579.374339893241,185.86263478600978,411.5022921478099,539.7651505088163,363.983308722953,508.9279026917423,-254.3669287548459,715.867442004975,214.8127482302847,200.3559118568236,236.9112972112323,447.53040017484585,281.48133695458637,392.94392248394263,-379.3504757629764,716.7507881056385,992.4780719405325,428.373825876623,-89.5922354023615,420.2991209374491,338.31698542709967,445.03647210053134,-8.49017201798173,570.6185745385752,298.4057417661769,659.0514173390502,745.681516530042,-298.15425606725154,693.7340061305546,100.75347017811774,681.680530373734,520.8871605891266,330.59274848179393,530.9636628902227,736.6817020963337,445.6614461805249,402.0482839991845,257.17215136306504,195.7532013796328,-203.16582575782257,-116.15264060468186,-99.62344622734717,383.76598200766267,-14.5635883582035,216.34535013394668,227.21392825896316,1011.9281657925656,455.42950647359015,142.53584437211256,-124.15531288216395,570.2206916048647,539.8404886169506,554.9404665811624,503.2887123063669,279.54399326396276,286.44470856358566,519.7762516949996,284.82165239686236,610.8925162118035,464.42676996891333,43.21598198239337,153.68736175258363,-263.59467773132735,549.6367541054723,763.4051370295929,394.44345916488146,142.52718002687746,141.0838136486603,405.8795379762892,330.4588316986949,396.043638581964,172.73733414684588,109.41686619170024,126.57364258072322,197.3344301635177,504.03446655440143,404.7980042879441,433.0040012992599,678.3542621717352,436.24983416372555,-3.968444435275301,394.0721232002846,-322.5402093515176,134.87133394473557,96.69430549740302,623.9433971333798,502.5376427620769,826.0245926752249,36.931759285278474,350.1746441912471,498.82164787459726,448.285970365085,466.7523380696324,638.5061538807491,596.1479529613946,34.82664048204594,224.91633067526124,1075.6799560243248,527.6742856732105,363.6548069868229,714.0093389281013,329.56452371569003,506.70473087649134,508.8566243056604,969.3254084074871,430.3888453027551,597.3530420697417,159.03531790494932,886.318168615032,142.01445709784025,123.49496310369489,434.24319360456377,467.18801601520033,348.9561265665326,703.6756579619496,843.007257680614,905.3965882916737,482.769393998114,583.7018284130912,632.215198396862,294.5326326255394,146.86458418398868,245.04802076935846,283.5266748015348,926.4507506751535,654.7506168393888,-4.363970034388149,439.2301828783912,402.4166918363795,531.7498906165933,347.5186240210991,583.9533747727544,69.6274458760717,478.8663089256542,590.0956249674512,-17.02199702568606,156.51279238457502,-65.41663444923434,484.59778160489316,-76.72254788604317,163.93740051788689,334.28887222532984,587.8222033596485,408.8449359072211,435.344648348199,801.3039594930575,695.6841846780627,484.2790545427557,703.358309912085,440.65017631208264,-15.01108741724499,106.76681477044738,484.23511239800536,1121.93487397358,403.0256368942205,737.4255710620052,-43.26935518377471,267.8830009778305,826.0305605821416,517.3965822205988,512.587551029244,387.43728175235003,113.08561818527384,372.1094416433397,518.6288805151864,768.3320388285003,184.26433098989887,360.1646778061193,-88.1956703742325,573.6798694614731,178.48417774228076,952.1378447806642,487.37147732444515,1026.5649681611515,405.2963365552827,730.7704869184487,115.62452715976005,-176.63984131324767,619.8550109537367,839.1183520307296,80.00163793643796,114.2672762541732,611.5106733600082,-65.79819135742856,172.887454309729,733.9618975221075,569.3533941130113,458.7527354751944,290.18224742418084,1350.1651736756953,407.5454912116,-944.412124129156,468.80198524768656,687.2962948356138,501.0881114364543,98.17422645082294,303.7747625222497,304.57622911559287,484.1324491395605,203.32605805534055,476.0054339932319,-183.7176003291807,418.92907545059484,179.88222245061036,412.89143962298016,573.6349634533143,530.4108305089303,727.4448655182653,432.16325025227746,670.0046409776008,245.88164027311393,193.68062730455188,-248.07830108991294,320.64904528198446,946.0938015837677,626.4903665527129,608.3252176611987,703.5986288801181,606.2860150668151,226.35489623261466,492.11573811415064,-161.92609866121913,389.2250838157517,51.17208429417575,299.0257770569629,898.4338351611801,478.93899703267215,395.30300980194994,637.8583040067865,46.43812662221433,700.8050913602923,265.38010371707037,631.3991389730218,674.0106979933931,-30.863491426629633,625.4660106163636,436.9852488448234,682.9917967546658,327.34748670487255,-97.2330176663766,862.5868307637681,504.81028702540385,316.0061654490998,434.29842875702536,525.5884461884218,325.69260772268063,168.5750593349625,651.0196653400131,469.645099785672,315.15737260463686,119.25295473724229,754.2760500534769,1155.9285788180064,913.7019010855569,646.7643886077319,167.5532123139746,461.00381047764967,527.4911034727203,763.222903849846,1067.8186713447856,993.4444849706483,24.55767441991724,276.6318748266285,454.03429254353404,238.47323347001026,681.6976705006446,250.42747269963658,453.804426165313,49.74072476403657,-332.3250494458786,555.2154261890091,556.223826706609,346.26569464682933,419.82566285129525,327.94214687608206,937.3955309518543,319.9315699554356,244.97658068273296,263.46575131868485,383.3805618311975,540.2563585746827,185.82481046434583,258.90618402092383,853.3361822304158,15.808789394552967,-150.53577881403808,577.3429339168428,514.6899119303158,766.6631684870787,588.003011179448,652.7057813888106,244.07754796054965,312.9926205351952,791.7615741595005,780.6082730235739,103.62500736847403,719.6358999591431,221.89433404406964,457.3697353959276,189.80539948434628,248.0282287323929,215.17711588165406,462.66234779741063,210.72978997261708,171.96075123545097,129.23625573093926,183.00027624237626,189.18099233642565,908.9011004172368,417.4456193101488,51.246234529038254,597.5210984473154,101.41491144354954,638.1044781460577,1131.5151012927104,909.0713116468023,134.53601471460843,590.295612048598,1052.7110732810156,204.26023124361086,-346.17285527492453,483.23096579580135,598.6007760868416,591.7119915994331,28.301073613822336,-163.381484381331,404.21852845649175,521.9946885618555,307.19460312518834,67.56955317872242,459.20170459698244,583.2144366371157,16.208135122351727,340.5021357953983,513.2403066565608,-52.10819786218678,814.1416107197348,353.26861594395467,201.25664942270015,120.97651875306684,-50.193374791795314,-106.28519678632634,-129.1830480325516,343.6120615661577,460.1024480189588,304.55004492628626,605.127392263185,710.666673812297,429.3183262536748,933.7018654816596,510.8686261147669,-33.19178436623548,735.3647967196238,-268.67513832157965,849.7122626240534,600.5328252379774,564.6578719314383,517.5283355053605,-110.993015993573,612.5259991316075,692.6851699816485,667.1963853296517,487.8187985030147,238.96363522987122,-63.99206556410741,-256.60840351136585,783.8499547776555,221.39767294267864,992.6508595624005,688.4234842643106,1075.6183678240748,247.54627527268906,400.3981256611383,409.1242507889155,448.0664133774779,97.0580047110544,750.0413086697853,285.34704281697793,700.9786366376801,143.03477848189382,609.6754024512348,387.72991801260014,699.3120506100889,212.12610482098856,130.9017648494293,1404.2175901200974,-54.11923702785883,743.315078531964,-83.32932517011987,239.16770487562098,-249.6419183668201,686.2249021468123,407.7820428031297,-267.9812337289789,416.72622462755027,-74.19782725017387,1051.7464465082169,487.32883917408446,307.5561155763892,345.74214491788047,1373.1868019357555,342.71818364159645,468.5742956712591,33.42479576292929,1128.9404936575825,238.69494421955503,288.5685844152728,69.98184397448878,397.949740672112,243.0728059348967,214.15485785363848,104.2995104354708,577.3486804395607,1002.8018325410163,-493.2888734981186,767.4007853419394,-147.50759668348155,1341.7423690807511,450.58460205323394,380.84274048224756,112.96225510206132,866.7076564716433,506.02829019826413,195.31513465482755,174.8690554444915,427.01101045225505,270.12868608146135,513.6986186804689,154.902724200849,1157.366258454115,284.45697961143924,735.6022099709492,555.2068201818494,918.4253843180944,371.1543533290078,25.415918519546345,521.6286661078582,380.8009546818938,623.5929230663415,213.81850680622017,-34.46059474626826,238.31444895445088,389.875467802686,1043.723156531053,-262.5910265681679,620.0523741718395,970.986841498537,727.8562310004052,594.423052189276,-349.95029678428654,-64.9445865970779,575.5271161924194,26.793665170835222,85.06190993304718,215.95506276611857,371.66792320448775,301.7878194837107,177.5457166103288,252.24995042240323,-146.57770447845076,-296.56868003360864,62.229888183405365,294.1859381135514,108.45465187162603,-79.92299558772065,-447.8537302371979,-315.2744228430184,376.62757385340245,366.3639579932648,69.98851319921685,-561.5833857435628,89.86564286457678,440.51694053240794,354.4772895628759,279.3723154983117,535.0142007426372,324.33441989774786,30.06295786216184,306.24619417515345,292.788953775538,20.17917404168528,-351.76021246949324,111.30226834781719,245.40716243784007,773.2683163604667,134.37180114932187,198.7478272447511,77.23762850253019,4.294471162549711,449.11722048644225,767.258848973508,713.790444553359,-590.3623132307433,539.5260312050824,27.060239707790736,265.9224226797015,-113.43149011715732,-11.621107167476211,552.1630332702157,20.98176749721074,899.405125165535,-259.9346909306763,156.40760895797806,212.72751826010634,320.5106596644591,365.91411387606917,-7.10885858704601,157.69917290713664,471.3207956086639,439.92874731516275,-183.46691066165556,230.25263144506414,71.12247102053388,-184.12051404032968,-245.425751825955,-252.82548317251937,155.4743705270284,-238.6219010476595,-512.3380258090577,597.317829293459,538.8565441997646,518.5298361234011,144.11165499713948,-265.62768448500003,137.24656563601573,529.7356922963387,328.1137797231825,-188.45783471902323,-104.84908616980165,709.8706847158305,166.0711980567845,246.11481334868543,83.81704773030005,453.7363390926901,353.9494243031725,1132.2432529394468,99.70898519986943,266.71849856338906,807.4043169001682,-562.307500220278,-115.95836013664903,618.8647327107345,162.377199565362,-326.75525948471466,204.91151291836394,138.36410261847504,376.92941675497445,42.06173236312828,227.08926041007146,240.67406911113403,506.3147214902575,97.70022501129185,362.01025820206854,124.36764654467184,104.61389715038968,151.9264259578944,212.83927295071646,342.24324111685024,214.5169772333197,241.62318689377005,549.5043974336193,83.98642741057677,208.40286523502698,-315.68758225606075,-32.09242574089336,-78.03334259148725,191.88525376253205,61.70953487632062,-113.01827607195182,272.9776144093885,161.76088998971662,1583.5258452407352,447.828027078932,212.50667451404686,-396.6728213711317,497.19303944719894,444.4963477384459,-89.34210865974289,-457.365549039115,-89.84788350240508,274.5226228602333,-127.63948491342144,130.00854383311335,48.94584222628993,313.9618951546748,622.5209831637133,245.57540380419886,-37.4573401111176,74.47227088411515,382.6443260107765,-37.658844707901494,474.897983915607,586.532487177381,425.2773770577846,339.5461640821154,842.4480943888958,205.0005127657134,412.99501310927076,286.9091105546149,66.70450349633519,181.18180731438227,382.96284880766916,269.6264013670673,460.43677700889845,277.00173724557675,916.4025112675065,49.75746865757673,488.4741576475295,246.56761735306233,-166.69081169361854,-178.94083361438155,-171.6376550822525,142.20041019100648,420.1656768574591,216.95600506422076,361.7142521021606,208.75238064948795,553.8999780116263,120.45595189871938,480.75882882407825,447.4146169612648,240.05302692753787,302.7031258351273,362.3712999529793,512.664939311263,302.75133062098854,282.74855287161057,345.1174464606033,433.00172387171125,272.93533808339777,202.103124086911,565.0455538594896,267.6833424714639,325.9841526207502,418.52855382492345,-123.05075057588596,716.8612026951677,299.64961352019515,406.1931365322521,185.45402231074675,323.9151381191647,538.5582820943642,-174.5834789103921,383.4489339282242,12.058281128489904,276.3410257270468,55.20475084050703,562.2508619091067,82.4547197130069,235.65547347846743,-18.62177239173591,-652.6563107784568,298.6413414821084,188.78719789429664,239.98440002187922,671.8108741392225,-222.51321792326948,293.1130905374989,363.7490807525068,692.8482282941765,398.9322657075024,316.2344823328267,843.7250235616209,364.5545016299314,678.232894871579,365.70736919853056,375.84341773654364,327.34966951341465,162.48197262560728,374.18808542722155,873.5600802656683,239.99194493758833,151.21481652891833,462.7348260368839,-153.28943017096935,109.58504744776552,441.62153559810474,-12.209450007904058,23.182721738701677,366.2589848294355,150.76514951326433,671.9187425429991,366.8912905190141,225.95013170806845,-138.83227426194256,832.0626404331529,417.78493889768157,-35.74027340340397,496.0690033380446,547.2909506233161,441.96659760927,439.8428217379295,114.43714994358453,-46.530390171324264,-166.28198852045142,836.6739132115947,678.7602559752089,118.94330806639815,-233.2299383200708,361.58772967106387,412.41719401824247,393.64770519873923,667.2127839550834,-151.76128252416066,459.19249905349443,28.52330364022218,-52.39169770887539,-541.4280351788145,-87.91601859366244,146.51355353811024,479.6097468735598,510.84237000396195,350.0896157266297,-34.96062228715594,345.7997973882599,-409.17378974220765,270.16051949279773,-76.28447331458075,-302.0973956199905,-23.573953528032494,274.21899534698156,140.26561950562356,-62.09840982643882,17.430203010484618,241.4755595572134,63.70975535071755,283.93672069551695,87.07111884947237,123.62236781213979,504.2339095810282,482.69845593941494,-701.9637776852934,381.7896699908061,383.67459148268347,-32.42801548531275,-70.96943445934727,182.55115992461765,301.5289369472534,599.1459086045198,-478.03941313356484,384.8790899211807,398.2474934292188,-168.30947580327373,-30.070671741750544,-627.162036674569,186.53515602733344,305.8724970074558,413.7955736348458,254.32718700024978,-40.693437085134946,469.4151633148956,240.6259528964019,-80.78183779755945,951.6889957497999,215.80393838069298,306.9848024535451,-218.57578962945365,134.64585352348257,304.33917736704706,202.47695520511255,210.25255422921256,-321.0253494688106,205.0950365709204,-1.2398296339207573,666.3164877486911,244.02731955486172,112.39734101383749,-251.79734819553082,108.12824727402095,-20.20734036774092,216.7764713882369,482.6083357931301,345.8161503953715,-489.5223176183519,17.4387328826164,92.58245882901898,260.5440698483168,63.38302665225211,691.8413315808607,135.94169286670868,133.5959276936768,993.5445543975383,358.9806229466109,-280.66235949098274,72.39628248011495,760.2543745856198,283.7517774709182,245.13902262121232,611.9309098087572,99.1640212879655,172.69634107953743,-385.0630239508101,-21.016651359875215,249.81548745447705,800.9077130548803,-3.195867824122447,353.00465937169884,21.070748993246994,0.5186124173820253,298.52378970748293,23.608115895394242,426.75313142451944,274.2306865666966,155.61731698240163,255.55107641772844,262.4674309852807,14.659211937031012,-194.53652725281114,229.18936304344476,67.94568191864994,39.52151483574512,-288.02586364086807,276.35310230756016,-148.39870307684728,106.79508727167523,787.5346813764035,-77.6808995148684,546.8212209656341,153.30735642874538,142.38589998664472,-89.55499348709215,105.42113456645698,93.58100312685677,-211.23483280655736,461.16290958242394,127.0370808748627,-83.83702794252235,-697.3175471875137,161.96881731330322,139.59906109370243,164.34488198297143,-74.93793180336792,44.01419140466129,-475.938432242967,86.67908745456444,63.38538172438871,-511.99714882969045,385.6881530893159,156.50070491829638,-405.42849972189543,368.50216480259706,861.085376605222,73.56755749697412,643.4290620084038,517.354947461846,-24.13600111499178,-648.3906455883514,749.6938036968364,182.12832146921227,417.6434922383224,318.82113700204746,549.5588420158446,-7.738958147199373,560.4818238168559,-567.3065902191307,941.0305419659504,-408.4093732257801,-410.0529496985097,400.40535504233566,313.8217451566877,572.013918588495,379.1811458043006,348.81179713338923,798.2206482117821,196.19002444344468,569.3387664580023,939.9871707911011,-15.728443012533182,-176.62204252712044,-159.09992029618166,230.0869796163054,162.82932386111366,339.4684624449728,352.9902876797271,-141.12080443751717,546.7611141937857,684.1774467280749,644.1589443781069,287.7310334519227,162.28869136806225,1123.8028964086507,462.40216021639293,390.016110962442,421.8663718164899,-31.313172137231117,795.5474615849319,106.23400477511852,332.90214027587126,666.2617187696816,652.8697661021362,662.6156827836339,118.6420182256418,535.6233849155706,553.7813489757942,-415.1511581191412,504.8364101512672,844.7472568664366,-20.34182272187203,637.2452262428537,521.56076120838,-205.793786373305,529.8008276834097,136.33145324225518,514.3364096366835,359.9262307530329,746.8657560064378,473.99476843591015,427.4162845137434,437.11768215613,54.211982770869405,61.66480367206401,-105.15537154485563,588.5210368217631,638.0983696380049,-72.55139076147178,275.38111067964337,616.5969663978472,285.1969147151638,461.47602562446474,351.5691213706566,422.1754797086785,363.0646460087513,575.5146833723215,893.8417192297894,-401.9459077942551,574.0809560695382,89.4585404492465,542.8726315608548,252.9578145145128,353.52180363759527,-139.9683136882991,266.38455407548327,242.70473891123993,954.2349816531664,492.628820971637,268.784688415935,95.55487524218883,226.55168471050555,807.4945162532098,408.1410245672747,220.09758652292055,233.53949150585623,-160.79749599035955,292.0803033287356,524.3605029265705,404.19073582173894,334.24403236943164,237.38763238671606,253.0538954659129,280.1345058612042,495.37592415293875,-431.5902982038556,294.41820318979995,25.173108232523838,161.5123403510002,602.3102787710149,159.2436030413752,212.5536693455157,1170.3763679144674,509.75005418375275,601.5284081119788,118.52480912086645,-141.01175642197688,1119.5747247828574,131.76689269780002,-279.25833949474804,568.9761453433553,474.3808109596129,117.24597479440148,-187.98096005686065,153.93926432790047,581.1436381944444,827.3638291040232,371.42303640173424,74.61541552742447,289.9220792855768,-31.432000855545407,383.1947298096388,13.35975553220892,291.4233815621432,113.49253272711344,-143.65834637441802,583.8470530678609,545.2200329999927,151.0384899324284,-405.89596430751016,-107.43766113843391,98.23905897013468,482.36067848429724,137.53232993979952,502.36418311394624,739.5193847468166,468.86342813222615,127.13540346050635,758.7146335426094,747.6589060507881,114.96231898301758,237.37906679836252,88.20918179676679,413.7520164924026,384.2817399884812,570.4883483823581,287.3443790676358,-210.7566597735241,393.97118410155645,250.4380160739834,533.1382451816614,247.69444586534198,-173.13991501378177,87.78563464846795,97.60093209497846,418.2729379305967,61.64063539577141,148.9018581182521,186.7062897478776,541.7131699638505,364.2866589099163,641.0845660194051,191.3876288129051,528.3593877099796,162.01387761776877,83.83207183974257,82.1281462725174,81.03071932758968,353.87731464535767,-20.98961720481009,-505.6134359596108,549.7463701994785,354.34128301538067,17.19591488642085,43.70632004150324,302.43514527754877,390.0311072929323,319.33719080771357,465.78182167129995,480.706200185324,308.7741026800929,151.9579937686328,-471.46030139631773,680.0641881622973,-13.512210103800008,408.89833297901544,-209.23336508151866,-146.8938100853729,231.10597617890448,224.5765902319442,403.01232232307916,954.6449814825181,280.9912436041187,549.7404681278324,457.5545256063713,833.0077770914442,103.04553304845848,260.72997694947,-118.45633321175742,544.923254762066,256.1034143758818,110.58844895794905,455.2682810041311,51.491802240304885,73.02274316980267,444.0926235810739,674.5957330891866,357.66464033446977,239.75492520737964,65.64187209265229,756.8507580091735,577.3376846353531,376.5469052681781,330.3695930534551,178.14036017321047,-140.7144072147997,402.47787698312175,13.773076279412305,79.33417886283608,88.98074327625889,470.30098690049334,420.2967250475364,380.42659867118886,279.84145087275505,6.517530564053827,345.09456214241857,913.4480304943679,245.84587713611342,74.06571994740125,451.5818041099145,427.4807429031781,304.8486680684529,540.4191010097601,451.98683551069104,-452.5616553182837,-326.02184232180974,472.4594848979599,119.49960207026189,-583.2044945298087,8.104021833000925,245.57868443725883,302.1354642091273,155.43772077267377,303.444163546082,422.6612571068606,55.57455097352673,220.70102979426227,643.1109078485799,278.0452465757722,181.11442795374649,4.127857609252988,244.54482425516156,82.84219755492538,220.8468067509328,-51.83844998009269,271.42665859794454,156.42252259656635,523.4904791016351,-212.9514672152376,174.3802819752291,579.8175743087264,248.9391599964313,435.48711893121356,368.1723399012316,-46.81734902256321,218.17392630010582,320.4178126342432,652.3029522454825,1525.8344810556603,-75.98173556046527,-148.67764239872625,874.8150111211729,484.1714235308616,258.85434922098244,151.82781241176647,566.8655794653614,704.9496164651656,-17.971066753936977,316.4394582065825,557.4960825850177,402.685248620743,205.53454255231844,577.083827067699,350.0560536311093,-1002.3072613351222,-279.44795075074495,448.5293580357708,457.40518918436135,426.6969533905533,785.5390903963187,105.54236536291317,67.77290914614235,711.6595354473792,258.83155195004224,372.4079446881945,1671.8929702624296,91.67559721274486,331.1095893810755,511.5638013505511,206.1042228020154,406.5332558396886,24.33168160671035,-135.3699156584755,440.2116641137257,667.827138740908,43.38892571589987,463.83924165462315,223.34104491197004,156.54141538881595,-291.75706628111465,135.74922386593462,0.4941007002562474,-78.26955968103684,146.90709791198967,317.6974685581149,-64.49004055701919,-221.66796009110004,27.613799191277867,570.0807975370736,537.9664147326351,372.28002187547435,420.329274901654,-63.518380328796745,250.97790706450382,148.352340378689,168.60871428150188,603.6010386167161,125.43153345661322,379.1667038132589,617.666784426681,-297.81019974600497,561.8683051415657,90.60741384292425,747.481515670648,140.13794702560625,40.17182766595976,69.43010599242623,352.5230488306282,-344.21262107498427,-144.86647440135656,158.4353009031794,675.2213093638655,724.6661430513951,-275.45197967481874,117.70794987635637,-129.10843875552547,-18.04442210556477,136.9620453298843,585.9115734537896,511.4581079126326,510.43974875860084,42.942963355201144,289.6296461317619,65.56167784792635,382.1806640776806,421.3991003611531,575.6017465658919,182.72932548470598,757.1269254354909,177.86419034309077,-262.00669274951014,53.7337502048318,533.3578386497487,15.336136672739494,626.2290552547155,155.45858439802427,53.13580189715452,-2166.2205482155614,472.26102138403286,874.9724378252582,383.7948559328213,70.7648278857543,-435.4913442739342,678.0758528961915,863.5260749178918,342.05377269714086,941.0303635032687,21.01190424750032,487.7161086621051,773.2961444869185,778.2441292198677,450.26273169632884,-39.42826514809492,484.1560337266495,360.14840829902334,183.4449464271213,309.72145882373064,-603.843570602267,-453.81733023753037,-315.14456481765365,469.88936717456045,504.4937172146799,556.2061936254005,605.9946904962156,518.1705132720002,87.9785801885351,891.0067148749291,807.5278201413099,599.7560651415891,245.4904013341579,319.6554200792214,735.818125856334,347.6946329237949,988.3600677817088,335.1684268460529,166.01350236634107,615.2648749854717,956.4753936256665,630.3943314687797,516.629305154208,-467.5585936369068,851.0445957595996,699.8447488396594,534.5443776534427,-331.94180409985023,131.7872627302984,537.4014565447959,478.7886044674339,780.8772122273053,677.0256650239415,264.6141018846791,1020.7228156782747,428.35130205972166,746.6191918146499,255.48881606801143,204.66437247549618,348.18335578272786,1056.6806711096758,-717.9305111293324,678.7041219432633,501.81704700324923,234.7242537035333,1582.2044136559007,316.6618042240696,-104.26996949803818,160.70967859416555,186.72411626643873,424.66637459829843,560.8546155310385,-334.32260577362445,72.43470870901695,552.1467863654027,436.216370276471,298.9894663384478,240.8641729559876,-216.557500641834,163.46730550155726,416.88150163113306,572.2437097805027,764.1552653227226,621.0592885511678,424.568391132243,1368.9766414338064,743.5218403899243,556.1837927847942,257.0309233148573,41.67172225696184,152.35721657632672,529.3294936565627,520.1217919057094,755.4966760970156,-47.61471961939992,166.6336112804711,-107.85280678511486,1552.3210307368752,453.4977982065832,278.51755470385297,260.50681293340307,753.4257574573983,937.3810270623046,1063.789012568107,605.2966527557808,603.0584260183131,132.30466436928702,672.2485568384476,12.562939112025916,332.34694565811816,376.66772354053614,424.5943370021213,208.81385854703785,399.80467421825335,531.7428512637936,-69.41133454297486,273.92552716609254,539.530808775692,695.074899784997,-99.10956797875302,1016.892011428915,690.9243651180764,756.2229484217122,822.5442604715264,652.845419988783,481.21035489895837,348.7661784005211,267.7657165563283,272.5035940394513,-241.44881781080704,176.37731325689572,344.8471567797208,361.9098717379241,206.2332347606003,140.50037637077205,355.3759586218442,466.11032473163624,199.90372719637062,336.97076754990326,-142.73032826667625,149.69888854411985,291.20202120407396,682.4905492592802,342.7008482404637,745.5391810820172,-61.348965743705925,492.27592867230294,107.24691332201074,351.54693400247646,-221.64517941057673,14.962789075879485,-54.78870310645319,452.11594318121,694.2398856178784,682.9863471391577,385.19743796089864,633.2277202087732,259.2492803341727,409.0312989315899,350.44671114161264,-24.849185736392585,392.52998216760005,15.706671324257506,41.82503899127729,363.5906932568447,590.7230631411887,502.66950366436373,489.5141134604615,424.73432321147186,117.97791983086474,447.3898123053736,638.320367708836,288.43424730116124,526.7350291343301,186.41286514402694,588.3568293174344,229.01639349852425,-427.39800447885744,595.7874933669128,420.1212643333929,424.0737753332226,604.0534705999831,334.5810838927038,333.12359241947996,183.63760252090376,194.82984899961318,561.8533545771331,253.01555291311305,350.3920302750485,321.2660270841148,486.86742599486587,491.3939321557486,375.28902935959803,-256.30099440955746,489.269233663859,-89.39810510268326,736.1920682193028,123.05433326300182,529.9348015855517,198.24469046473132,413.0219923666948,409.4946268892351,-30.368401480628922,493.0494423947557,393.26879263380346,574.561107781207,483.8893783511962,-119.05360067852604,468.779675764933,464.54912918395394,306.30148804860147,359.58074927848236,284.19059481525034,516.2387339453343,499.97997520605446,662.807550041756,466.5883659905913,423.01838705721144,188.26310569280813,184.4493486026128,157.84333025335744,788.2709446098625,196.9447639688813,144.92642486345653,435.992959964133,105.72164828090416,563.7512456471277,524.7394783480839,-265.4927836936615,77.22251221624298,100.73958223805337,478.0360229272726,259.06123141231046,-173.7817469945705,444.40644957297184,124.57723783389987,185.44935041779556,-68.62856239495416,-5.616686292093651,287.33576016079934,268.2484816727025,475.8408781144353,390.59733008110396,290.3739541865266,84.72844714864682,405.32968745298626,661.7556857825789,1034.4888462154975,152.23421534277142,710.822655369427,868.1073160417393,313.3040145003192,311.6935786624657,799.6063325459623,95.87678667788815,-47.88046025855632,53.362900209297806,187.6151731541928,-866.5037978304789,441.8511382491866,371.0515993984099,145.4081861408,57.215072916006946,955.9697523120905,283.18579615865303,329.8457140055186,415.0503747218398,267.08754059548005,-709.9870996138012,594.7403960950325,-28.887353852309225,761.8790438660875,440.85458316148885,466.5954612173374,1207.6324341235616,230.82644486216725,740.4328218664876,246.48062168644702,470.015719674095,-134.18910541681112,493.81210980105266,33.17996282969133,650.3158761647276,240.92017308839417,376.44285137893655,556.9139970491099,-7.384936177981308,535.1814504535002,1249.4915915104116,-581.544478399215,-416.46749624590586,282.3303542755956,635.0513220056528,1099.0369636357923,1036.847480086158,670.6986065943139,1033.8261337560486,354.58120234899377,399.6146350848502,573.0164770341839,338.1828826537947,109.21131370477737,493.74900235450303,793.8736353534098,423.46246995754126,-391.1466764314176,377.8358678208446,536.6345592489698,153.4559905506209,695.2279199309705,466.67472675147826,145.8555415604573,896.9632936559861,922.1685159219327,-0.34713366372118015,-112.24292812121827,-19.018419690058824,637.3483243050931,53.43321784308224,-522.190423803002,93.22730418887221,546.4099474491867,174.53330555596068,1294.0544195746972,44.479393962327805,978.8168865519337,-165.96573164401667,306.598460047384,200.49053847859682,628.8898876621702,-426.1432116547136,261.3982816694761,299.1217268350223,658.1295709740012,43.53562126985894,189.4342892250002,-719.8893695299549,-230.0123378609628,221.77555604227237,285.81028601871003,554.4363558960247,572.2844698583714,264.13266331733774,432.5474135036724,134.80874384093738,341.3053843905899,-166.34083007356736,-573.3794418745182,-97.5990495391396,-139.31785051744862,191.43867193510135,1207.0367284293761,-425.17229392269473,833.5905761457586,150.79864788114475,-126.0764330199036,652.0907031389955,37.198408371641385,461.08809056298935,386.5515064494268,408.3229009968778,939.5884181506726,404.21830691999025,-273.03450976968304,260.2614621846796,1122.4228458276261,99.6158364688903,210.5877812377596,292.0206099159163,534.1608207270544,464.92767398363867,23.185415179251354,78.38537957845901,-929.1119018531632,704.9669849383307,532.4167416012754,320.76032729666804,459.95870869662497,444.26402478500864,366.98744358101555,462.481809229095,499.14330424521097,479.60464966339475,166.2000305849279,206.69558494618735,981.746312771989,121.68136015860466,-385.07672673340556,437.98618972212284,282.1572172695674,604.2654194768675,190.40417567323306,190.7113381880631,998.4772411202516,605.9772021237223,318.6390960465884,-52.06749702263877,109.13089748552385,339.98548669462724,38.61042177894676,99.87233238939501,622.2616420713915,243.78318023896816,147.1446701028231,291.0989149613779,395.5116164703899,647.2783426373173,-391.91626968752155,-17.114482424518318,-73.44215989492365,707.8536655440645,425.6140659341265,116.14439891554622,434.6961480880575,628.8836366338177,421.76341332654226,389.5443805044801,1382.4062541055184,510.6107572899631,981.0570176115234,863.2310151036099,819.707608165782,599.7046419544695,602.0475925697486,403.4336603913716,-214.89331551235585,998.5932408700029,592.7515934140145,185.44433647191534,608.391758388068,736.5500738532548,932.2709665873147,4.219199774094645,66.99109736897077,-407.19061132381586,285.81788822924034,552.3408806673298,572.3815878619914,485.39874366592323,286.5869030586913,36.31137419083989,679.0397894069525,-309.78614541489515,581.1056592902647,787.4152424683268,613.7975747467268,37.074993602868894,-112.02033460070321,282.31093717771506,388.43805945400703,386.8487386658828,177.8136897189632,692.0968122714218,563.0491513679149,589.4135720246137,337.2996426963441,551.5866833576902,681.0998283494001,255.59097715031257,775.4141433684905,-226.86211673981978,790.557874532897,413.1325899633253,559.3237724526753,219.26791044949357,20.30093059153468,607.3524750669881,475.14413760829484,184.78949252923596,566.3610365125428,877.7020385064748,411.58473539720853,-217.92828488012086,364.86769704359693,348.83867668568263,251.30952285247946,212.53841720369527,-124.0240947104605,421.89762217477204,426.91461403245575,733.0063143619532,-120.90414828490458,892.7978322722133,261.5041284298709,806.0791309560564,387.0670810069198,582.4141353211455,718.1661438537897,103.33924214305948,802.1541917154573,525.871468283165,960.1086079753239,503.2574911571317,-184.9722676055501,242.9298583831811,331.40809411261307,570.0426400485105,242.60764464687463,468.31967460247495,872.7482205622598,238.99651964264785,760.1394192415427,206.97005402456628,664.8748574067766,1154.19289788777,262.81086252414605,164.45536983707217,333.07876525315027,459.3943153087404,544.9348869831215,835.5884228740476,412.54384102072476,8.6451209028404,-9.474905405135358,1169.3050338378719,464.68356485842895,-293.848319476359,566.4847882475185,254.2044080310772,161.98566377636752,287.99347192672474,-21.550771024079147,183.94932773743596,393.24415102928316,34.07312060337625,636.5254450753301,-209.7117084521306,108.03756063036994,246.17469166828494,828.3992857338188,336.9216093960418,532.508964817635,142.5159468569635,-131.33084711219186,337.87761710232024,286.7573405502546,-23.372702862036917,-273.79850238660265,298.25878973619143,551.4457390943003,305.47866278916564,831.5224583144216,1109.3806082222918,149.04568827610586,183.5834944562976,211.42051204630096,514.2590640617904,216.78375334484335,764.2562207592988,467.28524262244133,488.6978131233358,450.251596616184,630.2938289826023,-403.9747645952535,230.9685678796906,576.4078749478768,327.99669740932427,373.23533212684407,405.7749309880055,308.6166186262343,416.2687463101079,267.4700389948188,593.3645072496606,486.2004487129744,979.4749402199254,929.2346582637449,857.8204462694509,435.40205801769514,1446.8855572822724,480.46856620596327,364.33143343549716,658.1550560467106,545.6658276189644,-168.04426605584945,770.3867566361586,161.19404975437334,253.03572068763975,182.29854077731423,516.2024103657965,489.3245427012143,6.567724088352251,1133.6731348334254,-112.48761854995317,-336.24303962999676,-69.26798387468035,329.2577937931058,239.11892367825743,347.7934577306179,-161.7042924953349,49.37384202468996,491.3286135353436,233.15725622049428,183.19216604695566,-31.21833526649223,589.8453003629538,337.99298356077634,686.8467558136061,564.9930949724821,218.68952084053794,274.57578758250975,730.002662000008,146.57652050065653,319.71035192537244,545.8599231741439,-96.01389590033823,116.37474670588921,337.62194801120285,347.7919772503949,501.8137560912522,658.4473433965658,-15.128882412213482,164.37570140189956,747.65291420235,611.7982714729043,336.59416027352773,1232.2218655703323,-101.46635031772877,357.1981662798843,781.4025442778728,714.1312957566442,297.11057448526344,-419.43706252077925,835.6852471950741,227.49197070034785,494.7412801220812,786.6089859483815,85.67439467589568,127.28720159561126,619.743073792078,741.5718728692275,45.29004404972487,-235.4251957437772,471.60130264873715,-19.895187391305726,476.0921669541722,-755.906120467504,315.391169559678,662.7441786371229,205.54264840712614,586.0615453116936,574.073024378283,345.49168766462793,1160.1617558866635,572.1323540601585,337.99774418142135,-544.6993412579682,696.6099187552961,806.2559822190622,221.56983363739857,-38.537515396825555,25.931780624611335,259.2789403379783,809.7151313012968,228.2578907959673,320.26565032826494,60.27493274017363,140.86776603708222,-123.52089045296299,521.9184806545339,179.62816145722232,498.42216733579755,-85.9531157397031,-119.54477254744621,327.7122324031977,297.4756117306099,26.860874974354314,-402.99475983604464,277.60628153210877,978.7950512567947,383.0173045348819,104.77419980966573,835.2960990748276,123.93836871026525,687.6317896192704,555.7663645911596,462.5376340795624,-199.68931858208683,219.5943366044962,-118.10863200887121,654.2053693569304,814.6058521989899,588.8118778756802,598.3916813001582,-365.43320824898876,1034.7853518717625,856.8358837123513,524.4876519732917,383.55863808473475,-119.61707372760851,535.3516267593894,129.56379337342753,158.96972722618509,269.70855612290876,214.73885643366566,401.5322545098674,529.5347215509904,665.7637143564207,645.7725306749791,272.5228885447452,808.2896017217122,-188.22882452759265,349.9237124275852,70.12932543320353,335.9859847317263,390.97712893676635,692.4559937397421,257.9301742571116,514.5767582112993,305.81033200887146,220.01251013610778,381.8494455879765,313.4543149901083,229.74948513826456,419.1973751195053,295.7543541806442,95.31930792168782,-36.484884571312215,17.349937020964774,-130.37515796064622,-391.7250543428519,818.4687367174101,476.98473546920104,-305.8450264251527,125.53740799237751,663.1338701889656,540.8195828867547,375.94324699462373,410.4450689659692,512.0122056213647,934.7076990243876,460.7944437909459,654.4320862277604,706.1045564574946,202.0994626925227,381.3129958840471,569.0582341404222,222.32291681318782,423.1486423039861,669.3645469419853,-158.47374717246677,522.6499096814878,620.7849981185594,686.0253943114053,636.7249014360676,323.4525182120507,385.94316576087715,819.0794208552446,515.9760213462085,969.1473610739716,398.27229446689745,115.66928691822423,553.1469488491504,483.0885470863442,-441.89910467265327,854.8100162528957,272.6790138592166,992.2647691452523,806.6576501625575,327.1182313341045,303.33015327206823,152.4652128637069,423.97229204229563,768.2569796386753,276.06240867564054,49.61124597409046,311.95161105597106,288.65389975563943,549.4974930482973,657.3161767412705,361.0379551944455,-178.1832981319783,340.06441328061914,700.9203146268925,353.4381038311892,-344.7596702584616,395.430074968275,1886.962594371913,1337.299904908869,124.80857565798172,-56.103235834344645,-368.9780582006723,214.9677804480473,79.6722893296767,697.4914176289632,-817.1518798972155,-18.848581438883855,-364.03904686129204,748.4632431666498,586.845952905947,73.84903968374743,851.2755693352404,529.1630420262227,1211.5569558782292,1030.3463586838448,-35.99706060096775,189.13957463725507,-385.87096825752604,370.46030856854765,379.61558738556295,471.98595981117563,1174.1675265462652,-77.38212182056469,342.2163255352863,316.83917110748297,542.5788633275956,517.9228245089871,422.02497030541747,-95.33126971025766,1305.3943630253248,247.61339331286672,215.61216854728508,-486.8204135338795,590.0039362484557,437.1693205670468,1086.7232848667047,327.0018385462725,446.01142161438605,604.6759286914447,663.0061958696987,610.2561879762155,1131.3282034918873,487.3546691669377,22.841953581652202,631.2558513989009,-697.8545369310206,334.63028578022886,919.2429132936393,603.890986690843,128.37473426706555,197.69500336751716,320.81554430097526,230.0532502276838,320.738864047637,823.6436350482226,-330.3946539613056,-518.2120523800336,1393.9833678515074,394.369686998243,-460.31697130206317,737.4682514939311,193.31545333303103,202.16391918700805,461.6922146590845,216.74565230385548,83.78877276111669,766.2612717209668,-1198.2673943587943,141.00661138664765,853.6667201379072,802.1676344062909,-73.6732818005845,-30.567153081188987,-616.9386122379085,-191.0417277018049,752.7506267392619,1885.807744428012,1207.478804557281,-14.95115636102263,-1034.0057890181151,965.9444615619841,980.6889674283897,1411.7177703381722,273.17801939939187,258.62461066692117,235.64169901339926,1033.4538155298403,987.4006626367391,14.641979140416717,-43.45266431792216,-5.0875082256232815,55.41417702126861,424.43817100585255,751.3245428578246,1658.409890243953,-147.2501593053129,137.09094615235935,-300.4130459354002,-336.554150622732,314.37769515812084,641.53621708277,133.08953281464528,698.7424889195306,1816.2069736922836,215.2189864863421,1537.7183468967276,350.6694082379832,361.30546607618265,607.4775058364828,-131.82960339700412,-65.7518448533155,434.4542532593104,954.2812861296062,-2.4342715906474175,269.33514665034295,-316.1834819681168,318.4219938748016,-436.1319067156953,874.9103503107013,842.9587481736224,-185.81518112312887,1000.8370874117219,542.0814702003137,-53.9019408862764,-631.0041110268911,619.7816149964581,667.4295211485405,589.6331824840016,35.17919977551789,511.3798588599458,275.7166886993448,246.14155023230506,466.9851891289397,62.4321363498576,85.43421296828693,260.55131389915516,738.8034281014133,392.39978126375485,159.43686250951328,296.67003062477363,660.5384342908202,479.80651652522874,294.6970601907473,710.1496539280815,-29.304656110641908,200.34673642512803,561.11687345745,916.1448315653945,596.2929076950926,1008.2861764201284,-30.468699951340458,197.8774690031852,99.0277459888776,468.8071454488578,291.5661212582622,448.4367216534092,481.16992529905826,596.9136327164427,361.71182620998644,639.7696687646018,312.7774377062883,891.6579534695653,-191.7464366160596,472.3720062138112,615.7353502687332,467.7139578249137,582.7972236332164,-80.89740922160644,594.7696997669663,397.6786219454262,273.4964287101953,173.20243894117078,717.933445197195,271.57617442549645,645.2734083393348,546.1749171913572,5.82219066326557,440.83104956235115,825.5668558619376,-133.64905176850039,919.8700112413705,691.9365569563226,258.78648730789865,691.1996659300237,289.27080369937426,281.23270292604934,491.3128100061756,710.3402741140728,101.48008476747856,333.87358231239796,164.86020292899073,303.54238713741125,455.13057787125,708.8196356397128,470.42872852738617,193.86054155387998,824.9723865411976,38.47911119678113,585.0356031795654,670.6264681730358,408.68357271379506,-74.64537249525058,141.78750507462118,309.46101413366534,499.2326700956842,233.67937680389548,524.3602345685167,337.1540802623879,734.5805399787718,324.22430662050454,672.503492107032,579.4143505657034,123.81347784172256,102.90732409622841,494.055816026937,-23.970035434793395,223.27613097412285,568.0120403194265,-170.24841872974423,214.70901550142185,81.76532515575319,356.0337262419367,379.70137285237126,49.43905964376268,391.60656888405623,451.80799267325597,363.98188009515263,487.09723231749797,70.04726374938645,214.60253624179774,274.4024733593752,231.99973660821107,729.3409857156748,424.7971661595013,440.17872031762926,454.92873067594167,803.1497334779559,790.6999557451543,343.3091683998899,351.097152434372,594.829882359254,729.4823834673246,661.4361164365795,96.50430153138221,851.9030224741398,360.0230169830158,544.0953944517099,379.61777319423237,593.0210867948105,-16.45846070177596,-6.991221617519182,421.4955561404162,83.66785851725805,-1286.9806237247146,654.4451143665575,371.3110247057159,-92.09922807024446,80.14777025380624,304.1468378612164,276.598566049538,666.2896369918601,400.54387125794904,-276.8219690766078,219.54504088122263,-124.08609667183643,242.8161990337187,603.9503728717893,89.54253150546494,370.91630840689703,-101.66150893399933,455.2997799776415,-746.7455994102263,326.318157940559,-343.82739958241604,-40.81906133246947,76.82459554232572,714.8672958261702,222.10178499058628,551.4639233267884,618.4838762422387,363.70814472537677,631.2006920503038,446.3290315115171,-7.811685315946113,151.39581773724635,499.2526906647917,-81.18324649142951,455.135027701549,1014.5367177950792,350.200679666646,176.32918812521638,203.78059453484906,324.18953872491255,412.2196500239997,138.75198089780537,94.34190600668997,-84.43182855141255,41.57717807316915,-105.51707677730607,373.85370505900767,894.9418454660713,300.8360112045198,229.61311395727023,583.6243964974975,915.6477291318396,1082.5680117576092,473.9423733708485,435.0423701739001,84.26602622281726,-286.32971263047216,-88.84309896582444,708.0721881325622,440.740654573837,403.1195527357612,356.3378957920019,523.998594358975,657.4725257829754,420.46805524944614,584.3938320518373,134.25728130461638,-221.80450434767738,-79.89153111827663,428.47830348845605,667.7474153152102,242.07449113854327,726.5872179556853,-43.18864800174082,431.71571704262726,1076.577088296716,252.37262154287865,366.3137285250829,474.112807641052,815.3411293640219,460.34408178737806,424.0815228140401,475.4359148630873,560.4511560925864,660.1888056058361,163.9121548428378,512.6657914126116,515.1551935627483,183.60454360966168,286.45922154489773,188.4273845645351,224.99102520794384,525.3281504116793,708.3508327235174,-14.778046199981121,531.2439900514898,536.8357682138942,981.5682855692158,348.9666240179671,422.2304012199815,-56.285698927196115,-5.26346547125053,395.50411380490726,452.7461973845522,541.9970716887319,-315.8112741704396,141.88636405003024,350.35340306447455,276.1749577815798,907.5250727855707,-47.32840547048804,217.461859539393,354.8990176763335,302.17070227659855,-600.0857449194972,-104.7934871970792,182.41987127795724,753.9448406263137,362.8687815338221,-54.9795014131142,21.6188356286386,1161.7984513638817,509.3527304663596,755.2618623331937,-188.08601727780965,311.0942729452269,316.8094529914467,373.2843141384607,68.6543753474237,-475.39676218754846,645.7887054444501,-61.03613674959671,312.0162633416891,402.7993529056789,498.0361002444076,72.47099460091566,-115.3618629405013,-87.36982483916795,808.988556702235,-284.90723837026457,-28.958228681395617,296.41682542933694,734.5040289389498,199.96782421292275,102.177483801233,233.82471427682282,511.9412269335344,592.1999792413017,