encog,BasicNetwork,java,3.0.1,1,1329796958313
[BASIC]
[BASIC:PARAMS]
[BASIC:NETWORK]
beginTraining=0
connectionLimit=0
contextTargetOffset=0,0,0
contextTargetSize=0,0,0
endTraining=2
hasContext=f
inputCount=8
layerCounts=2,17,9
layerFeedCounts=1,16,8
layerContextCount=0,0,0
layerIndex=0,2,19
output=0,1,0,0,0,0,0,0,0,0,0,0,0,0,0,0,0,0,1,0,0,0,0,0,0,0,0,1
outputCount=1
weightIndex=0,17,161
weights=-0.2413855050277726,-0.10973791770637056,-0.10350525977378436,-0.1340371392139706,-0.14543023196643085,-0.0944879878027996,-0.20445532108021194,-0.1514468578708315,-0.16479373153821977,-0.10677503346373687,-0.054330513316923144,-0.1156727253848088,-0.21057958205176225,-0.11851459570222292,-0.10763582581359529,-0.1411959975689982,-1.140326605371824,0.6185477359162471,0.5788585224833648,0.2419415792309344,0.6101031824356264,0.8046944766550319,0.7191188043403222,0.2893263351133183,0.8071465739220243,0.8102031971955835,0.3932944789207069,0.2582403171078327,0.26193046568353107,0.5273862392830001,1.8729565124610377,0.09918294829018945,0.49128875723332766,1.0609884055851508,-8.909507094272234,-0.19531096736128825,-0.035811994021491766,-1.2376682759564108,0.640046050890546,-0.8779871624605781,-0.7012164001351927,-0.1391419114932781,0.2542442227939882,-2.5897485846651285,0.11242460110090643,-0.026322856637894826,0.7199526502381689,0.8348745865341666,0.4899135117543998,0.03562837808609018,1.0268222928657047,0.5899188598257217,-10.541178303183472,-1.0679667771848695,-1.7896683748161781,-1.0092349142421182,-0.8579671482503242,-0.5650875563993288,-2.242062810100742,0.17660989297829222,-1.3775318104101353,-4.461013999997166,-1.5019026367614567,-2.8127048925631684,-2.7931463325811063,-0.8098984102812724,-5.157935580662709,-1.8435447684389952,-3.882054808992408,-3.818793448692005,-20.256169162120905,-0.0005854507591969427,-0.17397843926535253,0.11672676936787088,0.5794312177724986,-0.3593503549332231,-0.23273102749658406,-0.843349905133619,-0.6842063005661179,0.2848904683166945,-2.159578931451399,-1.477980770263723,-2.1640052971209363,-0.5131745302107201,-1.8559486570774304,-2.8229343130767286,-2.1131560161348073,-2.1470331246088694,-11.718551449453205,-3.4877609779214445,-1.874352619579614,-2.472879792869894,-2.477410802221717,-3.5074353716095015,-1.0570117877107394,-1.256484554440577,-4.08042638410412,-23.797544513835795,-0.6149445815490046,-2.164211380509897,-0.520720660331659,-2.456379910904294,-1.8211282957999253,0.937748376829827,-1.4116295345353609,-2.8820588370524973,-24.84683096100524,-4.125136973515486,-4.826627859395439,-1.6571930334370353,-5.341333622280217,-5.83045963405176,-0.34985538582013886,-2.944366999177965,-4.959735100070537,-31.611538163983845,-1.8567393764187368,-3.95316510708444,-3.337927936972794,-0.7767159679357921,-2.943246598779372,-1.1392080771090112,-3.8163808310045573,-1.8779286445885957,-18.46092092179131,-0.3619603792595091,-0.29538300488332514,0.12868327188529902,-1.3007651749331965,0.45297641910364805,0.5510592016585897,1.3610903345288055,0.49917091148863346,-12.878538834879139,0.23375012442977447,0.5853387954099137,-0.21004721026214315,-0.20564915465589115,-1.7095470570680265,0.3236086686604813,-0.4148641022790093,-1.6436478179330467,-15.468679913135647,-0.22388445478286698,0.41218167960651053,-0.5253767728117287,0.13111683139758007,-0.183097074223495,-0.3990249441894247,-0.5749569457748323,-0.5464042871487641,-5.339741276612248,0.2525151077975244,0.9107983837267296,0.6189871970942744,-0.1349321897504714,0.6464332868054776,0.5733486372918896,-0.27746530201027864,0.7472750850149817,-9.849732099864497
biasActivation=1,1,1
[BASIC:ACTIVATION]
"ActivationSigmoid"
"ActivationSigmoid"
"ActivationSigmoid"
