encog,BasicNetwork,java,3.0.1,1,1328520057338
[BASIC]
[BASIC:PARAMS]
[BASIC:NETWORK]
beginTraining=0
connectionLimit=0
contextTargetOffset=0,0,0
contextTargetSize=0,0,0
endTraining=2
hasContext=f
inputCount=8
layerCounts=2,17,9
layerFeedCounts=1,16,8
layerContextCount=0,0,0
layerIndex=0,2,19
output=0,1,0,0,0,0,0,0,0,0,0,0,0,0,0,0,0,0,1,0,0,0,0,0,0,0,0,1
outputCount=1
weightIndex=0,17,161
weights=0.14761135213379378,0.20311968583462822,0.026371034292276635,0.0784006130836482,0.38841767110197467,0.11572417591136298,0.08890364878567616,0.0450101767043769,0.10896563667241518,0.03380334969778273,0.045181831856243415,0.17360498935966653,0.13170590488165934,0.27931520033619195,0.07474089889164412,0.12496754675168827,-1.6828985544204162,-0.918108590808936,-4.266839238174956,-4.390329296610285,-1.663656208500642,-3.2183061455724777,-4.641785850057567,-2.6283680310469713,-3.762375883085537,-136.24132461053864,-0.534492467405083,-0.8519024328544272,0.10412814370276333,-0.4911323932696079,-0.23990105140879384,-0.47615169118870737,-0.0022950794243375983,-1.3649777773652487,-140.01667766169138,-1.355444428744426,-0.885193678679756,0.20124634416331488,-0.5485844920349346,-1.4529320274399558,-1.2053048644150777,-1.0911596116964826,-0.4794705071339871,-104.2759923257035,2.034792832693255,-0.04965267134923271,0.27956613469834835,1.1020504536029256,0.2331825526990915,0.6095142801896611,2.190570496098698,-0.05954103580968642,-185.36583319068245,11.569182603025531,10.891002419678973,9.436670627613672,11.347958500599242,10.970671314648042,7.8102265655013605,11.640257442027313,13.88445711621457,-35.415529025162925,-0.24654525739705255,1.8966507320233132,1.6060779502590483,0.05340485065143827,2.944776660236958,3.3618714170268484,0.5189260025169248,1.5402532844421875,-199.3861630812504,-2.351444167327131,-0.47281415053998155,0.7586020546933695,-0.7513559661799175,0.26265019670848166,-0.4864828475368619,-1.1831869291311854,0.0345149812848263,-202.36737942916713,-1.5877152625520492,-1.1728124440277221,0.19279658922497056,-0.721587821351844,-0.3109492174693089,-0.2676389770054803,-0.6920208359376917,-1.2084930248863381,-149.42787638580776,1.3027914418508186,0.3290007930170503,0.5359152148457156,0.13413819759508816,0.5455892756186432,0.19108258049230784,-0.5986832196529716,1.0880222804567792,-150.4149489014718,-0.343796244686713,-0.9274155334058422,-1.3784867810349275,-0.8628191754587571,-0.011802816794285215,-1.6529626717581802,-0.18206397252040069,-1.888739441167207,-121.51231165395708,-0.9256284454457929,-0.44928973115207516,0.37261703964346404,-1.2098403974242955,-0.7325928121862798,-1.8315459565941068,-1.01941684907868,-0.7672558692966235,-220.04801663078615,-11.46584923711648,-7.530113560349073,-10.532942890102571,-9.200265076405651,-6.725937701825539,-9.226181035986315,-10.278413802520783,-8.714453678337387,-128.03352866855352,0.16544417929354258,-1.5336936554449259,-1.8503656900877683,-0.426286036899594,-0.17243058364316996,-1.326382088044379,-0.994335374077112,-0.9003960862224948,-184.13169474281128,-9.842039713043436,-6.0093166833615586,-5.346166150548088,-4.153914469076177,-5.039438763741954,-5.653418766912441,-7.595541102606127,-7.096300915553478,-115.51828250479576,0.36667751251435177,-1.2044672980920499,-2.463470689258074,0.3093937772761647,-0.06308509505557294,-0.41099473678928367,-0.9012422204474159,-1.392893232499676,-156.69726528816506,-0.40629222415823985,1.1271961727194229,0.9621472280916824,1.2977521992589636,-0.5822984250768294,-0.08062469241583375,1.543073740141189,0.6954960885842975,-171.78794138094756
biasActivation=1,1,1
[BASIC:ACTIVATION]
"ActivationSigmoid"
"ActivationSigmoid"
"ActivationSigmoid"
