encog,BasicNetwork,java,3.0.1,1,1328563457456
[BASIC]
[BASIC:PARAMS]
[BASIC:NETWORK]
beginTraining=0
connectionLimit=0
contextTargetOffset=0,0,0
contextTargetSize=0,0,0
endTraining=2
hasContext=f
inputCount=128
layerCounts=2,257,129
layerFeedCounts=1,256,128
layerContextCount=0,0,0
layerIndex=0,2,259
output=0,1,0,0,0,0,0,0,0,0,0,0,0,0,0,0,0,0,0,0,0,0,0,0,0,0,0,0,0,0,0,0,0,0,0,0,0,0,0,0,0,0,0,0,0,0,0,0,0,0,0,0,0,0,0,0,0,0,0,0,0,0,0,0,0,0,0,0,0,0,0,0,0,0,0,0,0,0,0,0,0,0,0,0,0,0,0,0,0,0,0,0,0,0,0,0,0,0,0,0,0,0,0,0,0,0,0,0,0,0,0,0,0,0,0,0,0,0,0,0,0,0,0,0,0,0,0,0,0,0,0,0,0,0,0,0,0,0,0,0,0,0,0,0,0,0,0,0,0,0,0,0,0,0,0,0,0,0,0,0,0,0,0,0,0,0,0,0,0,0,0,0,0,0,0,0,0,0,0,0,0,0,0,0,0,0,0,0,0,0,0,0,0,0,0,0,0,0,0,0,0,0,0,0,0,0,0,0,0,0,0,0,0,0,0,0,0,0,0,0,0,0,0,0,0,0,0,0,0,0,0,0,0,0,0,0,0,0,0,0,0,0,0,0,0,0,0,0,0,0,0,0,0,0,0,0,0,0,1,0,0,0,0,0,0,0,0,0,0,0,0,0,0,0,0,0,0,0,0,0,0,0,0,0,0,0,0,0,0,0,0,0,0,0,0,0,0,0,0,0,0,0,0,0,0,0,0,0,0,0,0,0,0,0,0,0,0,0,0,0,0,0,0,0,0,0,0,0,0,0,0,0,0,0,0,0,0,0,0,0,0,0,0,0,0,0,0,0,0,0,0,0,0,0,0,0,0,0,0,0,0,0,0,0,0,0,0,0,0,0,0,0,0,0,0,0,0,0,0,0,0,0,0,0,0,0,0,1
outputCount=1
weightIndex=0,257,33281
weights=1.0666281618392899,-0.016271316236976655,0.2281781735760297,0.14696095149569816,-0.23699374801289563,0.0796371814624629,-0.1520614927600648,0.24734195798215455,0.0738316021214388,0.01154898073165764,-0.19460106895021156,0.8092750710808478,-0.14096708072292366,0.3674876336783622,-0.015429899902784823,1.4488568489680957,0.5600982802380812,1.4044066038804612,0.039143038976229144,0.6021097968119588,-0.2059870729802625,0.01674076084322358,-0.11329049092456742,1.394324043578624,0.4013828946213334,1.2933849785257125,1.2045994086135292,0.08728576205800384,-0.0014451147119352624,-0.24635958534587094,0.14884716000887682,-0.33476243519771637,-0.8453987424402266,0.08114814002165747,-0.4652854505300222,-0.0394717016378746,0.07759050595478442,-0.5388440109171049,0.4859448942648247,-0.2279266624584184,0.1620240904370498,0.14542772790340922,0.28136289120937524,0.4289536128554411,1.15288130972904,0.6687794175151548,0.12619463952681712,0.4853774545998839,0.2578283171233392,-1.1430817867447212,0.09594446349002872,-0.2739411148218352,0.9880167650087489,0.08124377866366794,0.6340917382550892,0.007375952555703279,0.4276313348497964,-0.44135006635281093,0.16973775949710634,0.21594670888724282,0.026956868587944875,0.4679230629250781,0.4600840086150398,1.2475736561291881,0.49085193597439947,-0.14438736827732523,1.0570657735372118,0.2846327140239808,0.10233635360893048,0.07392074264891872,-0.5313371609237654,-0.0701344636066978,0.2708707415861652,0.10388883973589924,0.4775563502270352,0.6028252134543282,1.1308125364189467,0.309608709838243,1.5474357708099011,0.3637910188288397,0.9845783053182348,0.20655048222262995,0.3889405312917266,0.2911694465763231,0.08524912606946633,0.03164496446420785,0.06992612208619237,0.4703550088827999,0.06960046491128831,0.12910808675652208,1.0321121530476345,0.49249943065706314,-1.0920214972477997,0.13911139969009534,0.0008338075267076847,1.2223772306287084,0.5480815899885632,0.33206390819402765,1.1002628560668253,0.3000803217673356,0.5109101082110404,0.3732130828030963,0.18538817108517194,1.3782364922532575,-0.20110867485736564,-0.3439233612936931,0.37916916050043825,0.597264307808499,-0.3499520345052375,-0.07129981476737754,-0.1241839589558973,-0.4563029841236692,-0.1444785568381066,0.8312458071272522,0.028670842875578167,0.22144330398603584,0.07252592503542034,-0.0005784275869961512,0.44728478846154757,0.3770572193633625,-0.3735276039928901,0.2878429850556441,0.6987864257394144,1.3653939792881125,1.547768425654913,0.5193685214864108,1.1495103544270253,0.07184477132909203,0.14011206040746715,1.1755481613759418,-0.24204012861886934,0.3371264207544574,0.24091659882601307,0.11570640771338199,0.1279880590766281,-0.08710539910412404,0.16879595071287226,1.088215718735432,0.12354673736408214,0.19617612031869244,-0.17937281318646398,0.3807298546155902,1.1424548485055628,0.4664778993692297,0.561411884105105,0.7767610217205746,0.19996434133449847,0.9397771321342434,-0.03417420480269746,-0.43473865619698243,-0.5622844451568193,-0.18312924764860955,-0.015274085807421189,0.45625186135682333,-0.08041132448801667,0.25110518389980024,-0.14962206866007471,0.23471267563321374,1.6528374593840516,0.42408589372100897,0.09105285203441224,-0.07773452489943075,0.3850747041775019,-0.13307626306854428,0.40364078448269836,0.6133612034554561,1.5905081322291523,-0.15672760183737927,0.4734223486445526,-0.023373335019679774,0.1394850551355425,0.09244437137695911,0.2741011719436116,-0.0138222706002307,0.0016472572851323178,-0.4354203349168436,-0.02537961565209926,0.06639748360894408,0.07618382620873769,-0.0025700690410539314,0.10796787876910027,-0.12855572113016286,0.882240240001881,0.5944168359719011,0.44538420718818494,-0.2196079531186803,-0.11050157122333126,0.07994905797364867,-0.15777427656641907,0.5474077026170099,2.031529940155872,-0.038979136757884315,0.9235213451778345,-0.17966987756653335,0.6652775714122342,0.6331305805190007,0.2016166220851822,-0.11547495183218374,0.43949867322774966,-0.3332686790082378,0.14157664468090086,0.02317398085653426,0.12111801276559744,0.7450356495911209,0.21022838915898445,-0.21288176156945623,0.790404942383545,0.5650087840188333,0.5728227852836014,0.770411754420018,-0.15461257138909232,0.3146683039075765,-0.29285760410823686,0.1987088183097515,-0.026319808083829378,0.8455616874311341,-0.2059321386786206,-0.020760125568478643,0.1303955500191006,0.01604499306807931,0.6097518026735121,-0.040724466090291206,0.4501293712195223,0.5135340675693719,0.37764117321819596,0.7644578676902185,0.48219456384625226,-0.04117854449910781,0.06622137570039571,0.3227167302142568,0.5999360059438386,0.9380706541893136,-0.04027277913675143,1.5922378371705042,0.11807770100694454,0.7636951366012168,0.012166193385744897,1.1037108384205698,0.34098476563217084,-0.0934322276591001,0.7048784211709145,1.5157874368125648,0.6038187288238038,0.1428405999233155,-0.07910561502483654,0.6500707332899951,0.30524559803892715,0.5369828507557142,0.5375565940378966,-0.29153330652074905,-0.037314163242565826,0.40688595072434386,0.05145777521772491,-0.2178000633126349,-0.08433679195152978,1.0797410902323643,-38.93020666607675,-269602.27696814167,-256027.42760319955,-244196.54589203256,-228492.80802604283,-238224.14565860384,-265373.1341738819,-250897.59087101612,-268731.1847033829,-209767.98937752726,-252513.2946471079,-276221.78881371533,-259252.88612584825,-239873.01311808804,-229410.3170926954,-269820.0784877923,-255737.980901101,-253254.7469629337,-247220.16668093778,-269423.20226734114,-262117.79119501408,-292329.9214617583,-245142.82228831842,-291520.87384051207,-285471.3145818739,-216659.08200695852,-218448.3825823867,-294086.3954223193,-255656.8062711597,-248260.87145167065,-294084.50078239624,-281172.5030612898,-240010.9228338214,-284671.9983304233,-266723.7769028684,-231489.1991916403,-293936.80927934847,-260300.9217806551,-237227.80895803368,-307401.21794783766,-232695.37745531806,-278898.0881752747,-259980.18488873605,-242185.09315313635,-242424.14261810452,-245260.76484304763,-273438.3667016288,-262673.4794148901,-270076.2847825573,-299439.00015750923,-240377.68419093327,-272225.3330494055,-273692.7902245986,-286584.0366673964,-279880.34829654667,-284012.9108078291,-271067.8815894219,-269825.4527547703,-285629.03015304875,-232872.2996359913,-256785.64013710702,-281230.5145513896,-243783.97606324145,-267354.92219649325,-301261.0012036188,-229539.57480964437,-290868.73742088885,-284375.59914181236,-230486.07903165836,-302416.3006111312,-298106.27282608964,-216271.31778507124,-260861.23905019596,-312442.8244646317,-241717.56815894134,-272243.31215032755,-290738.6590906459,-249535.97574504022,-308923.80776361615,-302693.8400515409,-242115.4088808376,-298793.25895774696,-300778.31560994923,-278070.33444659767,-255458.27141138914,-331337.1097191435,-247929.08235082612,-282134.31047013233,-303698.66783935635,-269482.1821843229,-299911.15245030413,-297032.19020569284,-277608.06869945367,-306850.7363630756,-292222.9073509106,-234977.24338068409,-284479.102481727,-252535.03209036423,-264223.47998052224,-272118.50338604714,-265075.7837490148,-283376.8545263891,-302237.8843345452,-251389.66664727702,-270466.90854025295,-265209.0396213089,-273643.6726024096,-253964.80566490788,-233143.8564234839,-281111.1190536216,-258714.63123489468,-234201.54029335,-269029.86081138946,-265154.5397229044,-298597.5260446943,-276861.2260887099,-283484.776821504,-290637.0645665237,-290396.33490367077,-254138.54398495244,-289978.56449079816,-300996.4056500756,-276427.7453458509,-272494.82431293215,-271422.46753437445,-297018.40593269933,-262761.02520319546,-305848.5648639484,-242461.2847650086,-151.94922982726968,-145723.026500403,-101317.27829320762,-113171.77632121633,-122750.27025396365,-90449.19850298834,-107303.56514451094,-95004.01676960803,-139475.8936891799,-92732.6024158473,-149340.76900579658,-99360.55404627004,-143929.60762444243,-131611.88531863407,-101037.22342894608,-176953.94216382492,-151837.86593406805,-169876.5576544024,-152724.53642371282,-150033.814946692,-114813.89806728774,-161876.50625401683,-132912.52271857706,-163759.56471883116,-149852.94514463347,-99646.58043170608,-92268.48900724699,-142844.6942949645,-132071.63574398257,-162455.65834062442,-172749.18448417704,-131592.57301417433,-127565.0349263884,-94738.00793723481,-115635.12893224717,-157657.17792901245,-177220.6059277068,-120053.52738307108,-190694.03215396404,-154886.3012308777,-91497.57596102102,-139329.54604188795,-154883.42199986387,-121375.74497833257,-134607.31561926604,-152240.1900619315,-157474.97733300188,-163113.84904455024,-122752.30285801447,-139573.3455986063,-139415.71885234353,-135167.17137033943,-128841.3365250034,-125427.41370958186,-171483.61752658625,-170608.330295314,-125068.45875862955,-93434.96534736555,-176014.80554449506,-108786.06751253369,-148313.6353945078,-148970.08029550954,-84991.8890469876,-145108.2295461663,-152186.32895656684,-139810.86111294897,-162133.73645293768,-174279.16608226462,-128941.97128510331,-175186.27645434721,-150826.84172302464,-98565.29016504377,-113411.61865679683,-180042.5862649623,-110218.9876737571,-151949.93776048828,-165530.8345123641,-151683.228319024,-127237.9371181954,-178881.05872901058,-130796.89485646079,-155955.89561550829,-205754.161240483,-99513.49969976074,-196228.94152083094,-208673.7633369427,-101104.40058420712,-107084.90870129406,-184075.0786621621,-164866.005306117,-182173.5825422533,-201820.90152133815,-143023.7550623686,-97739.61770122986,-167167.33950928858,-72776.62626860403,-61324.96469423299,-102105.82872167428,-108172.196900834,-148756.41101336072,-112898.1315343023,-134148.80631177753,-150834.45495031326,-122010.56290614541,-73250.55208606178,-120641.39563248729,-118693.34432420472,-148706.24914192775,-65593.87917858997,-119700.08647573578,-138359.13293200324,-105099.95251400728,-130552.50813614792,-167063.5062657041,-135498.14935677653,-175048.49716160694,-193512.7462821429,-105247.89562289126,-154840.01122516146,-142155.58241050164,-174239.02371116626,-207199.6302647448,-158483.3249444699,-170724.25436798343,-156497.67544662592,-173429.07511345355,-134664.34981673703,-149695.16702628566,-126200.70276576366,-111.53363686933952,335217.7009249867,223816.8619925517,288145.2637279287,270718.73978271533,260780.4146600137,330674.1955783951,287437.0238616987,309618.6083263641,262088.75933417134,300391.4377672018,304593.72285355494,301797.4836148272,306551.7625963637,297604.88915680465,354525.2653892949,337560.399107129,324797.5328748911,346043.5153789594,327142.25510997995,346599.714914321,333135.0566254841,305229.9386431931,333948.4390567449,314878.48771383427,265538.02098114934,231024.8700477402,292152.7816485392,273862.6035849019,326462.6323996298,346101.4830240602,344145.62426393275,314534.8344102424,337875.4573824895,340754.0030953224,306571.452042488,325497.17643999105,276096.37229518336,351400.89043440693,339446.92602164875,322419.8671698872,349254.41455466714,337607.2210141059,302993.4525501605,305707.94742997247,343906.76197337254,344965.0711225932,369475.16289209545,333207.8770085033,365610.9477037051,353618.3773091493,320722.98674398096,334557.75388742686,350159.31320920965,350681.7072095169,350679.32410313614,338915.3454557492,300323.6336229498,352933.04925166845,327137.3459818453,307485.50663356355,340984.1837685114,299831.2208019869,350354.3124123499,352332.4252478318,308046.85318374727,349047.3484166836,342992.9016914305,234389.75779969504,330523.63660607155,374351.3541982244,249190.30330698445,317250.97907869885,354665.7499527186,310762.0539205013,339810.0016755897,354299.3178524695,306625.54997479316,330077.3058166363,348149.0867915464,257333.78936587233,346431.5840644581,360624.80584612826,313007.8845227266,340087.75561036187,359664.87432741845,310260.72548951133,313881.14969832817,366991.0900830152,319525.2416439521,332046.7024768346,386766.7088232966,324777.15897469386,308028.81193555985,361795.7765006838,267236.2298679243,328155.64149344165,302821.03577674425,293267.3805406681,323507.2426018586,324601.47274027736,317703.75921901397,372127.7823927562,277239.4412688051,300099.8947077894,321991.67421879346,295268.51503327716,286522.6464579522,280685.21739429043,330937.0469414446,310477.88998061186,313047.98202437855,341195.6610831276,348441.85220861016,306973.169810168,328693.0162844049,359038.4793391385,349586.45856885327,341233.70254815207,326638.75203271204,332075.583038651,345262.45897853834,339129.55347140715,351509.58209464705,356214.10634989874,331008.03839938174,357706.61082332564,340534.14809903724,261326.93253469904,-45.63327833206202,613902.238878558,564010.4598368476,615396.2837611245,573755.065619798,542284.111545512,611701.771536878,600714.8343730635,593698.8024454219,575910.016539344,620720.2156718501,581212.6875100404,589926.9950521553,557915.7438020501,568970.5662381871,608918.1212976519,578345.2358172163,607166.1039858653,632269.2244085922,583783.7047851727,585212.6485836427,629612.6753952141,540098.1737452777,615277.4728694842,631826.43135708,549311.0812587466,569707.5853312425,616667.9012971496,557149.1896723354,591779.1004052752,616075.0926046481,607287.834166724,563075.4900852629,609387.7233352127,543913.4690751709,582987.1195258461,631757.1302086288,578365.4844481198,555803.17347952,593337.1935863282,552331.1817207915,603120.9104189313,614134.1239817986,608139.7207997534,555780.6897958394,593383.8539156925,631925.1142252225,622523.5146277309,586314.3833730784,605257.2103452841,527450.3499034069,631614.718620739,583701.6575410516,607451.9924144613,623225.6868263792,596895.7644145958,555385.1134168457,631960.0039833328,604766.6068483785,533939.6380412041,605825.086873353,645342.4024855773,589162.6958871509,599814.741521361,603931.0859315455,578863.6955429227,650347.8760895336,686142.6724013066,553374.1470673854,663404.9528845906,616974.5474141142,603197.5874289557,632708.9850408109,631496.3798030067,569643.6636674842,650582.5362982751,629906.5738193897,584161.8844775691,606820.4098191987,610439.6121710126,578227.5671808013,669569.6297165395,611712.6274995705,612539.6263598657,643901.0237943548,619689.2606790223,548568.9113388396,617750.7867922103,622480.421080187,562659.1543461152,608353.2957214315,612029.5919604023,572313.0264726806,601592.1354032262,590845.3527318821,586827.3250297047,609218.0001200126,585001.2041367491,599072.951898002,631165.6803910328,578425.8358082111,603467.3708977804,645275.6736462835,613064.3200678559,597725.2630897929,637418.8869317633,612623.9485588974,619585.2114429598,610695.4587280493,620165.9165251995,599668.6882090932,625702.0985350421,633446.9337927785,573835.5398819789,630399.7439771016,635689.5782683736,591524.4261103091,655375.904849909,636794.5573783322,579721.4847061164,644940.7156219134,649475.9315880486,605015.6601836134,609162.0748423741,620855.2276359281,610952.6954737228,636061.083737154,634369.1593895961,611820.0986259548,-162.62538681156417,745374.3385176753,689577.2015740096,752179.4673144605,712272.0423130085,620927.2377417714,741338.121189431,686002.7565434447,723231.3387618441,729803.0330105437,720690.7738197525,740131.264350087,762196.2813390704,709745.9508325747,696713.9773021821,764764.2382815875,742975.7850888176,742787.2723317683,793103.2657598943,729541.1353445604,770910.2141005559,772676.0034165892,714362.6714606732,740035.2618982017,779717.8302710052,664752.1234783998,707184.507060213,738650.6598757005,685595.8756293786,747157.9420819228,770084.3151488726,763141.8493855954,739877.9993371574,735584.3322326221,717819.1868931225,735388.2453160292,794551.0819221062,663911.6602074541,731795.1272850519,737757.2821335996,698630.975213706,764385.9226025188,782714.0664584799,739072.8688181614,715617.0747182764,750828.3793102102,765807.7651619401,761322.0250286399,741052.8905695715,793036.3855184293,728090.1591958685,769787.7284343516,743305.1470926938,757823.0288331575,745619.0547299234,755678.6935828667,682937.7388288522,724703.8671626376,752485.1271425986,739949.6901059395,761664.649823979,774436.8678455581,713547.4935382631,793242.8055954676,762784.4823329649,658329.7540900335,790179.7137202703,799884.4510752044,651376.4793289846,799560.5796995244,800830.9743539637,691897.2483046296,754271.4963441864,778892.3165340442,670103.6963797599,788573.2920217089,799759.6359627295,727342.4876718104,761951.2036110546,806236.5646597677,676798.636741095,789158.1373946127,809111.7968332744,737264.3172812465,805678.6320101881,796082.8777210026,692463.5248725155,756969.1301877529,807345.4420119638,733326.182172848,817629.0601691796,798030.4183977621,741040.928651792,704603.3343270333,763977.7883398008,689123.9996577937,693460.2898729577,704082.4233368213,696305.6071782839,727055.1536311359,715042.0428616643,736491.0233233136,794975.9033455646,703231.2938837806,755053.059006028,736850.2535123592,730896.0504972755,742512.3865795993,705324.8570842512,769582.1324533586,760240.485752888,755085.6609794612,763297.8298822425,750815.7347851365,754351.4276171948,759182.3053365927,783644.6967978621,776708.0252104762,802475.01217776,738304.1521893931,781867.7865150027,817400.3818613642,770291.675774513,746363.9343088407,802271.6600348069,780807.4834091814,811448.501575314,803249.5607413524,704684.655999357,-123.3433580568875,206465.11364946148,145297.56238040654,175629.15247222924,140362.50901233836,142060.37252272165,163407.85242147456,158924.5072222825,165745.37524751681,179691.41939410905,140400.80646300505,160160.27576748928,174710.81911853692,159314.67995774088,186620.53919342122,201193.8467346236,165937.7008348088,197178.91597928145,180566.91812288057,171631.75082576057,211792.55241362288,204674.32616534363,146969.66749434534,211423.06311894383,214858.33688705642,134243.9509516916,113848.08962652099,159585.0086834262,153858.31149197274,186434.47927687658,189234.07680779716,188570.1874813731,166456.22654205436,152096.2480218055,188256.31342296873,208980.53924359614,205300.91643179895,161545.81824228654,216237.10341786052,202893.1787907705,159000.87843484856,184655.12494821812,185817.87295326052,145737.5680370158,190825.20699394707,201016.57320742126,181091.18101433566,256620.1671134697,195499.42927770733,217054.35693957508,217630.16647292062,189112.20709453814,195568.89110694773,186199.76827206713,173046.81267037065,197210.1835216662,162518.09412338308,143519.28070866078,200708.26406036766,163650.01699186774,164753.34250189594,169799.7677851354,159704.11928793075,165251.07735381203,185716.63803125653,168017.7951091511,181482.3086092645,187785.86808902625,107225.27202648198,170452.78434687798,212262.74652895637,102872.90411340464,165567.6548929031,205683.73994376318,137271.08123827266,184492.13963547206,226236.87521504087,181584.5002487701,169233.29803186396,222970.18153162632,134833.12164681603,209016.00455589147,223431.97062219563,182931.3397239379,208396.9682022986,207827.18590408415,143457.98283594003,158683.49651756595,204715.22293091702,194920.18653014427,175644.35730859794,239805.18693301367,190544.54398463343,192431.55598482108,183953.66406329116,119651.84885675188,141706.68275395886,159843.77982656893,134094.33353319252,160138.32327196695,178618.73500579022,182169.29861321978,193328.90226941204,165104.6898379665,145447.27462601467,170024.9005148908,168728.41940315106,163315.310464339,163587.26983355457,171818.17607037537,184588.3867936847,160467.42051766225,181949.14776665368,199106.98587759704,161786.84541217002,197063.29029268978,226376.01048476,204001.20591736824,187628.79070775,197168.27072005146,182101.57815833838,195766.83006289435,197308.27855492668,202362.41524325218,184878.548723306,198481.52113208704,202306.56339156232,212074.75987830444,172651.01787097004,-215.5492594231341,-74814.72413125887,-45765.34046258233,-75724.51018481543,-59006.641095437735,-74126.61862335562,-127552.00334860255,-61295.77171357563,-99253.25956281259,-43265.45534459338,-76278.4917926191,-73267.66222892825,-73910.13033687216,-82391.8677422654,-91529.13034641698,-117448.72188047263,-84719.97100071055,-91129.95931782572,-76826.75378298733,-78458.26539032793,-113125.96920461876,-82765.98845256041,-78200.39662749226,-95403.9205852383,-87450.93167361671,-75864.74418834547,-61609.70297479074,-82049.05615297577,-88093.15575862772,-93663.29027229761,-114911.83404202975,-67283.19993658432,-92070.34806075478,-108660.32214469461,-126218.50526956431,-86584.58078656394,-83382.19808625904,-56300.02820525706,-90976.89590197818,-118376.04047498762,-97371.78757265965,-109790.58021342577,-100476.01172011119,-88836.05309629132,-85441.68812354768,-110989.78770050139,-110379.70940720216,-74026.89484077448,-106468.99476947915,-104784.23202401627,-82620.43006836236,-81512.80331406802,-120576.42240104923,-108577.39081418373,-115273.12885038744,-88296.34114784394,-78066.24117747402,-81171.53190253071,-116217.96810269114,-101870.44048185437,-115730.5770302682,-75926.3649120389,-85475.45506178451,-115367.92620039347,-114623.06017459478,-101770.97846933649,-90089.21355695848,-77379.59990572829,-54194.16438873652,-85347.00384853153,-101825.82040148063,-40693.48818619685,-101055.08790213364,-96313.03344252557,-83211.81874076625,-98980.14134895886,-103711.30890356442,-80921.77916412742,-100275.37633252806,-69165.00917140697,-85630.70886016745,-120656.82679876885,-103308.89724429858,-78918.17354671643,-60396.11322054677,-94694.51641164855,-118333.55045027295,-107928.6233287457,-80965.42989930195,-100257.32406771735,-77194.31242912942,-94850.19127001792,-97769.29634686053,-131969.69790349217,-89507.73878452745,-60649.887448407484,-101591.7364350482,-107332.56432665055,-75685.94978190916,-81230.07638670388,-103246.98418840287,-68497.46894656755,-113623.31335129504,-95759.83440340513,-101518.064879924,-102782.08015803565,-53831.9716808764,-56707.093856569685,-120213.93197801095,-78497.52908679882,-76225.32449822775,-48106.2188653181,-125226.4272077758,-82933.87878538056,-79428.02016119099,-103108.6946625205,-103680.44688214902,-104777.31167676988,-97849.26594066799,-83180.79029334181,-91813.8551161987,-68370.49816140834,-108502.03110083289,-97672.187355568,-78482.60527863244,-88080.06960445874,-94581.71051816952,-104963.73670954714,-49018.98313309381,-149.37238261873892,248266.58362298115,173112.4907818136,230831.31997937118,209075.99159198473,177602.26259511238,214685.32700694803,162733.2578438124,192584.32328336118,210744.75430820358,207448.2118622587,196889.95906012377,204545.29807891132,209347.3007929064,228629.83904791906,251167.12915856845,226297.7145641579,227965.94179635876,253046.1478323074,197537.90151451097,249036.713501985,221916.68995002398,201884.90332830392,234061.58800993476,233674.6792559745,185964.9358344285,196705.07066158383,193203.50411079059,193702.9358023472,253232.50029501796,245669.01309125032,226641.8360073827,244500.13132815328,235323.4908278389,222269.8443457411,245784.75979123425,229826.49304459954,185152.88793135947,237687.2896812809,245996.2315912407,210879.28665524535,240205.13156703557,252672.70755875748,189338.99926764827,223327.17854741382,240703.64919091825,241897.87573593477,253506.36863145998,252365.71932279365,264951.05565039744,254116.733138139,207604.20875591214,248073.96344069688,218415.92950818033,216304.98946021651,250929.82059130337,192385.26417992482,181347.29311068976,250546.82049142645,196894.53057419913,212997.22159776083,220063.58452960954,200510.3687952329,243405.7541287145,248410.99421312555,211300.01196726845,236591.3906545615,230812.73164187648,159073.51202582414,221254.1541747212,249445.4332298835,153893.39969261776,215146.721833082,256624.27876465485,186224.64047937896,214562.2287735404,272390.8997471868,221019.66823755228,232366.097313197,250966.10099354596,189978.91413503204,249888.85998306645,257368.3192129264,202382.69899495604,239811.63566760684,267366.7978795559,202340.0792254056,200802.71579268918,243297.14507282435,232208.64423661827,209939.9692043853,263916.92742366303,216982.20237652233,201397.7476357997,208387.1431855912,185660.06150872857,162291.0608349095,213068.31458830842,189841.07906515838,192566.63921133202,219555.74623425255,216677.0516021757,244312.29612265914,182304.8877801419,193937.05569499783,219316.40009997506,207942.15125568587,174639.2130054363,203551.59084636893,222483.82533756472,250824.42773087753,210719.16173878044,235408.44658473096,245098.80891168898,210051.38546590423,238844.98676349237,263106.98309230106,242931.86565549322,267656.9924304783,247321.25780682414,213026.67793881727,250593.98455518592,251644.51636130403,239515.13025092636,242494.061529348,232325.37600343247,226422.57369758523,282209.6231801495,181105.68528456107,-124.54391096175883,-183343.51933546245,-179394.65168866023,-181850.03378451898,-146223.43796980922,-136512.27343516116,-149748.37387009585,-150511.28233653842,-203911.68764113425,-146140.3300757236,-190031.53068148173,-178241.99079959077,-207530.02128291276,-150066.62126684352,-181772.66554292152,-203922.06844524268,-177756.76298664656,-207749.58725310242,-188261.538325046,-195241.73309010832,-200803.87428690933,-205055.9658340849,-153409.32553750143,-207491.3542317003,-200129.5750563693,-159773.314252925,-162023.0691214429,-187690.7447867354,-156919.31132320577,-172478.32272675412,-213546.91157656125,-215608.7835902634,-208729.04355153407,-188806.5860561653,-167215.7186639923,-183910.92241068775,-231656.23828728596,-148238.1563348468,-189011.17186044154,-175940.9209031661,-151854.31831261682,-182047.29153509074,-195939.37971373857,-140987.35231603333,-171789.73869577397,-213005.64650406546,-193968.4621895026,-206577.00431693028,-200571.97007754506,-216724.5750276914,-198973.71578609373,-200066.1418405288,-208733.9709436127,-197707.69406344803,-242082.32329667985,-220218.2693132497,-175771.74464580714,-155196.01837066884,-208396.2035012769,-155327.67955228387,-180309.11378173603,-195139.0607666647,-139680.00474879457,-214708.47138914358,-192270.9131081475,-154340.669768453,-187261.64396586624,-201017.94825976147,-123974.01221116817,-222846.27663542033,-210779.2558294763,-156414.81317676464,-188763.51012803862,-229911.28102409584,-130914.35891511914,-211141.21710941676,-213113.64728072076,-163486.95246091095,-155470.20745822202,-246346.35187522342,-152671.0311115502,-226948.21071159714,-250113.6987513948,-173473.68545385698,-220334.2551720416,-236989.91551972882,-164343.96679206856,-197123.42262937714,-232566.68130446086,-212961.34677070667,-190910.09093379925,-259013.98480798648,-188934.77078503353,-192305.86762340984,-188160.6554685277,-138915.16795580348,-179393.53790493586,-167342.9949517168,-146147.4940844901,-194323.32365490287,-167726.58531766647,-198423.61168220924,-209271.35134861185,-185537.40426055028,-174528.59910889802,-188577.47611320714,-213250.5042495598,-155616.2562514273,-122680.15937068725,-203160.02989475694,-194326.30858652,-156190.55294076173,-194851.5650753754,-194692.23508513538,-176418.2338347971,-203329.1239569125,-210496.35217049532,-202811.21347036224,-197478.5735099472,-210446.11060509662,-204750.4452713736,-244853.6911957306,-193025.9933710813,-200606.08020304955,-210414.30834695869,-199641.20578413288,-193022.81256421996,-207680.03452154796,-197619.1152030767,-190.84869233297334,-149760.80883298226,-94451.24495889917,-107906.35224422757,-94635.34941608977,-95638.58444112918,-113686.49861012558,-77643.16385015921,-115658.33820615186,-116602.99973122324,-108068.6044805187,-117690.76521704312,-129121.95492005485,-121269.94453411092,-105673.05784431112,-149963.49733344608,-120905.94118223201,-155230.78808003388,-147525.61152371074,-138197.33452591978,-136836.7748710567,-145664.66908891094,-90634.59132872896,-130272.11301451045,-138833.52552265167,-106936.74959079736,-81252.15969117836,-131925.66034753848,-139643.5340372462,-140714.86421125598,-140813.23056361242,-154606.09727851907,-153828.5110280928,-109746.8496357068,-122977.0772213138,-132832.86514190998,-150792.72609567264,-83040.10676835298,-177338.9636984086,-146544.15173898998,-110115.27371934065,-145970.14154192107,-157548.86750110294,-92607.55083384187,-119827.60530938399,-135609.7277381679,-155910.58816442484,-178138.7841417761,-117682.89248476345,-155884.69778913425,-177833.6166081325,-126727.4660134634,-115676.38158826785,-139935.6926741214,-148924.77916379206,-158674.8867686318,-119399.0372764862,-73888.26249943653,-152626.10791687854,-118230.98948159805,-116040.33525249026,-137357.26171572934,-100022.56307634314,-143236.69375255602,-130126.31508225117,-98334.46099078622,-143781.9223915231,-138081.6185136459,-105304.90024334776,-140236.01171328596,-178105.4535562166,-79025.61428830001,-120314.35579009428,-143273.6109711152,-113432.73971527432,-157598.250255335,-161635.82803903983,-134846.68406704592,-91012.943261539,-194194.30579297186,-92876.26113015307,-161950.66487935305,-203933.7848532676,-121726.86993074414,-159501.55110482138,-172711.2169844276,-89951.04890569753,-120233.39050989914,-185689.0320142664,-152568.99200412046,-146023.6444473295,-202929.8620137314,-146662.1477535776,-102863.00423420338,-167650.01262761117,-78396.82203100758,-97502.768025622,-68049.72446605169,-81180.8570165287,-131744.43165667134,-141802.78411102993,-125418.87548162928,-143044.41946952033,-111856.64573326537,-98554.55894099617,-110947.61170071547,-134893.70205192853,-130029.13837158418,-72000.6572641323,-127230.7176629469,-130657.36655007323,-132927.00397901886,-107413.75344766263,-157188.2267900676,-109551.17344429925,-162734.35776506457,-156357.79756942863,-138201.02310306975,-152898.6548809605,-158397.87800151214,-138095.36048287924,-177981.05235204555,-143888.75963439394,-129031.66812858482,-161968.38407276926,-133660.63085698168,-156936.0908510808,-132536.33876478564,-121380.45378368771,119.5044795237043,-115898.381368881,-94609.57020227175,-131381.7870533805,-64991.43604065058,-72526.84954078477,-92446.84798058096,-48315.538164585276,-106917.61020735523,-65750.02688262252,-105887.69680325664,-79429.13908819333,-91543.72877242869,-79353.99107083686,-108082.09332930726,-111358.47941487587,-69910.09356436327,-109662.08041886498,-90087.88053650211,-114699.54362665559,-117595.33560353648,-142062.8570055087,-94307.25135370431,-110556.6210171241,-95643.44144436637,-77588.41419036535,-98308.07824634785,-105704.19674726324,-102296.44714246136,-112976.10186421579,-111179.48057313598,-92882.38977297058,-128790.41616738934,-108900.86792665183,-121253.34885801461,-100824.37169935353,-107459.07646726495,-77115.09884106905,-98949.13864946991,-146157.47630446317,-98948.0802471626,-107177.91072577037,-91251.09195705726,-70754.48664485356,-122774.86157902934,-121999.43376151125,-119378.69189599717,-119755.65588262856,-133369.1649055365,-134483.02513115248,-116476.13287562843,-102678.65167018214,-109562.97568314864,-112205.34631656478,-110908.85794934706,-114656.12660413019,-85225.5986086765,-90015.72341441685,-107018.16861326082,-114772.78382258295,-117350.99425812197,-118943.55307455866,-90628.90923740911,-130791.88039066838,-119306.9447557374,-116046.17348181021,-118652.17468311926,-102373.76377089134,-83994.04207919957,-120196.44463918562,-115538.62344209719,-83164.87248428218,-108983.72633905394,-124243.80425208058,-73541.21172230186,-124804.93694848927,-142915.3836645815,-95853.24766441913,-127782.21041196703,-143789.7007372357,-98721.54650310447,-117618.49573168991,-136464.16139571343,-97478.51350102712,-142622.39760460268,-155068.38421378998,-79020.65649295191,-115949.85884179562,-96968.88390583581,-110933.45558166898,-97307.59501238585,-147921.04475312264,-120832.2434545313,-95222.61786599114,-86075.9451058593,-103509.11524554993,-98644.14010814884,-124376.88322173104,-82239.1496093263,-112632.64971992608,-115502.97142483837,-109288.49128411779,-106242.50853323833,-95998.21841188947,-123148.40505137415,-105945.0017878122,-92713.56908685977,-89815.2778526552,-80621.05201152104,-94884.04348861963,-121089.83268449204,-125354.07580632057,-117351.11087800522,-120867.87863017031,-85956.15479473022,-105987.63454059183,-122892.93236876285,-123577.36437837493,-112411.9541874503,-115924.8554806695,-110606.86150752254,-113169.98590874138,-110351.47547325531,-120004.9512871575,-142365.67853020964,-161859.44088459612,-100951.70794144418,-130127.33733753202,-43340.63986620406,-159.4782415320391,393610.27136225696,240471.35262382406,369611.47233862063,259310.5789796661,306710.2634641087,364216.17548460513,308469.423252899,347241.8527143338,321934.7048001021,373363.4135436674,322557.5519601644,372224.43873029813,358796.0804128566,363437.85454253305,414686.7224121755,395472.05219089705,433893.257605182,398302.0990603465,427608.23498675536,436822.4228615252,412820.7866518064,328528.1877664035,415642.4172811857,415809.01982146123,260561.6727855031,245902.14991565485,339736.1554817857,321153.5942792145,396914.389338841,448532.6031576337,426804.4194641135,385044.70027975435,364617.2309987785,364916.2433314233,392354.7732613729,454726.73879837047,305477.8062017971,444495.1790118852,416740.28430113895,319843.9438250361,390100.0487725243,412199.6873892072,362055.6682238472,379399.0439884479,383351.2401093956,425381.7583948241,460391.92548335163,391242.1144210603,440649.85295427503,402211.9224353091,403739.6712481433,429412.15406083595,417973.2612147666,423903.0922855641,433378.987316799,312667.71397128166,296012.15294203814,447662.2957747635,340090.9905162075,388080.1350713884,397719.9057596672,289172.08210090786,436597.50575429556,372798.55998329225,343096.9439438405,406648.0372749397,439516.83507174277,222463.5324189546,451454.1386649611,446155.70616788615,236461.46118780796,358399.39798787906,400676.25703104056,341893.3724344427,388276.88920976437,447654.3045458528,380705.26770350774,320919.7536848769,460825.0303030106,330967.9299831342,452749.807109945,453939.4984374965,386750.56573823065,424706.07683015073,438325.9116300844,378968.92583106854,337822.28269669897,448140.28944143816,413410.7505714434,420473.63794913,459389.51002628193,363583.09242747934,342068.5305483108,417286.13094251906,246552.91218478326,272543.985895683,339428.5764705728,324089.2077969964,359058.0935905196,375356.26041955006,387004.06629798893,420059.8740256489,323361.1275669403,292721.92847034754,393906.5834443274,381736.949063996,334414.25938547135,254441.6322514055,368166.2032348942,370079.81528636883,324914.86635071336,396379.67969255056,431465.6678801658,338346.39103157,394548.7917124092,425517.9890374022,402955.0843279537,427967.4370544284,437472.9265371555,438304.44808051165,469000.3028130107,392540.58117184386,379669.18688058684,391548.51737751847,382316.9533482683,439083.94086486456,447337.2138651844,352330.2900382764,-151.46875484009604,448502.2341268958,343270.6058044721,458080.3866183453,310865.8176580566,353107.40185848053,389948.425388245,359494.8197644693,364891.02187485516,375957.7506736564,394999.355657854,396646.17995744874,423963.53084934613,366072.15571394196,378197.41478391975,417996.2321714362,384728.30910834204,458596.88730424515,446355.5383685623,437924.0605343744,429947.51881787827,418968.57103808015,344865.34076416143,421434.6109036354,430580.0013616049,324909.0181207626,327581.26955406123,396097.0042629162,362652.8011315813,460526.56993918266,446639.28513457836,409903.54102596466,431123.3598969888,422914.2923985557,388031.56696410856,446294.3087510892,462500.38162515,367735.5504968376,429136.32049574354,487214.83565580205,326558.643989969,414922.094064755,455707.91817890655,330539.6091707594,390467.1271886409,420798.2489585066,459294.26183363097,464348.27415721765,424209.3148468461,473956.5089541371,474315.1037295272,404938.1875269391,418225.77271371434,413506.3719955839,442157.2787124991,460339.32633753825,347839.31892173644,335127.8167846969,464096.0344998961,345792.3240560424,408879.40408173914,409685.3987343853,303801.63117688027,448235.33535387577,389920.53676251654,328985.4233444206,453741.65229919896,453000.25765106996,266961.2538137352,453308.5778722477,480248.31172280456,240391.9594153093,415924.7694979639,459535.02797968296,379999.4887342866,423087.33681944036,477969.38219272485,395087.94050842116,406242.912862303,495729.07697582745,380641.1188229386,477322.6788133215,484761.2776954568,394061.3501230982,465767.92246905266,461474.4041220859,391357.96305827354,382286.33980168175,475602.5269234519,439718.49050070974,468218.0329095524,456393.3455214782,429557.76341989846,425197.359215483,422347.79829176265,311946.8261533074,294395.8384892234,334008.0837315848,308003.82105062023,395933.29186598875,364230.56326769234,390554.9021351906,437939.84882447595,328096.45656430814,358469.9814278153,429012.162577403,406624.99707651226,423457.8490288569,293292.34791226324,377357.23298661667,432959.72641499236,362793.9993008273,413272.08466407284,423123.88431899145,391195.87686560565,464946.5066550212,448267.37877527066,430554.7953435679,444253.58000385086,469991.0514283424,431517.61072550167,424560.37513144204,471124.7449445374,390606.7844743703,424851.80864678416,425525.0886698128,457343.7316094444,462841.3702981449,404128.74998647143,-144.73666284180834,-103618.34715953897,-49606.01444644064,-86049.90776671687,-52990.160403737034,-74628.42276660906,-98648.1359102519,-52675.67557188515,-113823.2975161866,-80845.50849583848,-85368.09834638888,-82844.79344925922,-117425.73302895132,-95582.08376558805,-100561.7583954751,-106288.16490885148,-108837.78988833673,-111794.32259232135,-113080.83047596503,-121852.7468380677,-136218.62775001672,-116826.18409684057,-84429.91637402872,-109319.26647097034,-95891.70444201783,-65344.31606674286,-35401.8020410515,-100325.86106410238,-91038.64465504268,-111231.12895237768,-137976.41521441896,-111222.34229033728,-118548.08345702283,-110474.33989641219,-99925.74407128496,-116746.77167761886,-136969.36043718323,-63954.8480652264,-118809.63257647867,-119072.88194273105,-71498.36247886921,-118791.92005587167,-139667.589755099,-80063.26039869402,-85827.80669744786,-107843.44114902387,-115379.10093099931,-136129.65730712368,-104968.62722449799,-106979.69638708344,-135179.16677670396,-85346.31575634288,-101133.94878533957,-126694.24287447815,-108483.68839664085,-135482.45405837384,-90476.79708989548,-68663.03552708407,-132585.23674763105,-98474.8012269839,-96392.15265770338,-111226.64204985609,-70959.91911795606,-141190.35484642888,-122498.15600150169,-96861.77710824499,-123639.02129005341,-117831.35454316981,-51039.30177301486,-128422.02897143076,-124760.57090916835,-49530.62775274996,-89223.90503318504,-124517.88338320405,-109170.76871535147,-112357.12863547729,-110116.20944748263,-114069.55052630826,-79442.97051820402,-126748.8624613081,-86467.9087043757,-112123.92642347878,-162498.02458602548,-84040.85133098597,-124207.53543100486,-133144.63060809532,-83124.23511657734,-114380.80722543142,-144434.75919510174,-125737.12932173612,-97812.72253005364,-128971.01297104725,-122836.29757096882,-55877.59963205425,-138010.60458692827,-53080.024557536875,-62447.43141703244,-78324.86622743668,-72881.61739919451,-83442.9872988002,-101395.63306379906,-105102.67094854066,-119937.32717690831,-76760.94393810454,-97643.15350679499,-82360.5340304325,-118340.03207698185,-100683.0143281261,-37011.67851265262,-96760.62521643988,-100391.25521084621,-60670.119787852804,-88276.68607323854,-127861.88249518444,-98097.49544897661,-118537.82437280199,-105418.08570417685,-81432.96390421432,-117053.76420358932,-162216.42880908836,-123001.53036138283,-127940.22982664329,-106806.11080636653,-83944.63248295509,-114344.73954772331,-122749.60471187667,-147728.87757661726,-129282.0896026527,-63573.92714217674,91.41642744089064,-85895.55342557104,-50798.710651131805,-66426.91954057133,-9900.207825443693,-53573.05717493065,-85886.93052015317,-39942.63429253361,-90946.06339285022,-50673.846030905544,-96921.18234167593,-79312.70215418184,-116302.87642158728,-121344.46187069488,-68328.07490989572,-95138.3973622589,-125953.32514018122,-100822.58379210494,-77992.32693329715,-83781.2625569614,-121373.9239163673,-148526.70629172944,-61456.4920832422,-110316.81597355177,-95239.81948228757,-66785.29058807009,-40175.11010638328,-99666.96195117898,-73860.6772398063,-108716.95495643993,-103969.89625097382,-108228.11264363998,-115672.65766267793,-92771.01335949192,-81619.48919930468,-71816.74162432665,-102546.49782269224,-64957.061663739194,-125907.00530305563,-100775.61573951993,-42804.72406803958,-76582.73452772593,-123829.62678945444,-65644.24273867291,-86174.00391861696,-96246.57671780087,-129949.01287671567,-118371.37889682918,-95337.94865113852,-103564.04830047862,-107429.74075586397,-113319.04904092415,-95091.72315506118,-114728.83974769995,-107244.02568029377,-110143.3024469304,-60820.06679595604,-36327.94703502176,-122662.75422316595,-50844.219355897636,-82469.87266797804,-98618.16006885005,-71547.90634163492,-96346.14929230578,-108882.83185060666,-73836.8635323134,-129622.75091995935,-113486.75641229429,-56183.58782363221,-110967.74330829989,-97304.57813900358,-53201.374008666106,-55079.43499645328,-104203.95206811557,-76141.82630588184,-90314.28030183904,-97167.63080486575,-116211.2536051231,-49680.957640535344,-122961.11293424157,-48982.280706477984,-153722.75041298266,-119085.53182076602,-73010.94177162631,-136932.51585842122,-119758.51226443643,-86521.29801121625,-97841.28297755033,-104339.27729389917,-95582.83297970297,-79008.17753387614,-120635.5595465504,-82124.07997022966,-54909.54146885637,-125305.28507342895,-35575.60686598703,-41737.80325721903,-79277.92000901655,-46571.22569987592,-116642.4484538809,-100885.66022598048,-71744.64427859553,-92666.56199684374,-73961.02313478528,-39189.13007335248,-69118.60349862736,-95029.93515996098,-65899.79439086595,-20023.753050872736,-107870.06215510503,-93167.5543181722,-50978.45987158098,-85441.0577153756,-128375.96644253503,-59837.68080853461,-97699.83996311664,-144055.9870780765,-89479.0530460649,-108554.69453153222,-70966.19989738657,-110519.836668077,-149294.18146453303,-97387.75724019596,-81209.2174711026,-97132.74166797989,-106490.8862122522,-73705.98838933621,-108906.66851157478,-62689.89674967493,-178.2900294188202,502254.2864065938,463778.10514756717,553375.4269248364,455118.31492432614,461622.3907789951,474864.17638072633,466779.34042501723,484989.42981466925,461096.37686209375,493705.7003748735,508578.14813585137,480172.8102827064,434947.36118486465,444448.5846763378,498868.90546736866,482540.9024423736,497572.2365347276,511767.57555604976,497194.39639265684,501102.55713379756,516700.4501945432,473394.33925430867,536180.2095902291,538057.1653552604,432978.43875534245,430577.3366266583,525628.321346324,454702.19696137815,489074.46309117874,525135.3956959898,505043.8328629072,484926.89753640495,493036.7932150553,468395.0851219157,475530.8305267418,544095.5604439953,449685.9833489191,475067.90734760143,530343.0070318868,437864.6829645108,492240.3064187931,538646.4238162213,442246.6801758813,483810.77711402264,481176.5031255956,514844.01652765466,522076.8353863669,505696.1356385921,533491.6821694836,489773.8482431422,504846.2616739973,505925.6295353123,506477.9268503512,510133.156469416,548618.7812647399,461085.5990268954,461882.970474401,524074.31952442444,436706.23116703756,499568.86859732907,507598.0800247746,435656.4790208731,513104.85741995694,522036.5025362717,439429.6668936254,543424.2280839819,558357.0783199577,384374.88555232104,526470.0525007603,537261.4239681682,379109.553313388,504809.5863857295,567175.472867461,461070.80764025386,524679.7403174473,571492.0013851816,492640.8449742652,521500.34489430854,564023.1774971401,414361.7096283278,550327.2797408397,568076.8741766064,506376.2634912619,535379.1738602945,583681.535152652,461304.5227054969,490748.76294731145,575236.5492894214,516483.45145847945,530421.9256180468,562753.0821482576,503971.19469693117,469199.511214516,493516.8235754788,453354.45624983177,466493.4678441043,460020.34852261096,459622.2166440113,497874.84082241455,482966.3633530203,504585.9118164309,544991.0220870877,478038.12970539264,480451.0298565268,493981.10911572125,501059.55032138113,490896.4393781448,423441.872748266,512180.2769162195,516335.2762035771,524165.623451085,519422.80385250604,498340.3900267615,487069.4245103532,533478.3434408894,533490.9372768953,527900.5785796945,566779.8603108878,509742.4682612153,523558.3377784866,549160.5667236575,531064.5878159356,522047.20392882626,568584.9492490916,539557.4910433448,552585.2206015297,526545.1141039697,474262.25906338106,-191.95579466858788,196350.08698335045,157531.12427467963,204442.6877452654,149884.25557291723,172207.25078353743,197153.0876029249,154368.9401100084,185274.71524980667,204383.81091927734,193261.7075139417,188941.5117557192,189419.08322815804,174337.25132452144,182283.9537605728,190399.73176590112,160200.64832881655,197102.11424189,205334.09296499123,198989.74164226378,183105.6255984934,224000.85610390204,181778.54467608212,196803.0772034529,215100.88608190528,143230.4270700792,167178.2096311978,167873.59677810312,173924.00453567365,216143.5488426132,179757.49395371482,197399.87566154814,210412.22248704018,165522.35468433457,157264.3014539372,193211.67155677208,168383.22337413585,170479.2942904353,177454.91566885015,188712.44812734734,180248.1799947728,184873.27405573198,156907.5661124582,187331.2313571741,181391.10747117864,179806.63509080946,189030.34136870585,209725.48653149395,180645.44288483245,200411.9150895444,187551.6576980089,192337.536987266,152273.9342048775,163285.0495211667,196424.78031235322,197333.7762268428,181957.3942423014,180912.2222805335,211087.81005041505,178906.2255305384,178007.12373582745,205124.39706138914,176483.69030698496,190873.1410464822,188545.49693300502,168326.24882076753,212021.84530947532,209539.3851674046,164560.74976166146,189748.19923889005,228346.6233940542,192596.98637828502,196807.7992771574,215300.742160749,175310.08439198844,195968.1838882328,217105.86686811014,206495.1019149381,170321.08414056286,202886.53554038538,158497.68471024494,192764.88253583977,196070.06025138457,205346.0778392154,225237.9132293299,209754.44534330565,193345.73466554566,189645.11294655906,190144.23054490774,186505.94865553002,195463.37144164625,211944.6904580787,197660.59768114742,134065.26973515845,206443.6950492806,194308.90357994722,189552.76527592473,190504.52075024837,182510.6441588088,170399.15218223093,199152.88602418388,182720.2351406404,214481.5834136821,180520.7763373085,172717.95362401695,190576.8639248177,192942.12837310415,177890.58695237507,166730.35038354303,188634.64773571264,194434.57408570894,208007.27392140683,185276.88353327985,176449.89403638034,180921.26193196056,188057.23809424357,215334.5861090134,216337.09966044972,211317.02793118625,209463.5664252126,216413.48664698904,217747.5774517555,200930.95093525597,197418.22289973876,203407.71484199306,190138.1430559555,203990.84660951022,214656.03690877662,137123.26801333515,-136.0850407626364,-165563.32306423955,-80328.2399553015,-177179.90615010043,-106647.6860390444,-138527.8295699108,-163112.3212093183,-117221.27360701018,-150738.33261105124,-154056.98151774748,-131518.3813788915,-168268.78062763964,-160389.23946504478,-180375.00865337212,-178584.62508593794,-205924.01356012747,-146358.35680807297,-185152.91161174446,-183104.36745594934,-187538.61782539438,-179542.22556267362,-199713.78496520992,-150358.72677005205,-193418.59450697596,-180447.9523521284,-137981.72145732015,-118837.10440639542,-146206.6552514296,-152267.30785241735,-181069.682341608,-170321.59940649144,-185316.193356192,-210116.06005868636,-152021.5368126857,-139912.1808098121,-173664.90577393293,-184754.74373275932,-127676.84166061279,-175926.17000456704,-186793.3612959004,-127771.26757624972,-193623.91824212717,-176793.73979911092,-165742.03732253163,-172727.56497615887,-192561.25916981552,-199638.88783419534,-179938.71399994456,-172610.99042686625,-193108.22761382032,-207529.03263090635,-153105.8370576778,-171838.3828850667,-180594.75236417117,-200294.14634340597,-185833.03525879138,-172028.65732958852,-109037.01438159238,-219958.0092954282,-173077.0155716029,-173263.41529186102,-163744.34051063596,-129441.42565378125,-200767.8504030354,-140387.262608109,-171167.85239941088,-176587.1696707756,-178576.04575147468,-103779.03017829671,-198393.11882995963,-209725.7068523062,-85724.69043821908,-177997.44704002436,-185507.1014635875,-153169.10559149898,-183770.91915928363,-183192.7771211353,-170963.11131609563,-117654.71588050845,-203381.00767684408,-123324.1377518491,-192274.45874736822,-216291.22253479774,-176471.32279182776,-197797.41126248083,-188127.8699195955,-174697.9001861165,-132608.0518198974,-192227.68235159354,-201147.1681138872,-214609.86167257294,-227399.80554433077,-151323.76915138034,-130857.48690863284,-191215.0060231597,-117084.31072431663,-113667.56019665125,-143751.2096481615,-109975.62099099699,-145362.52842462278,-165894.69483038117,-216222.63146494128,-200339.65068439973,-152109.08611064986,-125633.26917639683,-169147.7372217423,-195697.9097579615,-166283.47177959155,-129350.46755802119,-162817.2937535289,-177560.92617486868,-148203.33576984226,-148605.9229815165,-227829.298241359,-158189.90573655054,-184755.53319052482,-192716.5527757974,-162747.497731714,-193388.27492547195,-212780.0952084993,-184339.7335947365,-178411.82862879246,-173062.3492418108,-179414.67777552732,-169845.35999954838,-178058.69133015684,-182359.67656224623,-172688.49239165743,-149872.41235663134,-134.05691332793248,-205573.0793542009,-198562.9503102915,-187323.3619023701,-170162.266787375,-169902.85286824644,-200068.84202184732,-134590.0997068762,-237698.55400151215,-137025.4143210738,-225848.56183462718,-213438.52459690906,-251579.9450036897,-235411.6240173028,-218950.44721127124,-246789.63084557615,-236971.6323674373,-240316.0308756741,-239685.80372070326,-234774.77862850548,-217243.68476981908,-279681.0885435389,-202824.37994689113,-265726.1226719739,-264729.73284355865,-192805.27514716284,-157260.88190877344,-253330.59936939538,-212071.23876984042,-231960.11060454784,-246898.7306011421,-270239.0439516693,-243266.84620840644,-220104.24461071196,-223943.20857590224,-226678.78242759753,-274196.0040339662,-186080.95068168332,-258184.16485554943,-248265.16807231528,-177173.04199324356,-216389.38133778702,-234039.73129464028,-190739.15975835331,-235443.22385488177,-239969.1770244016,-243321.3250506898,-271700.1234344976,-239112.4573484487,-257728.86549706542,-219650.29093737656,-290123.97635724366,-239231.911509643,-246866.50667196067,-262244.13525435823,-280272.6462674267,-217975.55658733242,-214687.08838900147,-237725.2294068371,-215949.97437683813,-232127.06250850472,-244726.3132137126,-188491.9225214145,-240898.39881382757,-270259.7054550829,-214855.6145369175,-271259.7241984823,-276287.7732137364,-188515.1003177222,-264688.89268828754,-259308.18342743543,-171097.51364290118,-227107.18021292108,-243081.16324093376,-199976.72188830926,-231601.72859693455,-245936.33670760976,-235957.740416338,-212481.42099008287,-282006.3711304532,-170601.55506756075,-303519.1776783356,-305114.15282551135,-225952.09910872026,-281847.3083077415,-299852.30287266907,-200449.43912895053,-248373.76515986587,-289014.0197343502,-250319.61306264796,-273004.3016589143,-308868.7902115223,-231869.82407326598,-202998.39787209406,-243184.12535144796,-170366.3698765717,-194299.98900065682,-207416.5087306436,-202665.27444312957,-264328.96062189277,-219845.99415416404,-231912.83560069377,-249594.4045935752,-221394.63174201478,-168838.78059816614,-220510.94139890603,-216386.15005536508,-200772.50321665694,-172510.71028639603,-236088.57658183321,-229090.70207870827,-181776.20599739137,-234720.5067869005,-277389.84908559825,-196512.82154774704,-258322.08342914013,-278072.2380692404,-211960.23002917678,-268065.14916334325,-204444.80103724243,-263108.5764100466,-290225.4056427815,-231783.7320783384,-296308.09637604724,-257829.83672953988,-257834.16739002417,-208599.03111608487,-258960.78425862966,-189832.41943821157,-121.3683063879548,-184777.04644780685,-121190.58921392527,-167220.46798880634,-125591.02279767545,-135787.95939063904,-153877.0162055422,-96351.26198148142,-165529.57144385856,-146222.31140866486,-147031.4824845832,-132841.38651521542,-154613.82318986018,-143692.78059099824,-149339.1135939093,-163286.9723081842,-157026.34985661792,-168256.71276317263,-174122.6008602299,-182881.40465451276,-165759.79160808088,-169078.38175180255,-149683.4513988519,-165508.9929270134,-170925.72760660516,-136726.56355789347,-111225.99475617358,-166560.399563766,-159017.5076904875,-188755.24800111004,-184497.3640421809,-159313.24642344902,-178832.15287517523,-142997.5285322627,-178807.75433883877,-160282.8692619625,-176779.16729498285,-137156.23569284027,-176988.3674772061,-197742.54277474043,-142114.27421044916,-175212.8691126417,-165208.60902460277,-144595.41011690535,-195897.02364840257,-182762.9806113439,-167710.8425736537,-201055.08212169644,-192022.84700492583,-200648.18201694282,-187407.15588503936,-180303.4798254258,-177309.13052036433,-180155.6067878399,-165664.81123000415,-166339.02685516665,-136569.6383797225,-128788.02720943802,-190134.82753687623,-146541.84889294498,-177380.3985437353,-152123.19253574443,-162902.45400422378,-190642.77102191967,-167459.62826169137,-183739.835716971,-199124.93406625732,-178416.53983594937,-126756.72122859856,-178848.13306024595,-187580.87713517525,-105872.1670235106,-163902.17718847923,-191333.95786772258,-128981.74713844678,-190774.29141630468,-200733.28491106248,-180358.29469156286,-129295.51446612964,-200244.4311122085,-134946.38350798615,-179985.87072157924,-204131.4741793683,-161252.99243957782,-192216.66748746714,-193405.8261885951,-144160.02235819102,-162209.42515825757,-201532.37810578264,-197729.91655938615,-190069.90705224514,-218753.22298339967,-158877.76835596896,-128818.51634711809,-165299.01529693443,-119367.28770764176,-144940.4952651808,-148176.2024761702,-126658.2189350844,-135157.21093343588,-135146.22172496907,-166335.6066183301,-172677.88345763172,-168491.71921156198,-130161.94492910003,-164792.72216688376,-143226.2115452449,-154330.4128852097,-149970.78125347334,-141370.11339384632,-161857.7954882805,-121667.65534183718,-165695.36174981273,-183194.05332779445,-141479.02528508537,-197659.7676849338,-198700.22335770464,-178630.076923535,-206422.79805883375,-193727.10272270004,-174583.0706300666,-179768.95978005178,-175067.66113486837,-167709.0116907003,-179015.24959199328,-172753.58479021135,-182292.63628591155,-187986.85738028027,-118119.78538794498,-189.39578416674956,593239.0321521903,502481.67553287,618452.5852432568,544983.2188896326,498954.75291524775,614778.499649707,501052.7313089613,585233.5750991255,565760.1616069239,522607.37776084774,581894.7520287652,579952.0569515122,595127.6064259774,564311.6719640897,622443.8970163277,606698.3225609723,595513.86356789,622814.8126650149,567413.0122333838,617490.1188615155,616089.1514855452,569523.6646756002,616568.8297031777,645447.9636089619,475337.58290968876,523415.26542294584,591352.8678085926,537828.8622438033,627108.0917819641,616045.4501889705,626828.5328694833,596002.2639885709,602440.2226332239,578159.2795796351,567508.1006200766,613280.1741410146,542705.355065598,582226.6826094795,609150.5402855381,587923.5240248784,618420.2727291579,628621.1765006222,593046.5979739503,621520.9430207257,628713.8523466097,634179.5464157477,645693.3022331132,640021.2063505349,609802.6911384546,591974.1272423558,605749.6934984914,620125.4233768013,612881.4783964704,648312.0051380774,607081.1345435163,556019.5519577696,629873.7611272765,641396.5007009223,605666.1486713712,655717.2642622079,615253.1779758539,607245.084503391,612752.787819289,601193.65066238,594024.3575656968,640215.7508591838,625508.4227082405,501112.75894261,611997.616253951,624811.9593339488,526579.8098924885,646590.569532017,623564.1823157367,560234.9897268331,656333.6173846684,640082.2824176996,575540.472074518,631152.4003649876,617636.0299882017,568944.0455631177,647365.0548157471,630013.417623765,655115.8731874957,619720.253972575,594943.2294708868,577999.609778575,619328.9273778407,626697.467537473,620500.0698096757,640749.0811806371,630545.203620501,603026.2784723107,599489.2588657467,602494.6426976899,573865.5921120895,624416.6362685163,589531.1548879265,596802.7306447042,626997.748299442,568670.2526212642,618513.9484238639,656987.4034953966,561118.4281588214,607013.4943847161,634967.2768765229,574841.9391129598,604459.3417142095,637921.3694070791,599741.3992756954,617948.4004207869,592802.4555758364,635210.4162471836,624229.0326856723,596932.3853628974,610620.8869389244,631461.9796869399,626247.1486801311,641872.508102438,627591.3900931621,581327.2588436152,617774.6663086202,638006.1013549723,611109.6385618123,603140.0826232911,646106.3666042167,658969.9608846325,612771.720372477,515978.68855343654,-219.2220443665381,-255787.2251243483,-249325.07710653899,-275661.64384627744,-234494.57373094006,-205996.29765442945,-235402.55740854755,-192499.96628425544,-260650.6028218,-196282.21701843847,-225844.9222801478,-241492.05641442162,-263194.6819422509,-244682.97047459343,-201792.59121837522,-232602.68922284196,-240219.03206647484,-259205.578510531,-228042.3111437939,-242739.68591206585,-260433.59146394077,-285966.77155764867,-216248.43442613684,-285594.5632694787,-286734.7624239124,-199733.95213536086,-187023.10743828726,-285844.77556593606,-218788.66619749958,-223115.00119537822,-289313.03574422526,-243183.88700797438,-244053.76886396817,-242644.75030469094,-212077.08228260072,-237929.59076817537,-284154.2184728633,-206742.04374099887,-257032.17399072103,-292285.4100571014,-200937.0648007581,-237346.13700231825,-259608.74364599475,-204580.47547670265,-239719.68114397037,-257366.1549129974,-230445.57371380785,-279666.72595660476,-248971.24017854672,-279723.9876980977,-264528.4276009772,-265664.7399279522,-247228.9405435411,-256063.44899882123,-274217.6494063421,-293439.9350780595,-231783.42257099302,-237460.13440624566,-290918.6264341593,-216370.43946600228,-263329.7105396537,-244813.3911671709,-209030.4746963236,-265209.64264511433,-282875.0447554755,-239697.74742763693,-265079.26621832,-287467.76882152545,-195559.71264055427,-273618.5133315903,-292059.1638298554,-207497.33799722698,-246165.48341621345,-296194.5078223542,-215884.08209662684,-278081.9047366878,-306159.49959171686,-257934.06359017172,-255673.93022570552,-320852.7449934078,-200826.01333292786,-301107.87655144255,-333891.2606152058,-248699.3547516885,-295665.67581603996,-329208.6256599293,-204645.02942896282,-239249.2922982477,-298742.651891196,-261299.80551446945,-267443.53221136716,-323089.67758525687,-272051.71328816155,-228617.20368912752,-260764.29296941255,-190401.42667570474,-253313.07553391476,-225625.71694978303,-224927.7764455173,-265320.7853611208,-256371.91693225657,-259038.5038157309,-285585.77309557336,-244597.2836380797,-225628.80392487496,-256240.34665337176,-245336.55070704274,-263021.0443675917,-185086.02199151675,-258584.47853594722,-253608.09549997703,-243040.32730228314,-257639.28512553897,-260258.0077168297,-236303.3960502252,-280878.2430108483,-285992.5351645667,-256515.02870017113,-294753.97295423097,-250366.2297458205,-276893.2915300702,-311118.3657467617,-246757.17074495275,-264610.687018991,-309425.4274708738,-315783.033654685,-268567.7787963123,-271136.28561852383,-208468.571637734,-227.4641838949081,-241971.09944747124,-224646.43552552903,-220081.52146870148,-212091.54791361792,-215631.02184991777,-213000.55658217196,-250131.17630843422,-229795.06576000675,-186777.23061256015,-211201.12218855994,-226591.08922829104,-202201.24591792855,-205770.56631396207,-229536.4861303279,-231089.52180053026,-206738.78141218962,-233783.83610518265,-224260.95937768114,-231234.0526493104,-225947.35343228962,-235087.8221431499,-219553.46465201967,-228892.52382765608,-238360.62081780084,-197687.29613001354,-231000.26911156837,-226425.82062680394,-237259.77145654015,-205683.79081808127,-260156.95149834407,-222874.61089589287,-232103.88852199845,-244299.75651795155,-218896.34505721036,-210668.67548400827,-255747.12465335187,-223241.94059896807,-209060.34247229755,-260438.85639223963,-203399.45762025574,-245401.05105613172,-244720.0917538269,-223218.3374056481,-204772.22833044294,-212485.37129446704,-224991.9717398142,-235823.5940846194,-255217.86619125216,-265345.8424433237,-188755.0888739752,-221907.63007846216,-225032.68606888282,-229370.95407177872,-241959.56101568107,-223687.71477560763,-206533.74688575882,-251797.06373324885,-246881.50885556397,-223113.08593757663,-238367.93197213503,-233332.06971182083,-203455.38816986865,-247246.62625433455,-235152.00040248013,-200185.9316278645,-228701.94947903696,-273578.03044315026,-194072.93704075884,-249036.491359558,-215998.6331296612,-193259.95974075253,-225263.6848293945,-234115.47806724694,-201995.6656882742,-237736.51421366227,-257972.7651606472,-192523.7774066236,-263387.87750596314,-292401.4851199216,-203392.58624425827,-222645.23796206937,-271003.8294471638,-214349.1426378128,-220175.11944945785,-267532.05495442107,-198692.86382344432,-184887.03764459782,-277074.05997495766,-197173.61873448876,-236152.53784470333,-264608.81475796644,-227635.33398457142,-241010.7363650084,-222740.8342579312,-195955.71146645278,-245100.79974900663,-200268.8846658559,-203055.7742844459,-265246.20958895935,-234570.196232343,-212772.36608500997,-241541.103627024,-212963.41672074422,-204378.95246237385,-265144.21105042624,-225950.64964084968,-226276.9377577333,-194548.00492642913,-233310.86541097166,-224619.67446385452,-203854.34800836578,-242987.9887775264,-217309.18270279345,-238956.21935038373,-232947.41585741562,-232649.06530378945,-266998.3905241646,-248116.51160332598,-208402.15882373214,-239475.42620175675,-272312.3383584799,-238599.32947880996,-219692.90815141686,-247477.35122782848,-223773.79482193568,-203345.63011105277,-235982.38079895574,-220337.19518784908,-91.92855116727755,-341830.75415495917,-278225.75307221897,-379866.5151904141,-320520.6141355806,-308937.92069963034,-343788.18375191145,-283161.13944074954,-337214.5002910308,-313465.3315151768,-321037.64415339613,-316643.3046886816,-342050.96033069,-313909.2010751191,-313637.7371169109,-357728.47746126517,-333974.09821881907,-365929.9047156799,-337366.36840646813,-353333.5171982788,-373069.9749355171,-360909.3463596688,-322302.19521486637,-375020.5451264261,-374417.8098473173,-281505.97479091666,-290289.91243635496,-356927.0011190346,-292000.7396141633,-359301.8146287872,-411310.7788230793,-343050.40290275624,-364808.4649041008,-343732.4134110661,-330079.4851340743,-352512.2082351106,-392009.6224443717,-292528.14202459774,-342933.03351709724,-391217.09337344277,-314407.7547729675,-355700.27127960423,-399834.8442256284,-312853.77372117364,-362991.6123906807,-367165.9322743509,-366060.3260020216,-388109.8906700071,-358574.1439192141,-381765.43861092447,-375273.6395011859,-339492.9886256723,-371187.8410715003,-359859.46898083267,-375878.60609601747,-391518.20943998476,-319536.7123247426,-302320.60503565357,-384705.1227270664,-318241.08992371545,-354875.6993343483,-357079.9393997077,-297007.9857762852,-384035.9696000642,-350378.53602664603,-284989.7010000071,-388475.4104487966,-372866.6102544459,-270909.3059468868,-377922.88869630906,-402150.1647156141,-251364.95127787572,-357001.72984401026,-397872.1362185093,-303883.78758043447,-356156.18146858807,-422333.0760500375,-358404.40721056133,-345544.10264982446,-428485.3042985059,-280708.7981607791,-381363.3224683215,-431860.1329571477,-342628.06657688116,-364985.59638136666,-414888.21753056993,-317895.05959782895,-321444.3224893132,-416194.0151576245,-370137.98294326046,-380308.7390326516,-400980.73437812534,-344719.85131643404,-302456.70787537616,-355957.64111111226,-280158.7239042142,-297770.2669876677,-316569.1909918984,-285097.32430629624,-331055.4666126807,-332817.02222447505,-341346.62934895686,-377212.3190078873,-327491.4400518539,-328393.5401543313,-344913.23972055723,-354752.5067175209,-323148.74859361583,-282770.50644566974,-342196.1287233984,-346906.3712422715,-313992.51748178515,-343155.002080048,-386359.70979364606,-342792.36031947087,-371688.01083439396,-380042.9685213674,-356070.5623926322,-401267.83013060834,-396119.1670576763,-376006.83876406384,-404048.3219763731,-378097.6452477359,-334522.58582037827,-363416.187963159,-377653.07765603496,-399823.46494204033,-378209.27645034064,-295102.91669280693,-117.4250467423257,-357803.00615274074,-299605.2512952855,-323582.40258379985,-269291.2435909092,-314139.58716586547,-333172.06427596096,-235785.21782343613,-368547.2953928672,-277279.46440311574,-343524.1283239548,-348033.3716983517,-354466.5570034196,-325877.6785429686,-329958.9289788045,-385033.04764358146,-352798.79715073656,-407518.0234593912,-352803.0975739629,-387708.6668577019,-389115.4357339912,-416977.9266447683,-302971.4346567953,-409662.045837014,-382388.87391136313,-289883.2840591716,-247200.54748587616,-380195.6609648793,-322227.1034003858,-365163.62394072156,-399118.4566954047,-424249.64768338413,-360875.4108043014,-366923.45314792584,-329871.25188018236,-375151.776423837,-406484.35882842605,-290794.53545172117,-396801.14802021184,-417132.48324481625,-283254.7952820365,-360905.79134182754,-370755.0714727612,-315631.1471513702,-374269.58094894985,-376569.31712431577,-387149.3630240761,-420199.79883654806,-392251.228005773,-412850.0713455493,-388020.31953984394,-397525.50101275777,-390760.7210290238,-387790.8651914598,-387310.23052988685,-424376.09769828466,-315368.48120811116,-313985.63901359495,-430545.4153491939,-315017.50424058613,-354524.27566001366,-378106.9135914267,-304485.63148059964,-387597.8131746008,-369098.61952316586,-334222.89727556263,-414893.3837663743,-409856.714765026,-253969.9147201714,-419975.1679060821,-441980.86345310655,-236075.20233790766,-360073.07080275053,-407447.4273589137,-304764.41524712334,-366907.6495545616,-440284.4489650443,-360941.7164059105,-297174.569315814,-478374.8390123168,-285338.9020729174,-447090.45983852993,-461882.9303077702,-326681.2543694625,-428374.65936453495,-473796.4438532955,-310483.5937928154,-326561.0881049449,-422223.9754549465,-391861.37934149656,-402250.53199036454,-481963.0254950608,-346044.47781230754,-303539.90792168916,-405592.0511600796,-262525.8988262655,-314444.3087165639,-323667.31348698644,-305963.5720477945,-351948.34949581645,-337417.40759936196,-348873.71699386224,-407022.9467205551,-354759.9819119928,-295057.85509860766,-346764.6032930291,-351598.3196898941,-330367.9097277967,-245711.8404698028,-378859.97246347164,-357712.9718818123,-307930.3913335043,-363480.66531702806,-411839.5485615165,-335459.99401118746,-400549.0610778014,-421600.5671353836,-361773.9938398151,-411368.7351803484,-383494.43841691734,-407230.35319680016,-466096.9371711017,-388826.470125945,-417885.9226079278,-380063.1464913904,-390011.81620273757,-386218.3305779548,-422651.693075055,-299781.9109033239,-161.06564286200228,435762.8340147434,334279.87131890084,416728.5668092246,357351.29964242387,364193.6364292509,417462.75381029426,370743.4285882134,385148.504752164,367021.16139517777,404450.09623475303,390199.90099519404,364218.49784233904,352255.4197184898,373626.68429046584,418954.05907179014,379340.15229699045,403067.34711813595,405032.30157748354,410382.5132791387,403097.56522021914,418957.88499315165,366985.1315476916,405889.85258862335,404259.7280887501,361236.1723289535,351728.1284187784,414522.5911989388,361471.2050050627,367759.5757120691,424090.674205243,396614.85118908226,393392.3188026303,427582.8792830865,395630.35462400806,381148.0435414701,431450.429370631,357932.2485654661,372871.9136902165,431768.416035704,363627.12124060176,410270.93592259806,424506.21396143804,361427.18276046455,417114.84721073357,409693.8007375241,415947.06630461273,434890.9812259902,414843.0477899498,463933.08456165704,390948.13597470796,423791.3923499359,430672.58984761644,409543.7273106901,438221.1271890561,448612.69168678345,375786.31412328145,377492.1728497895,408397.81008929445,362405.4091090251,386817.6141284009,425552.6778601531,366939.4512393904,420628.7267586141,431711.24682186614,357285.6149175597,453701.6851611754,440030.6593471662,311875.3750967335,426609.0901549089,431441.86590995226,309409.46117985505,413125.6150868423,447851.1773839348,371389.79355863,416855.29490779754,471074.12956332986,379591.51268605003,439020.994682625,453659.6237720661,353267.58161556016,461318.9302851195,456269.33137316076,423646.678052852,420067.06319525134,461149.8688353776,374215.97053383704,406722.57645020005,455909.04246932105,406571.7507494327,408648.2123660815,439244.9146594578,402461.7861151131,422192.6465365586,396530.9031670266,360687.57554628944,403045.1473389651,414689.10639640404,400740.85359613725,425165.07327472966,398384.8179681054,422255.5825571915,419166.9897122814,380376.6680882443,391847.75790843455,417079.40181506873,388236.6571350331,385261.41308724816,374114.8095144545,411996.54272923456,376871.0048327854,416324.03250488493,421680.6927123631,427038.9463063994,392842.9213883503,448393.131058813,422399.95427929884,439137.7303263393,451650.7336657957,395668.78586328786,430044.98739730805,430313.35446699354,413772.63250632933,449694.7558784085,424959.70346625615,431628.24486808013,444318.9777087934,452342.0116309411,366755.8142008989,-138.35432151407696,675951.4014754298,570011.4768087897,685529.9235188189,575988.5813792713,557105.6264419239,643439.160694021,519694.33779416006,666299.5646180572,598838.8096151723,630628.6523846254,640791.3600997233,678959.8591593961,612226.7802252668,612969.9069044391,696235.7938796245,628104.0550580422,701422.3063615925,676815.6577573834,668960.7574810383,705403.6946589885,720587.767502399,611821.9853112156,719200.892032622,735868.3622208963,552403.7735539888,592110.0192059693,677168.690741392,598628.2152442812,707358.2106005382,707556.186809755,703880.2475934849,710451.9333184435,659462.174412546,632362.2467991807,670591.0158406533,734308.0392570164,554638.1772844986,665233.6871277503,716307.1154126327,574278.7026599378,692854.0713764321,715734.3809651992,590353.2309687517,653390.7171446949,702305.3576979063,721770.7212592387,752172.2995269592,687018.3852057963,736643.7682715842,673779.9025949006,662801.4739491884,694428.100053025,694358.6767407911,730470.351465009,731268.3906918222,626104.481558965,573938.8171767404,743693.1578503171,606364.4288997126,661206.4466146345,695696.729778651,572793.5059743709,710622.3412815698,689945.5111734755,604160.3088324297,736272.6192822921,733839.7776830659,517504.35047803965,754043.9766415195,772966.8817996294,506622.1675475755,665917.7242161207,759462.1250740053,590487.7739759713,727391.998379711,766907.601884037,666927.752300732,660666.611474891,781493.2478021581,565397.0731443948,741478.9098622916,795197.2326683793,676041.7013779168,745915.3653678321,779855.3644541958,630388.7719974396,644741.6018821143,773625.4859945095,710449.3990279217,736267.8881282978,780301.4762404345,699360.4793699435,601717.5980931997,702844.9863773732,557681.8328116202,591231.961458835,634831.8149201389,591495.2422952398,668690.8597021687,668235.7294177464,662836.4794733386,704357.4694047213,630379.2828283792,640418.647077281,647259.6370243948,689902.499568149,632608.5505360638,546663.8603787811,679057.2757118436,704277.3799160738,628041.8535966655,682404.4675224259,724515.772894891,651502.0849593047,743378.1709127914,757696.4784390948,718778.1269063806,753111.0876018461,718109.2368222193,731514.8909940594,778967.6134040784,700375.2237925845,693962.3497827989,761583.7233460981,741048.5876624293,726574.1876861511,734506.4720693026,595689.6240811637,-225.40776700078658,-103805.33360843782,-70911.4986705795,-97757.30934830956,-73956.57654784244,-66352.62589151457,-59001.219576762436,-88028.05687312283,-71986.70958493558,-104195.73182095202,-121426.75923409396,-85902.65062810949,-101206.67460582432,-73227.2047798172,-61157.40963505464,-111103.28680008113,-111263.69118230058,-101290.47406273802,-104965.97501381346,-101340.00030961573,-106928.07876698814,-120078.73649114187,-49449.140204338044,-93121.69564906083,-100800.13766954406,-40055.52796206129,-59400.759088286184,-75733.98134045045,-68652.65246202439,-113544.89851446552,-108806.34134038561,-114091.42604390829,-114117.66362450943,-73834.95648871432,-77888.04984533897,-106255.05850101824,-124536.59718711008,-50791.72172093005,-117267.44821052074,-90641.02886998797,-57178.23123312637,-85575.72671432835,-111813.41560936467,-87551.1980533696,-93826.48839051905,-100840.61943482321,-94354.39180125127,-127792.17873928307,-88693.29879933402,-101954.00642170304,-127471.12408317506,-92055.93449134352,-83599.3713179681,-112195.69451200153,-102461.33835986532,-99644.837625064,-59813.3528272452,-43387.57138879818,-110402.01997243965,-73156.77428547223,-86660.16468430162,-92649.71610995682,-49923.74158247741,-110731.05400406204,-79535.25487833204,-45617.64512454225,-102648.80480197819,-127258.79309756536,-40518.63158080208,-104285.06014488955,-129480.44894548052,-76729.59464766439,-98828.73916313062,-85289.17476033648,-77289.24226122645,-93697.53575144723,-123002.02932348625,-107739.72261553664,-35730.588530986286,-133549.34985588698,-81813.88686762213,-115021.40200996111,-143964.4521705022,-88588.65075587868,-136421.4900438379,-124058.97872422448,-67237.8526645862,-57886.38102490144,-113080.08871210397,-97119.35140760579,-91565.76493367266,-130869.5724782185,-84960.70160686872,-56404.27832645642,-111250.97230040096,-56276.35742907699,-41237.681695199164,-51857.50272471295,-52715.88679657295,-72154.05924763581,-80013.53632675385,-80496.19077328504,-109643.72804620716,-59215.42739614295,-57783.97028563486,-109669.55774063416,-100428.15103788664,-102880.99705106023,-12952.17703128164,-78883.92634843921,-81663.33445294863,-77394.41603345393,-73405.61314288966,-109401.17171172972,-70001.66219660506,-90477.63854269241,-112462.20777511988,-94556.26068377723,-108302.97875849681,-122881.88223404074,-117957.97942724879,-132535.55088164,-93373.71388655157,-53686.49216890574,-111969.25823578284,-92241.76737057652,-121850.20454799231,-114763.65071125995,-121068.95397807978,-127.08502221015854,-158950.18762124275,-110694.97926595005,-148984.42212985078,-97498.50209799882,-104548.63524508072,-94366.6040503509,-63351.53504454777,-136000.22433418446,-109626.85042810376,-75530.25360356027,-128082.50602439186,-133344.38633686706,-124315.95335431315,-128636.94578055781,-151194.6934432094,-108180.71268038523,-112457.79179709146,-129351.19654329847,-128690.52251996637,-191364.35337950397,-160220.5305740755,-107683.92661740206,-192950.17284882822,-152604.23665650285,-113001.27701205379,-85567.79713502579,-152839.0870286661,-129595.24146157192,-143592.38016724982,-140097.93028837928,-143904.0280714443,-150065.3319663528,-137781.50820109155,-128788.67387385278,-161715.38379862855,-169084.20926167973,-84973.2686942536,-168337.93162949628,-179616.63642760567,-117012.23752017628,-160120.3262709448,-127230.00405342145,-95671.05434008308,-143068.59243276686,-149237.61025537923,-146622.09848341564,-179035.98930671593,-160737.84137964403,-173065.00402731114,-187174.6096842018,-112090.99242425736,-143054.6437573049,-131094.25265118582,-163594.19186304556,-171748.3730711448,-132762.82069009953,-102748.17365346721,-154405.6301540558,-146346.9879040448,-142784.19504870236,-123090.97350745415,-88748.1276115854,-165504.66497851207,-157962.92931784393,-144935.74437895414,-147473.2460633011,-163137.28908435404,-94799.38895200609,-152316.65777681966,-160910.65254919752,-68789.8779570041,-144030.36600581897,-154881.7735397607,-128987.97410269394,-165339.801183416,-176926.22184126734,-151660.5932907436,-123150.17183902925,-174718.81877553262,-97520.51364679064,-157688.60268784087,-207690.47647111703,-122621.12463463127,-187362.34387612317,-170866.2944288976,-95974.15467434097,-124177.06223643481,-195636.19971210562,-156426.40072214903,-147740.37061629782,-225546.01756086343,-185941.62785460096,-126366.94735701648,-152487.99016826123,-100167.6608904355,-128624.59927676816,-88269.58493625408,-92359.26299128431,-124087.90878729837,-125303.6699397648,-122141.3905572505,-157381.31155719436,-117566.28883663428,-128770.07365925434,-148855.34726143716,-143723.03291851128,-145659.70632633643,-74355.62919505608,-121379.7329289485,-154093.69608280197,-104379.64457380837,-144342.5543197106,-184649.3563777174,-143799.41988746682,-155443.32173348375,-198728.78006314818,-135321.25585719722,-176306.07743867856,-172198.84542302685,-149613.10856780552,-154101.12548852348,-143119.42847688682,-153657.04418863702,-175403.95864184335,-185677.92484088906,-125766.38432237328,-160466.92867913374,-76985.3718754419,-156.3651937662824,-55745.18255516151,-35958.366518854375,-67498.63559112359,-74863.27267024413,-69160.96827701671,-84895.614727751,-62207.629027397874,-71229.39169747349,-84537.0069985025,-75790.00115808079,-60627.74796097366,-92844.14920180383,-77317.70970103201,-87284.50976372442,-96184.17818375771,-81513.97954674593,-109703.74414172325,-64431.10587054625,-93747.05865646117,-100887.93957137666,-69221.5156698242,-86919.9883864303,-61916.99434158066,-55474.27321994786,-58539.14602929021,-52839.32949236148,-56144.55181123162,-64863.979247687304,-80598.57573473275,-104429.3911099911,-84413.09837606695,-88070.05967426597,-61915.97279228295,-73975.2293916826,-81047.74864519046,-78654.60842826327,-61526.64684301604,-84186.04065129701,-77582.14928662253,-68439.82305737385,-80102.40738694258,-88773.54870691162,-90203.17240625668,-73431.10131382782,-87031.11867493144,-70259.36861070966,-109661.7052894397,-73189.88594231209,-83056.63130628367,-77096.67438462983,-88426.42697776757,-99423.81515875625,-81741.55079467998,-73564.63977964871,-83421.02611087408,-63098.270996584964,-48422.97536264836,-89291.49989111348,-63726.223991471576,-63879.24253576987,-85953.47907241048,-83044.0664010519,-87813.8972312406,-83736.61088951456,-73426.06599929833,-77214.59487377173,-73776.02271210606,-43436.10651375629,-84234.48999767753,-92101.0921386554,-38836.43093806186,-69235.87564475139,-85038.77227432773,-76094.72558614427,-53818.83497311141,-83214.97032616603,-81998.492268888,-62008.14775923633,-88301.57449973104,-102207.24331233307,-94232.6115768554,-79107.68058937803,-80167.0599310937,-58643.163660977814,-86501.84790638917,-98606.52616901726,-80774.83480529669,-78212.58213229271,-92630.41751271696,-109092.6077047956,-70704.58220083646,-60103.81904066081,-78974.59224994305,-104159.9583915549,-52816.240202137546,-53548.87795183964,-60923.59972630217,-76529.5110334112,-66895.65355157683,-85589.54857795016,-94373.19731920902,-91869.62117919084,-72153.74546504059,-48441.53550671511,-90258.11327352062,-93155.98565486906,-70370.59043381602,-62589.55085634862,-77569.08288080385,-71277.36347543311,-55184.054841119694,-68256.58900705175,-101615.35957640524,-63429.92952005111,-73057.13722432023,-89567.76294472262,-82492.00546644202,-64642.81027490955,-117287.75411376539,-81093.75409431932,-68921.71551884465,-94722.33711582901,-97521.66013145415,-43779.61100721797,-78412.96265148096,-111702.238184858,-93224.80113294268,-64883.70300611313,-244.06050082628812,-327303.1600739897,-276345.09406709025,-309222.67526064045,-276286.0962511953,-252444.0953785708,-324029.8379950582,-226296.43882006517,-341520.12233452057,-289317.84874628036,-326171.2177219561,-299385.26858652517,-330684.1471147512,-307732.4225207067,-323244.9394638375,-381742.39585231995,-374907.8895428673,-370630.65388265945,-335505.87061337254,-365456.49162040075,-362147.0410541425,-366412.37112536374,-293237.0545582164,-368364.96270047623,-381742.4604208988,-253311.11195192448,-203672.0975360274,-355193.5529237574,-287344.77920644294,-382072.3968089998,-367943.5500722419,-346702.5722966171,-364913.2530651767,-288033.085661977,-342341.7305312442,-352509.74851837737,-380040.86452767655,-259762.3154591484,-383268.05277745373,-394845.181011201,-298734.5706521501,-316443.1093177393,-357351.53579292784,-299564.12524951005,-351642.4665582718,-350483.7963933361,-357465.04334668454,-400417.648170327,-372855.44785164256,-381634.35626630136,-379413.0789474399,-356671.8940930975,-379506.2449805887,-353851.0313355707,-351473.38007302006,-364321.4292703107,-285297.3388922837,-254757.91715483266,-407048.82929383486,-276298.89282690175,-321316.3012736523,-347080.06664268934,-261972.57048777785,-391949.91061752726,-368710.0540913691,-310685.3140216228,-384312.4290364549,-382348.83988457796,-252767.6072996528,-370092.1068525956,-395653.0819619328,-243590.6764102057,-309481.2159073455,-410849.0513445673,-299626.7010019438,-346527.08438866347,-395874.1804202762,-339742.6453355424,-297843.00748242415,-447470.580032777,-294216.0860010193,-404374.92540706747,-454691.73818781786,-341334.29100111575,-413423.7998372462,-445921.4767326332,-288292.8905851646,-322110.16593196534,-425849.8499736369,-387835.8666240773,-406533.14049197815,-427089.8357654571,-337801.93754541356,-290597.9146599143,-370085.8082797892,-249498.7500459955,-232808.01606412628,-281130.55362331646,-273979.46522308345,-324504.267566743,-315417.90132843045,-324274.1952116391,-373588.4706419597,-292404.0151187968,-253667.55533601283,-322430.5411745897,-342608.85524400574,-319733.295282075,-253642.32317493908,-327337.39107786363,-342667.53464310174,-289664.8044019282,-348864.2169394842,-384546.90538640326,-298366.1606697992,-375277.78508200526,-402554.73468976264,-317766.758157375,-399297.83275589626,-377937.5411506179,-378772.446975147,-435167.86345375486,-354966.89421146177,-392825.23530470685,-367388.00115852285,-359208.1561446467,-359307.836030841,-401780.00497139595,-293714.41132338747,-139.10296857556267,-199614.2557929955,-123291.11418529727,-180978.9912157355,-144163.97547731694,-145390.56334458318,-152197.9545975594,-112610.18104146118,-180044.46024055747,-156641.78624290187,-138044.29980402463,-169380.61594082374,-175477.16332369187,-167170.71485170515,-143372.96070974867,-191829.4363423805,-195007.48927241092,-217062.09566928193,-185777.9833579985,-191838.37303086297,-216566.8038615478,-207605.51753443526,-154294.38983560228,-227764.3494835812,-196386.6941225674,-133955.5280880962,-108582.29489027485,-202101.19293429234,-165131.36739010425,-213530.35115716225,-209582.37631370648,-194259.17510611008,-206807.75748104084,-156389.8036911149,-162676.8760953952,-183768.0746829087,-219420.18417887058,-134206.2176502637,-210672.64252023437,-191951.3764183298,-154962.02165211175,-187875.93421071125,-207590.97991311864,-157337.29993524446,-190198.21736201446,-193353.4092116872,-206213.43783323636,-222220.86416944256,-204055.16896416523,-195663.10532432742,-243870.37818594434,-174033.52668692183,-186535.08312290785,-193938.01743117906,-216873.65426164184,-206950.7504883504,-174626.15109174335,-129181.86505924357,-238776.5789280814,-181354.72054278755,-200229.9885264224,-185970.09304338152,-130967.44568009317,-208620.3820199949,-175075.19501542338,-167687.43773667884,-212638.16747284666,-220092.13759982266,-110053.93125057795,-218731.73399664,-242561.29617594962,-104935.2877456163,-176618.7459005936,-222565.66020646057,-174226.87645483218,-182788.2586546987,-216753.12354618526,-204910.8625541524,-140582.46767796532,-241942.9031829928,-136772.8553676642,-219463.93499175867,-258442.82547634505,-173821.9798102571,-219365.39704322355,-233540.73029421648,-156086.37017362576,-146367.0001838505,-238378.5969033145,-223272.57960635432,-216589.80976896253,-257815.71989352955,-211820.50955362004,-139657.04600699487,-233784.12747240643,-124842.62145883997,-132213.32608301766,-136984.47888082018,-132185.43476728367,-173399.19097861985,-165424.71793834932,-193315.9216783595,-220536.79603560662,-160489.83652826498,-173784.60034869376,-172554.0408019912,-212576.5214177784,-207567.5901668921,-107429.60650279537,-197570.12043959548,-209282.1542264619,-124461.40550471072,-167924.04008267148,-218668.18483699625,-160734.58751826026,-210542.05263847805,-222879.86806158698,-178309.1216543107,-212481.8662652078,-232405.6374376738,-217231.848488853,-256929.76353516494,-186913.01555079588,-164616.38390831274,-216730.95049524296,-215463.89698938405,-210014.9216209811,-203392.76151652375,-147452.0555477569,-20.075278896547793,357926.1620936105,300848.3619192094,361363.82137062744,338233.4883714765,312017.5165442189,358167.7792210315,233675.3446106472,379594.5099324524,325130.1960782141,306364.270914411,320767.35481070133,346963.3017495615,335501.1735861883,341228.43669646827,372600.2821672929,356364.2853043061,328842.432905254,363704.69462667214,370456.5749124085,386609.5419974225,366956.12784749916,368143.72338021133,366874.2966711756,388328.5724719877,316193.71102524205,316530.5273252828,345217.97668525,330256.34447980474,384557.23945525795,378038.01935415703,361358.40971197654,350186.07859673613,391236.94561586267,354887.7523908979,364701.9540200092,358728.0278120082,321369.840969946,362687.886474843,389373.4319180486,341996.7310632117,385632.11665212037,344784.449118614,388191.99176901084,371629.80271562823,375010.02387913346,394713.40008412756,371376.4015274924,387483.05659538496,378691.2373152833,347157.9095021814,319216.8318277438,407356.6637125998,363974.89106757654,371073.63010713307,378941.48030058056,369364.1120106632,368845.0076404626,352677.9024953294,376529.8798097109,382590.4066983322,381333.929073906,363863.87749341765,376488.5121996411,390948.53804053843,380378.1894306218,380916.2477882637,388695.6265542889,300971.7206866611,373828.095471498,349708.3056868781,318022.8953860003,379732.953481726,410703.5520152135,331559.8852236867,363150.9890957937,384638.80116443767,343196.6847413469,407928.90296855173,368842.5720435169,335758.22265074693,383179.1578015329,374892.4302493717,349430.1091509141,366673.06261255854,366381.1344917049,340310.11100833927,393181.2257658096,368777.9113876041,350545.0420405255,364639.9574741649,367151.2574768955,347825.9380169417,395930.26558521116,377749.1369502913,361641.7282676681,344046.20682862087,380318.01212203177,364078.7083845703,378647.6171764546,365023.83633070934,368878.419167804,365256.17443966045,339828.44640341116,346212.5144612419,357187.5894502039,353239.6663680803,351320.4701665373,357258.33687670744,371379.74871812074,365581.2613327162,355543.81055650185,352382.82133233454,365704.9263049503,391868.7290101653,379371.3813845496,387807.03066634445,372294.1542533315,358919.7364479638,373380.9382634909,368220.38864726754,359214.7324873991,359149.4266125165,400559.76140212675,348975.3635535794,392964.2938140954,356574.1025769368,386882.73852968385,280782.2098640934,-187.25633684437128,-59180.98492310082,-33897.000782189934,-32205.771975653635,-33712.090931499704,-48145.82591630122,-60255.49134844598,-46559.093745064514,-75959.25832104747,-32771.4083836297,-56531.71176920147,-23921.601670781853,-27064.83569051378,-77225.01412417395,-53014.64493113901,-68523.92122738018,-74330.28931348427,-61516.36393921573,-85861.56867675544,-89296.42968079627,-59453.52091491816,-61671.8516095594,-38978.55997807604,-58581.30916268424,-83096.80549105472,-46953.884811490796,-48185.89125682488,-21868.69289865947,-57689.02193899324,-53046.91324253041,-55582.6288000809,-46303.748466163925,-65760.72991316392,-71946.06083571744,-87644.03041246944,-75494.19595580254,-97152.81434230495,-53822.775671417636,-60242.10026490268,-75431.11547483887,-58209.23373340481,-63615.41889811433,-55727.106734625064,-60245.05338515229,-91979.92431227643,-79158.48120574623,-41760.27520180858,-67823.81448613778,-82444.43012988214,-45050.00539971273,-54142.857816962816,-57466.52086348605,-79285.85655982074,-85303.85425435791,-93462.94639893579,-81600.17837580184,-49290.1117985956,-63330.18363967178,-70400.68586085377,-83858.42794654795,-87441.62645933531,-55706.18737444913,-67448.71384811462,-76449.1915147302,-58020.976480753925,-81571.92299498408,-55767.39726159298,-95354.80993282289,-33166.41789760078,-69046.3180366288,-24087.68169042109,-18727.457779025197,-55528.66137670515,-48427.735955028205,-43587.45059751821,-54504.75996698447,-66755.45593113755,-64757.963232955204,-38704.600041158235,-81255.38998505908,-54202.83058253711,-64167.58233053043,-66668.7616664217,-63622.679663138144,-86968.1147366769,-69457.17789845196,-62146.90181416441,-69540.86303185439,-55763.30070429584,-76604.97282160973,-28232.28096866098,-62295.9917700408,-55922.75509896319,-47071.08723574626,-67640.8786549199,-42086.08047573525,-54591.532584517925,-86389.19169275303,-38367.711156362144,-62562.16652855318,-45060.120289924715,-55300.55508101448,-59621.984491074036,-41465.28622698736,-66336.23121210252,-42404.938264793316,-32482.572960605663,-62778.4746478095,-55764.34658015989,-58303.56550018454,-65886.73344769042,-36165.59890339409,-75380.17310238414,-70222.47359976631,-52966.02075816485,-40254.97424147929,-81501.21407357328,-79169.8497975751,-50064.54865081236,-24514.518798950925,-82824.06175190826,-74615.69291592675,-78273.59690171355,-71104.23995452287,-51809.7031904696,-79365.77075040681,-43437.70521814445,-72885.8608347191,-33314.76586784502,-190.8736997318801,-158321.80776608727,-153746.4152716634,-168956.71080503426,-126865.78600531853,-166490.10213167098,-157639.29022043085,-129701.7681914165,-169246.5641780223,-134509.35618096634,-174220.78171707582,-151129.42909924602,-184224.6324739249,-173530.22556017915,-154786.7410623468,-186541.82606732316,-153896.29454395233,-162829.19047698166,-184705.2976349433,-156275.6287850463,-180467.4925812138,-191656.42826475785,-144302.54419814082,-208902.09424900572,-207016.18005905635,-143723.8079892453,-136404.04547802542,-182673.90108418034,-151382.13010583835,-167861.4050870741,-177817.12067051322,-178675.01216684328,-170985.75345217733,-169725.95300837586,-151994.47976624948,-186458.5612129046,-187784.269125046,-143296.96786427413,-204779.87840141385,-178789.86154601237,-153957.18316550268,-182512.1777867841,-168867.73874442631,-133842.96486250946,-174492.94198393574,-181562.93306987805,-175265.91466921757,-192487.65688356996,-154941.73572730747,-177064.08445970874,-189933.80820458825,-176806.26966076522,-151418.9766184499,-191451.94164386243,-192477.4896856316,-199703.16554415808,-149737.6389545275,-155444.1751680176,-196820.8289000151,-160973.06084213612,-192976.97018943034,-190282.55449694872,-154687.2122867431,-197809.97431642035,-199791.83005713357,-159007.21755647342,-170909.55844083396,-193362.07851060166,-147897.76351897258,-190946.76884245194,-203485.6045655067,-145102.79205282356,-160819.77815417267,-218954.13654944417,-149281.1523735893,-181192.56010671417,-208801.64560720837,-163506.1468308865,-178810.23039536405,-202156.16618772736,-156690.53346639973,-206698.98119382552,-208366.8401316359,-184676.764017779,-165587.80914983473,-237029.9447782015,-134815.5217472722,-183616.01528609297,-209958.4510848015,-175735.7922819448,-213899.20239953985,-203307.86788264933,-217728.1006361259,-159404.84447250323,-172819.6342450335,-151018.49150777273,-170163.28228682684,-150871.89039349533,-162402.3915674819,-179599.7050971035,-199215.16999937705,-173581.83606194865,-195052.64248490325,-184189.9534593145,-172737.3041751589,-162145.38033837097,-212612.18130173022,-175864.95053616542,-120897.60815342351,-195129.64841524948,-188286.73989317432,-178050.20565628656,-204903.37236845243,-161999.59953513878,-169601.9244453378,-188588.0853699333,-203626.9150185625,-196159.40803539523,-214028.09902367523,-158168.06048383648,-188227.90828144207,-204274.31489303042,-193328.38860117056,-181737.98575906974,-209282.04263845162,-210920.96952496897,-171285.23513190442,-180052.51565164872,-129611.1059608281,-169.19035050087493,-34674.65786057903,-7791.435644853527,-39169.86315983485,-32555.650056796363,-59324.027491602785,-49583.71381434011,-55796.493521693206,-55079.42462184587,-40366.50293392204,-42027.86337705943,-36113.0949873585,-29635.23070592918,-32866.8852041543,-28023.60771943023,-34007.781830532935,-61973.954472989855,-79841.40587314582,-28434.468554385436,-38872.074019206986,-45488.21679538367,-22570.2717717841,-35293.90196234959,-19587.934324404487,-34033.959301246156,-26988.41121914122,-42850.788221707684,-12994.498138545852,-10946.83294307803,-13522.293670100842,-79040.25860926216,-39338.12436537746,-33922.897461255234,-47483.9968781686,-26251.57807824962,-27786.48972862007,-71077.22105969036,-43348.32035236208,-34194.73979229355,-34417.57057672049,-30214.35347356645,-52177.53497669769,-68538.34196819502,-46771.074232513165,-36845.096037268944,-50097.078224548495,-17791.964804772848,-48365.1236748304,-61819.55815538766,-26285.39902651643,-61891.01592451024,-50017.66655767908,-74678.87728945713,-36260.39066820062,-42232.53164976238,-60976.33274531851,-20549.54768221977,-33614.36918346412,-54800.182689726986,-30766.11271254902,-48286.13994509157,-44626.95095680838,-39658.262712043805,-48598.84030861009,-37887.784322104744,-29397.12217313329,-21725.803983520753,-53475.20824390941,-25939.245139790568,-45720.26148680126,-31779.086250468266,-16130.326145551826,-34420.9605091665,-38235.02207326885,-30173.4927220903,-21665.698184330373,-44108.48627061406,-55049.95616241796,-23254.41365711206,-45805.081508265124,-58391.19684435998,-43300.51222560336,-60122.86263537249,-27836.94453710511,-21956.440695364578,-44866.76935599559,-60253.10174223219,-20230.447025115423,-49764.24326397522,-37532.50487335435,-46497.07149417044,-21949.597426392676,-44585.29869939424,-13461.734083839912,-22076.85670638641,-4811.930922638008,-33664.54813114093,-48929.08834942094,-23492.498366651136,-40683.13393317281,-54164.29790339385,-46482.421060919245,-49911.26519400532,-50806.15837865005,-9134.71801968467,-38832.30169680876,-32530.431981227495,-27917.454484325648,-44179.41556847631,-49818.07701048863,-55238.77759502527,-42394.45004149024,-47594.84709277493,-57840.08709590411,-41927.268205196204,-31708.408161157346,-35262.789068142,-73281.53444111183,-47626.09102046595,-45768.400700814884,-22069.685796112048,-60439.396236142726,-40011.50910875718,-34308.69063044642,-21513.85478066235,-54997.87185467581,-54473.3387379925,-42292.71011306035,-62167.89011914756,288.4637889230424,-261662.7470762165,-213050.3778747039,-268334.5675131726,-251634.64002729888,-186486.57357040976,-238683.3193344779,-186750.56674465595,-266442.1871929389,-230040.55498777705,-281342.47546531004,-236076.27630169908,-291043.52936815505,-212560.55436276543,-241549.8441174418,-271669.61679973715,-259311.45142865874,-266553.8284698545,-231358.40071182777,-281658.05690652784,-294506.35599636,-305971.2755206461,-228336.57691251393,-300442.9795483395,-279521.4269413719,-207395.29108680214,-167650.28597133153,-258605.69996069162,-245678.41394176622,-266210.47371222527,-322971.68104728713,-270124.98372511775,-276698.23155178945,-238791.42330340613,-238160.60247227454,-250023.27312486258,-296535.4570194821,-198520.60911005747,-274310.7902186552,-277073.16671850614,-245876.07431956183,-248753.4844655422,-303397.9331569994,-235381.8771836408,-236801.8484025042,-292222.69084080204,-262033.25850765905,-306336.22007066716,-265479.7857895125,-308030.0328084797,-269238.38160195155,-279376.58198614186,-270440.2030833763,-260437.9958525605,-280531.1178198698,-308571.909416256,-248052.6122761765,-199884.91866985362,-303088.90124937345,-201733.62277329393,-243327.1340948886,-246101.9483276002,-218341.3333816039,-299661.8258390655,-277819.73892940395,-210642.0424623569,-288154.71866782976,-286758.8114445447,-193414.06464871115,-279893.4448800939,-308837.0785367558,-214090.58494819983,-261216.02260694592,-317164.5165599908,-202288.9014496518,-268559.5840370393,-345519.59961921687,-300614.3754533513,-249499.5387330248,-317278.5758740942,-213955.01823559395,-325185.45726936514,-347517.23575022817,-260405.62962502858,-297797.61035758234,-343565.4292852929,-253980.4647709113,-239984.24806730667,-312652.6995822487,-285474.6394255113,-296364.9983987286,-334877.4162219394,-254281.3990679605,-218364.15150022117,-267834.3572114965,-190616.27349963493,-219725.3290928441,-251057.50182179888,-220709.0259657102,-254659.44556198257,-288791.0227414242,-266371.69980909774,-305739.0843574198,-236866.69376070096,-226006.68927860714,-235692.17582750326,-262116.93489881704,-226139.08263331553,-180957.21265672406,-283675.52538773936,-247835.20906722656,-253757.36475249848,-236736.26536748995,-310528.2058047449,-256592.50443962667,-297875.24899405043,-283158.8864538333,-258217.93193513196,-295640.49184609455,-281905.6442554422,-306160.0114483754,-339316.8479776096,-280580.6704838539,-262337.70695567626,-307242.7700495057,-275065.99785464554,-311475.19577050995,-330662.6411828388,-204542.49094564072,-145.02736154078696,-211910.93446902634,-202185.14597552328,-223218.08774787415,-174036.22601663173,-167414.72303157148,-190419.57825581927,-104638.23818993155,-201427.0318727106,-145289.10407609606,-186487.57281921935,-200565.39656127815,-217494.55781534532,-183420.63415198732,-171519.70840075114,-224658.16350677965,-182633.48140376236,-239170.89312288264,-186722.72811879113,-189506.86729235423,-223426.3221399232,-239261.52814200427,-157469.67662734626,-246373.64613213597,-214875.78725869863,-176778.90411101168,-159303.31705082176,-229189.03908822458,-177847.59404595467,-210363.48688048968,-232700.702540222,-237083.2815799141,-211052.82563194796,-194937.230246366,-176894.499087301,-198512.94364162,-233383.04474116664,-157291.1763629897,-240403.63794376087,-231784.46653455746,-171254.4130271948,-191071.39448019897,-201257.47297210747,-157056.02730345872,-205655.48404450054,-224274.49035969944,-222395.67246882085,-257796.65078296227,-213313.67403952027,-231721.98562345182,-216003.7330164329,-232787.84904613174,-218625.7745797981,-208498.3357619267,-217069.56881964745,-247433.25065980206,-202433.41943414303,-149366.0038442102,-256108.94429440747,-132137.029937994,-174054.91157643573,-198850.3468429443,-159365.86325100416,-208204.631481513,-204371.87316593603,-179422.84396470553,-230753.3172673183,-223619.34376976226,-167912.58132047328,-216335.37238159706,-275997.5314802574,-153845.0126609634,-199291.6395198537,-221762.47332020573,-187242.43650966306,-211137.31968644433,-283552.22075781197,-237734.92067413617,-179984.80638179948,-280742.55587340886,-148235.57473770328,-283411.4210740064,-298955.6443653,-179747.2425294208,-245380.13211550502,-284228.71718636533,-160268.5171058383,-162947.58945021642,-249316.31707133932,-243326.14119087413,-241157.10229469844,-311544.5406649989,-212552.62634574162,-172359.07543069113,-215818.66379935108,-157611.87539753772,-160364.7767710507,-173087.33364066435,-172856.93637408566,-185537.2357098258,-197050.96808840995,-199024.11911099803,-237246.1979458515,-207897.60847091294,-180275.93694005624,-188598.7152072591,-217057.32339653673,-164137.41190327282,-135239.09915182958,-210148.92276738296,-205019.67306869986,-200182.6990723519,-219822.09724547825,-256242.3029331932,-152941.26143708552,-254880.71693868196,-276324.48478874535,-210549.61956112247,-257217.92895431953,-244736.96665335895,-210380.01894748214,-264604.57237431826,-228734.2358486787,-257152.8727210484,-232013.705928725,-246831.1195370851,-208613.33497979582,-242717.14533635796,-154062.32245417574,-104.35792808247734,-234452.306687359,-204406.45604431714,-254553.2906951853,-215025.48651197,-180201.6246740095,-212651.95719737347,-139900.36183053913,-248739.48536819738,-209964.67237864947,-198514.1509026323,-248233.5199421528,-280475.49916852725,-231295.19337077756,-238612.11621700597,-214802.7933512956,