encog,BasicNetwork,java,3.0.1,1,1328565198191
[BASIC]
[BASIC:PARAMS]
[BASIC:NETWORK]
beginTraining=0
connectionLimit=0
contextTargetOffset=0,0,0
contextTargetSize=0,0,0
endTraining=2
hasContext=f
inputCount=24
layerCounts=2,49,25
layerFeedCounts=1,48,24
layerContextCount=0,0,0
layerIndex=0,2,51
output=0,1,0,0,0,0,0,0,0,0,0,0,0,0,0,0,0,0,0,0,0,0,0,0,0,0,0,0,0,0,0,0,0,0,0,0,0,0,0,0,0,0,0,0,0,0,0,0,0,0,1,0,0,0,0,0,0,0,0,0,0,0,0,0,0,0,0,0,0,0,0,0,0,0,0,1
outputCount=1
weightIndex=0,49,1249
weights=0.3669864497890257,0.17867971384423903,0.09448577984112112,0.2367540403951923,-0.04439955741047538,0.19656826043896514,0.04331018043753405,0.04169452522654814,-0.03834036905205011,0.2109971114888438,0.02172853265092169,0.0316306934409424,-0.005430664718940627,0.04432636561848154,0.24868989171479927,0.2667225092762241,0.07496529046209072,0.2638085448732983,0.24104313669316274,0.3479678116628403,0.12737809597373695,-0.01152797691843519,0.04377587332167351,0.32520640596743433,0.03562256166294719,0.21674173580405764,0.1728042538739287,0.27010296154360314,-0.026378853804445598,-0.0778197723023139,0.19218652845018594,-0.030060223915774772,0.028050086973027914,0.07477339790651177,0.28462316499202406,0.10189837900297563,0.033094193465811474,0.08359594031972374,0.09492256365793895,-0.03046757229317032,0.17333652309827177,0.021483839812379727,-0.0007073590924568294,0.09656412737267846,0.22408384206835957,-0.01586925321219806,0.3439552337021089,0.09966079908039034,-4.247119839857485,-14.97503933641381,-10.042576955039495,10.32671499952466,-14.288483719700253,-17.858176643079666,-4.882106119962999,-8.917133810370823,3.414009652174836,2.5379028114796514,-20.70697462683776,22.732251401206984,2.79055188317605,-7.35994325735797,-15.028981397793899,-7.470890400065676,-8.818510796924423,-21.048302045399122,0.9918859397865633,-16.624776015183112,-4.015185068436764,-5.621690745628988,-23.05872924968001,-4.081029160594402,-6.643508378830341,-128.64524084044444,-13.033079024981584,-39.34793711074611,1.7880301152085651,-46.33518139169306,6.034590810230592,48.67924198169958,18.175166616518812,4.866430324704758,-0.22465725689967947,-26.12658322030195,-65.62907560731297,0.33914480835909955,-60.63987666013878,-38.47929477076219,5.502365980044066,-58.19468516926034,-28.937540792746997,18.987279930095212,-10.095466973843978,12.14290985206844,-5.650720606275757,-3.264198935887956,49.41969192489361,2.1616455426532664,-261.5042661432044,-3.985804988572877,3.38679359945079,-7.7322566499517364,-29.708694883384926,32.23123159313099,9.318673232102544,-23.190068435466973,27.37525603002571,8.96610322028596,-8.22311464087751,-65.26826460359547,-0.30513776650205177,11.06757126468027,1.8888459043936754,8.275375332700746,-2.8164174162955407,8.355104570171035,4.726014975162568,-17.701700296950925,-36.97793485949732,-25.03531588093529,-7.857431793921671,-59.48517044448561,1.8862108903161312,-150.69450210982833,-16.189978105838442,8.232033019774894,20.895862468748653,181.33680626161907,39.68121236243049,22.023084687414006,35.650226061614816,106.62090007228788,22.982449745398544,27.15238978556666,587.2032840993937,18.799813845450263,250.51798008650758,15.337406316412174,5.721283866813208,379.1017288762905,10.786450153811874,10.009879181901745,87.41155824199585,9.500560591844076,27.140105750753406,116.17061489738096,6.084449450620509,26.261473530076394,-111.33469400491153,0.5142392915495928,-11.914013234611053,5.093110814415437,21.638720246324514,14.147247668167102,-10.681202189044786,5.588442369536374,55.199695219597864,-0.5486940523750997,-7.494061637341177,-12.787738893107463,-24.934259368466417,-0.6521139755635612,14.216053918856984,13.993114327204202,-55.46338794128067,-26.46304304638005,23.325871258103525,-22.322386608938892,-25.978708076247646,-1.5743095364610686,-13.770311908194108,-21.748348349271538,-4.1805851195922825,-221.04625745974516,-20.863933661039766,11.380235290830106,10.581022191779647,45.65305610582302,23.210845639517107,-15.395197932924995,6.760425571456837,-126.40311160919546,-4.6155556862231935,-1.5323413274379667,-27.070257814170844,2.6101831123906805,-22.84369251757114,26.661927574688423,10.777734908822815,-64.6408524147784,32.5850308927546,-40.94906227261833,-81.24088558081738,2.5249333326871515,-0.3422597605573532,-23.987691136230726,-51.51189927274531,-5.75491840552854,-118.85464937811264,257.7729949450973,7.033446385452124,7.302506804576496,264.53855409043797,48.15282957952805,-128.4626930525041,29.90250445541091,112.57419625121818,-139.73571224207467,73.71949202496634,48.25398701521623,-33.16121489904385,49.37840851201831,8.527455081139472,-163.03363925176478,49.74578560530021,41.331600443431846,-164.80095287490448,-12.642921960904253,142.78700956351813,-102.19985314148914,26.762897788280473,66.04959745828067,-140.129859176851,-80.89870772588074,-13.122359187964145,22.433421042968966,10.480741621607677,-7.56960429912753,-15.588526426672985,-18.946379776517396,-1.5435497900073334,-82.50724338117223,4.921751589608756,52.980586264845236,-8.66652264734169,-45.78653752160602,36.126040657945104,-0.17484201329973592,39.760667225578594,-23.676502953685514,-5.0606664012278495,-29.172745066593148,-38.04511911220852,24.709260568297683,-8.610145931287997,5.3916783933042565,36.31587121426167,-35.35077218880934,-132.08876481886884,-1.1497984392003462,-23.258728281484725,-22.446829338633243,-69.59870645569366,-209.29546636871217,-2.1875216394941046,-17.660924187836354,33.40126851992967,-11.57894347839596,8.843119065104975,46.209651127343484,0.7239475021881223,-10.828019576528575,-28.724002489905732,-36.41214862638513,9.92439251854823,-21.082212047346093,9.895939905181715,67.60836582037416,-50.402824101747704,-8.363691411216731,89.12897964820225,-9.190771628735545,-8.022299194422146,-167.19214393497165,-11.973103439605376,-30.825457420728412,-11.997467326523571,13.403024180770524,4.015543323860822,-42.80965745834944,18.31425294375678,42.77027362579037,-20.480538034400116,5.669047311619425,1.9372338394107225,-21.805703011354293,-6.739054817499923,-18.824259367955793,-32.289636949226896,-40.192777794098404,-49.531783075942926,-27.25110752853672,13.122124303428,-39.05044932692168,-33.41282117844586,4.7334360206482495,-22.98422058479502,-23.499459427891004,-205.88287722687596,12.205082520362156,-11.630442522091311,-54.39562441622634,19.01424339939601,6.068759064764118,-43.15528120456448,29.62880590238072,57.06298835965435,-7.924052082347613,-44.13003913650053,-40.03889917541266,-44.977644105382495,41.304163973891896,25.979237934533533,5.217399167366388,-30.128048058994015,-5.414767072051423,39.554704768394025,-28.166250558022625,-24.415523600864443,21.519507144832197,4.056912788180537,-18.267073365101894,8.268762384483964,-122.97040392326223,3.429881001611834,8.281105890302822,-3.1287714200693277,-104.78401940793229,-43.78899116932188,-147.75033017929917,-16.611513122376287,-174.23002027607384,1.189808359986167,63.908870386686,-49.261311889620565,31.732123776480456,95.53091718126677,-9.205347076637697,19.893171008459973,38.24479914319798,-13.168628011072542,-51.09718729706235,-68.42761958164435,-29.563482888421674,-55.23346246178309,-61.941313573007,-13.581239536979998,-41.73056437567392,-203.7094559901448,2.68354208765751,-0.07250230455452307,-15.295728688427566,6.608901500209037,25.836425435954137,-111.95161482113656,42.96890271863731,-27.853553049161107,-45.932920391776,111.97711353282023,-15.408702699560791,23.054926520247754,86.96233861584562,26.891678056977998,-27.363419868304458,-7.092261060143818,11.073826162218532,-21.977271676813242,6.521847787729581,4.854950449559875,-3.424127830857662,-118.56250947715215,-4.06725429923754,-2.0088324686060695,-237.53772729129167,8.625066059454626,9.497760312121764,4.0736358981407,2.5678385136464197,13.965288529254597,21.530018147185956,6.975279753459106,54.263766877931836,8.627456405724951,1.3359465486987716,-15.558562740362989,1.7543791063306897,11.332364125680943,-18.56672601467437,2.692001000930641,-13.150559211633764,23.493853317122674,15.351455011141631,26.985748352453353,14.531291284793275,-0.5582160778059719,0.928450391359105,23.137863397920054,5.49826201273901,-94.00077078018505,-32.72922147115045,1.1520863916893767,-18.99127761859372,-17.633139657200662,33.42133964066084,-84.29911945842755,-33.42226148723309,39.89203025583687,-56.10953681924057,-153.30175030503509,-13.517142162926087,8.139301194908477,-20.8052588103341,-0.011859568069371237,-16.814405287292473,-32.104319073024456,11.51438961935449,6.6987888272243605,-88.34200950499117,-8.539761054875092,-33.56481012728404,-1.9618426307512649,-82.37590030874728,-11.751915386569475,-165.6363543766699,179.55755085077118,-28.731631682766903,-11.822804890538757,228.70951404869294,-14.805282090408726,10.57132657069339,-4.255016933274336,-19.397681644090234,-6.65726643212134,26.70420181016669,-3.7947445061624085,-9.9501605211976,-0.02098561102076062,-19.905812220031457,-3.4858380057744305,2.6904909118936264,2.899096671115133,-3.675405045934253,13.924053286916953,6.467804399214178,-16.231386982886736,-2.768096612497914,-4.605265991794714,-3.629191622343667,-190.75699154905394,71.12953465109068,-1.6112346194220706,8.366489710405425,-59.069454909947986,-117.98170373414908,26.20319824260074,-93.25806331275415,9.51269968163749,16.81300931526955,27.823895942407365,-16.08851336398154,10.023181242174068,10.698271337448613,10.60188144588313,5.582392626410143,-4.08396398211532,74.75568368923138,16.86873838367664,60.595710567833535,-30.983415321632545,28.958605391836606,79.30421074125645,19.105510601994844,19.546703598512266,-136.33222483323956,-5.5420412990650085,27.024234184196096,-63.038398452436205,-481.53908110196886,40.93970147595075,-18.839596630721374,-352.62922588890063,43.60183291587437,-169.51351566162137,-78.83208759816628,-10.23175253744746,-3.5669851668382315,-477.9454287000712,43.02518699655456,6.990949031176753,-28.13264660555073,-4.842407376196571,-3.9543158880214504,22.773624015418743,25.530597177049966,-45.82313216259252,-50.062506223546464,56.73849979076414,-47.63415557542181,-264.0180643713516,16.476877356323513,-18.162563779754656,15.189213317367601,55.2332233371557,-2.3303052415780643,-17.235462256321135,45.906646125670534,37.47975545515452,0.20753201478320782,18.00604115059313,-4.9532256183538825,-7.1531991911266015,20.198428615567632,28.54437159058155,9.489750983820716,58.555508497681444,37.286591919147504,-1.2962004355439118,-7.45101635779893,61.12112249341253,9.608279169685396,18.676712298864107,19.383120304751657,-3.0629972923847566,-87.53186412054983,-2.1344447288946653,18.56804333321427,39.368718601406975,77.25256807362479,37.18379936182229,9.42686448314533,34.93707763946114,-23.854524973822578,43.36682036586479,55.7432007944859,1.4766176518648273,36.900863452563435,36.866266867097266,29.666702260900614,23.380225124384665,33.977458660244096,66.26353341493063,-10.992416983066729,9.064205790536308,55.74154623351885,-6.9582581762994495,10.240620880248713,-39.586515497865676,27.65433773204385,-116.0848296716527,-19.819539870544425,30.202312451551094,15.284551067272355,22.103406323894443,54.17154958902309,4.733580297184669,39.357275492603804,-3.5379986336433893,33.73705067761336,-11.092177981876887,15.485483368176338,17.901234685414085,1.1044550718766502,35.08407258406914,-1.8725698117522382,1.1639329147294175,29.47132735480758,9.201153176887136,-34.53174776759344,0.03538865909737823,16.03186771588883,-30.15049636387855,22.62655056317825,26.150077769980633,-118.88557475007927,-25.73720309766282,-20.583032229566566,-4.012618225841338,-35.75359902869319,-19.160007435451444,104.8502987912569,-47.28852879449328,-33.19373100820908,-0.5255373229391187,-36.15073385249111,-21.65034954225382,61.82590248882532,1.2391866148209485,-50.052878465795395,-13.200261134584347,-20.545799637382803,-10.759406782259932,17.238744060784633,-5.209397095648223,-4.169716137774576,-39.505665276704946,-22.28717896008629,-11.042898765301222,-31.350975976972933,-179.26656916985405,-8.571418072559906,-5.250136683753545,-17.52000103263297,6.225714690878079,-7.009562736019019,-12.106178461817223,6.264229865080826,5.662397708831782,-25.08241856556398,5.666086890842854,-25.146692288968794,-20.60683520727559,-8.638961533419982,-35.990277805138255,-13.02378125572092,11.097747564622948,-13.290439057276446,9.3941021882409,13.45336118263037,-4.028715700714676,-21.33028509083352,26.008981376863577,7.5964664396341455,-10.792268215023995,-126.2339349086856,5.984282151419972,17.06425105121113,30.14496525138494,-18.07855011901309,18.103063534854083,27.724374597549755,8.390814473195482,54.86409280670085,42.02419100975745,46.749234708597385,0.9029661208548164,58.99756434848424,25.163447139878134,5.642200713993959,3.876392571928219,52.56600352142782,17.470489071822605,18.588592217861937,46.34948336447837,28.422394777928485,-17.615571946194287,46.11024510434697,12.510074295310659,4.903513153815012,-45.26203415580542,37.104470980583464,4.4378391215837505,64.95320967763097,-30.890564507046292,31.008688887170255,195.97382441294815,-0.060968572836129754,133.7526787238375,60.04318606690692,-75.14552076496035,71.87491778232568,81.70066890683763,-37.54711329126113,3.1495550079115997,19.37779725850052,-14.97548497104202,21.450379187851393,44.1768290065024,65.25788468218344,79.24645174454268,-26.62726820288107,21.445553513340283,147.43716773880723,-69.48558147001897,-113.07717839135071,29.759055596143554,56.340348901321356,7.90232524107446,129.71736428375792,68.9285855471573,-43.88466174955456,49.30464428374192,32.76735884649,22.394796181546756,90.10845807250148,207.39908126015087,19.184556733407145,88.8034857562712,42.145880515137144,7.089651504456193,90.11154386602334,28.41741334295156,-72.60548651593155,-42.04126517977337,10.587585393892002,-3.269749127635034,76.76385781347598,11.026350403620938,20.826992555091827,-59.67285028323541,-2.3825768849577362,-10.270110435006798,1.9945239261462713,-14.477785771454942,3.7282164147641383,35.196216865848655,5.476390945763972,24.342572268772223,13.370284341941442,-6.532261319953533,16.6219073795,-3.0145999548585154,-3.9525832722623178,-17.920004699499568,-0.7008620268440137,22.67208751702783,3.618428533364059,4.594802501072382,7.813510357248911,16.204636406034947,23.0394468064478,16.153060464974462,19.526723324112325,0.8926821923189627,-154.23982390017733,14.713820663428137,95.2389842135521,22.424038898927,-1.2727349818327496,48.67987641832101,-16.43472043935033,13.870865556126246,32.69210635674073,26.146443454865643,59.88567628071644,20.849585895342454,-38.26781832315374,30.09612132235532,-19.825820097065083,60.89137739526749,18.69897172628954,24.933896610019875,17.29074827693796,18.04660748226127,20.004389006266837,7.045148561860606,60.21307328681408,35.23843328188818,-5.92881425192451,-65.08374716822735,23.61547532023713,-19.867592105291646,-38.37249294715904,39.92291647859451,-25.385087881315634,-37.34185615026917,22.32674208402466,24.247438539584156,-23.204534166790467,5.507303410535624,-36.143098149425256,-15.520447643557997,-0.6880032456108327,29.45105917442746,-16.97706458592159,28.255971204451264,-14.685912836216282,-5.041087132663245,6.854498719507409,-8.534986630400086,-11.74658563688363,0.6711213330642217,-9.469007661917265,-7.107833313815369,-127.65560090382418,0.22184178586424622,33.057338766104714,24.917427051729582,7.639240440773917,86.35790212413745,7.924096922409295,41.65736818543566,-469.92342766824123,24.662877772068104,-1.8124182789541001,45.97433699973725,6.9331153889601325,16.750518711420998,25.928223640914528,6.517018926406252,5.583723854294747,-39.53854483507819,17.091479034070886,18.472826801984116,-254.61473119275718,-15.473832126198356,-44.513216940499916,-135.0483047260134,8.951171869152068,-97.26482778424372,1.4511758656727303,-7.001773570366358,-33.996825291424265,-23.596301607784074,-0.7027809160018692,-52.75594194577072,-14.046712672541993,22.13545840463862,-5.4400510540558065,-35.380359266785945,-38.36079339152371,-4.975701328587075,-5.698667345263902,17.63360041516969,-5.035180758526942,-3.9933754994906536,-5.869076166365283,17.711277396504826,3.908811817334227,-13.33127302640901,1.028073844876807,9.189113013788734,-20.94755094831384,6.135686392602584,-187.8232149555786,2.9830185245759653,-41.5071938720723,-35.723196085744966,-72.69531217463526,-61.72351479832182,111.7426898611256,43.328542744197065,34.353286934863235,1.547226517001085,-14.562403171740383,-67.96374147315186,-38.78893840277969,-14.818522189740104,46.134240347796954,-1.8775345926964202,-64.81470363374424,-17.332348153751063,49.12760472726261,-22.242097233346612,-3.797474185055731,-5.688459816453569,-55.6335369919355,64.2315375965006,50.705458192630616,-154.10326726454738,-24.314960052471097,50.4479822809166,-104.6150660997301,-26.815560701794958,14.585869198127977,-37.35932625527198,-23.42667340101181,-31.96358018209378,37.017485881323324,-24.627252629842612,-3.171573013250131,-9.78309427029716,-24.10203535580992,45.82271349100031,26.49512809522898,-16.849027296839616,16.270058289723337,-2.782210123365148,-46.470347167599094,35.00418898589995,11.362064453600244,-42.41166573909311,25.173361134884296,13.407160598470604,-153.7556697398436,3.431371307865707,-5.302833219935057,-6.72762408087456,30.790686467504873,29.666854610708302,-63.29450137155655,-19.40307414573193,-122.13213683151506,35.64517111153029,-0.36928407596328605,28.745403439940027,37.83925287615722,30.885149142343163,11.447864284554008,20.330602542001515,13.006531640290993,-0.21461309449978425,-52.74025572999035,-121.88023585462305,-19.78170906286415,2.8861645743063704,-6.464038685045968,-68.74135694272249,-4.958544874361004,-141.593936446318,-5.49473859789348,-0.4197409490749782,2.277673489882147,-81.4497215599745,-221.80047579717646,10.521291346418234,0.4190406227037038,-282.02944272822066,-121.43802166247131,6.644905767902051,-79.82259543808853,-33.986412204381345,3.6595713174595175,-58.307821812002295,-0.516829591873832,16.661021576508656,-147.8265423455795,-84.09120099515283,28.59776532148773,16.45330769653908,-4.063096979275941,42.10473685087882,28.59699673848953,-14.516986159640751,-127.04954943488177,-39.42122641241563,-54.006758310294394,-22.820264574014153,15.757504204373863,-29.709637983945647,25.178925817351917,29.38467374672953,21.275154923555398,-54.88071969159093,-4.137375038406532,20.61491613811945,-51.625947823250975,29.494200389408515,-16.932919006637096,-44.44310097972308,-27.917053377262537,-23.150894736764457,29.36958903275577,13.129969108044914,-89.32949744003378,-21.148969090173964,-13.22310826020716,-56.918951549714066,-37.15795126194342,-119.27091518617557,-5.585267164948929,-58.25311640062439,-49.56573606642981,-8.408135332770872,-6.133326104973861,10.460772801375349,-15.93588775146145,-39.496398028974454,-22.166611238172198,-30.712989371086316,-114.43673880960044,-30.396662451317933,-53.52254546380988,82.33943234530369,-0.672507246923565,15.46307364754556,12.010328874438747,40.374956417415014,60.373203052878864,-49.127335685500505,47.58765242792472,3.319700025733015,-16.132708828835593,14.881576623923046,-150.11538899978336,-17.815531753182892,-32.21657198583846,-2.848716211434593,-0.27318606915534704,-8.989036609888304,62.20536987648554,-20.046034373206062,3.603367944282515,-7.847782508838978,-13.86908397498384,-35.097895010290806,3.0335937807728452,-23.06939913883915,-8.589987358645947,-27.763064851381294,-2.6725246586946136,-20.132761285310938,-11.94393373781813,14.353770576331298,-53.594764574612825,-3.4317705596641552,-11.509782623035967,-25.090774932437135,24.26730980847083,-169.69568782571605,-20.300557046757206,-10.980947563198773,-21.4475392660009,12.402638186168538,-5.664480082901556,-8.708242099032528,19.31858901354298,24.556786915032227,-20.51612768003284,38.1728775500052,-41.55290658554002,-19.940097691768422,28.11231974132714,84.50584811858087,-28.74117351775588,28.019790551991502,-14.477913357023366,-19.07824020326184,47.368910047730296,-6.917165269064648,-23.171917496894267,-99.16131190349454,10.722283985009746,-18.407844946427254,213.00141286079105,2.4541784327890785,12.260642422191601,16.759811449895523,-3.228318262238002,-23.905982347594826,-27.515973517881683,-13.044417145807007,5.571173650985959,-20.318520814152393,1.4468905348557177,-47.05271998732299,-0.4442241167409088,-7.22571186109614,-39.085506650548204,-27.500638670745637,7.903242586335036,13.247443244603732,-21.202538586498996,37.941374023046066,14.04188756440287,61.44706871048617,17.191213057421812,9.501487114267823,-36.55018278544778,-227.95901025198424,-9.50705027383588,-9.058025592681878,-8.377926981249301,-10.20547307833243,-11.21063441332805,9.621048214737769,-0.2756296681280329,14.878175362763578,-29.54991013642383,-18.306854587705075,22.595095032256463,-21.03425975169038,-10.67384725422199,7.720750704667821,-24.083594510711826,-17.210988884455038,-15.511596757161819,5.3661629974619975,1.6780893396369274,2.3068252981786115,-26.13723204121738,-5.1071910345422555,47.26317589733637,-10.200606541882628,-175.99722952464597,26.79445635768639,14.669289627322936,7.184887013967754,8.60650560653261,-2.7678399107148333,15.872468207557372,25.686106776755935,47.52345331195326,-1.851335703851203,1.1299901099476712,75.16032658268679,-15.148511436410466,14.5232140594356,-11.08502852657044,-37.78032871369638,25.486100925609236,19.389794685630445,-0.3992543762596421,44.14295107219442,56.4320015610313,-31.018692878658015,38.83927533699512,33.06023815188422,-14.64328276332801,-163.01438841652154,14.409904706508655,-24.284620268087743,14.557227278078951,-9.552075928331174,14.919004630374207,-20.209700044060764,19.59520538797483,-6.5019143223273765,3.181193784379556,-19.97792121553527,24.459222777591243,9.156589958280918,-13.773931999896595,15.39883029526123,-11.468845353020104,-4.613404649257615,-18.34990330156776,1.2607000495158434,10.014867570905004,10.316875684991958,-0.5168565665055312,4.2952762526517105,21.531941054390472,-11.309955414448577,-235.53374070853135,-16.259671794670314,-27.481846680314256,-24.54473352094705,-27.370161939695926,-12.843597827938524,111.9412474525894,-13.700589658430976,-24.173812145109274,-0.8970980101907788,4.647837921852928,-38.89360944597588,32.46246013268349,-5.99455225899183,-47.70876064080298,-11.2379227467973,-11.670746843669507,-24.469304602437806,36.51215384399755,2.2775155821280957,-32.65202869726471,-25.09511863202413,-3.0415913690353324,-21.804766310424625,-0.4504529465356383,-175.05504791006533,-15.75697199156069,5.499197436637275,-25.423026034038422,-36.86547415838496,-24.49226602913918,-8.876426828111123,-15.043750242115701,-8.744433980583686,2.1226632893128756,5.014101060059583,-41.1607850165072,23.427455019592824,-18.522604049252084,-45.20793514572099,8.7423189399702,-11.96931542227034,-21.40608718797822,-17.85310232349299,11.95484976658864,0.4692693794687511,-24.111987996741135,-18.09157586596743,21.6128457812461,-10.29882740211437,-117.41162767294702,6.30519275096138,18.255665423110315,-11.062361439970095,38.556709742662484,36.788554505624255,29.88451879355687,19.232391114647566,45.491487797437586,8.089288891214894,-6.999856884118492,10.992541459490164,66.18534477477104,-22.352349928482464,88.1249954664694,8.899989062673814,-7.294470367014999,16.390940555364622,41.32870368782539,94.45330784964202,30.60265236479875,46.271490940252626,9.820929822336431,16.315183288903796,9.587333742052934,-114.75019404435714,15.280063512324233,-24.552406009649843,-12.596633448045994,3.5158695037273127,-14.546449893530975,132.10578174862243,9.911574607376963,11.69027380882105,179.88902760871224,18.01884528014406,11.902515568951465,5.071133950075122,11.449392313262603,-77.78742552859661,104.97103244544653,28.32669544995554,-27.478409841153745,52.49185851017791,77.07839920335839,-30.15583295575901,269.10091359814396,105.53818671896259,-14.21023841396204,266.80013302486964,-90.98256666585098,-6.559396760760941,-0.2661370482823629,14.583057423798953,-1.7198092892476535,0.3833070217225891,4.7650926770049695,-1.4509190122125353,5.885239677393083,1.0537161242890127,3.798922113012288,-5.078426630524244,2.4195127167667407,-7.446329294865924,8.173160765137915,19.00431565397018,-0.21484781656690413,-8.19355037679656,10.118936722795922,4.935516175930795,-16.948325247787285,7.956037265679657,-7.110359103128838,-13.449363227501523,4.943048867594702,-146.78495671148596
biasActivation=1,1,1
[BASIC:ACTIVATION]
"ActivationSigmoid"
"ActivationSigmoid"
"ActivationSigmoid"
