encog,BasicNetwork,java,3.0.1,1,1328522471848
[BASIC]
[BASIC:PARAMS]
[BASIC:NETWORK]
beginTraining=0
connectionLimit=0
contextTargetOffset=0,0,0
contextTargetSize=0,0,0
endTraining=2
hasContext=f
inputCount=32
layerCounts=2,65,33
layerFeedCounts=1,64,32
layerContextCount=0,0,0
layerIndex=0,2,67
output=0,1,0,0,0,0,0,0,0,0,0,0,0,0,0,0,0,0,0,0,0,0,0,0,0,0,0,0,0,0,0,0,0,0,0,0,0,0,0,0,0,0,0,0,0,0,0,0,0,0,0,0,0,0,0,0,0,0,0,0,0,0,0,0,0,0,1,0,0,0,0,0,0,0,0,0,0,0,0,0,0,0,0,0,0,0,0,0,0,0,0,0,0,0,0,0,0,0,0,1
outputCount=1
weightIndex=0,65,2177
weights=0.1367065042673356,0.06022746324308288,0.013294987391826349,0.02881392356248215,0.09682553640709529,0.2396999946979241,0.045729304308770084,0.10707468806257939,-0.03494205352567677,-0.0028636981300802188,0.04508803697854078,0.04555846464817666,0.055671339307375736,0.011191440120406761,0.07996129278118931,0.13708919663011093,0.1301485044527633,0.08090406986451684,0.025529210663481173,0.1965546006324727,-0.0022307122997230694,0.17434319439147067,0.20622974527317733,0.18629962782112872,0.14296331181272812,0.24966809426666062,0.07712427493324137,0.16296884537363815,0.03174813939211068,0.0842500433440987,0.07058828092254776,0.24180891974876478,0.08147937128757704,0.16003399287431916,0.09368495516420888,-0.03711754414953846,0.14406593309862148,0.13250204600253404,0.12968832953796397,0.022239342471776866,0.08907548468322499,0.1867487404567971,0.19180079971917263,-0.012186629142796022,0.03495433716639126,0.2314269452743909,0.020079527662468146,0.005050743626191234,0.03594796007082181,0.07952608884276731,0.05506060754215329,0.0032905871274714863,0.01902515877514613,0.10115205401257228,0.15481621727527928,0.33449101208283766,0.0770930877255375,0.1345116225551465,0.1299168151089505,0.13245023870860287,-0.03754792687255905,0.14993375463089276,0.07432031112734508,-0.01730369693546102,-4.435228297655874,-29.871038081878883,-71.29530219172611,-19.33741605980989,34.007328011266324,13.666636508654081,-5.136985042940819,-93.28046763694981,42.174372407230074,-5.009378602068289,-45.75989992583425,-63.21042801597432,-11.14474341823003,32.942670589683,-72.77350695421778,-35.27777142384387,30.999399178032704,-59.80033956408947,-37.269149188790095,13.875277602954876,-3.4752699266388696,11.535669006269465,-74.4224857328223,-14.38841929471718,-39.77349386519625,-66.41184001997243,-38.66543376851546,86.78811232886284,23.035913977584404,-52.57074435030921,8.992534590757911,23.588015270936292,-18.330150733353133,-78.49493282392734,49.71869774395395,-12.054526844905444,-29.595547390820357,9.014845117564613,-40.73788496322035,2.811178640067906,48.53519170473929,-14.482595520522201,-98.85338684055412,15.029283695706125,-8.407986526159911,-8.853325492730974,-31.15646806589572,3.941633445821625,-40.44769950639425,-22.08957605870588,11.26391042452392,-37.07601937526297,0.7171811078102405,-58.73014929489099,-17.25630440612525,7.202040626272016,5.015408652449271,37.259252371296064,21.208311533526974,58.23800579311392,0.25961543083011757,-29.103861621086544,74.74293468188272,4.8137801121332275,-12.316761989934244,-38.460615883233196,-189.97184122705175,-18.699482507570348,-78.11053351631675,-0.48107813466502175,-0.12909912437739146,-32.193034794385966,-32.24809944555044,5.243743675534296,9.929126727839204,47.44618058507899,37.025826973818795,77.19106520632693,-3.5798366273719093,-2.6455045847808694,33.56329491466171,-8.79812959788736,24.810910297601037,-64.16346704180253,-3.4174079725632325,4.329110726867071,-71.10663629063943,-36.938351818181935,38.25382955914283,-80.4866737400144,-58.666703714227225,41.3406501640396,-8.380257063790099,68.97968395190863,4.968423331232606,45.66666526315981,-0.9853944441180537,23.842178207341593,10.062629927515646,-74.997265273446,101.38976554815949,63.42053856915403,76.07897518553882,28.918198973537333,25.68340255704131,46.999338348630104,-12.982629476289652,146.56197368006724,20.954978120420662,-27.577643514180107,26.06204590366482,-5.692084525387042,-0.901174466828399,-8.545082166244821,-2.899031290727687,19.294942967895246,-33.882459917283256,101.74720087595078,25.661072727627683,-24.78498479943595,1.8217883380065008,0.06062419451507748,-1.9399847914555237,55.42521871020822,20.508870515345507,22.240085054248567,40.26442098374842,51.162645257668196,44.467542535303295,75.53824042556384,15.969899729462073,31.229974943549497,-83.90734735540481,-7.719356364850619,-13.936473092690425,-12.557182493056374,-31.91428973642309,-20.820475166468828,-17.747156773076764,-0.5619857260489957,22.195187521118953,0.14154421696031788,2.7533135946300966,-11.509965875208565,-1.8734139892205168,3.4223024295650477,-9.424563296328648,14.778017734362292,-2.9841077762494055,3.920117657377579,29.261042452150257,-8.616923949138588,0.06253170923576948,13.267028781720954,-8.61101511004635,20.753519354151734,41.03764154387923,12.53683590733291,5.418362435145898,27.451044517367716,-23.315542409302665,12.62315375913999,27.53299628578854,-5.253638160520445,53.49190782923365,-109.10641887180675,-47.69022870441649,-9.800044295897834,35.326433923515374,35.145884300583184,27.136925966991555,-28.9734679648447,-7.958496060286911,-5.481533070216279,35.85651609693713,29.36471993844338,32.60172820461482,39.47526668247522,-3.282446243440223,33.67841763029237,11.151263336514445,28.49265694227218,20.027358982788705,7.982852249539324,11.649216781152075,-14.843167470704437,-9.625018678437502,17.2153678730539,-42.183512292175514,14.265479398468221,16.01460331344111,6.033799232443562,14.257768426956261,8.944812167826925,8.621293743419463,2.7225333782094974,21.979250576388946,-26.491510368207553,-71.84685087631398,-45.65685137829595,-27.311191649848293,-27.431876693961353,-42.591325212630764,-0.7606593729050719,-6.879494286357545,-48.696610623950285,33.79608884908929,-2.5500944717844085,-37.55620776308469,-1.6350135522208324,22.223011549233945,-1.0746941281902542,4.904162524579875,30.424102537814075,-14.162403243436955,-7.629326611706292,-9.393669727011753,-3.7153006239445228,19.172983967657487,13.51297661567196,-3.892816840008672,-14.754363992065354,5.466433493748217,1.9560176107425997,-59.11114095722087,25.092773738318595,6.892040143318864,-41.457409634372645,10.571412718476374,-13.707425061951652,1.16127263476837,-176.36958273860478,-38.97694468710202,57.43751552134405,25.6277900297528,214.05667071924003,-21.536585433315143,8.393122911915661,-169.8576337747062,745.9944802191285,149.15701575868653,29.50262716986207,175.1094774068802,346.16388612431854,-461.5010182798235,-1.0823915679668819,407.98438844132556,-645.4120041612514,5.044346297965412,47.407347140319146,24.616532021602826,37.24068145077287,89.61679154863748,-15.70208739145612,71.92248458293813,222.8323956121948,-92.21303062199345,393.3893214534338,80.28474548449957,-655.4540546612626,239.74948640758078,182.57667326667675,-318.10022483578393,-137.33149048571426,-47.84895573617632,-9.951827297133482,-37.826519941375274,-7.16658017683391,40.309693778341455,-33.28625138614873,22.414561472027984,-90.71043177460241,71.83698811976873,34.81645569405759,-26.220708805745673,39.16417176662426,-3.999029453293409,-10.165522569555966,-31.408259513205397,-5.4936024710006945,-26.789044231028182,-44.15951031339409,3.938111598997748,6.938913584801673,-58.125991817267085,27.38727278576623,-29.305996765684824,-43.98645683934665,-10.030095034694765,7.83542733743497,3.987538177902856,23.70769636204911,-16.91440529707303,2.082374251117714,2.963630032449688,-78.99836837529432,-48.09722378359609,-171.49157479467627,-70.80567038844728,-9.22644651414291,38.60407580793002,38.39277301076318,19.32426583720056,-16.701297506676497,-25.645315729159393,-135.50418284216423,32.67092198487572,-2.3656229731836076,-51.12202248424512,-14.268595740964367,-98.94614292611838,-3.775700102724446,-35.28494156280319,48.83577588154767,-50.775143275493456,-7.570866433773049,-23.440090099519946,24.249737437530904,34.064206428734394,-37.629421662790925,57.882750182900715,-26.877562050115753,-89.61531415976222,49.171404640987525,-24.49619393616573,-103.66445902016758,34.63296732091852,-101.86859944170871,26.375492184364077,-67.47831214909354,-62.68541916752821,80.44589847635258,-95.1018926983969,-162.1965469146214,35.80516274943176,-76.0899902094437,-72.1983354876472,-172.29430210723388,10.568893915669397,-24.496967340825865,24.52632338785265,-317.9799468267389,-28.47525204416406,17.718323165013313,-202.76567539464466,-26.245135090694415,29.846480925490628,35.820961606890805,-24.805653593967268,10.430896972194258,40.99708647581144,-28.29038474831233,23.90556595131233,-5.371119593315138,20.271523773293264,-93.18867852059596,18.963089473667377,-68.90736625926962,35.91956145834694,67.00315798815537,-5.951092575061758,-16.541786782808803,-2.6016787337235443,-35.06696239678346,-23.338452600535454,9.096981993094412,58.58491761300976,-70.80168223173536,24.038274519833053,25.242128650319092,-52.92581154590515,-67.64809347429541,33.52211654808537,-7.575380738106156,-1.3176735369846897,47.70289013771119,-38.45603452256302,1.6951944216897092,43.64494289809941,-82.25533402186792,-107.86994939930572,21.764585040992035,-28.831098158061042,-106.77329830488218,-29.153556868200983,-0.282513122594002,-167.93365855915874,0.9993630361334637,-8.2857252327506,5.86479670841153,35.84192513342956,-49.013946562953194,58.687583936415884,12.97038998429376,7.737063941147575,-59.67425458288685,-223.26952897692354,26.295857806388156,-28.378729260849887,-31.89545060357488,11.24545808180757,24.271611059541424,-24.78085864083785,-21.425650321118603,8.01329487413889,26.520833623379726,-26.322061027821842,-52.11176669417689,-32.31313375985723,23.891481839802967,-54.169757065627245,-38.25974799237899,42.62659434888127,-40.25331802068646,-43.213329511907,18.707222243839343,-5.607316016503512,-6.964991369477126,-55.27052219700427,25.70867421746443,-63.183087750083345,-1.1335159427413266,-21.150671783804643,12.46470851434796,-8.767239305578462,-42.520295527795305,-3.4559938431168207,0.26179545245046926,22.199538018502388,-17.733937264206165,-1.0156948467080358,-3.2279282358873354,-47.77679214383336,4.405175499752116,-27.411560751905554,-1.0151347825574328,-14.849411666161313,23.771772561044035,-0.7102485934512258,-27.166352750462732,-9.851318341194807,3.436782404870203,28.013248925286792,-61.751454984368415,17.7654413365252,44.47065594765755,-22.167129779345835,18.175278261469348,31.633297881421736,-11.674268151920183,28.4968447445647,-1.853216707422201,-41.997118171032184,-1.165551644838991,17.26946303463551,-69.29684676533272,4.0536722773183,26.790898327075944,-53.780356789767815,-9.818794870510082,12.387900778860587,1.4372360954267946,-142.62529941090148,4.967192169236475,-5.838003811762799,-34.0004058342927,13.518828144344551,-4.675548355110642,-15.27848185828537,-50.53019124129096,19.027093641632618,-15.389269320621501,-4.279026755498468,-46.440543526560354,-2.3488483483962277,-17.60706784610831,-35.75474408807004,-6.786857729561608,23.501919280178917,11.798259689637762,-3.9639605014524766,9.519563795830196,11.785452737172628,19.935103820470918,2.7623374964040033,-7.448842580586981,1.5113989255600904,9.366025707483674,-11.798163600281152,-32.675123023407224,-34.05278699046001,34.31462876954318,-4.976123990243754,-34.43998738572029,-38.82740600598626,-89.89822691073448,125.60749492785662,137.39360216016698,52.847938725582004,-269.40567170822817,77.74917412104875,237.70930952780165,196.56859642291758,60.499585839689225,35.1047063973823,65.31179472138486,223.69889592231337,62.43074460942292,177.090910534082,113.63735557510802,92.48381369262583,-574.3773205865049,111.89851079924237,55.575518527578474,78.27937217234822,148.70773013531453,47.75108553766697,69.46594171185819,34.94272815019105,25.06487407064311,54.21504439647819,98.72778676162007,100.97772433166207,71.22276549569652,228.21049302473722,68.03455039464268,53.31147417429077,119.55970517582236,-37.180620506672376,6.589418410285349,-6.799161170687261,-6.973056149348574,-7.354397144590983,15.195293479048209,7.488383021851807,-1.9079880335371675,-10.92082459699244,-17.55473522301294,3.6128840931770556,-18.05770471331974,-21.845868496219495,3.122183255039804,-0.8196097187819812,-30.50061769712547,5.160322717223804,3.9489353261735687,0.37219997210786737,-2.753595006230783,-3.456673777129472,12.237025121772993,2.180785545363013,-2.433355905708938,-7.695844293322813,0.36756051624949226,-2.056218070989801,-0.33533619933367814,-5.701816150015963,-20.8415823529556,-3.1360605545135787,9.175723756731513,6.930916577309927,-156.97663669123472,3.2940204727185134,-5.019408084628832,-24.310859690926105,13.199246168928182,-9.875387850050684,-9.867459155780919,24.843094292683336,-67.65388279783099,15.46697626178319,-1.6912484824503249,-48.96753589793577,-10.25890093970371,10.248585262395268,8.582530303266255,3.31806592436371,-43.622357262356914,3.963583659177776,19.025781372171167,2.173740463545724,-43.494516074891905,-1.1243769406763688,-25.719454173931002,42.335978824385315,8.103619862862427,-71.15229866288544,18.53378843660091,-24.46768470673373,144.64489986516017,-69.63006503433901,92.34478886435103,20.40000526944615,61.46067226773483,520.9595568868161,27.355741182569478,-7.243839230168359,-2.54248319886814,-41.23673847500974,-3.091015189979077,10.532906169251447,-9.544940323184095,26.187398009988797,7.050609690826637,-11.147028250992248,3.0963723618848733,1.0588896457905062,17.28963434207149,-8.455089931462307,9.986421340181733,-55.92112847378543,1.2510386768765112,-5.291054711807222,-16.437641425509295,26.48427267302216,-22.422622984561723,10.917925435302205,-0.14724681329263084,-18.345668185892027,-2.4959158020697108,2.158185110378741,-33.664142475218604,-9.0438577063948,8.406553931056417,19.17057606294977,-26.410113813929346,20.449825936964878,-36.15116253877204,53.17596188575793,54.32635191956028,-7.675928542355841,10.870946826339354,-14.454238697957642,47.72271883148977,41.73698518799276,16.615835604495622,-2.550347101093004,7.255834148083122,35.50059918187373,-22.329973790080466,58.08844495214584,-4.102818554431214,36.95149908195102,70.20429724742715,51.33489825486195,-108.49993998613473,-21.104359585959944,87.83103927689575,17.642581415111405,11.679165098515986,4.313689946727605,62.65221612251231,27.101420107349234,13.338320404181033,-105.80848987467192,11.552796299265102,68.84274659463509,-62.26913962225025,-42.39925607722964,80.30077476909933,-65.05938733620901,6.780983017439242,-12.563467108653082,-19.791639428118653,-9.596553066897778,-50.30172766538538,12.306576669012697,-1.586291967224326,-15.009999434125428,-6.202106500586369,0.38152424397051427,-7.923647818909308,-0.20714341184641585,-4.31672368175548,-2.1121466009403784,1.0658586525547151,-20.418095547895216,-5.7540466644894135,6.398212989986894,1.5240117564271713,-16.939302342965817,-2.220544853509806,18.954235031640344,-0.678899312772378,21.477398046911627,13.941853204741744,-0.2718568007472245,-0.736947493627005,8.106376340618212,0.12045639744540831,4.225676113225866,-13.695484062002214,18.480908129213045,296.8722334262626,51.67470712367563,17.684319525861103,40.079685715428546,-11.291757435532285,-31.19990650856943,31.679735581849982,68.42606674343219,5.586165817949115,-6.0570245118199155,-2.4836614268079815,45.5500937487272,8.343562200965277,41.5173475720477,10.323891607263404,72.87835122196205,71.76347630030108,30.203406558123618,24.940089625403502,-14.18401000849343,-2.05430920551201,33.704046312422065,-36.893785355197274,-47.601579913490816,-36.629448860074696,13.642411579519791,21.230594802776192,-3.113484033906531,23.948085156603863,12.185121129197091,-7.693528958503886,8.232095828746527,42.1274738977343,-83.40043935939295,42.87214410590548,14.492871501488256,34.72558864766868,8.247546082374885,-0.8616091300070092,26.302132866156526,91.44117553718048,51.66755013003863,97.70230487085419,23.711007172256956,8.986226654872633,7.235740962430217,8.68217761007608,17.38559591880276,-2.5556547827333196,22.97570628754737,21.95870050404194,79.12023012851408,27.464640104205603,1.1579621434107539,49.662812447404875,61.97534068195723,98.90718500606624,169.5146681137222,111.75908084000831,33.55824641030869,39.34246481183793,37.97802867873663,54.90396189107946,102.02817207888296,52.454297033263295,92.28463652912592,-28.56813892323101,-33.35817944218638,19.09022757222045,-6.188105926750831,28.63239724665598,5.807687231345394,-21.572384925508366,46.9378166510202,-43.44689671169139,-28.872272627329373,-6.309356945294142,-29.50637901404101,-7.366652474331159,0.7797232874032906,-13.079582814393744,-56.34083956001588,-20.59209771788559,9.697636925003527,-35.19994049058077,2.47856131950194,-28.534166578595595,-13.544341550982187,-43.87965763167359,40.65353867130248,53.57938282399898,-40.175463337425924,-37.421386487295244,-55.260864064285855,-12.375676147874362,-140.94871024081135,-14.733324736522702,-33.872082176821586,-7.856438041717652,-148.41963795805125,10.434962942203297,-21.05583641327548,-51.17637995601431,-10.263714361289118,-28.046409696852287,8.69073708916548,-23.459204523065146,30.883270454743506,-20.016220874028853,7.067227382497381,7.304115991396268,3.0365788881785516,-5.529445716584323,0.901058115822771,9.301415755246559,-15.372158408796672,-8.21498409308753,-19.21225355844253,7.2512194245714925,12.92418780001597,-31.131195037755507,21.840257484384402,-16.159717044501615,-40.84256172655122,4.627139133307379,-10.003538706652574,-20.736189690451848,-21.118545230537105,-27.669078358473886,28.530641296900633,-25.37265472961693,-0.5147408169395099,-148.64733043068824,8.669007860955992,17.284160017935296,198.98070244393784,-2.456487510192412,27.21012577486308,13.496388957005994,14.80669232969209,29.43575499116129,4.975801103865279,9.352203466659885,106.71472618377103,29.78792955769844,13.621764630739587,2.8240726474893028,9.683671807757134,43.49451647657299,3.006877411858222,32.263760594960154,5.963313928767772,-14.002062919671976,4.126185837670221,40.78011563547415,9.91882359424284,10.957133852636344,30.963944581080057,35.570536152725005,151.95810358672762,21.14326410990034,263.66875033249295,13.327069627020624,19.776720853900496,31.98940429513027,-75.62963861960245,81.90435827022169,25.291857173616833,33.01171180083758,64.70609054299601,1.6566180382509317,22.960467272002607,26.536246337573427,50.68749525801889,35.10086171900937,24.232447094898138,44.729068264576334,5.004581273177802,27.524884763692754,17.21905985654255,28.800292290844492,-10.514809710478113,37.63520780278585,-92.90362932672633,-16.064701638920184,23.67967659180265,46.47219177683299,27.748959378512094,15.262889847282963,78.07205726261,14.782352477308004,-15.691631584489011,-61.661745434508425,21.969996525147202,1.1376998094135284,-4.179151864192363,-68.13859090884453,118.76810554353942,-83.435842371722,38.0344866704321,16.61010705474819,20.629490098650137,21.025408728119597,12.43819402298994,15.55966114246386,17.929844715776827,7.619865585176277,-24.435893724721282,5.879959980156467,-11.618199400291322,-1.9647428454444624,14.242868868669046,6.950972455861321,8.789512494469559,14.390942001315848,26.357177877646812,26.89897557597117,12.43935482218708,-11.330742545425357,37.31699017411712,5.959452196846023,41.618110849472664,38.589805949106086,0.6879408282685507,23.3134266816181,50.02859591189075,19.300948022108667,63.87450454943813,26.44722063089712,25.61960558584143,27.12731106259154,-152.1004807120055,-8.948158375922818,-12.828210195643829,-10.972054362393312,4.38553209537598,31.825293276003272,7.632822857649405,-140.5512175523091,10.354414626068737,26.311867801702103,-21.883666240903644,-127.68843585739461,14.141796555358821,-3.395758683097349,8.64278849700176,-8.949869058929101,87.27032592334622,-19.822569124336187,17.516176119657324,12.127025285719446,-65.93761998670809,27.76313700204872,10.304774928251105,1.2533236779045527,2.274763439179103,-6.400353088991644,-43.777128444761814,134.36629493960407,-29.10354869581606,20.83144270479993,-89.62584161485526,-37.247003234563,18.651080498546666,135.12050234163388,14.671390674486622,43.96431675594925,-2.0211908123679927,-30.4344032456058,18.702574673950096,14.382841632228537,-54.09654526455294,-18.288978423497195,-28.447208465324067,-40.28677941852389,29.111194335623875,10.572850744043572,-37.40806003480695,-7.977371798905181,-2.825658639133449,-64.71015080099839,-1.084552725421541,10.844641436521337,5.303632336495649,-3.96534979135404,-33.27330973736474,-0.7571317861073024,39.59168510416245,12.982145271884464,7.846355007631968,5.77357799897199,-33.63131924003308,-43.753325766110166,4.942832166183118,-21.64152037092184,-1.2589764363805123,-36.67799987805421,-176.01904407920492,19.290282231823866,-67.98562619580156,-24.602199652400667,-0.0029050594692619086,-30.399077841479812,3.0571020008114087,2.4911452884414125,18.465334513985315,15.37865433272226,-22.34383703978805,46.82711806316926,4.325982500388811,-20.11417586352707,-20.265316411644342,-0.26433228593215796,-84.57991448139728,-2.800159164583237,4.1347040643446125,-9.212349821006137,-4.0341821419269985,3.4951047063732563,-7.738046035702803,-97.52666768867334,9.495794897961186,-48.43430037815681,29.451884018583964,-22.770523149277007,-24.4502621492929,-69.59117461862698,11.834784553990689,-31.69959469404624,15.80326606535016,-121.17224653244432,-23.676173657001055,-5.330341664742767,-33.24714578044402,-40.494886989198726,1.3723054296892143,-16.5247271009494,-23.064828484174264,-55.583131583976716,2.569968957462935,-19.856567666674124,-39.04624941715383,-1.8516744582887308,-18.269789595351856,-28.70150581979411,-13.74888104901762,-74.31259796332745,-5.937436577012073,-59.533349543721926,-18.377274141870704,-19.544729416117022,-35.00997005325115,-6.290240907187513,98.33026860911392,-30.328256482549666,-19.956874441505988,27.524411826126748,-14.625344395557635,-21.94022410789528,-31.41905899148433,-39.29650014413997,-15.571120212298942,-10.254080695801816,14.331795485449073,18.930066352395986,6.367060773530302,-30.284915995373066,12.852895378498742,46.2205816635191,3.998272581003499,18.10985278483954,36.13671401857066,3.700359235937924,-3.934780054181362,-8.62212667469456,-1.2234872381116433,12.193711984446605,22.491540540101376,-16.308582986235432,15.065025771403603,29.86733943141167,6.734916059487579,3.6548673785558434,24.97856928092568,10.007110054864519,20.892976823052408,9.965088326437371,-4.987186227963258,16.231750979011434,50.52590769994107,8.477729067042837,92.53270359671309,46.38054659512132,2.085594500786475,15.30894954519315,36.03578298494185,-80.85274188870925,-278.9176211063484,0.9641002409489385,23.89846573399386,-96.56906528698231,-18.851676789401385,-325.67102861379396,-88.48971957453814,40.86229907371076,-97.64137133863511,-78.6447219815872,44.93679239726878,-309.06012713859786,-321.26737550307945,37.07112216626438,59.92322151974991,-32.868248083769764,9.87054714081856,59.21038480595937,-19.290858814756827,-50.29866160399078,34.31688691033848,40.3752476316069,-48.58855679270519,-87.3952588877177,16.409029862782944,-41.387538061160704,27.753013180195108,43.0942439691161,-171.5046067185837,61.02642610569741,61.05392149738853,35.667126055007216,-178.4642210131464,4.756485688580502,-2.1539071008414585,4.552385603171201,18.908780870649327,-3.656824449659009,17.09236478768004,29.591817000718713,-28.376676910461534,20.105721870693465,14.656523306387033,-11.881339511427969,3.8771523857443064,9.457653830756565,10.659819399139831,-3.7362262181524843,21.835691406061045,-3.6402740197410304,0.8505358627485792,61.53953425012121,20.845932110092686,32.03497230310522,-13.83496884631477,30.491359770506794,-15.055605822818057,-12.902217285013467,-6.2382570158541935,-5.005489196621617,-32.61548933374817,10.139046709593734,-31.40376131608287,21.919410395194067,-17.301278221846268,-92.66704321719698,17.87168027270459,-56.172987535706916,-22.42400003543352,15.082435622370788,-113.42581371172527,-37.04900451488876,61.65210506357005,-38.96496734145036,-85.1304056578812,3.3909225169617287,49.89597430678974,60.94673504332089,-55.41819975248029,-5.7790861007582945,-61.52050048267438,65.17689062922244,-43.732256757183244,-66.99537291322349,-1.9943481222327466,88.419963251086,-33.04007227491968,-1.1015313753846623,-14.400294885648181,-87.21435126887964,79.65423433045406,41.793530095786004,-38.832662921313116,-118.10970880347844,-12.583610742322104,23.38342550821286,72.29402420281795,-13.69682349071585,-8.529917782091683,186.70192117359593,58.61591144598526,47.57612721339114,274.3912036118221,34.26325439026569,145.10778193818808,7.875517886546344,99.42042681966353,56.66965663188691,44.8603322718535,77.01105233800588,-206.63186886265174,118.3411278866379,17.15485406568717,26.03538134204172,204.51938511668277,9.848010601691392,37.812059128738284,51.465548105654804,25.812799826092043,148.8389264913729,130.00403903300642,19.114902211465203,25.491827674297017,37.09937434088417,-141.12272433898264,130.34059753593462,128.25096287417142,-18.218495697957625,97.213601576457,-28.523833833732287,71.84413113465887,49.33357015709791,-123.35056214218744,-32.946081832736276,24.28986045520854,-39.55187193387447,30.085067033705833,-19.14252067573895,-74.05149030027701,-125.32951867252176,-3.6250786867258875,-22.120472457627514,28.26250545796582,6.01799733215159,-59.33017519657044,1.6354862228690275,-77.13331321772031,23.90353657102295,-38.710521644941224,-26.659143678885865,-23.17709665907596,9.69155819042521,-52.005003131845875,-42.56061812792475,60.61423349867242,-41.11820449772806,-60.116717395807385,38.72918216528523,-64.9307464002992,-124.49174076316646,20.00755895784722,-95.62543266080647,7.999951201200987,-83.16254428265194,37.47605782138884,-4.126748546060525,-18.337994934102326,-40.28149818413571,-9.065795377354863,-15.663665674679953,-67.20779501280887,25.61634093750131,-44.55763336474779,-46.7546855769967,-22.617466251474138,-61.863020404429584,-13.282759521587948,7.300104374913026,-19.02879495764438,0.47255927592881686,58.651119912985784,-9.091427651177458,8.100842594747801,-22.03220302604252,-12.477838710324184,2.5217057414752957,-0.30567122072101943,-36.47786824668249,-29.418189801853583,15.29735437435434,-43.95748596553813,-7.037782520690251,46.43759059981969,14.75241332989738,-44.77888765513349,14.310398032282972,-12.27054872997042,-147.53817786837908,8.023948342411405,-5.398913976551259,6.662057678840128,-9.605112365187702,9.517489725577667,10.301281539892726,37.83811973171842,-78.6694804668814,47.686693299681906,3.023443556795434,-10.010203498539473,2.005458713821599,31.59578107269994,-9.712529419180807,6.774801301759112,22.549536179507594,-27.012176747262547,-15.312130234252745,25.78799906899975,-43.45959618805669,4.226418210868139,14.36347317852628,28.05135518132421,-63.45936545810254,7.90319628707379,-69.89867724714897,-29.70784605461336,13.266878458439656,-60.64336857032139,-25.842923269633573,-26.702793142643433,30.262375841932794,-172.68955870720544,-86.31871301736727,20.78427251397011,-66.94058882907778,-33.066138121173395,28.9637101090101,28.158916684305865,-73.59060446787358,-30.893474689424053,30.647139783308887,-13.62594460709772,13.221868171521436,1.6088911103290007,-52.82684279900902,-0.8462174357278579,-91.70479993873475,-45.34522028256003,7.407892167697457,-107.84171785061098,-5.769909121645358,-29.205297239269104,-148.5423640183393,-29.307216775137007,120.65119340019842,-69.12245934297049,54.60426057047812,38.01526134288385,-113.61570264690155,37.37463718170449,83.55911549357506,-67.9303096544172,-49.48712948514192,39.82944493518811,57.21219269593403,12.956891106726607,5.189174621837534,-22.31211805627371,-26.99557445154922,5.6912516865241844,6.641940394900728,3.8836710446157623,4.084322730014113,2.181360082564914,-6.92435678257636,1.8809272849368295,4.379122069555303,-4.435375897185329,-15.112855147109897,-5.112820213838172,-11.832574780947782,-6.9014741617033915,-20.730614200801515,-8.420797129940931,16.00340347484045,-19.627221092256914,-2.745118168669701,-23.576619365778615,-17.66125510411067,-20.292034900299704,-12.198688085273263,5.338872092365659,-8.748589789420805,7.352715833339937,-10.035073895409006,6.775124306823244,-30.49720329621758,-70.6334462524504,61.834977979362996,9.399627698401138,-6.280712495567139,81.55234430133255,-3.855531325368734,12.849561758915556,24.19376463319271,30.77520392300379,0.1779174638198482,46.85193073843585,39.88142273295581,-67.51269693877117,43.336341630562224,43.93511109337637,16.266499528877397,25.66071198325884,17.318034026294,-9.249544214885718,14.938212192829486,17.944223441394097,7.207211655250889,30.583227999301357,29.714729112084807,7.88674619921392,35.88354030416617,-72.30868545055456,4.536729554922238,34.65445776419705,-12.569327989309587,14.913844081676151,-19.232808281800626,20.3283812015888,-54.888695828855504,126.82256789855516,9.861138115716829,-7.24401733137166,-19.73203895935392,0.2808425392896719,-3.2944444440257468,-27.751695915398937,24.261017400470337,24.992199119973357,-7.725889319628777,-37.71379394138846,-8.747057455240316,-13.103141017972924,-21.98691877381758,9.194141730073438,-40.628055917839035,13.55341535982368,-9.832873076915737,-1.1733748688520018,-12.221706615220635,-21.476124974801042,-4.193990062656792,55.47345960871541,7.394653804674697,-5.121664243838133,-38.68380618935313,-14.782491931605287,-3.389755104378522,-9.472276737423334,12.65443207869317,-10.95637192582028,2.2861233461433197,-113.6606852811798,-63.72251484142513,17.03358122965716,-5.616550073365955,4.696950414527134,15.050363823794312,-10.213490054001705,16.07899483118285,-3.103636408264348,-14.640555488562516,-0.7053890332873005,-4.766980198767413,-9.522804467186875,4.410590454960756,14.635803364807238,16.5694491619388,24.88481889133894,-5.400231542843186,-10.78165340827578,-4.613655568183987,-1.5482438159571064,-11.101576745601136,-23.268755466722038,-15.17233598761248,36.89277118802224,-19.05571295507486,-21.76566578232134,-14.311344921161913,-2.329929894552877,-17.524820684088166,-0.14700617018545126,3.696191734177497,-12.861754628785974,-76.91797810238631,17.998214001269194,13.37273289279489,9.744884023658505,-4.939596392645541,-1.0834278884096973,14.128490780876632,32.93762009843022,10.122074739527054,3.8996431561478597,29.492931435974434,17.16139606270438,7.633007781526469,22.051490582504222,3.531478942171955,12.008636046369057,23.227445407144135,6.487326615337877,7.545683939583923,13.42087541761862,15.024039604479468,13.59476062780223,20.61884665415411,-4.200038721758031,-16.748627507108505,20.747457802808825,-2.3243274370908598,5.242833488697715,10.910355179970603,12.338728455586963,3.4143514830182804,8.444480626925877,19.24646839026784,-99.9774358005592,-58.50799681367693,14.992727222544792,134.24131021894073,-59.239456893961496,-1.1944274147376701,1.5489461425402666,-38.61217638444418,-5.684975196089255,-72.22510326513647,-27.94968808306095,96.8159885472302,-40.38372617307696,-2.892149146353467,78.90871801165352,33.11096804754837,-58.98199400183165,-25.06916963835893,-1.2115527083250173,-19.233406324666976,-32.211880875374916,66.81792662943239,6.64915683382761,-33.103869607282384,-46.956001234905045,321.5512165311567,-29.433822416374838,-23.118058967224563,-40.00385413534389,-28.943803258514073,-30.65707307033346,-31.43258453398186,-37.27723626614907,-206.09186486519954,28.041720829332252,22.100350029896145,-149.41583348153827,28.09997507742187,21.601814135063602,-22.908073721460262,2.517211969933193,-33.24548491452909,16.30666641438237,19.5402634718023,-48.57327601672108,-65.7128386108068,29.551745780103868,-82.83301593958741,-33.83295454072586,-52.70415058221688,91.70962411463705,-19.685588887041042,-0.8012026234517146,235.98000296921742,-28.51793689175002,12.464363747443647,118.83339945898186,5.172028796302225,-28.069857512801505,-7.540310566889529,-166.77750927934568,41.52799272985255,-81.07715285310817,-26.692663399623402,16.055628176368224,-42.36362594893629,-280.0648654971794,34.630925402395484,12.984219810542966,-2.5488265334462814,15.357454710756784,-10.101486108579582,10.36821414512,82.73371024838988,25.20580829726983,25.384897672717656,28.08950541861963,14.990077028482554,13.838323642137064,32.84703548287321,17.569581286582082,4.917698154799026,44.066377078001466,6.997093094585854,24.30348812446979,30.13819956612227,0.8530579332114584,0.9236124569366311,35.91516378509169,17.09819160003384,0.6345765126310133,40.940341816007624,-2.8046465167089356,8.992582634271294,31.42122113156918,30.6772539265602,13.165530027653077,26.242657142195785,73.80021514716857,-129.63805426006775,-19.855525992328108,8.373851582948173,1.8034151009555865,4.28551036519568,-28.14515818834719,20.327965242709176,-25.541291042849146,-31.626415117828756,-7.583088673079696,-7.017930327972963,-9.326570015858644,-10.333235430346877,-13.811229833030998,-6.193289982159199,8.337714340553136,14.685597111566501,-3.4949260970682086,-4.922711717007746,-13.274605619028199,3.4343861860887386,22.547377704053144,-0.26581871263479934,0.3783577408758012,7.966461056957279,-19.10378022231594,-11.094626527959308,-21.246555767958558,-11.435635624974593,4.20081145867033,-4.778543174754874,-21.554424084158132,-8.978076075192597,-161.68695440019866,10.31876992085298,17.527242190978995,54.446448631355004,16.72215007538463,77.79775400414685,-21.29146010420948,4.14222414870141,2.2572373847243963,-0.37305232495183377,26.56320892464326,-2.7710377704294533,20.49729856917607,6.783472586801733,42.19748331746003,6.858767553244899,-29.776847714762724,23.032288729007508,36.98087296776593,-19.416019640183283,-2.6309064019876356,4.076752846146758,-9.149596310010622,-22.911778852053565,45.0475422476474,15.282411387094799,59.88780720941489,21.547698346818418,-5.577048273140578,-25.132531722889237,18.897860322557346,21.449762098056976,-9.97777422604186,-176.87580558735468,9.893650940194236,-54.364911054812936,-46.410247521637935,-17.33822967691707,-59.479014674128564,-31.468603582923496,-4.98551179839016,-16.689966667272255,-33.312397886176726,-6.8398243281481435,-18.614940003238353,-2.3608777595990698,-4.696592474248703,-12.039268767332599,8.14042723945461,11.836804168924214,3.45790591453516,-15.967053931985498,20.86589231171738,25.7868170181263,18.528451961353237,-2.4187419563708263,-1.5966129761915977,-12.891719268006783,-6.219408486475234,-7.785732920555577,-8.501398602387534,-7.386041772679837,11.140636167077494,0.33259036430887967,-4.3542844016025395,6.367251971211081,-151.14097867956949,64.56252085311704,111.00705244969147,52.17181995976217,51.65446390936927,58.61407233200294,168.91670393849375,77.19863275639364,156.09902795113797,73.76687855849171,415.4116700453871,58.639871091036945,68.42068470016909,39.65242856085679,19.828806331143188,12.366909509885566,48.27564369968304,13.070948560093695,38.359651029430765,154.2627362949351,43.90489862783614,169.84863386167177,156.36890479104514,90.18478906781252,78.57570412981396,155.576387027641,126.18458114837125,157.73478654288468,426.97893601069796,88.7142797795892,44.52639267740674,-97.76766154094646,46.40946000592997,-45.31006260498021,-8.752317412297609,-11.76591849896753,-3.436086017418462,-1.8696176294755644,-9.62217375616815,30.077806887444595,9.632864424126563,2.7908239368318104,-16.450297339815315,-5.678719185703366,15.34509688834672,5.339191212136965,17.918260864419885,-6.352032600929417,6.218363880343472,3.5348407661763432,-19.900310783090987,-5.284182565229215,4.144802761090225,-6.503231331029529,-21.956631418517116,13.422815804943838,-38.11319658773054,7.137645569483802,14.842985561837809,2.7513065267670194,-15.927534923002394,8.92651851346815,-27.74747491809133,6.700126476172316,-27.626740163897995,-41.94573559945042,-161.0301131450229,-12.394137423176888,-43.49008267210666,-6.920327737490647,1.2823823906212475,-44.6154408045042,3.8765311204435724,9.847946575192157,4.446162785985633,-23.802801895018433,-21.590228218018634,-11.054774048502743,2.349279900544881,-18.523683944233664,-7.72306795049441,-10.715398585523898,24.999702582951482,-9.221235542144147,-23.497108573834296,9.173256809442691,-8.826017467261478,-13.317981693310282,4.1378772853635954,-10.371109679573204,-17.377803218475908,30.341253326348607,-4.028384283984637,4.946585129961222,24.066514072466386,-9.843164633551854,0.9324989481042945,-3.7104410761394697,-42.86875270942917,-100.3048089542502,2.489475684017703,32.95467347456385,20.397046439306166,13.411378448904546,18.07807074334324,12.96245031139,10.515240292402499,-4.314446076665841,25.717630709032598,13.040759268844573,13.598049955960569,27.02878434961255,6.1216302845690596,4.642685507729705,20.41449457392316,26.552821155173827,5.285689596846718,27.0646758374244,6.220648393029141,-9.739707609226679,17.3341377038841,9.856442441685173,15.705860320904767,7.077891293658374,-14.306005292687225,18.905611003635396,-8.45007164017073,-17.08260403143755,-40.66783719252764,31.02447693774147,12.582941540292648,-9.797740094343633,-111.84459487146832,23.94040836161871,8.039930898470223,34.5871689528748,15.72148079624146,-3.0923690184762247,2.6567034288934797,-16.836421839615973,-9.490488663634238,12.56482859419226,5.836770839996006,20.470482378180357,-3.113025192641766,-16.139413101279526,12.069426083166347,9.714076817718707,28.55804261165511,-7.65743620824672,-0.2307398221800315,-1.3160660712400871,18.289958566991544,3.34125500817022,-23.062214089812436,4.974209806002637,-7.638158964088229,-35.74785085617431,19.901500793113577,24.65598063922747,-29.208821512814133,29.280263099473327,0.48957077504309776,66.43782461617357,26.733279023498394,-162.48669014336517,-9.93624452558609,-14.190187887368854,-3.323930028380541,-8.85567477164304,-12.804467044495496,-0.5972074839265721,-11.996469758891363,-52.29616876695574,-17.079230312321034,-22.966864681717425,2.680383938751797,10.035854430231423,4.7332589308163096,-23.76328461534041,-31.637540845098762,-42.71799483097021,5.776025209106973,3.3681633758526814,-24.210385042775304,-21.75948273670398,-41.17474291813924,-31.43465202817234,3.279763463889384,-8.899577195685001,-22.285488934045333,34.81265532508229,3.066638451085271,19.331864004904695,-9.45285153089494,-2.3279766437028524,40.77079892151873,8.075122372886199,-72.06287230981597,3.3489595337616356,-6.462274457916068,27.37894254874348,-37.73817336724701,5.895028026322683,12.699428348728558,-40.68579312759181,-12.076188662856854,15.457801592806874,11.588018549528657,0.30339766195243856,6.0802413176505254,-11.989500607360782,7.37084871000481,-13.346541496180501,-79.56639972571662,-13.98283913087802,6.855107084694244,-28.90521218704195,-22.188924106305826,-44.50575981201891,-8.363919960615428,12.592039897671905,-6.962457381447751,-39.28891850067649,15.774507711533303,-34.7851462426425,-33.17326286626622,6.955188293717633,20.404422735735885,-12.96478422398658,-26.925612433390857,-134.33518051023654,49.85954678736956,-28.317633652825783,-21.74174361833805,9.21190918547526,6.362487497241826,-3.1476374040539135,16.395580265938797,40.00193174560333,-18.600525038342134,-14.660956657901345,10.400610275818668,-27.578733297239566,-8.638861295775744,7.693353896587824,-36.24408886404594,-27.67451046556899,-0.700728824418635,12.484834423971089,-30.855392302579233,-41.94492338395282,10.917579564862727,-37.449834959961876,2.0349058710723447,-25.339108596184477,12.670850061245394,8.027265810423776,-27.33929169908966,-29.017358272787927,-38.91024074884565,-30.349735222870137,24.82101954502627,-13.631139904510734,-53.145655992429305,67.9885886478777,-17.60956716142467,28.387032245208445,-11.959353630582406,4.706550961331024,-61.78413808750123,-2.2784346136770384,12.648894527868343,3.416131038732249,-4.224853774874714,-21.7512826748633,-19.21094859555399,-4.486107977904901,-13.981275689252913,-17.036766934094185,-24.134457047129537,-31.062258021189304,13.289178088656694,4.224616836785726,-36.36670083958535,-2.995880911217268,10.386167769174145,-21.874957546855175,-13.934820302107097,-17.57231193479562,17.379685690843242,-2.9368600555520623,-31.293567854987447,-6.910174930369701,7.57240062549814,-0.332559442233881,-4.7258052812547,-190.72642896470947,18.83710880934959,-7.61231376834384,-40.50045468039841,-21.80658325047876,-9.457135948231608,-21.29224342566593,-54.900727123621415,-8.197896867322022,-6.373584970775162,-33.44172156489346,-24.256828066530353,13.344599766322617,-7.193671950099475,1.1573960697341643,8.372725324198402,-17.990970533587593,7.754961484533456,10.51460305991815,-1.0736679226613937,6.771636182179605,11.902952275995315,-18.498175988378026,22.814455599923715,15.998377603864713,-12.859293781032479,8.15467976817631,11.137594476577181,-11.707700193603088,-6.862831119361898,8.646532376133953,-10.628325228754477,5.5268195318214905,-87.76070463723316,-91.90640460013378,7.901259238513164,46.821099958228146,14.030967924976363,57.17919431938349,-15.153200028876295,-48.263410111250344,-144.56108290592883,54.51021314981313,-30.700091133754817,1.7105037523315727,-18.479718168521103,-49.69873885147392,0.695650992315961,-18.753964311580678,39.623993159350775,-43.99178023402286,-3.2297397738330624,-42.493701484707294,9.507423520841845,49.87454154332347,-46.00728236604262,57.70269301080129,-24.223672956675113,-178.39563966802436,39.45279695565827,-25.857679569525683,-114.99722316782128,22.359992780474112,-75.73761895363056,1.091639175962342,-86.1592967629871,-31.076486971675664,-1.6679737632993286,4.897377560430973,-30.21216000514397,33.754574126394346,7.466745295582834,7.569061535077884,-10.046359233129072,14.785830469497936,-79.60009638870768,-15.991858144943878,-14.692438876318608,13.829949660134353,-45.56533752753366,-7.274585691634471,-5.784167463727616,-14.167431155799067,12.316054623614608,-15.399351998910843,-13.732318083255093,16.00572823264705,-5.462181212676236,1.6928498529349787,1.2005869926137456,13.640911737758183,-16.20908897868386,3.531994049382667,11.653420231920284,-25.3249656025667,5.349677586919636,-21.4444639059616,-16.916498651061303,-40.71954472273019,-108.74281770275425
biasActivation=1,1,1
[BASIC:ACTIVATION]
"ActivationSigmoid"
"ActivationSigmoid"
"ActivationSigmoid"
