encog,BasicNetwork,java,3.0.1,1,1328521081329
[BASIC]
[BASIC:PARAMS]
[BASIC:NETWORK]
beginTraining=0
connectionLimit=0
contextTargetOffset=0,0,0
contextTargetSize=0,0,0
endTraining=2
hasContext=f
inputCount=16
layerCounts=2,33,17
layerFeedCounts=1,32,16
layerContextCount=0,0,0
layerIndex=0,2,35
output=0,1,0,0,0,0,0,0,0,0,0,0,0,0,0,0,0,0,0,0,0,0,0,0,0,0,0,0,0,0,0,0,0,0,1,0,0,0,0,0,0,0,0,0,0,0,0,0,0,0,0,1
outputCount=1
weightIndex=0,33,577
weights=0.538164673647203,-0.021505493259955596,0.10887389375520254,0.07266150866424013,0.1070860845221501,0.5308535378887302,0.47972804245186795,0.531564131048303,0.04729556146560117,-0.06691680697073671,-0.08499487204579625,0.2290921453406885,0.05021505420621379,0.34691491879716896,0.4389448984588469,0.19606389331679425,0.11717492601586796,0.07330584766992775,0.25009320859095885,0.11058347883939204,0.09277024663433958,0.1429419009944584,0.2911199355425136,0.19268819784947377,0.25621797524704804,0.13800744276517704,-0.03840686954967201,0.07723609908096986,0.4235890590986511,0.15311618519234524,0.21816161182747357,0.3565261224131038,-4.440436882820056,-35.820482296126684,-0.7360364635298626,20.557391515802504,-31.653052183801808,-4.748628851225496,-52.505836355545526,0.804147792137098,-5.744051915480175,-12.938096003660245,-33.84917757463062,-16.960695172049274,-11.591210391254144,-40.577554986846046,-3.054099344342431,-3.3928252904260505,-9.762341101807271,-29.578709465047147,-2.6872828915838287,4.373059296835651,-25.096991304399218,-4.334792001525263,-4.924742853654647,-20.29771649693971,-11.573184996373927,-11.112308595817494,-9.698944968172704,-10.403208416273102,-15.92510420638348,-8.284657326280604,-6.258749778667726,-5.517228907746066,-3.089896776271125,-8.443445319975577,-48.07827736838889,-3.547763562345229,-4.801476193553891,-4.399440477622854,-1.9733365889093133,0.6868288148518276,-6.316252218021584,-4.5908639774180875,-0.46864328659534765,-8.382766824186382,-3.7850515894521215,1.3991095834198153,1.0860932444764448,9.717044948911305,-0.9018172953372835,-5.545704058856585,-0.661624864395931,-20.046047981640616,6.956358108217221,-0.6129524500386437,8.295063565667382,2.4098963360745342,5.478265248504348,9.314922918596242,0.02777969895231988,-1.318911482243073,1.193646201533888,15.898341838895378,3.2312469410454097,4.163641056372916,8.689861459206472,30.63785715550691,-0.46654615193628984,2.5011212716299838,-36.82699606043063,-9.758667726917968,-10.297303237768233,-8.470598593527145,-3.2640154501544645,-13.634883865637903,-1.298354556939607,-6.069599560901568,-9.312065063990145,-6.677396345980589,3.9413009472695566,-10.84239354802881,-10.808643374624452,-3.975681704374677,-28.17312593676878,-7.894933579138649,-5.06568556480221,6.395043012969383,-7.970772656866399,-10.50550235865792,-14.313601164463448,-4.208255144261597,-10.754362225912743,-8.698387997259797,-8.794797729968938,-7.994847227119863,-9.955767224034979,-5.269284197764621,-11.531485159127154,-10.598896266873101,-11.574576334449153,-11.779066912993311,-8.050991173541336,-10.352642302514651,-86.33221502802739,9.45370354286724,11.179840571319339,4.915686766017165,6.484259041734853,10.352927388989023,11.018434451959916,6.55630833016953,5.208752460073518,10.698215746638763,11.228276669074662,8.973370193314725,13.571608489871394,13.435870669266533,12.721860280296664,9.427769061972807,3.909607179865108,-24.103706107392725,12.18758018875429,5.046347446335446,9.12120746884884,8.597201911802603,14.95707973748327,20.750768612638886,16.909599982253667,9.77921948192353,16.830514333263476,11.47739818693511,18.057554954954842,15.334292116920626,14.361395625610756,6.985270432137158,11.502937225007887,10.429552569466948,-46.314216354170654,-14.682829069350802,-2.1171580532254737,-2.9625687396559512,2.3151210706635035,-3.7900416961126164,-17.83751918112792,-9.048416976688014,-0.683715969831886,-5.576728485078784,-18.998791931355317,8.29707480997228,2.475661777893494,-17.48308975699503,-12.41095355730457,3.0575427472828065,1.296660583117135,-65.27782268443468,1.5792607072111955,-0.7812879316070425,-9.00163423047873,-1.7263152064537532,-7.795725816119559,-3.23228712891077,-0.7985976531153297,-1.0881462787456502,-2.940779476643112,1.5137397504674266,-11.998007353302388,-7.303405437823957,-3.865572124536043,-2.7215350592370013,3.825055519831554,-4.717986276452549,-94.52166510387458,17.513220836518908,8.30321694702182,5.326314987489007,10.844909070902178,10.657304416409099,14.90271873041034,23.456760664896745,4.804888519527919,5.4242929092329994,12.14710272046117,15.058121876032763,14.306050241033056,17.214087324667815,25.009652282477045,16.974362133762245,11.741358815516087,-61.72560025255415,17.801660602374916,3.383621191592349,11.484658521128582,16.724775022082667,4.67438471267143,35.22507130696134,9.754015639148133,80.73175409300062,5.776111551285394,17.69028530312676,9.487429635195928,5.086104957368737,62.83989788211411,18.740606255609176,16.6785239800315,66.41578687406407,-68.9416365798973,10.820708411666299,5.162949395496797,3.8996323828070762,9.027424572002731,8.487279181573921,4.219422414295911,9.44663037499035,12.09527611690196,1.5583323938425546,7.573997465036469,4.117676107485861,9.486702954648521,17.311391033803137,12.357801159988632,4.903962869413664,3.6780421422335556,18.226962340898105,-3.7675193431451626,5.948489878353972,0.22769746104136118,3.816358716479087,3.3067600444098058,-0.49244859707657157,-0.2065469544605143,2.8391059765780637,5.00410620135739,-6.711534281561192,7.249275696189942,2.033598264156335,7.068434445771254,-2.5142759529099368,-0.358527960642936,1.1347522174262625,-101.8147926848719,-16.785154739937457,-10.290325821817287,-13.535206378385455,-11.732056616341396,-14.76754146281717,-17.018920882847638,-13.968977789784821,-14.842324038531416,-17.796557524923827,-8.076264183563413,-8.593805698494231,-16.462596126267666,-10.007405139718498,-10.261979062884366,-17.963015028060404,-9.454511478966142,-151.95029725934165,-2.4692511042002967,2.076566874518598,4.716670259437247,-4.59900894962349,1.7893936402909918,-0.9297576814751715,4.372192670803934,-8.405989894689014,-6.102479753623477,-2.1080720343437576,-7.170369954717776,-1.8363062113369697,-15.151271395926138,-5.231624609475314,-1.7688371207825502,-8.335057724022002,-44.95856236216471,1.9406254812299806,-7.667440745225159,4.565413322017238,0.29855373523260575,6.339081781143834,-1.4957801634274326,-4.583865426857219,-5.473116950562443,-4.571846152921287,-3.4262573302233537,-2.4201030154325838,-8.320654627320078,-14.216836730782857,-11.501091188107871,-2.448091040265978,-2.681117101607434,-35.04939186985878,4.410571460279246,-0.8077180445675649,9.340486072116251,-1.4005307671912575,10.738743123293105,-1.6865990368102266,6.0656985978676605,0.5128552667293901,2.811615961417658,3.939919107695239,11.176524735544504,3.191276148341716,10.957311290905606,9.560045232907472,3.3074974355736195,1.629335628273262,-60.3729805798794,-7.876778937250063,-15.612264374184662,-11.696624134191293,-11.831820393659301,-3.3696657907854153,-4.518063366861669,-17.18602300799451,-35.27181889936586,2.6585756174757442,-12.169091873351586,-15.465092020341173,-11.899780582521366,0.61782296513389,-13.977187632255088,0.7258593109664383,-6.711952040967966,-90.66359657883045,-4.862212093636907,-6.40901451726748,10.404645907443347,1.3364703259297994,-11.589992756481818,7.344906656354012,-0.6290296464572093,0.08917847838396592,3.2828272586423792,-1.4896079692559039,4.148545273442147,-7.833551100072314,-4.545527508152589,-3.523786322564032,-6.375601232278695,-0.2535737663212181,-88.83929782277504,-2.321900878947757,-0.9900476143282564,2.8508343143537287,-2.2959494337413338,0.9950180368668075,2.1018494546341313,2.440078685723038,4.031217123416846,-1.586830501127709,-1.9644914531367128,-5.858184118038213,-0.19805071485346382,-4.328223337512862,-0.7880479758937582,1.8966650099672595,-2.1719056070789162,-40.65551710911824,16.473288308521038,-0.044952312133357014,-2.505133753409597,12.992400649659084,5.08002599349453,11.738043045768354,17.132553152760448,18.885563444053773,14.606617174299924,6.4491560925355085,15.426531692185968,-23.32135581991196,7.362291830429985,21.714962445924353,12.022249782922536,21.369731108692648,65.78429133548373,13.620494447534808,3.4021270035322844,-10.546610125784076,7.11886738763364,6.5683162806908815,24.35449850175904,15.723374575464327,6.3373561418897735,7.051921902673181,9.46134424479121,15.533265651728946,19.193440178937013,19.65061735034402,11.325607403820445,-35.10812487359805,7.483340079516958,-49.13642722608572,11.232454114737667,1.3468238717681056,-13.50867063525709,-1.6223770589288529,-0.8115865096457466,20.564192558331808,-0.11200089511743905,3.5733182280616034,-3.802704091966787,4.67790164130514,-0.19144449232347976,3.702164291244408,18.22575911069373,7.79663898886329,-3.8509159441112644,-3.3561498730311197,-30.897512155406694,2.068567432994247,0.6044625534723183,1.5621831752570774,2.7236896015291583,0.759692338667282,-5.311265075998341,-2.3618991994126217,1.7034552137217038,2.2862154367286074,-1.7155018275227552,1.310129240037456,1.2987114302993532,-3.742584412818887,0.8971004428336334,4.359740728358902,1.4351112457431447,-4.398545893773772,-3.7168359908105173,0.3017236655368319,1.2410205209623912,-1.6958071028346402,0.10908840327112695,8.950342025780989,0.32332948405242545,-5.760247929025649,-0.27676336925524436,0.41817122601476586,-5.206499826723544,-5.3439241365447305,-2.6269203576561972,-6.391810290557003,-9.71951098359034,3.3001140003111513,-80.02444400294712,4.793105496459466,-6.39194911445012,-4.866288279821741,0.5744298287277779,-8.603952253471661,-11.258734713720719,-3.6002221682690885,-2.6827820578900807,-9.159397082836778,0.6333494744681062,-7.486211103835144,-1.8275503838028886,-4.040483214782501,2.373381808137676,5.011761333517691,-6.981077031938531,-67.80435479893558,2.498972323359033,-10.992323896164661,4.700807330809612,5.525388189006026,-14.11758477055768,7.417586429791585,5.263056430989603,-17.7536877738429,-6.89201901080744,0.9563055234850498,-17.65080254344761,-2.3750222810517245,-1.7164699944786346,-14.141089113849246,-0.21809275468293518,6.742491098697179,-41.59903956681932,12.429090964182157,7.057209110633686,1.4395190612281397,10.902142889801825,3.1396841962313555,9.716610195893946,6.899943176933416,2.609029010004646,3.0379580605906624,24.14407627549081,4.581390946660012,1.4240273815132216,10.431914780220776,9.543137385085489,12.875745930186678,10.54558694469181,-62.56948576278822,4.515581603840881,2.7495479383499157,-10.819853936283096,-2.237777088161325,-12.955543003962433,2.097620387029296,-8.968854773293753,-2.6900056317503283,3.0840096704484035,-5.090144942963555,-3.825876716980998,25.205385745127444,3.5319647029468015,-1.6218459584523237,-8.064886001689338,-11.51112179410632,44.0514446536842,5.28950238472869,-3.4506698368777573,17.010838791598903,1.3889911485690543,2.250187829548352,-31.791823167813682,2.5268292431476818,2.4513507055708788,-1.5991105250679698,6.276646022317095,4.3657859876354355,-9.9583215263603,-9.23715998853773,3.279316419024578,21.016477449038454,-2.5154666514926287,149.98665711946006,-4.9229382221578115,-1.851654526711811,-5.334809277352068,-5.0904331791899615,2.18903535904764,-2.398230986319734,-9.586129279196008,-16.736073259895925,-2.8273365464204305,-12.90015575103488,-15.57518947695376,-5.988813488873384,-2.7556292083956273,-2.4297390726212327,0.646981832901249,-10.761829216946216,-68.03959440346199
biasActivation=1,1,1
[BASIC:ACTIVATION]
"ActivationSigmoid"
"ActivationSigmoid"
"ActivationSigmoid"
